~o
<STREAMINFO> 1 39
<VECSIZE> 39<NULLD><MFCC_D_A_0><DIAGC>
~s "silst"
<MEAN> 39
 -1.163540e+01 -2.208728e+00 -3.146285e+00 -2.430362e+00 -4.004792e+00 -3.559187e+00 -5.314380e+00 -3.065370e+00 -4.319305e+00 -3.676248e+00 -3.199308e+00 -1.918334e+00 3.884849e+01 -1.241879e-01 -3.533008e-02 -1.206064e-03 3.299855e-02 -2.192039e-02 -3.334755e-02 2.803249e-02 3.251179e-02 -2.434528e-02 -2.004569e-02 5.279884e-02 5.977143e-02 -1.158324e-01 6.994659e-02 2.389096e-02 2.902272e-02 -2.535605e-02 -7.644539e-03 1.565401e-02 -2.646125e-02 -1.652666e-02 -3.969386e-03 2.562131e-03 8.383987e-03 -3.056375e-02 1.000271e-01
<VARIANCE> 39
 2.301428e+01 3.425919e+01 3.179063e+01 3.567205e+01 3.055598e+01 3.580311e+01 3.537886e+01 4.410728e+01 3.327646e+01 3.393230e+01 2.910062e+01 2.470264e+01 5.191399e+01 1.587708e+00 2.389468e+00 2.143578e+00 2.457514e+00 2.468641e+00 2.673440e+00 2.574389e+00 3.120789e+00 2.596307e+00 2.601616e+00 2.279816e+00 2.051228e+00 2.659458e+00 2.765174e-01 4.252518e-01 3.854192e-01 4.734064e-01 4.853740e-01 5.081160e-01 5.114285e-01 5.966254e-01 5.128173e-01 5.094544e-01 4.430602e-01 4.004939e-01 4.465728e-01
<GCONST> 1.183780e+02
~h "@"
<BEGINHMM>
<NUMSTATES> 5
<STATE> 2
<MEAN> 39
 -3.260676e+00 -1.180844e+01 3.726480e+00 -7.533725e+00 -1.831024e+01 -9.564160e+00 -1.009474e+01 5.139858e+00 -4.235254e+00 -2.819277e+00 -1.754917e-01 -5.861258e+00 6.747477e+01 3.471846e-01 -1.376759e+00 1.080791e+00 -1.016041e+00 -2.012372e+00 -3.389616e-01 7.201045e-01 1.833455e+00 -4.181663e-01 -2.276530e-01 6.267311e-01 -1.637489e-01 2.310303e+00 -2.719387e-01 5.410877e-01 -1.202255e-01 1.021050e-01 4.414128e-01 2.964220e-01 2.928028e-01 -6.060094e-01 -1.133399e-01 1.366962e-01 -1.012816e-02 3.898153e-02 -6.581209e-01
<VARIANCE> 39
 2.535838e+01 4.684624e+01 6.359691e+01 4.612325e+01 5.863357e+01 5.460365e+01 7.294538e+01 7.578317e+01 6.948569e+01 5.283870e+01 5.980682e+01 3.721185e+01 1.076112e+02 3.368024e+00 3.949707e+00 3.362182e+00 3.333445e+00 4.958869e+00 3.942596e+00 5.215833e+00 6.260481e+00 5.299575e+00 4.443617e+00 4.019654e+00 2.996380e+00 7.484734e+00 6.118221e-01 6.652514e-01 5.072713e-01 5.419542e-01 8.882188e-01 6.458710e-01 8.365601e-01 1.044808e+00 9.083526e-01 6.693749e-01 7.176145e-01 5.098274e-01 1.466643e+00
<GCONST> 1.391483e+02
<STATE> 3
<MEAN> 39
 -3.736537e+00 -1.226683e+01 7.406878e+00 -1.000632e+01 -2.245546e+01 -9.575657e+00 -7.967619e+00 5.575185e+00 -6.281492e+00 -1.814100e+00 2.498991e+00 -6.162825e+00 7.240640e+01 2.656162e-02 2.454510e-01 -3.095455e-02 7.509411e-02 2.084031e-01 -2.217915e-02 1.451012e-01 -1.856347e-01 -7.728000e-02 7.182263e-02 -1.320905e-01 -6.537609e-02 -2.201681e-01 6.058135e-02 2.035309e-01 -1.396133e-01 2.262530e-01 3.387693e-01 -2.342298e-03 -1.563140e-01 -2.301021e-01 7.104031e-02 -7.354239e-03 -1.714284e-01 6.060916e-03 -3.483226e-01
<VARIANCE> 39
 1.184913e+01 3.111083e+01 6.276252e+01 3.722915e+01 3.984117e+01 5.034791e+01 6.279202e+01 7.430856e+01 6.310976e+01 5.344100e+01 5.285347e+01 3.625343e+01 2.021095e+01 4.034961e-01 8.835940e-01 1.098055e+00 1.093653e+00 1.358106e+00 1.216337e+00 1.779603e+00 1.690060e+00 1.682632e+00 1.402767e+00 1.415375e+00 9.625215e-01 9.370930e-01 9.190227e-02 1.687116e-01 1.679230e-01 1.881436e-01 2.704095e-01 2.451017e-01 3.475300e-01 3.624154e-01 2.985914e-01 2.884449e-01 2.531901e-01 1.904112e-01 1.772274e-01
<GCONST> 1.023194e+02
<STATE> 4
<MEAN> 39
 -4.455739e+00 -5.474869e+00 4.982780e+00 -5.423284e+00 -1.766680e+01 -1.024308e+01 -6.575933e+00 -5.427841e-02 -5.266945e+00 -2.115107e+00 2.847708e-01 -5.120990e+00 5.946269e+01 -1.220159e-02 8.373464e-01 -4.421506e-01 6.581432e-01 1.004280e+00 2.253549e-01 -1.356059e-02 -6.484495e-01 1.786897e-01 -7.627403e-02 -4.791512e-01 4.869106e-02 -1.792495e+00 -6.228801e-02 5.851162e-02 -1.220918e-02 1.624348e-02 1.191852e-01 1.281698e-01 -6.303303e-03 -9.768635e-02 -3.726957e-03 4.200494e-02 1.155985e-03 1.428023e-02 -8.063336e-02
<VARIANCE> 39
 2.465341e+01 4.578698e+01 6.403442e+01 3.988786e+01 5.957164e+01 6.184687e+01 6.125513e+01 7.473303e+01 5.979661e+01 4.863722e+01 5.005101e+01 3.476388e+01 1.644013e+02 1.047698e+00 1.731700e+00 1.572015e+00 1.825406e+00 2.674716e+00 2.269872e+00 3.063355e+00 2.689429e+00 2.542508e+00 2.330400e+00 2.223074e+00 1.799392e+00 2.865735e+00 1.801430e-01 3.322459e-01 2.646662e-01 3.343729e-01 4.530941e-01 4.301225e-01 5.006076e-01 5.979199e-01 5.062061e-01 4.420646e-01 4.014187e-01 3.163721e-01 4.332207e-01
<GCONST> 1.210329e+02
<TRANSP> 5
 0.000000e+00 1.000000e+00 0.000000e+00 0.000000e+00 0.000000e+00
 0.000000e+00 6.579369e-01 3.420631e-01 0.000000e+00 0.000000e+00
 0.000000e+00 0.000000e+00 8.446857e-01 1.553143e-01 0.000000e+00
 0.000000e+00 0.000000e+00 0.000000e+00 7.028893e-01 2.971107e-01
 0.000000e+00 0.000000e+00 0.000000e+00 0.000000e+00 0.000000e+00
<ENDHMM>
~h "a"
<BEGINHMM>
<NUMSTATES> 5
<STATE> 2
<MEAN> 39
 -9.646638e-01 -1.300676e+01 -6.219826e+00 -1.219656e+01 -8.562996e+00 -3.186348e-02 -1.175358e+01 1.566860e+00 1.618262e+00 -2.881257e+00 -4.803297e+00 -1.032410e+01 7.142265e+01 4.479135e-01 -1.929978e+00 -1.136783e+00 -7.716304e-01 9.262370e-01 1.221038e+00 3.311323e-01 9.945493e-01 9.201360e-01 -8.620027e-01 -1.101310e+00 -1.258042e+00 1.706134e+00 -3.835953e-01 5.007377e-01 3.119884e-01 5.305075e-01 2.524915e-01 -2.345201e-01 1.730807e-01 -4.879714e-01 -4.319021e-01 -4.139293e-02 3.817328e-02 4.441741e-01 -7.493781e-01
<VARIANCE> 39
 1.744602e+01 3.411514e+01 5.140481e+01 5.011012e+01 6.635355e+01 8.343903e+01 6.142269e+01 9.144637e+01 6.318524e+01 5.480264e+01 5.841356e+01 4.093926e+01 5.045155e+01 2.329613e+00 2.265498e+00 2.889497e+00 3.212885e+00 3.844547e+00 4.101069e+00 4.061245e+00 5.259997e+00 4.178696e+00 3.494051e+00 3.917517e+00 3.191322e+00 3.499327e+00 4.482361e-01 4.731394e-01 4.746692e-01 5.455455e-01 7.057793e-01 7.235169e-01 6.975900e-01 8.979217e-01 6.964803e-01 6.198128e-01 7.422590e-01 5.471058e-01 6.779343e-01
<GCONST> 1.330222e+02
<STATE> 3
<MEAN> 39
 -1.499358e+00 -1.587035e+01 -8.174644e+00 -1.225015e+01 -5.704657e+00 2.056436e+00 -1.048031e+01 1.066012e+00 1.939016e+00 -5.390909e+00 -6.766330e+00 -1.160705e+01 7.367867e+01 6.418093e-02 1.224723e-01 2.547571e-02 1.644652e-01 2.217688e-01 -1.744913e-01 3.982295e-02 9.148238e-04 -1.357605e-01 -3.801747e-03 -1.494792e-01 2.275141e-02 -2.470435e-01 6.608904e-02 4.666626e-01 2.719590e-01 1.585238e-01 -2.326917e-01 -2.701735e-01 -1.431029e-01 -1.588849e-01 -1.544120e-01 2.521171e-01 2.340852e-01 2.040221e-01 -4.198471e-01
<VARIANCE> 39
 1.309583e+01 2.633785e+01 4.449757e+01 4.027055e+01 4.808929e+01 6.413672e+01 5.671657e+01 8.043480e+01 5.746854e+01 4.987466e+01 4.598701e+01 3.895887e+01 1.934458e+01 4.006249e-01 9.543044e-01 1.033112e+00 1.134457e+00 1.906098e+00 2.286999e+00 1.825330e+00 2.342583e+00 1.695457e+00 1.870830e+00 1.934495e+00 1.547551e+00 5.510891e-01 8.802523e-02 1.904722e-01 1.757700e-01 2.342342e-01 2.840339e-01 3.030264e-01 3.450712e-01 4.474873e-01 3.701763e-01 3.225554e-01 3.545636e-01 3.076226e-01 1.509143e-01
<GCONST> 1.058316e+02
<STATE> 4
<MEAN> 39
 -7.905381e-01 -1.053029e+01 -6.782246e+00 -9.696681e+00 -5.195049e+00 -1.278515e+00 -1.022145e+01 6.418673e-01 9.816073e-01 -3.428713e+00 -6.845226e+00 -9.824471e+00 6.465051e+01 6.672914e-02 1.570629e+00 6.808265e-01 1.068884e+00 -1.212119e-01 -5.818419e-01 -5.309300e-02 -6.133873e-01 -4.654703e-01 3.343303e-01 2.387433e-01 5.565317e-01 -2.440506e+00 -1.117007e-01 1.843405e-01 1.423914e-01 2.078434e-01 1.974129e-02 5.890182e-02 1.194825e-01 -2.458749e-01 -1.238633e-01 -5.767856e-02 -7.717051e-03 9.940185e-02 -3.030809e-01
<VARIANCE> 39
 1.810988e+01 3.334076e+01 4.578164e+01 5.169555e+01 6.377853e+01 6.939838e+01 6.046880e+01 7.384814e+01 5.817240e+01 6.038564e+01 5.681625e+01 4.280096e+01 1.003041e+02 1.149482e+00 2.176635e+00 2.047689e+00 2.441309e+00 2.869812e+00 3.000480e+00 3.096264e+00 3.404030e+00 3.161827e+00 3.011297e+00 2.982145e+00 2.366233e+00 2.803902e+00 1.993804e-01 4.109853e-01 3.454491e-01 4.752699e-01 5.191613e-01 5.201373e-01 5.522553e-01 7.130352e-01 5.635527e-01 5.737637e-01 5.779238e-01 4.457169e-01 5.837598e-01
<GCONST> 1.259175e+02
<TRANSP> 5
 0.000000e+00 1.000000e+00 0.000000e+00 0.000000e+00 0.000000e+00
 0.000000e+00 5.586617e-01 4.413383e-01 0.000000e+00 0.000000e+00
 0.000000e+00 0.000000e+00 7.830655e-01 2.169345e-01 0.000000e+00
 0.000000e+00 0.000000e+00 0.000000e+00 6.391054e-01 3.608946e-01
 0.000000e+00 0.000000e+00 0.000000e+00 0.000000e+00 0.000000e+00
<ENDHMM>
~h "b"
<BEGINHMM>
<NUMSTATES> 5
<STATE> 2
<MEAN> 39
 4.631630e+00 5.781478e+00 3.699029e+00 -2.416248e+00 -6.565016e+00 1.773836e+00 -8.075734e+00 -9.645274e+00 -8.807281e+00 -2.868490e+00 -2.460138e+00 -7.133044e+00 4.959361e+01 6.701105e-01 1.481998e+00 4.949259e-01 4.427263e-01 5.040382e-01 2.576677e-01 8.716078e-01 -3.217769e-01 -2.804885e-01 -1.685623e-01 -3.733381e-01 -1.080525e-01 -1.194597e+00 -4.042667e-01 -5.468505e-01 -2.437684e-01 -3.241357e-01 -1.875255e-01 -2.486286e-01 -3.222618e-01 2.085888e-01 2.145004e-01 5.643659e-02 1.995452e-01 1.708886e-01 7.827250e-01
<VARIANCE> 39
 2.579769e+01 3.386300e+01 2.732294e+01 3.387891e+01 3.596544e+01 4.023809e+01 4.271543e+01 4.220203e+01 5.745088e+01 3.173015e+01 4.572132e+01 2.754198e+01 5.582148e+01 2.162077e+00 2.109467e+00 2.030834e+00 2.602435e+00 2.497218e+00 2.620391e+00 3.004832e+00 2.928044e+00 3.249460e+00 2.590686e+00 2.789232e+00 2.119062e+00 4.632478e+00 3.097506e-01 4.165322e-01 3.904501e-01 4.373520e-01 4.869911e-01 4.631215e-01 5.326014e-01 5.216766e-01 6.359193e-01 4.884605e-01 5.421361e-01 4.185470e-01 4.907063e-01
<GCONST> 1.214496e+02
<STATE> 3
<MEAN> 39
 4.875342e+00 7.613884e+00 4.038663e+00 -2.100586e+00 -5.615283e+00 2.036675e+00 -6.486632e+00 -1.017876e+01 -9.711022e+00 -3.640591e+00 -2.566056e+00 -6.102947e+00 4.935976e+01 -1.339037e+00 -1.983388e+00 -1.281686e+00 -1.014687e+00 -2.545345e-02 -1.038359e+00 -1.413798e+00 5.383613e-01 1.117740e+00 2.967137e-01 1.066866e+00 8.099052e-01 3.205896e+00 -3.834775e-01 -1.166903e+00 -4.690450e-01 -7.455165e-01 -6.985953e-01 -8.922998e-02 -8.349868e-01 3.222016e-01 5.071980e-01 3.574943e-01 3.648431e-01 -1.311828e-01 1.528573e+00
<VARIANCE> 39
 2.022474e+01 2.549308e+01 2.040022e+01 2.749528e+01 3.286892e+01 3.795488e+01 3.438468e+01 4.110081e+01 4.714342e+01 2.954073e+01 4.245605e+01 2.495114e+01 4.165283e+01 2.262585e+00 3.362692e+00 3.482844e+00 5.356555e+00 3.994037e+00 4.056932e+00 3.949344e+00 3.841144e+00 5.268898e+00 3.913970e+00 4.200035e+00 2.915964e+00 5.139502e+00 4.263672e-01 4.462409e-01 6.845874e-01 7.226013e-01 6.649813e-01 8.383537e-01 6.468812e-01 9.153401e-01 1.203768e+00 8.215137e-01 7.757965e-01 7.214618e-01 4.588933e-01
<GCONST> 1.293550e+02
<STATE> 4
<MEAN> 39
 -2.763050e-01 -2.178805e+00 -2.084558e+00 -7.546690e+00 -7.165523e+00 -1.132421e+00 -1.271600e+01 -8.377529e+00 -4.544873e+00 -4.960751e-01 1.677143e+00 -4.279730e+00 6.306251e+01 -9.238231e-01 -3.338222e+00 -1.637198e+00 -2.592300e+00 -1.724721e+00 -1.465685e-01 -2.380656e+00 1.226457e+00 2.070255e+00 1.167072e+00 9.885609e-01 -6.918395e-01 4.877099e+00 3.307813e-01 2.943259e-01 4.309311e-01 9.709571e-02 -3.337958e-01 4.242399e-01 2.934499e-01 1.958844e-01 -9.237577e-02 -2.320606e-01 -5.157425e-01 -4.990056e-01 -5.164275e-01
<VARIANCE> 39
 2.471268e+01 2.735160e+01 3.372038e+01 8.741967e+01 3.384671e+01 5.613586e+01 3.869795e+01 3.681828e+01 3.806843e+01 4.452254e+01 4.075156e+01 3.036311e+01 5.685027e+01 2.557810e+00 3.834865e+00 6.520893e+00 7.265624e+00 5.373282e+00 6.620001e+00 5.132612e+00 7.156809e+00 1.032534e+01 6.636942e+00 6.447072e+00 6.375469e+00 4.445343e+00 4.516252e-01 6.149968e-01 4.821097e-01 1.292424e+00 1.070832e+00 8.582912e-01 8.855681e-01 8.248928e-01 9.224430e-01 8.907483e-01 1.115360e+00 7.011077e-01 7.386779e-01
<GCONST> 1.394442e+02
<TRANSP> 5
 0.000000e+00 1.000000e+00 0.000000e+00 0.000000e+00 0.000000e+00
 0.000000e+00 7.412769e-01 2.587231e-01 0.000000e+00 0.000000e+00
 0.000000e+00 0.000000e+00 5.039427e-01 4.960573e-01 0.000000e+00
 0.000000e+00 0.000000e+00 0.000000e+00 3.841282e-01 6.158718e-01
 0.000000e+00 0.000000e+00 0.000000e+00 0.000000e+00 0.000000e+00
<ENDHMM>
~h "c"
<BEGINHMM>
<NUMSTATES> 5
<STATE> 2
<MEAN> 39
 -7.320675e+00 3.018985e+00 1.620721e+00 -1.774713e+00 -7.591043e+00 -8.387619e+00 -8.389754e+00 -3.808389e+00 -3.977979e+00 -4.009047e+00 -3.829866e+00 -2.753210e+00 4.723449e+01 -1.819266e+00 -1.427891e-01 -7.588998e-01 -4.801657e-01 8.007801e-01 1.155330e-01 4.153695e-01 -1.703764e-01 1.769143e-01 1.559367e-01 1.404320e-01 1.062508e-01 -1.016382e+00 -5.569859e-01 -4.019521e-01 -1.977574e-01 -4.137033e-01 -7.474371e-02 1.209298e-01 -8.916657e-02 5.340568e-02 2.290981e-02 8.356059e-02 1.783765e-01 6.423171e-02 1.151207e+00
<VARIANCE> 39
 3.761885e+01 3.478638e+01 4.416799e+01 2.899883e+01 4.298254e+01 4.476299e+01 4.733650e+01 4.590062e+01 4.208707e+01 2.947732e+01 2.902189e+01 2.738609e+01 1.083953e+02 4.870661e+00 4.913776e+00 3.235719e+00 3.423193e+00 4.182992e+00 3.199558e+00 3.829443e+00 3.503513e+00 3.140372e+00 2.758522e+00 2.680453e+00 2.614864e+00 1.344168e+01 7.429971e-01 7.245411e-01 5.604109e-01 5.206515e-01 7.945369e-01 6.276944e-01 7.239817e-01 6.313882e-01 6.043851e-01 5.152593e-01 4.792996e-01 5.645082e-01 1.551452e+00
<GCONST> 1.318534e+02
<STATE> 3
<MEAN> 39
 -2.467843e+01 -1.027434e+00 -3.370043e+00 -8.841973e+00 -4.021601e+00 -5.824411e+00 -6.728144e+00 -4.000487e+00 -3.267411e+00 -1.882183e+00 -5.957035e-01 -5.487471e-01 5.957988e+01 -1.890987e+00 -4.794694e-02 2.788516e-01 -8.427020e-01 -6.768501e-01 -2.186105e-01 1.000919e-01 4.043324e-01 2.721374e-01 1.381312e-02 3.201419e-01 5.292762e-01 4.196041e+00 2.024426e+00 5.979294e-02 7.035488e-01 5.784949e-01 -7.514545e-01 -2.827307e-01 -3.724103e-01 1.633767e-01 6.948724e-02 -2.861672e-01 -3.480993e-01 -2.847951e-01 -4.633722e-01
<VARIANCE> 39
 3.258774e+01 2.856248e+01 3.035747e+01 2.563754e+01 2.759246e+01 3.534975e+01 3.317138e+01 2.555031e+01 2.300784e+01 1.981918e+01 1.892010e+01 1.482761e+01 5.451559e+01 1.193743e+01 3.076634e+00 4.950082e+00 4.062039e+00 4.282504e+00 3.812840e+00 3.795047e+00 3.759289e+00 3.190421e+00 2.510656e+00 2.634258e+00 1.845483e+00 6.548677e+00 1.482427e+00 9.165243e-01 7.761009e-01 6.939813e-01 8.225511e-01 7.976222e-01 8.060698e-01 8.946664e-01 8.212005e-01 5.447471e-01 5.320527e-01 4.637032e-01 9.323796e-01
<GCONST> 1.288153e+02
<STATE> 4
<MEAN> 39
 -1.415487e+01 -1.793923e+00 1.820290e+00 -6.551249e+00 -1.068092e+01 -9.435638e+00 -9.563807e+00 -5.631473e-01 -1.573956e+00 -4.343430e+00 -2.813632e+00 -9.105146e-01 6.743706e+01 5.631370e+00 -2.089244e+00 9.032834e-01 2.692272e-01 -2.089699e+00 -3.944164e-01 -1.951176e+00 1.070115e+00 9.333521e-01 -5.278270e-01 -7.234982e-01 -1.332905e+00 2.196306e+00 4.142138e-01 -5.199245e-01 -6.016864e-01 -2.912696e-01 3.868040e-01 6.654658e-01 -9.026955e-02 -1.873263e-01 -2.889137e-02 2.073235e-01 1.320081e-01 -4.799753e-01 -5.080850e-01
<VARIANCE> 39
 8.688639e+01 3.716047e+01 3.597432e+01 2.971227e+01 4.357910e+01 3.731145e+01 5.002541e+01 4.460696e+01 3.756202e+01 2.533894e+01 2.754929e+01 2.049433e+01 3.824817e+01 3.015448e+00 5.358338e+00 5.870343e+00 4.494441e+00 5.284795e+00 5.316042e+00 4.752716e+00 7.597004e+00 6.094666e+00 3.841707e+00 3.606828e+00 2.784004e+00 1.867909e+00 2.669098e+00 6.620183e-01 5.766375e-01 6.008270e-01 9.380279e-01 8.068141e-01 1.036035e+00 9.097267e-01 7.210659e-01 5.769140e-01 5.837358e-01 4.264630e-01 5.004166e-01
<GCONST> 1.339478e+02
<TRANSP> 5
 0.000000e+00 1.000000e+00 0.000000e+00 0.000000e+00 0.000000e+00
 0.000000e+00 8.258919e-01 1.741082e-01 0.000000e+00 0.000000e+00
 0.000000e+00 0.000000e+00 7.075716e-01 2.924284e-01 0.000000e+00
 0.000000e+00 0.000000e+00 0.000000e+00 5.995853e-01 4.004147e-01
 0.000000e+00 0.000000e+00 0.000000e+00 0.000000e+00 0.000000e+00
<ENDHMM>
~h "d"
<BEGINHMM>
<NUMSTATES> 5
<STATE> 2
<MEAN> 39
 2.467096e+00 2.522293e+00 6.322823e+00 2.363017e+00 -9.070467e+00 -6.178185e+00 -1.204943e+01 -4.587331e+00 -2.013470e+00 -3.907538e+00 -6.944654e+00 -6.540421e+00 5.101038e+01 8.673210e-01 1.347501e+00 7.573871e-01 9.374928e-01 7.722561e-01 -3.449939e-01 1.712259e-01 1.783735e-02 2.899630e-01 -2.080849e-01 -7.311186e-01 -3.134278e-01 -1.291598e+00 -5.161476e-01 -6.046093e-01 -1.590067e-01 -5.939842e-01 -1.544193e-01 4.861030e-02 -8.064613e-02 1.828842e-01 -1.664551e-01 2.157976e-02 3.960151e-01 2.346677e-01 8.473315e-01
<VARIANCE> 39
 3.006617e+01 4.461317e+01 3.823972e+01 3.033698e+01 5.278960e+01 4.042759e+01 5.518671e+01 7.758383e+01 5.264905e+01 4.080640e+01 4.288086e+01 3.401604e+01 7.822202e+01 2.639263e+00 3.045643e+00 2.427204e+00 2.886857e+00 3.915707e+00 2.860874e+00 3.705412e+00 4.871244e+00 3.635035e+00 3.005984e+00 3.299937e+00 2.485905e+00 6.192382e+00 4.787243e-01 6.650371e-01 4.046854e-01 5.312861e-01 8.155400e-01 5.905352e-01 6.934418e-01 9.363260e-01 7.627157e-01 6.490898e-01 6.696177e-01 5.500031e-01 8.442174e-01
<GCONST> 1.312241e+02
<STATE> 3
<MEAN> 39
 2.400252e+00 3.574826e+00 7.960301e+00 2.716939e+00 -7.068605e+00 -6.267197e+00 -1.158665e+01 -4.068580e+00 -2.649169e+00 -4.307282e+00 -7.151301e+00 -6.326529e+00 5.107213e+01 -2.103668e+00 -2.438761e+00 1.901698e-01 -1.812210e+00 -4.180849e-01 -3.226002e-01 -6.537867e-01 7.949212e-01 -7.366649e-01 -1.604038e-01 1.653159e+00 1.346808e+00 3.677053e+00 -4.553970e-01 -8.771117e-01 -2.115229e-01 -7.375487e-01 -1.052867e+00 -1.898898e-02 -4.255167e-01 1.674163e-01 -1.290060e-01 1.263278e-01 6.693096e-01 1.849322e-01 1.501885e+00
<VARIANCE> 39
 2.754770e+01 3.106540e+01 3.086149e+01 2.928921e+01 4.032858e+01 3.551124e+01 4.567912e+01 5.932832e+01 4.576269e+01 3.654456e+01 3.384445e+01 2.964454e+01 5.412578e+01 2.216869e+00 3.224369e+00 4.040077e+00 3.677160e+00 5.702022e+00 4.282434e+00 5.013866e+00 7.712305e+00 6.300691e+00 4.212955e+00 3.881770e+00 3.044068e+00 4.929873e+00 5.585699e-01 6.242021e-01 6.865311e-01 7.437056e-01 8.074896e-01 6.736345e-01 8.297335e-01 1.412104e+00 1.081722e+00 7.602237e-01 7.382008e-01 6.433235e-01 6.373864e-01
<GCONST> 1.340242e+02
<STATE> 4
<MEAN> 39
 -4.026645e+00 -6.980540e+00 6.074858e+00 -5.041872e+00 -1.281794e+01 -8.291342e+00 -1.541753e+01 3.684800e-02 -2.845396e+00 -4.027740e+00 -9.280416e-01 -1.410237e+00 6.688165e+01 -8.901978e-01 -2.400162e+00 -8.523263e-01 -2.210346e+00 -2.707758e+00 -1.831079e-01 -1.146400e+00 1.587276e+00 4.844390e-01 2.668964e-01 1.529509e+00 6.200703e-02 4.422857e+00 6.018528e-01 6.734331e-01 -1.989170e-01 3.335121e-01 7.626871e-02 4.558624e-01 3.505320e-01 -2.481561e-01 1.462006e-01 5.496798e-02 -5.462719e-01 -7.373907e-01 -8.701720e-01
<VARIANCE> 39
 1.921144e+01 2.661863e+01 4.383604e+01 4.381792e+01 6.872295e+01 4.792403e+01 7.394543e+01 7.037549e+01 7.187958e+01 3.276741e+01 3.287518e+01 2.580603e+01 4.611279e+01 2.999125e+00 3.625940e+00 6.454879e+00 5.010455e+00 5.850441e+00 4.512168e+00 6.515087e+00 1.079820e+01 9.461891e+00 4.795087e+00 6.080051e+00 4.230674e+00 4.766517e+00 3.022096e-01 4.941577e-01 5.336599e-01 7.862608e-01 1.703334e+00 8.090308e-01 1.346264e+00 1.195262e+00 1.102120e+00 8.109046e-01 8.955181e-01 5.940561e-01 6.193053e-01
<GCONST> 1.392877e+02
<TRANSP> 5
 0.000000e+00 1.000000e+00 0.000000e+00 0.000000e+00 0.000000e+00
 0.000000e+00 7.067851e-01 2.932149e-01 0.000000e+00 0.000000e+00
 0.000000e+00 0.000000e+00 5.013743e-01 4.986257e-01 0.000000e+00
 0.000000e+00 0.000000e+00 0.000000e+00 4.674103e-01 5.325897e-01
 0.000000e+00 0.000000e+00 0.000000e+00 0.000000e+00 0.000000e+00
<ENDHMM>
~h "e"
<BEGINHMM>
<NUMSTATES> 5
<STATE> 2
<MEAN> 39
 -6.365556e-01 -5.146474e+00 -2.634133e+00 -9.359488e+00 -1.033779e+01 -3.318744e+00 -1.545081e+01 -4.771575e+00 -2.066806e+00 3.093252e-01 -3.939327e-01 -6.980809e+00 6.733234e+01 2.140036e+00 -1.366850e+00 -2.365755e-01 -1.700014e+00 -1.333197e+00 7.277581e-01 -2.013317e+00 8.944654e-01 1.450040e+00 7.892500e-01 8.266262e-01 -1.588734e+00 2.477716e+00 -4.474593e-01 2.461168e-01 1.551578e-01 5.429531e-01 2.893992e-01 6.948841e-02 4.832734e-01 -7.246765e-02 -2.345136e-01 -1.591307e-01 -2.492017e-01 1.861027e-01 -1.037154e+00
<VARIANCE> 39
 2.468617e+01 3.078944e+01 5.019367e+01 6.582238e+01 4.856330e+01 8.258606e+01 6.316325e+01 6.817255e+01 6.681142e+01 4.739616e+01 5.581272e+01 3.602840e+01 4.797687e+01 5.892506e+00 3.037316e+00 5.763939e+00 4.989688e+00 5.785517e+00 5.997171e+00 6.176329e+00 8.318645e+00 7.702732e+00 5.050270e+00 5.306542e+00 4.130591e+00 3.676274e+00 7.139578e-01 5.725855e-01 7.418357e-01 9.167802e-01 7.497976e-01 8.308834e-01 8.871887e-01 9.165553e-01 8.717923e-01 7.228726e-01 9.503937e-01 5.888300e-01 1.109624e+00
<GCONST> 1.414969e+02
<STATE> 3
<MEAN> 39
 5.410208e-01 -8.379822e+00 -3.345400e+00 -1.123452e+01 -1.123964e+01 -1.511835e+00 -1.781730e+01 -2.224551e+00 4.526737e-01 1.007993e+00 2.730848e-01 -9.336961e+00 7.030799e+01 6.426865e-01 -5.811561e-01 1.678018e-01 5.107918e-04 -3.947226e-01 2.881320e-01 -5.238440e-01 5.568104e-01 6.536782e-01 1.805014e-01 9.116435e-03 -5.762419e-01 3.402446e-01 -5.558591e-01 7.528706e-01 3.533345e-01 9.463004e-01 4.495665e-01 -2.848796e-01 8.807631e-01 -5.825545e-01 -7.099743e-01 -3.201953e-01 -4.228865e-01 6.228013e-01 -1.292519e+00
<VARIANCE> 39
 1.693066e+01 3.192462e+01 5.392316e+01 6.648918e+01 5.261977e+01 8.528359e+01 6.628309e+01 8.329112e+01 7.612163e+01 5.807706e+01 6.187598e+01 4.608040e+01 2.741172e+01 2.032727e+00 2.197556e+00 2.434802e+00 4.145569e+00 3.493627e+00 5.051819e+00 3.668245e+00 5.947537e+00 5.591110e+00 3.798869e+00 4.105369e+00 2.971885e+00 2.336589e+00 6.144900e-01 5.123183e-01 8.798223e-01 9.050535e-01 1.008993e+00 9.536375e-01 1.051341e+00 1.259281e+00 1.229280e+00 9.616233e-01 1.041927e+00 7.348170e-01 5.726011e-01
<GCONST> 1.372095e+02
<STATE> 4
<MEAN> 39
 5.563034e-02 -7.200992e+00 -1.889737e+00 -9.936473e+00 -1.205262e+01 -3.230952e+00 -1.782541e+01 -2.196769e+00 -1.941483e-01 1.129502e+00 1.299897e-01 -9.112191e+00 6.863927e+01 1.241752e-01 7.211039e-01 4.111637e-01 9.429559e-01 2.551514e-01 -1.943870e-01 6.333470e-01 -5.660488e-01 -3.856590e-01 -2.535264e-01 -4.336571e-01 2.847495e-01 -1.247922e+00 -1.607695e-01 3.540273e-01 1.366068e-01 3.588190e-01 1.397749e-01 -7.058649e-02 3.203526e-01 -3.282499e-01 -2.687023e-01 -1.349416e-01 -1.645838e-01 2.228221e-01 -5.445932e-01
<VARIANCE> 39
 1.550791e+01 3.240540e+01 5.735812e+01 6.458004e+01 6.014186e+01 7.923808e+01 7.692542e+01 8.275127e+01 7.973716e+01 5.676251e+01 5.490395e+01 4.845639e+01 3.540949e+01 9.229292e-01 2.093761e+00 1.818349e+00 3.162660e+00 2.694782e+00 3.212471e+00 2.959315e+00 3.599318e+00 3.962473e+00 2.944136e+00 2.853705e+00 2.228319e+00 3.135515e+00 3.158189e-01 3.131852e-01 3.781203e-01 4.988107e-01 5.661505e-01 5.681287e-01 5.962922e-01 8.670884e-01 7.616947e-01 5.493736e-01 6.010839e-01 4.678524e-01 3.348378e-01
<GCONST> 1.265848e+02
<TRANSP> 5
 0.000000e+00 1.000000e+00 0.000000e+00 0.000000e+00 0.000000e+00
 0.000000e+00 2.055302e-01 7.944698e-01 0.000000e+00 0.000000e+00
 0.000000e+00 0.000000e+00 2.816764e-01 7.183236e-01 0.000000e+00
 0.000000e+00 0.000000e+00 0.000000e+00 5.886022e-01 4.113978e-01
 0.000000e+00 0.000000e+00 0.000000e+00 0.000000e+00 0.000000e+00
<ENDHMM>
~h "f"
<BEGINHMM>
<NUMSTATES> 5
<STATE> 2
<MEAN> 39
 -6.151573e+00 -1.187393e+00 -8.006154e-01 -2.786571e+00 -5.276836e+00 -2.389921e+00 -7.376499e+00 -3.684178e+00 -4.353194e+00 -1.888441e+00 -2.110372e+00 -3.577933e+00 6.011108e+01 -3.507708e+00 6.074695e-01 -3.872032e-01 1.550745e+00 1.421647e+00 -5.605125e-01 7.116802e-01 2.570264e-01 1.020108e+00 -1.410218e-01 -2.810310e-01 6.036857e-01 -1.416298e+00 -4.406288e-01 -6.309836e-01 -1.021033e-01 -3.323152e-01 -6.179815e-01 -1.518314e-01 -3.797396e-01 -2.458955e-02 -3.493935e-02 6.148988e-02 1.188841e-01 -5.982787e-02 2.253212e-01
<VARIANCE> 39
 5.373162e+01 2.469120e+01 4.363189e+01 5.424065e+01 4.165811e+01 6.482932e+01 3.569437e+01 4.229554e+01 4.102359e+01 2.935568e+01 3.524943e+01 2.610171e+01 5.786486e+01 2.930561e+00 4.461024e+00 4.142824e+00 4.555294e+00 6.402978e+00 5.445779e+00 4.266533e+00 5.140199e+00 4.451058e+00 3.777677e+00 3.930099e+00 2.787890e+00 2.534847e+00 7.981646e-01 4.649031e-01 4.398305e-01 7.208768e-01 7.672756e-01 7.145523e-01 6.538321e-01 7.214020e-01 8.138852e-01 5.753694e-01 5.974535e-01 4.184302e-01 2.457549e-01
<GCONST> 1.310872e+02
<STATE> 3
<MEAN> 39
 -1.998033e+01 -5.740192e+00 -4.752891e+00 -1.292100e+00 -5.441817e+00 -5.173971e+00 -8.518767e+00 -3.055586e+00 -2.096191e+00 -1.427500e+00 -1.512637e+00 -1.588618e+00 5.754913e+01 -7.458404e-01 -6.061457e-01 -3.984056e-01 -1.032907e-01 -1.185692e-01 -1.429529e-01 -9.788515e-02 1.027729e-02 4.669335e-02 5.083438e-02 8.198643e-02 1.024001e-01 -1.905566e-01 7.477902e-01 1.155987e-01 1.451271e-01 -1.415715e-01 -5.001625e-02 1.312866e-01 4.206369e-02 -2.041174e-02 -1.293102e-01 -3.626407e-02 -2.988457e-03 -1.228268e-01 1.478570e-01
<VARIANCE> 39
 2.244173e+01 1.969044e+01 2.680004e+01 2.033080e+01 2.114591e+01 2.722293e+01 2.390985e+01 2.292243e+01 2.011566e+01 1.859800e+01 1.917021e+01 1.717317e+01 3.853316e+01 2.326194e+00 1.223322e+00 1.624929e+00 1.545751e+00 1.726731e+00 1.969073e+00 1.884168e+00 1.831893e+00 1.841816e+00 1.688103e+00 1.540506e+00 1.443727e+00 1.248663e+00 4.601013e-01 2.889031e-01 3.527583e-01 3.987277e-01 4.435774e-01 4.475471e-01 4.013187e-01 4.281072e-01 4.594682e-01 3.989311e-01 3.431309e-01 3.375860e-01 2.179555e-01
<GCONST> 1.059553e+02
<STATE> 4
<MEAN> 39
 -1.590982e+01 -5.744143e+00 -5.691930e+00 -2.937603e+00 -5.202775e+00 -4.074854e+00 -7.302116e+00 -3.624987e+00 -3.082828e+00 -2.089100e+00 -1.947843e+00 -2.426527e+00 5.257709e+01 2.861367e+00 3.181773e-01 2.537234e-01 -9.346796e-01 -6.224343e-01 4.271538e-01 -1.677602e-01 -1.716044e-01 -3.937856e-01 -2.008922e-01 5.089634e-02 -6.133980e-01 8.788345e-01 6.109904e-01 4.527156e-02 1.651462e-01 -3.022688e-01 -3.723930e-01 1.596421e-01 -1.869861e-01 -2.591865e-02 -1.091449e-01 -2.007475e-02 1.198786e-01 -1.537606e-01 3.627462e-01
<VARIANCE> 39
 4.542049e+01 2.680162e+01 2.739731e+01 2.654409e+01 2.454710e+01 3.255394e+01 2.664956e+01 2.470209e+01 2.339897e+01 2.068002e+01 1.954703e+01 1.791109e+01 1.104910e+02 9.139733e+00 3.307375e+00 3.717044e+00 5.009109e+00 3.381200e+00 4.638977e+00 3.003800e+00 3.314080e+00 3.103088e+00 2.641539e+00 2.419866e+00 2.669118e+00 5.065688e+00 1.098636e+00 5.338446e-01 5.076393e-01 6.794491e-01 6.430024e-01 6.672139e-01 5.458204e-01 5.718731e-01 6.232131e-01 4.970906e-01 4.748716e-01 4.619106e-01 5.035494e-01
<GCONST> 1.252809e+02
<TRANSP> 5
 0.000000e+00 1.000000e+00 0.000000e+00 0.000000e+00 0.000000e+00
 0.000000e+00 6.791532e-01 3.208468e-01 0.000000e+00 0.000000e+00
 0.000000e+00 0.000000e+00 8.420483e-01 1.579517e-01 0.000000e+00
 0.000000e+00 0.000000e+00 0.000000e+00 6.980558e-01 3.019442e-01
 0.000000e+00 0.000000e+00 0.000000e+00 0.000000e+00 0.000000e+00
<ENDHMM>
~h "g"
<BEGINHMM>
<NUMSTATES> 5
<STATE> 2
<MEAN> 39
 2.536392e+00 4.446824e+00 6.947385e+00 -4.716367e-01 -1.089969e+01 -6.136263e+00 -9.679218e+00 -5.686121e+00 -7.689951e+00 -6.584644e-01 -3.431138e+00 -8.259774e+00 5.181358e+01 -2.820994e-01 6.941891e-01 1.704075e-01 7.720927e-01 8.093788e-01 -4.292156e-01 5.893549e-01 -1.531829e-01 4.747251e-02 -1.572522e-01 -4.322756e-01 2.849351e-01 -9.771267e-01 -5.903377e-01 -6.880683e-01 -4.540374e-01 -4.494224e-01 1.725017e-01 3.830112e-02 -2.730355e-01 2.007539e-01 7.775171e-02 2.008995e-02 1.424250e-01 2.994537e-01 1.056772e+00
<VARIANCE> 39
 2.212177e+01 3.957818e+01 4.488262e+01 3.986630e+01 5.490255e+01 5.632707e+01 5.602611e+01 6.091816e+01 5.376234e+01 3.957773e+01 4.275204e+01 3.552679e+01 6.352832e+01 3.610666e+00 4.194846e+00 4.373694e+00 3.321095e+00 5.490342e+00 4.159145e+00 4.006949e+00 4.375445e+00 4.428987e+00 3.223758e+00 3.084507e+00 3.241858e+00 6.935440e+00 4.257377e-01 5.557065e-01 6.404981e-01 4.825044e-01 9.134230e-01 7.006093e-01 8.090407e-01 7.729760e-01 9.047037e-01 6.329637e-01 6.248510e-01 5.729669e-01 8.368652e-01
<GCONST> 1.342434e+02
<STATE> 3
<MEAN> 39
 -5.581981e+00 -5.454439e-01 1.028141e+00 -3.438567e-01 -3.080733e+00 -6.746069e+00 -9.961583e+00 -4.860726e+00 -8.054372e+00 -3.776053e-01 -4.895464e+00 -3.295603e+00 5.802808e+01 -1.677706e+00 -1.960610e+00 -1.164414e+00 -1.291648e+00 -1.482544e-01 -7.269566e-01 -1.330146e+00 7.855803e-01 -1.162641e-01 2.502100e-01 1.074794e+00 1.047229e+00 3.860325e+00 7.000542e-01 1.654878e-01 5.551028e-01 -5.125593e-01 -1.447921e+00 1.695991e-01 -3.358976e-01 1.479802e-01 2.290334e-01 -7.731573e-02 6.049554e-01 -4.833677e-01 2.151280e-01
<VARIANCE> 39
 3.972893e+01 5.117665e+01 7.792824e+01 4.206716e+01 6.682925e+01 6.137058e+01 5.403715e+01 4.714360e+01 4.366149e+01 3.225232e+01 3.117626e+01 2.811623e+01 7.912947e+01 3.892079e+00 4.994905e+00 7.802839e+00 4.050601e+00 1.054373e+01 5.256977e+00 4.982034e+00 5.977069e+00 5.603201e+00 3.931354e+00 4.619100e+00 3.536039e+00 4.321801e+00 5.783311e-01 1.042927e+00 1.134466e+00 8.101501e-01 1.329042e+00 9.791430e-01 9.797086e-01 1.018798e+00 1.013179e+00 7.607173e-01 7.586809e-01 7.320974e-01 1.031787e+00
<GCONST> 1.419819e+02
<STATE> 4
<MEAN> 39
 -3.684328e+00 -3.622255e+00 3.301837e+00 -5.177809e+00 -1.434505e+01 -9.799129e+00 -1.498305e+01 -5.643042e-01 -6.104156e+00 -6.698095e-02 1.742722e+00 -4.625152e+00 6.763471e+01 6.627213e-01 -1.233810e+00 -2.666802e-02 -2.077322e+00 -2.591135e+00 6.212034e-01 -7.833240e-01 1.644924e+00 1.420474e+00 -1.550880e-01 1.095065e+00 -1.028026e+00 2.172981e+00 3.261651e-01 8.556573e-02 -1.227604e-01 8.983333e-02 4.434245e-01 6.326367e-01 4.698020e-01 -1.326664e-01 2.301482e-01 -1.450198e-01 -6.591890e-01 -4.140115e-01 -6.856774e-01
<VARIANCE> 39
 1.888654e+01 3.617121e+01 6.627304e+01 4.692163e+01 7.855052e+01 6.479337e+01 6.622534e+01 8.256091e+01 6.302214e+01 4.645237e+01 5.334898e+01 3.174666e+01 4.937504e+01 1.959520e+00 2.818166e+00 4.843783e+00 3.512999e+00 7.423891e+00 4.477575e+00 5.212619e+00 6.400980e+00 7.157344e+00 3.629813e+00 5.741553e+00 3.635399e+00 2.075210e+00 4.146352e-01 4.122778e-01 7.735519e-01 4.868747e-01 1.693815e+00 7.573977e-01 8.042690e-01 9.411245e-01 8.636744e-01 6.139772e-01 8.878416e-01 5.856345e-01 3.376768e-01
<GCONST> 1.361375e+02
<TRANSP> 5
 0.000000e+00 1.000000e+00 0.000000e+00 0.000000e+00 0.000000e+00
 0.000000e+00 7.614703e-01 2.385297e-01 0.000000e+00 0.000000e+00
 0.000000e+00 0.000000e+00 5.602827e-01 4.397173e-01 0.000000e+00
 0.000000e+00 0.000000e+00 0.000000e+00 4.891184e-01 5.108816e-01
 0.000000e+00 0.000000e+00 0.000000e+00 0.000000e+00 0.000000e+00
<ENDHMM>
~h "h"
<BEGINHMM>
<NUMSTATES> 5
<STATE> 2
<MEAN> 39
 -4.763768e+00 -5.426170e+00 -2.243684e+00 -4.199422e+00 -3.410634e-01 9.099324e-01 -5.136004e+00 -6.799575e-01 -3.681768e+00 -3.224462e+00 -5.520545e+00 -4.486889e+00 6.373415e+01 -1.158944e+00 -4.849747e-02 1.501725e-01 1.217099e+00 1.717792e+00 4.576195e-01 1.028389e+00 2.546589e-01 4.151804e-01 -2.322572e-01 -5.771100e-02 6.472206e-01 -1.012310e+00 -9.093194e-03 -3.249096e-01 -9.694791e-02 -4.045928e-01 -4.740842e-01 6.119404e-03 -3.220719e-01 -9.025057e-02 6.576422e-02 5.645457e-02 1.929329e-01 -1.400533e-01 8.330917e-02
<VARIANCE> 39
 2.459565e+01 3.901288e+01 5.328500e+01 5.335570e+01 7.153699e+01 6.165155e+01 5.889474e+01 6.430969e+01 5.643090e+01 4.980797e+01 5.055892e+01 3.866096e+01 6.281433e+01 1.739058e+00 3.149871e+00 3.861503e+00 3.193691e+00 4.060742e+00 3.693543e+00 3.752266e+00 4.067623e+00 3.668384e+00 3.372328e+00 3.314603e+00 2.744450e+00 1.909939e+00 2.105480e-01 3.648317e-01 3.793025e-01 4.795614e-01 5.865284e-01 5.622527e-01 6.176589e-01 6.985454e-01 5.639791e-01 5.172513e-01 5.022338e-01 4.399722e-01 1.915503e-01
<GCONST> 1.271886e+02
<STATE> 3
<MEAN> 39
 -9.290868e+00 -9.149960e+00 -4.386856e+00 -4.377119e+00 2.700237e+00 2.316226e+00 -4.684268e+00 -7.762753e-01 -1.119418e+00 -3.203870e+00 -4.488505e+00 -3.388529e+00 6.108354e+01 -4.136999e-02 -1.223954e-01 -3.411125e-01 -4.479824e-01 -4.294192e-01 -3.206179e-01 -3.081924e-01 -2.379883e-01 -1.162410e-01 5.253326e-03 5.860198e-02 -6.504171e-02 -4.756625e-01 3.644924e-01 1.615374e-01 2.001820e-02 -2.451577e-01 -4.630389e-01 -1.482746e-01 -2.347877e-01 -1.343348e-01 -1.810938e-01 -2.452991e-02 -9.406771e-03 -1.708843e-01 6.652129e-02
<VARIANCE> 39
 4.010841e+01 4.767991e+01 4.697073e+01 4.499460e+01 6.153701e+01 5.479373e+01 5.566637e+01 4.820489e+01 4.788503e+01 4.455703e+01 4.196346e+01 3.283873e+01 7.095963e+01 2.494076e+00 2.759245e+00 2.466137e+00 2.446290e+00 2.897395e+00 2.686428e+00 3.001554e+00 2.952485e+00 2.737544e+00 2.524693e+00 2.414683e+00 2.215602e+00 3.415488e+00 3.173103e-01 4.027781e-01 4.198744e-01 5.047700e-01 5.330434e-01 5.095565e-01 6.215999e-01 5.642809e-01 5.282189e-01 5.072570e-01 4.730294e-01 4.199479e-01 2.270243e-01
<GCONST> 1.244864e+02
<STATE> 4
<MEAN> 39
 -1.034776e+01 -6.912552e+00 -6.112708e+00 -5.711511e+00 -2.669171e+00 -2.163552e+00 -6.781152e+00 -3.599514e+00 -4.044745e+00 -4.838013e+00 -3.604133e+00 -3.332078e+00 4.801465e+01 1.841293e-01 2.023847e-01 4.736388e-03 -9.970051e-02 -3.246467e-01 -5.951288e-02 -7.086086e-02 -1.456388e-01 -9.269505e-02 7.861180e-03 3.187441e-02 -1.011809e-01 -2.636034e-01 4.590572e-02 1.109269e-02 5.979303e-02 8.922779e-03 -3.015824e-02 4.491822e-02 -9.919585e-03 2.015574e-02 1.141304e-02 8.528649e-03 8.402764e-03 -2.553052e-02 1.010117e-01
<VARIANCE> 39
 3.368291e+01 5.345387e+01 3.970020e+01 3.196023e+01 4.066087e+01 3.972070e+01 4.144449e+01 3.553603e+01 3.436645e+01 3.157348e+01 2.904687e+01 2.523314e+01 1.594077e+02 1.263430e+00 1.659214e+00 1.497077e+00 1.541201e+00 1.877310e+00 1.825343e+00 2.074348e+00 1.962039e+00 1.970671e+00 1.866809e+00 1.755686e+00 1.733821e+00 2.119680e+00 1.634473e-01 2.377760e-01 2.248624e-01 2.578999e-01 3.061570e-01 3.178744e-01 3.653725e-01 3.591042e-01 3.679568e-01 3.403715e-01 3.252755e-01 3.023470e-01 1.406285e-01
<GCONST> 1.102231e+02
<TRANSP> 5
 0.000000e+00 1.000000e+00 0.000000e+00 0.000000e+00 0.000000e+00
 0.000000e+00 5.442348e-01 4.557652e-01 0.000000e+00 0.000000e+00
 0.000000e+00 0.000000e+00 6.581779e-01 3.418221e-01 0.000000e+00
 0.000000e+00 0.000000e+00 0.000000e+00 8.047636e-01 1.952364e-01
 0.000000e+00 0.000000e+00 0.000000e+00 0.000000e+00 0.000000e+00
<ENDHMM>
~h "i"
<BEGINHMM>
<NUMSTATES> 5
<STATE> 2
<MEAN> 39
 -6.569415e+00 -1.182118e+00 1.317799e+01 -2.698312e+00 -1.733619e+01 -8.799937e+00 -1.252601e+01 -6.308418e+00 -1.184156e+01 -3.921234e+00 1.637037e+00 -3.941832e+00 6.371933e+01 7.306493e-01 -7.697132e-02 2.964726e+00 -5.090315e-01 -3.105978e+00 3.095186e-01 -1.503195e+00 -4.263298e-01 -1.809385e+00 -1.336738e-01 1.351261e+00 -4.644040e-01 1.849993e+00 -7.342942e-02 9.063664e-02 -5.412418e-01 -1.758548e-01 3.045297e-01 4.354905e-01 9.402663e-02 4.293712e-02 4.111851e-01 2.186946e-01 -1.811482e-01 -9.994777e-02 -4.748750e-01
<VARIANCE> 39
 3.203098e+01 3.992553e+01 5.373300e+01 4.561047e+01 5.166772e+01 5.297444e+01 5.754196e+01 6.577752e+01 5.074934e+01 4.645200e+01 3.720853e+01 3.212061e+01 6.325926e+01 5.886827e+00 3.011994e+00 4.982064e+00 4.579646e+00 4.579813e+00 5.012083e+00 6.582605e+00 6.001440e+00 5.601507e+00 4.946401e+00 3.738670e+00 3.393134e+00 3.820203e+00 6.979539e-01 5.937632e-01 9.026078e-01 6.142213e-01 1.075113e+00 7.498584e-01 9.205642e-01 1.007482e+00 8.625185e-01 6.511422e-01 6.251737e-01 4.773162e-01 8.513612e-01
<GCONST> 1.380937e+02
<STATE> 3
<MEAN> 39
 -5.987883e+00 -1.645286e+00 1.835433e+01 -6.050110e+00 -2.321503e+01 -4.968719e+00 -1.667742e+01 -6.345124e+00 -1.490072e+01 -2.627569e+00 4.172737e+00 -6.203380e+00 6.709683e+01 1.903016e-01 1.110206e-01 -3.303508e-01 -1.872580e-02 4.036150e-02 -6.984702e-02 1.829460e-01 1.424191e-01 2.573766e-01 1.450452e-01 -3.682386e-02 -1.141213e-03 -1.625109e-01 6.347675e-02 1.181874e-01 -6.249905e-01 2.460800e-01 7.084440e-01 -2.212342e-01 3.964396e-01 9.258798e-02 4.318831e-01 -4.425967e-02 -3.553007e-01 1.049610e-01 -4.599443e-01
<VARIANCE> 39
 1.561386e+01 2.871593e+01 4.089475e+01 4.958840e+01 2.825985e+01 5.810857e+01 4.695217e+01 6.426717e+01 5.080846e+01 6.324139e+01 4.426006e+01 4.236271e+01 2.260328e+01 9.013391e-01 1.577148e+00 2.386520e+00 1.921841e+00 2.693663e+00 2.736690e+00 2.798655e+00 2.930783e+00 2.548910e+00 2.158749e+00 1.928193e+00 1.548509e+00 1.334452e+00 2.309220e-01 2.870596e-01 3.764931e-01 3.698039e-01 5.775778e-01 4.925165e-01 5.777730e-01 5.887861e-01 5.610151e-01 5.059018e-01 4.642616e-01 3.522825e-01 2.908634e-01
<GCONST> 1.172818e+02
<STATE> 4
<MEAN> 39
 -5.931870e+00 2.694594e+00 1.354986e+01 -3.399788e+00 -1.771453e+01 -6.837254e+00 -1.138415e+01 -9.284020e+00 -1.018428e+01 -3.607810e+00 5.840015e-01 -4.432041e+00 5.864032e+01 1.536693e-01 3.543766e-01 -1.173947e+00 3.928744e-01 1.166122e+00 -1.075706e-01 6.710869e-01 1.317727e-01 7.341844e-01 -2.078649e-02 -6.394454e-01 9.901091e-02 -1.654809e+00 -7.807744e-02 -8.423529e-02 -1.071923e-01 -2.260632e-02 1.182877e-01 1.343882e-01 -4.874184e-02 3.223642e-03 7.420801e-03 9.546166e-03 -5.533980e-02 -2.201806e-02 -3.877898e-02
<VARIANCE> 39
 2.149190e+01 3.644741e+01 4.542390e+01 4.532093e+01 4.622481e+01 8.121094e+01 5.081647e+01 6.942205e+01 4.246958e+01 4.719144e+01 4.203022e+01 3.740891e+01 1.018896e+02 1.558315e+00 2.058350e+00 2.455777e+00 2.117628e+00 3.386162e+00 2.602196e+00 3.221851e+00 3.387152e+00 3.230603e+00 2.486322e+00 2.511843e+00 2.026485e+00 3.590667e+00 2.184409e-01 3.059261e-01 3.134574e-01 3.344237e-01 5.641786e-01 5.267986e-01 5.103424e-01 5.792481e-01 4.557433e-01 4.315403e-01 4.291021e-01 3.528717e-01 4.195523e-01
<GCONST> 1.225505e+02
<TRANSP> 5
 0.000000e+00 1.000000e+00 0.000000e+00 0.000000e+00 0.000000e+00
 0.000000e+00 5.949482e-01 4.050518e-01 0.000000e+00 0.000000e+00
 0.000000e+00 0.000000e+00 7.837229e-01 2.162771e-01 0.000000e+00
 0.000000e+00 0.000000e+00 0.000000e+00 7.499438e-01 2.500562e-01
 0.000000e+00 0.000000e+00 0.000000e+00 0.000000e+00 0.000000e+00
<ENDHMM>
~h "j"
<BEGINHMM>
<NUMSTATES> 5
<STATE> 2
<MEAN> 39
 -1.067690e+00 6.712140e+00 9.244467e+00 5.182983e-01 -9.969616e+00 -6.898051e+00 -9.117825e+00 -2.115286e+00 -5.116660e+00 -5.806800e+00 -2.992761e+00 -3.761467e+00 5.256805e+01 -7.694696e-01 9.014635e-01 2.605799e-01 2.933292e-02 1.104461e+00 1.790274e-01 7.808152e-01 -3.816028e-02 3.201650e-01 -2.018456e-03 -2.352963e-01 2.019732e-02 -6.247073e-01 -6.822739e-01 -4.406980e-01 -2.392391e-01 -3.437501e-01 3.166471e-02 4.180086e-02 -1.832381e-01 -1.787938e-01 -8.196374e-02 1.387403e-01 1.766243e-01 1.405931e-01 8.443379e-01
<VARIANCE> 39
 3.143094e+01 3.599850e+01 3.713279e+01 2.951942e+01 4.659710e+01 4.399795e+01 4.824186e+01 4.551051e+01 4.360769e+01 3.227107e+01 2.785765e+01 2.602034e+01 8.284441e+01 7.229641e+00 3.976726e+00 3.311296e+00 3.261194e+00 4.315312e+00 3.390487e+00 4.140518e+00 4.246940e+00 3.755815e+00 3.044399e+00 2.668580e+00 2.455794e+00 8.656631e+00 1.034221e+00 5.569768e-01 4.839593e-01 4.866506e-01 8.150010e-01 6.517794e-01 7.079282e-01 7.277919e-01 7.561951e-01 5.562118e-01 4.962139e-01 5.244867e-01 1.131698e+00
<GCONST> 1.316617e+02
<STATE> 3
<MEAN> 39
 -1.612856e+01 5.550355e+00 7.564803e+00 -3.128980e+00 -4.537792e+00 -5.936993e+00 -7.872992e+00 -5.590541e+00 -6.317616e+00 -4.251437e+00 -1.507455e+00 -9.143291e-01 6.234404e+01 -1.230160e+00 -1.276850e+00 7.272614e-01 -4.226682e-01 -2.076940e+00 -1.299384e+00 -1.199851e+00 -3.975134e-01 -6.334544e-01 -1.803915e-01 1.182780e+00 1.134651e+00 3.521282e+00 1.734650e+00 -4.855050e-01 1.505072e-01 1.485375e-01 -1.199046e+00 -2.748959e-01 -5.985127e-01 5.479678e-01 1.597531e-01 -1.015100e-01 1.523259e-01 -2.378956e-01 -2.950454e-01
<VARIANCE> 39
 4.291754e+01 3.394707e+01 4.207894e+01 2.786832e+01 4.813972e+01 4.644254e+01 3.387930e+01 2.546888e+01 2.471280e+01 1.966817e+01 1.813904e+01 1.834104e+01 3.709335e+01 1.384776e+01 3.719887e+00 4.135798e+00 4.240515e+00 8.157022e+00 3.942747e+00 4.143999e+00 4.359123e+00 3.911836e+00 2.614619e+00 2.470201e+00 2.061043e+00 2.974800e+00 9.918973e-01 8.579036e-01 9.299878e-01 7.662456e-01 1.293431e+00 9.581724e-01 7.424290e-01 1.128375e+00 9.173211e-01 5.479724e-01 5.418499e-01 5.620786e-01 5.638745e-01
<GCONST> 1.314092e+02
<STATE> 4
<MEAN> 39
 -6.100086e+00 -3.282232e+00 1.012613e+01 -4.618775e+00 -1.871991e+01 -1.185510e+01 -1.576135e+01 -4.683271e-01 -5.866411e+00 -4.985417e+00 3.002238e+00 5.580598e-01 7.063367e+01 2.575829e+00 -2.962144e+00 -1.486615e+00 -1.132782e+00 -1.774806e+00 1.853006e-01 -1.559460e+00 2.452419e+00 1.450343e+00 5.433692e-01 5.573783e-02 -1.258876e+00 1.459032e+00 -1.919207e-01 2.993922e-01 -8.503194e-01 -2.093969e-01 1.355285e+00 9.096875e-01 6.350080e-01 -3.999359e-02 3.309977e-01 2.107890e-01 -7.065910e-01 -7.232159e-01 -6.590255e-01
<VARIANCE> 39
 1.490214e+01 3.305872e+01 3.450783e+01 5.120782e+01 3.142726e+01 2.824788e+01 4.181536e+01 6.928209e+01 5.276225e+01 3.828491e+01 2.694261e+01 2.459626e+01 2.447185e+01 2.606084e+00 2.850923e+00 4.425238e+00 3.144079e+00 7.475336e+00 3.909833e+00 6.114287e+00 6.927245e+00 4.981449e+00 3.172745e+00 4.501432e+00 3.088914e+00 1.098653e+00 7.362616e-01 4.342994e-01 4.397557e-01 6.189386e-01 7.012636e-01 5.832824e-01 6.862786e-01 1.106727e+00 6.947177e-01 5.946023e-01 6.339375e-01 4.450101e-01 1.357225e-01
<GCONST> 1.269079e+02
<TRANSP> 5
 0.000000e+00 1.000000e+00 0.000000e+00 0.000000e+00 0.000000e+00
 0.000000e+00 8.217103e-01 1.782897e-01 0.000000e+00 0.000000e+00
 0.000000e+00 0.000000e+00 7.085971e-01 2.914028e-01 0.000000e+00
 0.000000e+00 0.000000e+00 0.000000e+00 6.292143e-01 3.707857e-01
 0.000000e+00 0.000000e+00 0.000000e+00 0.000000e+00 0.000000e+00
<ENDHMM>
~h "k"
<BEGINHMM>
<NUMSTATES> 5
<STATE> 2
<MEAN> 39
 -5.794683e+00 7.765353e-01 -2.265495e+00 -4.540186e+00 -7.751663e+00 -5.456082e+00 -7.934893e+00 -4.974196e+00 -4.950868e+00 -1.406951e+00 -3.322181e+00 -5.164794e+00 4.426454e+01 -1.208158e+00 -3.140639e-01 -7.541698e-01 3.112708e-01 6.931552e-01 -4.265200e-01 1.890606e-01 1.113519e-01 2.653318e-01 -5.640593e-02 -1.764427e-01 6.190919e-01 -1.406226e+00 -1.732348e-01 -6.056153e-01 -3.408858e-01 -2.598901e-01 1.425346e-01 3.191566e-02 -2.104506e-01 1.965515e-01 -1.379110e-02 1.314499e-01 1.315230e-02 3.629551e-02 1.277184e+00
<VARIANCE> 39
 3.705862e+01 3.619429e+01 5.553695e+01 4.422599e+01 5.106559e+01 5.317183e+01 4.476081e+01 5.003893e+01 4.800194e+01 3.778761e+01 3.790130e+01 3.200611e+01 8.399847e+01 2.117172e+00 3.925231e+00 3.446894e+00 3.178211e+00 4.443787e+00 3.948236e+00 3.924074e+00 3.787706e+00 3.509300e+00 3.221366e+00 2.934218e+00 2.556524e+00 9.731056e+00 3.955766e-01 5.865477e-01 6.379234e-01 6.288357e-01 8.421788e-01 7.914887e-01 7.926849e-01 7.164720e-01 7.361277e-01 6.787428e-01 6.069422e-01 5.162825e-01 1.269902e+00
<GCONST> 1.331702e+02
<STATE> 3
<MEAN> 39
 -1.177163e+01 -5.880102e+00 -7.455481e+00 -3.900801e+00 -2.241023e+00 -6.923113e+00 -9.070013e+00 -2.735836e+00 -4.349182e+00 -2.909816e-02 -3.894115e+00 -1.807876e+00 4.997149e+01 -9.125366e-01 -2.074848e+00 -2.182370e+00 -8.879164e-01 1.364557e+00 -5.629201e-01 -8.530243e-01 8.513590e-01 3.719086e-02 9.216039e-01 -5.513383e-01 2.634096e-01 4.651225e+00 7.821746e-01 4.634975e-01 5.786933e-01 -3.737829e-01 -7.589691e-01 2.337202e-01 3.580413e-03 -1.500094e-02 -1.202438e-02 -1.255708e-01 7.188042e-02 -5.524966e-01 6.140833e-01
<VARIANCE> 39
 3.418316e+01 6.030199e+01 6.923949e+01 4.655331e+01 5.868880e+01 5.900007e+01 5.252506e+01 4.522390e+01 4.276456e+01 3.493593e+01 3.266915e+01 2.715464e+01 1.290014e+02 3.923122e+00 5.498047e+00 7.288615e+00 5.688526e+00 6.715862e+00 6.284570e+00 5.865334e+00 5.631705e+00 5.387971e+00 4.571654e+00 4.184048e+00 3.639269e+00 1.251239e+01 6.435238e-01 1.081494e+00 1.279312e+00 8.320851e-01 1.167249e+00 9.865440e-01 1.053355e+00 8.933156e-01 8.480701e-01 7.363919e-01 7.040692e-01 6.658397e-01 1.765511e+00
<GCONST> 1.438765e+02
<STATE> 4
<MEAN> 39
 -9.626120e+00 -6.270085e+00 -9.265591e+00 -8.099298e+00 -3.217376e+00 -6.719346e+00 -1.061900e+01 -1.042757e+00 -4.238490e+00 1.416589e+00 -5.113422e+00 -4.365153e+00 6.099269e+01 2.095398e+00 3.366309e-01 1.458586e+00 -1.040956e+00 -1.844526e+00 6.444044e-01 -4.288901e-02 3.378281e-01 7.521569e-02 -4.686861e-01 4.503039e-01 -1.466460e+00 2.959092e+00 6.187853e-01 1.850996e-01 7.376518e-01 7.296561e-02 -6.600446e-01 4.236879e-01 1.813851e-01 -2.131047e-01 7.810076e-02 -4.541293e-01 3.599741e-01 -2.922278e-01 -6.970792e-01
<VARIANCE> 39
 3.949112e+01 4.333089e+01 7.423893e+01 5.763967e+01 6.384907e+01 7.327346e+01 5.700082e+01 5.409679e+01 5.629830e+01 4.323751e+01 4.307254e+01 3.903874e+01 7.376404e+01 4.372152e+00 5.028881e+00 6.216534e+00 5.013160e+00 5.671245e+00 5.239368e+00 5.977763e+00 5.661273e+00 5.572104e+00 4.054636e+00 4.254430e+00 4.307439e+00 7.430379e+00 8.098921e-01 9.488578e-01 1.510781e+00 9.008526e-01 1.329448e+00 1.058078e+00 1.164566e+00 1.015242e+00 1.008676e+00 8.558777e-01 8.062267e-01 7.907516e-01 1.010648e+00
<GCONST> 1.449354e+02
<TRANSP> 5
 0.000000e+00 1.000000e+00 0.000000e+00 0.000000e+00 0.000000e+00
 0.000000e+00 7.466307e-01 2.533692e-01 0.000000e+00 0.000000e+00
 0.000000e+00 0.000000e+00 5.124796e-01 4.875203e-01 0.000000e+00
 0.000000e+00 0.000000e+00 0.000000e+00 5.621062e-01 4.378939e-01
 0.000000e+00 0.000000e+00 0.000000e+00 0.000000e+00 0.000000e+00
<ENDHMM>
~h "l"
<BEGINHMM>
<NUMSTATES> 5
<STATE> 2
<MEAN> 39
 9.617744e-01 -8.453594e+00 -1.464554e+00 -1.019877e+01 -1.252953e+01 -1.107517e+00 -1.629670e+01 -9.500092e+00 1.462007e+00 1.072890e+00 -5.397186e-01 -6.998684e+00 6.865966e+01 5.139847e-01 2.347389e-02 5.926186e-01 -3.582296e-01 4.924847e-01 9.945351e-03 -1.231258e+00 -1.201453e+00 2.520996e-01 9.943349e-01 1.178336e-01 -1.569226e-01 -4.219037e-01 -1.551258e-01 1.514163e-01 4.267427e-02 -1.227285e-01 6.787357e-02 9.135175e-02 1.160915e-01 1.878656e-01 -2.743482e-01 -1.845376e-01 6.902701e-02 1.909583e-02 -4.637296e-02
<VARIANCE> 39
 1.743741e+01 3.014142e+01 6.904502e+01 7.645217e+01 6.076463e+01 8.939410e+01 8.940905e+01 1.382348e+02 7.550010e+01 5.812877e+01 5.732682e+01 4.952813e+01 2.835521e+01 8.266702e-01 1.840994e+00 2.923542e+00 4.525708e+00 4.713759e+00 5.617908e+00 4.447170e+00 5.116457e+00 4.769535e+00 3.861961e+00 4.166327e+00 3.046542e+00 1.024266e+00 1.864099e-01 2.542481e-01 3.629672e-01 5.902494e-01 7.288544e-01 7.571043e-01 8.027169e-01 1.006501e+00 7.457275e-01 7.216498e-01 6.291274e-01 4.644426e-01 1.199784e-01
<GCONST> 1.297323e+02
<STATE> 3
<MEAN> 39
 1.784900e+00 -7.800113e+00 8.100461e-01 -1.432431e+01 -9.615731e+00 8.742973e-01 -2.017454e+01 -1.144364e+01 1.177585e-01 4.393857e+00 6.169873e-01 -7.530375e+00 6.739402e+01 -1.585420e-01 3.777087e-04 -1.232440e-01 -2.185161e-01 1.479957e-01 1.085888e-01 1.656011e-04 4.514194e-01 1.864910e-02 -1.970974e-01 -1.563067e-01 -8.932000e-02 1.281879e-01 -2.510516e-01 -1.953809e-01 -4.061442e-01 2.470267e-01 -1.433706e-01 5.225452e-02 6.259993e-01 7.082781e-01 6.754527e-02 -5.186824e-01 -3.537855e-01 -6.401272e-02 2.385203e-01
<VARIANCE> 39
 1.623159e+01 2.894459e+01 6.581107e+01 8.044112e+01 5.608701e+01 7.028495e+01 9.573941e+01 1.050024e+02 7.561096e+01 5.909880e+01 5.510526e+01 4.779879e+01 2.437898e+01 5.643123e-01 1.401989e+00 2.533923e+00 2.863674e+00 2.320705e+00 3.177636e+00 3.461446e+00 5.002785e+00 3.654641e+00 2.892082e+00 3.139723e+00 2.296004e+00 9.973570e-01 1.099271e-01 3.023318e-01 3.190526e-01 5.427574e-01 7.047508e-01 7.348464e-01 8.432100e-01 8.197929e-01 7.479552e-01 6.831321e-01 7.764378e-01 5.206739e-01 1.272393e-01
<GCONST> 1.244780e+02
<STATE> 4
<MEAN> 39
 5.604907e-01 -6.187574e+00 -1.465175e+00 -1.338905e+01 -8.001119e+00 6.902925e-01 -1.678870e+01 -7.975967e+00 2.949831e-01 1.790217e+00 -2.180676e+00 -6.899567e+00 6.532668e+01 -4.821208e-01 -9.719796e-02 -4.890947e-01 6.818082e-01 8.105871e-02 -5.054983e-02 1.159399e+00 1.158852e+00 -9.498162e-02 -9.612141e-01 -6.912061e-01 -2.380028e-02 -1.473823e-01 -1.077668e-01 -5.125376e-03 -3.199642e-02 1.111642e-01 -4.279256e-02 1.155944e-02 2.476549e-01 6.434981e-02 -1.121710e-01 -1.480209e-01 3.869989e-02 3.364964e-02 -4.550939e-02
<VARIANCE> 39
 1.778978e+01 3.984187e+01 7.591203e+01 9.052212e+01 6.683113e+01 7.907608e+01 8.450437e+01 9.950191e+01 6.959245e+01 5.287558e+01 5.650445e+01 4.861472e+01 5.910736e+01 7.484355e-01 2.744570e+00 2.687742e+00 3.482636e+00 3.890423e+00 4.153594e+00 4.227644e+00 5.407659e+00 4.407940e+00 3.493973e+00 4.276045e+00 2.928702e+00 2.792993e+00 1.209062e-01 2.643025e-01 2.595242e-01 4.949632e-01 5.966648e-01 5.181683e-01 6.166961e-01 5.976806e-01 5.723932e-01 5.443428e-01 5.497402e-01 4.044876e-01 1.832511e-01
<GCONST> 1.280172e+02
<TRANSP> 5
 0.000000e+00 1.000000e+00 0.000000e+00 0.000000e+00 0.000000e+00
 0.000000e+00 5.794314e-01 4.205686e-01 0.000000e+00 0.000000e+00
 0.000000e+00 0.000000e+00 5.961564e-01 4.038436e-01 0.000000e+00
 0.000000e+00 0.000000e+00 0.000000e+00 5.159223e-01 4.840777e-01
 0.000000e+00 0.000000e+00 0.000000e+00 0.000000e+00 0.000000e+00
<ENDHMM>
~h "m"
<BEGINHMM>
<NUMSTATES> 5
<STATE> 2
<MEAN> 39
 2.664914e+00 -4.290612e+00 -3.298662e-01 -6.064853e+00 -9.134477e+00 1.905719e+00 -1.022983e+01 -9.307425e+00 -9.586741e+00 -2.601484e+00 -5.440238e-01 -8.073870e+00 6.098859e+01 6.638497e-01 1.170295e+00 1.696529e+00 2.034936e+00 5.708183e-02 4.870419e-01 5.749922e-01 -2.747134e+00 -2.858599e+00 -9.274358e-02 -4.573808e-01 2.927844e-01 -9.060579e-01 -3.229171e-01 -1.908998e-01 1.282412e-01 -5.230513e-02 -1.350645e-02 -1.529450e-02 1.507104e-02 7.455835e-02 3.573820e-02 -1.496532e-01 -2.161908e-01 9.846785e-02 2.928763e-01
<VARIANCE> 39
 2.314816e+01 4.268881e+01 5.146894e+01 7.176986e+01 5.129856e+01 6.843812e+01 6.513469e+01 7.757932e+01 7.417438e+01 5.198919e+01 6.128985e+01 4.168317e+01 7.451308e+01 2.099605e+00 2.659806e+00 3.886592e+00 4.457634e+00 4.076553e+00 4.118288e+00 5.107993e+00 5.266698e+00 5.880750e+00 4.448912e+00 6.445704e+00 4.040660e+00 5.062126e+00 2.358115e-01 3.202349e-01 5.147663e-01 6.732324e-01 5.270861e-01 4.740979e-01 5.948829e-01 8.660360e-01 9.204503e-01 5.228733e-01 7.731641e-01 4.727001e-01 2.864353e-01
<GCONST> 1.340428e+02
<STATE> 3
<MEAN> 39
 3.149677e+00 -3.386719e+00 3.792459e+00 -1.780617e+00 -9.136631e+00 3.809005e+00 -9.114638e+00 -1.598753e+01 -1.666105e+01 -3.556377e+00 -1.937953e+00 -6.284497e+00 6.112514e+01 -6.355710e-02 -6.365857e-02 2.263197e-01 1.547947e-02 5.804984e-02 2.358518e-01 1.092460e-01 -1.953083e-01 -3.633178e-01 -3.424224e-01 -2.389354e-01 1.430500e-01 2.781655e-01 -9.505033e-02 -2.448359e-01 -5.788105e-01 -7.298959e-01 -3.909509e-02 -1.498477e-01 -1.956460e-01 9.334462e-01 9.813613e-01 5.103387e-02 1.653392e-01 -1.898501e-01 2.978359e-01
<VARIANCE> 39
 1.179790e+01 2.810256e+01 3.148148e+01 5.201010e+01 4.828199e+01 7.052951e+01 8.412499e+01 7.480708e+01 6.322134e+01 7.328445e+01 7.974489e+01 4.417959e+01 2.606733e+01 5.249262e-01 1.254313e+00 2.206421e+00 3.237525e+00 1.790468e+00 2.204715e+00 2.287041e+00 3.382343e+00 4.316481e+00 2.379358e+00 3.357976e+00 2.087617e+00 1.669144e+00 1.539358e-01 2.354988e-01 3.764479e-01 4.258744e-01 4.137717e-01 4.349256e-01 5.910096e-01 5.949975e-01 7.568974e-01 6.005985e-01 8.114577e-01 5.329265e-01 2.164279e-01
<GCONST> 1.203219e+02
<STATE> 4
<MEAN> 39
 1.729347e+00 -1.968423e+00 4.108557e+00 -3.703914e+00 -9.438714e+00 3.654497e+00 -9.087512e+00 -1.189326e+01 -1.337431e+01 -5.094210e+00 -5.122041e+00 -6.653922e+00 5.986739e+01 -6.875944e-02 1.864174e-02 -6.820803e-01 -7.067682e-01 -3.042055e-02 -2.222039e-01 -1.298288e-02 9.154251e-01 9.969962e-01 1.707794e-01 2.620972e-01 -1.081192e-01 1.276607e-01 -6.461482e-02 -9.227804e-02 -2.148108e-01 -1.675433e-01 3.611837e-02 -7.669748e-02 -7.639021e-02 2.024892e-01 2.626748e-01 8.827102e-02 1.561300e-01 -2.711099e-02 1.669878e-02
<VARIANCE> 39
 1.447302e+01 2.839890e+01 4.111391e+01 5.576995e+01 7.341508e+01 7.629424e+01 7.206071e+01 6.120363e+01 6.564056e+01 5.573381e+01 6.319653e+01 4.256935e+01 4.938040e+01 5.876722e-01 1.814675e+00 2.781063e+00 3.575864e+00 2.261007e+00 2.359306e+00 2.503546e+00 3.463431e+00 4.443359e+00 2.490550e+00 3.330717e+00 2.265805e+00 2.680114e+00 1.269106e-01 1.953047e-01 3.120452e-01 3.755522e-01 4.007368e-01 3.939230e-01 3.729874e-01 4.652891e-01 5.295452e-01 3.870941e-01 4.906087e-01 3.535445e-01 1.631731e-01
<GCONST> 1.194756e+02
<TRANSP> 5
 0.000000e+00 1.000000e+00 0.000000e+00 0.000000e+00 0.000000e+00
 0.000000e+00 5.383033e-01 4.616967e-01 0.000000e+00 0.000000e+00
 0.000000e+00 0.000000e+00 6.750640e-01 3.249360e-01 0.000000e+00
 0.000000e+00 0.000000e+00 0.000000e+00 7.213124e-01 2.786876e-01
 0.000000e+00 0.000000e+00 0.000000e+00 0.000000e+00 0.000000e+00
<ENDHMM>
~h "n"
<BEGINHMM>
<NUMSTATES> 5
<STATE> 2
<MEAN> 39
 1.543951e+00 -8.079708e+00 8.369757e-01 -4.308196e+00 -1.150187e+01 -4.433504e+00 -1.425528e+01 -2.471700e+00 -2.036795e+00 -2.731455e+00 -6.470345e+00 -8.297943e+00 6.611377e+01 8.073253e-01 2.271585e+00 1.829436e+00 2.304770e+00 -5.635852e-01 -8.063782e-01 1.825249e-01 -3.618070e+00 -9.790527e-01 1.119055e+00 -7.854200e-01 4.987203e-01 -2.323932e+00 -1.394316e-01 1.586815e-01 2.006836e-02 -1.415474e-01 -1.597272e-02 1.917776e-01 3.404642e-01 -4.620662e-01 -2.191119e-01 8.434570e-02 3.858995e-02 1.498481e-01 2.517665e-02
<VARIANCE> 39
 1.140581e+01 4.257314e+01 5.472044e+01 4.973819e+01 5.230370e+01 5.650034e+01 5.929591e+01 1.146594e+02 6.910122e+01 4.977478e+01 4.965513e+01 4.345455e+01 3.566884e+01 8.128693e-01 1.990187e+00 3.610979e+00 2.906829e+00 4.032615e+00 5.130404e+00 5.144108e+00 5.752978e+00 5.033283e+00 4.701015e+00 4.992875e+00 3.428968e+00 1.097897e+00 1.251445e-01 4.106020e-01 3.985271e-01 5.027527e-01 5.409960e-01 6.367171e-01 6.320415e-01 1.306840e+00 7.163683e-01 6.794706e-01 5.178655e-01 4.348696e-01 2.457564e-01
<GCONST> 1.278811e+02
<STATE> 3
<MEAN> 39
 2.821877e+00 -2.465075e+00 5.063673e+00 2.886003e-01 -1.384750e+01 -4.952924e+00 -1.162369e+01 -1.386997e+01 -5.462657e+00 1.054068e+00 -7.371989e+00 -6.366243e+00 6.147852e+01 1.308330e-01 8.180782e-01 5.444506e-01 4.744015e-01 -1.457348e-01 5.609087e-02 3.661532e-01 -1.227137e+00 -6.741599e-01 4.200181e-01 -2.105972e-01 4.219833e-01 -7.224135e-01 -2.576553e-01 -4.911961e-01 -4.616324e-01 -6.002973e-01 2.742835e-01 1.920374e-01 -1.280993e-01 1.166965e+00 2.380016e-01 -4.290645e-01 2.670099e-01 -1.028276e-01 4.545642e-01
<VARIANCE> 39
 1.062360e+01 2.495657e+01 3.565122e+01 4.085880e+01 4.509858e+01 6.397543e+01 7.252048e+01 8.986701e+01 6.657042e+01 4.891011e+01 5.869176e+01 4.959496e+01 2.232806e+01 5.568579e-01 1.876353e+00 2.193109e+00 1.959982e+00 2.291377e+00 2.662268e+00 3.071199e+00 5.663576e+00 3.580140e+00 2.776868e+00 2.734885e+00 2.177788e+00 1.305404e+00 1.428099e-01 2.871065e-01 4.990319e-01 4.194628e-01 5.364755e-01 6.357923e-01 6.873574e-01 8.142596e-01 7.378623e-01 6.276612e-01 6.621751e-01 4.979756e-01 2.175548e-01
<GCONST> 1.211569e+02
<STATE> 4
<MEAN> 39
 1.979509e+00 3.689532e-02 5.759204e+00 9.984547e-01 -1.139371e+01 -4.688044e+00 -1.065494e+01 -1.105015e+01 -6.688820e+00 -1.183489e+00 -8.104269e+00 -5.344981e+00 5.695675e+01 -3.656028e-01 3.988506e-01 -1.851110e-01 -2.000296e-03 6.580313e-01 1.426623e-01 2.023505e-01 5.972273e-01 -8.772092e-02 -3.467601e-01 1.581800e-01 6.833309e-02 -8.620585e-01 -1.898258e-01 -1.228440e-01 -1.488644e-01 -1.657077e-01 1.129840e-01 1.994457e-02 -8.057019e-03 2.694179e-01 1.082303e-01 -1.073624e-01 1.114665e-01 -5.108468e-02 2.706279e-03
<VARIANCE> 39
 1.342506e+01 2.882407e+01 3.516158e+01 4.095300e+01 6.199666e+01 6.037777e+01 6.297078e+01 7.066048e+01 5.836147e+01 5.485235e+01 6.483684e+01 4.812072e+01 4.860202e+01 8.372176e-01 1.748248e+00 1.616402e+00 1.898168e+00 2.327753e+00 2.198011e+00 2.460060e+00 3.612537e+00 2.714973e+00 2.363486e+00 2.519708e+00 1.978744e+00 2.082973e+00 1.598945e-01 2.567280e-01 2.738817e-01 3.335126e-01 4.188356e-01 3.946219e-01 4.392872e-01 5.645436e-01 4.577793e-01 4.397474e-01 4.392529e-01 3.512900e-01 1.964941e-01
<GCONST> 1.171757e+02
<TRANSP> 5
 0.000000e+00 1.000000e+00 0.000000e+00 0.000000e+00 0.000000e+00
 0.000000e+00 5.313652e-01 4.686348e-01 0.000000e+00 0.000000e+00
 0.000000e+00 0.000000e+00 6.304592e-01 3.695407e-01 0.000000e+00
 0.000000e+00 0.000000e+00 0.000000e+00 7.749743e-01 2.250257e-01
 0.000000e+00 0.000000e+00 0.000000e+00 0.000000e+00 0.000000e+00
<ENDHMM>
~h "o"
<BEGINHMM>
<NUMSTATES> 5
<STATE> 2
<MEAN> 39
 2.880313e-01 -3.720057e+00 -6.332550e+00 -1.596322e+01 -1.163742e+01 3.766239e+00 -1.314595e+01 -5.131153e+00 -2.665767e+00 -1.067528e+00 1.230620e+00 -5.564690e+00 6.449451e+01 1.877738e+00 -6.834289e-01 -6.923367e-01 -2.821434e+00 -1.322885e+00 2.453790e+00 -4.932914e-01 -6.320869e-02 6.330736e-01 3.073601e-02 1.196056e+00 -6.429778e-01 2.137077e+00 -4.477823e-01 -1.279373e-02 1.104463e-01 2.770968e-01 2.944526e-01 -1.246153e-02 2.997159e-01 -3.190554e-02 -1.780037e-01 -7.902271e-02 -5.433157e-03 1.282884e-01 -4.587480e-01
<VARIANCE> 39
 2.980491e+01 4.126613e+01 4.880661e+01 1.017463e+02 5.917879e+01 7.291193e+01 8.179996e+01 6.802526e+01 6.628258e+01 6.331252e+01 5.448061e+01 4.047597e+01 9.380750e+01 4.468606e+00 2.919301e+00 5.805750e+00 6.368220e+00 7.190526e+00 5.638885e+00 4.973657e+00 6.331196e+00 5.329335e+00 5.640273e+00 4.725642e+00 3.810781e+00 5.242877e+00 7.509456e-01 5.243863e-01 6.571186e-01 1.258575e+00 8.614945e-01 9.409443e-01 9.173166e-01 7.985848e-01 9.187280e-01 7.928824e-01 7.171509e-01 5.820928e-01 1.090546e+00
<GCONST> 1.434128e+02
<STATE> 3
<MEAN> 39
 2.510299e+00 -6.342021e+00 -8.273792e+00 -1.951166e+01 -1.367052e+01 9.939729e+00 -1.391541e+01 -5.879255e+00 -1.792827e+00 -1.489364e+00 5.408209e+00 -6.852751e+00 6.989689e+01 8.710212e-02 -1.620407e-01 -2.226362e-01 -7.044297e-01 2.226543e-01 7.567540e-01 2.263011e-01 9.147152e-02 -1.171909e-01 -9.688383e-02 3.038429e-01 -5.926809e-02 1.568182e-01 -2.635157e-01 2.553484e-01 2.797080e-01 7.924522e-01 3.693607e-01 -7.893101e-01 1.428644e-01 -2.445471e-02 -1.866454e-01 6.930735e-03 -5.213667e-01 1.653291e-01 -5.712811e-01
<VARIANCE> 39
 1.203388e+01 3.494794e+01 3.618629e+01 6.675744e+01 5.187097e+01 5.420489e+01 7.665440e+01 7.564246e+01 6.817332e+01 7.554720e+01 5.966629e+01 4.667366e+01 2.089371e+01 5.655639e-01 1.712082e+00 1.517570e+00 4.316011e+00 2.544480e+00 3.992649e+00 3.395275e+00 3.232078e+00 4.075816e+00 3.721355e+00 3.007523e+00 2.551667e+00 1.244478e+00 2.540686e-01 2.914042e-01 3.639252e-01 5.351232e-01 6.993635e-01 5.395528e-01 6.233789e-01 7.322953e-01 7.189620e-01 7.525628e-01 6.170489e-01 5.371378e-01 2.613798e-01
<GCONST> 1.241121e+02
<STATE> 4
<MEAN> 39
 2.576768e+00 -4.047049e+00 -7.400245e+00 -2.170375e+01 -1.162404e+01 8.788703e+00 -1.180244e+01 -5.354547e+00 -3.107422e+00 -2.118706e+00 2.942685e+00 -5.367881e+00 6.617842e+01 -5.006275e-02 2.410799e-01 2.147213e-01 9.585500e-01 3.439893e-01 -6.695974e-01 1.176156e-01 -1.353578e-01 1.533026e-02 9.065609e-02 -5.111996e-01 -6.424794e-02 -8.452302e-01 -6.067883e-02 6.044330e-02 1.330489e-01 3.866706e-01 3.561538e-02 -2.156684e-01 -1.258558e-02 -7.334026e-02 1.451439e-02 1.117825e-02 -1.190230e-01 6.347198e-03 -2.292906e-01
<VARIANCE> 39
 1.292133e+01 4.250058e+01 4.069073e+01 6.686180e+01 5.575312e+01 5.518661e+01 7.007265e+01 6.715087e+01 6.781219e+01 6.717036e+01 4.911412e+01 5.057359e+01 5.272877e+01 5.321181e-01 1.446514e+00 1.261982e+00 3.103459e+00 2.196836e+00 2.516370e+00 2.479965e+00 2.414823e+00 2.488596e+00 2.503784e+00 2.187325e+00 1.871562e+00 2.230475e+00 1.043505e-01 2.193800e-01 2.205015e-01 3.543719e-01 3.698004e-01 3.647417e-01 4.347811e-01 4.169262e-01 4.435401e-01 4.480504e-01 3.566238e-01 3.554853e-01 2.342883e-01
<GCONST> 1.160637e+02
<TRANSP> 5
 0.000000e+00 1.000000e+00 0.000000e+00 0.000000e+00 0.000000e+00
 0.000000e+00 5.271404e-01 4.728596e-01 0.000000e+00 0.000000e+00
 0.000000e+00 0.000000e+00 6.422037e-01 3.577963e-01 0.000000e+00
 0.000000e+00 0.000000e+00 0.000000e+00 8.198922e-01 1.801078e-01
 0.000000e+00 0.000000e+00 0.000000e+00 0.000000e+00 0.000000e+00
<ENDHMM>
~h "p"
<BEGINHMM>
<NUMSTATES> 5
<STATE> 2
<MEAN> 39
 -6.789061e+00 1.455045e+00 -3.245025e+00 -4.413159e+00 -6.161122e+00 -3.126800e+00 -6.551828e+00 -6.186944e+00 -4.754979e+00 -2.815506e+00 -3.311033e+00 -4.609424e+00 3.865975e+01 -9.991601e-01 1.486167e-01 -1.664134e-01 2.690884e-01 1.345260e-01 -4.756029e-01 2.181640e-01 2.247394e-01 2.341134e-01 -1.358154e-02 -4.761225e-02 3.450941e-01 -1.260673e+00 -1.174092e-02 -3.270522e-01 -2.479870e-02 -1.352196e-01 -8.281261e-02 4.001064e-02 -1.327450e-01 3.910121e-02 -1.171223e-02 1.844515e-02 1.081704e-01 2.384808e-02 8.258772e-01
<VARIANCE> 39
 4.582637e+01 2.159130e+01 3.096404e+01 3.018787e+01 2.305432e+01 3.388091e+01 2.682153e+01 2.778555e+01 3.369865e+01 2.577693e+01 2.480749e+01 2.559733e+01 4.949080e+01 1.389354e+00 1.442610e+00 1.455995e+00 1.676333e+00 1.829051e+00 2.175436e+00 2.011834e+00 2.126106e+00 2.353942e+00 2.034143e+00 2.077805e+00 1.769017e+00 3.900621e+00 2.697408e-01 3.305137e-01 3.216349e-01 3.657241e-01 4.056400e-01 4.276957e-01 4.183330e-01 4.460026e-01 4.747527e-01 4.257361e-01 4.132247e-01 3.494951e-01 7.823111e-01
<GCONST> 1.126948e+02
<STATE> 3
<MEAN> 39
 -9.408797e+00 -1.358170e-01 -2.677773e+00 -3.171210e+00 -5.697096e+00 -4.475227e+00 -6.784485e+00 -5.099309e+00 -3.886767e+00 -2.654435e+00 -2.672912e+00 -2.864221e+00 4.276822e+01 3.428742e-01 -1.846961e+00 -6.357760e-01 -1.128413e+00 -3.396157e-01 3.243126e-01 -5.934332e-01 1.110619e-01 1.778497e-01 8.320515e-02 6.706486e-01 -1.058545e-02 5.677669e+00 1.071916e+00 -5.290102e-01 -2.026825e-01 -8.692309e-01 -4.982462e-01 6.650752e-01 -3.579364e-01 -5.481644e-02 -2.408256e-02 8.045556e-02 2.591087e-01 -5.341129e-01 1.717631e+00
<VARIANCE> 39
 2.812511e+01 2.528042e+01 2.442166e+01 2.393479e+01 2.349357e+01 3.099811e+01 2.806952e+01 2.756387e+01 3.064675e+01 2.290975e+01 2.208087e+01 2.054966e+01 9.681832e+01 5.557997e+00 3.488165e+00 4.038430e+00 5.675528e+00 3.854851e+00 5.991170e+00 3.927439e+00 4.105818e+00 4.510521e+00 3.364156e+00 3.397856e+00 3.168666e+00 9.110542e+00 4.645090e-01 7.692414e-01 7.578102e-01 8.122374e-01 7.771528e-01 1.006518e+00 7.442917e-01 8.196195e-01 8.450189e-01 6.556451e-01 6.457750e-01 6.083588e-01 1.528034e+00
<GCONST> 1.310681e+02
<STATE> 4
<MEAN> 39
 -3.815727e+00 -6.705796e+00 -6.880660e+00 -1.057067e+01 -7.870542e+00 -4.668100e-01 -8.912985e+00 -5.902801e+00 -3.407467e+00 -1.890625e+00 -2.732689e-01 -5.402024e+00 6.256923e+01 2.698976e+00 -2.336980e+00 -7.863386e-01 -2.775444e+00 -1.156116e+00 2.091386e+00 -1.216723e+00 1.290344e-01 3.080380e-01 3.397740e-01 8.136985e-01 -1.567503e+00 6.082748e+00 2.170166e-02 3.385462e-01 3.694827e-01 3.122236e-01 -6.111803e-02 -3.485135e-02 -4.154050e-02 1.866483e-01 5.923632e-02 -5.018583e-02 -2.845303e-01 -1.681467e-01 -1.275301e+00
<VARIANCE> 39
 4.717318e+01 3.491293e+01 3.236787e+01 7.402359e+01 2.962927e+01 8.073105e+01 3.431614e+01 3.570024e+01 3.412271e+01 3.031614e+01 3.064967e+01 3.211041e+01 6.631776e+01 4.340659e+00 6.607002e+00 6.665721e+00 8.047399e+00 6.462938e+00 9.114083e+00 5.554299e+00 6.602145e+00 6.415794e+00 4.607899e+00 4.878425e+00 4.952604e+00 1.030052e+01 1.075327e+00 7.882146e-01 6.100532e-01 1.400387e+00 1.035924e+00 1.371891e+00 7.150282e-01 7.616991e-01 8.927005e-01 6.827773e-01 7.852920e-01 6.824603e-01 1.101037e+00
<GCONST> 1.421023e+02
<TRANSP> 5
 0.000000e+00 1.000000e+00 0.000000e+00 0.000000e+00 0.000000e+00
 0.000000e+00 8.301183e-01 1.698817e-01 0.000000e+00 0.000000e+00
 0.000000e+00 0.000000e+00 5.709407e-01 4.290593e-01 0.000000e+00
 0.000000e+00 0.000000e+00 0.000000e+00 3.880424e-01 6.119577e-01
 0.000000e+00 0.000000e+00 0.000000e+00 0.000000e+00 0.000000e+00
<ENDHMM>
~h "r"
<BEGINHMM>
<NUMSTATES> 5
<STATE> 2
<MEAN> 39
 -2.734630e-01 -8.752895e+00 -5.855596e+00 -5.009773e+00 -1.127806e+01 -4.622823e+00 -1.251604e+01 -3.752797e+00 3.079425e+00 -4.617827e-01 -2.641755e+00 -7.433748e+00 6.743815e+01 2.930508e-01 1.585782e-01 1.851664e-01 1.742448e+00 -7.020026e-02 -5.426120e-01 -5.525504e-01 -6.401728e-01 5.544733e-01 -1.746754e-01 7.678637e-03 4.598103e-01 -1.042441e+00 -6.799459e-02 -1.848084e-02 1.489677e-01 -2.765364e-01 7.644508e-03 2.028184e-01 -7.850467e-02 1.837948e-01 -4.376095e-01 -7.730833e-02 1.210951e-01 1.231339e-02 8.332984e-03
<VARIANCE> 39
 2.081334e+01 3.221418e+01 5.425115e+01 4.636575e+01 5.504180e+01 5.656369e+01 6.329462e+01 9.231926e+01 5.821578e+01 4.917348e+01 4.813485e+01 4.061036e+01 4.756507e+01 2.720342e+00 2.367562e+00 3.324924e+00 4.941173e+00 5.208071e+00 5.030279e+00 4.880964e+00 4.989479e+00 5.541134e+00 4.800855e+00 4.440002e+00 3.651984e+00 3.330505e+00 4.336401e-01 3.813035e-01 4.716744e-01 7.100715e-01 7.276485e-01 6.781628e-01 7.569494e-01 8.714032e-01 8.063586e-01 7.164392e-01 6.196237e-01 5.830393e-01 5.768996e-01
<GCONST> 1.343887e+02
<STATE> 3
<MEAN> 39
 4.723596e-04 -8.191891e+00 -4.250463e+00 -1.207264e+00 -1.086122e+01 -5.196614e+00 -1.504638e+01 -4.482358e+00 2.514977e+00 -9.530612e-01 -1.697150e+00 -6.231161e+00 6.480251e+01 2.238242e-01 -8.872084e-02 4.240364e-01 3.424394e-01 -1.527722e-01 -1.316640e-01 -5.708484e-01 2.906061e-01 -7.493252e-01 -1.069075e-01 3.185677e-01 2.754292e-01 -3.825599e-01 -5.537024e-02 -6.108068e-02 4.886899e-02 -6.444426e-01 -1.327833e-01 2.586788e-01 2.326222e-01 2.943710e-01 -4.151273e-01 -2.724313e-02 8.319151e-02 -1.660495e-01 3.315579e-01
<VARIANCE> 39
 2.039079e+01 2.550430e+01 5.323653e+01 3.836501e+01 5.935822e+01 5.174256e+01 5.544237e+01 7.316301e+01 5.265318e+01 4.807969e+01 4.260737e+01 3.698693e+01 3.827423e+01 2.020275e+00 2.243883e+00 3.156964e+00 2.464726e+00 4.950708e+00 4.278273e+00 3.877378e+00 4.778058e+00 4.588221e+00 3.626662e+00 3.620587e+00 3.300981e+00 2.781788e+00 4.902304e-01 5.669053e-01 5.847008e-01 7.762088e-01 1.267817e+00 9.348537e-01 9.672920e-01 1.035047e+00 1.105533e+00 9.491662e-01 9.163604e-01 7.228988e-01 7.627995e-01
<GCONST> 1.340523e+02
<STATE> 4
<MEAN> 39
 2.636369e-01 -8.062426e+00 -4.599478e+00 -2.430259e+00 -1.073252e+01 -5.422626e+00 -1.427178e+01 -3.438878e+00 6.631495e-01 -1.087679e+00 -1.303688e+00 -6.334497e+00 6.374134e+01 -3.468474e-02 1.819679e-01 4.709381e-01 -2.725104e-01 -5.496448e-02 2.417248e-01 3.032251e-01 2.785865e-01 -8.209695e-01 -2.342591e-01 8.499681e-02 5.968734e-02 -4.303986e-01 -1.295179e-01 6.464762e-02 8.954362e-02 -2.042633e-01 -2.622508e-02 1.726056e-01 2.008043e-01 1.437924e-02 -8.855227e-02 -4.169825e-02 -4.718466e-02 -8.543851e-02 2.493470e-02
<VARIANCE> 39
 2.617524e+01 3.289928e+01 6.974169e+01 4.087076e+01 6.245721e+01 5.994553e+01 5.892244e+01 7.512132e+01 5.245206e+01 5.018631e+01 4.892767e+01 4.099089e+01 6.263183e+01 2.104000e+00 3.180806e+00 2.998283e+00 2.414732e+00 4.721931e+00 3.587122e+00 3.742747e+00 4.321883e+00 4.378026e+00 3.243147e+00 3.317871e+00 2.784503e+00 4.116437e+00 3.947426e-01 3.929745e-01 4.181313e-01 5.171968e-01 8.001176e-01 6.386139e-01 6.749263e-01 6.959458e-01 7.086545e-01 6.434985e-01 6.357185e-01 5.182055e-01 4.890760e-01
<GCONST> 1.309830e+02
<TRANSP> 5
 0.000000e+00 1.000000e+00 0.000000e+00 0.000000e+00 0.000000e+00
 0.000000e+00 4.221902e-01 5.778098e-01 0.000000e+00 0.000000e+00
 0.000000e+00 0.000000e+00 3.852602e-01 6.147398e-01 0.000000e+00
 0.000000e+00 0.000000e+00 0.000000e+00 5.580776e-01 4.419224e-01
 0.000000e+00 0.000000e+00 0.000000e+00 0.000000e+00 0.000000e+00
<ENDHMM>
~h "s"
<BEGINHMM>
<NUMSTATES> 5
<STATE> 2
<MEAN> 39
 -1.096076e+01 2.345552e+00 -2.887557e-01 -3.856721e+00 -3.288291e+00 -7.236066e+00 -7.993114e+00 -1.621555e+00 -2.889024e+00 -2.193867e+00 -4.435806e+00 -2.924934e+00 6.378759e+01 -4.465365e+00 2.415293e+00 -5.578408e-01 8.385976e-01 1.981774e+00 -5.024173e-01 1.663943e+00 6.250327e-01 3.259666e-01 -3.830310e-01 3.801934e-01 9.465889e-01 -5.689708e-01 -5.042543e-01 -4.090045e-01 -3.193648e-01 -2.696116e-01 -3.408256e-01 3.044944e-01 -1.403322e-01 -1.015090e-02 -6.631210e-02 9.490230e-04 2.842512e-01 -1.142009e-01 -2.790765e-02
<VARIANCE> 39
 7.288705e+01 5.150433e+01 5.013837e+01 4.361658e+01 5.786022e+01 4.773230e+01 7.538438e+01 5.741971e+01 4.734476e+01 3.984216e+01 4.289441e+01 3.271928e+01 5.867991e+01 3.523052e+00 5.014303e+00 4.146159e+00 4.214186e+00 5.300849e+00 4.667582e+00 5.289406e+00 5.509409e+00 4.281724e+00 3.634113e+00 3.794487e+00 2.973005e+00 2.534312e+00 9.722049e-01 9.578251e-01 4.226670e-01 5.969802e-01 7.928577e-01 6.159781e-01 9.453223e-01 7.313188e-01 6.468551e-01 6.175184e-01 5.782730e-01 4.825088e-01 2.307284e-01
<GCONST> 1.349717e+02
<STATE> 3
<MEAN> 39
 -2.866221e+01 4.428233e+00 -5.349203e+00 -3.956050e+00 -4.564321e-01 -6.271105e+00 -4.785712e+00 -2.018439e-01 -2.117856e+00 -2.141584e+00 -7.846404e-01 -2.080173e-01 6.082637e+01 -9.235265e-01 -4.601908e-01 -4.908499e-01 -2.117489e-01 -1.413786e-01 7.865459e-02 9.003201e-02 7.652239e-02 1.002074e-01 8.809147e-02 2.250715e-01 2.114361e-01 -2.519391e-01 9.033109e-01 -2.419638e-01 2.246617e-01 -4.505317e-02 -2.187734e-01 -6.649549e-02 -2.048278e-01 -1.061468e-01 6.192671e-03 3.969292e-03 -1.560423e-01 -1.397833e-01 6.999673e-02
<VARIANCE> 39
 2.508942e+01 2.154754e+01 3.589304e+01 3.225414e+01 3.495414e+01 3.664650e+01 4.800720e+01 2.930958e+01 3.054880e+01 2.334857e+01 2.359854e+01 1.986610e+01 2.782630e+01 3.269125e+00 1.568581e+00 1.823926e+00 1.451659e+00 1.711719e+00 1.828339e+00 1.942320e+00 1.953942e+00 1.965592e+00 1.789487e+00 1.743541e+00 1.476895e+00 8.516853e-01 4.520043e-01 3.375066e-01 3.336177e-01 3.256524e-01 4.070088e-01 3.871906e-01 4.683348e-01 4.432682e-01 4.133547e-01 3.790159e-01 3.627517e-01 3.294096e-01 1.528735e-01
<GCONST> 1.092248e+02
<STATE> 4
<MEAN> 39
 -2.199820e+01 4.932838e-01 -5.001911e+00 -4.907041e+00 -3.098999e+00 -7.580406e+00 -6.349737e+00 -8.289875e-01 -1.197981e+00 -2.168807e+00 -2.302893e+00 -1.073077e+00 5.959750e+01 4.494637e+00 -7.003421e-01 1.036664e+00 -3.227376e-01 -1.196708e+00 -1.385876e-02 -1.607412e+00 -9.314625e-01 -2.849604e-02 -4.613435e-02 -7.553473e-01 -1.211667e+00 3.977307e-01 7.443131e-01 -3.714806e-02 2.480247e-01 -1.070976e-01 -2.341260e-01 3.259951e-01 -3.741487e-01 -1.893304e-01 -1.258316e-01 1.486071e-02 7.469045e-02 -2.738344e-01 2.916762e-01
<VARIANCE> 39
 6.938377e+01 2.806853e+01 4.163055e+01 3.193188e+01 3.561330e+01 3.868872e+01 5.621808e+01 3.452215e+01 3.182617e+01 2.576262e+01 2.734361e+01 2.494933e+01 5.634502e+01 6.707963e+00 3.858593e+00 4.762215e+00 3.902199e+00 3.687989e+00 4.485847e+00 5.095972e+00 4.859601e+00 4.460669e+00 2.909244e+00 2.950920e+00 2.879862e+00 5.650751e+00 1.333545e+00 5.869957e-01 5.959505e-01 5.675612e-01 5.973663e-01 7.307619e-01 9.126300e-01 8.054056e-01 6.898852e-01 5.470331e-01 5.800554e-01 5.249359e-01 5.184065e-01
<GCONST> 1.318490e+02
<TRANSP> 5
 0.000000e+00 1.000000e+00 0.000000e+00 0.000000e+00 0.000000e+00
 0.000000e+00 7.006102e-01 2.993899e-01 0.000000e+00 0.000000e+00
 0.000000e+00 0.000000e+00 8.541906e-01 1.458094e-01 0.000000e+00
 0.000000e+00 0.000000e+00 0.000000e+00 6.930428e-01 3.069572e-01
 0.000000e+00 0.000000e+00 0.000000e+00 0.000000e+00 0.000000e+00
<ENDHMM>
~h "t"
<BEGINHMM>
<NUMSTATES> 5
<STATE> 2
<MEAN> 39
 -5.008959e+00 1.596666e+00 -2.144561e+00 -4.141560e+00 -7.154224e+00 -6.325635e+00 -9.870752e+00 -5.861549e+00 -2.083125e+00 -1.602741e+00 -4.680637e+00 -6.097939e+00 4.456955e+01 -1.011778e+00 1.798191e-01 -2.882814e-01 1.153508e-01 1.365190e-01 -1.004704e-01 6.612496e-01 1.006292e-01 -1.779069e-01 -2.400782e-01 7.814161e-02 4.968237e-01 -2.239744e+00 -2.428615e-01 -5.229428e-01 -8.638898e-02 -2.586985e-01 -7.585640e-02 4.815314e-02 -5.889325e-02 1.358436e-01 -1.660755e-02 9.005639e-03 1.517522e-01 1.016403e-01 1.109327e+00
<VARIANCE> 39
 3.242075e+01 2.941669e+01 4.868567e+01 3.874049e+01 3.611465e+01 3.995372e+01 4.368533e+01 4.394463e+01 4.635353e+01 3.254171e+01 3.676374e+01 3.119379e+01 7.707034e+01 2.057891e+00 2.548198e+00 2.105768e+00 2.477368e+00 3.102373e+00 2.643310e+00 2.999016e+00 2.861899e+00 2.715082e+00 2.445522e+00 2.465178e+00 2.136575e+00 6.610991e+00 3.776239e-01 4.998248e-01 4.567845e-01 5.356720e-01 6.860090e-01 5.593325e-01 5.994586e-01 5.965319e-01 5.911651e-01 5.066276e-01 5.017136e-01 4.420350e-01 1.156105e+00
<GCONST> 1.250006e+02
<STATE> 3
<MEAN> 39
 -1.075019e+01 -1.773292e-01 -2.257351e+00 -3.384756e+00 -5.693279e+00 -5.882760e+00 -6.910560e+00 -4.652484e+00 -3.476073e+00 -2.567715e+00 -3.085558e+00 -2.799011e+00 4.258941e+01 -1.546171e+00 -2.196592e+00 -7.016604e-01 -1.229865e+00 3.394279e-01 -3.418487e-01 -5.878342e-02 5.465837e-01 1.737962e-01 -1.205715e-01 3.187837e-01 4.621195e-01 5.117514e+00 8.135383e-01 -2.331905e-01 5.443552e-02 -4.113670e-01 -4.436444e-01 8.608646e-02 -6.377785e-01 -8.728787e-02 2.345058e-01 1.225909e-01 -8.384041e-02 -5.100674e-01 1.840893e+00
<VARIANCE> 39
 3.335637e+01 3.403040e+01 3.268953e+01 2.778869e+01 3.049083e+01 3.419479e+01 3.242233e+01 3.332073e+01 3.325082e+01 2.422060e+01 2.616924e+01 2.125045e+01 9.412804e+01 3.646882e+00 3.537954e+00 4.392982e+00 3.732549e+00 4.313269e+00 4.378803e+00 4.387424e+00 4.545974e+00 5.055187e+00 3.229004e+00 3.746811e+00 3.262469e+00 1.062869e+01 6.125183e-01 7.033798e-01 8.270928e-01 6.725997e-01 7.952335e-01 8.688986e-01 8.086796e-01 8.745944e-01 8.676344e-01 5.996691e-01 6.267107e-01 5.635872e-01 1.415053e+00
<GCONST> 1.324689e+02
<STATE> 4
<MEAN> 39
 -1.227421e+01 -6.093406e+00 -4.769071e+00 -8.129272e+00 -6.490663e+00 -7.947875e+00 -9.208974e+00 -3.549037e+00 -1.995410e+00 -2.436623e+00 -3.229684e+00 -3.171367e+00 6.185522e+01 1.904652e+00 -1.032709e+00 1.001538e-01 -1.371624e+00 -1.022023e+00 4.936535e-01 -1.858949e+00 -4.290379e-02 6.977968e-01 3.217039e-01 1.358628e-01 -1.242296e+00 5.856333e+00 1.114566e+00 5.154729e-01 4.286063e-01 1.629024e-01 -4.114331e-01 6.270873e-01 -3.476734e-01 -1.856470e-01 -9.380746e-02 7.984797e-02 9.433109e-02 -4.115432e-01 -1.085562e+00
<VARIANCE> 39
 3.529843e+01 2.584015e+01 3.021821e+01 2.841462e+01 2.977985e+01 3.603859e+01 4.008303e+01 3.340627e+01 3.683752e+01 2.874233e+01 2.903147e+01 2.881703e+01 6.656601e+01 4.929469e+00 5.005615e+00 7.260461e+00 5.489767e+00 5.648283e+00 6.183797e+00 6.175537e+00 6.720561e+00 7.627924e+00 3.906748e+00 4.855980e+00 4.231243e+00 1.183723e+01 8.106016e-01 7.393078e-01 9.191304e-01 7.816167e-01 9.462820e-01 1.022370e+00 1.085340e+00 1.059308e+00 1.032413e+00 7.998868e-01 8.248990e-01 7.809560e-01 1.118243e+00
<GCONST> 1.391218e+02
<TRANSP> 5
 0.000000e+00 1.000000e+00 0.000000e+00 0.000000e+00 0.000000e+00
 0.000000e+00 7.786012e-01 2.213988e-01 0.000000e+00 0.000000e+00
 0.000000e+00 0.000000e+00 4.715904e-01 5.284096e-01 0.000000e+00
 0.000000e+00 0.000000e+00 0.000000e+00 4.432096e-01 5.567904e-01
 0.000000e+00 0.000000e+00 0.000000e+00 0.000000e+00 0.000000e+00
<ENDHMM>
~h "u"
<BEGINHMM>
<NUMSTATES> 5
<STATE> 2
<MEAN> 39
 4.000331e-01 1.132179e+00 -2.343320e+00 -9.028791e+00 -1.164597e+01 -2.909804e-01 -1.773312e+01 -8.810667e+00 -6.832016e+00 -2.303772e+00 7.913595e-01 -4.542315e+00 6.242879e+01 2.312172e+00 8.960439e-01 -2.632211e-01 -2.302202e+00 -1.892055e+00 2.414218e+00 -1.592895e+00 -1.063952e+00 -1.064827e+00 -5.328261e-04 1.645624e+00 -2.261824e-01 1.239751e+00 -4.470441e-01 2.583818e-02 1.178844e-01 -5.903158e-02 1.191908e-01 2.130072e-01 5.045789e-01 1.957396e-01 -6.232564e-02 -8.101627e-02 -6.334636e-02 1.165643e-01 -5.365607e-01
<VARIANCE> 39
 2.513420e+01 3.890591e+01 3.986354e+01 8.296214e+01 5.329198e+01 5.696692e+01 8.382962e+01 8.001149e+01 5.924291e+01 5.136183e+01 4.201492e+01 3.466880e+01 7.377467e+01 4.634939e+00 3.285413e+00 4.815866e+00 5.321936e+00 6.197954e+00 4.856127e+00 6.294636e+00 7.772353e+00 5.477314e+00 5.437949e+00 4.205089e+00 3.713502e+00 3.839816e+00 7.137376e-01 6.021312e-01 5.486288e-01 9.748560e-01 8.449884e-01 8.119524e-01 1.190081e+00 1.085334e+00 8.916020e-01 8.053762e-01 6.829308e-01 6.062410e-01 8.575081e-01
<GCONST> 1.408925e+02
<STATE> 3
<MEAN> 39
 2.920722e+00 1.954342e+00 -3.595050e+00 -1.388217e+01 -1.575263e+01 7.856220e+00 -1.900716e+01 -1.110865e+01 -9.414984e+00 -3.831688e+00 5.374391e+00 -3.584351e+00 6.509753e+01 2.028785e-01 4.897166e-02 -2.499463e-02 -4.815075e-01 -1.341290e-03 6.233965e-01 -5.200958e-02 -1.043538e-01 -2.744562e-01 1.411952e-01 3.700820e-01 -1.787231e-02 5.413792e-04 -3.987205e-01 -1.483151e-01 2.023966e-01 7.913566e-01 6.392866e-01 -9.236472e-01 4.805404e-01 3.115493e-01 3.995964e-01 1.095751e-01 -7.184752e-01 -1.128475e-01 -4.727660e-01
<VARIANCE> 39
 1.281552e+01 3.587333e+01 3.677989e+01 7.438491e+01 5.068870e+01 5.074283e+01 8.287864e+01 9.752073e+01 7.070025e+01 7.047578e+01 5.039371e+01 4.339962e+01 2.521634e+01 8.520142e-01 3.073499e+00 1.834336e+00 5.952960e+00 4.114814e+00 4.661007e+00 5.139603e+00 5.657601e+00 5.029916e+00 4.870957e+00 4.043097e+00 3.059280e+00 2.181704e+00 3.325047e-01 4.507160e-01 4.514118e-01 7.264582e-01 8.314426e-01 6.591757e-01 9.909025e-01 1.125123e+00 9.012203e-01 9.892026e-01 7.802559e-01 6.794598e-01 3.291225e-01
<GCONST> 1.328082e+02
<STATE> 4
<MEAN> 39
 3.156934e+00 3.987581e+00 -3.353505e+00 -1.520822e+01 -1.339562e+01 4.502996e+00 -1.652072e+01 -7.884958e+00 -9.661488e+00 -3.351903e+00 1.799983e+00 -4.530672e+00 6.135615e+01 -2.264249e-01 -1.485834e-01 2.531319e-01 8.992735e-01 6.430447e-01 -7.741862e-01 6.111768e-01 9.784059e-02 5.658684e-01 2.440921e-01 -6.826558e-01 -1.893778e-01 -8.394207e-01 -1.816201e-01 -8.609200e-02 1.112693e-01 3.222244e-01 1.118625e-01 -1.716704e-01 1.192988e-01 -5.146645e-02 1.419179e-01 -4.666221e-03 -1.334314e-01 1.840795e-02 -1.529773e-01
<VARIANCE> 39
 1.305954e+01 4.390783e+01 3.930605e+01 7.623129e+01 5.266364e+01 5.581035e+01 7.562192e+01 8.068382e+01 6.799465e+01 6.537749e+01 5.034454e+01 4.505894e+01 5.281812e+01 8.310604e-01 2.246729e+00 1.876251e+00 3.706053e+00 3.200068e+00 3.282499e+00 3.425765e+00 3.650128e+00 3.239649e+00 3.285105e+00 3.296495e+00 2.742946e+00 3.100569e+00 1.705167e-01 3.518421e-01 2.829781e-01 4.979876e-01 4.770235e-01 4.556721e-01 6.227016e-01 6.579667e-01 5.399091e-01 6.263221e-01 5.423842e-01 4.955272e-01 2.849332e-01
<GCONST> 1.251242e+02
<TRANSP> 5
 0.000000e+00 1.000000e+00 0.000000e+00 0.000000e+00 0.000000e+00
 0.000000e+00 4.832182e-01 5.167818e-01 0.000000e+00 0.000000e+00
 0.000000e+00 0.000000e+00 6.344534e-01 3.655466e-01 0.000000e+00
 0.000000e+00 0.000000e+00 0.000000e+00 7.563250e-01 2.436750e-01
 0.000000e+00 0.000000e+00 0.000000e+00 0.000000e+00 0.000000e+00
<ENDHMM>
~h "w"
<BEGINHMM>
<NUMSTATES> 5
<STATE> 2
<MEAN> 39
 2.863582e+00 -4.646972e-01 -3.809599e+00 -1.324968e+01 -1.122799e+01 2.567670e+00 -1.311143e+01 -5.700740e+00 -6.056808e+00 -1.529363e+00 1.725459e+00 -5.542450e+00 6.013535e+01 1.517473e+00 9.902546e-01 -1.408203e-01 -2.084065e+00 -1.063841e+00 1.472055e+00 -2.150873e-01 -4.879212e-01 -1.052656e+00 -4.906804e-01 9.580138e-01 6.247220e-01 3.305526e-01 -2.722730e-01 -1.561790e-01 1.565537e-01 -5.233613e-02 -1.836612e-01 -1.020575e-01 1.923888e-01 3.190786e-01 8.823670e-02 -2.398167e-01 -1.350394e-01 1.155165e-01 4.177409e-02
<VARIANCE> 39
 2.416390e+01 7.329482e+01 4.634052e+01 8.671785e+01 5.162498e+01 7.339476e+01 7.525312e+01 6.191491e+01 6.746996e+01 6.029026e+01 5.499425e+01 4.114920e+01 1.144277e+02 2.330227e+00 2.888264e+00 3.092823e+00 3.921888e+00 4.884266e+00 4.431486e+00 4.355015e+00 4.515517e+00 3.809518e+00 4.156889e+00 3.335865e+00 3.570099e+00 4.426569e+00 4.709091e-01 5.065861e-01 4.520588e-01 6.966953e-01 7.930358e-01 7.707766e-01 7.715117e-01 7.341312e-01 7.644458e-01 7.718699e-01 6.710657e-01 5.814473e-01 2.808269e-01
<GCONST> 1.357121e+02
<STATE> 3
<MEAN> 39
 5.989298e+00 7.364264e-01 -4.142816e+00 -2.237861e+01 -1.621126e+01 7.724803e+00 -1.257343e+01 -4.366947e+00 -6.552268e+00 -4.793241e+00 2.737284e+00 -2.830491e+00 6.333861e+01 -5.254724e-02 -4.422467e-01 -2.574227e-01 -5.757023e-01 -1.453952e-02 4.840738e-01 5.803213e-02 -9.449393e-02 2.477708e-01 1.532523e-01 3.070954e-01 6.690533e-02 5.132754e-01 -2.733380e-01 -4.984319e-01 -1.625914e-01 3.951047e-01 4.571002e-01 -1.155166e-01 -1.590242e-02 -8.984113e-02 2.970225e-01 3.590741e-01 -6.999405e-02 -4.159473e-01 2.852386e-01
<VARIANCE> 39
 9.984281e+00 3.778163e+01 3.460192e+01 5.950315e+01 4.930023e+01 4.743082e+01 5.059377e+01 5.502897e+01 6.385296e+01 5.280598e+01 5.051520e+01 3.443373e+01 3.048010e+01 5.035695e-01 3.185399e+00 1.661971e+00 2.229632e+00 2.717811e+00 2.609489e+00 2.368016e+00 2.322009e+00 2.351373e+00 3.095567e+00 2.669571e+00 2.435465e+00 1.989723e+00 6.938787e-02 1.797872e-01 2.236636e-01 3.580206e-01 3.702044e-01 5.239394e-01 4.007251e-01 4.432076e-01 4.375863e-01 4.272314e-01 5.228065e-01 4.618260e-01 1.346796e-01
<GCONST> 1.145413e+02
<STATE> 4
<MEAN> 39
 2.961349e+00 -7.350645e+00 -8.254888e+00 -2.183132e+01 -1.066990e+01 1.038454e+01 -1.107979e+01 -6.864191e+00 -2.015028e+00 -8.472383e-01 4.394137e+00 -8.307835e+00 6.982840e+01 -7.975035e-01 -1.657061e+00 -4.144608e-01 1.232992e+00 1.504902e+00 -5.435091e-01 -1.099770e-01 1.636111e-01 1.115965e+00 6.811294e-01 -9.609832e-01 -1.792754e+00 1.005739e+00 -1.050128e-02 1.974752e-01 3.016371e-01 3.393124e-01 -1.928875e-01 -4.968152e-01 -5.816609e-02 3.379848e-01 -3.937916e-03 -3.291079e-01 -4.307948e-01 1.109141e-01 -2.144201e-01
<VARIANCE> 39
 1.182112e+01 4.026767e+01 3.833412e+01 6.039503e+01 5.335355e+01 5.642907e+01 6.401691e+01 5.843402e+01 7.050353e+01 5.902865e+01 5.577459e+01 5.905294e+01 2.477806e+01 3.449679e-01 1.402348e+00 1.184743e+00 1.939086e+00 2.150906e+00 2.686584e+00 2.024507e+00 2.379807e+00 2.266574e+00 2.250867e+00 2.699258e+00 2.522797e+00 6.773611e-01 6.555780e-02 1.744825e-01 1.645379e-01 2.590089e-01 3.677365e-01 3.728924e-01 3.462458e-01 3.992364e-01 3.134149e-01 4.154648e-01 4.291011e-01 4.848652e-01 8.507546e-02
<GCONST> 1.103961e+02
<TRANSP> 5
 0.000000e+00 1.000000e+00 0.000000e+00 0.000000e+00 0.000000e+00
 0.000000e+00 6.215392e-01 3.784608e-01 0.000000e+00 0.000000e+00
 0.000000e+00 0.000000e+00 7.960632e-01 2.039368e-01 0.000000e+00
 0.000000e+00 0.000000e+00 0.000000e+00 6.979420e-01 3.020580e-01
 0.000000e+00 0.000000e+00 0.000000e+00 0.000000e+00 0.000000e+00
<ENDHMM>
~h "y"
<BEGINHMM>
<NUMSTATES> 5
<STATE> 2
<MEAN> 39
 -5.089697e+00 -4.016455e+00 9.743668e+00 -7.879341e+00 -1.615025e+01 -7.448508e+00 -1.199225e+01 7.940320e-01 -7.492450e+00 -3.875614e+00 4.481454e-01 -4.465010e+00 6.408300e+01 -2.173323e-03 8.688145e-01 2.846166e+00 -1.491179e-01 -1.851278e+00 -5.353875e-01 -1.195077e+00 -5.554195e-01 -1.468035e+00 -1.454464e-02 1.554023e+00 6.670402e-01 8.291594e-01 -4.233220e-02 -1.158081e-01 -3.379700e-01 -7.709832e-02 2.166953e-01 2.979719e-01 -8.449262e-02 -2.636494e-01 1.139014e-01 2.304761e-03 -8.183002e-02 -4.612877e-02 6.474334e-03
<VARIANCE> 39
 2.565539e+01 7.826439e+01 9.116656e+01 5.305101e+01 5.816391e+01 6.918585e+01 6.875305e+01 9.274242e+01 7.232320e+01 5.736615e+01 4.749916e+01 3.785168e+01 1.347488e+02 2.435822e+00 2.840101e+00 3.679125e+00 3.046253e+00 3.691163e+00 3.971727e+00 4.461862e+00 4.865770e+00 4.052177e+00 4.304046e+00 3.070909e+00 2.924726e+00 5.358835e+00 2.566510e-01 4.491724e-01 7.989903e-01 4.665117e-01 7.168905e-01 6.739772e-01 7.655231e-01 8.287932e-01 7.045299e-01 6.180206e-01 5.758078e-01 4.463138e-01 3.195546e-01
<GCONST> 1.347405e+02
<STATE> 3
<MEAN> 39
 -5.958452e+00 -2.276718e+00 1.707729e+01 -8.407070e+00 -2.088676e+01 -7.296369e+00 -1.645200e+01 -3.066325e+00 -1.139178e+01 -3.558163e+00 4.298609e+00 -2.615268e+00 6.743975e+01 1.115285e-01 -6.262710e-01 -5.681077e-01 -2.112418e-01 -4.611729e-01 -4.324699e-01 1.582747e-01 5.269880e-01 5.222731e-01 2.635036e-01 2.400100e-01 1.545016e-01 6.543717e-01 1.113919e-01 -3.341088e-01 -7.205032e-01 -3.067425e-02 2.752976e-01 -2.416001e-02 3.789575e-01 4.618385e-01 4.938826e-01 5.198176e-03 -3.557586e-01 -1.822728e-01 4.550434e-02
<VARIANCE> 39
 1.273650e+01 3.630884e+01 5.232579e+01 4.749640e+01 3.303886e+01 5.148766e+01 4.533378e+01 6.541077e+01 5.997436e+01 7.362658e+01 4.159327e+01 4.009591e+01 3.339780e+01 5.068216e-01 2.331867e+00 3.609731e+00 1.274529e+00 1.795527e+00 1.968792e+00 2.542526e+00 3.681651e+00 3.261786e+00 1.965746e+00 1.600678e+00 1.366405e+00 1.595398e+00 8.698656e-02 1.811981e-01 2.578963e-01 2.142578e-01 4.622350e-01 3.723928e-01 4.057537e-01 3.987409e-01 3.897024e-01 4.637644e-01 4.124811e-01 3.018640e-01 1.512508e-01
<GCONST> 1.123769e+02
<STATE> 4
<MEAN> 39
 -3.805301e+00 -9.842248e+00 5.745681e+00 -1.054787e+01 -2.023480e+01 -1.034633e+01 -1.059570e+01 6.102999e+00 -2.670908e+00 -3.623453e+00 1.228536e+00 -4.177885e+00 7.260197e+01 4.579701e-01 -1.460881e+00 -2.836709e+00 -1.812900e-01 1.753064e+00 7.409939e-01 1.102573e+00 1.541910e+00 1.738612e+00 -8.100744e-01 -2.169132e+00 -1.149421e+00 5.915985e-01 -4.296486e-03 1.971715e-01 3.372407e-02 1.114099e-01 6.060503e-01 5.036674e-01 -2.720177e-01 -6.219210e-01 -2.629500e-01 -1.600875e-01 -2.801652e-01 -2.041270e-01 -2.657764e-01
<VARIANCE> 39
 1.162992e+01 2.854376e+01 4.671021e+01 4.496992e+01 3.802172e+01 4.449028e+01 5.907375e+01 7.546616e+01 6.178214e+01 5.391803e+01 4.671455e+01 3.669180e+01 2.631690e+01 3.693244e-01 1.206549e+00 2.063363e+00 1.249602e+00 2.109476e+00 1.828014e+00 2.813996e+00 3.280957e+00 2.712864e+00 3.198839e+00 2.496072e+00 1.728028e+00 5.913660e-01 6.254885e-02 1.575456e-01 2.466690e-01 2.297060e-01 3.682948e-01 3.479067e-01 4.161406e-01 5.487561e-01 4.019394e-01 4.487992e-01 4.802491e-01 2.957860e-01 8.916333e-02
<GCONST> 1.095009e+02
<TRANSP> 5
 0.000000e+00 1.000000e+00 0.000000e+00 0.000000e+00 0.000000e+00
 0.000000e+00 6.821312e-01 3.178688e-01 0.000000e+00 0.000000e+00
 0.000000e+00 0.000000e+00 8.094376e-01 1.905623e-01 0.000000e+00
 0.000000e+00 0.000000e+00 0.000000e+00 6.634547e-01 3.365454e-01
 0.000000e+00 0.000000e+00 0.000000e+00 0.000000e+00 0.000000e+00
<ENDHMM>
~h "z"
<BEGINHMM>
<NUMSTATES> 5
<STATE> 2
<MEAN> 39
 -7.639266e+00 4.469823e+00 2.694304e+00 -6.314166e-01 -6.249608e+00 -1.066011e+01 -1.280699e+01 -4.070342e+00 -2.783335e+00 -2.727132e+00 -4.400089e+00 -1.666077e+00 6.346970e+01 -2.137512e+00 2.625159e+00 -4.052840e-01 1.129648e+00 1.678125e+00 -6.296007e-01 1.042663e+00 -1.448364e-01 2.365137e-01 -4.339972e-01 -7.249404e-02 7.090884e-01 -3.655374e-01 -3.007061e-01 -5.534905e-02 -1.820704e-01 -1.734690e-01 2.890280e-02 4.112192e-01 1.937172e-01 1.620000e-01 -2.387326e-02 4.385580e-02 1.610226e-01 -1.612562e-01 -7.771144e-02
<VARIANCE> 39
 4.280363e+01 4.814452e+01 4.466348e+01 4.927401e+01 5.840867e+01 4.594278e+01 7.429355e+01 5.937481e+01 4.961494e+01 4.523489e+01 3.026405e+01 3.175820e+01 8.326882e+01 2.932777e+00 3.316879e+00 3.326547e+00 3.403701e+00 3.744603e+00 4.274579e+00 4.615448e+00 5.460121e+00 3.800866e+00 3.467324e+00 3.273893e+00 2.828903e+00 3.624334e+00 4.491899e-01 6.617914e-01 4.655183e-01 4.843324e-01 5.861219e-01 5.617238e-01 8.391100e-01 6.701987e-01 5.701550e-01 6.155414e-01 5.314438e-01 4.993933e-01 3.233678e-01
<GCONST> 1.311996e+02
<STATE> 3
<MEAN> 39
 -1.927848e+01 1.244931e+01 1.190727e+00 2.439242e+00 -7.556884e-01 -9.295594e+00 -8.238202e+00 -3.510170e+00 -3.187044e+00 -3.855099e+00 -3.001681e+00 -1.277054e-01 6.275805e+01 -4.585439e-01 -4.179359e-01 1.013817e-01 -6.927200e-02 -2.950565e-01 -4.597900e-03 -5.608175e-02 -2.673380e-02 -4.136934e-02 -1.601421e-03 2.317895e-01 1.976045e-01 4.891725e-01 6.731190e-01 -6.311734e-01 1.240031e-01 -2.233428e-01 -5.588993e-01 -5.887416e-02 -2.778284e-01 -1.035858e-01 2.542382e-02 3.436630e-02 -2.195223e-02 -8.572892e-02 2.267100e-01
<VARIANCE> 39
 4.485940e+01 2.500253e+01 3.306498e+01 4.152669e+01 3.684054e+01 4.044815e+01 4.804210e+01 2.811841e+01 2.448671e+01 2.218851e+01 2.154979e+01 1.920449e+01 2.844795e+01 4.816697e+00 3.112794e+00 1.998808e+00 1.593973e+00 3.282372e+00 2.384464e+00 2.567692e+00 2.160221e+00 2.052550e+00 1.557065e+00 1.485413e+00 1.314851e+00 1.651750e+00 4.547003e-01 3.639453e-01 3.513717e-01 3.384603e-01 4.677797e-01 4.738393e-01 4.769151e-01 4.554534e-01 4.324950e-01 3.347893e-01 3.043724e-01 2.992874e-01 1.886868e-01
<GCONST> 1.131236e+02
<STATE> 4
<MEAN> 39
 -2.026387e+01 2.584156e+00 -1.597636e+00 -3.440844e+00 -4.898482e+00 -8.532657e+00 -7.331740e+00 -2.728154e+00 -2.348040e+00 -3.475203e+00 -1.005706e+00 -5.382742e-02 5.984401e+01 1.855404e+00 -1.334551e+00 3.887610e-01 -5.542274e-01 -1.444926e+00 -2.254070e-01 -8.058294e-01 -2.653610e-01 3.109934e-01 8.890093e-02 -1.260552e-01 -2.977986e-01 5.840550e-01 2.985759e-01 -1.503441e-02 9.346275e-02 -5.704981e-02 -3.338207e-02 2.399649e-01 -1.318511e-01 2.196677e-02 -3.420159e-02 -1.504557e-02 -4.407431e-03 -2.681754e-01 -2.643875e-02
<VARIANCE> 39
 9.900627e+01 3.383654e+01 5.482071e+01 4.575725e+01 4.439856e+01 4.893410e+01 5.631417e+01 3.634078e+01 3.668438e+01 2.297888e+01 2.661261e+01 2.027629e+01 1.039933e+02 5.972908e+00 4.477308e+00 2.969440e+00 2.998919e+00 4.722073e+00 2.881337e+00 3.727575e+00 3.933014e+00 3.630930e+00 2.162841e+00 2.213102e+00 1.963977e+00 2.808473e+00 5.984253e-01 3.451524e-01 4.136834e-01 3.408506e-01 4.303918e-01 5.622315e-01 5.564107e-01 5.899681e-01 4.476319e-01 3.579789e-01 4.129180e-01 3.803123e-01 1.991100e-01
<GCONST> 1.245672e+02
<TRANSP> 5
 0.000000e+00 1.000000e+00 0.000000e+00 0.000000e+00 0.000000e+00
 0.000000e+00 7.233247e-01 2.766753e-01 0.000000e+00 0.000000e+00
 0.000000e+00 0.000000e+00 8.459061e-01 1.540939e-01 0.000000e+00
 0.000000e+00 0.000000e+00 0.000000e+00 6.890662e-01 3.109339e-01
 0.000000e+00 0.000000e+00 0.000000e+00 0.000000e+00 0.000000e+00
<ENDHMM>
~h "ai"
<BEGINHMM>
<NUMSTATES> 5
<STATE> 2
<MEAN> 39
 -1.815934e+00 -1.611287e+01 -3.215351e+00 -1.177093e+01 -1.035031e+01 -2.578073e+00 -9.331822e+00 5.607091e+00 1.205648e+00 -5.773726e+00 -6.443765e+00 -9.091681e+00 7.380980e+01 -3.402028e-01 3.256673e-02 1.202321e+00 2.126926e-01 -1.277100e+00 -1.244219e+00 7.353134e-01 1.159796e+00 -6.660423e-01 -3.461277e-01 3.555431e-01 7.158058e-01 8.589616e-02 -6.311319e-02 4.695593e-01 3.664739e-01 1.773087e-02 -2.724210e-01 -1.244114e-01 -1.317456e-01 -4.564949e-01 -3.610744e-01 3.767592e-01 4.702499e-01 1.977440e-01 -2.917230e-01
<VARIANCE> 39
 1.295309e+01 2.809238e+01 5.443116e+01 4.054458e+01 6.429956e+01 7.480807e+01 6.175257e+01 7.254861e+01 5.953606e+01 4.852222e+01 5.109443e+01 3.880110e+01 1.941929e+01 3.350434e-01 1.471553e+00 1.977658e+00 1.273985e+00 2.847736e+00 2.686219e+00 2.130886e+00 3.079739e+00 2.248109e+00 2.795171e+00 3.386201e+00 1.957857e+00 4.108078e-01 1.021574e-01 1.596118e-01 2.154813e-01 2.646467e-01 3.855793e-01 4.401345e-01 4.313478e-01 6.791331e-01 4.140898e-01 4.136421e-01 4.612166e-01 4.181609e-01 1.068137e-01
<GCONST> 1.120302e+02
<STATE> 3
<MEAN> 39
 -3.927250e+00 -9.316196e+00 1.010851e+01 -1.104504e+01 -2.212051e+01 -9.800857e+00 -1.036877e+01 4.178136e+00 -7.628024e+00 -4.337817e-01 2.804785e+00 -4.387999e+00 7.129578e+01 -2.935044e-01 1.292015e+00 1.684485e+00 1.871233e-01 -7.232397e-01 -5.804503e-02 -7.745935e-01 -1.685245e+00 -1.387055e+00 6.520878e-01 9.296514e-01 2.379955e-01 -6.924100e-01 8.225160e-02 -7.873712e-03 -3.167139e-01 1.563909e-01 5.025643e-01 2.273994e-01 -5.004391e-02 -9.965389e-02 1.802088e-01 -2.565283e-01 -4.227492e-01 -1.778746e-01 -1.545568e-01
<VARIANCE> 39
 1.199586e+01 2.858607e+01 4.858025e+01 3.775060e+01 3.030237e+01 4.485938e+01 5.093028e+01 7.624142e+01 6.007633e+01 5.378943e+01 4.801592e+01 3.364239e+01 2.053610e+01 2.891539e-01 9.241970e-01 1.688179e+00 9.580984e-01 1.949823e+00 1.570244e+00 1.919803e+00 2.267301e+00 2.049254e+00 2.216212e+00 2.537260e+00 1.364309e+00 2.863304e-01 5.490527e-02 1.303793e-01 1.796300e-01 1.726174e-01 2.405906e-01 2.891650e-01 3.926798e-01 5.151066e-01 3.161190e-01 3.168854e-01 3.109173e-01 2.524888e-01 7.439614e-02
<GCONST> 1.021333e+02
<STATE> 4
<MEAN> 39
 -4.736004e+00 -1.343940e+00 1.347930e+01 -7.114847e+00 -1.991524e+01 -7.809317e+00 -1.191403e+01 -3.950502e+00 -1.075473e+01 -1.194694e+00 1.534810e+00 -4.792377e+00 6.140153e+01 1.696307e-01 6.742118e-01 -6.499966e-01 8.132402e-01 9.963827e-01 6.991185e-02 3.764270e-01 -3.307080e-01 3.235045e-01 -2.872947e-01 -5.819612e-01 -5.845726e-02 -1.772281e+00 2.559250e-02 -6.363547e-02 -3.401077e-01 6.099126e-02 2.231380e-01 2.749868e-02 1.296019e-01 1.017844e-01 2.451282e-01 -1.846296e-02 -9.581641e-02 2.787504e-02 -1.344901e-01
<VARIANCE> 39
 1.661659e+01 4.192688e+01 4.675889e+01 4.737218e+01 4.031064e+01 6.122155e+01 5.417018e+01 7.934782e+01 5.743819e+01 5.960664e+01 5.151673e+01 3.734278e+01 8.787588e+01 1.063654e+00 1.685016e+00 2.298681e+00 2.011920e+00 2.632256e+00 2.458872e+00 2.909544e+00 2.955406e+00 3.102427e+00 2.473831e+00 2.202205e+00 1.869349e+00 2.583400e+00 1.709557e-01 2.842906e-01 3.322015e-01 3.444769e-01 4.742861e-01 4.637243e-01 5.298196e-01 5.904482e-01 5.713692e-01 4.675874e-01 4.402434e-01 3.523681e-01 3.638664e-01
<GCONST> 1.207536e+02
<TRANSP> 5
 0.000000e+00 1.000000e+00 0.000000e+00 0.000000e+00 0.000000e+00
 0.000000e+00 8.294389e-01 1.705611e-01 0.000000e+00 0.000000e+00
 0.000000e+00 0.000000e+00 8.090484e-01 1.909516e-01 0.000000e+00
 0.000000e+00 0.000000e+00 0.000000e+00 8.211479e-01 1.788521e-01
 0.000000e+00 0.000000e+00 0.000000e+00 0.000000e+00 0.000000e+00
<ENDHMM>
~h "au"
<BEGINHMM>
<NUMSTATES> 5
<STATE> 2
<MEAN> 39
 -8.500227e-01 -1.056427e+01 -9.761660e+00 -1.644961e+01 -7.924508e+00 5.426865e+00 -1.288328e+01 -3.021460e+00 1.550992e+00 -3.438720e-01 -3.112741e+00 -1.096391e+01 7.227734e+01 6.578879e-01 -8.007354e-01 -9.160693e-01 -1.344761e+00 5.123301e-01 2.076896e+00 -2.471246e-01 -1.173443e-01 3.945291e-01 9.328461e-03 4.719194e-01 -9.824910e-01 1.137072e+00 -3.012722e-01 5.175995e-01 3.772115e-01 3.007191e-01 -1.268031e-03 -3.556609e-01 2.333675e-01 -3.104295e-01 -5.352385e-01 -2.405490e-03 2.532738e-01 5.589709e-01 -8.418555e-01
<VARIANCE> 39
 1.569785e+01 3.387770e+01 4.589809e+01 5.087351e+01 5.019754e+01 7.530757e+01 6.073031e+01 7.984591e+01 5.743981e+01 5.353664e+01 5.554918e+01 4.018116e+01 3.896897e+01 2.411129e+00 2.486196e+00 2.316047e+00 3.294518e+00 3.707532e+00 4.047217e+00 3.440845e+00 4.265093e+00 3.873146e+00 3.421288e+00 4.535122e+00 3.531301e+00 3.283544e+00 4.157370e-01 3.265735e-01 3.761701e-01 6.494777e-01 5.671454e-01 6.358758e-01 7.237257e-01 6.820657e-01 6.237779e-01 6.250467e-01 7.375686e-01 5.146606e-01 6.510420e-01
<GCONST> 1.301303e+02
<STATE> 3
<MEAN> 39
 5.741630e-01 -8.210218e+00 -1.080307e+01 -2.086938e+01 -8.817788e+00 1.027278e+01 -1.187333e+01 -5.982654e+00 -1.291206e+00 -1.236979e+00 1.706404e+00 -9.724338e+00 7.142374e+01 3.865652e-01 1.070149e+00 2.051827e-01 -8.303192e-01 -6.210561e-01 2.028844e-01 -1.366780e-01 -5.096322e-02 -8.155107e-01 -1.046160e-01 6.929433e-01 9.217234e-01 -5.978839e-01 4.347110e-02 1.843729e-01 1.321760e-01 1.255708e-01 -1.525551e-01 -2.269764e-01 -7.538425e-02 8.306306e-02 -1.021266e-01 -6.193878e-02 -1.402570e-01 1.321076e-01 -1.683282e-01
<VARIANCE> 39
 1.477425e+01 3.821851e+01 3.808073e+01 5.079977e+01 4.634048e+01 4.714605e+01 5.846051e+01 5.857846e+01 5.464224e+01 5.010884e+01 5.351553e+01 5.155232e+01 2.013206e+01 2.683874e-01 9.585832e-01 5.734062e-01 1.114781e+00 1.280490e+00 1.300083e+00 1.449439e+00 1.676404e+00 1.784105e+00 1.749074e+00 1.912670e+00 2.037037e+00 3.079773e-01 4.590989e-02 1.123500e-01 1.018549e-01 2.186547e-01 2.037925e-01 2.237872e-01 2.309766e-01 2.764425e-01 2.656085e-01 3.046636e-01 3.513905e-01 3.272635e-01 4.517710e-02
<GCONST> 9.847666e+01
<STATE> 4
<MEAN> 39
 3.884699e+00 2.424074e+00 -6.531054e+00 -2.219740e+01 -1.371908e+01 6.578375e+00 -1.424526e+01 -3.967352e+00 -7.372497e+00 -2.441204e+00 1.179789e+00 -3.634454e+00 6.209524e+01 3.170374e-02 6.273354e-01 4.988215e-01 1.468256e+00 1.508231e-01 -9.679378e-01 -5.294531e-02 -2.178484e-01 -2.480197e-01 -5.227306e-02 -4.575626e-01 -3.736076e-02 -1.371222e+00 -1.742518e-01 -2.235337e-01 4.774746e-02 4.275313e-01 2.934945e-01 -1.340811e-01 1.596951e-01 -9.127820e-02 2.056260e-01 5.953599e-02 -1.197274e-01 -1.727680e-01 -6.999027e-02
<VARIANCE> 39
 1.240780e+01 4.067579e+01 3.816671e+01 6.510356e+01 5.427350e+01 5.375972e+01 6.106429e+01 6.296347e+01 6.119799e+01 6.527798e+01 5.282301e+01 4.399293e+01 5.411984e+01 7.529321e-01 2.121525e+00 1.463823e+00 3.544010e+00 3.092916e+00 2.868240e+00 2.964388e+00 3.032090e+00 2.727088e+00 3.081622e+00 2.827240e+00 2.541198e+00 1.656217e+00 1.239201e-01 2.761710e-01 2.420771e-01 4.482403e-01 4.819092e-01 5.234042e-01 4.915428e-01 5.095231e-01 4.965107e-01 5.430138e-01 5.612729e-01 5.040483e-01 2.454598e-01
<GCONST> 1.207500e+02
<TRANSP> 5
 0.000000e+00 1.000000e+00 0.000000e+00 0.000000e+00 0.000000e+00
 0.000000e+00 6.664338e-01 3.335662e-01 0.000000e+00 0.000000e+00
 0.000000e+00 0.000000e+00 8.507997e-01 1.492003e-01 0.000000e+00
 0.000000e+00 0.000000e+00 0.000000e+00 8.506004e-01 1.493997e-01
 0.000000e+00 0.000000e+00 0.000000e+00 0.000000e+00 0.000000e+00
<ENDHMM>
~h "kh"
<BEGINHMM>
<NUMSTATES> 5
<STATE> 2
<MEAN> 39
 -8.409632e+00 -3.274601e+00 -4.074534e+00 -5.562262e+00 -3.046164e+00 -2.745089e+00 -7.129564e+00 -3.037262e+00 -4.316408e+00 -1.037845e+00 -3.565214e+00 -3.498333e+00 5.323239e+01 -1.258710e+00 -6.307196e-01 -1.095660e+00 -4.748175e-02 1.307974e+00 -3.140911e-01 1.553487e-01 5.927955e-01 2.715588e-02 2.323693e-01 -1.676409e-02 5.293079e-01 3.628436e-01 -3.101508e-02 -2.946333e-01 -6.701422e-02 -2.848150e-01 -2.630756e-01 9.960683e-02 -1.870433e-01 -3.390056e-02 3.771309e-02 6.492625e-02 1.076645e-01 -7.853849e-02 4.511924e-01
<VARIANCE> 39
 3.859965e+01 5.756068e+01 7.273251e+01 5.755750e+01 8.609309e+01 8.063950e+01 5.111297e+01 4.705175e+01 5.528065e+01 3.999417e+01 4.523883e+01 3.571630e+01 1.438085e+02 3.425249e+00 5.786269e+00 5.538300e+00 4.853679e+00 7.262986e+00 6.420877e+00 5.602878e+00 4.930748e+00 4.998885e+00 4.277007e+00 4.267689e+00 3.610887e+00 1.252521e+01 5.016381e-01 9.863588e-01 8.742414e-01 7.467867e-01 1.246171e+00 1.173195e+00 1.008672e+00 8.332325e-01 8.710166e-01 8.010621e-01 7.750095e-01 6.097231e-01 1.534032e+00
<GCONST> 1.445696e+02
<STATE> 3
<MEAN> 39
 -1.465290e+01 -9.043930e+00 -7.651618e+00 -7.586120e+00 -5.694912e-01 -2.710559e+00 -7.521696e+00 -1.118568e+00 -2.808056e+00 1.438248e+00 -2.560182e+00 -1.513612e+00 5.999853e+01 -5.637133e-02 -8.984666e-02 6.887766e-03 -4.587938e-01 -4.979002e-01 1.419670e-01 1.189488e-01 -7.380294e-02 -1.110327e-01 -2.151265e-02 2.122182e-01 -6.464764e-02 3.094423e-01 5.462093e-01 3.279935e-01 4.524063e-01 8.102925e-02 -3.322549e-01 1.079236e-01 -7.211258e-02 -1.463907e-01 -1.409450e-01 -2.135068e-01 -2.520069e-03 -2.222149e-01 -6.474749e-02
<VARIANCE> 39
 4.319363e+01 4.001007e+01 9.311309e+01 4.538235e+01 8.718246e+01 6.119035e+01 4.776877e+01 4.524881e+01 6.228738e+01 4.518322e+01 4.275867e+01 3.326165e+01 5.062439e+01 3.512756e+00 3.021203e+00 4.067734e+00 3.183615e+00 4.112287e+00 3.921883e+00 3.733284e+00 3.789482e+00 4.185397e+00 3.890113e+00 3.085366e+00 2.380481e+00 3.094840e+00 4.805798e-01 5.428752e-01 6.456563e-01 6.349837e-01 7.854865e-01 7.799935e-01 8.691890e-01 7.680074e-01 8.304926e-01 7.771012e-01 6.060399e-01 4.599797e-01 4.802991e-01
<GCONST> 1.335574e+02
<STATE> 4
<MEAN> 39
 -1.394052e+01 -5.472074e+00 -7.279420e+00 -5.961050e+00 -2.369040e+00 -1.684671e+00 -6.623648e+00 -2.955765e+00 -3.834769e+00 -3.291375e+00 -2.048570e+00 -2.408636e+00 4.557606e+01 4.088096e-01 1.328093e-01 2.139624e-01 -7.769828e-02 -2.121069e-01 1.376372e-01 -1.063607e-01 -1.164713e-01 -1.227208e-01 -7.854544e-02 1.629946e-03 -1.280345e-01 2.083907e-01 1.503314e-01 2.985065e-02 6.081765e-02 -2.425438e-02 -8.132363e-02 1.793540e-02 -8.158424e-02 -1.974773e-02 -2.940465e-02 3.337588e-03 2.781871e-02 -3.284316e-02 9.370925e-02
<VARIANCE> 39
 2.810629e+01 4.313068e+01 4.083881e+01 3.583301e+01 3.718742e+01 4.425177e+01 4.346669e+01 3.198119e+01 4.398579e+01 2.952544e+01 2.762115e+01 2.205578e+01 1.845513e+02 1.988814e+00 1.661880e+00 2.125380e+00 1.556680e+00 2.138037e+00 1.935103e+00 2.394301e+00 2.090360e+00 2.277295e+00 2.201377e+00 1.971872e+00 1.706453e+00 1.819010e+00 2.030170e-01 2.634673e-01 2.752670e-01 2.948294e-01 3.744200e-01 3.470082e-01 4.373263e-01 3.834743e-01 4.007845e-01 3.827192e-01 3.865983e-01 3.022844e-01 2.242765e-01
<GCONST> 1.135720e+02
<TRANSP> 5
 0.000000e+00 1.000000e+00 0.000000e+00 0.000000e+00 0.000000e+00
 0.000000e+00 7.525108e-01 2.474892e-01 0.000000e+00 0.000000e+00
