~o
<STREAMINFO> 1 39
<VECSIZE> 39<NULLD><MFCC_D_A_0><DIAGC>
~s "silst"
<MEAN> 39
 -1.103605e+01 -2.619454e+00 -1.404202e+00 -2.512600e+00 -4.101524e+00 -2.569032e+00 -5.456708e+00 -2.332590e+00 -4.024291e+00 -2.532025e+00 -2.570228e+00 -1.671078e+00 4.326385e+01 -6.583358e-02 -5.738199e-02 -3.905444e-02 -1.186762e-02 -6.830775e-02 -8.970163e-02 -2.067561e-02 1.683210e-02 -1.356658e-02 -3.803274e-02 8.433613e-03 3.225682e-02 -4.920362e-02 2.508750e-02 3.985223e-02 -2.497952e-03 4.593479e-03 6.770804e-03 2.235793e-03 4.459350e-03 -5.368023e-03 1.331630e-02 4.747767e-04 8.664802e-03 -1.152167e-02 -2.916545e-02
<VARIANCE> 39
 4.494310e+01 4.108289e+01 4.978263e+01 6.331677e+01 4.676716e+01 4.854777e+01 5.270368e+01 5.801810e+01 4.648183e+01 3.974789e+01 3.678866e+01 3.173545e+01 1.291145e+02 2.038325e+00 2.954165e+00 2.790987e+00 3.362659e+00 3.189009e+00 3.227300e+00 3.053106e+00 3.857866e+00 2.963427e+00 2.988693e+00 2.648190e+00 2.272610e+00 3.787939e+00 3.602269e-01 5.358850e-01 5.061166e-01 6.152698e-01 6.015817e-01 6.096509e-01 5.923067e-01 7.295850e-01 5.716265e-01 5.832899e-01 5.114163e-01 4.384490e-01 5.783956e-01
<GCONST> 1.287975e+02
~h "@"
<BEGINHMM>
<NUMSTATES> 5
<STATE> 2
<MEAN> 39
 -3.566739e+00 -1.179134e+01 4.484715e+00 -7.612298e+00 -1.924158e+01 -9.658465e+00 -9.456609e+00 5.701956e+00 -4.931601e+00 -2.820014e+00 4.732756e-01 -5.453058e+00 6.772028e+01 8.664486e-02 -9.395056e-01 8.913929e-01 -8.526902e-01 -1.664173e+00 -1.939184e-01 8.346229e-01 1.319338e+00 -4.779009e-01 -2.137517e-02 6.836365e-01 -1.428549e-01 1.649296e+00 -1.841281e-01 5.145646e-01 -1.750263e-01 1.460318e-01 5.161349e-01 2.440752e-01 1.642882e-01 -6.199452e-01 -8.380025e-03 1.269537e-01 -1.192240e-01 -1.376810e-02 -5.979328e-01
<VARIANCE> 39
 2.388857e+01 4.633316e+01 6.035012e+01 4.349498e+01 6.016256e+01 5.314032e+01 7.014423e+01 7.567471e+01 6.679934e+01 5.152863e+01 5.775660e+01 3.667053e+01 1.205466e+02 2.150523e+00 3.595964e+00 2.929749e+00 2.714503e+00 4.691441e+00 3.050564e+00 4.314251e+00 5.305495e+00 4.253934e+00 3.611353e+00 3.215895e+00 2.414083e+00 7.187092e+00 5.111629e-01 6.087636e-01 4.436688e-01 4.778709e-01 8.077886e-01 5.883405e-01 7.918373e-01 9.551965e-01 8.068411e-01 5.984974e-01 6.272783e-01 4.500555e-01 1.293170e+00
<GCONST> 1.349875e+02
<STATE> 3
<MEAN> 39
 -3.077130e+00 -1.242826e+01 6.406729e+00 -9.421467e+00 -2.166696e+01 -1.002213e+01 -7.945971e+00 7.160800e+00 -6.172658e+00 -1.711523e+00 1.966697e+00 -6.595068e+00 7.117030e+01 2.112436e-02 3.765376e-01 -3.281760e-02 1.786658e-01 2.188696e-01 -5.045003e-02 2.102874e-01 -2.805903e-01 -4.119841e-02 5.027672e-02 -1.316791e-01 -6.946658e-02 -5.454843e-01 3.094097e-02 2.097668e-01 -1.504457e-01 2.133538e-01 3.350018e-01 2.647000e-02 -1.490362e-01 -2.488122e-01 8.228265e-02 -2.504198e-02 -1.792548e-01 2.650272e-02 -3.667284e-01
<VARIANCE> 39
 1.318896e+01 3.377679e+01 5.653954e+01 3.958685e+01 4.587089e+01 5.393146e+01 6.415672e+01 7.099018e+01 6.518114e+01 5.569810e+01 5.767261e+01 3.629470e+01 4.645221e+01 6.361350e-01 1.437837e+00 1.341760e+00 1.539175e+00 1.893294e+00 1.590641e+00 2.256063e+00 2.231759e+00 2.118075e+00 1.761359e+00 1.756376e+00 1.198946e+00 2.853142e+00 1.367303e-01 2.460848e-01 2.200456e-01 2.669001e-01 3.842890e-01 3.182267e-01 4.412589e-01 4.435922e-01 3.957072e-01 3.590313e-01 3.206672e-01 2.342092e-01 3.119731e-01
<GCONST> 1.122097e+02
<STATE> 4
<MEAN> 39
 -6.802176e+00 -5.706274e+00 3.465084e+00 -5.558465e+00 -1.508783e+01 -8.221690e+00 -6.406169e+00 -8.505383e-01 -5.621459e+00 -2.940352e+00 -1.244331e-01 -4.340242e+00 5.535976e+01 -3.820438e-02 3.642361e-01 -2.421642e-01 2.580319e-01 5.208264e-01 1.318518e-01 -1.614180e-02 -2.766336e-01 8.081391e-02 -2.653533e-02 -2.581758e-01 4.336374e-02 -7.383364e-01 4.731061e-03 2.867828e-02 -1.926870e-02 3.545723e-02 9.884357e-02 4.005917e-02 -4.497863e-02 -4.695019e-02 5.199587e-03 2.244306e-02 -1.909238e-02 -2.294380e-03 -2.551665e-02
<VARIANCE> 39
 2.855200e+01 4.778045e+01 7.334749e+01 3.985312e+01 9.025311e+01 4.992778e+01 4.965930e+01 5.910350e+01 4.687312e+01 4.170666e+01 4.486893e+01 3.084296e+01 2.682202e+02 6.734561e-01 1.260393e+00 1.172103e+00 1.278118e+00 1.875228e+00 1.591488e+00 2.016884e+00 1.972554e+00 1.819411e+00 1.675878e+00 1.664833e+00 1.348896e+00 1.920365e+00 1.197491e-01 2.179747e-01 1.873390e-01 2.315350e-01 3.098925e-01 3.001094e-01 3.522483e-01 3.991750e-01 3.436286e-01 3.218816e-01 2.950247e-01 2.469764e-01 2.485153e-01
<GCONST> 1.116335e+02
<TRANSP> 5
 0.000000e+00 1.000000e+00 0.000000e+00 0.000000e+00 0.000000e+00
 0.000000e+00 6.517767e-01 3.482232e-01 0.000000e+00 0.000000e+00
 0.000000e+00 0.000000e+00 7.628124e-01 2.371876e-01 0.000000e+00
 0.000000e+00 0.000000e+00 0.000000e+00 8.752000e-01 1.248000e-01
 0.000000e+00 0.000000e+00 0.000000e+00 0.000000e+00 0.000000e+00
<ENDHMM>
~h "a"
<BEGINHMM>
<NUMSTATES> 5
<STATE> 2
<MEAN> 39
 -1.422357e+00 -1.338973e+01 -6.435722e+00 -1.222114e+01 -8.021297e+00 1.116134e-01 -1.137534e+01 2.028718e+00 1.791009e+00 -3.394009e+00 -5.295642e+00 -1.052826e+01 7.123003e+01 2.522843e-01 -1.541069e+00 -9.501082e-01 -4.686341e-01 9.892787e-01 9.841881e-01 3.615963e-01 6.305884e-01 6.456748e-01 -7.821736e-01 -1.003365e+00 -9.945003e-01 1.216030e+00 -2.562657e-01 5.117718e-01 3.272063e-01 4.509417e-01 1.001705e-01 -2.684810e-01 5.963039e-02 -4.730834e-01 -3.978665e-01 5.277450e-02 1.431575e-01 4.254752e-01 -6.390047e-01
<VARIANCE> 39
 1.994030e+01 3.583573e+01 4.941805e+01 4.773796e+01 6.212071e+01 8.055926e+01 5.919620e+01 8.807218e+01 6.173245e+01 5.451820e+01 5.604784e+01 4.240344e+01 7.115282e+01 1.719308e+00 2.470083e+00 2.465186e+00 2.736289e+00 3.334628e+00 3.848952e+00 3.439826e+00 4.573621e+00 3.514334e+00 3.144601e+00 3.536638e+00 2.946636e+00 3.430545e+00 4.138612e-01 4.330254e-01 4.125856e-01 4.976917e-01 6.266446e-01 6.429073e-01 6.465812e-01 8.038235e-01 6.447860e-01 5.797879e-01 6.730792e-01 5.259643e-01 6.264242e-01
<GCONST> 1.305378e+02
<STATE> 3
<MEAN> 39
 -1.042556e+00 -1.563689e+01 -7.785435e+00 -1.238493e+01 -6.010847e+00 1.921244e+00 -1.101200e+01 1.656918e+00 2.127630e+00 -4.818892e+00 -6.681940e+00 -1.192284e+01 7.281019e+01 8.213703e-02 2.948723e-01 5.669124e-02 3.016612e-01 2.883195e-01 -2.131000e-01 6.437416e-02 -1.491822e-01 -1.447698e-01 8.861564e-03 -1.315255e-01 6.285360e-02 -5.368333e-01 2.182457e-02 5.180040e-01 2.782654e-01 2.124021e-01 -2.210621e-01 -2.678200e-01 -9.675674e-02 -1.965247e-01 -1.871875e-01 2.242110e-01 2.224197e-01 2.513193e-01 -5.124454e-01
<VARIANCE> 39
 1.401399e+01 3.204675e+01 4.349256e+01 4.006303e+01 4.647715e+01 6.877303e+01 5.810177e+01 8.049344e+01 6.065145e+01 5.528833e+01 5.135773e+01 4.055834e+01 3.726640e+01 5.956413e-01 1.681004e+00 1.265156e+00 1.516858e+00 2.082301e+00 2.777122e+00 2.188005e+00 2.838626e+00 2.057798e+00 2.299173e+00 2.331582e+00 1.855843e+00 1.948580e+00 1.348772e-01 2.669317e-01 2.325443e-01 3.064982e-01 3.626784e-01 4.016034e-01 4.388984e-01 5.429863e-01 4.465612e-01 4.357136e-01 4.589098e-01 3.729846e-01 2.548976e-01
<GCONST> 1.149705e+02
<STATE> 4
<MEAN> 39
 -3.354906e+00 -1.017643e+01 -7.304287e+00 -8.408616e+00 -4.333764e+00 -1.054549e+00 -8.955019e+00 -6.325843e-01 1.712437e-01 -4.800632e+00 -6.747881e+00 -8.657173e+00 6.082043e+01 -3.759630e-02 8.317224e-01 4.008002e-01 5.386783e-01 -1.691546e-01 -3.733259e-01 -1.115332e-02 -2.462524e-01 -3.049342e-01 2.279825e-01 1.566716e-01 3.594077e-01 -1.292509e+00 -1.763107e-02 1.434930e-01 1.417322e-01 8.649306e-02 -6.765987e-02 -3.215127e-02 -1.187089e-02 -1.183492e-01 -8.056760e-02 5.799822e-02 6.451662e-02 6.616363e-02 -1.127011e-01
<VARIANCE> 39
 3.121339e+01 4.916907e+01 4.183455e+01 4.790123e+01 4.734644e+01 5.586325e+01 5.206392e+01 6.229658e+01 5.173722e+01 4.689307e+01 4.230074e+01 4.378171e+01 2.231577e+02 8.490511e-01 1.826454e+00 1.505010e+00 1.841541e+00 2.068369e+00 2.223743e+00 2.272425e+00 2.663689e+00 2.273332e+00 2.228284e+00 2.126342e+00 1.817622e+00 2.481441e+00 1.524830e-01 3.052378e-01 2.557943e-01 3.362302e-01 3.627937e-01 3.631655e-01 4.101136e-01 5.114032e-01 4.258031e-01 4.153136e-01 3.966593e-01 3.321050e-01 3.651812e-01
<GCONST> 1.180985e+02
<TRANSP> 5
 0.000000e+00 1.000000e+00 0.000000e+00 0.000000e+00 0.000000e+00
 0.000000e+00 5.851121e-01 4.148879e-01 0.000000e+00 0.000000e+00
 0.000000e+00 0.000000e+00 6.638029e-01 3.361971e-01 0.000000e+00
 0.000000e+00 0.000000e+00 0.000000e+00 7.861816e-01 2.138184e-01
 0.000000e+00 0.000000e+00 0.000000e+00 0.000000e+00 0.000000e+00
<ENDHMM>
~h "b"
<BEGINHMM>
<NUMSTATES> 5
<STATE> 2
<MEAN> 39
 3.149436e+00 4.768078e+00 2.922126e+00 -2.721557e+00 -6.548511e+00 1.519195e+00 -7.902880e+00 -9.585640e+00 -9.024016e+00 -2.914342e+00 -2.156246e+00 -6.412519e+00 4.904206e+01 6.755813e-01 1.404786e+00 4.994799e-01 4.692633e-01 5.901650e-01 2.905872e-01 7.705080e-01 -3.904022e-01 -3.671317e-01 -1.619717e-01 -2.759838e-01 -2.729942e-02 -1.130813e+00 -3.132491e-01 -4.586633e-01 -2.159208e-01 -2.964485e-01 -1.642776e-01 -1.954365e-01 -2.949388e-01 1.980043e-01 2.544433e-01 6.750682e-02 1.373214e-01 7.690167e-02 7.044108e-01
<VARIANCE> 39
 4.436614e+01 4.112758e+01 3.175446e+01 3.856817e+01 3.774234e+01 4.279565e+01 4.648261e+01 4.477375e+01 5.687401e+01 3.440931e+01 4.707575e+01 2.916308e+01 7.901595e+01 2.339159e+00 2.693959e+00 2.436816e+00 2.954078e+00 2.732327e+00 2.749939e+00 3.283632e+00 3.235782e+00 3.721936e+00 2.815139e+00 3.080077e+00 2.244531e+00 5.446754e+00 3.750480e-01 5.519744e-01 4.213781e-01 5.317538e-01 5.133935e-01 4.928735e-01 6.492409e-01 5.845081e-01 7.020808e-01 5.503612e-01 6.339382e-01 4.439437e-01 6.504456e-01
<GCONST> 1.266078e+02
<STATE> 3
<MEAN> 39
 4.298168e+00 6.139903e+00 2.968899e+00 -3.148407e+00 -5.810977e+00 1.966984e+00 -7.341803e+00 -1.027098e+01 -9.156808e+00 -3.008660e+00 -1.648315e+00 -5.846038e+00 5.096579e+01 -9.408143e-01 -1.886689e+00 -1.269238e+00 -1.355907e+00 -1.642914e-01 -6.781353e-01 -1.384671e+00 5.903758e-01 1.450748e+00 6.288418e-01 9.332653e-01 2.701386e-01 3.056253e+00 -3.755684e-01 -1.031589e+00 -3.844462e-01 -5.592735e-01 -5.333436e-01 -1.072073e-01 -6.288469e-01 3.960941e-01 5.200838e-01 2.437756e-01 1.505189e-01 -1.962298e-01 1.261257e+00
<VARIANCE> 39
 2.590125e+01 3.613153e+01 2.653206e+01 3.779502e+01 3.317029e+01 4.021843e+01 3.843306e+01 3.858550e+01 4.772962e+01 3.185380e+01 4.566578e+01 2.759540e+01 6.250928e+01 2.666667e+00 5.095939e+00 3.841066e+00 6.448831e+00 3.945142e+00 4.242676e+00 4.646610e+00 4.229457e+00 6.207113e+00 4.390518e+00 4.734580e+00 3.662534e+00 7.765398e+00 4.646906e-01 5.891845e-01 6.613934e-01 8.229416e-01 7.164546e-01 8.209597e-01 7.916330e-01 8.397720e-01 1.081501e+00 8.328981e-01 9.877826e-01 8.308846e-01 8.966454e-01
<GCONST> 1.350968e+02
<STATE> 4
<MEAN> 39
 8.558116e-01 -8.632981e-01 -9.371856e-01 -7.130449e+00 -7.170714e+00 -3.523875e-01 -1.183278e+01 -7.747180e+00 -3.963863e+00 -6.104151e-01 8.307566e-02 -6.114532e+00 6.014150e+01 -1.111480e+00 -2.813566e+00 -1.172931e+00 -1.646043e+00 -1.208660e+00 -5.098580e-01 -1.705399e+00 1.261609e+00 1.640371e+00 5.278203e-01 4.624684e-01 -3.914035e-01 4.002469e+00 1.225323e-01 1.351020e-01 3.228183e-01 8.047868e-02 -3.429683e-01 2.346075e-01 1.679653e-01 9.617930e-02 -2.684546e-01 -2.755015e-01 -2.654006e-01 -1.646519e-01 -1.825157e-01
<VARIANCE> 39
 2.911168e+01 5.722446e+01 4.600589e+01 9.264146e+01 3.915761e+01 5.967039e+01 4.630590e+01 4.168958e+01 5.034278e+01 4.610334e+01 4.999270e+01 3.505148e+01 1.061969e+02 2.476180e+00 4.523572e+00 6.108899e+00 6.993945e+00 5.623153e+00 6.300400e+00 5.009856e+00 6.150396e+00 8.857414e+00 5.768415e+00 6.175962e+00 6.475291e+00 6.131231e+00 4.478832e-01 8.106602e-01 6.480513e-01 1.394746e+00 1.142593e+00 9.148991e-01 1.029009e+00 7.800996e-01 9.498388e-01 9.357146e-01 1.177278e+00 7.492345e-01 1.308628e+00
<GCONST> 1.439964e+02
<TRANSP> 5
 0.000000e+00 1.000000e+00 0.000000e+00 0.000000e+00 0.000000e+00
 0.000000e+00 7.422582e-01 2.577418e-01 0.000000e+00 0.000000e+00
 0.000000e+00 0.000000e+00 5.045772e-01 4.954228e-01 0.000000e+00
 0.000000e+00 0.000000e+00 0.000000e+00 4.076954e-01 5.923046e-01
 0.000000e+00 0.000000e+00 0.000000e+00 0.000000e+00 0.000000e+00
<ENDHMM>
~h "c"
<BEGINHMM>
<NUMSTATES> 5
<STATE> 2
<MEAN> 39
 -8.165065e+00 2.350168e+00 1.173920e+00 -1.963188e+00 -7.199492e+00 -7.980086e+00 -7.837916e+00 -3.524190e+00 -3.916636e+00 -3.857992e+00 -3.568029e+00 -2.603320e+00 4.678060e+01 -1.525991e+00 5.653106e-02 -6.252375e-01 -3.126130e-01 7.533119e-01 4.327425e-02 4.510462e-01 -1.923239e-01 1.266966e-01 1.232181e-01 8.603194e-02 1.198187e-01 -1.216547e+00 -4.439653e-01 -3.574249e-01 -1.972347e-01 -3.551272e-01 -5.896762e-02 1.190942e-01 -7.129484e-02 4.233209e-02 2.999738e-02 6.957283e-02 1.425218e-01 2.614623e-02 9.260054e-01
<VARIANCE> 39
 4.320220e+01 3.980198e+01 4.211745e+01 2.904098e+01 4.514720e+01 4.653748e+01 4.689800e+01 4.508526e+01 3.995860e+01 3.077208e+01 2.849341e+01 2.675034e+01 1.219245e+02 4.678110e+00 4.806020e+00 3.073135e+00 3.346704e+00 4.159357e+00 3.106207e+00 3.602321e+00 3.430635e+00 3.045430e+00 2.752586e+00 2.584898e+00 2.599976e+00 1.128893e+01 8.101095e-01 7.507240e-01 5.420522e-01 5.546581e-01 8.139669e-01 6.373171e-01 7.166948e-01 6.345094e-01 5.958977e-01 5.303868e-01 4.936095e-01 5.601702e-01 1.655450e+00
<GCONST> 1.319920e+02
<STATE> 3
<MEAN> 39
 -2.222222e+01 -4.190528e-01 -3.114146e+00 -7.717845e+00 -3.972359e+00 -6.503524e+00 -6.459778e+00 -4.071016e+00 -3.690218e+00 -2.196480e+00 -1.164937e+00 -7.585105e-01 5.666174e+01 -2.149848e+00 -3.801433e-01 -2.103755e-02 -1.087798e+00 -5.141232e-01 -9.900749e-02 3.409624e-02 4.978922e-01 3.232316e-01 9.339935e-02 4.136468e-01 5.250077e-01 4.222628e+00 1.608967e+00 -2.113709e-03 5.951006e-01 4.013222e-01 -7.221243e-01 -1.761333e-01 -3.386897e-01 2.042047e-01 1.335134e-01 -2.338163e-01 -2.886980e-01 -2.368629e-01 -8.289674e-02
<VARIANCE> 39
 5.241629e+01 2.812901e+01 3.233406e+01 2.870403e+01 2.959678e+01 3.509305e+01 3.328698e+01 2.707522e+01 2.427953e+01 2.082840e+01 1.953662e+01 1.569003e+01 1.025592e+02 1.271409e+01 3.663992e+00 4.812244e+00 3.939068e+00 4.883876e+00 4.051771e+00 4.036872e+00 3.998531e+00 3.391873e+00 2.604541e+00 2.804859e+00 2.003519e+00 7.127818e+00 2.177890e+00 9.061832e-01 8.261220e-01 7.551759e-01 8.495496e-01 7.871779e-01 7.910590e-01 8.459481e-01 7.728643e-01 5.574957e-01 5.461194e-01 4.916014e-01 1.524692e+00
<GCONST> 1.322252e+02
<STATE> 4
<MEAN> 39
 -1.471534e+01 -2.933181e+00 1.346741e+00 -7.586889e+00 -1.052590e+01 -8.183697e+00 -9.764441e+00 -7.542439e-01 -1.247317e+00 -3.952611e+00 -2.231089e+00 -1.385437e+00 6.690398e+01 4.397241e+00 -1.754578e+00 7.130477e-01 1.211361e-01 -1.708742e+00 -1.057401e-01 -1.520030e+00 8.138093e-01 7.428308e-01 -4.215696e-01 -5.392156e-01 -1.141153e+00 2.150719e+00 4.510705e-01 -2.635508e-01 -3.983035e-01 -8.841153e-02 3.318177e-01 4.707742e-01 -3.266240e-02 -2.458776e-01 -1.361452e-01 1.303986e-01 9.260380e-02 -3.710603e-01 -5.927699e-01
<VARIANCE> 39
 1.098187e+02 4.268417e+01 4.354824e+01 3.383161e+01 4.761089e+01 4.471037e+01 5.063946e+01 4.824417e+01 3.881049e+01 2.639929e+01 3.041713e+01 2.231633e+01 5.153499e+01 8.265457e+00 5.910023e+00 5.923986e+00 4.319584e+00 5.279850e+00 5.494406e+00 5.127572e+00 6.976379e+00 5.591228e+00 3.659544e+00 3.405865e+00 2.909975e+00 3.165477e+00 3.155100e+00 7.973645e-01 7.961950e-01 7.667939e-01 1.052119e+00 1.000864e+00 1.072594e+00 9.251096e-01 7.529908e-01 5.803137e-01 5.917023e-01 4.665948e-01 6.014152e-01
<GCONST> 1.386738e+02
<TRANSP> 5
 0.000000e+00 1.000000e+00 0.000000e+00 0.000000e+00 0.000000e+00
 0.000000e+00 8.318050e-01 1.681950e-01 0.000000e+00 0.000000e+00
 0.000000e+00 0.000000e+00 7.058436e-01 2.941564e-01 0.000000e+00
 0.000000e+00 0.000000e+00 0.000000e+00 7.029923e-01 2.970077e-01
 0.000000e+00 0.000000e+00 0.000000e+00 0.000000e+00 0.000000e+00
<ENDHMM>
~h "d"
<BEGINHMM>
<NUMSTATES> 5
<STATE> 2
<MEAN> 39
 7.308885e-01 1.231181e+00 5.225693e+00 1.263134e+00 -8.973722e+00 -5.685770e+00 -1.161010e+01 -4.086871e+00 -2.120472e+00 -3.829036e+00 -6.532587e+00 -6.011733e+00 5.091903e+01 6.858724e-01 1.089889e+00 8.478851e-01 9.099348e-01 6.408784e-01 -3.693905e-01 7.653089e-03 -5.508341e-03 1.813073e-01 -2.442240e-01 -5.257713e-01 -1.086247e-01 -1.007429e+00 -3.696245e-01 -4.816929e-01 -1.281950e-01 -4.792975e-01 -1.185384e-01 3.078261e-02 -5.872610e-02 1.383667e-01 -1.183775e-01 -7.444828e-03 3.109724e-01 1.730220e-01 7.368007e-01
<VARIANCE> 39
 4.938067e+01 5.776600e+01 4.384249e+01 3.951262e+01 5.657370e+01 4.173362e+01 5.921329e+01 8.246598e+01 5.373500e+01 4.000021e+01 4.488951e+01 3.529523e+01 1.109009e+02 3.070268e+00 4.165565e+00 2.772152e+00 3.602206e+00 4.175296e+00 3.124764e+00 3.948727e+00 5.418975e+00 3.838212e+00 3.144291e+00 3.631400e+00 2.784443e+00 7.419983e+00 5.788677e-01 8.539683e-01 4.399961e-01 6.572834e-01 9.195523e-01 6.227272e-01 7.563518e-01 1.030491e+00 7.781503e-01 6.636665e-01 7.635622e-01 5.952897e-01 1.124219e+00
<GCONST> 1.363063e+02
<STATE> 3
<MEAN> 39
 8.344251e-01 1.165136e+00 7.443264e+00 1.442120e+00 -7.865096e+00 -6.760537e+00 -1.246842e+01 -3.128592e+00 -2.529768e+00 -4.534901e+00 -6.040885e+00 -4.957251e+00 5.374037e+01 -1.554860e+00 -2.361989e+00 -9.762979e-02 -1.822442e+00 -8.477741e-01 -4.307587e-01 -8.337092e-01 1.178006e+00 -2.257445e-01 -8.757170e-02 1.495978e+00 1.078267e+00 3.707166e+00 -2.652113e-01 -5.804939e-01 -2.905900e-01 -5.945953e-01 -8.148766e-01 1.088516e-01 -2.035930e-01 1.197771e-01 -5.236991e-02 1.485790e-01 4.354843e-01 -3.672042e-02 1.063143e+00
<VARIANCE> 39
 3.670246e+01 4.845394e+01 3.333986e+01 4.070052e+01 4.744388e+01 3.980857e+01 5.369321e+01 5.904335e+01 5.009240e+01 3.613220e+01 3.888507e+01 3.491514e+01 8.484431e+01 3.237863e+00 4.822259e+00 4.283116e+00 4.871704e+00 7.011151e+00 4.191354e+00 5.529214e+00 8.525161e+00 6.797670e+00 4.288136e+00 4.796912e+00 3.541306e+00 7.788826e+00 7.722972e-01 9.351562e-01 6.712177e-01 8.742564e-01 1.163253e+00 7.999827e-01 1.066163e+00 1.423426e+00 1.229074e+00 8.101172e-01 1.031346e+00 8.372342e-01 1.366279e+00
<GCONST> 1.420594e+02
<STATE> 4
<MEAN> 39
 -2.910780e+00 -6.510774e+00 5.241427e+00 -5.158840e+00 -1.381126e+01 -7.853809e+00 -1.529017e+01 1.367398e+00 -1.775656e+00 -4.020949e+00 -1.404109e+00 -2.712470e+00 6.639642e+01 -7.189865e-01 -1.785072e+00 -8.756746e-01 -1.823259e+00 -1.837289e+00 1.915914e-01 -4.428933e-01 1.091629e+00 3.209742e-01 1.975872e-01 9.595627e-01 -3.063691e-01 3.395172e+00 3.756944e-01 5.715481e-01 -5.466248e-02 3.286125e-01 2.569280e-01 4.091487e-01 3.504813e-01 -4.554852e-01 -8.413578e-02 2.455993e-02 -4.527256e-01 -5.186786e-01 -7.821587e-01
<VARIANCE> 39
 2.236958e+01 4.103669e+01 5.258672e+01 5.258197e+01 7.476759e+01 4.543516e+01 7.195152e+01 8.834850e+01 7.728313e+01 3.521608e+01 4.039712e+01 3.087479e+01 7.901644e+01 3.193737e+00 3.643166e+00 6.286348e+00 4.640860e+00 7.143149e+00 4.476850e+00 6.789887e+00 9.809044e+00 9.035046e+00 4.491068e+00 6.800298e+00 4.272124e+00 6.016655e+00 3.905649e-01 5.832337e-01 5.159474e-01 7.690837e-01 1.771528e+00 7.096590e-01 1.273877e+00 1.203488e+00 1.054415e+00 7.422018e-01 9.465008e-01 6.450634e-01 9.406866e-01
<GCONST> 1.425303e+02
<TRANSP> 5
 0.000000e+00 1.000000e+00 0.000000e+00 0.000000e+00 0.000000e+00
 0.000000e+00 7.240329e-01 2.759671e-01 0.000000e+00 0.000000e+00
 0.000000e+00 0.000000e+00 5.507638e-01 4.492362e-01 0.000000e+00
 0.000000e+00 0.000000e+00 0.000000e+00 4.490767e-01 5.509233e-01
 0.000000e+00 0.000000e+00 0.000000e+00 0.000000e+00 0.000000e+00
<ENDHMM>
~h "e"
<BEGINHMM>
<NUMSTATES> 5
<STATE> 2
<MEAN> 39
 -1.779828e+00 -4.719353e+00 -2.415481e+00 -8.241776e+00 -9.214404e+00 -3.071006e+00 -1.446115e+01 -4.882808e+00 -2.661513e+00 -4.076621e-02 -9.769148e-01 -6.565050e+00 6.428921e+01 1.913434e+00 -1.161109e+00 -9.398140e-02 -1.429417e+00 -1.178801e+00 6.892326e-01 -1.823836e+00 5.189089e-01 1.077040e+00 7.447798e-01 7.875659e-01 -1.298364e+00 2.436817e+00 -3.089085e-01 2.376524e-01 1.309257e-01 4.253571e-01 1.575129e-01 4.693250e-02 3.979107e-01 -8.071779e-02 -2.016175e-01 -1.383679e-01 -1.633318e-01 1.420952e-01 -8.434847e-01
<VARIANCE> 39
 3.557555e+01 3.596072e+01 4.990264e+01 7.069800e+01 4.991946e+01 7.953523e+01 6.766004e+01 7.120996e+01 7.148659e+01 4.689623e+01 5.456878e+01 3.866582e+01 1.139979e+02 5.710323e+00 3.689485e+00 5.305525e+00 5.567333e+00 5.516380e+00 5.954223e+00 6.208318e+00 7.835358e+00 7.941864e+00 4.807624e+00 5.101884e+00 4.120953e+00 5.690886e+00 9.053456e-01 6.773695e-01 7.852816e-01 1.084196e+00 8.604248e-01 8.911407e-01 1.035570e+00 1.079639e+00 1.063192e+00 7.598848e-01 9.641808e-01 7.078187e-01 1.490377e+00
<GCONST> 1.455111e+02
<STATE> 3
<MEAN> 39
 3.909271e-01 -7.401024e+00 -2.845138e+00 -1.049506e+01 -1.102566e+01 -2.066921e+00 -1.740859e+01 -2.985268e+00 -3.352275e-01 1.039306e+00 3.098631e-01 -8.633265e+00 6.901158e+01 6.724116e-01 -3.001671e-01 2.099457e-01 8.192059e-02 -4.176137e-01 2.642366e-01 -3.533072e-01 2.369027e-01 4.413830e-01 1.599933e-01 7.248671e-02 -4.655188e-01 1.898896e-01 -5.001459e-01 6.318716e-01 2.795443e-01 8.264387e-01 3.850504e-01 -2.080619e-01 7.881120e-01 -4.388260e-01 -5.632426e-01 -3.131947e-01 -4.194412e-01 4.935790e-01 -1.161119e+00
<VARIANCE> 39
 1.838679e+01 3.467492e+01 5.524836e+01 7.085368e+01 5.218103e+01 8.490759e+01 6.965484e+01 8.629585e+01 7.902289e+01 5.821381e+01 6.113092e+01 4.596754e+01 4.276809e+01 2.137559e+00 3.114526e+00 2.962477e+00 5.116774e+00 4.160799e+00 5.175976e+00 4.459810e+00 6.762411e+00 6.526838e+00 4.190704e+00 4.491391e+00 3.294575e+00 4.334295e+00 6.327564e-01 5.909786e-01 8.561686e-01 1.024094e+00 9.764176e-01 9.843390e-01 1.089026e+00 1.341151e+00 1.298051e+00 9.406710e-01 1.012586e+00 7.756941e-01 6.975477e-01
<GCONST> 1.410179e+02
<STATE> 4
<MEAN> 39
 2.559734e-01 -5.677705e+00 -1.636565e+00 -8.946371e+00 -1.134763e+01 -3.420571e+00 -1.730089e+01 -3.494320e+00 -5.500159e-01 1.257561e+00 -8.932866e-02 -8.340034e+00 6.632320e+01 9.367858e-02 7.063866e-01 4.419612e-01 9.328377e-01 1.339683e-01 -8.327080e-02 6.654733e-01 -5.537819e-01 -4.014015e-01 -2.841308e-01 -4.265812e-01 2.595421e-01 -1.283054e+00 -2.277618e-01 2.690698e-01 1.178323e-01 2.784194e-01 1.421857e-01 -8.840780e-02 3.189707e-01 -2.045113e-01 -2.589673e-01 -1.452431e-01 -1.752702e-01 2.264056e-01 -4.246645e-01
<VARIANCE> 39
 1.821103e+01 3.813589e+01 5.655848e+01 6.955886e+01 5.481526e+01 7.756053e+01 7.419653e+01 7.869423e+01 8.203295e+01 5.723981e+01 5.319004e+01 4.531771e+01 6.446397e+01 1.282523e+00 2.596329e+00 2.208496e+00 3.949996e+00 3.158052e+00 3.734892e+00 3.645147e+00 4.407386e+00 4.607255e+00 3.376248e+00 3.293790e+00 2.590946e+00 3.989577e+00 3.608623e-01 4.596386e-01 4.750315e-01 6.899689e-01 6.719462e-01 6.641790e-01 6.971377e-01 1.008643e+00 9.008793e-01 6.246020e-01 6.718307e-01 5.434067e-01 5.984718e-01
<GCONST> 1.326516e+02
<TRANSP> 5
 0.000000e+00 1.000000e+00 0.000000e+00 0.000000e+00 0.000000e+00
 0.000000e+00 3.518948e-01 6.481052e-01 0.000000e+00 0.000000e+00
 0.000000e+00 0.000000e+00 3.029431e-01 6.970569e-01 0.000000e+00
 0.000000e+00 0.000000e+00 0.000000e+00 4.926598e-01 5.073402e-01
 0.000000e+00 0.000000e+00 0.000000e+00 0.000000e+00 0.000000e+00
<ENDHMM>
~h "f"
<BEGINHMM>
<NUMSTATES> 5
<STATE> 2
<MEAN> 39
 -7.463315e+00 -1.278102e+00 -1.144467e+00 -2.318031e+00 -5.129578e+00 -3.214185e+00 -7.595645e+00 -3.571889e+00 -3.945690e+00 -1.764831e+00 -2.184704e+00 -3.381448e+00 5.922009e+01 -3.253009e+00 3.588787e-01 -4.162916e-01 1.308314e+00 1.243489e+00 -4.758846e-01 5.117410e-01 2.021517e-01 8.943488e-01 -7.456953e-02 -2.128211e-01 5.987025e-01 -1.247052e+00 -2.688390e-01 -5.563019e-01 -7.994560e-02 -3.293831e-01 -5.558571e-01 -7.132856e-02 -3.162294e-01 -2.280796e-02 -7.264430e-02 4.241909e-02 9.728049e-02 -7.647184e-02 2.401880e-01
<VARIANCE> 39
 5.463303e+01 2.408049e+01 3.749548e+01 4.666624e+01 3.881509e+01 5.999708e+01 3.565469e+01 3.772596e+01 3.508402e+01 2.686132e+01 3.109626e+01 2.492770e+01 7.254085e+01 3.532891e+00 4.356143e+00 3.799187e+00 4.470587e+00 5.898533e+00 5.000673e+00 3.981166e+00 4.614278e+00 4.181100e+00 3.443547e+00 3.642586e+00 2.528233e+00 2.433050e+00 8.850299e-01 5.262733e-01 4.427752e-01 6.751304e-01 7.888662e-01 6.945794e-01 6.653956e-01 6.921171e-01 7.628479e-01 5.400750e-01 5.789438e-01 3.933063e-01 2.704708e-01
<GCONST> 1.296843e+02
<STATE> 3
<MEAN> 39
 -1.879964e+01 -4.664875e+00 -3.749909e+00 -7.683133e-01 -4.934644e+00 -5.022612e+00 -8.262954e+00 -3.086926e+00 -2.140432e+00 -1.463609e+00 -1.856146e+00 -1.678439e+00 5.758896e+01 -7.549296e-01 -7.392817e-01 -5.160612e-01 -1.935807e-01 -1.996814e-01 -1.444120e-01 -1.288734e-01 2.124581e-02 6.325677e-02 3.062781e-02 8.602123e-02 6.210543e-02 -1.157460e-01 8.868712e-01 7.069819e-02 1.249984e-01 -2.611926e-01 -1.658559e-01 1.560980e-01 -1.263040e-02 -3.078237e-02 -1.754183e-01 -2.649424e-02 2.574693e-02 -1.746799e-01 2.575412e-01
<VARIANCE> 39
 2.504827e+01 1.819470e+01 2.377560e+01 2.123423e+01 2.273428e+01 2.971216e+01 2.594643e+01 2.389042e+01 2.126351e+01 1.864248e+01 1.927903e+01 1.689478e+01 4.673815e+01 4.934424e+00 1.732955e+00 2.153094e+00 2.277557e+00 2.193250e+00 2.633983e+00 2.216464e+00 2.109558e+00 2.151630e+00 1.865053e+00 1.724535e+00 1.669240e+00 1.927552e+00 5.587106e-01 3.960824e-01 4.377206e-01 5.384133e-01 5.970831e-01 5.551972e-01 5.013728e-01 4.869535e-01 5.371931e-01 4.470608e-01 3.988469e-01 3.728245e-01 2.950242e-01
<GCONST> 1.126962e+02
<STATE> 4
<MEAN> 39
 -1.545151e+01 -5.443907e+00 -5.840750e+00 -3.125276e+00 -5.359145e+00 -4.068967e+00 -7.252316e+00 -3.487740e+00 -3.239585e+00 -2.461534e+00 -1.886509e+00 -2.300550e+00 4.849082e+01 1.334545e+00 7.071650e-02 1.955891e-01 -4.723938e-01 -4.125480e-01 1.917696e-01 -1.203757e-01 -6.691922e-02 -2.250181e-01 -1.002307e-01 8.093771e-02 -3.125053e-01 5.085016e-01 2.648605e-01 4.477631e-02 1.201569e-01 -1.033083e-01 -1.384950e-01 7.355496e-02 -7.006718e-02 -1.275958e-02 -5.349490e-02 -2.045061e-02 4.378375e-02 -6.507355e-02 1.726670e-01
<VARIANCE> 39
 5.239497e+01 3.017521e+01 2.936260e+01 2.726786e+01 2.430226e+01 3.124997e+01 2.527421e+01 2.418651e+01 2.312966e+01 2.240033e+01 2.011913e+01 1.868330e+01 1.436055e+02 6.959124e+00 2.421327e+00 2.688015e+00 3.413506e+00 2.811456e+00 3.271645e+00 2.442157e+00 2.639554e+00 2.704524e+00 2.355585e+00 2.121770e+00 2.293689e+00 3.412970e+00 7.813957e-01 3.962130e-01 3.800977e-01 4.775495e-01 4.833655e-01 5.168233e-01 4.511081e-01 4.708603e-01 4.833763e-01 4.340719e-01 4.031606e-01 3.825796e-01 3.525932e-01
<GCONST> 1.194200e+02
<TRANSP> 5
 0.000000e+00 1.000000e+00 0.000000e+00 0.000000e+00 0.000000e+00
 0.000000e+00 6.800344e-01 3.199656e-01 0.000000e+00 0.000000e+00
 0.000000e+00 0.000000e+00 7.740209e-01 2.259791e-01 0.000000e+00
 0.000000e+00 0.000000e+00 0.000000e+00 8.698766e-01 1.301234e-01
 0.000000e+00 0.000000e+00 0.000000e+00 0.000000e+00 0.000000e+00
<ENDHMM>
~h "g"
<BEGINHMM>
<NUMSTATES> 5
<STATE> 2
<MEAN> 39
 1.255507e+00 2.808988e+00 5.809883e+00 -7.408858e-01 -1.002688e+01 -6.359370e+00 -1.015872e+01 -5.126993e+00 -7.211340e+00 -4.445135e-01 -3.639449e+00 -7.633492e+00 5.286987e+01 -1.238052e-01 7.832601e-01 3.911207e-01 9.744364e-01 7.088814e-01 -6.440918e-01 4.172888e-01 -2.020037e-01 -2.486476e-01 -9.455717e-02 -3.140199e-01 2.745487e-01 -9.836537e-01 -4.406784e-01 -5.696205e-01 -3.928480e-01 -4.043908e-01 9.277046e-02 8.160824e-02 -1.749261e-01 1.768715e-01 1.339394e-01 -4.125491e-02 1.122075e-01 1.844343e-01 8.795953e-01
<VARIANCE> 39
 3.298098e+01 5.149705e+01 5.244057e+01 4.573045e+01 6.364999e+01 5.849033e+01 6.252289e+01 6.366832e+01 5.429617e+01 4.194923e+01 4.321658e+01 3.742308e+01 9.288114e+01 3.736583e+00 5.030620e+00 4.531051e+00 3.521735e+00 5.578572e+00 4.262264e+00 4.340501e+00 4.449533e+00 5.100877e+00 3.403175e+00 3.279493e+00 3.375277e+00 8.177911e+00 5.703846e-01 7.241460e-01 6.748695e-01 5.457653e-01 1.086634e+00 7.733681e-01 9.185231e-01 8.138564e-01 9.291143e-01 6.900884e-01 6.897770e-01 6.641124e-01 1.169523e+00
<GCONST> 1.388358e+02
<STATE> 3
<MEAN> 39
 -3.905872e+00 -1.802627e-01 2.767129e+00 -1.012195e-01 -6.347194e+00 -8.488462e+00 -1.090830e+01 -4.273885e+00 -7.666558e+00 -2.669268e-01 -3.498351e+00 -4.223096e+00 5.852325e+01 -1.125885e+00 -1.670529e+00 -8.392522e-01 -1.244885e+00 -5.742382e-01 -5.664166e-01 -1.139151e+00 1.025690e+00 3.087923e-01 1.026231e-01 9.900486e-01 6.322656e-01 3.252967e+00 4.218258e-01 -5.927195e-02 1.912931e-01 -5.555922e-01 -9.018822e-01 3.798996e-01 -1.528663e-01 1.967929e-01 2.353652e-01 -7.056491e-02 3.173816e-01 -3.780887e-01 2.634938e-01
<VARIANCE> 39
 4.160481e+01 4.955959e+01 6.866926e+01 3.814296e+01 8.946016e+01 5.863782e+01 6.003238e+01 5.336747e+01 4.523325e+01 3.598751e+01 4.272950e+01 3.343995e+01 9.069305e+01 4.822766e+00 4.840364e+00 7.576232e+00 4.093299e+00 1.336528e+01 5.241112e+00 5.457711e+00 6.426776e+00 6.422103e+00 3.979083e+00 5.215708e+00 4.328358e+00 5.472122e+00 8.382465e-01 9.613129e-01 1.244495e+00 6.927881e-01 2.049926e+00 1.004508e+00 1.042420e+00 9.856514e-01 1.045650e+00 7.404365e-01 1.006288e+00 8.668422e-01 1.235097e+00
<GCONST> 1.456362e+02
<STATE> 4
<MEAN> 39
 -3.155775e+00 -3.456427e+00 2.727592e+00 -5.393589e+00 -1.328235e+01 -8.275983e+00 -1.378554e+01 -1.985333e-01 -5.453449e+00 -1.662308e-01 -3.125734e-02 -5.258179e+00 6.539676e+01 1.530539e-01 -1.222550e+00 -5.181933e-01 -1.873790e+00 -1.326167e+00 9.344426e-01 -3.303111e-01 1.230282e+00 1.077254e+00 -1.696161e-01 3.830837e-01 -7.267196e-01 1.941206e+00 1.772683e-01 9.302113e-02 -6.136845e-02 9.515877e-02 3.765384e-01 4.294100e-01 3.111621e-01 -2.608849e-01 1.396303e-02 -1.290470e-01 -4.416878e-01 -2.264008e-01 -4.410492e-01
<VARIANCE> 39
 2.518180e+01 4.601751e+01 7.041569e+01 4.876568e+01 8.524284e+01 6.397414e+01 6.707147e+01 8.454519e+01 7.012106e+01 4.248199e+01 5.703534e+01 3.099559e+01 1.014205e+02 2.600339e+00 2.773808e+00 4.776163e+00 3.609301e+00 7.536166e+00 4.174867e+00 4.454866e+00 5.978142e+00 6.766925e+00 3.281460e+00 5.581636e+00 4.069375e+00 3.346896e+00 4.412042e-01 4.526072e-01 7.794414e-01 5.398067e-01 1.885831e+00 7.318892e-01 8.589652e-01 8.899304e-01 8.744914e-01 5.823585e-01 1.050931e+00 5.729443e-01 5.797479e-01
<GCONST> 1.390519e+02
<TRANSP> 5
 0.000000e+00 1.000000e+00 0.000000e+00 0.000000e+00 0.000000e+00
 0.000000e+00 7.337047e-01 2.662953e-01 0.000000e+00 0.000000e+00
 0.000000e+00 0.000000e+00 6.162011e-01 3.837989e-01 0.000000e+00
 0.000000e+00 0.000000e+00 0.000000e+00 4.646447e-01 5.353553e-01
 0.000000e+00 0.000000e+00 0.000000e+00 0.000000e+00 0.000000e+00
<ENDHMM>
~h "h"
<BEGINHMM>
<NUMSTATES> 5
<STATE> 2
<MEAN> 39
 -5.246566e+00 -6.195415e+00 -2.645860e+00 -4.991145e+00 -6.855862e-01 7.815906e-01 -5.513398e+00 -1.120917e+00 -3.025878e+00 -3.166293e+00 -5.257109e+00 -4.338457e+00 6.264975e+01 -8.894871e-01 -7.444555e-02 -1.437839e-02 8.372694e-01 1.258286e+00 3.084509e-01 6.970999e-01 8.654687e-02 2.956679e-01 -1.814729e-01 -1.606384e-02 4.951434e-01 -9.218557e-01 4.553207e-02 -1.719305e-01 -4.118690e-02 -3.083270e-01 -4.241871e-01 -4.324144e-02 -2.726067e-01 -8.241288e-02 -7.839981e-04 5.381081e-02 1.291509e-01 -1.194701e-01 4.817313e-02
<VARIANCE> 39
 3.024730e+01 4.487522e+01 5.638673e+01 5.979999e+01 8.200943e+01 5.996140e+01 6.443171e+01 6.599934e+01 5.885391e+01 4.965657e+01 4.756465e+01 4.086062e+01 9.047474e+01 1.840995e+00 3.185868e+00 3.354404e+00 3.392881e+00 4.124124e+00 3.445457e+00 3.654896e+00 3.518693e+00 3.338842e+00 3.046599e+00 3.049446e+00 2.631010e+00 2.194209e+00 2.404183e-01 4.351789e-01 3.883929e-01 5.350934e-01 6.297066e-01 5.508074e-01 6.253108e-01 6.601421e-01 5.765787e-01 5.177564e-01 4.992512e-01 4.292483e-01 2.212366e-01
<GCONST> 1.284940e+02
<STATE> 3
<MEAN> 39
 -7.576541e+00 -7.574257e+00 -3.779974e+00 -4.185160e+00 1.149139e+00 1.169271e+00 -5.114010e+00 -1.035828e+00 -2.123934e+00 -3.402973e+00 -4.871857e+00 -3.848161e+00 6.033264e+01 -2.428731e-01 -2.832140e-02 -1.530637e-01 -1.472932e-01 -2.116657e-01 -2.010679e-01 -1.569532e-01 -2.219537e-01 -4.394861e-02 -3.839074e-03 1.051055e-01 7.162422e-02 -7.810993e-01 2.554571e-01 8.394765e-02 6.941111e-03 -2.521286e-01 -4.466892e-01 -1.214930e-01 -2.411782e-01 -1.057433e-01 -1.299396e-01 1.767559e-02 3.964922e-02 -1.346667e-01 8.324150e-02
<VARIANCE> 39
 3.959984e+01 4.831062e+01 5.017940e+01 4.680583e+01 7.198878e+01 5.821268e+01 5.822495e+01 5.404408e+01 5.376389e+01 4.538982e+01 4.298346e+01 3.537236e+01 1.013296e+02 2.075919e+00 2.716249e+00 2.535897e+00 2.708192e+00 3.138861e+00 2.813924e+00 3.095809e+00 3.036994e+00 2.742553e+00 2.606721e+00 2.507526e+00 2.246624e+00 3.056616e+00 3.190724e-01 3.919388e-01 4.040001e-01 5.033901e-01 5.685281e-01 5.182821e-01 6.170967e-01 5.555850e-01 5.378697e-01 5.092309e-01 4.797463e-01 4.286262e-01 2.391828e-01
<GCONST> 1.257526e+02
<STATE> 4
<MEAN> 39
 -1.061118e+01 -5.979985e+00 -5.565009e+00 -4.993579e+00 -2.188823e+00 -2.175652e+00 -6.420433e+00 -3.448464e+00 -3.812996e+00 -4.552293e+00 -3.848878e+00 -3.144424e+00 4.683887e+01 1.017198e-01 1.326828e-01 1.446670e-02 -8.719695e-02 -2.338958e-01 -5.440063e-02 -5.887280e-02 -9.653140e-02 -6.081064e-02 2.726088e-02 3.750302e-02 -6.575322e-02 -1.768952e-01 7.921390e-02 1.264122e-02 4.010144e-02 -1.714896e-02 -4.863740e-02 1.543589e-02 -2.963712e-02 7.210168e-03 -1.151715e-02 2.293083e-03 3.429749e-04 -3.612180e-02 1.069044e-01
<VARIANCE> 39
 3.256751e+01 5.547494e+01 3.584714e+01 3.440036e+01 4.114965e+01 4.023665e+01 3.939252e+01 3.509706e+01 3.531054e+01 3.120205e+01 2.790969e+01 2.434106e+01 1.789521e+02 1.228997e+00 1.648384e+00 1.490087e+00 1.552310e+00 1.815187e+00 1.780150e+00 2.024298e+00 1.999929e+00 1.975120e+00 1.914101e+00 1.766902e+00 1.693075e+00 1.852163e+00 1.943286e-01 2.614720e-01 2.492765e-01 2.762630e-01 3.254085e-01 3.275522e-01 3.762117e-01 3.792613e-01 3.779908e-01 3.614088e-01 3.402769e-01 3.137341e-01 2.002802e-01
<GCONST> 1.111312e+02
<TRANSP> 5
 0.000000e+00 1.000000e+00 0.000000e+00 0.000000e+00 0.000000e+00
 0.000000e+00 5.535994e-01 4.464006e-01 0.000000e+00 0.000000e+00
 0.000000e+00 0.000000e+00 5.134770e-01 4.865230e-01 0.000000e+00
 0.000000e+00 0.000000e+00 0.000000e+00 8.780754e-01 1.219246e-01
 0.000000e+00 0.000000e+00 0.000000e+00 0.000000e+00 0.000000e+00
<ENDHMM>
~h "i"
<BEGINHMM>
<NUMSTATES> 5
<STATE> 2
<MEAN> 39
 -6.335301e+00 -1.474154e+00 1.324323e+01 -3.045446e+00 -1.745170e+01 -8.274104e+00 -1.279118e+01 -5.957027e+00 -1.189420e+01 -3.726337e+00 1.788837e+00 -4.101349e+00 6.354217e+01 4.903074e-01 -7.014818e-02 2.657799e+00 -4.998600e-01 -2.757232e+00 3.306454e-01 -1.356294e+00 -4.318267e-01 -1.671818e+00 -6.072620e-02 1.257327e+00 -3.825119e-01 1.647245e+00 -4.038975e-02 1.128061e-01 -5.342057e-01 -1.100587e-01 3.311405e-01 3.327984e-01 1.231285e-01 4.716635e-02 4.269861e-01 1.682377e-01 -2.149754e-01 -8.170950e-02 -4.541997e-01
<VARIANCE> 39
 3.185326e+01 3.846458e+01 5.884913e+01 4.660824e+01 5.760237e+01 5.407539e+01 5.869173e+01 6.596935e+01 5.394891e+01 4.849554e+01 3.926462e+01 3.314425e+01 7.128760e+01 5.393974e+00 2.990939e+00 5.300478e+00 4.196087e+00 5.216897e+00 4.753303e+00 6.305344e+00 5.583055e+00 5.523984e+00 4.602900e+00 3.661043e+00 3.221168e+00 4.176046e+00 6.990134e-01 5.619597e-01 9.511085e-01 6.482525e-01 1.174147e+00 7.957000e-01 9.748647e-01 9.670289e-01 8.952250e-01 6.798056e-01 6.469545e-01 5.004672e-01 8.392711e-01
<GCONST> 1.387605e+02
<STATE> 3
<MEAN> 39
 -5.626074e+00 -1.581527e+00 1.725207e+01 -5.038691e+00 -2.244549e+01 -6.250075e+00 -1.564746e+01 -6.323756e+00 -1.433963e+01 -2.861581e+00 4.072258e+00 -5.696244e+00 6.639734e+01 2.248305e-01 2.639567e-01 -3.967114e-01 5.998323e-02 2.079664e-01 -5.841272e-02 3.028127e-01 7.089637e-02 3.736408e-01 1.003286e-01 -1.186318e-01 -1.415113e-02 -4.567006e-01 2.166206e-02 1.189424e-01 -6.262142e-01 2.074919e-01 7.088393e-01 -1.583259e-01 3.776792e-01 8.952412e-02 4.332147e-01 -3.377738e-02 -3.705124e-01 8.878899e-02 -4.959889e-01
<VARIANCE> 39
 1.734054e+01 3.153144e+01 4.517315e+01 5.113635e+01 3.589082e+01 6.082113e+01 5.015813e+01 6.858240e+01 5.361545e+01 6.534438e+01 4.518488e+01 4.238410e+01 3.483223e+01 1.302888e+00 2.032058e+00 2.996478e+00 2.379279e+00 3.792496e+00 3.186406e+00 3.539493e+00 3.494854e+00 3.192900e+00 2.579871e+00 2.399849e+00 1.871549e+00 2.977292e+00 3.024771e-01 3.516601e-01 4.695666e-01 4.525694e-01 7.371591e-01 6.461233e-01 7.008917e-01 6.860219e-01 6.400304e-01 5.812824e-01 5.319983e-01 4.137899e-01 3.821830e-01
<GCONST> 1.247467e+02
<STATE> 4
<MEAN> 39
 -6.890717e+00 1.606331e+00 1.179192e+01 -3.809515e+00 -1.646123e+01 -5.725050e+00 -1.142500e+01 -8.007178e+00 -1.014542e+01 -3.524907e+00 4.564695e-01 -4.483491e+00 5.584118e+01 5.801637e-02 1.148298e-01 -9.310968e-01 2.003105e-01 7.855039e-01 -8.164822e-02 4.512257e-01 1.920808e-01 5.173513e-01 1.258831e-02 -4.217614e-01 9.939964e-02 -1.005664e+00 -2.466976e-02 -7.133836e-02 -1.055604e-01 1.370925e-04 1.233019e-01 4.921422e-02 -1.017264e-02 2.217482e-02 2.639219e-02 3.075588e-03 -5.347451e-02 -6.394553e-03 3.649280e-02
<VARIANCE> 39
 2.614797e+01 3.488941e+01 8.291788e+01 4.316091e+01 6.758777e+01 6.670726e+01 5.802568e+01 6.019288e+01 4.639495e+01 4.222261e+01 4.061556e+01 3.545922e+01 1.661819e+02 1.268109e+00 1.736846e+00 2.240417e+00 1.776434e+00 2.872266e+00 2.317103e+00 2.694707e+00 2.881044e+00 2.690134e+00 2.132881e+00 2.178209e+00 1.714409e+00 2.831827e+00 1.944598e-01 2.704150e-01 2.980386e-01 3.058751e-01 4.848457e-01 4.494592e-01 4.565806e-01 4.964533e-01 4.251958e-01 3.784421e-01 3.795346e-01 3.080340e-01 3.629347e-01
<GCONST> 1.201001e+02
<TRANSP> 5
 0.000000e+00 1.000000e+00 0.000000e+00 0.000000e+00 0.000000e+00
 0.000000e+00 6.539351e-01 3.460649e-01 0.000000e+00 0.000000e+00
 0.000000e+00 0.000000e+00 7.190564e-01 2.809436e-01 0.000000e+00
 0.000000e+00 0.000000e+00 0.000000e+00 8.440843e-01 1.559157e-01
 0.000000e+00 0.000000e+00 0.000000e+00 0.000000e+00 0.000000e+00
<ENDHMM>
~h "j"
<BEGINHMM>
<NUMSTATES> 5
<STATE> 2
<MEAN> 39
 -2.519108e+00 5.566465e+00 8.177375e+00 -1.737082e-02 -9.371468e+00 -6.912532e+00 -8.867431e+00 -2.001661e+00 -5.230925e+00 -5.460810e+00 -3.047994e+00 -3.435463e+00 5.247135e+01 -6.184450e-01 1.032305e+00 3.842585e-01 1.484367e-01 9.398860e-01 6.767554e-02 6.774629e-01 -1.342562e-01 1.833301e-01 -3.030407e-02 -1.533577e-01 8.281256e-02 -6.440761e-01 -5.069508e-01 -3.639393e-01 -2.048092e-01 -2.781011e-01 2.181325e-02 5.834694e-02 -1.667126e-01 -1.469189e-01 -4.916150e-02 1.054604e-01 1.397021e-01 8.050568e-02 6.885332e-01
<VARIANCE> 39
 4.468887e+01 4.477749e+01 4.486875e+01 3.308082e+01 5.126898e+01 4.505196e+01 4.855653e+01 4.799553e+01 4.288159e+01 3.404278e+01 2.839180e+01 2.625113e+01 1.023822e+02 6.849545e+00 3.921763e+00 3.230739e+00 3.230934e+00 4.230772e+00 3.397286e+00 4.173562e+00 4.277498e+00 3.833923e+00 3.043642e+00 2.702055e+00 2.555642e+00 8.247972e+00 1.183454e+00 6.360027e-01 5.138531e-01 5.271867e-01 8.892901e-01 6.942927e-01 7.401934e-01 7.470782e-01 7.596537e-01 5.833567e-01 5.276054e-01 5.532696e-01 1.212203e+00
<GCONST> 1.337742e+02
<STATE> 3
<MEAN> 39
 -1.483469e+01 5.623506e+00 7.792316e+00 -2.774772e+00 -5.031482e+00 -6.015415e+00 -7.847885e+00 -5.279877e+00 -6.251692e+00 -4.405466e+00 -1.524324e+00 -9.781746e-01 6.121880e+01 -1.331124e+00 -1.413843e+00 5.574335e-01 -5.232955e-01 -1.857321e+00 -1.126540e+00 -1.205526e+00 -3.035563e-01 -5.423258e-01 -1.018786e-01 1.137292e+00 1.062849e+00 3.517594e+00 1.511353e+00 -5.005111e-01 9.309079e-02 9.864150e-02 -1.104151e+00 -2.417803e-01 -5.622677e-01 5.084081e-01 1.646237e-01 -7.736831e-02 1.397080e-01 -2.183419e-01 -1.571605e-01
<VARIANCE> 39
 5.952040e+01 3.409510e+01 4.130048e+01 2.869978e+01 5.181169e+01 4.740832e+01 3.369281e+01 2.692379e+01 2.550863e+01 2.025741e+01 1.908126e+01 1.897661e+01 5.774877e+01 1.432727e+01 3.930756e+00 4.422963e+00 4.377963e+00 9.474796e+00 4.457871e+00 4.282329e+00 4.805054e+00 4.026758e+00 2.647784e+00 2.589727e+00 2.173278e+00 3.051328e+00 1.614334e+00 8.369393e-01 9.591263e-01 7.899565e-01 1.441602e+00 9.975851e-01 7.551351e-01 1.184738e+00 9.187660e-01 5.546916e-01 5.544690e-01 5.825111e-01 8.308089e-01
<GCONST> 1.344405e+02
<STATE> 4
<MEAN> 39
 -6.225475e+00 -3.481564e+00 9.371193e+00 -4.872904e+00 -1.804574e+01 -1.140188e+01 -1.564400e+01 -4.375202e-02 -5.345311e+00 -4.832021e+00 2.517645e+00 -2.992423e-03 7.045682e+01 2.341931e+00 -2.727986e+00 -1.533226e+00 -1.082585e+00 -1.440358e+00 2.946121e-01 -1.380246e+00 2.167891e+00 1.370862e+00 4.889563e-01 -9.796705e-02 -1.293964e+00 1.366505e+00 -1.511891e-01 3.261163e-01 -7.306395e-01 -1.563409e-01 1.237003e+00 8.382612e-01 5.838512e-01 -1.409497e-01 2.256217e-01 1.687542e-01 -6.271849e-01 -6.348849e-01 -6.455002e-01
<VARIANCE> 39
 2.175344e+01 3.854932e+01 3.971912e+01 5.163992e+01 3.999182e+01 3.084642e+01 4.545103e+01 7.466369e+01 5.388547e+01 3.762220e+01 2.949886e+01 2.723837e+01 2.949191e+01 2.957975e+00 3.250509e+00 4.617287e+00 3.093114e+00 7.973010e+00 4.240206e+00 6.069381e+00 7.338294e+00 4.945027e+00 3.229563e+00 4.794915e+00 3.275504e+00 1.461672e+00 8.702673e-01 4.712961e-01 5.214689e-01 6.255592e-01 9.177628e-01 6.432434e-01 7.654460e-01 1.180012e+00 7.591643e-01 5.838814e-01 6.882131e-01 5.029002e-01 1.654543e-01
<GCONST> 1.307997e+02
<TRANSP> 5
 0.000000e+00 1.000000e+00 0.000000e+00 0.000000e+00 0.000000e+00
 0.000000e+00 8.334077e-01 1.665923e-01 0.000000e+00 0.000000e+00
 0.000000e+00 0.000000e+00 7.095613e-01 2.904387e-01 0.000000e+00
 0.000000e+00 0.000000e+00 0.000000e+00 6.629767e-01 3.370233e-01
 0.000000e+00 0.000000e+00 0.000000e+00 0.000000e+00 0.000000e+00
<ENDHMM>
~h "k"
<BEGINHMM>
<NUMSTATES> 5
<STATE> 2
<MEAN> 39
 -7.533992e+00 2.575562e-01 -2.396204e+00 -3.749954e+00 -6.738959e+00 -5.493412e+00 -7.508563e+00 -4.634713e+00 -4.678941e+00 -1.488160e+00 -3.378315e+00 -4.484136e+00 4.306483e+01 -9.800966e-01 -2.821265e-01 -6.386192e-01 2.879796e-01 6.843673e-01 -3.643194e-01 1.085006e-01 1.406645e-01 1.889196e-01 3.693943e-02 -1.535222e-01 4.972459e-01 -1.036735e+00 -9.409976e-02 -4.833255e-01 -2.882663e-01 -2.349859e-01 8.753628e-02 5.877595e-02 -1.548914e-01 1.622520e-01 2.796263e-03 8.277238e-02 -1.477837e-02 -2.411976e-03 1.020364e+00
<VARIANCE> 39
 4.124952e+01 3.605312e+01 4.931108e+01 3.975580e+01 4.959185e+01 4.861001e+01 4.499508e+01 4.770582e+01 4.470873e+01 3.740719e+01 3.517046e+01 3.160548e+01 1.040999e+02 2.316106e+00 4.295810e+00 3.580325e+00 3.107495e+00 4.397618e+00 3.786838e+00 3.893956e+00 3.712881e+00 3.492839e+00 3.267025e+00 2.905557e+00 2.528018e+00 9.807523e+00 4.075596e-01 6.724223e-01 6.256204e-01 6.099257e-01 8.227895e-01 7.794445e-01 7.912441e-01 6.997445e-01 7.217537e-01 6.909513e-01 5.863577e-01 5.034048e-01 1.486003e+00
<GCONST> 1.331922e+02
<STATE> 3
<MEAN> 39
 -1.126002e+01 -5.401573e+00 -7.382785e+00 -4.124793e+00 -2.436274e+00 -6.978354e+00 -9.116717e+00 -2.957777e+00 -4.232398e+00 1.817565e-01 -4.177391e+00 -2.438023e+00 4.992046e+01 -6.488419e-01 -1.755065e+00 -1.700459e+00 -8.100038e-01 1.004469e+00 -3.605285e-01 -6.670184e-01 7.718262e-01 5.759902e-02 7.151046e-01 -4.284861e-01 1.228082e-01 4.042753e+00 7.058187e-01 3.204268e-01 5.288916e-01 -3.487774e-01 -7.108719e-01 2.718308e-01 1.126654e-02 -8.405687e-04 -1.204352e-02 -1.692294e-01 1.062328e-01 -4.677822e-01 6.265382e-01
<VARIANCE> 39
 3.573303e+01 5.833505e+01 6.957941e+01 4.608604e+01 6.141385e+01 5.949149e+01 5.374492e+01 4.672813e+01 4.480665e+01 3.875660e+01 3.477863e+01 3.071075e+01 1.360068e+02 4.430830e+00 6.153313e+00 7.930916e+00 5.363114e+00 7.340453e+00 6.206957e+00 5.874670e+00 5.666686e+00 5.375435e+00 4.678638e+00 4.133235e+00 3.961658e+00 1.418195e+01 7.460120e-01 1.185374e+00 1.425162e+00 8.906973e-01 1.378507e+00 1.093536e+00 1.142056e+00 9.718431e-01 9.380912e-01 8.659596e-01 7.587949e-01 7.519746e-01 2.039173e+00
<GCONST> 1.463972e+02
<STATE> 4
<MEAN> 39
 -9.156514e+00 -6.675195e+00 -8.214976e+00 -7.568571e+00 -4.041413e+00 -6.317195e+00 -9.919289e+00 -9.427278e-01 -3.776780e+00 5.743864e-01 -4.798849e+00 -4.768106e+00 6.020969e+01 1.833816e+00 -1.868558e-02 1.099207e+00 -1.061209e+00 -1.577434e+00 6.867715e-01 -8.193781e-02 3.590617e-01 5.540336e-02 -4.804212e-01 3.636959e-01 -1.292838e+00 2.914707e+00 4.527055e-01 1.714733e-01 5.394537e-01 5.440915e-02 -4.500739e-01 3.392278e-01 1.107834e-01 -2.029212e-01 2.878398e-02 -3.322298e-01 2.656280e-01 -2.172164e-01 -5.459040e-01
<VARIANCE> 39
 4.478708e+01 4.976357e+01 7.557704e+01 5.312608e+01 6.431921e+01 6.994614e+01 5.630545e+01 5.346635e+01 5.216988e+01 4.182613e+01 4.072001e+01 4.065603e+01 1.100307e+02 5.001293e+00 5.295444e+00 6.839348e+00 5.053919e+00 6.037873e+00 5.418736e+00 5.843346e+00 5.444843e+00 5.445683e+00 4.168387e+00 4.123322e+00 4.521561e+00 8.322363e+00 9.111126e-01 9.539732e-01 1.460437e+00 8.240357e-01 1.330840e+00 9.622698e-01 1.048472e+00 9.102051e-01 8.870075e-01 7.833871e-01 7.597884e-01 7.709368e-01 1.252498e+00
<GCONST> 1.454122e+02
<TRANSP> 5
 0.000000e+00 1.000000e+00 0.000000e+00 0.000000e+00 0.000000e+00
 0.000000e+00 7.610208e-01 2.389792e-01 0.000000e+00 0.000000e+00
 0.000000e+00 0.000000e+00 5.509466e-01 4.490534e-01 0.000000e+00
 0.000000e+00 0.000000e+00 0.000000e+00 6.095687e-01 3.904313e-01
 0.000000e+00 0.000000e+00 0.000000e+00 0.000000e+00 0.000000e+00
<ENDHMM>
~h "l"
<BEGINHMM>
<NUMSTATES> 5
<STATE> 2
<MEAN> 39
 7.836238e-01 -8.632165e+00 -1.429336e+00 -1.135261e+01 -1.178586e+01 -6.996734e-02 -1.671393e+01 -8.966471e+00 1.342935e+00 1.518532e+00 -6.430548e-01 -7.436731e+00 6.843071e+01 4.538107e-01 8.643740e-04 4.322383e-01 -6.254872e-01 2.900365e-01 2.416801e-01 -1.157789e+00 -1.060116e+00 4.745588e-01 9.997123e-01 1.706052e-01 -1.953299e-01 -2.273655e-01 -1.566739e-01 1.019247e-01 -2.539059e-02 -6.295836e-03 3.526244e-02 1.137770e-02 1.874126e-01 2.225395e-01 -2.219043e-01 -2.122892e-01 1.619576e-02 2.498463e-02 -2.496721e-02
<VARIANCE> 39
 1.902231e+01 3.235619e+01 6.609464e+01 7.193900e+01 5.945243e+01 8.865257e+01 8.841228e+01 1.317038e+02 7.351284e+01 6.082549e+01 5.888362e+01 4.981332e+01 4.130967e+01 9.307996e-01 1.756142e+00 2.852766e+00 4.016298e+00 4.193064e+00 4.926318e+00 4.263416e+00 5.290002e+00 4.428025e+00 3.683015e+00 3.897966e+00 2.867358e+00 1.258155e+00 1.887211e-01 2.693866e-01 3.979732e-01 5.621799e-01 6.977451e-01 7.401106e-01 8.097447e-01 1.064717e+00 7.460313e-01 7.224593e-01 6.725141e-01 4.635206e-01 1.527230e-01
<GCONST> 1.301701e+02
<STATE> 3
<MEAN> 39
 1.381971e+00 -8.202352e+00 -4.526908e-01 -1.341574e+01 -1.053029e+01 9.811691e-01 -1.943318e+01 -1.069501e+01 1.569642e+00 3.785495e+00 -5.899613e-02 -7.939470e+00 6.789856e+01 -1.626687e-01 -4.111151e-02 -1.440223e-01 -1.015989e-01 1.569151e-01 -2.161392e-02 1.186324e-01 5.955353e-01 7.707503e-03 -2.758266e-01 -2.769568e-01 -1.157636e-01 8.579022e-02 -1.970404e-01 -8.790382e-02 -2.461962e-01 2.312210e-01 -5.662949e-02 -2.182336e-02 5.565829e-01 5.432436e-01 -1.400213e-01 -4.804734e-01 -2.231718e-01 9.124202e-03 1.225655e-01
<VARIANCE> 39
 1.659050e+01 3.043828e+01 6.459273e+01 7.271774e+01 5.746813e+01 7.453843e+01 9.867155e+01 1.190556e+02 7.389131e+01 6.131750e+01 5.779746e+01 4.714317e+01 3.558637e+01 6.686743e-01 1.739053e+00 3.033991e+00 3.299487e+00 2.902672e+00 4.143816e+00 4.352298e+00 6.440101e+00 4.061501e+00 3.644946e+00 3.885043e+00 2.696150e+00 1.236512e+00 1.151674e-01 3.123535e-01 3.622469e-01 5.457276e-01 7.044705e-01 7.194402e-01 8.805650e-01 9.361584e-01 7.891260e-01 7.109146e-01 7.947993e-01 5.074997e-01 1.510516e-01
<GCONST> 1.283274e+02
<STATE> 4
<MEAN> 39
 -2.723926e-01 -6.702462e+00 -2.214362e+00 -1.364650e+01 -7.838165e+00 1.118980e+00 -1.600180e+01 -7.222526e+00 2.822569e-01 1.121367e+00 -2.028198e+00 -7.034655e+00 6.433601e+01 -3.322375e-01 -3.806591e-02 -2.719373e-01 4.765936e-01 1.352908e-01 -1.257377e-01 8.366948e-01 7.514268e-01 -2.631600e-01 -7.433009e-01 -4.467009e-01 4.237868e-02 -1.543581e-01 -6.191924e-02 1.407155e-02 8.008166e-03 1.261134e-01 -3.385754e-02 -2.104696e-02 1.576505e-01 2.236833e-02 -1.070766e-01 -9.348835e-02 3.441589e-02 3.455305e-02 -2.742395e-02
<VARIANCE> 39
 2.681426e+01 4.677420e+01 7.095531e+01 8.856269e+01 6.771895e+01 7.823126e+01 8.909531e+01 9.714736e+01 6.925200e+01 5.391670e+01 5.741178e+01 5.003956e+01 1.042401e+02 6.887842e-01 2.023826e+00 2.242439e+00 2.684367e+00 3.010453e+00 3.248071e+00 3.722390e+00 4.221462e+00 3.346709e+00 3.111878e+00 3.437593e+00 2.331658e+00 1.806872e+00 1.153197e-01 2.558208e-01 2.711650e-01 4.033253e-01 4.954515e-01 4.760239e-01 5.600120e-01 6.122909e-01 5.153642e-01 4.985714e-01 5.355029e-01 3.702672e-01 1.627671e-01
<GCONST> 1.251674e+02
<TRANSP> 5
 0.000000e+00 1.000000e+00 0.000000e+00 0.000000e+00 0.000000e+00
 0.000000e+00 5.921585e-01 4.078415e-01 0.000000e+00 0.000000e+00
 0.000000e+00 0.000000e+00 5.873433e-01 4.126567e-01 0.000000e+00
 0.000000e+00 0.000000e+00 0.000000e+00 6.555654e-01 3.444346e-01
 0.000000e+00 0.000000e+00 0.000000e+00 0.000000e+00 0.000000e+00
<ENDHMM>
~h "m"
<BEGINHMM>
<NUMSTATES> 5
<STATE> 2
<MEAN> 39
 2.426669e+00 -4.638213e+00 -4.497421e-01 -6.278197e+00 -9.250126e+00 2.218119e+00 -1.026521e+01 -9.572655e+00 -9.545702e+00 -2.773064e+00 -5.750786e-01 -8.069206e+00 6.147058e+01 4.353972e-01 1.031421e+00 1.472915e+00 1.828238e+00 8.531284e-02 4.984902e-01 5.683915e-01 -2.414268e+00 -2.603374e+00 -1.321215e-01 -3.804758e-01 3.723401e-01 -9.988878e-01 -2.510041e-01 -1.518185e-01 9.182090e-02 -5.030260e-02 -8.815448e-03 -3.911937e-02 -9.516554e-03 1.237339e-01 7.342801e-02 -1.179375e-01 -1.954777e-01 8.025503e-02 2.466154e-01
<VARIANCE> 39
 2.414854e+01 4.087301e+01 5.439705e+01 7.239753e+01 5.148809e+01 6.887505e+01 6.779565e+01 8.566786e+01 8.135016e+01 5.582119e+01 6.226176e+01 4.385326e+01 7.416888e+01 1.450713e+00 2.461887e+00 3.699882e+00 4.232933e+00 3.440851e+00 3.605753e+00 4.306447e+00 5.547015e+00 5.993848e+00 4.030669e+00 5.934738e+00 3.585114e+00 3.230934e+00 2.051871e-01 3.149135e-01 5.241273e-01 7.067391e-01 4.948896e-01 4.525794e-01 6.025923e-01 9.399626e-01 9.775187e-01 5.389420e-01 7.908633e-01 4.827666e-01 2.809670e-01
<GCONST> 1.327910e+02
<STATE> 3
<MEAN> 39
 2.851374e+00 -3.192710e+00 3.305277e+00 -2.342926e+00 -9.319735e+00 3.646531e+00 -9.112465e+00 -1.537411e+01 -1.588495e+01 -3.476873e+00 -1.745546e+00 -6.548486e+00 6.084050e+01 -7.771540e-02 -1.840192e-02 1.786305e-01 8.225741e-03 1.199493e-01 2.270053e-01 8.389368e-02 -9.700434e-02 -2.723218e-01 -3.121506e-01 -2.539757e-01 9.559053e-02 1.682125e-01 -9.878419e-02 -2.404976e-01 -4.996521e-01 -6.189411e-01 -1.248767e-02 -1.460953e-01 -1.818137e-01 8.450731e-01 9.005471e-01 3.882451e-02 1.054894e-01 -1.776074e-01 2.709861e-01
<VARIANCE> 39
 1.556440e+01 2.859764e+01 3.477305e+01 5.539451e+01 4.931503e+01 6.999821e+01 8.240600e+01 8.267598e+01 6.948163e+01 7.067178e+01 7.791780e+01 4.591933e+01 3.936268e+01 6.283635e-01 1.665559e+00 3.026309e+00 4.036704e+00 2.044811e+00 2.473633e+00 2.664743e+00 4.548955e+00 5.758510e+00 2.706712e+00 4.003998e+00 2.568023e+00 2.041352e+00 1.433777e-01 2.464425e-01 4.339837e-01 5.251372e-01 4.333218e-01 4.444334e-01 5.770522e-01 7.088602e-01 8.605168e-01 5.980648e-01 8.316212e-01 5.450318e-01 2.238694e-01
<GCONST> 1.248062e+02
<STATE> 4
<MEAN> 39
 -7.019638e-01 -2.396256e+00 1.447366e+00 -4.172959e+00 -7.856297e+00 2.421990e+00 -8.536962e+00 -1.055392e+01 -1.185070e+01 -5.286645e+00 -4.469564e+00 -5.885946e+00 5.561954e+01 -1.108385e-01 -4.252857e-02 -4.575646e-01 -4.656193e-01 1.318895e-02 -1.686987e-01 -1.498078e-02 6.486836e-01 7.288358e-01 1.090099e-01 1.390793e-01 -9.884457e-02 8.732394e-02 -2.517964e-02 -6.690051e-02 -1.284871e-01 -1.247081e-01 8.889181e-03 -5.870113e-02 -5.755126e-02 1.604103e-01 2.043690e-01 6.559642e-02 9.001913e-02 -3.186855e-02 6.105224e-02
<VARIANCE> 39
 3.761686e+01 3.332510e+01 5.216640e+01 5.638424e+01 6.592665e+01 6.986730e+01 6.527679e+01 6.762085e+01 7.075668e+01 5.115361e+01 5.957935e+01 4.108138e+01 1.292413e+02 6.251577e-01 1.555702e+00 2.409049e+00 2.883162e+00 1.984699e+00 2.092293e+00 2.197569e+00 3.159971e+00 4.007941e+00 2.241143e+00 2.851064e+00 2.044070e+00 1.957465e+00 1.169934e-01 1.947690e-01 3.384153e-01 4.237481e-01 3.572430e-01 3.642554e-01 3.688480e-01 4.681442e-01 5.692841e-01 3.854951e-01 4.977311e-01 3.416141e-01 1.550456e-01
<GCONST> 1.197137e+02
<TRANSP> 5
 0.000000e+00 1.000000e+00 0.000000e+00 0.000000e+00 0.000000e+00
 0.000000e+00 5.615944e-01 4.384056e-01 0.000000e+00 0.000000e+00
 0.000000e+00 0.000000e+00 6.269696e-01 3.730304e-01 0.000000e+00
 0.000000e+00 0.000000e+00 0.000000e+00 8.118975e-01 1.881025e-01
 0.000000e+00 0.000000e+00 0.000000e+00 0.000000e+00 0.000000e+00
<ENDHMM>
~h "n"
<BEGINHMM>
<NUMSTATES> 5
<STATE> 2
<MEAN> 39
 1.414600e+00 -7.406723e+00 1.404821e+00 -3.770611e+00 -1.201419e+01 -4.528004e+00 -1.392430e+01 -3.599488e+00 -2.705479e+00 -2.123553e+00 -6.611553e+00 -8.188539e+00 6.535488e+01 6.648020e-01 1.960107e+00 1.639626e+00 1.940005e+00 -5.288584e-01 -7.232975e-01 2.131541e-01 -3.134550e+00 -9.169723e-01 1.025665e+00 -7.103467e-01 4.896496e-01 -1.951001e+00 -1.295428e-01 7.885606e-02 -5.509801e-02 -1.866544e-01 3.270363e-02 1.996954e-01 2.608518e-01 -2.772797e-01 -1.344325e-01 1.465882e-02 7.299542e-02 1.135922e-01 6.513756e-02
<VARIANCE> 39
 1.405479e+01 4.353794e+01 5.408003e+01 4.983695e+01 5.191629e+01 5.823945e+01 6.316507e+01 1.298197e+02 6.959229e+01 5.141657e+01 5.270934e+01 4.515409e+01 4.618749e+01 8.476292e-01 2.335969e+00 3.490668e+00 3.058726e+00 3.708841e+00 4.604818e+00 4.727492e+00 6.960773e+00 4.856239e+00 4.462623e+00 4.496157e+00 3.184447e+00 1.675381e+00 1.384732e-01 4.662388e-01 4.547527e-01 5.323315e-01 5.418799e-01 6.372500e-01 6.588208e-01 1.639323e+00 7.265458e-01 6.998574e-01 5.582731e-01 4.503701e-01 3.061808e-01
<GCONST> 1.300601e+02
<STATE> 3
<MEAN> 39
 2.491034e+00 -2.312204e+00 4.934291e+00 2.615343e-02 -1.344810e+01 -5.171978e+00 -1.173368e+01 -1.323383e+01 -5.475295e+00 8.648025e-01 -7.445983e+00 -6.415233e+00 6.112535e+01 7.444957e-02 7.891036e-01 4.360110e-01 3.611606e-01 -5.280229e-03 8.913840e-02 3.224722e-01 -9.059164e-01 -5.974652e-01 2.477005e-01 -1.597750e-01 3.861244e-01 -7.174651e-01 -2.468677e-01 -4.173250e-01 -4.285021e-01 -5.258074e-01 2.570992e-01 1.951578e-01 -7.511819e-02 1.032597e+00 2.102973e-01 -3.974235e-01 2.439949e-01 -9.238097e-02 3.481812e-01
<VARIANCE> 39
 1.279327e+01 2.704640e+01 3.656683e+01 4.213922e+01 4.637912e+01 6.288333e+01 7.318217e+01 9.731210e+01 6.502925e+01 5.321122e+01 5.903397e+01 4.891977e+01 3.073029e+01 7.808482e-01 2.374237e+00 2.487741e+00 2.463097e+00 2.731169e+00 2.929033e+00 3.443285e+00 7.462144e+00 3.897600e+00 3.235077e+00 2.934618e+00 2.420292e+00 2.072400e+00 1.578917e-01 3.551723e-01 5.062595e-01 4.745390e-01 5.655076e-01 6.314996e-01 7.130339e-01 1.053661e+00 7.514988e-01 6.824027e-01 6.732713e-01 5.010232e-01 2.957991e-01
<GCONST> 1.256395e+02
<STATE> 4
<MEAN> 39
 4.029493e-02 -6.856909e-03 4.248591e+00 4.598254e-01 -1.025021e+01 -4.528206e+00 -9.964472e+00 -1.023458e+01 -6.389482e+00 -1.652552e+00 -7.628064e+00 -4.901313e+00 5.406652e+01 -4.153544e-01 2.424532e-01 -2.458662e-01 -1.364962e-01 5.248582e-01 1.688494e-01 1.836616e-01 5.825279e-01 -4.806772e-02 -3.268769e-01 2.306190e-01 6.665658e-02 -7.089499e-01 -1.437600e-01 -1.456735e-01 -1.173878e-01 -1.663078e-01 8.580110e-02 2.328780e-02 -2.996044e-02 2.526852e-01 9.742843e-02 -9.016220e-02 1.031745e-01 -4.805318e-02 9.300134e-02
<VARIANCE> 39
 3.292171e+01 3.194454e+01 4.026459e+01 3.876503e+01 6.177922e+01 5.382065e+01 6.070957e+01 7.297019e+01 5.279708e+01 5.243536e+01 5.874718e+01 4.297207e+01 9.777020e+01 1.000972e+00 2.029954e+00 1.853870e+00 2.107866e+00 2.403399e+00 2.311476e+00 2.561357e+00 3.957686e+00 2.777177e+00 2.564411e+00 2.559996e+00 1.996293e+00 2.370157e+00 1.974564e-01 3.125986e-01 3.123603e-01 3.640513e-01 4.508378e-01 4.284226e-01 4.794807e-01 6.638287e-01 4.995017e-01 4.800597e-01 4.574370e-01 3.698463e-01 2.626556e-01
<GCONST> 1.211066e+02
<TRANSP> 5
 0.000000e+00 1.000000e+00 0.000000e+00 0.000000e+00 0.000000e+00
 0.000000e+00 5.940713e-01 4.059287e-01 0.000000e+00 0.000000e+00
 0.000000e+00 0.000000e+00 5.877972e-01 4.122028e-01 0.000000e+00
 0.000000e+00 0.000000e+00 0.000000e+00 8.093704e-01 1.906296e-01
 0.000000e+00 0.000000e+00 0.000000e+00 0.000000e+00 0.000000e+00
<ENDHMM>
~h "o"
<BEGINHMM>
<NUMSTATES> 5
<STATE> 2
<MEAN> 39
 -3.819577e-02 -3.916494e+00 -6.692907e+00 -1.550325e+01 -1.142729e+01 4.312290e+00 -1.323449e+01 -5.194475e+00 -3.007372e+00 -1.194995e+00 1.834505e+00 -5.638028e+00 6.427098e+01 1.531295e+00 -5.451060e-01 -6.838500e-01 -2.669976e+00 -1.190902e+00 2.339489e+00 -3.647979e-01 1.957245e-03 4.504136e-01 -5.072077e-02 1.244487e+00 -4.986250e-01 1.913021e+00 -3.544468e-01 3.872602e-02 2.069930e-01 3.105721e-01 2.463813e-01 -1.180336e-01 2.959880e-01 -4.606571e-02 -1.388548e-01 -7.966715e-02 -9.712289e-02 1.266721e-01 -4.501075e-01
<VARIANCE> 39
 3.445409e+01 4.199875e+01 5.535241e+01 9.431695e+01 6.518762e+01 7.330859e+01 8.259888e+01 6.868674e+01 7.001633e+01 6.530862e+01 5.553891e+01 4.237611e+01 1.030748e+02 3.973455e+00 2.934606e+00 5.480758e+00 6.735303e+00 6.948369e+00 5.652252e+00 5.014600e+00 5.741606e+00 5.441274e+00 5.330698e+00 4.603044e+00 3.693084e+00 5.566595e+00 7.574570e-01 5.302705e-01 7.637835e-01 1.265168e+00 1.006008e+00 1.022674e+00 9.019213e-01 8.443522e-01 9.832945e-01 8.420869e-01 7.602688e-01 6.308795e-01 1.016880e+00
<GCONST> 1.443731e+02
<STATE> 3
<MEAN> 39
 2.318983e+00 -5.540699e+00 -8.259417e+00 -2.010678e+01 -1.307611e+01 9.547285e+00 -1.334980e+01 -5.746928e+00 -2.589023e+00 -1.650676e+00 5.004939e+00 -6.256834e+00 6.893945e+01 1.223072e-01 -1.032235e-01 -1.123882e-01 -4.761241e-01 1.965947e-01 5.472795e-01 2.481527e-01 1.992509e-02 -6.833487e-02 -9.043966e-02 1.502305e-01 -1.441253e-02 1.816810e-02 -2.675722e-01 1.928524e-01 2.432224e-01 7.885489e-01 3.324633e-01 -7.203736e-01 1.069304e-01 -3.597217e-02 -9.332471e-02 2.621383e-02 -4.867334e-01 1.038657e-01 -5.504013e-01
<VARIANCE> 39
 1.335563e+01 3.725433e+01 3.904063e+01 6.768649e+01 5.433834e+01 5.670391e+01 7.869360e+01 7.193048e+01 7.050425e+01 7.704440e+01 6.067132e+01 4.806695e+01 3.111959e+01 7.590944e-01 1.981792e+00 1.731593e+00 4.746436e+00 2.926880e+00 3.987373e+00 3.447500e+00 3.258760e+00 4.146419e+00 3.811197e+00 3.145406e+00 2.600568e+00 2.436538e+00 2.593302e-01 3.206071e-01 3.913460e-01 5.870007e-01 7.088462e-01 6.062276e-01 6.287754e-01 7.027062e-01 7.406130e-01 7.653880e-01 6.334160e-01 5.287862e-01 3.195267e-01
<GCONST> 1.271782e+02
<STATE> 4
<MEAN> 39
 2.076821e+00 -3.981694e+00 -7.405968e+00 -2.018486e+01 -1.121013e+01 8.149419e+00 -1.148790e+01 -5.509015e+00 -2.897839e+00 -2.037229e+00 2.703920e+00 -5.406368e+00 6.444295e+01 -1.494629e-01 1.885403e-01 2.531470e-01 1.064576e+00 3.518729e-01 -7.480856e-01 1.201249e-01 -1.474204e-01 4.558149e-02 1.137879e-01 -5.296317e-01 -3.166302e-02 -8.899766e-01 -7.395559e-02 5.534308e-02 1.346165e-01 3.240504e-01 4.299884e-02 -2.095628e-01 -1.608045e-02 -4.677466e-02 -8.870218e-03 2.071929e-03 -1.140314e-01 2.010058e-02 -1.576834e-01
<VARIANCE> 39
 1.733768e+01 4.391677e+01 4.024763e+01 7.634100e+01 5.597814e+01 5.940535e+01 7.135870e+01 6.314429e+01 6.442465e+01 6.400687e+01 4.875332e+01 4.864769e+01 9.165985e+01 7.068590e-01 1.504522e+00 1.473277e+00 3.500592e+00 2.328926e+00 2.803739e+00 2.661160e+00 2.596990e+00 2.724941e+00 2.645301e+00 2.383589e+00 2.009501e+00 2.306549e+00 1.266135e-01 2.484128e-01 2.396544e-01 4.238001e-01 3.990977e-01 4.192891e-01 4.600841e-01 4.519779e-01 4.717257e-01 4.715332e-01 4.003516e-01 3.745756e-01 2.853974e-01
<GCONST> 1.196091e+02
<TRANSP> 5
 0.000000e+00 1.000000e+00 0.000000e+00 0.000000e+00 0.000000e+00
 0.000000e+00 6.001763e-01 3.998237e-01 0.000000e+00 0.000000e+00
 0.000000e+00 0.000000e+00 5.912406e-01 4.087594e-01 0.000000e+00
 0.000000e+00 0.000000e+00 0.000000e+00 8.427135e-01 1.572865e-01
 0.000000e+00 0.000000e+00 0.000000e+00 0.000000e+00 0.000000e+00
<ENDHMM>
~h "p"
<BEGINHMM>
<NUMSTATES> 5
<STATE> 2
<MEAN> 39
 -6.855740e+00 1.143807e+00 -2.970213e+00 -4.262068e+00 -5.797845e+00 -2.829545e+00 -6.462590e+00 -5.967732e+00 -4.807447e+00 -2.705334e+00 -3.109278e+00 -4.326985e+00 3.935376e+01 -9.128771e-01 1.250941e-01 -1.353555e-01 2.622887e-01 1.866564e-01 -4.359078e-01 2.343446e-01 1.897148e-01 2.313776e-01 -1.178952e-02 -3.759002e-02 3.268168e-01 -1.099630e+00 1.830033e-02 -3.473966e-01 -7.568925e-02 -1.759274e-01 -1.157983e-01 5.993386e-02 -1.393643e-01 4.571898e-02 2.367751e-02 2.505834e-02 9.091226e-02 -2.018198e-02 8.475111e-01
<VARIANCE> 39
 4.890034e+01 2.694353e+01 3.207909e+01 3.283084e+01 2.534344e+01 3.633790e+01 2.970260e+01 3.129430e+01 3.558989e+01 2.714965e+01 2.711923e+01 2.782139e+01 6.254218e+01 1.774896e+00 2.237670e+00 1.841265e+00 2.141758e+00 2.167357e+00 2.495203e+00 2.332465e+00 2.471565e+00 2.708865e+00 2.284512e+00 2.373312e+00 1.931834e+00 6.340380e+00 3.826221e-01 4.338656e-01 3.895757e-01 4.659204e-01 4.563666e-01 5.157617e-01 4.757015e-01 5.135664e-01 5.336844e-01 4.717891e-01 4.803578e-01 3.975767e-01 1.079034e+00
<GCONST> 1.191822e+02
<STATE> 3
<MEAN> 39
 -8.508060e+00 -9.754900e-01 -3.558088e+00 -4.600147e+00 -5.944069e+00 -3.798235e+00 -6.900818e+00 -5.228527e+00 -3.706521e+00 -2.541316e+00 -2.411255e+00 -3.325906e+00 4.559041e+01 6.853721e-01 -2.200427e+00 -8.811225e-01 -1.546285e+00 -4.251680e-01 7.340376e-01 -5.988311e-01 1.683763e-01 3.299879e-01 1.736770e-01 7.042230e-01 -3.756939e-01 5.884528e+00 8.683618e-01 -4.880128e-01 -1.105749e-01 -6.403649e-01 -3.753675e-01 5.733317e-01 -3.179848e-01 2.470209e-04 -1.161450e-02 4.726451e-02 1.518667e-01 -5.171584e-01 1.299826e+00
<VARIANCE> 39
 3.366414e+01 3.002508e+01 2.924471e+01 3.790563e+01 2.533376e+01 4.091762e+01 3.029871e+01 2.896729e+01 3.196680e+01 2.503320e+01 2.438307e+01 2.313037e+01 1.343449e+02 6.049294e+00 4.683372e+00 4.509613e+00 6.671404e+00 3.915392e+00 7.678403e+00 4.204597e+00 4.720943e+00 4.854179e+00 3.640536e+00 3.797121e+00 4.178353e+00 1.240274e+01 7.101430e-01 7.808221e-01 7.993422e-01 1.050365e+00 8.589293e-01 1.118853e+00 7.679983e-01 8.253529e-01 8.733326e-01 6.780786e-01 7.300709e-01 6.733114e-01 2.247519e+00
<GCONST> 1.368569e+02
<STATE> 4
<MEAN> 39
 -4.991249e+00 -6.960484e+00 -6.297222e+00 -9.521052e+00 -6.584394e+00 -4.390678e-01 -8.496522e+00 -5.358247e+00 -3.057482e+00 -2.133898e+00 -1.064460e+00 -5.600161e+00 5.914561e+01 1.952414e+00 -1.673665e+00 -3.994787e-01 -1.805097e+00 -9.205508e-01 1.232949e+00 -9.348639e-01 1.702092e-01 1.146099e-01 1.375979e-01 5.445845e-01 -1.044585e+00 4.781456e+00 1.360824e-01 3.763141e-01 3.144379e-01 1.507320e-01 -1.672055e-01 -2.178130e-02 -5.515700e-02 8.347739e-02 -3.164609e-02 -5.739373e-02 -1.551727e-01 -6.609064e-02 -8.611314e-01
<VARIANCE> 39
 5.371297e+01 4.463042e+01 3.470184e+01 7.547862e+01 3.525504e+01 8.153345e+01 3.540988e+01 3.593492e+01 3.324275e+01 2.885575e+01 3.065871e+01 3.544835e+01 1.418618e+02 5.416637e+00 6.399077e+00 5.465392e+00 7.940180e+00 5.918288e+00 8.181762e+00 4.775335e+00 5.517368e+00 5.202970e+00 3.867501e+00 4.253232e+00 4.603249e+00 1.475151e+01 1.164842e+00 8.026953e-01 6.279229e-01 1.525062e+00 9.655950e-01 1.328397e+00 7.237996e-01 7.204571e-01 7.963203e-01 6.022951e-01 7.457352e-01 6.627176e-01 2.060191e+00
<GCONST> 1.431598e+02
<TRANSP> 5
 0.000000e+00 1.000000e+00 0.000000e+00 0.000000e+00 0.000000e+00
 0.000000e+00 8.335265e-01 1.664735e-01 0.000000e+00 0.000000e+00
 0.000000e+00 0.000000e+00 5.252956e-01 4.747044e-01 0.000000e+00
 0.000000e+00 0.000000e+00 0.000000e+00 4.733896e-01 5.266104e-01
 0.000000e+00 0.000000e+00 0.000000e+00 0.000000e+00 0.000000e+00
<ENDHMM>
~h "r"
<BEGINHMM>
<NUMSTATES> 5
<STATE> 2
<MEAN> 39
 -8.078001e-01 -8.977954e+00 -5.637299e+00 -4.727123e+00 -1.079223e+01 -4.458783e+00 -1.313692e+01 -2.835299e+00 2.757979e+00 -6.236866e-01 -2.451187e+00 -7.725688e+00 6.650764e+01 3.692550e-01 -1.138816e-01 1.425630e-01 1.145915e+00 -2.766901e-01 -3.709081e-01 -6.638870e-01 -1.460424e-01 3.756628e-01 -5.165048e-02 7.239145e-02 1.903176e-01 -5.471755e-01 -3.043817e-02 2.823808e-02 1.347822e-01 -2.451436e-01 -1.982694e-02 1.757861e-01 2.074401e-02 6.941886e-02 -3.912885e-01 -5.419191e-02 1.087315e-01 2.010127e-02 -3.419444e-03
<VARIANCE> 39
 2.590218e+01 3.305692e+01 5.242524e+01 4.725772e+01 5.805920e+01 5.459155e+01 6.416727e+01 8.425392e+01 5.892508e+01 4.898980e+01 4.783170e+01 4.097958e+01 7.720988e+01 2.350880e+00 2.600708e+00 3.145574e+00 4.386493e+00 4.787413e+00 4.652123e+00 4.324572e+00 5.141816e+00 5.116057e+00 4.334267e+00 4.104490e+00 3.503753e+00 4.112238e+00 4.768974e-01 4.411533e-01 5.032133e-01 7.914748e-01 8.319957e-01 7.391838e-01 7.723734e-01 9.417226e-01 8.634546e-01 7.562236e-01 6.932271e-01 6.346675e-01 6.798466e-01
<GCONST> 1.356985e+02
<STATE> 3
<MEAN> 39
 2.599272e-01 -8.932803e+00 -4.664246e+00 -2.547590e+00 -1.162564e+01 -4.898794e+00 -1.493977e+01 -3.021169e+00 2.315125e+00 -6.104835e-01 -1.751277e+00 -7.196729e+00 6.541556e+01 2.111234e-01 -1.520060e-02 3.906528e-01 2.789085e-01 -1.692822e-01 -2.912916e-02 -2.748128e-01 1.663905e-01 -6.117569e-01 -1.650393e-01 2.049106e-01 2.234034e-01 -4.368584e-01 -1.249005e-01 3.790290e-02 9.374554e-02 -4.181715e-01 2.544583e-02 1.833987e-01 2.703394e-01 1.206947e-01 -3.655687e-01 -8.199695e-02 1.937542e-02 -3.734219e-02 1.570279e-01
<VARIANCE> 39
 2.301982e+01 3.256032e+01 5.757647e+01 4.126520e+01 6.047429e+01 5.704159e+01 6.224476e+01 7.972045e+01 5.989045e+01 5.082020e+01 4.812378e+01 4.059739e+01 5.585189e+01 2.101948e+00 2.710399e+00 3.209288e+00 3.136450e+00 4.980939e+00 4.536068e+00 4.166384e+00 5.301462e+00 4.769277e+00 3.887788e+00 3.694486e+00 3.460474e+00 3.657078e+00 4.405707e-01 4.961826e-01 5.160027e-01 6.749086e-01 1.055988e+00 8.143296e-01 8.480883e-01 9.485946e-01 9.715393e-01 8.248824e-01 7.919172e-01 6.429513e-01 6.552495e-01
<GCONST> 1.351102e+02
<STATE> 4
<MEAN> 39
 -5.977343e-01 -7.980340e+00 -4.239670e+00 -2.796269e+00 -1.075632e+01 -4.935732e+00 -1.368126e+01 -2.873903e+00 4.827972e-01 -1.424656e+00 -1.894265e+00 -6.580768e+00 6.217894e+01 -1.313202e-01 2.119744e-01 4.852109e-01 -1.750508e-01 2.425473e-02 1.441960e-01 3.221680e-01 1.318043e-01 -8.094506e-01 -2.613027e-01 7.166883e-02 1.642625e-01 -4.112659e-01 -1.167459e-01 6.637583e-02 8.303893e-02 -1.831378e-01 1.804543e-02 1.006766e-01 1.571094e-01 -6.296234e-03 -1.246609e-01 -1.223524e-02 -1.358644e-02 -4.296009e-02 7.409892e-02
<VARIANCE> 39
 3.168125e+01 4.199779e+01 6.576452e+01 4.160455e+01 6.603731e+01 5.970320e+01 6.462458e+01 7.705506e+01 5.679261e+01 5.038047e+01 4.978116e+01 4.152242e+01 1.160321e+02 1.772262e+00 2.682309e+00 2.796496e+00 2.468136e+00 4.159606e+00 3.461254e+00 3.397388e+00 4.059287e+00 4.112239e+00 3.154568e+00 3.172996e+00 2.637303e+00 3.375960e+00 3.331505e-01 3.933732e-01 3.853700e-01 4.881461e-01 7.605846e-01 6.171421e-01 6.531554e-01 6.893968e-01 6.836547e-01 6.124395e-01 5.936300e-01 4.928443e-01 4.874674e-01
<GCONST> 1.305348e+02
<TRANSP> 5
 0.000000e+00 1.000000e+00 0.000000e+00 0.000000e+00 0.000000e+00
 0.000000e+00 4.931414e-01 5.068586e-01 0.000000e+00 0.000000e+00
 0.000000e+00 0.000000e+00 4.474964e-01 5.525036e-01 0.000000e+00
 0.000000e+00 0.000000e+00 0.000000e+00 5.687658e-01 4.312342e-01
 0.000000e+00 0.000000e+00 0.000000e+00 0.000000e+00 0.000000e+00
<ENDHMM>
~h "s"
<BEGINHMM>
<NUMSTATES> 5
<STATE> 2
<MEAN> 39
 -1.129129e+01 2.457439e+00 -5.073018e-01 -3.636740e+00 -3.174732e+00 -7.267904e+00 -7.752095e+00 -1.626329e+00 -2.922042e+00 -2.297683e+00 -4.567969e+00 -2.853971e+00 6.312910e+01 -4.301517e+00 2.284950e+00 -5.639577e-01 7.872030e-01 1.902215e+00 -4.449107e-01 1.618922e+00 6.312923e-01 2.838134e-01 -3.377403e-01 4.148457e-01 9.484268e-01 -6.364289e-01 -4.437271e-01 -4.347962e-01 -2.897941e-01 -2.839334e-01 -3.601116e-01 2.947902e-01 -1.562302e-01 -1.732604e-02 -5.635494e-02 1.387752e-02 2.785504e-01 -1.269964e-01 -3.206861e-03
<VARIANCE> 39
 7.399117e+01 5.110957e+01 5.005050e+01 4.126530e+01 5.421548e+01 4.745543e+01 6.908537e+01 5.498088e+01 4.649147e+01 3.948908e+01 4.218771e+01 3.178211e+01 7.385658e+01 4.126867e+00 5.611831e+00 4.132679e+00 4.189272e+00 5.386137e+00 4.496352e+00 5.264579e+00 5.372170e+00 4.165280e+00 3.675940e+00 3.723338e+00 2.885587e+00 2.383806e+00 1.038056e+00 8.961461e-01 4.462334e-01 5.744670e-01 7.782934e-01 6.193591e-01 8.877658e-01 7.093254e-01 6.354572e-01 6.141965e-01 5.838863e-01 4.685740e-01 2.419903e-01
<GCONST> 1.348750e+02
<STATE> 3
<MEAN> 39
 -2.687946e+01 5.014315e+00 -4.870847e+00 -3.540511e+00 -7.300269e-01 -7.438581e+00 -4.714819e+00 -2.328950e-01 -2.790822e+00 -2.538407e+00 -1.530685e+00 -3.144989e-01 6.158008e+01 -1.225615e+00 -4.384999e-01 -6.528671e-01 -2.435738e-01 -1.008957e-01 8.039278e-02 7.787839e-02 9.581807e-02 1.165243e-01 9.462962e-02 2.879606e-01 2.350663e-01 -3.046845e-01 1.064559e+00 -3.365295e-01 2.333135e-01 -9.072253e-02 -2.926775e-01 1.504406e-02 -2.929521e-01 -1.366270e-01 2.162836e-02 5.195778e-02 -1.679149e-01 -1.975789e-01 1.242984e-01
<VARIANCE> 39
 3.394083e+01 2.264191e+01 3.482410e+01 3.019427e+01 3.361043e+01 3.554543e+01 4.990646e+01 3.185122e+01 3.105375e+01 2.526635e+01 2.506564e+01 2.173759e+01 3.274460e+01 6.154339e+00 2.243433e+00 2.356985e+00 1.875023e+00 2.176177e+00 2.256255e+00 2.601723e+00 2.490812e+00 2.390379e+00 2.143098e+00 2.175872e+00 1.798656e+00 1.295830e+00 5.142904e-01 4.719020e-01 4.237410e-01 4.171132e-01 5.190520e-01 4.820611e-01 6.179680e-01 5.643128e-01 5.033123e-01 4.538351e-01 4.350657e-01 3.987183e-01 2.062429e-01
<GCONST> 1.166246e+02
<STATE> 4
<MEAN> 39
 -2.186711e+01 7.567421e-01 -5.091395e+00 -4.472378e+00 -2.295721e+00 -5.739506e+00 -5.836715e+00 -1.062397e+00 -1.556279e+00 -2.306188e+00 -1.605712e+00 -1.115506e+00 5.426795e+01 1.959772e+00 -4.561070e-01 4.584314e-01 -2.176172e-01 -6.428204e-01 7.131062e-02 -7.219318e-01 -4.250425e-01 1.510740e-02 4.196174e-03 -2.789218e-01 -5.430728e-01 2.657926e-01 3.895949e-01 -3.673442e-02 1.507736e-01 -4.171667e-02 -1.142190e-01 9.468240e-02 -1.632557e-01 -8.651997e-02 -7.106397e-02 -1.914416e-02 1.611303e-02 -1.122442e-01 1.599293e-01
<VARIANCE> 39
 9.451777e+01 3.057128e+01 3.700337e+01 3.198503e+01 3.571970e+01 3.617088e+01 4.716982e+01 3.079241e+01 3.004870e+01 2.413742e+01 2.553512e+01 2.192991e+01 1.262423e+02 9.063385e+00 2.604342e+00 3.090728e+00 2.474893e+00 2.792070e+00 3.013653e+00 3.926233e+00 3.376082e+00 2.996594e+00 2.216485e+00 2.296139e+00 2.447968e+00 3.524118e+00 9.276720e-01 3.747486e-01 4.020560e-01 3.878712e-01 4.141144e-01 5.390245e-01 6.174091e-01 5.380095e-01 4.874038e-01 4.155542e-01 4.261847e-01 3.935544e-01 3.596976e-01
<GCONST> 1.237886e+02
<TRANSP> 5
 0.000000e+00 1.000000e+00 0.000000e+00 0.000000e+00 0.000000e+00
 0.000000e+00 6.863825e-01 3.136175e-01 0.000000e+00 0.000000e+00
 0.000000e+00 0.000000e+00 7.945235e-01 2.054765e-01 0.000000e+00
 0.000000e+00 0.000000e+00 0.000000e+00 8.638116e-01 1.361884e-01
 0.000000e+00 0.000000e+00 0.000000e+00 0.000000e+00 0.000000e+00
<ENDHMM>
~h "t"
<BEGINHMM>
<NUMSTATES> 5
<STATE> 2
<MEAN> 39
 -6.521422e+00 1.363095e+00 -2.159748e+00 -3.615280e+00 -6.439582e+00 -6.070255e+00 -9.023643e+00 -5.559272e+00 -2.592802e+00 -1.696017e+00 -4.164219e+00 -5.159907e+00 4.327687e+01 -9.547946e-01 3.564882e-02 -2.342957e-01 6.901333e-02 2.605959e-01 -1.486627e-01 5.462210e-01 1.313584e-01 -8.326911e-02 -1.917943e-01 6.544626e-02 4.312665e-01 -1.537214e+00 -1.429104e-01 -4.852635e-01 -1.136103e-01 -2.823555e-01 -1.046669e-01 6.016045e-02 -8.048951e-02 1.196012e-01 2.724799e-02 -1.185394e-03 8.793799e-02 2.530269e-02 1.029954e+00
<VARIANCE> 39
 3.761639e+01 3.004561e+01 4.078635e+01 3.527416e+01 3.517117e+01 3.806746e+01 4.381800e+01 4.240495e+01 4.217207e+01 3.205739e+01 3.314436e+01 3.041031e+01 9.916691e+01 2.320154e+00 3.440815e+00 2.319072e+00 2.781128e+00 3.266724e+00 2.817091e+00 3.119403e+00 3.121457e+00 2.893279e+00 2.546108e+00 2.573745e+00 2.219892e+00 9.477755e+00 4.318990e-01 5.517423e-01 4.498507e-01 5.468003e-01 6.617130e-01 5.912077e-01 6.344241e-01 6.079527e-01 6.031984e-01 5.250740e-01 5.138522e-01 4.628407e-01 1.556073e+00
<GCONST> 1.269813e+02
<STATE> 3
<MEAN> 39
 -1.120147e+01 -1.873783e+00 -3.274448e+00 -4.694360e+00 -5.641213e+00 -6.509532e+00 -7.446538e+00 -4.249242e+00 -2.892055e+00 -2.454573e+00 -3.529056e+00 -3.071719e+00 4.632568e+01 -8.941780e-01 -1.903395e+00 -6.709706e-01 -1.271839e+00 1.033904e-01 -1.363327e-01 -3.073505e-01 5.065020e-01 3.688322e-01 -3.975679e-02 1.732406e-01 1.150716e-01 4.916759e+00 8.624584e-01 -8.140685e-02 1.310308e-01 -2.827125e-01 -4.165417e-01 2.495028e-01 -5.505939e-01 -8.747710e-02 1.460641e-01 9.845448e-02 -2.368139e-02 -4.769486e-01 1.269239e+00
<VARIANCE> 39
 3.741238e+01 3.830449e+01 3.382566e+01 3.237805e+01 3.021296e+01 3.722470e+01 3.550477e+01 3.417887e+01 3.552832e+01 2.713311e+01 2.856318e+01 2.527641e+01 1.353706e+02 4.928446e+00 4.290157e+00 4.410944e+00 4.236189e+00 4.212374e+00 4.752258e+00 5.038029e+00 4.745878e+00 5.487931e+00 3.400951e+00 3.887284e+00 3.842831e+00 1.579639e+01 8.469554e-01 7.992255e-01 8.349115e-01 7.651688e-01 8.963911e-01 1.011563e+00 9.507145e-01 9.700180e-01 9.609768e-01 6.896597e-01 7.266271e-01 7.036741e-01 2.141506e+00
<GCONST> 1.376336e+02
<STATE> 4
<MEAN> 39
 -9.864983e+00 -5.795663e+00 -4.892398e+00 -8.398067e+00 -6.704627e+00 -6.274363e+00 -9.754147e+00 -3.483118e+00 -1.250062e+00 -2.278580e+00 -3.674370e+00 -4.731143e+00 6.102090e+01 1.889555e+00 -8.297800e-01 3.100106e-01 -1.122589e+00 -1.056756e+00 6.781469e-01 -1.587815e+00 -7.332533e-02 3.817335e-01 1.744321e-01 2.228536e-01 -1.140258e+00 4.736918e+00 6.959107e-01 4.221714e-01 3.960424e-01 2.163189e-01 -2.896960e-01 4.247387e-01 -1.715844e-01 -1.749976e-01 -2.207928e-01 1.582704e-02 1.384226e-01 -1.865025e-01 -9.914632e-01
<VARIANCE> 39
 4.675597e+01 3.481911e+01 3.949709e+01 3.609576e+01 3.376565e+01 4.727650e+01 4.656562e+01 3.807645e+01 4.614790e+01 3.019263e+01 3.221840e+01 3.556832e+01 1.241948e+02 5.741318e+00 4.886071e+00 6.798498e+00 5.351883e+00 5.574645e+00 6.522866e+00 6.489589e+00 6.550699e+00 7.449123e+00 4.078210e+00 4.815550e+00 4.612938e+00 1.307233e+01 1.038535e+00 6.958886e-01 8.600802e-01 7.416224e-01 8.819753e-01 9.880497e-01 1.084077e+00 9.072685e-01 9.517000e-01 7.095299e-01 7.117908e-01 7.655321e-01 1.907706e+00
<GCONST> 1.423699e+02
<TRANSP> 5
 0.000000e+00 1.000000e+00 0.000000e+00 0.000000e+00 0.000000e+00
 0.000000e+00 7.781155e-01 2.218845e-01 0.000000e+00 0.000000e+00
 0.000000e+00 0.000000e+00 5.134195e-01 4.865805e-01 0.000000e+00
 0.000000e+00 0.000000e+00 0.000000e+00 4.994442e-01 5.005559e-01
 0.000000e+00 0.000000e+00 0.000000e+00 0.000000e+00 0.000000e+00
<ENDHMM>
~h "u"
<BEGINHMM>
<NUMSTATES> 5
<STATE> 2
<MEAN> 39
 6.214425e-02 1.159168e+00 -2.526575e+00 -9.108922e+00 -1.161075e+01 6.465192e-01 -1.694352e+01 -8.810651e+00 -7.283403e+00 -2.609474e+00 1.107952e+00 -4.222764e+00 6.151061e+01 1.908046e+00 7.971044e-01 -2.643526e-01 -2.111008e+00 -1.706617e+00 2.205979e+00 -1.384411e+00 -8.802170e-01 -1.080622e+00 -1.443158e-01 1.499896e+00 -6.256342e-02 1.182477e+00 -3.664054e-01 1.849195e-02 1.378164e-01 5.274859e-03 1.188807e-01 6.909391e-02 4.207274e-01 1.881001e-01 2.776144e-02 -4.538644e-02 -1.301357e-01 4.780534e-02 -4.522507e-01
<VARIANCE> 39
 3.227915e+01 3.716795e+01 4.557043e+01 8.383926e+01 5.825382e+01 6.140247e+01 8.965550e+01 8.255920e+01 5.924479e+01 5.336642e+01 4.661702e+01 3.601496e+01 8.862431e+01 4.512429e+00 3.278926e+00 4.527840e+00 5.810060e+00 6.098588e+00 5.197551e+00 6.552713e+00 7.315986e+00 5.390708e+00 5.172883e+00 4.305642e+00 3.663502e+00 4.293046e+00 7.866959e-01 6.100388e-01 6.143990e-01 1.108330e+00 1.022432e+00 9.829045e-01 1.265322e+00 1.178329e+00 9.377032e-01 8.678668e-01 7.792397e-01 6.496268e-01 8.780432e-01
<GCONST> 1.431791e+02
<STATE> 3
<MEAN> 39
 2.821066e+00 2.209199e+00 -3.468549e+00 -1.358777e+01 -1.497465e+01 6.619026e+00 -1.853906e+01 -1.042873e+01 -9.671628e+00 -3.651873e+00 4.489195e+00 -3.769928e+00 6.426364e+01 1.859693e-01 6.345904e-02 8.365095e-02 -2.493386e-01 8.700559e-02 3.455301e-01 4.323142e-02 -4.991601e-02 -1.360489e-01 1.310688e-01 1.654810e-01 -5.322313e-02 -1.385068e-01 -3.960816e-01 -1.451468e-01 1.859492e-01 7.076871e-01 5.344632e-01 -7.799446e-01 4.468648e-01 2.453215e-01 3.950293e-01 8.739746e-02 -6.029032e-01 -7.699560e-02 -4.327106e-01
<VARIANCE> 39
 1.427557e+01 3.820127e+01 4.041582e+01 8.208298e+01 5.552592e+01 5.956779e+01 8.763541e+01 9.882845e+01 7.049333e+01 7.217165e+01 5.308754e+01 4.432667e+01 3.307129e+01 1.122747e+00 3.139868e+00 2.242324e+00 6.462810e+00 4.900774e+00 5.299206e+00 5.754611e+00 5.892750e+00 5.103939e+00 5.080907e+00 4.497297e+00 3.190221e+00 3.117662e+00 3.389331e-01 4.909090e-01 4.848754e-01 8.822128e-01 9.483655e-01 8.620338e-01 1.097197e+00 1.163688e+00 9.390268e-01 1.031995e+00 8.717666e-01 7.050910e-01 3.819970e-01
<GCONST> 1.367430e+02
<STATE> 4
<MEAN> 39
 2.449033e+00 3.637280e+00 -2.899557e+00 -1.364728e+01 -1.269855e+01 3.867296e+00 -1.624144e+01 -8.483465e+00 -9.159993e+00 -3.215599e+00 1.877290e+00 -4.158187e+00 5.980612e+01 -3.684477e-01 -2.182973e-01 2.439713e-01 9.234222e-01 6.206682e-01 -8.387482e-01 6.066493e-01 9.652641e-02 6.145272e-01 2.505682e-01 -6.489843e-01 -1.334521e-01 -8.278195e-01 -1.791171e-01 -8.745939e-02 7.947031e-02 2.301465e-01 9.611391e-02 -1.511862e-01 9.412467e-02 2.955688e-02 1.135653e-01 -1.488758e-02 -1.348723e-01 -1.115977e-03 -6.712502e-02
<VARIANCE> 39
 1.873301e+01 4.281486e+01 4.190300e+01 8.387443e+01 5.632801e+01 6.219584e+01 7.668438e+01 7.744450e+01 6.474448e+01 6.266977e+01 5.045023e+01 4.294873e+01 8.148956e+01 1.137805e+00 2.382045e+00 2.035908e+00 3.913961e+00 3.338023e+00 3.448163e+00 3.725019e+00 3.797891e+00 3.441700e+00 3.487045e+00 3.414921e+00 2.902949e+00 3.221555e+00 2.041179e-01 3.690818e-01 3.161477e-01 5.980139e-01 5.405551e-01 5.435612e-01 6.675857e-01 6.776388e-01 5.671205e-01 6.456658e-01 5.934446e-01 5.086875e-01 3.605652e-01
<GCONST> 1.283917e+02
<TRANSP> 5
 0.000000e+00 1.000000e+00 0.000000e+00 0.000000e+00 0.000000e+00
 0.000000e+00 5.610204e-01 4.389796e-01 0.000000e+00 0.000000e+00
 0.000000e+00 0.000000e+00 6.171536e-01 3.828464e-01 0.000000e+00
 0.000000e+00 0.000000e+00 0.000000e+00 7.764299e-01 2.235701e-01
 0.000000e+00 0.000000e+00 0.000000e+00 0.000000e+00 0.000000e+00
<ENDHMM>
~h "w"
<BEGINHMM>
<NUMSTATES> 5
<STATE> 2
<MEAN> 39
 2.657831e+00 -1.719459e+00 -4.414262e+00 -1.420692e+01 -1.104144e+01 3.517874e+00 -1.260545e+01 -5.563014e+00 -5.725919e+00 -1.853894e+00 1.762889e+00 -6.043645e+00 6.143912e+01 1.222615e+00 8.147546e-01 -2.284750e-01 -2.037889e+00 -9.212847e-01 1.504129e+00 -9.016269e-02 -4.130315e-01 -8.764324e-01 -3.928932e-01 1.007528e+00 5.874806e-01 2.637579e-01 -2.292566e-01 -1.252020e-01 1.366246e-01 2.336485e-02 -1.505589e-01 -1.453153e-01 1.360002e-01 2.621977e-01 1.070311e-01 -1.667270e-01 -1.113166e-01 1.244028e-01 2.852109e-02
<VARIANCE> 39
 2.665810e+01 7.997571e+01 4.692292e+01 7.639137e+01 5.614980e+01 7.039354e+01 7.743775e+01 6.601820e+01 7.508553e+01 6.250051e+01 5.463990e+01 4.708989e+01 1.178724e+02 1.829843e+00 3.023500e+00 2.620169e+00 3.297117e+00 4.216986e+00 3.979907e+00 3.825927e+00 4.094239e+00 3.777979e+00 3.962061e+00 3.460034e+00 3.307393e+00 3.975274e+00 3.981747e-01 4.819424e-01 4.246691e-01 6.187876e-01 7.688738e-01 6.827336e-01 7.056378e-01 7.060265e-01 7.627419e-01 7.859588e-01 6.459671e-01 6.052939e-01 2.815991e-01
<GCONST> 1.343399e+02
<STATE> 3
<MEAN> 39
 5.382710e+00 -5.268273e-01 -5.021136e+00 -2.137007e+01 -1.510949e+01 8.237900e+00 -1.308608e+01 -4.715569e+00 -6.600612e+00 -3.853246e+00 4.118225e+00 -3.699817e+00 6.424059e+01 -5.025983e-02 -5.083205e-01 -2.726171e-01 -5.970383e-01 -1.496795e-02 4.198869e-01 4.898364e-02 -1.517232e-02 3.591743e-01 2.152109e-01 2.776523e-01 -5.212452e-02 5.470647e-01 -2.716020e-01 -4.168884e-01 -6.156545e-02 4.813122e-01 3.841187e-01 -2.873211e-01 -1.667704e-02 2.643664e-02 3.241453e-01 2.625461e-01 -2.446226e-01 -4.170199e-01 2.096441e-01
<VARIANCE> 39
 1.296042e+01 4.541853e+01 3.757261e+01 6.251814e+01 5.048409e+01 5.520435e+01 5.897284e+01 5.925900e+01 6.894167e+01 6.039049e+01 5.436225e+01 3.998282e+01 3.725442e+01 7.030307e-01 4.129197e+00 1.822286e+00 2.814348e+00 3.420856e+00 3.253035e+00 2.770216e+00 2.675167e+00 3.261597e+00 3.789254e+00 3.019858e+00 3.619482e+00 2.411624e+00 8.577646e-02 2.788226e-01 2.883435e-01 3.906994e-01 5.053614e-01 6.161656e-01 4.606534e-01 5.747272e-01 4.912862e-01 6.140564e-01 6.500885e-01 5.310810e-01 1.962621e-01
<GCONST> 1.221411e+02
<STATE> 4
<MEAN> 39
 3.359328e+00 -5.612479e+00 -6.932786e+00 -2.174141e+01 -1.178999e+01 9.231082e+00 -1.130541e+01 -5.769222e+00 -2.050747e+00 -2.528987e+00 2.427041e+00 -7.521784e+00 6.808649e+01 -3.679984e-01 -6.855492e-01 -1.633689e-01 6.605564e-01 6.938860e-01 -3.663420e-01 1.589049e-02 1.471985e-01 4.913788e-01 2.140899e-01 -5.732892e-01 -6.994324e-01 3.445238e-01 -2.781809e-02 5.122041e-02 1.083864e-01 1.976639e-01 -3.682556e-02 -2.149840e-01 -2.639052e-02 1.172538e-01 -2.347496e-02 -8.096060e-02 -1.348209e-01 5.809985e-02 -8.321903e-02
<VARIANCE> 39
 1.505042e+01 6.484760e+01 4.008083e+01 5.657593e+01 6.822120e+01 5.364651e+01 5.531681e+01 5.899952e+01 7.323449e+01 5.688989e+01 5.805075e+01 6.433920e+01 3.979894e+01 4.781347e-01 2.077557e+00 1.067454e+00 1.995029e+00 2.386467e+00 2.276663e+00 1.627444e+00 1.995143e+00 1.937148e+00 1.917117e+00 2.454437e+00 2.805661e+00 1.155453e+00 6.227857e-02 2.328554e-01 1.780663e-01 2.423863e-01 3.485422e-01 3.457714e-01 2.972445e-01 3.256788e-01 2.797535e-01 3.606656e-01 3.750894e-01 4.448653e-01 1.250657e-01
<GCONST> 1.118421e+02
<TRANSP> 5
 0.000000e+00 1.000000e+00 0.000000e+00 0.000000e+00 0.000000e+00
 0.000000e+00 6.458542e-01 3.541458e-01 0.000000e+00 0.000000e+00
 0.000000e+00 0.000000e+00 7.108460e-01 2.891540e-01 0.000000e+00
 0.000000e+00 0.000000e+00 0.000000e+00 8.540314e-01 1.459686e-01
 0.000000e+00 0.000000e+00 0.000000e+00 0.000000e+00 0.000000e+00
<ENDHMM>
~h "y"
<BEGINHMM>
<NUMSTATES> 5
<STATE> 2
<MEAN> 39
 -4.968295e+00 -6.025407e+00 7.239708e+00 -8.412797e+00 -1.605630e+01 -7.596871e+00 -1.110422e+01 2.178458e+00 -6.246682e+00 -3.727416e+00 -3.987774e-01 -4.529696e+00 6.499633e+01 -2.163233e-01 8.652697e-01 2.417019e+00 -6.975082e-02 -1.694561e+00 -7.280895e-01 -7.588553e-01 -3.866346e-01 -1.325417e+00 1.830813e-01 1.489858e+00 7.741484e-01 2.834587e-01 4.088664e-06 1.513342e-02 -1.748632e-01 -5.125161e-02 2.120127e-01 2.811690e-01 -1.477281e-01 -3.629025e-01 5.109321e-02 2.508147e-02 -2.262147e-02 -6.684675e-02 3.390696e-03
<VARIANCE> 39
 2.463758e+01 7.149931e+01 9.843261e+01 5.160448e+01 6.189315e+01 6.336298e+01 7.332173e+01 9.195712e+01 7.561570e+01 5.750387e+01 5.147608e+01 3.854571e+01 1.574783e+02 1.367105e+00 2.529087e+00 4.029111e+00 2.218422e+00 3.387336e+00 3.522772e+00 3.988126e+00 4.565704e+00 3.802540e+00 3.856229e+00 3.050010e+00 2.788491e+00 3.213419e+00 1.929862e-01 3.467840e-01 6.801248e-01 3.798681e-01 6.362757e-01 6.089209e-01 6.860040e-01 7.812564e-01 6.284134e-01 5.677194e-01 5.597060e-01 4.089405e-01 2.428044e-01
<GCONST> 1.310596e+02
<STATE> 3
<MEAN> 39
 -5.394674e+00 -3.371018e+00 1.555320e+01 -9.004727e+00 -2.081029e+01 -8.092865e+00 -1.576233e+01 -1.255498e+00 -1.047921e+01 -3.090016e+00 4.307040e+00 -2.584399e+00 6.759853e+01 9.181133e-02 -5.912829e-01 -5.919150e-01 -2.187716e-01 -3.443376e-01 -2.833660e-01 1.974018e-01 5.542216e-01 5.809901e-01 1.193253e-01 1.060443e-01 6.572778e-02 6.483527e-01 9.585797e-02 -3.026329e-01 -6.951556e-01 -3.751800e-03 3.783435e-01 1.005704e-01 3.309125e-01 3.509093e-01 4.469523e-01 -7.417659e-02 -4.391642e-01 -2.297673e-01 2.393248e-02
<VARIANCE> 39
 1.331696e+01 3.725437e+01 6.568404e+01 4.766313e+01 3.799785e+01 5.258175e+01 5.056900e+01 6.778690e+01 5.996577e+01 7.485672e+01 4.397645e+01 3.924513e+01 4.875729e+01 5.785227e-01 2.847255e+00 5.301427e+00 1.382366e+00 2.286498e+00 2.161947e+00 3.449438e+00 4.799288e+00 4.224625e+00 2.555634e+00 2.479179e+00 1.625844e+00 1.879070e+00 9.275956e-02 2.183253e-01 3.317355e-01 2.349030e-01 5.248884e-01 4.475757e-01 4.837388e-01 5.388393e-01 4.728919e-01 5.539493e-01 4.512482e-01 3.278970e-01 1.610997e-01
<GCONST> 1.184012e+02
<STATE> 4
<MEAN> 39
 -7.153720e+00 -5.865975e+00 4.805290e+00 -7.925148e+00 -1.480313e+01 -7.253238e+00 -9.886550e+00 1.433260e-01 -5.280947e+00 -4.305048e+00 -4.720199e-02 -3.275173e+00 5.930990e+01 1.748643e-01 -5.799420e-01 -1.089923e+00 -7.800183e-02 6.815006e-01 2.885647e-01 3.999935e-01 5.823591e-01 6.925878e-01 -2.674967e-01 -8.019484e-01 -4.393560e-01 2.299098e-01 2.671309e-02 3.533416e-02 -4.642428e-02 3.081449e-02 2.146897e-01 1.429165e-01 -7.704945e-02 -1.637361e-01 -4.064133e-02 -2.834224e-02 -1.075821e-01 -7.863891e-02 -6.572144e-02
<VARIANCE> 39
 2.647651e+01 5.016713e+01 9.258064e+01 4.506462e+01 7.916106e+01 4.716248e+01 5.660217e+01 8.798402e+01 6.124988e+01 4.422601e+01 4.173223e+01 3.491974e+01 2.851195e+02 4.348593e-01 1.474975e+00 3.302023e+00 1.052050e+00 2.350606e+00 1.655908e+00 2.138243e+00 2.669749e+00 2.573594e+00 2.219401e+00 2.836692e+00 1.663974e+00 8.974020e-01 7.099579e-02 1.703080e-01 2.556902e-01 1.894858e-01 3.458759e-01 3.256604e-01 3.475394e-01 5.265883e-01 3.691331e-01 3.367495e-01 3.477047e-01 2.549148e-01 1.016546e-01
<GCONST> 1.137544e+02
<TRANSP> 5
 0.000000e+00 1.000000e+00 0.000000e+00 0.000000e+00 0.000000e+00
 0.000000e+00 6.661660e-01 3.338340e-01 0.000000e+00 0.000000e+00
 0.000000e+00 0.000000e+00 7.798898e-01 2.201102e-01 0.000000e+00
 0.000000e+00 0.000000e+00 0.000000e+00 8.281441e-01 1.718559e-01
 0.000000e+00 0.000000e+00 0.000000e+00 0.000000e+00 0.000000e+00
<ENDHMM>
~h "z"
<BEGINHMM>
<NUMSTATES> 5
<STATE> 2
<MEAN> 39
 -8.879541e+00 4.479787e+00 1.337907e+00 -8.385807e-01 -5.546696e+00 -1.009931e+01 -1.029353e+01 -3.845357e+00 -3.427062e+00 -2.957987e+00 -3.931266e+00 -1.709975e+00 6.223595e+01 -1.767523e+00 1.941124e+00 -4.565400e-01 8.311009e-01 1.291673e+00 -2.586421e-01 8.440719e-01 -3.976079e-02 1.962192e-01 -3.126761e-01 7.819621e-02 5.178143e-01 -6.674994e-01 -8.288455e-02 -2.366054e-01 -6.096188e-02 -1.927468e-01 -9.702694e-02 3.194984e-01 -5.646904e-03 1.010862e-01 -2.439945e-03 6.882878e-02 8.825589e-02 -1.486715e-01 1.989288e-02
<VARIANCE> 39
 5.726215e+01 5.873308e+01 5.109031e+01 4.658288e+01 6.175346e+01 5.231591e+01 6.644425e+01 6.071364e+01 4.623783e+01 3.861093e+01 3.566634e+01 3.205521e+01 1.004821e+02 4.215887e+00 4.543273e+00 3.278223e+00 3.058708e+00 4.223096e+00 3.748851e+00 4.336724e+00 4.731767e+00 3.319315e+00 3.009876e+00 3.036392e+00 2.773452e+00 2.515376e+00 5.301561e-01 6.121498e-01 5.091306e-01 4.378949e-01 6.323140e-01 5.939186e-01 7.768719e-01 6.368362e-01 5.331018e-01 5.533241e-01 5.368151e-01 4.850576e-01 2.570368e-01
<GCONST> 1.312565e+02
<STATE> 3
<MEAN> 39
 -1.702540e+01 1.091815e+01 8.978851e-01 2.170617e+00 -2.137192e+00 -9.944923e+00 -8.112395e+00 -3.008373e+00 -2.854254e+00 -3.805575e+00 -3.078929e+00 -1.242491e-01 6.195622e+01 -5.217025e-01 -2.851550e-01 -4.493259e-02 -6.707383e-02 -1.218093e-01 3.990604e-02 -8.926687e-03 -2.913931e-03 1.022888e-01 6.116610e-02 1.762870e-01 1.851823e-01 2.846926e-01 5.703418e-01 -5.611387e-01 9.457090e-02 -2.192498e-01 -4.734527e-01 -1.866685e-02 -2.415475e-01 -6.125589e-02 -8.542678e-03 2.209790e-02 -1.708011e-02 -9.409126e-02 2.387601e-01
<VARIANCE> 39
 5.781607e+01 4.625777e+01 3.249157e+01 3.926534e+01 4.405939e+01 3.985245e+01 4.933862e+01 3.261907e+01 2.802934e+01 2.238116e+01 2.398093e+01 2.356183e+01 5.645907e+01 4.869598e+00 3.586052e+00 1.826631e+00 1.669756e+00 3.555787e+00 2.429536e+00 2.749448e+00 2.396668e+00 2.216079e+00 1.650190e+00 1.705476e+00 1.552231e+00 2.091508e+00 6.007773e-01 4.451075e-01 3.415254e-01 3.371710e-01 5.332882e-01 4.793324e-01 5.134723e-01 5.038744e-01 4.247838e-01 3.372592e-01 3.389180e-01 3.405423e-01 2.229510e-01
<GCONST> 1.176116e+02
<STATE> 4
<MEAN> 39
 -1.633892e+01 2.397570e+00 -2.134252e+00 -1.857665e+00 -3.732855e+00 -6.604905e+00 -6.878620e+00 -3.846379e+00 -4.626342e+00 -4.340197e+00 -2.611290e+00 -1.583628e+00 4.764900e+01 3.076276e-01 -3.427101e-01 1.494787e-01 -1.313400e-01 -3.652524e-01 -6.268746e-02 -2.017130e-01 -7.407966e-02 4.788353e-02 3.651822e-02 2.147020e-02 2.277213e-04 2.921301e-01 1.746786e-01 -8.160333e-02 5.182997e-02 -5.001052e-02 -1.118618e-01 2.416039e-02 -6.517242e-02 -2.417002e-02 9.154311e-03 -3.063380e-03 -5.042252e-03 -5.855883e-02 7.510324e-02
<VARIANCE> 39
 6.135668e+01 5.398975e+01 4.322198e+01 3.846994e+01 3.518192e+01 3.691031e+01 3.940703e+01 2.943195e+01 3.062769e+01 2.170963e+01 2.214480e+01 1.925816e+01 1.970087e+02 2.747034e+00 2.372370e+00 1.608522e+00 1.750345e+00 2.578804e+00 2.019754e+00 2.179410e+00 2.121351e+00 2.073931e+00 1.569120e+00 1.684537e+00 1.507650e+00 1.734381e+00 3.279403e-01 2.790460e-01 2.551588e-01 3.009531e-01 3.642132e-01 3.997958e-01 3.915777e-01 3.932440e-01 3.677782e-01 3.129946e-01 3.228324e-01 3.130582e-01 1.740033e-01
<GCONST> 1.130578e+02
<TRANSP> 5
 0.000000e+00 1.000000e+00 0.000000e+00 0.000000e+00 0.000000e+00
 0.000000e+00 7.654730e-01 2.345270e-01 0.000000e+00 0.000000e+00
 0.000000e+00 0.000000e+00 7.732597e-01 2.267403e-01 0.000000e+00
 0.000000e+00 0.000000e+00 0.000000e+00 9.001235e-01 9.987653e-02
 0.000000e+00 0.000000e+00 0.000000e+00 0.000000e+00 0.000000e+00
<ENDHMM>
~h "ai"
<BEGINHMM>
<NUMSTATES> 5
<STATE> 2
<MEAN> 39
 -1.978436e+00 -1.566261e+01 -1.965199e+00 -1.137484e+01 -1.194765e+01 -3.871707e+00 -9.286288e+00 6.715126e+00 3.955391e-01 -5.501855e+00 -5.649450e+00 -8.540881e+00 7.367187e+01 -3.031662e-01 1.988252e-01 1.401572e+00 8.748622e-02 -1.491876e+00 -1.184438e+00 6.075835e-01 9.068254e-01 -8.165715e-01 -5.875219e-02 6.544361e-01 7.278932e-01 3.335545e-02 -7.251087e-02 4.503716e-01 2.877552e-01 2.752019e-02 -1.518184e-01 -3.895957e-02 -1.584264e-01 -5.251321e-01 -3.146612e-01 3.499112e-01 3.952354e-01 1.354775e-01 -2.934411e-01
<VARIANCE> 39
 1.297469e+01 3.074964e+01 5.687237e+01 3.824567e+01 6.385052e+01 7.387505e+01 6.094196e+01 6.690740e+01 6.001797e+01 5.045757e+01 5.678045e+01 3.815158e+01 2.164442e+01 4.083255e-01 1.652742e+00 2.026150e+00 1.260414e+00 2.656863e+00 2.714553e+00 2.195193e+00 3.615618e+00 2.303353e+00 2.992614e+00 3.447644e+00 1.965174e+00 5.449094e-01 1.183575e-01 1.720653e-01 2.291083e-01 2.513391e-01 4.439742e-01 4.601824e-01 4.358570e-01 6.574843e-01 4.103870e-01 4.270765e-01 5.105640e-01 4.089038e-01 1.243901e-01
<GCONST> 1.137440e+02
<STATE> 3
<MEAN> 39
 -3.493669e+00 -9.582210e+00 1.019063e+01 -1.124131e+01 -2.197445e+01 -9.776309e+00 -1.096851e+01 5.310494e+00 -8.236396e+00 3.146337e-01 2.677347e+00 -4.648841e+00 7.103222e+01 -2.166412e-01 1.259756e+00 1.473540e+00 2.824608e-01 -5.159895e-01 -1.000660e-01 -7.078409e-01 -1.649425e+00 -1.224557e+00 5.525333e-01 8.093855e-01 2.013354e-01 -8.204255e-01 8.400571e-02 2.011384e-02 -3.587781e-01 1.921897e-01 5.363696e-01 2.316145e-01 -6.143999e-03 -1.133519e-01 2.172359e-01 -2.897941e-01 -4.535035e-01 -1.711375e-01 -2.061948e-01
<VARIANCE> 39
 1.236126e+01 2.867645e+01 4.701688e+01 3.790264e+01 3.271188e+01 4.798714e+01 5.315682e+01 6.723283e+01 6.517815e+01 5.831804e+01 5.193290e+01 3.429741e+01 2.420647e+01 4.413942e-01 1.176981e+00 2.247414e+00 1.217538e+00 2.246368e+00 1.711531e+00 2.346071e+00 2.824206e+00 2.606674e+00 2.312726e+00 2.613766e+00 1.497331e+00 6.841479e-01 7.327858e-02 1.637419e-01 2.313791e-01 2.010112e-01 2.870235e-01 3.321294e-01 4.344707e-01 5.217471e-01 3.968161e-01 3.703121e-01 3.624373e-01 2.827895e-01 1.214818e-01
<GCONST> 1.082297e+02
<STATE> 4
<MEAN> 39
 -6.241816e+00 -1.680764e+00 9.745755e+00 -6.229055e+00 -1.694821e+01 -7.191332e+00 -9.995957e+00 -4.333099e+00 -9.154691e+00 -2.161959e+00 6.213850e-01 -4.168068e+00 5.678268e+01 2.681389e-02 4.750010e-01 -3.896750e-01 5.228955e-01 6.719905e-01 1.487067e-01 1.668101e-01 -3.116442e-01 1.302451e-01 -1.783454e-01 -3.876458e-01 -2.171203e-02 -1.183742e+00 3.277081e-02 -7.427297e-02 -2.102307e-01 2.855522e-02 1.510585e-01 6.983490e-03 7.411809e-02 1.049833e-01 1.391291e-01 -9.870038e-03 -7.165456e-02 2.405232e-03 -2.515130e-02
<VARIANCE> 39
 2.685333e+01 3.924791e+01 8.270427e+01 4.257373e+01 7.375356e+01 5.233147e+01 5.426267e+01 6.116936e+01 5.060483e+01 4.776594e+01 4.743656e+01 3.302273e+01 1.801782e+02 8.202493e-01 1.515016e+00 2.068935e+00 1.671698e+00 2.117316e+00 2.087212e+00 2.406848e+00 2.641925e+00 2.596922e+00 2.045767e+00 1.960339e+00 1.635202e+00 1.998260e+00 1.360440e-01 2.287473e-01 2.912348e-01 2.903492e-01 3.897845e-01 3.822169e-01 4.261843e-01 4.739569e-01 4.702693e-01 3.894927e-01 3.743064e-01 3.096310e-01 2.592659e-01
<GCONST> 1.171859e+02
<TRANSP> 5
 0.000000e+00 1.000000e+00 0.000000e+00 0.000000e+00 0.000000e+00
 0.000000e+00 8.318113e-01 1.681887e-01 0.000000e+00 0.000000e+00
 0.000000e+00 0.000000e+00 7.700607e-01 2.299393e-01 0.000000e+00
 0.000000e+00 0.000000e+00 0.000000e+00 8.698790e-01 1.301210e-01
 0.000000e+00 0.000000e+00 0.000000e+00 0.000000e+00 0.000000e+00
<ENDHMM>
~h "au"
<BEGINHMM>
<NUMSTATES> 5
<STATE> 2
<MEAN> 39
 -9.691775e-01 -1.071819e+01 -9.907632e+00 -1.648966e+01 -7.317442e+00 5.683553e+00 -1.258439e+01 -3.029343e+00 1.263685e+00 -1.444890e-01 -3.131181e+00 -1.127066e+01 7.175821e+01 5.357520e-01 -5.614272e-01 -6.930791e-01 -1.273774e+00 3.430078e-01 1.890865e+00 -1.884795e-01 -3.031782e-01 7.169235e-02 9.934078e-02 7.521134e-01 -6.167788e-01 7.414824e-01 -2.270410e-01 4.883778e-01 3.381697e-01 2.728490e-01 -9.423931e-02 -3.586934e-01 1.833024e-01 -2.532075e-01 -4.605249e-01 -3.885216e-02 2.383803e-01 5.388864e-01 -6.682385e-01
<VARIANCE> 39
 1.910918e+01 3.744666e+01 4.547338e+01 4.894151e+01 4.500380e+01 6.585818e+01 6.374250e+01 7.527160e+01 5.468387e+01 5.613334e+01 5.835782e+01 4.213459e+01 5.972016e+01 1.492246e+00 2.550273e+00 1.868034e+00 2.796898e+00 2.981397e+00 3.578250e+00 2.860496e+00 3.566400e+00 3.345871e+00 2.989394e+00 3.800897e+00 3.162443e+00 3.286991e+00 3.599833e-01 3.420914e-01 3.398782e-01 6.007902e-01 4.962809e-01 5.696855e-01 6.406623e-01 6.072707e-01 5.813720e-01 5.607781e-01 6.952315e-01 5.424551e-01 6.344128e-01
<GCONST> 1.275724e+02
<STATE> 3
<MEAN> 39
 4.573967e-01 -9.059815e+00 -1.084795e+01 -2.040639e+01 -8.723435e+00 1.024438e+01 -1.207221e+01 -6.361659e+00 -6.162055e-01 -3.822873e-01 1.583023e+00 -1.022237e+01 7.175382e+01 3.477885e-01 9.922776e-01 1.582123e-01 -7.585430e-01 -5.315740e-01 2.443495e-01 -1.812805e-01 -1.123611e-01 -7.590464e-01 -9.927004e-02 7.557091e-01 8.525897e-01 -5.597237e-01 1.712446e-02 1.901596e-01 1.269870e-01 1.602380e-01 -1.128483e-01 -2.564154e-01 -3.927400e-02 8.580711e-02 -9.127858e-02 -9.531309e-02 -1.725768e-01 1.430327e-01 -1.742891e-01
<VARIANCE> 39
 1.431849e+01 3.594006e+01 3.654169e+01 4.462757e+01 4.012884e+01 4.630862e+01 6.439086e+01 6.410852e+01 5.405900e+01 5.599584e+01 5.853522e+01 5.147989e+01 2.458377e+01 3.692405e-01 1.254857e+00 7.460479e-01 1.437766e+00 1.499833e+00 1.631187e+00 1.728555e+00 1.762494e+00 2.122293e+00 2.101760e+00 2.105309e+00 2.442245e+00 6.725107e-01 6.416131e-02 1.505973e-01 1.347325e-01 2.885643e-01 2.531018e-01 3.058210e-01 2.889107e-01 3.160273e-01 3.177405e-01 3.692065e-01 4.056836e-01 3.878769e-01 9.722336e-02
<GCONST> 1.052821e+02
<STATE> 4
<MEAN> 39
 2.509598e+00 1.347149e+00 -6.744558e+00 -2.125893e+01 -1.246669e+01 6.746121e+00 -1.278602e+01 -3.752481e+00 -6.599526e+00 -2.878609e+00 1.024340e+00 -3.956601e+00 6.067083e+01 -5.991371e-03 6.049692e-01 4.031454e-01 9.479213e-01 -4.147371e-02 -7.425694e-01 -4.833334e-02 -5.873835e-02 -2.566255e-01 -1.093031e-01 -3.226674e-01 1.219778e-01 -1.096391e+00 -1.063882e-01 -1.731064e-01 3.684481e-02 3.193718e-01 1.848026e-01 -9.744072e-02 7.350066e-02 -7.443144e-02 1.338895e-01 5.459888e-02 -8.862253e-02 -1.417484e-01 -1.318824e-02
<VARIANCE> 39
 2.529136e+01 4.501776e+01 3.811259e+01 8.194481e+01 5.840165e+01 6.112727e+01 5.992097e+01 5.062265e+01 5.435016e+01 5.337171e+01 4.680048e+01 4.325135e+01 1.103506e+02 7.012515e-01 1.783288e+00 1.221784e+00 3.032839e+00 2.381545e+00 2.392610e+00 2.309479e+00 2.401969e+00 2.212533e+00 2.380874e+00 2.283237e+00 2.250211e+00 1.475272e+00 1.084748e-01 2.234285e-01 2.007451e-01 3.976051e-01 3.834675e-01 4.076171e-01 4.027625e-01 3.982448e-01 3.904938e-01 4.193168e-01 4.310366e-01 4.124800e-01 1.955013e-01
<GCONST> 1.168195e+02
<TRANSP> 5
 0.000000e+00 1.000000e+00 0.000000e+00 0.000000e+00 0.000000e+00
 0.000000e+00 6.432759e-01 3.567241e-01 0.000000e+00 0.000000e+00
 0.000000e+00 0.000000e+00 8.278181e-01 1.721819e-01 0.000000e+00
 0.000000e+00 0.000000e+00 0.000000e+00 8.819047e-01 1.180953e-01
 0.000000e+00 0.000000e+00 0.000000e+00 0.000000e+00 0.000000e+00
<ENDHMM>
~h "kh"
<BEGINHMM>
<NUMSTATES> 5
<STATE> 2
<MEAN> 39
 -9.196803e+00 -4.531707e+00 -3.861468e+00 -5.699197e+00 -1.446293e+00 -2.573043e+00 -6.858528e+00 -2.779827e+00 -3.622079e+00 -7.458215e-01 -3.598322e+00 -3.521345e+00 5.498446e+01 -1.343207e+00 -6.967094e-01 -8.992941e-01 -1.146980e-01 1.048665e+00 -2.580897e-01 4.080749e-02 4.830160e-01 1.243603e-01 3.853285e-01 1.161312e-01 4.635983e-01 1.854886e-01 6.906138e-02 -1.385978e-01 -1.497339e-03 -2.210932e-01 -3.318840e-01 1.061147e-01 -1.386432e-01 -8.552838e-02 3.391467e-02 4.372830e-02 7.164880e-02 -8.193502e-02 2.627488e-01
<VARIANCE> 39
 3.898606e+01 5.612224e+01 7.129365e+01 6.104831e+01 8.513238e+01 7.244925e+01 5.229509e+01 4.476163e+01 4.984860e+01 4.181578e+01 4.076880e+01 3.414835e+01 1.338161e+02 3.168374e+00 5.313409e+00 5.069710e+00 4.021549e+00 6.863419e+00 5.456535e+00 5.275377e+00 4.482772e+00 4.122951e+00 3.954188e+00 3.851825e+00 3.259131e+00 9.759496e+00 4.588882e-01 9.554370e-01 7.277744e-01 6.429687e-01 1.096559e+00 1.042734e+00 9.441402e-01 7.492157e-01 7.591713e-01 7.827389e-01 6.751683e-01 5.748373e-01 1.133269e+00
<GCONST> 1.410954e+02
<STATE> 3
<MEAN> 39
 -1.389300e+01 -7.910443e+00 -6.880203e+00 -7.031134e+00 -7.756387e-01 -2.948535e+00 -7.936729e+00 -6.111404e-01 -2.350573e+00 9.688606e-01 -3.199917e+00 -1.769588e+00 5.840007e+01 -3.272071e-01 -1.266631e-01 -7.697858e-02 -4.905099e-01 -4.008511e-01 1.530392e-01 1.524420e-01 4.546900e-02 -5.211786e-02 9.451260e-02 1.622359e-01 7.947750e-02 5.847307e-02 4.938819e-01 2.868149e-01 3.877591e-01 2.599557e-02 -3.437884e-01 1.047299e-01 -2.441771e-03 -1.506404e-01 -1.585739e-01 -1.857554e-01 3.151348e-02 -1.683041e-01 -2.029907e-02
<VARIANCE> 39
 4.295760e+01 4.218589e+01 8.657063e+01 4.164913e+01 8.971690e+01 6.049349e+01 4.937130e+01 4.437861e+01 6.289552e+01 4.948801e+01 4.024345e+01 3.211687e+01 7.826701e+01 3.020442e+00 3.011452e+00 4.110539e+00 3.359706e+00 4.385971e+00 4.311128e+00 3.748236e+00 3.926143e+00 4.277023e+00 3.786750e+00 2.939031e+00 2.343716e+00 3.316786e+00 4.731951e-01 5.597987e-01 6.429861e-01 6.066947e-01 8.166941e-01 7.737140e-01 8.400367e-01 7.160633e-01 8.372487e-01 8.318445e-01 5.687802e-01 4.559723e-01 5.398842e-01
<GCONST> 1.340393e+02
<STATE> 4
<MEAN> 39
 -1.377143e+01 -5.838784e+00 -7.314907e+00 -5.838931e+00 -2.489408e+00 -1.896617e+00 -6.074576e+00 -2.899821e+00 -3.361362e+00 -2.692120e+00 -2.192394e+00 -2.129160e+00 4.580679e+01 4.123360e-01 1.273819e-01 1.771977e-01 -7.976369e-02 -2.478080e-01 1.387165e-01 -5.591448e-02 -1.363730e-01 -1.640916e-01 -7.272105e-02 6.298415e-02 -1.272483e-01 2.054438e-01 1.941292e-01 4.242605e-02 7.687975e-02 -1.598112e-02 -9.320702e-02 2.662675e-02 -9.579013e-02 -2.352835e-02 -6.200926e-02 -2.956227e-02 1.197156e-02 -6.129866e-02 1.343610e-01
<VARIANCE> 39
 2.862300e+01 4.637930e+01 4.345565e+01 3.379670e+01 3.663734e+01 4.227946e+01 3.710535e+01 3.297135e+01 4.011491e+01 3.434439e+01 2.839134e+01 2.376520e+01 1.699139e+02 2.320889e+00 1.893717e+00 2.212293e+00 1.721541e+00 2.155101e+00 1.988137e+00 2.283871e+00 2.302633e+00 2.287497e+00 2.350248e+00 2.012640e+00 1.689993e+00 1.930148e+00 2.917245e-01 3.136628e-01 3.292613e-01 3.369792e-01 3.817477e-01 3.809853e-01 4.525334e-01 4.488454e-01 4.222530e-01 4.248615e-01 3.792945e-01 3.034176e-01 2.665062e-01
<GCONST> 1.156748e+02
<TRANSP> 5
 0.000000e+00 1.000000e+00 0.000000e+00 0.000000e+00 0.000000e+00
 0.000000e+00 7.516789e-01 2.483211e-01 0.000000e+00 0.000000e+00
