~h "a"
<BEGINHMM>
<NUMSTATES> 5
<STATE> 2
<MEAN> 39
 -6.178386e+00 -3.207608e+00 -1.136580e+00 -5.310746e+00 -7.659114e+00 -2.745061e+00 -8.776582e+00 -3.503671e+00 -3.924967e+00 -2.744921e+00 -2.425360e+00 -4.607111e+00 5.386576e+01 4.948035e-04 1.800555e-03 -2.261678e-04 -1.868584e-03 1.117366e-04 1.141029e-03 -1.201725e-04 -2.530584e-03 -1.235830e-04 6.019770e-04 -1.318748e-03 -2.185088e-03 3.516685e-04 6.517531e-05 1.917887e-04 1.228032e-04 9.168699e-05 9.114001e-05 2.231032e-04 6.291027e-05 -2.458276e-05 1.190640e-04 1.341063e-04 2.007098e-05 1.380872e-05 -2.152489e-05
<VARIANCE> 39
 6.846309e+01 6.131578e+01 7.395956e+01 6.497608e+01 7.155347e+01 6.272294e+01 6.607756e+01 7.074807e+01 6.145026e+01 4.306128e+01 4.683767e+01 4.184661e+01 2.357212e+02 2.540484e+00 2.715243e+00 2.704425e+00 2.966744e+00 3.343090e+00 3.050579e+00 3.221212e+00 3.805762e+00 3.369615e+00 2.727702e+00 2.838380e+00 2.395327e+00 4.810916e+00 3.858287e-01 4.220316e-01 4.201972e-01 4.978673e-01 5.893408e-01 5.364521e-01 5.819368e-01 6.696108e-01 5.900257e-01 5.098491e-01 5.209714e-01 4.405736e-01 6.276738e-01
<GCONST> 1.322162e+02
<STATE> 3
<MEAN> 39
 -6.178386e+00 -3.207608e+00 -1.136580e+00 -5.310746e+00 -7.659114e+00 -2.745061e+00 -8.776582e+00 -3.503671e+00 -3.924967e+00 -2.744921e+00 -2.425360e+00 -4.607111e+00 5.386576e+01 4.948035e-04 1.800555e-03 -2.261678e-04 -1.868584e-03 1.117366e-04 1.141029e-03 -1.201725e-04 -2.530584e-03 -1.235830e-04 6.019770e-04 -1.318748e-03 -2.185088e-03 3.516685e-04 6.517531e-05 1.917887e-04 1.228032e-04 9.168699e-05 9.114001e-05 2.231032e-04 6.291027e-05 -2.458276e-05 1.190640e-04 1.341063e-04 2.007098e-05 1.380872e-05 -2.152489e-05
<VARIANCE> 39
 6.846309e+01 6.131578e+01 7.395956e+01 6.497608e+01 7.155347e+01 6.272294e+01 6.607756e+01 7.074807e+01 6.145026e+01 4.306128e+01 4.683767e+01 4.184661e+01 2.357212e+02 2.540484e+00 2.715243e+00 2.704425e+00 2.966744e+00 3.343090e+00 3.050579e+00 3.221212e+00 3.805762e+00 3.369615e+00 2.727702e+00 2.838380e+00 2.395327e+00 4.810916e+00 3.858287e-01 4.220316e-01 4.201972e-01 4.978673e-01 5.893408e-01 5.364521e-01 5.819368e-01 6.696108e-01 5.900257e-01 5.098491e-01 5.209714e-01 4.405736e-01 6.276738e-01
<GCONST> 1.322162e+02
<STATE> 4
<MEAN> 39
 -6.178386e+00 -3.207608e+00 -1.136580e+00 -5.310746e+00 -7.659114e+00 -2.745061e+00 -8.776582e+00 -3.503671e+00 -3.924967e+00 -2.744921e+00 -2.425360e+00 -4.607111e+00 5.386576e+01 4.948035e-04 1.800555e-03 -2.261678e-04 -1.868584e-03 1.117366e-04 1.141029e-03 -1.201725e-04 -2.530584e-03 -1.235830e-04 6.019770e-04 -1.318748e-03 -2.185088e-03 3.516685e-04 6.517531e-05 1.917887e-04 1.228032e-04 9.168699e-05 9.114001e-05 2.231032e-04 6.291027e-05 -2.458276e-05 1.190640e-04 1.341063e-04 2.007098e-05 1.380872e-05 -2.152489e-05
<VARIANCE> 39
 6.846309e+01 6.131578e+01 7.395956e+01 6.497608e+01 7.155347e+01 6.272294e+01 6.607756e+01 7.074807e+01 6.145026e+01 4.306128e+01 4.683767e+01 4.184661e+01 2.357212e+02 2.540484e+00 2.715243e+00 2.704425e+00 2.966744e+00 3.343090e+00 3.050579e+00 3.221212e+00 3.805762e+00 3.369615e+00 2.727702e+00 2.838380e+00 2.395327e+00 4.810916e+00 3.858287e-01 4.220316e-01 4.201972e-01 4.978673e-01 5.893408e-01 5.364521e-01 5.819368e-01 6.696108e-01 5.900257e-01 5.098491e-01 5.209714e-01 4.405736e-01 6.276738e-01
<GCONST> 1.322162e+02
<TRANSP> 5
 0.000000e+00 1.000000e+00 0.000000e+00 0.000000e+00 0.000000e+00
 0.000000e+00 6.000000e-01 4.000000e-01 0.000000e+00 0.000000e+00
 0.000000e+00 0.000000e+00 6.000000e-01 4.000000e-01 0.000000e+00
 0.000000e+00 0.000000e+00 0.000000e+00 7.000000e-01 3.000000e-01
 0.000000e+00 0.000000e+00 0.000000e+00 0.000000e+00 0.000000e+00
<ENDHMM>
~h "b"
<BEGINHMM>
<NUMSTATES> 5
<STATE> 2
<MEAN> 39
 -6.178386e+00 -3.207608e+00 -1.136580e+00 -5.310746e+00 -7.659114e+00 -2.745061e+00 -8.776582e+00 -3.503671e+00 -3.924967e+00 -2.744921e+00 -2.425360e+00 -4.607111e+00 5.386576e+01 4.948035e-04 1.800555e-03 -2.261678e-04 -1.868584e-03 1.117366e-04 1.141029e-03 -1.201725e-04 -2.530584e-03 -1.235830e-04 6.019770e-04 -1.318748e-03 -2.185088e-03 3.516685e-04 6.517531e-05 1.917887e-04 1.228032e-04 9.168699e-05 9.114001e-05 2.231032e-04 6.291027e-05 -2.458276e-05 1.190640e-04 1.341063e-04 2.007098e-05 1.380872e-05 -2.152489e-05
<VARIANCE> 39
 6.846309e+01 6.131578e+01 7.395956e+01 6.497608e+01 7.155347e+01 6.272294e+01 6.607756e+01 7.074807e+01 6.145026e+01 4.306128e+01 4.683767e+01 4.184661e+01 2.357212e+02 2.540484e+00 2.715243e+00 2.704425e+00 2.966744e+00 3.343090e+00 3.050579e+00 3.221212e+00 3.805762e+00 3.369615e+00 2.727702e+00 2.838380e+00 2.395327e+00 4.810916e+00 3.858287e-01 4.220316e-01 4.201972e-01 4.978673e-01 5.893408e-01 5.364521e-01 5.819368e-01 6.696108e-01 5.900257e-01 5.098491e-01 5.209714e-01 4.405736e-01 6.276738e-01
<GCONST> 1.322162e+02
<STATE> 3
<MEAN> 39
 -6.178386e+00 -3.207608e+00 -1.136580e+00 -5.310746e+00 -7.659114e+00 -2.745061e+00 -8.776582e+00 -3.503671e+00 -3.924967e+00 -2.744921e+00 -2.425360e+00 -4.607111e+00 5.386576e+01 4.948035e-04 1.800555e-03 -2.261678e-04 -1.868584e-03 1.117366e-04 1.141029e-03 -1.201725e-04 -2.530584e-03 -1.235830e-04 6.019770e-04 -1.318748e-03 -2.185088e-03 3.516685e-04 6.517531e-05 1.917887e-04 1.228032e-04 9.168699e-05 9.114001e-05 2.231032e-04 6.291027e-05 -2.458276e-05 1.190640e-04 1.341063e-04 2.007098e-05 1.380872e-05 -2.152489e-05
<VARIANCE> 39
 6.846309e+01 6.131578e+01 7.395956e+01 6.497608e+01 7.155347e+01 6.272294e+01 6.607756e+01 7.074807e+01 6.145026e+01 4.306128e+01 4.683767e+01 4.184661e+01 2.357212e+02 2.540484e+00 2.715243e+00 2.704425e+00 2.966744e+00 3.343090e+00 3.050579e+00 3.221212e+00 3.805762e+00 3.369615e+00 2.727702e+00 2.838380e+00 2.395327e+00 4.810916e+00 3.858287e-01 4.220316e-01 4.201972e-01 4.978673e-01 5.893408e-01 5.364521e-01 5.819368e-01 6.696108e-01 5.900257e-01 5.098491e-01 5.209714e-01 4.405736e-01 6.276738e-01
<GCONST> 1.322162e+02
<STATE> 4
<MEAN> 39
 -6.178386e+00 -3.207608e+00 -1.136580e+00 -5.310746e+00 -7.659114e+00 -2.745061e+00 -8.776582e+00 -3.503671e+00 -3.924967e+00 -2.744921e+00 -2.425360e+00 -4.607111e+00 5.386576e+01 4.948035e-04 1.800555e-03 -2.261678e-04 -1.868584e-03 1.117366e-04 1.141029e-03 -1.201725e-04 -2.530584e-03 -1.235830e-04 6.019770e-04 -1.318748e-03 -2.185088e-03 3.516685e-04 6.517531e-05 1.917887e-04 1.228032e-04 9.168699e-05 9.114001e-05 2.231032e-04 6.291027e-05 -2.458276e-05 1.190640e-04 1.341063e-04 2.007098e-05 1.380872e-05 -2.152489e-05
<VARIANCE> 39
 6.846309e+01 6.131578e+01 7.395956e+01 6.497608e+01 7.155347e+01 6.272294e+01 6.607756e+01 7.074807e+01 6.145026e+01 4.306128e+01 4.683767e+01 4.184661e+01 2.357212e+02 2.540484e+00 2.715243e+00 2.704425e+00 2.966744e+00 3.343090e+00 3.050579e+00 3.221212e+00 3.805762e+00 3.369615e+00 2.727702e+00 2.838380e+00 2.395327e+00 4.810916e+00 3.858287e-01 4.220316e-01 4.201972e-01 4.978673e-01 5.893408e-01 5.364521e-01 5.819368e-01 6.696108e-01 5.900257e-01 5.098491e-01 5.209714e-01 4.405736e-01 6.276738e-01
<GCONST> 1.322162e+02
<TRANSP> 5
 0.000000e+00 1.000000e+00 0.000000e+00 0.000000e+00 0.000000e+00
 0.000000e+00 6.000000e-01 4.000000e-01 0.000000e+00 0.000000e+00
 0.000000e+00 0.000000e+00 6.000000e-01 4.000000e-01 0.000000e+00
 0.000000e+00 0.000000e+00 0.000000e+00 7.000000e-01 3.000000e-01
 0.000000e+00 0.000000e+00 0.000000e+00 0.000000e+00 0.000000e+00
<ENDHMM>
~h "d"
<BEGINHMM>
<NUMSTATES> 5
<STATE> 2
<MEAN> 39
 -6.178386e+00 -3.207608e+00 -1.136580e+00 -5.310746e+00 -7.659114e+00 -2.745061e+00 -8.776582e+00 -3.503671e+00 -3.924967e+00 -2.744921e+00 -2.425360e+00 -4.607111e+00 5.386576e+01 4.948035e-04 1.800555e-03 -2.261678e-04 -1.868584e-03 1.117366e-04 1.141029e-03 -1.201725e-04 -2.530584e-03 -1.235830e-04 6.019770e-04 -1.318748e-03 -2.185088e-03 3.516685e-04 6.517531e-05 1.917887e-04 1.228032e-04 9.168699e-05 9.114001e-05 2.231032e-04 6.291027e-05 -2.458276e-05 1.190640e-04 1.341063e-04 2.007098e-05 1.380872e-05 -2.152489e-05
<VARIANCE> 39
 6.846309e+01 6.131578e+01 7.395956e+01 6.497608e+01 7.155347e+01 6.272294e+01 6.607756e+01 7.074807e+01 6.145026e+01 4.306128e+01 4.683767e+01 4.184661e+01 2.357212e+02 2.540484e+00 2.715243e+00 2.704425e+00 2.966744e+00 3.343090e+00 3.050579e+00 3.221212e+00 3.805762e+00 3.369615e+00 2.727702e+00 2.838380e+00 2.395327e+00 4.810916e+00 3.858287e-01 4.220316e-01 4.201972e-01 4.978673e-01 5.893408e-01 5.364521e-01 5.819368e-01 6.696108e-01 5.900257e-01 5.098491e-01 5.209714e-01 4.405736e-01 6.276738e-01
<GCONST> 1.322162e+02
<STATE> 3
<MEAN> 39
 -6.178386e+00 -3.207608e+00 -1.136580e+00 -5.310746e+00 -7.659114e+00 -2.745061e+00 -8.776582e+00 -3.503671e+00 -3.924967e+00 -2.744921e+00 -2.425360e+00 -4.607111e+00 5.386576e+01 4.948035e-04 1.800555e-03 -2.261678e-04 -1.868584e-03 1.117366e-04 1.141029e-03 -1.201725e-04 -2.530584e-03 -1.235830e-04 6.019770e-04 -1.318748e-03 -2.185088e-03 3.516685e-04 6.517531e-05 1.917887e-04 1.228032e-04 9.168699e-05 9.114001e-05 2.231032e-04 6.291027e-05 -2.458276e-05 1.190640e-04 1.341063e-04 2.007098e-05 1.380872e-05 -2.152489e-05
<VARIANCE> 39
 6.846309e+01 6.131578e+01 7.395956e+01 6.497608e+01 7.155347e+01 6.272294e+01 6.607756e+01 7.074807e+01 6.145026e+01 4.306128e+01 4.683767e+01 4.184661e+01 2.357212e+02 2.540484e+00 2.715243e+00 2.704425e+00 2.966744e+00 3.343090e+00 3.050579e+00 3.221212e+00 3.805762e+00 3.369615e+00 2.727702e+00 2.838380e+00 2.395327e+00 4.810916e+00 3.858287e-01 4.220316e-01 4.201972e-01 4.978673e-01 5.893408e-01 5.364521e-01 5.819368e-01 6.696108e-01 5.900257e-01 5.098491e-01 5.209714e-01 4.405736e-01 6.276738e-01
<GCONST> 1.322162e+02
<STATE> 4
<MEAN> 39
 -6.178386e+00 -3.207608e+00 -1.136580e+00 -5.310746e+00 -7.659114e+00 -2.745061e+00 -8.776582e+00 -3.503671e+00 -3.924967e+00 -2.744921e+00 -2.425360e+00 -4.607111e+00 5.386576e+01 4.948035e-04 1.800555e-03 -2.261678e-04 -1.868584e-03 1.117366e-04 1.141029e-03 -1.201725e-04 -2.530584e-03 -1.235830e-04 6.019770e-04 -1.318748e-03 -2.185088e-03 3.516685e-04 6.517531e-05 1.917887e-04 1.228032e-04 9.168699e-05 9.114001e-05 2.231032e-04 6.291027e-05 -2.458276e-05 1.190640e-04 1.341063e-04 2.007098e-05 1.380872e-05 -2.152489e-05
<VARIANCE> 39
 6.846309e+01 6.131578e+01 7.395956e+01 6.497608e+01 7.155347e+01 6.272294e+01 6.607756e+01 7.074807e+01 6.145026e+01 4.306128e+01 4.683767e+01 4.184661e+01 2.357212e+02 2.540484e+00 2.715243e+00 2.704425e+00 2.966744e+00 3.343090e+00 3.050579e+00 3.221212e+00 3.805762e+00 3.369615e+00 2.727702e+00 2.838380e+00 2.395327e+00 4.810916e+00 3.858287e-01 4.220316e-01 4.201972e-01 4.978673e-01 5.893408e-01 5.364521e-01 5.819368e-01 6.696108e-01 5.900257e-01 5.098491e-01 5.209714e-01 4.405736e-01 6.276738e-01
<GCONST> 1.322162e+02
<TRANSP> 5
 0.000000e+00 1.000000e+00 0.000000e+00 0.000000e+00 0.000000e+00
 0.000000e+00 6.000000e-01 4.000000e-01 0.000000e+00 0.000000e+00
 0.000000e+00 0.000000e+00 6.000000e-01 4.000000e-01 0.000000e+00
 0.000000e+00 0.000000e+00 0.000000e+00 7.000000e-01 3.000000e-01
 0.000000e+00 0.000000e+00 0.000000e+00 0.000000e+00 0.000000e+00
<ENDHMM>
~h "ai"
<BEGINHMM>
<NUMSTATES> 5
<STATE> 2
<MEAN> 39
 -6.178386e+00 -3.207608e+00 -1.136580e+00 -5.310746e+00 -7.659114e+00 -2.745061e+00 -8.776582e+00 -3.503671e+00 -3.924967e+00 -2.744921e+00 -2.425360e+00 -4.607111e+00 5.386576e+01 4.948035e-04 1.800555e-03 -2.261678e-04 -1.868584e-03 1.117366e-04 1.141029e-03 -1.201725e-04 -2.530584e-03 -1.235830e-04 6.019770e-04 -1.318748e-03 -2.185088e-03 3.516685e-04 6.517531e-05 1.917887e-04 1.228032e-04 9.168699e-05 9.114001e-05 2.231032e-04 6.291027e-05 -2.458276e-05 1.190640e-04 1.341063e-04 2.007098e-05 1.380872e-05 -2.152489e-05
<VARIANCE> 39
 6.846309e+01 6.131578e+01 7.395956e+01 6.497608e+01 7.155347e+01 6.272294e+01 6.607756e+01 7.074807e+01 6.145026e+01 4.306128e+01 4.683767e+01 4.184661e+01 2.357212e+02 2.540484e+00 2.715243e+00 2.704425e+00 2.966744e+00 3.343090e+00 3.050579e+00 3.221212e+00 3.805762e+00 3.369615e+00 2.727702e+00 2.838380e+00 2.395327e+00 4.810916e+00 3.858287e-01 4.220316e-01 4.201972e-01 4.978673e-01 5.893408e-01 5.364521e-01 5.819368e-01 6.696108e-01 5.900257e-01 5.098491e-01 5.209714e-01 4.405736e-01 6.276738e-01
<GCONST> 1.322162e+02
<STATE> 3
<MEAN> 39
 -6.178386e+00 -3.207608e+00 -1.136580e+00 -5.310746e+00 -7.659114e+00 -2.745061e+00 -8.776582e+00 -3.503671e+00 -3.924967e+00 -2.744921e+00 -2.425360e+00 -4.607111e+00 5.386576e+01 4.948035e-04 1.800555e-03 -2.261678e-04 -1.868584e-03 1.117366e-04 1.141029e-03 -1.201725e-04 -2.530584e-03 -1.235830e-04 6.019770e-04 -1.318748e-03 -2.185088e-03 3.516685e-04 6.517531e-05 1.917887e-04 1.228032e-04 9.168699e-05 9.114001e-05 2.231032e-04 6.291027e-05 -2.458276e-05 1.190640e-04 1.341063e-04 2.007098e-05 1.380872e-05 -2.152489e-05
<VARIANCE> 39
 6.846309e+01 6.131578e+01 7.395956e+01 6.497608e+01 7.155347e+01 6.272294e+01 6.607756e+01 7.074807e+01 6.145026e+01 4.306128e+01 4.683767e+01 4.184661e+01 2.357212e+02 2.540484e+00 2.715243e+00 2.704425e+00 2.966744e+00 3.343090e+00 3.050579e+00 3.221212e+00 3.805762e+00 3.369615e+00 2.727702e+00 2.838380e+00 2.395327e+00 4.810916e+00 3.858287e-01 4.220316e-01 4.201972e-01 4.978673e-01 5.893408e-01 5.364521e-01 5.819368e-01 6.696108e-01 5.900257e-01 5.098491e-01 5.209714e-01 4.405736e-01 6.276738e-01
<GCONST> 1.322162e+02
<STATE> 4
<MEAN> 39
 -6.178386e+00 -3.207608e+00 -1.136580e+00 -5.310746e+00 -7.659114e+00 -2.745061e+00 -8.776582e+00 -3.503671e+00 -3.924967e+00 -2.744921e+00 -2.425360e+00 -4.607111e+00 5.386576e+01 4.948035e-04 1.800555e-03 -2.261678e-04 -1.868584e-03 1.117366e-04 1.141029e-03 -1.201725e-04 -2.530584e-03 -1.235830e-04 6.019770e-04 -1.318748e-03 -2.185088e-03 3.516685e-04 6.517531e-05 1.917887e-04 1.228032e-04 9.168699e-05 9.114001e-05 2.231032e-04 6.291027e-05 -2.458276e-05 1.190640e-04 1.341063e-04 2.007098e-05 1.380872e-05 -2.152489e-05
<VARIANCE> 39
 6.846309e+01 6.131578e+01 7.395956e+01 6.497608e+01 7.155347e+01 6.272294e+01 6.607756e+01 7.074807e+01 6.145026e+01 4.306128e+01 4.683767e+01 4.184661e+01 2.357212e+02 2.540484e+00 2.715243e+00 2.704425e+00 2.966744e+00 3.343090e+00 3.050579e+00 3.221212e+00 3.805762e+00 3.369615e+00 2.727702e+00 2.838380e+00 2.395327e+00 4.810916e+00 3.858287e-01 4.220316e-01 4.201972e-01 4.978673e-01 5.893408e-01 5.364521e-01 5.819368e-01 6.696108e-01 5.900257e-01 5.098491e-01 5.209714e-01 4.405736e-01 6.276738e-01
<GCONST> 1.322162e+02
<TRANSP> 5
 0.000000e+00 1.000000e+00 0.000000e+00 0.000000e+00 0.000000e+00
 0.000000e+00 6.000000e-01 4.000000e-01 0.000000e+00 0.000000e+00
 0.000000e+00 0.000000e+00 6.000000e-01 4.000000e-01 0.000000e+00
 0.000000e+00 0.000000e+00 0.000000e+00 7.000000e-01 3.000000e-01
 0.000000e+00 0.000000e+00 0.000000e+00 0.000000e+00 0.000000e+00
<ENDHMM>
~h "k"
<BEGINHMM>
<NUMSTATES> 5
<STATE> 2
<MEAN> 39
 -6.178386e+00 -3.207608e+00 -1.136580e+00 -5.310746e+00 -7.659114e+00 -2.745061e+00 -8.776582e+00 -3.503671e+00 -3.924967e+00 -2.744921e+00 -2.425360e+00 -4.607111e+00 5.386576e+01 4.948035e-04 1.800555e-03 -2.261678e-04 -1.868584e-03 1.117366e-04 1.141029e-03 -1.201725e-04 -2.530584e-03 -1.235830e-04 6.019770e-04 -1.318748e-03 -2.185088e-03 3.516685e-04 6.517531e-05 1.917887e-04 1.228032e-04 9.168699e-05 9.114001e-05 2.231032e-04 6.291027e-05 -2.458276e-05 1.190640e-04 1.341063e-04 2.007098e-05 1.380872e-05 -2.152489e-05
<VARIANCE> 39
 6.846309e+01 6.131578e+01 7.395956e+01 6.497608e+01 7.155347e+01 6.272294e+01 6.607756e+01 7.074807e+01 6.145026e+01 4.306128e+01 4.683767e+01 4.184661e+01 2.357212e+02 2.540484e+00 2.715243e+00 2.704425e+00 2.966744e+00 3.343090e+00 3.050579e+00 3.221212e+00 3.805762e+00 3.369615e+00 2.727702e+00 2.838380e+00 2.395327e+00 4.810916e+00 3.858287e-01 4.220316e-01 4.201972e-01 4.978673e-01 5.893408e-01 5.364521e-01 5.819368e-01 6.696108e-01 5.900257e-01 5.098491e-01 5.209714e-01 4.405736e-01 6.276738e-01
<GCONST> 1.322162e+02
<STATE> 3
<MEAN> 39
 -6.178386e+00 -3.207608e+00 -1.136580e+00 -5.310746e+00 -7.659114e+00 -2.745061e+00 -8.776582e+00 -3.503671e+00 -3.924967e+00 -2.744921e+00 -2.425360e+00 -4.607111e+00 5.386576e+01 4.948035e-04 1.800555e-03 -2.261678e-04 -1.868584e-03 1.117366e-04 1.141029e-03 -1.201725e-04 -2.530584e-03 -1.235830e-04 6.019770e-04 -1.318748e-03 -2.185088e-03 3.516685e-04 6.517531e-05 1.917887e-04 1.228032e-04 9.168699e-05 9.114001e-05 2.231032e-04 6.291027e-05 -2.458276e-05 1.190640e-04 1.341063e-04 2.007098e-05 1.380872e-05 -2.152489e-05
<VARIANCE> 39
 6.846309e+01 6.131578e+01 7.395956e+01 6.497608e+01 7.155347e+01 6.272294e+01 6.607756e+01 7.074807e+01 6.145026e+01 4.306128e+01 4.683767e+01 4.184661e+01 2.357212e+02 2.540484e+00 2.715243e+00 2.704425e+00 2.966744e+00 3.343090e+00 3.050579e+00 3.221212e+00 3.805762e+00 3.369615e+00 2.727702e+00 2.838380e+00 2.395327e+00 4.810916e+00 3.858287e-01 4.220316e-01 4.201972e-01 4.978673e-01 5.893408e-01 5.364521e-01 5.819368e-01 6.696108e-01 5.900257e-01 5.098491e-01 5.209714e-01 4.405736e-01 6.276738e-01
<GCONST> 1.322162e+02
<STATE> 4
<MEAN> 39
 -6.178386e+00 -3.207608e+00 -1.136580e+00 -5.310746e+00 -7.659114e+00 -2.745061e+00 -8.776582e+00 -3.503671e+00 -3.924967e+00 -2.744921e+00 -2.425360e+00 -4.607111e+00 5.386576e+01 4.948035e-04 1.800555e-03 -2.261678e-04 -1.868584e-03 1.117366e-04 1.141029e-03 -1.201725e-04 -2.530584e-03 -1.235830e-04 6.019770e-04 -1.318748e-03 -2.185088e-03 3.516685e-04 6.517531e-05 1.917887e-04 1.228032e-04 9.168699e-05 9.114001e-05 2.231032e-04 6.291027e-05 -2.458276e-05 1.190640e-04 1.341063e-04 2.007098e-05 1.380872e-05 -2.152489e-05
<VARIANCE> 39
 6.846309e+01 6.131578e+01 7.395956e+01 6.497608e+01 7.155347e+01 6.272294e+01 6.607756e+01 7.074807e+01 6.145026e+01 4.306128e+01 4.683767e+01 4.184661e+01 2.357212e+02 2.540484e+00 2.715243e+00 2.704425e+00 2.966744e+00 3.343090e+00 3.050579e+00 3.221212e+00 3.805762e+00 3.369615e+00 2.727702e+00 2.838380e+00 2.395327e+00 4.810916e+00 3.858287e-01 4.220316e-01 4.201972e-01 4.978673e-01 5.893408e-01 5.364521e-01 5.819368e-01 6.696108e-01 5.900257e-01 5.098491e-01 5.209714e-01 4.405736e-01 6.276738e-01
<GCONST> 1.322162e+02
<TRANSP> 5
 0.000000e+00 1.000000e+00 0.000000e+00 0.000000e+00 0.000000e+00
 0.000000e+00 6.000000e-01 4.000000e-01 0.000000e+00 0.000000e+00
 0.000000e+00 0.000000e+00 6.000000e-01 4.000000e-01 0.000000e+00
 0.000000e+00 0.000000e+00 0.000000e+00 7.000000e-01 3.000000e-01
 0.000000e+00 0.000000e+00 0.000000e+00 0.000000e+00 0.000000e+00
<ENDHMM>
~h "ng"
<BEGINHMM>
<NUMSTATES> 5
<STATE> 2
<MEAN> 39
 -6.178386e+00 -3.207608e+00 -1.136580e+00 -5.310746e+00 -7.659114e+00 -2.745061e+00 -8.776582e+00 -3.503671e+00 -3.924967e+00 -2.744921e+00 -2.425360e+00 -4.607111e+00 5.386576e+01 4.948035e-04 1.800555e-03 -2.261678e-04 -1.868584e-03 1.117366e-04 1.141029e-03 -1.201725e-04 -2.530584e-03 -1.235830e-04 6.019770e-04 -1.318748e-03 -2.185088e-03 3.516685e-04 6.517531e-05 1.917887e-04 1.228032e-04 9.168699e-05 9.114001e-05 2.231032e-04 6.291027e-05 -2.458276e-05 1.190640e-04 1.341063e-04 2.007098e-05 1.380872e-05 -2.152489e-05
<VARIANCE> 39
 6.846309e+01 6.131578e+01 7.395956e+01 6.497608e+01 7.155347e+01 6.272294e+01 6.607756e+01 7.074807e+01 6.145026e+01 4.306128e+01 4.683767e+01 4.184661e+01 2.357212e+02 2.540484e+00 2.715243e+00 2.704425e+00 2.966744e+00 3.343090e+00 3.050579e+00 3.221212e+00 3.805762e+00 3.369615e+00 2.727702e+00 2.838380e+00 2.395327e+00 4.810916e+00 3.858287e-01 4.220316e-01 4.201972e-01 4.978673e-01 5.893408e-01 5.364521e-01 5.819368e-01 6.696108e-01 5.900257e-01 5.098491e-01 5.209714e-01 4.405736e-01 6.276738e-01
<GCONST> 1.322162e+02
<STATE> 3
<MEAN> 39
 -6.178386e+00 -3.207608e+00 -1.136580e+00 -5.310746e+00 -7.659114e+00 -2.745061e+00 -8.776582e+00 -3.503671e+00 -3.924967e+00 -2.744921e+00 -2.425360e+00 -4.607111e+00 5.386576e+01 4.948035e-04 1.800555e-03 -2.261678e-04 -1.868584e-03 1.117366e-04 1.141029e-03 -1.201725e-04 -2.530584e-03 -1.235830e-04 6.019770e-04 -1.318748e-03 -2.185088e-03 3.516685e-04 6.517531e-05 1.917887e-04 1.228032e-04 9.168699e-05 9.114001e-05 2.231032e-04 6.291027e-05 -2.458276e-05 1.190640e-04 1.341063e-04 2.007098e-05 1.380872e-05 -2.152489e-05
<VARIANCE> 39
 6.846309e+01 6.131578e+01 7.395956e+01 6.497608e+01 7.155347e+01 6.272294e+01 6.607756e+01 7.074807e+01 6.145026e+01 4.306128e+01 4.683767e+01 4.184661e+01 2.357212e+02 2.540484e+00 2.715243e+00 2.704425e+00 2.966744e+00 3.343090e+00 3.050579e+00 3.221212e+00 3.805762e+00 3.369615e+00 2.727702e+00 2.838380e+00 2.395327e+00 4.810916e+00 3.858287e-01 4.220316e-01 4.201972e-01 4.978673e-01 5.893408e-01 5.364521e-01 5.819368e-01 6.696108e-01 5.900257e-01 5.098491e-01 5.209714e-01 4.405736e-01 6.276738e-01
<GCONST> 1.322162e+02
<STATE> 4
<MEAN> 39
 -6.178386e+00 -3.207608e+00 -1.136580e+00 -5.310746e+00 -7.659114e+00 -2.745061e+00 -8.776582e+00 -3.503671e+00 -3.924967e+00 -2.744921e+00 -2.425360e+00 -4.607111e+00 5.386576e+01 4.948035e-04 1.800555e-03 -2.261678e-04 -1.868584e-03 1.117366e-04 1.141029e-03 -1.201725e-04 -2.530584e-03 -1.235830e-04 6.019770e-04 -1.318748e-03 -2.185088e-03 3.516685e-04 6.517531e-05 1.917887e-04 1.228032e-04 9.168699e-05 9.114001e-05 2.231032e-04 6.291027e-05 -2.458276e-05 1.190640e-04 1.341063e-04 2.007098e-05 1.380872e-05 -2.152489e-05
<VARIANCE> 39
 6.846309e+01 6.131578e+01 7.395956e+01 6.497608e+01 7.155347e+01 6.272294e+01 6.607756e+01 7.074807e+01 6.145026e+01 4.306128e+01 4.683767e+01 4.184661e+01 2.357212e+02 2.540484e+00 2.715243e+00 2.704425e+00 2.966744e+00 3.343090e+00 3.050579e+00 3.221212e+00 3.805762e+00 3.369615e+00 2.727702e+00 2.838380e+00 2.395327e+00 4.810916e+00 3.858287e-01 4.220316e-01 4.201972e-01 4.978673e-01 5.893408e-01 5.364521e-01 5.819368e-01 6.696108e-01 5.900257e-01 5.098491e-01 5.209714e-01 4.405736e-01 6.276738e-01
<GCONST> 1.322162e+02
<TRANSP> 5
 0.000000e+00 1.000000e+00 0.000000e+00 0.000000e+00 0.000000e+00
 0.000000e+00 6.000000e-01 4.000000e-01 0.000000e+00 0.000000e+00
 0.000000e+00 0.000000e+00 6.000000e-01 4.000000e-01 0.000000e+00
 0.000000e+00 0.000000e+00 0.000000e+00 7.000000e-01 3.000000e-01
 0.000000e+00 0.000000e+00 0.000000e+00 0.000000e+00 0.000000e+00
<ENDHMM>
~h "@"
<BEGINHMM>
<NUMSTATES> 5
<STATE> 2
<MEAN> 39
 -6.178386e+00 -3.207608e+00 -1.136580e+00 -5.310746e+00 -7.659114e+00 -2.745061e+00 -8.776582e+00 -3.503671e+00 -3.924967e+00 -2.744921e+00 -2.425360e+00 -4.607111e+00 5.386576e+01 4.948035e-04 1.800555e-03 -2.261678e-04 -1.868584e-03 1.117366e-04 1.141029e-03 -1.201725e-04 -2.530584e-03 -1.235830e-04 6.019770e-04 -1.318748e-03 -2.185088e-03 3.516685e-04 6.517531e-05 1.917887e-04 1.228032e-04 9.168699e-05 9.114001e-05 2.231032e-04 6.291027e-05 -2.458276e-05 1.190640e-04 1.341063e-04 2.007098e-05 1.380872e-05 -2.152489e-05
<VARIANCE> 39
 6.846309e+01 6.131578e+01 7.395956e+01 6.497608e+01 7.155347e+01 6.272294e+01 6.607756e+01 7.074807e+01 6.145026e+01 4.306128e+01 4.683767e+01 4.184661e+01 2.357212e+02 2.540484e+00 2.715243e+00 2.704425e+00 2.966744e+00 3.343090e+00 3.050579e+00 3.221212e+00 3.805762e+00 3.369615e+00 2.727702e+00 2.838380e+00 2.395327e+00 4.810916e+00 3.858287e-01 4.220316e-01 4.201972e-01 4.978673e-01 5.893408e-01 5.364521e-01 5.819368e-01 6.696108e-01 5.900257e-01 5.098491e-01 5.209714e-01 4.405736e-01 6.276738e-01
<GCONST> 1.322162e+02
<STATE> 3
<MEAN> 39
 -6.178386e+00 -3.207608e+00 -1.136580e+00 -5.310746e+00 -7.659114e+00 -2.745061e+00 -8.776582e+00 -3.503671e+00 -3.924967e+00 -2.744921e+00 -2.425360e+00 -4.607111e+00 5.386576e+01 4.948035e-04 1.800555e-03 -2.261678e-04 -1.868584e-03 1.117366e-04 1.141029e-03 -1.201725e-04 -2.530584e-03 -1.235830e-04 6.019770e-04 -1.318748e-03 -2.185088e-03 3.516685e-04 6.517531e-05 1.917887e-04 1.228032e-04 9.168699e-05 9.114001e-05 2.231032e-04 6.291027e-05 -2.458276e-05 1.190640e-04 1.341063e-04 2.007098e-05 1.380872e-05 -2.152489e-05
<VARIANCE> 39
 6.846309e+01 6.131578e+01 7.395956e+01 6.497608e+01 7.155347e+01 6.272294e+01 6.607756e+01 7.074807e+01 6.145026e+01 4.306128e+01 4.683767e+01 4.184661e+01 2.357212e+02 2.540484e+00 2.715243e+00 2.704425e+00 2.966744e+00 3.343090e+00 3.050579e+00 3.221212e+00 3.805762e+00 3.369615e+00 2.727702e+00 2.838380e+00 2.395327e+00 4.810916e+00 3.858287e-01 4.220316e-01 4.201972e-01 4.978673e-01 5.893408e-01 5.364521e-01 5.819368e-01 6.696108e-01 5.900257e-01 5.098491e-01 5.209714e-01 4.405736e-01 6.276738e-01
<GCONST> 1.322162e+02
<STATE> 4
<MEAN> 39
 -6.178386e+00 -3.207608e+00 -1.136580e+00 -5.310746e+00 -7.659114e+00 -2.745061e+00 -8.776582e+00 -3.503671e+00 -3.924967e+00 -2.744921e+00 -2.425360e+00 -4.607111e+00 5.386576e+01 4.948035e-04 1.800555e-03 -2.261678e-04 -1.868584e-03 1.117366e-04 1.141029e-03 -1.201725e-04 -2.530584e-03 -1.235830e-04 6.019770e-04 -1.318748e-03 -2.185088e-03 3.516685e-04 6.517531e-05 1.917887e-04 1.228032e-04 9.168699e-05 9.114001e-05 2.231032e-04 6.291027e-05 -2.458276e-05 1.190640e-04 1.341063e-04 2.007098e-05 1.380872e-05 -2.152489e-05
<VARIANCE> 39
 6.846309e+01 6.131578e+01 7.395956e+01 6.497608e+01 7.155347e+01 6.272294e+01 6.607756e+01 7.074807e+01 6.145026e+01 4.306128e+01 4.683767e+01 4.184661e+01 2.357212e+02 2.540484e+00 2.715243e+00 2.704425e+00 2.966744e+00 3.343090e+00 3.050579e+00 3.221212e+00 3.805762e+00 3.369615e+00 2.727702e+00 2.838380e+00 2.395327e+00 4.810916e+00 3.858287e-01 4.220316e-01 4.201972e-01 4.978673e-01 5.893408e-01 5.364521e-01 5.819368e-01 6.696108e-01 5.900257e-01 5.098491e-01 5.209714e-01 4.405736e-01 6.276738e-01
<GCONST> 1.322162e+02
<TRANSP> 5
 0.000000e+00 1.000000e+00 0.000000e+00 0.000000e+00 0.000000e+00
 0.000000e+00 6.000000e-01 4.000000e-01 0.000000e+00 0.000000e+00
 0.000000e+00 0.000000e+00 6.000000e-01 4.000000e-01 0.000000e+00
 0.000000e+00 0.000000e+00 0.000000e+00 7.000000e-01 3.000000e-01
 0.000000e+00 0.000000e+00 0.000000e+00 0.000000e+00 0.000000e+00
<ENDHMM>
~h "u"
<BEGINHMM>
<NUMSTATES> 5
<STATE> 2
<MEAN> 39
 -6.178386e+00 -3.207608e+00 -1.136580e+00 -5.310746e+00 -7.659114e+00 -2.745061e+00 -8.776582e+00 -3.503671e+00 -3.924967e+00 -2.744921e+00 -2.425360e+00 -4.607111e+00 5.386576e+01 4.948035e-04 1.800555e-03 -2.261678e-04 -1.868584e-03 1.117366e-04 1.141029e-03 -1.201725e-04 -2.530584e-03 -1.235830e-04 6.019770e-04 -1.318748e-03 -2.185088e-03 3.516685e-04 6.517531e-05 1.917887e-04 1.228032e-04 9.168699e-05 9.114001e-05 2.231032e-04 6.291027e-05 -2.458276e-05 1.190640e-04 1.341063e-04 2.007098e-05 1.380872e-05 -2.152489e-05
<VARIANCE> 39
 6.846309e+01 6.131578e+01 7.395956e+01 6.497608e+01 7.155347e+01 6.272294e+01 6.607756e+01 7.074807e+01 6.145026e+01 4.306128e+01 4.683767e+01 4.184661e+01 2.357212e+02 2.540484e+00 2.715243e+00 2.704425e+00 2.966744e+00 3.343090e+00 3.050579e+00 3.221212e+00 3.805762e+00 3.369615e+00 2.727702e+00 2.838380e+00 2.395327e+00 4.810916e+00 3.858287e-01 4.220316e-01 4.201972e-01 4.978673e-01 5.893408e-01 5.364521e-01 5.819368e-01 6.696108e-01 5.900257e-01 5.098491e-01 5.209714e-01 4.405736e-01 6.276738e-01
<GCONST> 1.322162e+02
<STATE> 3
<MEAN> 39
 -6.178386e+00 -3.207608e+00 -1.136580e+00 -5.310746e+00 -7.659114e+00 -2.745061e+00 -8.776582e+00 -3.503671e+00 -3.924967e+00 -2.744921e+00 -2.425360e+00 -4.607111e+00 5.386576e+01 4.948035e-04 1.800555e-03 -2.261678e-04 -1.868584e-03 1.117366e-04 1.141029e-03 -1.201725e-04 -2.530584e-03 -1.235830e-04 6.019770e-04 -1.318748e-03 -2.185088e-03 3.516685e-04 6.517531e-05 1.917887e-04 1.228032e-04 9.168699e-05 9.114001e-05 2.231032e-04 6.291027e-05 -2.458276e-05 1.190640e-04 1.341063e-04 2.007098e-05 1.380872e-05 -2.152489e-05
<VARIANCE> 39
 6.846309e+01 6.131578e+01 7.395956e+01 6.497608e+01 7.155347e+01 6.272294e+01 6.607756e+01 7.074807e+01 6.145026e+01 4.306128e+01 4.683767e+01 4.184661e+01 2.357212e+02 2.540484e+00 2.715243e+00 2.704425e+00 2.966744e+00 3.343090e+00 3.050579e+00 3.221212e+00 3.805762e+00 3.369615e+00 2.727702e+00 2.838380e+00 2.395327e+00 4.810916e+00 3.858287e-01 4.220316e-01 4.201972e-01 4.978673e-01 5.893408e-01 5.364521e-01 5.819368e-01 6.696108e-01 5.900257e-01 5.098491e-01 5.209714e-01 4.405736e-01 6.276738e-01
<GCONST> 1.322162e+02
<STATE> 4
<MEAN> 39
 -6.178386e+00 -3.207608e+00 -1.136580e+00 -5.310746e+00 -7.659114e+00 -2.745061e+00 -8.776582e+00 -3.503671e+00 -3.924967e+00 -2.744921e+00 -2.425360e+00 -4.607111e+00 5.386576e+01 4.948035e-04 1.800555e-03 -2.261678e-04 -1.868584e-03 1.117366e-04 1.141029e-03 -1.201725e-04 -2.530584e-03 -1.235830e-04 6.019770e-04 -1.318748e-03 -2.185088e-03 3.516685e-04 6.517531e-05 1.917887e-04 1.228032e-04 9.168699e-05 9.114001e-05 2.231032e-04 6.291027e-05 -2.458276e-05 1.190640e-04 1.341063e-04 2.007098e-05 1.380872e-05 -2.152489e-05
<VARIANCE> 39
 6.846309e+01 6.131578e+01 7.395956e+01 6.497608e+01 7.155347e+01 6.272294e+01 6.607756e+01 7.074807e+01 6.145026e+01 4.306128e+01 4.683767e+01 4.184661e+01 2.357212e+02 2.540484e+00 2.715243e+00 2.704425e+00 2.966744e+00 3.343090e+00 3.050579e+00 3.221212e+00 3.805762e+00 3.369615e+00 2.727702e+00 2.838380e+00 2.395327e+00 4.810916e+00 3.858287e-01 4.220316e-01 4.201972e-01 4.978673e-01 5.893408e-01 5.364521e-01 5.819368e-01 6.696108e-01 5.900257e-01 5.098491e-01 5.209714e-01 4.405736e-01 6.276738e-01
<GCONST> 1.322162e+02
<TRANSP> 5
 0.000000e+00 1.000000e+00 0.000000e+00 0.000000e+00 0.000000e+00
 0.000000e+00 6.000000e-01 4.000000e-01 0.000000e+00 0.000000e+00
 0.000000e+00 0.000000e+00 6.000000e-01 4.000000e-01 0.000000e+00
 0.000000e+00 0.000000e+00 0.000000e+00 7.000000e-01 3.000000e-01
 0.000000e+00 0.000000e+00 0.000000e+00 0.000000e+00 0.000000e+00
<ENDHMM>
~h "l"
<BEGINHMM>
<NUMSTATES> 5
<STATE> 2
<MEAN> 39
 -6.178386e+00 -3.207608e+00 -1.136580e+00 -5.310746e+00 -7.659114e+00 -2.745061e+00 -8.776582e+00 -3.503671e+00 -3.924967e+00 -2.744921e+00 -2.425360e+00 -4.607111e+00 5.386576e+01 4.948035e-04 1.800555e-03 -2.261678e-04 -1.868584e-03 1.117366e-04 1.141029e-03 -1.201725e-04 -2.530584e-03 -1.235830e-04 6.019770e-04 -1.318748e-03 -2.185088e-03 3.516685e-04 6.517531e-05 1.917887e-04 1.228032e-04 9.168699e-05 9.114001e-05 2.231032e-04 6.291027e-05 -2.458276e-05 1.190640e-04 1.341063e-04 2.007098e-05 1.380872e-05 -2.152489e-05
<VARIANCE> 39
 6.846309e+01 6.131578e+01 7.395956e+01 6.497608e+01 7.155347e+01 6.272294e+01 6.607756e+01 7.074807e+01 6.145026e+01 4.306128e+01 4.683767e+01 4.184661e+01 2.357212e+02 2.540484e+00 2.715243e+00 2.704425e+00 2.966744e+00 3.343090e+00 3.050579e+00 3.221212e+00 3.805762e+00 3.369615e+00 2.727702e+00 2.838380e+00 2.395327e+00 4.810916e+00 3.858287e-01 4.220316e-01 4.201972e-01 4.978673e-01 5.893408e-01 5.364521e-01 5.819368e-01 6.696108e-01 5.900257e-01 5.098491e-01 5.209714e-01 4.405736e-01 6.276738e-01
<GCONST> 1.322162e+02
<STATE> 3
<MEAN> 39
 -6.178386e+00 -3.207608e+00 -1.136580e+00 -5.310746e+00 -7.659114e+00 -2.745061e+00 -8.776582e+00 -3.503671e+00 -3.924967e+00 -2.744921e+00 -2.425360e+00 -4.607111e+00 5.386576e+01 4.948035e-04 1.800555e-03 -2.261678e-04 -1.868584e-03 1.117366e-04 1.141029e-03 -1.201725e-04 -2.530584e-03 -1.235830e-04 6.019770e-04 -1.318748e-03 -2.185088e-03 3.516685e-04 6.517531e-05 1.917887e-04 1.228032e-04 9.168699e-05 9.114001e-05 2.231032e-04 6.291027e-05 -2.458276e-05 1.190640e-04 1.341063e-04 2.007098e-05 1.380872e-05 -2.152489e-05
<VARIANCE> 39
 6.846309e+01 6.131578e+01 7.395956e+01 6.497608e+01 7.155347e+01 6.272294e+01 6.607756e+01 7.074807e+01 6.145026e+01 4.306128e+01 4.683767e+01 4.184661e+01 2.357212e+02 2.540484e+00 2.715243e+00 2.704425e+00 2.966744e+00 3.343090e+00 3.050579e+00 3.221212e+00 3.805762e+00 3.369615e+00 2.727702e+00 2.838380e+00 2.395327e+00 4.810916e+00 3.858287e-01 4.220316e-01 4.201972e-01 4.978673e-01 5.893408e-01 5.364521e-01 5.819368e-01 6.696108e-01 5.900257e-01 5.098491e-01 5.209714e-01 4.405736e-01 6.276738e-01
<GCONST> 1.322162e+02
<STATE> 4
<MEAN> 39
 -6.178386e+00 -3.207608e+00 -1.136580e+00 -5.310746e+00 -7.659114e+00 -2.745061e+00 -8.776582e+00 -3.503671e+00 -3.924967e+00 -2.744921e+00 -2.425360e+00 -4.607111e+00 5.386576e+01 4.948035e-04 1.800555e-03 -2.261678e-04 -1.868584e-03 1.117366e-04 1.141029e-03 -1.201725e-04 -2.530584e-03 -1.235830e-04 6.019770e-04 -1.318748e-03 -2.185088e-03 3.516685e-04 6.517531e-05 1.917887e-04 1.228032e-04 9.168699e-05 9.114001e-05 2.231032e-04 6.291027e-05 -2.458276e-05 1.190640e-04 1.341063e-04 2.007098e-05 1.380872e-05 -2.152489e-05
<VARIANCE> 39
 6.846309e+01 6.131578e+01 7.395956e+01 6.497608e+01 7.155347e+01 6.272294e+01 6.607756e+01 7.074807e+01 6.145026e+01 4.306128e+01 4.683767e+01 4.184661e+01 2.357212e+02 2.540484e+00 2.715243e+00 2.704425e+00 2.966744e+00 3.343090e+00 3.050579e+00 3.221212e+00 3.805762e+00 3.369615e+00 2.727702e+00 2.838380e+00 2.395327e+00 4.810916e+00 3.858287e-01 4.220316e-01 4.201972e-01 4.978673e-01 5.893408e-01 5.364521e-01 5.819368e-01 6.696108e-01 5.900257e-01 5.098491e-01 5.209714e-01 4.405736e-01 6.276738e-01
<GCONST> 1.322162e+02
<TRANSP> 5
 0.000000e+00 1.000000e+00 0.000000e+00 0.000000e+00 0.000000e+00
 0.000000e+00 6.000000e-01 4.000000e-01 0.000000e+00 0.000000e+00
 0.000000e+00 0.000000e+00 6.000000e-01 4.000000e-01 0.000000e+00
 0.000000e+00 0.000000e+00 0.000000e+00 7.000000e-01 3.000000e-01
 0.000000e+00 0.000000e+00 0.000000e+00 0.000000e+00 0.000000e+00
<ENDHMM>
~h "r"
<BEGINHMM>
<NUMSTATES> 5
<STATE> 2
<MEAN> 39
 -6.178386e+00 -3.207608e+00 -1.136580e+00 -5.310746e+00 -7.659114e+00 -2.745061e+00 -8.776582e+00 -3.503671e+00 -3.924967e+00 -2.744921e+00 -2.425360e+00 -4.607111e+00 5.386576e+01 4.948035e-04 1.800555e-03 -2.261678e-04 -1.868584e-03 1.117366e-04 1.141029e-03 -1.201725e-04 -2.530584e-03 -1.235830e-04 6.019770e-04 -1.318748e-03 -2.185088e-03 3.516685e-04 6.517531e-05 1.917887e-04 1.228032e-04 9.168699e-05 9.114001e-05 2.231032e-04 6.291027e-05 -2.458276e-05 1.190640e-04 1.341063e-04 2.007098e-05 1.380872e-05 -2.152489e-05
<VARIANCE> 39
 6.846309e+01 6.131578e+01 7.395956e+01 6.497608e+01 7.155347e+01 6.272294e+01 6.607756e+01 7.074807e+01 6.145026e+01 4.306128e+01 4.683767e+01 4.184661e+01 2.357212e+02 2.540484e+00 2.715243e+00 2.704425e+00 2.966744e+00 3.343090e+00 3.050579e+00 3.221212e+00 3.805762e+00 3.369615e+00 2.727702e+00 2.838380e+00 2.395327e+00 4.810916e+00 3.858287e-01 4.220316e-01 4.201972e-01 4.978673e-01 5.893408e-01 5.364521e-01 5.819368e-01 6.696108e-01 5.900257e-01 5.098491e-01 5.209714e-01 4.405736e-01 6.276738e-01
<GCONST> 1.322162e+02
<STATE> 3
<MEAN> 39
 -6.178386e+00 -3.207608e+00 -1.136580e+00 -5.310746e+00 -7.659114e+00 -2.745061e+00 -8.776582e+00 -3.503671e+00 -3.924967e+00 -2.744921e+00 -2.425360e+00 -4.607111e+00 5.386576e+01 4.948035e-04 1.800555e-03 -2.261678e-04 -1.868584e-03 1.117366e-04 1.141029e-03 -1.201725e-04 -2.530584e-03 -1.235830e-04 6.019770e-04 -1.318748e-03 -2.185088e-03 3.516685e-04 6.517531e-05 1.917887e-04 1.228032e-04 9.168699e-05 9.114001e-05 2.231032e-04 6.291027e-05 -2.458276e-05 1.190640e-04 1.341063e-04 2.007098e-05 1.380872e-05 -2.152489e-05
<VARIANCE> 39
 6.846309e+01 6.131578e+01 7.395956e+01 6.497608e+01 7.155347e+01 6.272294e+01 6.607756e+01 7.074807e+01 6.145026e+01 4.306128e+01 4.683767e+01 4.184661e+01 2.357212e+02 2.540484e+00 2.715243e+00 2.704425e+00 2.966744e+00 3.343090e+00 3.050579e+00 3.221212e+00 3.805762e+00 3.369615e+00 2.727702e+00 2.838380e+00 2.395327e+00 4.810916e+00 3.858287e-01 4.220316e-01 4.201972e-01 4.978673e-01 5.893408e-01 5.364521e-01 5.819368e-01 6.696108e-01 5.900257e-01 5.098491e-01 5.209714e-01 4.405736e-01 6.276738e-01
<GCONST> 1.322162e+02
<STATE> 4
<MEAN> 39
 -6.178386e+00 -3.207608e+00 -1.136580e+00 -5.310746e+00 -7.659114e+00 -2.745061e+00 -8.776582e+00 -3.503671e+00 -3.924967e+00 -2.744921e+00 -2.425360e+00 -4.607111e+00 5.386576e+01 4.948035e-04 1.800555e-03 -2.261678e-04 -1.868584e-03 1.117366e-04 1.141029e-03 -1.201725e-04 -2.530584e-03 -1.235830e-04 6.019770e-04 -1.318748e-03 -2.185088e-03 3.516685e-04 6.517531e-05 1.917887e-04 1.228032e-04 9.168699e-05 9.114001e-05 2.231032e-04 6.291027e-05 -2.458276e-05 1.190640e-04 1.341063e-04 2.007098e-05 1.380872e-05 -2.152489e-05
<VARIANCE> 39
 6.846309e+01 6.131578e+01 7.395956e+01 6.497608e+01 7.155347e+01 6.272294e+01 6.607756e+01 7.074807e+01 6.145026e+01 4.306128e+01 4.683767e+01 4.184661e+01 2.357212e+02 2.540484e+00 2.715243e+00 2.704425e+00 2.966744e+00 3.343090e+00 3.050579e+00 3.221212e+00 3.805762e+00 3.369615e+00 2.727702e+00 2.838380e+00 2.395327e+00 4.810916e+00 3.858287e-01 4.220316e-01 4.201972e-01 4.978673e-01 5.893408e-01 5.364521e-01 5.819368e-01 6.696108e-01 5.900257e-01 5.098491e-01 5.209714e-01 4.405736e-01 6.276738e-01
<GCONST> 1.322162e+02
<TRANSP> 5
 0.000000e+00 1.000000e+00 0.000000e+00 0.000000e+00 0.000000e+00
 0.000000e+00 6.000000e-01 4.000000e-01 0.000000e+00 0.000000e+00
 0.000000e+00 0.000000e+00 6.000000e-01 4.000000e-01 0.000000e+00
 0.000000e+00 0.000000e+00 0.000000e+00 7.000000e-01 3.000000e-01
 0.000000e+00 0.000000e+00 0.000000e+00 0.000000e+00 0.000000e+00
<ENDHMM>
~h "h"
<BEGINHMM>
<NUMSTATES> 5
<STATE> 2
<MEAN> 39
 -6.178386e+00 -3.207608e+00 -1.136580e+00 -5.310746e+00 -7.659114e+00 -2.745061e+00 -8.776582e+00 -3.503671e+00 -3.924967e+00 -2.744921e+00 -2.425360e+00 -4.607111e+00 5.386576e+01 4.948035e-04 1.800555e-03 -2.261678e-04 -1.868584e-03 1.117366e-04 1.141029e-03 -1.201725e-04 -2.530584e-03 -1.235830e-04 6.019770e-04 -1.318748e-03 -2.185088e-03 3.516685e-04 6.517531e-05 1.917887e-04 1.228032e-04 9.168699e-05 9.114001e-05 2.231032e-04 6.291027e-05 -2.458276e-05 1.190640e-04 1.341063e-04 2.007098e-05 1.380872e-05 -2.152489e-05
<VARIANCE> 39
 6.846309e+01 6.131578e+01 7.395956e+01 6.497608e+01 7.155347e+01 6.272294e+01 6.607756e+01 7.074807e+01 6.145026e+01 4.306128e+01 4.683767e+01 4.184661e+01 2.357212e+02 2.540484e+00 2.715243e+00 2.704425e+00 2.966744e+00 3.343090e+00 3.050579e+00 3.221212e+00 3.805762e+00 3.369615e+00 2.727702e+00 2.838380e+00 2.395327e+00 4.810916e+00 3.858287e-01 4.220316e-01 4.201972e-01 4.978673e-01 5.893408e-01 5.364521e-01 5.819368e-01 6.696108e-01 5.900257e-01 5.098491e-01 5.209714e-01 4.405736e-01 6.276738e-01
<GCONST> 1.322162e+02
<STATE> 3
<MEAN> 39
 -6.178386e+00 -3.207608e+00 -1.136580e+00 -5.310746e+00 -7.659114e+00 -2.745061e+00 -8.776582e+00 -3.503671e+00 -3.924967e+00 -2.744921e+00 -2.425360e+00 -4.607111e+00 5.386576e+01 4.948035e-04 1.800555e-03 -2.261678e-04 -1.868584e-03 1.117366e-04 1.141029e-03 -1.201725e-04 -2.530584e-03 -1.235830e-04 6.019770e-04 -1.318748e-03 -2.185088e-03 3.516685e-04 6.517531e-05 1.917887e-04 1.228032e-04 9.168699e-05 9.114001e-05 2.231032e-04 6.291027e-05 -2.458276e-05 1.190640e-04 1.341063e-04 2.007098e-05 1.380872e-05 -2.152489e-05
<VARIANCE> 39
 6.846309e+01 6.131578e+01 7.395956e+01 6.497608e+01 7.155347e+01 6.272294e+01 6.607756e+01 7.074807e+01 6.145026e+01 4.306128e+01 4.683767e+01 4.184661e+01 2.357212e+02 2.540484e+00 2.715243e+00 2.704425e+00 2.966744e+00 3.343090e+00 3.050579e+00 3.221212e+00 3.805762e+00 3.369615e+00 2.727702e+00 2.838380e+00 2.395327e+00 4.810916e+00 3.858287e-01 4.220316e-01 4.201972e-01 4.978673e-01 5.893408e-01 5.364521e-01 5.819368e-01 6.696108e-01 5.900257e-01 5.098491e-01 5.209714e-01 4.405736e-01 6.276738e-01
<GCONST> 1.322162e+02
<STATE> 4
<MEAN> 39
 -6.178386e+00 -3.207608e+00 -1.136580e+00 -5.310746e+00 -7.659114e+00 -2.745061e+00 -8.776582e+00 -3.503671e+00 -3.924967e+00 -2.744921e+00 -2.425360e+00 -4.607111e+00 5.386576e+01 4.948035e-04 1.800555e-03 -2.261678e-04 -1.868584e-03 1.117366e-04 1.141029e-03 -1.201725e-04 -2.530584e-03 -1.235830e-04 6.019770e-04 -1.318748e-03 -2.185088e-03 3.516685e-04 6.517531e-05 1.917887e-04 1.228032e-04 9.168699e-05 9.114001e-05 2.231032e-04 6.291027e-05 -2.458276e-05 1.190640e-04 1.341063e-04 2.007098e-05 1.380872e-05 -2.152489e-05
<VARIANCE> 39
 6.846309e+01 6.131578e+01 7.395956e+01 6.497608e+01 7.155347e+01 6.272294e+01 6.607756e+01 7.074807e+01 6.145026e+01 4.306128e+01 4.683767e+01 4.184661e+01 2.357212e+02 2.540484e+00 2.715243e+00 2.704425e+00 2.966744e+00 3.343090e+00 3.050579e+00 3.221212e+00 3.805762e+00 3.369615e+00 2.727702e+00 2.838380e+00 2.395327e+00 4.810916e+00 3.858287e-01 4.220316e-01 4.201972e-01 4.978673e-01 5.893408e-01 5.364521e-01 5.819368e-01 6.696108e-01 5.900257e-01 5.098491e-01 5.209714e-01 4.405736e-01 6.276738e-01
<GCONST> 1.322162e+02
<TRANSP> 5
 0.000000e+00 1.000000e+00 0.000000e+00 0.000000e+00 0.000000e+00
 0.000000e+00 6.000000e-01 4.000000e-01 0.000000e+00 0.000000e+00
 0.000000e+00 0.000000e+00 6.000000e-01 4.000000e-01 0.000000e+00
 0.000000e+00 0.000000e+00 0.000000e+00 7.000000e-01 3.000000e-01
 0.000000e+00 0.000000e+00 0.000000e+00 0.000000e+00 0.000000e+00
<ENDHMM>
~h "m"
<BEGINHMM>
<NUMSTATES> 5
<STATE> 2
<MEAN> 39
 -6.178386e+00 -3.207608e+00 -1.136580e+00 -5.310746e+00 -7.659114e+00 -2.745061e+00 -8.776582e+00 -3.503671e+00 -3.924967e+00 -2.744921e+00 -2.425360e+00 -4.607111e+00 5.386576e+01 4.948035e-04 1.800555e-03 -2.261678e-04 -1.868584e-03 1.117366e-04 1.141029e-03 -1.201725e-04 -2.530584e-03 -1.235830e-04 6.019770e-04 -1.318748e-03 -2.185088e-03 3.516685e-04 6.517531e-05 1.917887e-04 1.228032e-04 9.168699e-05 9.114001e-05 2.231032e-04 6.291027e-05 -2.458276e-05 1.190640e-04 1.341063e-04 2.007098e-05 1.380872e-05 -2.152489e-05
<VARIANCE> 39
 6.846309e+01 6.131578e+01 7.395956e+01 6.497608e+01 7.155347e+01 6.272294e+01 6.607756e+01 7.074807e+01 6.145026e+01 4.306128e+01 4.683767e+01 4.184661e+01 2.357212e+02 2.540484e+00 2.715243e+00 2.704425e+00 2.966744e+00 3.343090e+00 3.050579e+00 3.221212e+00 3.805762e+00 3.369615e+00 2.727702e+00 2.838380e+00 2.395327e+00 4.810916e+00 3.858287e-01 4.220316e-01 4.201972e-01 4.978673e-01 5.893408e-01 5.364521e-01 5.819368e-01 6.696108e-01 5.900257e-01 5.098491e-01 5.209714e-01 4.405736e-01 6.276738e-01
<GCONST> 1.322162e+02
<STATE> 3
<MEAN> 39
 -6.178386e+00 -3.207608e+00 -1.136580e+00 -5.310746e+00 -7.659114e+00 -2.745061e+00 -8.776582e+00 -3.503671e+00 -3.924967e+00 -2.744921e+00 -2.425360e+00 -4.607111e+00 5.386576e+01 4.948035e-04 1.800555e-03 -2.261678e-04 -1.868584e-03 1.117366e-04 1.141029e-03 -1.201725e-04 -2.530584e-03 -1.235830e-04 6.019770e-04 -1.318748e-03 -2.185088e-03 3.516685e-04 6.517531e-05 1.917887e-04 1.228032e-04 9.168699e-05 9.114001e-05 2.231032e-04 6.291027e-05 -2.458276e-05 1.190640e-04 1.341063e-04 2.007098e-05 1.380872e-05 -2.152489e-05
<VARIANCE> 39
 6.846309e+01 6.131578e+01 7.395956e+01 6.497608e+01 7.155347e+01 6.272294e+01 6.607756e+01 7.074807e+01 6.145026e+01 4.306128e+01 4.683767e+01 4.184661e+01 2.357212e+02 2.540484e+00 2.715243e+00 2.704425e+00 2.966744e+00 3.343090e+00 3.050579e+00 3.221212e+00 3.805762e+00 3.369615e+00 2.727702e+00 2.838380e+00 2.395327e+00 4.810916e+00 3.858287e-01 4.220316e-01 4.201972e-01 4.978673e-01 5.893408e-01 5.364521e-01 5.819368e-01 6.696108e-01 5.900257e-01 5.098491e-01 5.209714e-01 4.405736e-01 6.276738e-01
<GCONST> 1.322162e+02
<STATE> 4
<MEAN> 39
 -6.178386e+00 -3.207608e+00 -1.136580e+00 -5.310746e+00 -7.659114e+00 -2.745061e+00 -8.776582e+00 -3.503671e+00 -3.924967e+00 -2.744921e+00 -2.425360e+00 -4.607111e+00 5.386576e+01 4.948035e-04 1.800555e-03 -2.261678e-04 -1.868584e-03 1.117366e-04 1.141029e-03 -1.201725e-04 -2.530584e-03 -1.235830e-04 6.019770e-04 -1.318748e-03 -2.185088e-03 3.516685e-04 6.517531e-05 1.917887e-04 1.228032e-04 9.168699e-05 9.114001e-05 2.231032e-04 6.291027e-05 -2.458276e-05 1.190640e-04 1.341063e-04 2.007098e-05 1.380872e-05 -2.152489e-05
<VARIANCE> 39
 6.846309e+01 6.131578e+01 7.395956e+01 6.497608e+01 7.155347e+01 6.272294e+01 6.607756e+01 7.074807e+01 6.145026e+01 4.306128e+01 4.683767e+01 4.184661e+01 2.357212e+02 2.540484e+00 2.715243e+00 2.704425e+00 2.966744e+00 3.343090e+00 3.050579e+00 3.221212e+00 3.805762e+00 3.369615e+00 2.727702e+00 2.838380e+00 2.395327e+00 4.810916e+00 3.858287e-01 4.220316e-01 4.201972e-01 4.978673e-01 5.893408e-01 5.364521e-01 5.819368e-01 6.696108e-01 5.900257e-01 5.098491e-01 5.209714e-01 4.405736e-01 6.276738e-01
<GCONST> 1.322162e+02
<TRANSP> 5
 0.000000e+00 1.000000e+00 0.000000e+00 0.000000e+00 0.000000e+00
 0.000000e+00 6.000000e-01 4.000000e-01 0.000000e+00 0.000000e+00
 0.000000e+00 0.000000e+00 6.000000e-01 4.000000e-01 0.000000e+00
 0.000000e+00 0.000000e+00 0.000000e+00 7.000000e-01 3.000000e-01
 0.000000e+00 0.000000e+00 0.000000e+00 0.000000e+00 0.000000e+00
<ENDHMM>
~h "p"
<BEGINHMM>
<NUMSTATES> 5
<STATE> 2
<MEAN> 39
 -6.178386e+00 -3.207608e+00 -1.136580e+00 -5.310746e+00 -7.659114e+00 -2.745061e+00 -8.776582e+00 -3.503671e+00 -3.924967e+00 -2.744921e+00 -2.425360e+00 -4.607111e+00 5.386576e+01 4.948035e-04 1.800555e-03 -2.261678e-04 -1.868584e-03 1.117366e-04 1.141029e-03 -1.201725e-04 -2.530584e-03 -1.235830e-04 6.019770e-04 -1.318748e-03 -2.185088e-03 3.516685e-04 6.517531e-05 1.917887e-04 1.228032e-04 9.168699e-05 9.114001e-05 2.231032e-04 6.291027e-05 -2.458276e-05 1.190640e-04 1.341063e-04 2.007098e-05 1.380872e-05 -2.152489e-05
<VARIANCE> 39
 6.846309e+01 6.131578e+01 7.395956e+01 6.497608e+01 7.155347e+01 6.272294e+01 6.607756e+01 7.074807e+01 6.145026e+01 4.306128e+01 4.683767e+01 4.184661e+01 2.357212e+02 2.540484e+00 2.715243e+00 2.704425e+00 2.966744e+00 3.343090e+00 3.050579e+00 3.221212e+00 3.805762e+00 3.369615e+00 2.727702e+00 2.838380e+00 2.395327e+00 4.810916e+00 3.858287e-01 4.220316e-01 4.201972e-01 4.978673e-01 5.893408e-01 5.364521e-01 5.819368e-01 6.696108e-01 5.900257e-01 5.098491e-01 5.209714e-01 4.405736e-01 6.276738e-01
<GCONST> 1.322162e+02
<STATE> 3
<MEAN> 39
 -6.178386e+00 -3.207608e+00 -1.136580e+00 -5.310746e+00 -7.659114e+00 -2.745061e+00 -8.776582e+00 -3.503671e+00 -3.924967e+00 -2.744921e+00 -2.425360e+00 -4.607111e+00 5.386576e+01 4.948035e-04 1.800555e-03 -2.261678e-04 -1.868584e-03 1.117366e-04 1.141029e-03 -1.201725e-04 -2.530584e-03 -1.235830e-04 6.019770e-04 -1.318748e-03 -2.185088e-03 3.516685e-04 6.517531e-05 1.917887e-04 1.228032e-04 9.168699e-05 9.114001e-05 2.231032e-04 6.291027e-05 -2.458276e-05 1.190640e-04 1.341063e-04 2.007098e-05 1.380872e-05 -2.152489e-05
<VARIANCE> 39
 6.846309e+01 6.131578e+01 7.395956e+01 6.497608e+01 7.155347e+01 6.272294e+01 6.607756e+01 7.074807e+01 6.145026e+01 4.306128e+01 4.683767e+01 4.184661e+01 2.357212e+02 2.540484e+00 2.715243e+00 2.704425e+00 2.966744e+00 3.343090e+00 3.050579e+00 3.221212e+00 3.805762e+00 3.369615e+00 2.727702e+00 2.838380e+00 2.395327e+00 4.810916e+00 3.858287e-01 4.220316e-01 4.201972e-01 4.978673e-01 5.893408e-01 5.364521e-01 5.819368e-01 6.696108e-01 5.900257e-01 5.098491e-01 5.209714e-01 4.405736e-01 6.276738e-01
<GCONST> 1.322162e+02
<STATE> 4
<MEAN> 39
 -6.178386e+00 -3.207608e+00 -1.136580e+00 -5.310746e+00 -7.659114e+00 -2.745061e+00 -8.776582e+00 -3.503671e+00 -3.924967e+00 -2.744921e+00 -2.425360e+00 -4.607111e+00 5.386576e+01 4.948035e-04 1.800555e-03 -2.261678e-04 -1.868584e-03 1.117366e-04 1.141029e-03 -1.201725e-04 -2.530584e-03 -1.235830e-04 6.019770e-04 -1.318748e-03 -2.185088e-03 3.516685e-04 6.517531e-05 1.917887e-04 1.228032e-04 9.168699e-05 9.114001e-05 2.231032e-04 6.291027e-05 -2.458276e-05 1.190640e-04 1.341063e-04 2.007098e-05 1.380872e-05 -2.152489e-05
<VARIANCE> 39
 6.846309e+01 6.131578e+01 7.395956e+01 6.497608e+01 7.155347e+01 6.272294e+01 6.607756e+01 7.074807e+01 6.145026e+01 4.306128e+01 4.683767e+01 4.184661e+01 2.357212e+02 2.540484e+00 2.715243e+00 2.704425e+00 2.966744e+00 3.343090e+00 3.050579e+00 3.221212e+00 3.805762e+00 3.369615e+00 2.727702e+00 2.838380e+00 2.395327e+00 4.810916e+00 3.858287e-01 4.220316e-01 4.201972e-01 4.978673e-01 5.893408e-01 5.364521e-01 5.819368e-01 6.696108e-01 5.900257e-01 5.098491e-01 5.209714e-01 4.405736e-01 6.276738e-01
<GCONST> 1.322162e+02
<TRANSP> 5
 0.000000e+00 1.000000e+00 0.000000e+00 0.000000e+00 0.000000e+00
 0.000000e+00 6.000000e-01 4.000000e-01 0.000000e+00 0.000000e+00
 0.000000e+00 0.000000e+00 6.000000e-01 4.000000e-01 0.000000e+00
 0.000000e+00 0.000000e+00 0.000000e+00 7.000000e-01 3.000000e-01
 0.000000e+00 0.000000e+00 0.000000e+00 0.000000e+00 0.000000e+00
<ENDHMM>
~h "e"
<BEGINHMM>
<NUMSTATES> 5
<STATE> 2
<MEAN> 39
 -6.178386e+00 -3.207608e+00 -1.136580e+00 -5.310746e+00 -7.659114e+00 -2.745061e+00 -8.776582e+00 -3.503671e+00 -3.924967e+00 -2.744921e+00 -2.425360e+00 -4.607111e+00 5.386576e+01 4.948035e-04 1.800555e-03 -2.261678e-04 -1.868584e-03 1.117366e-04 1.141029e-03 -1.201725e-04 -2.530584e-03 -1.235830e-04 6.019770e-04 -1.318748e-03 -2.185088e-03 3.516685e-04 6.517531e-05 1.917887e-04 1.228032e-04 9.168699e-05 9.114001e-05 2.231032e-04 6.291027e-05 -2.458276e-05 1.190640e-04 1.341063e-04 2.007098e-05 1.380872e-05 -2.152489e-05
<VARIANCE> 39
 6.846309e+01 6.131578e+01 7.395956e+01 6.497608e+01 7.155347e+01 6.272294e+01 6.607756e+01 7.074807e+01 6.145026e+01 4.306128e+01 4.683767e+01 4.184661e+01 2.357212e+02 2.540484e+00 2.715243e+00 2.704425e+00 2.966744e+00 3.343090e+00 3.050579e+00 3.221212e+00 3.805762e+00 3.369615e+00 2.727702e+00 2.838380e+00 2.395327e+00 4.810916e+00 3.858287e-01 4.220316e-01 4.201972e-01 4.978673e-01 5.893408e-01 5.364521e-01 5.819368e-01 6.696108e-01 5.900257e-01 5.098491e-01 5.209714e-01 4.405736e-01 6.276738e-01
<GCONST> 1.322162e+02
<STATE> 3
<MEAN> 39
 -6.178386e+00 -3.207608e+00 -1.136580e+00 -5.310746e+00 -7.659114e+00 -2.745061e+00 -8.776582e+00 -3.503671e+00 -3.924967e+00 -2.744921e+00 -2.425360e+00 -4.607111e+00 5.386576e+01 4.948035e-04 1.800555e-03 -2.261678e-04 -1.868584e-03 1.117366e-04 1.141029e-03 -1.201725e-04 -2.530584e-03 -1.235830e-04 6.019770e-04 -1.318748e-03 -2.185088e-03 3.516685e-04 6.517531e-05 1.917887e-04 1.228032e-04 9.168699e-05 9.114001e-05 2.231032e-04 6.291027e-05 -2.458276e-05 1.190640e-04 1.341063e-04 2.007098e-05 1.380872e-05 -2.152489e-05
<VARIANCE> 39
 6.846309e+01 6.131578e+01 7.395956e+01 6.497608e+01 7.155347e+01 6.272294e+01 6.607756e+01 7.074807e+01 6.145026e+01 4.306128e+01 4.683767e+01 4.184661e+01 2.357212e+02 2.540484e+00 2.715243e+00 2.704425e+00 2.966744e+00 3.343090e+00 3.050579e+00 3.221212e+00 3.805762e+00 3.369615e+00 2.727702e+00 2.838380e+00 2.395327e+00 4.810916e+00 3.858287e-01 4.220316e-01 4.201972e-01 4.978673e-01 5.893408e-01 5.364521e-01 5.819368e-01 6.696108e-01 5.900257e-01 5.098491e-01 5.209714e-01 4.405736e-01 6.276738e-01
<GCONST> 1.322162e+02
<STATE> 4
<MEAN> 39
 -6.178386e+00 -3.207608e+00 -1.136580e+00 -5.310746e+00 -7.659114e+00 -2.745061e+00 -8.776582e+00 -3.503671e+00 -3.924967e+00 -2.744921e+00 -2.425360e+00 -4.607111e+00 5.386576e+01 4.948035e-04 1.800555e-03 -2.261678e-04 -1.868584e-03 1.117366e-04 1.141029e-03 -1.201725e-04 -2.530584e-03 -1.235830e-04 6.019770e-04 -1.318748e-03 -2.185088e-03 3.516685e-04 6.517531e-05 1.917887e-04 1.228032e-04 9.168699e-05 9.114001e-05 2.231032e-04 6.291027e-05 -2.458276e-05 1.190640e-04 1.341063e-04 2.007098e-05 1.380872e-05 -2.152489e-05
<VARIANCE> 39
 6.846309e+01 6.131578e+01 7.395956e+01 6.497608e+01 7.155347e+01 6.272294e+01 6.607756e+01 7.074807e+01 6.145026e+01 4.306128e+01 4.683767e+01 4.184661e+01 2.357212e+02 2.540484e+00 2.715243e+00 2.704425e+00 2.966744e+00 3.343090e+00 3.050579e+00 3.221212e+00 3.805762e+00 3.369615e+00 2.727702e+00 2.838380e+00 2.395327e+00 4.810916e+00 3.858287e-01 4.220316e-01 4.201972e-01 4.978673e-01 5.893408e-01 5.364521e-01 5.819368e-01 6.696108e-01 5.900257e-01 5.098491e-01 5.209714e-01 4.405736e-01 6.276738e-01
<GCONST> 1.322162e+02
<TRANSP> 5
 0.000000e+00 1.000000e+00 0.000000e+00 0.000000e+00 0.000000e+00
 0.000000e+00 6.000000e-01 4.000000e-01 0.000000e+00 0.000000e+00
 0.000000e+00 0.000000e+00 6.000000e-01 4.000000e-01 0.000000e+00
 0.000000e+00 0.000000e+00 0.000000e+00 7.000000e-01 3.000000e-01
 0.000000e+00 0.000000e+00 0.000000e+00 0.000000e+00 0.000000e+00
<ENDHMM>
~h "s"
<BEGINHMM>
<NUMSTATES> 5
<STATE> 2
<MEAN> 39
 -6.178386e+00 -3.207608e+00 -1.136580e+00 -5.310746e+00 -7.659114e+00 -2.745061e+00 -8.776582e+00 -3.503671e+00 -3.924967e+00 -2.744921e+00 -2.425360e+00 -4.607111e+00 5.386576e+01 4.948035e-04 1.800555e-03 -2.261678e-04 -1.868584e-03 1.117366e-04 1.141029e-03 -1.201725e-04 -2.530584e-03 -1.235830e-04 6.019770e-04 -1.318748e-03 -2.185088e-03 3.516685e-04 6.517531e-05 1.917887e-04 1.228032e-04 9.168699e-05 9.114001e-05 2.231032e-04 6.291027e-05 -2.458276e-05 1.190640e-04 1.341063e-04 2.007098e-05 1.380872e-05 -2.152489e-05
<VARIANCE> 39
 6.846309e+01 6.131578e+01 7.395956e+01 6.497608e+01 7.155347e+01 6.272294e+01 6.607756e+01 7.074807e+01 6.145026e+01 4.306128e+01 4.683767e+01 4.184661e+01 2.357212e+02 2.540484e+00 2.715243e+00 2.704425e+00 2.966744e+00 3.343090e+00 3.050579e+00 3.221212e+00 3.805762e+00 3.369615e+00 2.727702e+00 2.838380e+00 2.395327e+00 4.810916e+00 3.858287e-01 4.220316e-01 4.201972e-01 4.978673e-01 5.893408e-01 5.364521e-01 5.819368e-01 6.696108e-01 5.900257e-01 5.098491e-01 5.209714e-01 4.405736e-01 6.276738e-01
<GCONST> 1.322162e+02
<STATE> 3
<MEAN> 39
 -6.178386e+00 -3.207608e+00 -1.136580e+00 -5.310746e+00 -7.659114e+00 -2.745061e+00 -8.776582e+00 -3.503671e+00 -3.924967e+00 -2.744921e+00 -2.425360e+00 -4.607111e+00 5.386576e+01 4.948035e-04 1.800555e-03 -2.261678e-04 -1.868584e-03 1.117366e-04 1.141029e-03 -1.201725e-04 -2.530584e-03 -1.235830e-04 6.019770e-04 -1.318748e-03 -2.185088e-03 3.516685e-04 6.517531e-05 1.917887e-04 1.228032e-04 9.168699e-05 9.114001e-05 2.231032e-04 6.291027e-05 -2.458276e-05 1.190640e-04 1.341063e-04 2.007098e-05 1.380872e-05 -2.152489e-05
<VARIANCE> 39
 6.846309e+01 6.131578e+01 7.395956e+01 6.497608e+01 7.155347e+01 6.272294e+01 6.607756e+01 7.074807e+01 6.145026e+01 4.306128e+01 4.683767e+01 4.184661e+01 2.357212e+02 2.540484e+00 2.715243e+00 2.704425e+00 2.966744e+00 3.343090e+00 3.050579e+00 3.221212e+00 3.805762e+00 3.369615e+00 2.727702e+00 2.838380e+00 2.395327e+00 4.810916e+00 3.858287e-01 4.220316e-01 4.201972e-01 4.978673e-01 5.893408e-01 5.364521e-01 5.819368e-01 6.696108e-01 5.900257e-01 5.098491e-01 5.209714e-01 4.405736e-01 6.276738e-01
<GCONST> 1.322162e+02
<STATE> 4
<MEAN> 39
 -6.178386e+00 -3.207608e+00 -1.136580e+00 -5.310746e+00 -7.659114e+00 -2.745061e+00 -8.776582e+00 -3.503671e+00 -3.924967e+00 -2.744921e+00 -2.425360e+00 -4.607111e+00 5.386576e+01 4.948035e-04 1.800555e-03 -2.261678e-04 -1.868584e-03 1.117366e-04 1.141029e-03 -1.201725e-04 -2.530584e-03 -1.235830e-04 6.019770e-04 -1.318748e-03 -2.185088e-03 3.516685e-04 6.517531e-05 1.917887e-04 1.228032e-04 9.168699e-05 9.114001e-05 2.231032e-04 6.291027e-05 -2.458276e-05 1.190640e-04 1.341063e-04 2.007098e-05 1.380872e-05 -2.152489e-05
<VARIANCE> 39
 6.846309e+01 6.131578e+01 7.395956e+01 6.497608e+01 7.155347e+01 6.272294e+01 6.607756e+01 7.074807e+01 6.145026e+01 4.306128e+01 4.683767e+01 4.184661e+01 2.357212e+02 2.540484e+00 2.715243e+00 2.704425e+00 2.966744e+00 3.343090e+00 3.050579e+00 3.221212e+00 3.805762e+00 3.369615e+00 2.727702e+00 2.838380e+00 2.395327e+00 4.810916e+00 3.858287e-01 4.220316e-01 4.201972e-01 4.978673e-01 5.893408e-01 5.364521e-01 5.819368e-01 6.696108e-01 5.900257e-01 5.098491e-01 5.209714e-01 4.405736e-01 6.276738e-01
<GCONST> 1.322162e+02
<TRANSP> 5
 0.000000e+00 1.000000e+00 0.000000e+00 0.000000e+00 0.000000e+00
 0.000000e+00 6.000000e-01 4.000000e-01 0.000000e+00 0.000000e+00
 0.000000e+00 0.000000e+00 6.000000e-01 4.000000e-01 0.000000e+00
 0.000000e+00 0.000000e+00 0.000000e+00 7.000000e-01 3.000000e-01
 0.000000e+00 0.000000e+00 0.000000e+00 0.000000e+00 0.000000e+00
<ENDHMM>
~h "o"
<BEGINHMM>
<NUMSTATES> 5
<STATE> 2
<MEAN> 39
 -6.178386e+00 -3.207608e+00 -1.136580e+00 -5.310746e+00 -7.659114e+00 -2.745061e+00 -8.776582e+00 -3.503671e+00 -3.924967e+00 -2.744921e+00 -2.425360e+00 -4.607111e+00 5.386576e+01 4.948035e-04 1.800555e-03 -2.261678e-04 -1.868584e-03 1.117366e-04 1.141029e-03 -1.201725e-04 -2.530584e-03 -1.235830e-04 6.019770e-04 -1.318748e-03 -2.185088e-03 3.516685e-04 6.517531e-05 1.917887e-04 1.228032e-04 9.168699e-05 9.114001e-05 2.231032e-04 6.291027e-05 -2.458276e-05 1.190640e-04 1.341063e-04 2.007098e-05 1.380872e-05 -2.152489e-05
<VARIANCE> 39
 6.846309e+01 6.131578e+01 7.395956e+01 6.497608e+01 7.155347e+01 6.272294e+01 6.607756e+01 7.074807e+01 6.145026e+01 4.306128e+01 4.683767e+01 4.184661e+01 2.357212e+02 2.540484e+00 2.715243e+00 2.704425e+00 2.966744e+00 3.343090e+00 3.050579e+00 3.221212e+00 3.805762e+00 3.369615e+00 2.727702e+00 2.838380e+00 2.395327e+00 4.810916e+00 3.858287e-01 4.220316e-01 4.201972e-01 4.978673e-01 5.893408e-01 5.364521e-01 5.819368e-01 6.696108e-01 5.900257e-01 5.098491e-01 5.209714e-01 4.405736e-01 6.276738e-01
<GCONST> 1.322162e+02
<STATE> 3
<MEAN> 39
 -6.178386e+00 -3.207608e+00 -1.136580e+00 -5.310746e+00 -7.659114e+00 -2.745061e+00 -8.776582e+00 -3.503671e+00 -3.924967e+00 -2.744921e+00 -2.425360e+00 -4.607111e+00 5.386576e+01 4.948035e-04 1.800555e-03 -2.261678e-04 -1.868584e-03 1.117366e-04 1.141029e-03 -1.201725e-04 -2.530584e-03 -1.235830e-04 6.019770e-04 -1.318748e-03 -2.185088e-03 3.516685e-04 6.517531e-05 1.917887e-04 1.228032e-04 9.168699e-05 9.114001e-05 2.231032e-04 6.291027e-05 -2.458276e-05 1.190640e-04 1.341063e-04 2.007098e-05 1.380872e-05 -2.152489e-05
<VARIANCE> 39
 6.846309e+01 6.131578e+01 7.395956e+01 6.497608e+01 7.155347e+01 6.272294e+01 6.607756e+01 7.074807e+01 6.145026e+01 4.306128e+01 4.683767e+01 4.184661e+01 2.357212e+02 2.540484e+00 2.715243e+00 2.704425e+00 2.966744e+00 3.343090e+00 3.050579e+00 3.221212e+00 3.805762e+00 3.369615e+00 2.727702e+00 2.838380e+00 2.395327e+00 4.810916e+00 3.858287e-01 4.220316e-01 4.201972e-01 4.978673e-01 5.893408e-01 5.364521e-01 5.819368e-01 6.696108e-01 5.900257e-01 5.098491e-01 5.209714e-01 4.405736e-01 6.276738e-01
<GCONST> 1.322162e+02
<STATE> 4
<MEAN> 39
 -6.178386e+00 -3.207608e+00 -1.136580e+00 -5.310746e+00 -7.659114e+00 -2.745061e+00 -8.776582e+00 -3.503671e+00 -3.924967e+00 -2.744921e+00 -2.425360e+00 -4.607111e+00 5.386576e+01 4.948035e-04 1.800555e-03 -2.261678e-04 -1.868584e-03 1.117366e-04 1.141029e-03 -1.201725e-04 -2.530584e-03 -1.235830e-04 6.019770e-04 -1.318748e-03 -2.185088e-03 3.516685e-04 6.517531e-05 1.917887e-04 1.228032e-04 9.168699e-05 9.114001e-05 2.231032e-04 6.291027e-05 -2.458276e-05 1.190640e-04 1.341063e-04 2.007098e-05 1.380872e-05 -2.152489e-05
<VARIANCE> 39
 6.846309e+01 6.131578e+01 7.395956e+01 6.497608e+01 7.155347e+01 6.272294e+01 6.607756e+01 7.074807e+01 6.145026e+01 4.306128e+01 4.683767e+01 4.184661e+01 2.357212e+02 2.540484e+00 2.715243e+00 2.704425e+00 2.966744e+00 3.343090e+00 3.050579e+00 3.221212e+00 3.805762e+00 3.369615e+00 2.727702e+00 2.838380e+00 2.395327e+00 4.810916e+00 3.858287e-01 4.220316e-01 4.201972e-01 4.978673e-01 5.893408e-01 5.364521e-01 5.819368e-01 6.696108e-01 5.900257e-01 5.098491e-01 5.209714e-01 4.405736e-01 6.276738e-01
<GCONST> 1.322162e+02
<TRANSP> 5
 0.000000e+00 1.000000e+00 0.000000e+00 0.000000e+00 0.000000e+00
 0.000000e+00 6.000000e-01 4.000000e-01 0.000000e+00 0.000000e+00
 0.000000e+00 0.000000e+00 6.000000e-01 4.000000e-01 0.000000e+00
 0.000000e+00 0.000000e+00 0.000000e+00 7.000000e-01 3.000000e-01
 0.000000e+00 0.000000e+00 0.000000e+00 0.000000e+00 0.000000e+00
<ENDHMM>
~h "g"
<BEGINHMM>
<NUMSTATES> 5
<STATE> 2
<MEAN> 39
 -6.178386e+00 -3.207608e+00 -1.136580e+00 -5.310746e+00 -7.659114e+00 -2.745061e+00 -8.776582e+00 -3.503671e+00 -3.924967e+00 -2.744921e+00 -2.425360e+00 -4.607111e+00 5.386576e+01 4.948035e-04 1.800555e-03 -2.261678e-04 -1.868584e-03 1.117366e-04 1.141029e-03 -1.201725e-04 -2.530584e-03 -1.235830e-04 6.019770e-04 -1.318748e-03 -2.185088e-03 3.516685e-04 6.517531e-05 1.917887e-04 1.228032e-04 9.168699e-05 9.114001e-05 2.231032e-04 6.291027e-05 -2.458276e-05 1.190640e-04 1.341063e-04 2.007098e-05 1.380872e-05 -2.152489e-05
<VARIANCE> 39
 6.846309e+01 6.131578e+01 7.395956e+01 6.497608e+01 7.155347e+01 6.272294e+01 6.607756e+01 7.074807e+01 6.145026e+01 4.306128e+01 4.683767e+01 4.184661e+01 2.357212e+02 2.540484e+00 2.715243e+00 2.704425e+00 2.966744e+00 3.343090e+00 3.050579e+00 3.221212e+00 3.805762e+00 3.369615e+00 2.727702e+00 2.838380e+00 2.395327e+00 4.810916e+00 3.858287e-01 4.220316e-01 4.201972e-01 4.978673e-01 5.893408e-01 5.364521e-01 5.819368e-01 6.696108e-01 5.900257e-01 5.098491e-01 5.209714e-01 4.405736e-01 6.276738e-01
<GCONST> 1.322162e+02
<STATE> 3
<MEAN> 39
 -6.178386e+00 -3.207608e+00 -1.136580e+00 -5.310746e+00 -7.659114e+00 -2.745061e+00 -8.776582e+00 -3.503671e+00 -3.924967e+00 -2.744921e+00 -2.425360e+00 -4.607111e+00 5.386576e+01 4.948035e-04 1.800555e-03 -2.261678e-04 -1.868584e-03 1.117366e-04 1.141029e-03 -1.201725e-04 -2.530584e-03 -1.235830e-04 6.019770e-04 -1.318748e-03 -2.185088e-03 3.516685e-04 6.517531e-05 1.917887e-04 1.228032e-04 9.168699e-05 9.114001e-05 2.231032e-04 6.291027e-05 -2.458276e-05 1.190640e-04 1.341063e-04 2.007098e-05 1.380872e-05 -2.152489e-05
<VARIANCE> 39
 6.846309e+01 6.131578e+01 7.395956e+01 6.497608e+01 7.155347e+01 6.272294e+01 6.607756e+01 7.074807e+01 6.145026e+01 4.306128e+01 4.683767e+01 4.184661e+01 2.357212e+02 2.540484e+00 2.715243e+00 2.704425e+00 2.966744e+00 3.343090e+00 3.050579e+00 3.221212e+00 3.805762e+00 3.369615e+00 2.727702e+00 2.838380e+00 2.395327e+00 4.810916e+00 3.858287e-01 4.220316e-01 4.201972e-01 4.978673e-01 5.893408e-01 5.364521e-01 5.819368e-01 6.696108e-01 5.900257e-01 5.098491e-01 5.209714e-01 4.405736e-01 6.276738e-01
<GCONST> 1.322162e+02
<STATE> 4
<MEAN> 39
 -6.178386e+00 -3.207608e+00 -1.136580e+00 -5.310746e+00 -7.659114e+00 -2.745061e+00 -8.776582e+00 -3.503671e+00 -3.924967e+00 -2.744921e+00 -2.425360e+00 -4.607111e+00 5.386576e+01 4.948035e-04 1.800555e-03 -2.261678e-04 -1.868584e-03 1.117366e-04 1.141029e-03 -1.201725e-04 -2.530584e-03 -1.235830e-04 6.019770e-04 -1.318748e-03 -2.185088e-03 3.516685e-04 6.517531e-05 1.917887e-04 1.228032e-04 9.168699e-05 9.114001e-05 2.231032e-04 6.291027e-05 -2.458276e-05 1.190640e-04 1.341063e-04 2.007098e-05 1.380872e-05 -2.152489e-05
<VARIANCE> 39
 6.846309e+01 6.131578e+01 7.395956e+01 6.497608e+01 7.155347e+01 6.272294e+01 6.607756e+01 7.074807e+01 6.145026e+01 4.306128e+01 4.683767e+01 4.184661e+01 2.357212e+02 2.540484e+00 2.715243e+00 2.704425e+00 2.966744e+00 3.343090e+00 3.050579e+00 3.221212e+00 3.805762e+00 3.369615e+00 2.727702e+00 2.838380e+00 2.395327e+00 4.810916e+00 3.858287e-01 4.220316e-01 4.201972e-01 4.978673e-01 5.893408e-01 5.364521e-01 5.819368e-01 6.696108e-01 5.900257e-01 5.098491e-01 5.209714e-01 4.405736e-01 6.276738e-01
<GCONST> 1.322162e+02
<TRANSP> 5
 0.000000e+00 1.000000e+00 0.000000e+00 0.000000e+00 0.000000e+00
 0.000000e+00 6.000000e-01 4.000000e-01 0.000000e+00 0.000000e+00
 0.000000e+00 0.000000e+00 6.000000e-01 4.000000e-01 0.000000e+00
 0.000000e+00 0.000000e+00 0.000000e+00 7.000000e-01 3.000000e-01
 0.000000e+00 0.000000e+00 0.000000e+00 0.000000e+00 0.000000e+00
<ENDHMM>
~h "i"
<BEGINHMM>
<NUMSTATES> 5
<STATE> 2
<MEAN> 39
 -6.178386e+00 -3.207608e+00 -1.136580e+00 -5.310746e+00 -7.659114e+00 -2.745061e+00 -8.776582e+00 -3.503671e+00 -3.924967e+00 -2.744921e+00 -2.425360e+00 -4.607111e+00 5.386576e+01 4.948035e-04 1.800555e-03 -2.261678e-04 -1.868584e-03 1.117366e-04 1.141029e-03 -1.201725e-04 -2.530584e-03 -1.235830e-04 6.019770e-04 -1.318748e-03 -2.185088e-03 3.516685e-04 6.517531e-05 1.917887e-04 1.228032e-04 9.168699e-05 9.114001e-05 2.231032e-04 6.291027e-05 -2.458276e-05 1.190640e-04 1.341063e-04 2.007098e-05 1.380872e-05 -2.152489e-05
<VARIANCE> 39
 6.846309e+01 6.131578e+01 7.395956e+01 6.497608e+01 7.155347e+01 6.272294e+01 6.607756e+01 7.074807e+01 6.145026e+01 4.306128e+01 4.683767e+01 4.184661e+01 2.357212e+02 2.540484e+00 2.715243e+00 2.704425e+00 2.966744e+00 3.343090e+00 3.050579e+00 3.221212e+00 3.805762e+00 3.369615e+00 2.727702e+00 2.838380e+00 2.395327e+00 4.810916e+00 3.858287e-01 4.220316e-01 4.201972e-01 4.978673e-01 5.893408e-01 5.364521e-01 5.819368e-01 6.696108e-01 5.900257e-01 5.098491e-01 5.209714e-01 4.405736e-01 6.276738e-01
<GCONST> 1.322162e+02
<STATE> 3
<MEAN> 39
 -6.178386e+00 -3.207608e+00 -1.136580e+00 -5.310746e+00 -7.659114e+00 -2.745061e+00 -8.776582e+00 -3.503671e+00 -3.924967e+00 -2.744921e+00 -2.425360e+00 -4.607111e+00 5.386576e+01 4.948035e-04 1.800555e-03 -2.261678e-04 -1.868584e-03 1.117366e-04 1.141029e-03 -1.201725e-04 -2.530584e-03 -1.235830e-04 6.019770e-04 -1.318748e-03 -2.185088e-03 3.516685e-04 6.517531e-05 1.917887e-04 1.228032e-04 9.168699e-05 9.114001e-05 2.231032e-04 6.291027e-05 -2.458276e-05 1.190640e-04 1.341063e-04 2.007098e-05 1.380872e-05 -2.152489e-05
<VARIANCE> 39
 6.846309e+01 6.131578e+01 7.395956e+01 6.497608e+01 7.155347e+01 6.272294e+01 6.607756e+01 7.074807e+01 6.145026e+01 4.306128e+01 4.683767e+01 4.184661e+01 2.357212e+02 2.540484e+00 2.715243e+00 2.704425e+00 2.966744e+00 3.343090e+00 3.050579e+00 3.221212e+00 3.805762e+00 3.369615e+00 2.727702e+00 2.838380e+00 2.395327e+00 4.810916e+00 3.858287e-01 4.220316e-01 4.201972e-01 4.978673e-01 5.893408e-01 5.364521e-01 5.819368e-01 6.696108e-01 5.900257e-01 5.098491e-01 5.209714e-01 4.405736e-01 6.276738e-01
<GCONST> 1.322162e+02
<STATE> 4
<MEAN> 39
 -6.178386e+00 -3.207608e+00 -1.136580e+00 -5.310746e+00 -7.659114e+00 -2.745061e+00 -8.776582e+00 -3.503671e+00 -3.924967e+00 -2.744921e+00 -2.425360e+00 -4.607111e+00 5.386576e+01 4.948035e-04 1.800555e-03 -2.261678e-04 -1.868584e-03 1.117366e-04 1.141029e-03 -1.201725e-04 -2.530584e-03 -1.235830e-04 6.019770e-04 -1.318748e-03 -2.185088e-03 3.516685e-04 6.517531e-05 1.917887e-04 1.228032e-04 9.168699e-05 9.114001e-05 2.231032e-04 6.291027e-05 -2.458276e-05 1.190640e-04 1.341063e-04 2.007098e-05 1.380872e-05 -2.152489e-05
<VARIANCE> 39
 6.846309e+01 6.131578e+01 7.395956e+01 6.497608e+01 7.155347e+01 6.272294e+01 6.607756e+01 7.074807e+01 6.145026e+01 4.306128e+01 4.683767e+01 4.184661e+01 2.357212e+02 2.540484e+00 2.715243e+00 2.704425e+00 2.966744e+00 3.343090e+00 3.050579e+00 3.221212e+00 3.805762e+00 3.369615e+00 2.727702e+00 2.838380e+00 2.395327e+00 4.810916e+00 3.858287e-01 4.220316e-01 4.201972e-01 4.978673e-01 5.893408e-01 5.364521e-01 5.819368e-01 6.696108e-01 5.900257e-01 5.098491e-01 5.209714e-01 4.405736e-01 6.276738e-01
<GCONST> 1.322162e+02
<TRANSP> 5
 0.000000e+00 1.000000e+00 0.000000e+00 0.000000e+00 0.000000e+00
 0.000000e+00 6.000000e-01 4.000000e-01 0.000000e+00 0.000000e+00
 0.000000e+00 0.000000e+00 6.000000e-01 4.000000e-01 0.000000e+00
 0.000000e+00 0.000000e+00 0.000000e+00 7.000000e-01 3.000000e-01
 0.000000e+00 0.000000e+00 0.000000e+00 0.000000e+00 0.000000e+00
<ENDHMM>
~h "ny"
<BEGINHMM>
<NUMSTATES> 5
<STATE> 2
<MEAN> 39
 -6.178386e+00 -3.207608e+00 -1.136580e+00 -5.310746e+00 -7.659114e+00 -2.745061e+00 -8.776582e+00 -3.503671e+00 -3.924967e+00 -2.744921e+00 -2.425360e+00 -4.607111e+00 5.386576e+01 4.948035e-04 1.800555e-03 -2.261678e-04 -1.868584e-03 1.117366e-04 1.141029e-03 -1.201725e-04 -2.530584e-03 -1.235830e-04 6.019770e-04 -1.318748e-03 -2.185088e-03 3.516685e-04 6.517531e-05 1.917887e-04 1.228032e-04 9.168699e-05 9.114001e-05 2.231032e-04 6.291027e-05 -2.458276e-05 1.190640e-04 1.341063e-04 2.007098e-05 1.380872e-05 -2.152489e-05
<VARIANCE> 39
 6.846309e+01 6.131578e+01 7.395956e+01 6.497608e+01 7.155347e+01 6.272294e+01 6.607756e+01 7.074807e+01 6.145026e+01 4.306128e+01 4.683767e+01 4.184661e+01 2.357212e+02 2.540484e+00 2.715243e+00 2.704425e+00 2.966744e+00 3.343090e+00 3.050579e+00 3.221212e+00 3.805762e+00 3.369615e+00 2.727702e+00 2.838380e+00 2.395327e+00 4.810916e+00 3.858287e-01 4.220316e-01 4.201972e-01 4.978673e-01 5.893408e-01 5.364521e-01 5.819368e-01 6.696108e-01 5.900257e-01 5.098491e-01 5.209714e-01 4.405736e-01 6.276738e-01
<GCONST> 1.322162e+02
<STATE> 3
<MEAN> 39
 -6.178386e+00 -3.207608e+00 -1.136580e+00 -5.310746e+00 -7.659114e+00 -2.745061e+00 -8.776582e+00 -3.503671e+00 -3.924967e+00 -2.744921e+00 -2.425360e+00 -4.607111e+00 5.386576e+01 4.948035e-04 1.800555e-03 -2.261678e-04 -1.868584e-03 1.117366e-04 1.141029e-03 -1.201725e-04 -2.530584e-03 -1.235830e-04 6.019770e-04 -1.318748e-03 -2.185088e-03 3.516685e-04 6.517531e-05 1.917887e-04 1.228032e-04 9.168699e-05 9.114001e-05 2.231032e-04 6.291027e-05 -2.458276e-05 1.190640e-04 1.341063e-04 2.007098e-05 1.380872e-05 -2.152489e-05
<VARIANCE> 39
 6.846309e+01 6.131578e+01 7.395956e+01 6.497608e+01 7.155347e+01 6.272294e+01 6.607756e+01 7.074807e+01 6.145026e+01 4.306128e+01 4.683767e+01 4.184661e+01 2.357212e+02 2.540484e+00 2.715243e+00 2.704425e+00 2.966744e+00 3.343090e+00 3.050579e+00 3.221212e+00 3.805762e+00 3.369615e+00 2.727702e+00 2.838380e+00 2.395327e+00 4.810916e+00 3.858287e-01 4.220316e-01 4.201972e-01 4.978673e-01 5.893408e-01 5.364521e-01 5.819368e-01 6.696108e-01 5.900257e-01 5.098491e-01 5.209714e-01 4.405736e-01 6.276738e-01
<GCONST> 1.322162e+02
<STATE> 4
<MEAN> 39
 -6.178386e+00 -3.207608e+00 -1.136580e+00 -5.310746e+00 -7.659114e+00 -2.745061e+00 -8.776582e+00 -3.503671e+00 -3.924967e+00 -2.744921e+00 -2.425360e+00 -4.607111e+00 5.386576e+01 4.948035e-04 1.800555e-03 -2.261678e-04 -1.868584e-03 1.117366e-04 1.141029e-03 -1.201725e-04 -2.530584e-03 -1.235830e-04 6.019770e-04 -1.318748e-03 -2.185088e-03 3.516685e-04 6.517531e-05 1.917887e-04 1.228032e-04 9.168699e-05 9.114001e-05 2.231032e-04 6.291027e-05 -2.458276e-05 1.190640e-04 1.341063e-04 2.007098e-05 1.380872e-05 -2.152489e-05
<VARIANCE> 39
 6.846309e+01 6.131578e+01 7.395956e+01 6.497608e+01 7.155347e+01 6.272294e+01 6.607756e+01 7.074807e+01 6.145026e+01 4.306128e+01 4.683767e+01 4.184661e+01 2.357212e+02 2.540484e+00 2.715243e+00 2.704425e+00 2.966744e+00 3.343090e+00 3.050579e+00 3.221212e+00 3.805762e+00 3.369615e+00 2.727702e+00 2.838380e+00 2.395327e+00 4.810916e+00 3.858287e-01 4.220316e-01 4.201972e-01 4.978673e-01 5.893408e-01 5.364521e-01 5.819368e-01 6.696108e-01 5.900257e-01 5.098491e-01 5.209714e-01 4.405736e-01 6.276738e-01
<GCONST> 1.322162e+02
<TRANSP> 5
 0.000000e+00 1.000000e+00 0.000000e+00 0.000000e+00 0.000000e+00
 0.000000e+00 6.000000e-01 4.000000e-01 0.000000e+00 0.000000e+00
 0.000000e+00 0.000000e+00 6.000000e-01 4.000000e-01 0.000000e+00
 0.000000e+00 0.000000e+00 0.000000e+00 7.000000e-01 3.000000e-01
 0.000000e+00 0.000000e+00 0.000000e+00 0.000000e+00 0.000000e+00
<ENDHMM>
~h "t"
<BEGINHMM>
<NUMSTATES> 5
<STATE> 2
<MEAN> 39
 -6.178386e+00 -3.207608e+00 -1.136580e+00 -5.310746e+00 -7.659114e+00 -2.745061e+00 -8.776582e+00 -3.503671e+00 -3.924967e+00 -2.744921e+00 -2.425360e+00 -4.607111e+00 5.386576e+01 4.948035e-04 1.800555e-03 -2.261678e-04 -1.868584e-03 1.117366e-04 1.141029e-03 -1.201725e-04 -2.530584e-03 -1.235830e-04 6.019770e-04 -1.318748e-03 -2.185088e-03 3.516685e-04 6.517531e-05 1.917887e-04 1.228032e-04 9.168699e-05 9.114001e-05 2.231032e-04 6.291027e-05 -2.458276e-05 1.190640e-04 1.341063e-04 2.007098e-05 1.380872e-05 -2.152489e-05
<VARIANCE> 39
 6.846309e+01 6.131578e+01 7.395956e+01 6.497608e+01 7.155347e+01 6.272294e+01 6.607756e+01 7.074807e+01 6.145026e+01 4.306128e+01 4.683767e+01 4.184661e+01 2.357212e+02 2.540484e+00 2.715243e+00 2.704425e+00 2.966744e+00 3.343090e+00 3.050579e+00 3.221212e+00 3.805762e+00 3.369615e+00 2.727702e+00 2.838380e+00 2.395327e+00 4.810916e+00 3.858287e-01 4.220316e-01 4.201972e-01 4.978673e-01 5.893408e-01 5.364521e-01 5.819368e-01 6.696108e-01 5.900257e-01 5.098491e-01 5.209714e-01 4.405736e-01 6.276738e-01
<GCONST> 1.322162e+02
<STATE> 3
<MEAN> 39
 -6.178386e+00 -3.207608e+00 -1.136580e+00 -5.310746e+00 -7.659114e+00 -2.745061e+00 -8.776582e+00 -3.503671e+00 -3.924967e+00 -2.744921e+00 -2.425360e+00 -4.607111e+00 5.386576e+01 4.948035e-04 1.800555e-03 -2.261678e-04 -1.868584e-03 1.117366e-04 1.141029e-03 -1.201725e-04 -2.530584e-03 -1.235830e-04 6.019770e-04 -1.318748e-03 -2.185088e-03 3.516685e-04 6.517531e-05 1.917887e-04 1.228032e-04 9.168699e-05 9.114001e-05 2.231032e-04 6.291027e-05 -2.458276e-05 1.190640e-04 1.341063e-04 2.007098e-05 1.380872e-05 -2.152489e-05
<VARIANCE> 39
 6.846309e+01 6.131578e+01 7.395956e+01 6.497608e+01 7.155347e+01 6.272294e+01 6.607756e+01 7.074807e+01 6.145026e+01 4.306128e+01 4.683767e+01 4.184661e+01 2.357212e+02 2.540484e+00 2.715243e+00 2.704425e+00 2.966744e+00 3.343090e+00 3.050579e+00 3.221212e+00 3.805762e+00 3.369615e+00 2.727702e+00 2.838380e+00 2.395327e+00 4.810916e+00 3.858287e-01 4.220316e-01 4.201972e-01 4.978673e-01 5.893408e-01 5.364521e-01 5.819368e-01 6.696108e-01 5.900257e-01 5.098491e-01 5.209714e-01 4.405736e-01 6.276738e-01
<GCONST> 1.322162e+02
<STATE> 4
<MEAN> 39
 -6.178386e+00 -3.207608e+00 -1.136580e+00 -5.310746e+00 -7.659114e+00 -2.745061e+00 -8.776582e+00 -3.503671e+00 -3.924967e+00 -2.744921e+00 -2.425360e+00 -4.607111e+00 5.386576e+01 4.948035e-04 1.800555e-03 -2.261678e-04 -1.868584e-03 1.117366e-04 1.141029e-03 -1.201725e-04 -2.530584e-03 -1.235830e-04 6.019770e-04 -1.318748e-03 -2.185088e-03 3.516685e-04 6.517531e-05 1.917887e-04 1.228032e-04 9.168699e-05 9.114001e-05 2.231032e-04 6.291027e-05 -2.458276e-05 1.190640e-04 1.341063e-04 2.007098e-05 1.380872e-05 -2.152489e-05
<VARIANCE> 39
 6.846309e+01 6.131578e+01 7.395956e+01 6.497608e+01 7.155347e+01 6.272294e+01 6.607756e+01 7.074807e+01 6.145026e+01 4.306128e+01 4.683767e+01 4.184661e+01 2.357212e+02 2.540484e+00 2.715243e+00 2.704425e+00 2.966744e+00 3.343090e+00 3.050579e+00 3.221212e+00 3.805762e+00 3.369615e+00 2.727702e+00 2.838380e+00 2.395327e+00 4.810916e+00 3.858287e-01 4.220316e-01 4.201972e-01 4.978673e-01 5.893408e-01 5.364521e-01 5.819368e-01 6.696108e-01 5.900257e-01 5.098491e-01 5.209714e-01 4.405736e-01 6.276738e-01
<GCONST> 1.322162e+02
<TRANSP> 5
 0.000000e+00 1.000000e+00 0.000000e+00 0.000000e+00 0.000000e+00
 0.000000e+00 6.000000e-01 4.000000e-01 0.000000e+00 0.000000e+00
 0.000000e+00 0.000000e+00 6.000000e-01 4.000000e-01 0.000000e+00
 0.000000e+00 0.000000e+00 0.000000e+00 7.000000e-01 3.000000e-01
 0.000000e+00 0.000000e+00 0.000000e+00 0.000000e+00 0.000000e+00
<ENDHMM>
~h "z"
<BEGINHMM>
<NUMSTATES> 5
<STATE> 2
<MEAN> 39
 -6.178386e+00 -3.207608e+00 -1.136580e+00 -5.310746e+00 -7.659114e+00 -2.745061e+00 -8.776582e+00 -3.503671e+00 -3.924967e+00 -2.744921e+00 -2.425360e+00 -4.607111e+00 5.386576e+01 4.948035e-04 1.800555e-03 -2.261678e-04 -1.868584e-03 1.117366e-04 1.141029e-03 -1.201725e-04 -2.530584e-03 -1.235830e-04 6.019770e-04 -1.318748e-03 -2.185088e-03 3.516685e-04 6.517531e-05 1.917887e-04 1.228032e-04 9.168699e-05 9.114001e-05 2.231032e-04 6.291027e-05 -2.458276e-05 1.190640e-04 1.341063e-04 2.007098e-05 1.380872e-05 -2.152489e-05
<VARIANCE> 39
 6.846309e+01 6.131578e+01 7.395956e+01 6.497608e+01 7.155347e+01 6.272294e+01 6.607756e+01 7.074807e+01 6.145026e+01 4.306128e+01 4.683767e+01 4.184661e+01 2.357212e+02 2.540484e+00 2.715243e+00 2.704425e+00 2.966744e+00 3.343090e+00 3.050579e+00 3.221212e+00 3.805762e+00 3.369615e+00 2.727702e+00 2.838380e+00 2.395327e+00 4.810916e+00 3.858287e-01 4.220316e-01 4.201972e-01 4.978673e-01 5.893408e-01 5.364521e-01 5.819368e-01 6.696108e-01 5.900257e-01 5.098491e-01 5.209714e-01 4.405736e-01 6.276738e-01
<GCONST> 1.322162e+02
<STATE> 3
<MEAN> 39
 -6.178386e+00 -3.207608e+00 -1.136580e+00 -5.310746e+00 -7.659114e+00 -2.745061e+00 -8.776582e+00 -3.503671e+00 -3.924967e+00 -2.744921e+00 -2.425360e+00 -4.607111e+00 5.386576e+01 4.948035e-04 1.800555e-03 -2.261678e-04 -1.868584e-03 1.117366e-04 1.141029e-03 -1.201725e-04 -2.530584e-03 -1.235830e-04 6.019770e-04 -1.318748e-03 -2.185088e-03 3.516685e-04 6.517531e-05 1.917887e-04 1.228032e-04 9.168699e-05 9.114001e-05 2.231032e-04 6.291027e-05 -2.458276e-05 1.190640e-04 1.341063e-04 2.007098e-05 1.380872e-05 -2.152489e-05
<VARIANCE> 39
 6.846309e+01 6.131578e+01 7.395956e+01 6.497608e+01 7.155347e+01 6.272294e+01 6.607756e+01 7.074807e+01 6.145026e+01 4.306128e+01 4.683767e+01 4.184661e+01 2.357212e+02 2.540484e+00 2.715243e+00 2.704425e+00 2.966744e+00 3.343090e+00 3.050579e+00 3.221212e+00 3.805762e+00 3.369615e+00 2.727702e+00 2.838380e+00 2.395327e+00 4.810916e+00 3.858287e-01 4.220316e-01 4.201972e-01 4.978673e-01 5.893408e-01 5.364521e-01 5.819368e-01 6.696108e-01 5.900257e-01 5.098491e-01 5.209714e-01 4.405736e-01 6.276738e-01
<GCONST> 1.322162e+02
<STATE> 4
<MEAN> 39
 -6.178386e+00 -3.207608e+00 -1.136580e+00 -5.310746e+00 -7.659114e+00 -2.745061e+00 -8.776582e+00 -3.503671e+00 -3.924967e+00 -2.744921e+00 -2.425360e+00 -4.607111e+00 5.386576e+01 4.948035e-04 1.800555e-03 -2.261678e-04 -1.868584e-03 1.117366e-04 1.141029e-03 -1.201725e-04 -2.530584e-03 -1.235830e-04 6.019770e-04 -1.318748e-03 -2.185088e-03 3.516685e-04 6.517531e-05 1.917887e-04 1.228032e-04 9.168699e-05 9.114001e-05 2.231032e-04 6.291027e-05 -2.458276e-05 1.190640e-04 1.341063e-04 2.007098e-05 1.380872e-05 -2.152489e-05
<VARIANCE> 39
 6.846309e+01 6.131578e+01 7.395956e+01 6.497608e+01 7.155347e+01 6.272294e+01 6.607756e+01 7.074807e+01 6.145026e+01 4.306128e+01 4.683767e+01 4.184661e+01 2.357212e+02 2.540484e+00 2.715243e+00 2.704425e+00 2.966744e+00 3.343090e+00 3.050579e+00 3.221212e+00 3.805762e+00 3.369615e+00 2.727702e+00 2.838380e+00 2.395327e+00 4.810916e+00 3.858287e-01 4.220316e-01 4.201972e-01 4.978673e-01 5.893408e-01 5.364521e-01 5.819368e-01 6.696108e-01 5.900257e-01 5.098491e-01 5.209714e-01 4.405736e-01 6.276738e-01
<GCONST> 1.322162e+02
<TRANSP> 5
 0.000000e+00 1.000000e+00 0.000000e+00 0.000000e+00 0.000000e+00
 0.000000e+00 6.000000e-01 4.000000e-01 0.000000e+00 0.000000e+00
 0.000000e+00 0.000000e+00 6.000000e-01 4.000000e-01 0.000000e+00
 0.000000e+00 0.000000e+00 0.000000e+00 7.000000e-01 3.000000e-01
 0.000000e+00 0.000000e+00 0.000000e+00 0.000000e+00 0.000000e+00
<ENDHMM>
~h "c"
<BEGINHMM>
<NUMSTATES> 5
<STATE> 2
<MEAN> 39
 -6.178386e+00 -3.207608e+00 -1.136580e+00 -5.310746e+00 -7.659114e+00 -2.745061e+00 -8.776582e+00 -3.503671e+00 -3.924967e+00 -2.744921e+00 -2.425360e+00 -4.607111e+00 5.386576e+01 4.948035e-04 1.800555e-03 -2.261678e-04 -1.868584e-03 1.117366e-04 1.141029e-03 -1.201725e-04 -2.530584e-03 -1.235830e-04 6.019770e-04 -1.318748e-03 -2.185088e-03 3.516685e-04 6.517531e-05 1.917887e-04 1.228032e-04 9.168699e-05 9.114001e-05 2.231032e-04 6.291027e-05 -2.458276e-05 1.190640e-04 1.341063e-04 2.007098e-05 1.380872e-05 -2.152489e-05
<VARIANCE> 39
 6.846309e+01 6.131578e+01 7.395956e+01 6.497608e+01 7.155347e+01 6.272294e+01 6.607756e+01 7.074807e+01 6.145026e+01 4.306128e+01 4.683767e+01 4.184661e+01 2.357212e+02 2.540484e+00 2.715243e+00 2.704425e+00 2.966744e+00 3.343090e+00 3.050579e+00 3.221212e+00 3.805762e+00 3.369615e+00 2.727702e+00 2.838380e+00 2.395327e+00 4.810916e+00 3.858287e-01 4.220316e-01 4.201972e-01 4.978673e-01 5.893408e-01 5.364521e-01 5.819368e-01 6.696108e-01 5.900257e-01 5.098491e-01 5.209714e-01 4.405736e-01 6.276738e-01
<GCONST> 1.322162e+02
<STATE> 3
<MEAN> 39
 -6.178386e+00 -3.207608e+00 -1.136580e+00 -5.310746e+00 -7.659114e+00 -2.745061e+00 -8.776582e+00 -3.503671e+00 -3.924967e+00 -2.744921e+00 -2.425360e+00 -4.607111e+00 5.386576e+01 4.948035e-04 1.800555e-03 -2.261678e-04 -1.868584e-03 1.117366e-04 1.141029e-03 -1.201725e-04 -2.530584e-03 -1.235830e-04 6.019770e-04 -1.318748e-03 -2.185088e-03 3.516685e-04 6.517531e-05 1.917887e-04 1.228032e-04 9.168699e-05 9.114001e-05 2.231032e-04 6.291027e-05 -2.458276e-05 1.190640e-04 1.341063e-04 2.007098e-05 1.380872e-05 -2.152489e-05
<VARIANCE> 39
 6.846309e+01 6.131578e+01 7.395956e+01 6.497608e+01 7.155347e+01 6.272294e+01 6.607756e+01 7.074807e+01 6.145026e+01 4.306128e+01 4.683767e+01 4.184661e+01 2.357212e+02 2.540484e+00 2.715243e+00 2.704425e+00 2.966744e+00 3.343090e+00 3.050579e+00 3.221212e+00 3.805762e+00 3.369615e+00 2.727702e+00 2.838380e+00 2.395327e+00 4.810916e+00 3.858287e-01 4.220316e-01 4.201972e-01 4.978673e-01 5.893408e-01 5.364521e-01 5.819368e-01 6.696108e-01 5.900257e-01 5.098491e-01 5.209714e-01 4.405736e-01 6.276738e-01
<GCONST> 1.322162e+02
<STATE> 4
<MEAN> 39
 -6.178386e+00 -3.207608e+00 -1.136580e+00 -5.310746e+00 -7.659114e+00 -2.745061e+00 -8.776582e+00 -3.503671e+00 -3.924967e+00 -2.744921e+00 -2.425360e+00 -4.607111e+00 5.386576e+01 4.948035e-04 1.800555e-03 -2.261678e-04 -1.868584e-03 1.117366e-04 1.141029e-03 -1.201725e-04 -2.530584e-03 -1.235830e-04 6.019770e-04 -1.318748e-03 -2.185088e-03 3.516685e-04 6.517531e-05 1.917887e-04 1.228032e-04 9.168699e-05 9.114001e-05 2.231032e-04 6.291027e-05 -2.458276e-05 1.190640e-04 1.341063e-04 2.007098e-05 1.380872e-05 -2.152489e-05
<VARIANCE> 39
 6.846309e+01 6.131578e+01 7.395956e+01 6.497608e+01 7.155347e+01 6.272294e+01 6.607756e+01 7.074807e+01 6.145026e+01 4.306128e+01 4.683767e+01 4.184661e+01 2.357212e+02 2.540484e+00 2.715243e+00 2.704425e+00 2.966744e+00 3.343090e+00 3.050579e+00 3.221212e+00 3.805762e+00 3.369615e+00 2.727702e+00 2.838380e+00 2.395327e+00 4.810916e+00 3.858287e-01 4.220316e-01 4.201972e-01 4.978673e-01 5.893408e-01 5.364521e-01 5.819368e-01 6.696108e-01 5.900257e-01 5.098491e-01 5.209714e-01 4.405736e-01 6.276738e-01
<GCONST> 1.322162e+02
<TRANSP> 5
 0.000000e+00 1.000000e+00 0.000000e+00 0.000000e+00 0.000000e+00
 0.000000e+00 6.000000e-01 4.000000e-01 0.000000e+00 0.000000e+00
 0.000000e+00 0.000000e+00 6.000000e-01 4.000000e-01 0.000000e+00
 0.000000e+00 0.000000e+00 0.000000e+00 7.000000e-01 3.000000e-01
 0.000000e+00 0.000000e+00 0.000000e+00 0.000000e+00 0.000000e+00
<ENDHMM>
~h "w"
<BEGINHMM>
<NUMSTATES> 5
<STATE> 2
<MEAN> 39
 -6.178386e+00 -3.207608e+00 -1.136580e+00 -5.310746e+00 -7.659114e+00 -2.745061e+00 -8.776582e+00 -3.503671e+00 -3.924967e+00 -2.744921e+00 -2.425360e+00 -4.607111e+00 5.386576e+01 4.948035e-04 1.800555e-03 -2.261678e-04 -1.868584e-03 1.117366e-04 1.141029e-03 -1.201725e-04 -2.530584e-03 -1.235830e-04 6.019770e-04 -1.318748e-03 -2.185088e-03 3.516685e-04 6.517531e-05 1.917887e-04 1.228032e-04 9.168699e-05 9.114001e-05 2.231032e-04 6.291027e-05 -2.458276e-05 1.190640e-04 1.341063e-04 2.007098e-05 1.380872e-05 -2.152489e-05
<VARIANCE> 39
 6.846309e+01 6.131578e+01 7.395956e+01 6.497608e+01 7.155347e+01 6.272294e+01 6.607756e+01 7.074807e+01 6.145026e+01 4.306128e+01 4.683767e+01 4.184661e+01 2.357212e+02 2.540484e+00 2.715243e+00 2.704425e+00 2.966744e+00 3.343090e+00 3.050579e+00 3.221212e+00 3.805762e+00 3.369615e+00 2.727702e+00 2.838380e+00 2.395327e+00 4.810916e+00 3.858287e-01 4.220316e-01 4.201972e-01 4.978673e-01 5.893408e-01 5.364521e-01 5.819368e-01 6.696108e-01 5.900257e-01 5.098491e-01 5.209714e-01 4.405736e-01 6.276738e-01
<GCONST> 1.322162e+02
<STATE> 3
<MEAN> 39
 -6.178386e+00 -3.207608e+00 -1.136580e+00 -5.310746e+00 -7.659114e+00 -2.745061e+00 -8.776582e+00 -3.503671e+00 -3.924967e+00 -2.744921e+00 -2.425360e+00 -4.607111e+00 5.386576e+01 4.948035e-04 1.800555e-03 -2.261678e-04 -1.868584e-03 1.117366e-04 1.141029e-03 -1.201725e-04 -2.530584e-03 -1.235830e-04 6.019770e-04 -1.318748e-03 -2.185088e-03 3.516685e-04 6.517531e-05 1.917887e-04 1.228032e-04 9.168699e-05 9.114001e-05 2.231032e-04 6.291027e-05 -2.458276e-05 1.190640e-04 1.341063e-04 2.007098e-05 1.380872e-05 -2.152489e-05
<VARIANCE> 39
 6.846309e+01 6.131578e+01 7.395956e+01 6.497608e+01 7.155347e+01 6.272294e+01 6.607756e+01 7.074807e+01 6.145026e+01 4.306128e+01 4.683767e+01 4.184661e+01 2.357212e+02 2.540484e+00 2.715243e+00 2.704425e+00 2.966744e+00 3.343090e+00 3.050579e+00 3.221212e+00 3.805762e+00 3.369615e+00 2.727702e+00 2.838380e+00 2.395327e+00 4.810916e+00 3.858287e-01 4.220316e-01 4.201972e-01 4.978673e-01 5.893408e-01 5.364521e-01 5.819368e-01 6.696108e-01 5.900257e-01 5.098491e-01 5.209714e-01 4.405736e-01 6.276738e-01
<GCONST> 1.322162e+02
<STATE> 4
<MEAN> 39
 -6.178386e+00 -3.207608e+00 -1.136580e+00 -5.310746e+00 -7.659114e+00 -2.745061e+00 -8.776582e+00 -3.503671e+00 -3.924967e+00 -2.744921e+00 -2.425360e+00 -4.607111e+00 5.386576e+01 4.948035e-04 1.800555e-03 -2.261678e-04 -1.868584e-03 1.117366e-04 1.141029e-03 -1.201725e-04 -2.530584e-03 -1.235830e-04 6.019770e-04 -1.318748e-03 -2.185088e-03 3.516685e-04 6.517531e-05 1.917887e-04 1.228032e-04 9.168699e-05 9.114001e-05 2.231032e-04 6.291027e-05 -2.458276e-05 1.190640e-04 1.341063e-04 2.007098e-05 1.380872e-05 -2.152489e-05
<VARIANCE> 39
 6.846309e+01 6.131578e+01 7.395956e+01 6.497608e+01 7.155347e+01 6.272294e+01 6.607756e+01 7.074807e+01 6.145026e+01 4.306128e+01 4.683767e+01 4.184661e+01 2.357212e+02 2.540484e+00 2.715243e+00 2.704425e+00 2.966744e+00 3.343090e+00 3.050579e+00 3.221212e+00 3.805762e+00 3.369615e+00 2.727702e+00 2.838380e+00 2.395327e+00 4.810916e+00 3.858287e-01 4.220316e-01 4.201972e-01 4.978673e-01 5.893408e-01 5.364521e-01 5.819368e-01 6.696108e-01 5.900257e-01 5.098491e-01 5.209714e-01 4.405736e-01 6.276738e-01
<GCONST> 1.322162e+02
<TRANSP> 5
 0.000000e+00 1.000000e+00 0.000000e+00 0.000000e+00 0.000000e+00
 0.000000e+00 6.000000e-01 4.000000e-01 0.000000e+00 0.000000e+00
 0.000000e+00 0.000000e+00 6.000000e-01 4.000000e-01 0.000000e+00
 0.000000e+00 0.000000e+00 0.000000e+00 7.000000e-01 3.000000e-01
 0.000000e+00 0.000000e+00 0.000000e+00 0.000000e+00 0.000000e+00
<ENDHMM>
~h "y"
<BEGINHMM>
<NUMSTATES> 5
<STATE> 2
<MEAN> 39
 -6.178386e+00 -3.207608e+00 -1.136580e+00 -5.310746e+00 -7.659114e+00 -2.745061e+00 -8.776582e+00 -3.503671e+00 -3.924967e+00 -2.744921e+00 -2.425360e+00 -4.607111e+00 5.386576e+01 4.948035e-04 1.800555e-03 -2.261678e-04 -1.868584e-03 1.117366e-04 1.141029e-03 -1.201725e-04 -2.530584e-03 -1.235830e-04 6.019770e-04 -1.318748e-03 -2.185088e-03 3.516685e-04 6.517531e-05 1.917887e-04 1.228032e-04 9.168699e-05 9.114001e-05 2.231032e-04 6.291027e-05 -2.458276e-05 1.190640e-04 1.341063e-04 2.007098e-05 1.380872e-05 -2.152489e-05
<VARIANCE> 39
 6.846309e+01 6.131578e+01 7.395956e+01 6.497608e+01 7.155347e+01 6.272294e+01 6.607756e+01 7.074807e+01 6.145026e+01 4.306128e+01 4.683767e+01 4.184661e+01 2.357212e+02 2.540484e+00 2.715243e+00 2.704425e+00 2.966744e+00 3.343090e+00 3.050579e+00 3.221212e+00 3.805762e+00 3.369615e+00 2.727702e+00 2.838380e+00 2.395327e+00 4.810916e+00 3.858287e-01 4.220316e-01 4.201972e-01 4.978673e-01 5.893408e-01 5.364521e-01 5.819368e-01 6.696108e-01 5.900257e-01 5.098491e-01 5.209714e-01 4.405736e-01 6.276738e-01
<GCONST> 1.322162e+02
<STATE> 3
<MEAN> 39
 -6.178386e+00 -3.207608e+00 -1.136580e+00 -5.310746e+00 -7.659114e+00 -2.745061e+00 -8.776582e+00 -3.503671e+00 -3.924967e+00 -2.744921e+00 -2.425360e+00 -4.607111e+00 5.386576e+01 4.948035e-04 1.800555e-03 -2.261678e-04 -1.868584e-03 1.117366e-04 1.141029e-03 -1.201725e-04 -2.530584e-03 -1.235830e-04 6.019770e-04 -1.318748e-03 -2.185088e-03 3.516685e-04 6.517531e-05 1.917887e-04 1.228032e-04 9.168699e-05 9.114001e-05 2.231032e-04 6.291027e-05 -2.458276e-05 1.190640e-04 1.341063e-04 2.007098e-05 1.380872e-05 -2.152489e-05
<VARIANCE> 39
 6.846309e+01 6.131578e+01 7.395956e+01 6.497608e+01 7.155347e+01 6.272294e+01 6.607756e+01 7.074807e+01 6.145026e+01 4.306128e+01 4.683767e+01 4.184661e+01 2.357212e+02 2.540484e+00 2.715243e+00 2.704425e+00 2.966744e+00 3.343090e+00 3.050579e+00 3.221212e+00 3.805762e+00 3.369615e+00 2.727702e+00 2.838380e+00 2.395327e+00 4.810916e+00 3.858287e-01 4.220316e-01 4.201972e-01 4.978673e-01 5.893408e-01 5.364521e-01 5.819368e-01 6.696108e-01 5.900257e-01 5.098491e-01 5.209714e-01 4.405736e-01 6.276738e-01
<GCONST> 1.322162e+02
<STATE> 4
<MEAN> 39
 -6.178386e+00 -3.207608e+00 -1.136580e+00 -5.310746e+00 -7.659114e+00 -2.745061e+00 -8.776582e+00 -3.503671e+00 -3.924967e+00 -2.744921e+00 -2.425360e+00 -4.607111e+00 5.386576e+01 4.948035e-04 1.800555e-03 -2.261678e-04 -1.868584e-03 1.117366e-04 1.141029e-03 -1.201725e-04 -2.530584e-03 -1.235830e-04 6.019770e-04 -1.318748e-03 -2.185088e-03 3.516685e-04 6.517531e-05 1.917887e-04 1.228032e-04 9.168699e-05 9.114001e-05 2.231032e-04 6.291027e-05 -2.458276e-05 1.190640e-04 1.341063e-04 2.007098e-05 1.380872e-05 -2.152489e-05
<VARIANCE> 39
 6.846309e+01 6.131578e+01 7.395956e+01 6.497608e+01 7.155347e+01 6.272294e+01 6.607756e+01 7.074807e+01 6.145026e+01 4.306128e+01 4.683767e+01 4.184661e+01 2.357212e+02 2.540484e+00 2.715243e+00 2.704425e+00 2.966744e+00 3.343090e+00 3.050579e+00 3.221212e+00 3.805762e+00 3.369615e+00 2.727702e+00 2.838380e+00 2.395327e+00 4.810916e+00 3.858287e-01 4.220316e-01 4.201972e-01 4.978673e-01 5.893408e-01 5.364521e-01 5.819368e-01 6.696108e-01 5.900257e-01 5.098491e-01 5.209714e-01 4.405736e-01 6.276738e-01
<GCONST> 1.322162e+02
<TRANSP> 5
 0.000000e+00 1.000000e+00 0.000000e+00 0.000000e+00 0.000000e+00
 0.000000e+00 6.000000e-01 4.000000e-01 0.000000e+00 0.000000e+00
 0.000000e+00 0.000000e+00 6.000000e-01 4.000000e-01 0.000000e+00
 0.000000e+00 0.000000e+00 0.000000e+00 7.000000e-01 3.000000e-01
 0.000000e+00 0.000000e+00 0.000000e+00 0.000000e+00 0.000000e+00
<ENDHMM>
~h "n"
<BEGINHMM>
<NUMSTATES> 5
<STATE> 2
<MEAN> 39
 -6.178386e+00 -3.207608e+00 -1.136580e+00 -5.310746e+00 -7.659114e+00 -2.745061e+00 -8.776582e+00 -3.503671e+00 -3.924967e+00 -2.744921e+00 -2.425360e+00 -4.607111e+00 5.386576e+01 4.948035e-04 1.800555e-03 -2.261678e-04 -1.868584e-03 1.117366e-04 1.141029e-03 -1.201725e-04 -2.530584e-03 -1.235830e-04 6.019770e-04 -1.318748e-03 -2.185088e-03 3.516685e-04 6.517531e-05 1.917887e-04 1.228032e-04 9.168699e-05 9.114001e-05 2.231032e-04 6.291027e-05 -2.458276e-05 1.190640e-04 1.341063e-04 2.007098e-05 1.380872e-05 -2.152489e-05
<VARIANCE> 39
 6.846309e+01 6.131578e+01 7.395956e+01 6.497608e+01 7.155347e+01 6.272294e+01 6.607756e+01 7.074807e+01 6.145026e+01 4.306128e+01 4.683767e+01 4.184661e+01 2.357212e+02 2.540484e+00 2.715243e+00 2.704425e+00 2.966744e+00 3.343090e+00 3.050579e+00 3.221212e+00 3.805762e+00 3.369615e+00 2.727702e+00 2.838380e+00 2.395327e+00 4.810916e+00 3.858287e-01 4.220316e-01 4.201972e-01 4.978673e-01 5.893408e-01 5.364521e-01 5.819368e-01 6.696108e-01 5.900257e-01 5.098491e-01 5.209714e-01 4.405736e-01 6.276738e-01
<GCONST> 1.322162e+02
<STATE> 3
<MEAN> 39
 -6.178386e+00 -3.207608e+00 -1.136580e+00 -5.310746e+00 -7.659114e+00 -2.745061e+00 -8.776582e+00 -3.503671e+00 -3.924967e+00 -2.744921e+00 -2.425360e+00 -4.607111e+00 5.386576e+01 4.948035e-04 1.800555e-03 -2.261678e-04 -1.868584e-03 1.117366e-04 1.141029e-03 -1.201725e-04 -2.530584e-03 -1.235830e-04 6.019770e-04 -1.318748e-03 -2.185088e-03 3.516685e-04 6.517531e-05 1.917887e-04 1.228032e-04 9.168699e-05 9.114001e-05 2.231032e-04 6.291027e-05 -2.458276e-05 1.190640e-04 1.341063e-04 2.007098e-05 1.380872e-05 -2.152489e-05
<VARIANCE> 39
 6.846309e+01 6.131578e+01 7.395956e+01 6.497608e+01 7.155347e+01 6.272294e+01 6.607756e+01 7.074807e+01 6.145026e+01 4.306128e+01 4.683767e+01 4.184661e+01 2.357212e+02 2.540484e+00 2.715243e+00 2.704425e+00 2.966744e+00 3.343090e+00 3.050579e+00 3.221212e+00 3.805762e+00 3.369615e+00 2.727702e+00 2.838380e+00 2.395327e+00 4.810916e+00 3.858287e-01 4.220316e-01 4.201972e-01 4.978673e-01 5.893408e-01 5.364521e-01 5.819368e-01 6.696108e-01 5.900257e-01 5.098491e-01 5.209714e-01 4.405736e-01 6.276738e-01
<GCONST> 1.322162e+02
<STATE> 4
<MEAN> 39
 -6.178386e+00 -3.207608e+00 -1.136580e+00 -5.310746e+00 -7.659114e+00 -2.745061e+00 -8.776582e+00 -3.503671e+00 -3.924967e+00 -2.744921e+00 -2.425360e+00 -4.607111e+00 5.386576e+01 4.948035e-04 1.800555e-03 -2.261678e-04 -1.868584e-03 1.117366e-04 1.141029e-03 -1.201725e-04 -2.530584e-03 -1.235830e-04 6.019770e-04 -1.318748e-03 -2.185088e-03 3.516685e-04 6.517531e-05 1.917887e-04 1.228032e-04 9.168699e-05 9.114001e-05 2.231032e-04 6.291027e-05 -2.458276e-05 1.190640e-04 1.341063e-04 2.007098e-05 1.380872e-05 -2.152489e-05
<VARIANCE> 39
 6.846309e+01 6.131578e+01 7.395956e+01 6.497608e+01 7.155347e+01 6.272294e+01 6.607756e+01 7.074807e+01 6.145026e+01 4.306128e+01 4.683767e+01 4.184661e+01 2.357212e+02 2.540484e+00 2.715243e+00 2.704425e+00 2.966744e+00 3.343090e+00 3.050579e+00 3.221212e+00 3.805762e+00 3.369615e+00 2.727702e+00 2.838380e+00 2.395327e+00 4.810916e+00 3.858287e-01 4.220316e-01 4.201972e-01 4.978673e-01 5.893408e-01 5.364521e-01 5.819368e-01 6.696108e-01 5.900257e-01 5.098491e-01 5.209714e-01 4.405736e-01 6.276738e-01
<GCONST> 1.322162e+02
<TRANSP> 5
 0.000000e+00 1.000000e+00 0.000000e+00 0.000000e+00 0.000000e+00
 0.000000e+00 6.000000e-01 4.000000e-01 0.000000e+00 0.000000e+00
 0.000000e+00 0.000000e+00 6.000000e-01 4.000000e-01 0.000000e+00
 0.000000e+00 0.000000e+00 0.000000e+00 7.000000e-01 3.000000e-01
 0.000000e+00 0.000000e+00 0.000000e+00 0.000000e+00 0.000000e+00
<ENDHMM>
~h "j"
<BEGINHMM>
<NUMSTATES> 5
<STATE> 2
<MEAN> 39
 -6.178386e+00 -3.207608e+00 -1.136580e+00 -5.310746e+00 -7.659114e+00 -2.745061e+00 -8.776582e+00 -3.503671e+00 -3.924967e+00 -2.744921e+00 -2.425360e+00 -4.607111e+00 5.386576e+01 4.948035e-04 1.800555e-03 -2.261678e-04 -1.868584e-03 1.117366e-04 1.141029e-03 -1.201725e-04 -2.530584e-03 -1.235830e-04 6.019770e-04 -1.318748e-03 -2.185088e-03 3.516685e-04 6.517531e-05 1.917887e-04 1.228032e-04 9.168699e-05 9.114001e-05 2.231032e-04 6.291027e-05 -2.458276e-05 1.190640e-04 1.341063e-04 2.007098e-05 1.380872e-05 -2.152489e-05
<VARIANCE> 39
 6.846309e+01 6.131578e+01 7.395956e+01 6.497608e+01 7.155347e+01 6.272294e+01 6.607756e+01 7.074807e+01 6.145026e+01 4.306128e+01 4.683767e+01 4.184661e+01 2.357212e+02 2.540484e+00 2.715243e+00 2.704425e+00 2.966744e+00 3.343090e+00 3.050579e+00 3.221212e+00 3.805762e+00 3.369615e+00 2.727702e+00 2.838380e+00 2.395327e+00 4.810916e+00 3.858287e-01 4.220316e-01 4.201972e-01 4.978673e-01 5.893408e-01 5.364521e-01 5.819368e-01 6.696108e-01 5.900257e-01 5.098491e-01 5.209714e-01 4.405736e-01 6.276738e-01
<GCONST> 1.322162e+02
<STATE> 3
<MEAN> 39
 -6.178386e+00 -3.207608e+00 -1.136580e+00 -5.310746e+00 -7.659114e+00 -2.745061e+00 -8.776582e+00 -3.503671e+00 -3.924967e+00 -2.744921e+00 -2.425360e+00 -4.607111e+00 5.386576e+01 4.948035e-04 1.800555e-03 -2.261678e-04 -1.868584e-03 1.117366e-04 1.141029e-03 -1.201725e-04 -2.530584e-03 -1.235830e-04 6.019770e-04 -1.318748e-03 -2.185088e-03 3.516685e-04 6.517531e-05 1.917887e-04 1.228032e-04 9.168699e-05 9.114001e-05 2.231032e-04 6.291027e-05 -2.458276e-05 1.190640e-04 1.341063e-04 2.007098e-05 1.380872e-05 -2.152489e-05
<VARIANCE> 39
 6.846309e+01 6.131578e+01 7.395956e+01 6.497608e+01 7.155347e+01 6.272294e+01 6.607756e+01 7.074807e+01 6.145026e+01 4.306128e+01 4.683767e+01 4.184661e+01 2.357212e+02 2.540484e+00 2.715243e+00 2.704425e+00 2.966744e+00 3.343090e+00 3.050579e+00 3.221212e+00 3.805762e+00 3.369615e+00 2.727702e+00 2.838380e+00 2.395327e+00 4.810916e+00 3.858287e-01 4.220316e-01 4.201972e-01 4.978673e-01 5.893408e-01 5.364521e-01 5.819368e-01 6.696108e-01 5.900257e-01 5.098491e-01 5.209714e-01 4.405736e-01 6.276738e-01
<GCONST> 1.322162e+02
<STATE> 4
<MEAN> 39
 -6.178386e+00 -3.207608e+00 -1.136580e+00 -5.310746e+00 -7.659114e+00 -2.745061e+00 -8.776582e+00 -3.503671e+00 -3.924967e+00 -2.744921e+00 -2.425360e+00 -4.607111e+00 5.386576e+01 4.948035e-04 1.800555e-03 -2.261678e-04 -1.868584e-03 1.117366e-04 1.141029e-03 -1.201725e-04 -2.530584e-03 -1.235830e-04 6.019770e-04 -1.318748e-03 -2.185088e-03 3.516685e-04 6.517531e-05 1.917887e-04 1.228032e-04 9.168699e-05 9.114001e-05 2.231032e-04 6.291027e-05 -2.458276e-05 1.190640e-04 1.341063e-04 2.007098e-05 1.380872e-05 -2.152489e-05
<VARIANCE> 39
 6.846309e+01 6.131578e+01 7.395956e+01 6.497608e+01 7.155347e+01 6.272294e+01 6.607756e+01 7.074807e+01 6.145026e+01 4.306128e+01 4.683767e+01 4.184661e+01 2.357212e+02 2.540484e+00 2.715243e+00 2.704425e+00 2.966744e+00 3.343090e+00 3.050579e+00 3.221212e+00 3.805762e+00 3.369615e+00 2.727702e+00 2.838380e+00 2.395327e+00 4.810916e+00 3.858287e-01 4.220316e-01 4.201972e-01 4.978673e-01 5.893408e-01 5.364521e-01 5.819368e-01 6.696108e-01 5.900257e-01 5.098491e-01 5.209714e-01 4.405736e-01 6.276738e-01
<GCONST> 1.322162e+02
<TRANSP> 5
 0.000000e+00 1.000000e+00 0.000000e+00 0.000000e+00 0.000000e+00
 0.000000e+00 6.000000e-01 4.000000e-01 0.000000e+00 0.000000e+00
 0.000000e+00 0.000000e+00 6.000000e-01 4.000000e-01 0.000000e+00
 0.000000e+00 0.000000e+00 0.000000e+00 7.000000e-01 3.000000e-01
 0.000000e+00 0.000000e+00 0.000000e+00 0.000000e+00 0.000000e+00
<ENDHMM>
~h "f"
<BEGINHMM>
<NUMSTATES> 5
<STATE> 2
<MEAN> 39
 -6.178386e+00 -3.207608e+00 -1.136580e+00 -5.310746e+00 -7.659114e+00 -2.745061e+00 -8.776582e+00 -3.503671e+00 -3.924967e+00 -2.744921e+00 -2.425360e+00 -4.607111e+00 5.386576e+01 4.948035e-04 1.800555e-03 -2.261678e-04 -1.868584e-03 1.117366e-04 1.141029e-03 -1.201725e-04 -2.530584e-03 -1.235830e-04 6.019770e-04 -1.318748e-03 -2.185088e-03 3.516685e-04 6.517531e-05 1.917887e-04 1.228032e-04 9.168699e-05 9.114001e-05 2.231032e-04 6.291027e-05 -2.458276e-05 1.190640e-04 1.341063e-04 2.007098e-05 1.380872e-05 -2.152489e-05
<VARIANCE> 39
 6.846309e+01 6.131578e+01 7.395956e+01 6.497608e+01 7.155347e+01 6.272294e+01 6.607756e+01 7.074807e+01 6.145026e+01 4.306128e+01 4.683767e+01 4.184661e+01 2.357212e+02 2.540484e+00 2.715243e+00 2.704425e+00 2.966744e+00 3.343090e+00 3.050579e+00 3.221212e+00 3.805762e+00 3.369615e+00 2.727702e+00 2.838380e+00 2.395327e+00 4.810916e+00 3.858287e-01 4.220316e-01 4.201972e-01 4.978673e-01 5.893408e-01 5.364521e-01 5.819368e-01 6.696108e-01 5.900257e-01 5.098491e-01 5.209714e-01 4.405736e-01 6.276738e-01
<GCONST> 1.322162e+02
<STATE> 3
<MEAN> 39
 -6.178386e+00 -3.207608e+00 -1.136580e+00 -5.310746e+00 -7.659114e+00 -2.745061e+00 -8.776582e+00 -3.503671e+00 -3.924967e+00 -2.744921e+00 -2.425360e+00 -4.607111e+00 5.386576e+01 4.948035e-04 1.800555e-03 -2.261678e-04 -1.868584e-03 1.117366e-04 1.141029e-03 -1.201725e-04 -2.530584e-03 -1.235830e-04 6.019770e-04 -1.318748e-03 -2.185088e-03 3.516685e-04 6.517531e-05 1.917887e-04 1.228032e-04 9.168699e-05 9.114001e-05 2.231032e-04 6.291027e-05 -2.458276e-05 1.190640e-04 1.341063e-04 2.007098e-05 1.380872e-05 -2.152489e-05
<VARIANCE> 39
 6.846309e+01 6.131578e+01 7.395956e+01 6.497608e+01 7.155347e+01 6.272294e+01 6.607756e+01 7.074807e+01 6.145026e+01 4.306128e+01 4.683767e+01 4.184661e+01 2.357212e+02 2.540484e+00 2.715243e+00 2.704425e+00 2.966744e+00 3.343090e+00 3.050579e+00 3.221212e+00 3.805762e+00 3.369615e+00 2.727702e+00 2.838380e+00 2.395327e+00 4.810916e+00 3.858287e-01 4.220316e-01 4.201972e-01 4.978673e-01 5.893408e-01 5.364521e-01 5.819368e-01 6.696108e-01 5.900257e-01 5.098491e-01 5.209714e-01 4.405736e-01 6.276738e-01
<GCONST> 1.322162e+02
<STATE> 4
<MEAN> 39
 -6.178386e+00 -3.207608e+00 -1.136580e+00 -5.310746e+00 -7.659114e+00 -2.745061e+00 -8.776582e+00 -3.503671e+00 -3.924967e+00 -2.744921e+00 -2.425360e+00 -4.607111e+00 5.386576e+01 4.948035e-04 1.800555e-03 -2.261678e-04 -1.868584e-03 1.117366e-04 1.141029e-03 -1.201725e-04 -2.530584e-03 -1.235830e-04 6.019770e-04 -1.318748e-03 -2.185088e-03 3.516685e-04 6.517531e-05 1.917887e-04 1.228032e-04 9.168699e-05 9.114001e-05 2.231032e-04 6.291027e-05 -2.458276e-05 1.190640e-04 1.341063e-04 2.007098e-05 1.380872e-05 -2.152489e-05
<VARIANCE> 39
 6.846309e+01 6.131578e+01 7.395956e+01 6.497608e+01 7.155347e+01 6.272294e+01 6.607756e+01 7.074807e+01 6.145026e+01 4.306128e+01 4.683767e+01 4.184661e+01 2.357212e+02 2.540484e+00 2.715243e+00 2.704425e+00 2.966744e+00 3.343090e+00 3.050579e+00 3.221212e+00 3.805762e+00 3.369615e+00 2.727702e+00 2.838380e+00 2.395327e+00 4.810916e+00 3.858287e-01 4.220316e-01 4.201972e-01 4.978673e-01 5.893408e-01 5.364521e-01 5.819368e-01 6.696108e-01 5.900257e-01 5.098491e-01 5.209714e-01 4.405736e-01 6.276738e-01
<GCONST> 1.322162e+02
<TRANSP> 5
 0.000000e+00 1.000000e+00 0.000000e+00 0.000000e+00 0.000000e+00
 0.000000e+00 6.000000e-01 4.000000e-01 0.000000e+00 0.000000e+00
 0.000000e+00 0.000000e+00 6.000000e-01 4.000000e-01 0.000000e+00
 0.000000e+00 0.000000e+00 0.000000e+00 7.000000e-01 3.000000e-01
 0.000000e+00 0.000000e+00 0.000000e+00 0.000000e+00 0.000000e+00
<ENDHMM>
~h "kh"
<BEGINHMM>
<NUMSTATES> 5
<STATE> 2
<MEAN> 39
 -6.178386e+00 -3.207608e+00 -1.136580e+00 -5.310746e+00 -7.659114e+00 -2.745061e+00 -8.776582e+00 -3.503671e+00 -3.924967e+00 -2.744921e+00 -2.425360e+00 -4.607111e+00 5.386576e+01 4.948035e-04 1.800555e-03 -2.261678e-04 -1.868584e-03 1.117366e-04 1.141029e-03 -1.201725e-04 -2.530584e-03 -1.235830e-04 6.019770e-04 -1.318748e-03 -2.185088e-03 3.516685e-04 6.517531e-05 1.917887e-04 1.228032e-04 9.168699e-05 9.114001e-05 2.231032e-04 6.291027e-05 -2.458276e-05 1.190640e-04 1.341063e-04 2.007098e-05 1.380872e-05 -2.152489e-05
<VARIANCE> 39
 6.846309e+01 6.131578e+01 7.395956e+01 6.497608e+01 7.155347e+01 6.272294e+01 6.607756e+01 7.074807e+01 6.145026e+01 4.306128e+01 4.683767e+01 4.184661e+01 2.357212e+02 2.540484e+00 2.715243e+00 2.704425e+00 2.966744e+00 3.343090e+00 3.050579e+00 3.221212e+00 3.805762e+00 3.369615e+00 2.727702e+00 2.838380e+00 2.395327e+00 4.810916e+00 3.858287e-01 4.220316e-01 4.201972e-01 4.978673e-01 5.893408e-01 5.364521e-01 5.819368e-01 6.696108e-01 5.900257e-01 5.098491e-01 5.209714e-01 4.405736e-01 6.276738e-01
<GCONST> 1.322162e+02
<STATE> 3
<MEAN> 39
