~o
<STREAMINFO> 1 39
<VECSIZE> 39<NULLD><MFCC_D_A_0><DIAGC>
~s "silst"
<MEAN> 39
 -1.160389e+01 -2.137594e+00 -3.241771e+00 -2.399741e+00 -3.992301e+00 -3.589378e+00 -5.276107e+00 -3.145051e+00 -4.349698e+00 -3.742469e+00 -3.241096e+00 -1.940528e+00 3.860835e+01 -1.294745e-01 -1.941087e-02 -4.895287e-03 3.268211e-02 -2.150638e-02 -3.520861e-02 2.997109e-02 2.898274e-02 -2.245130e-02 -1.119762e-02 5.286784e-02 5.945867e-02 -1.462674e-01 6.219030e-02 1.916720e-02 2.964168e-02 -2.200132e-02 -4.631947e-03 1.477000e-02 -2.383149e-02 -1.198321e-02 -9.429752e-04 6.137805e-03 7.727562e-03 -2.763064e-02 9.792833e-02
<VARIANCE> 39
 2.224825e+01 3.320934e+01 3.037579e+01 3.399066e+01 2.936204e+01 3.435927e+01 3.406970e+01 4.283456e+01 3.246677e+01 3.311803e+01 2.879406e+01 2.411306e+01 4.900521e+01 1.450179e+00 2.235425e+00 2.012632e+00 2.324270e+00 2.342613e+00 2.550511e+00 2.470597e+00 2.992983e+00 2.503689e+00 2.518743e+00 2.209932e+00 1.997354e+00 2.338489e+00 2.563240e-01 3.987396e-01 3.641636e-01 4.482051e-01 4.615911e-01 4.851511e-01 4.911862e-01 5.743741e-01 4.959628e-01 4.942909e-01 4.307802e-01 3.905909e-01 4.020711e-01
<GCONST> 1.165681e+02
~h "@"
<BEGINHMM>
<NUMSTATES> 5
<STATE> 2
<MEAN> 39
 -3.338483e+00 -1.166478e+01 3.599080e+00 -7.487652e+00 -1.811317e+01 -9.454860e+00 -1.004556e+01 4.911063e+00 -4.167570e+00 -2.793689e+00 -2.570124e-01 -5.913368e+00 6.716808e+01 3.466324e-01 -1.417846e+00 1.071337e+00 -1.039640e+00 -2.028132e+00 -3.337491e-01 7.207318e-01 1.871924e+00 -3.795085e-01 -2.489826e-01 6.214443e-01 -1.726817e-01 2.392468e+00 -2.703442e-01 5.274558e-01 -1.141915e-01 9.655097e-02 4.298162e-01 2.877378e-01 2.968168e-01 -5.924623e-01 -1.191970e-01 1.315435e-01 -5.582720e-03 4.188515e-02 -6.378357e-01
<VARIANCE> 39
 2.654433e+01 4.792614e+01 6.482787e+01 4.623352e+01 5.972047e+01 5.487202e+01 7.268078e+01 7.684505e+01 6.944706e+01 5.264056e+01 5.924634e+01 3.698843e+01 1.156357e+02 3.342702e+00 3.857142e+00 3.362598e+00 3.265587e+00 4.885383e+00 3.917457e+00 5.200773e+00 6.221123e+00 5.263339e+00 4.428198e+00 4.032223e+00 3.021526e+00 7.197005e+00 6.096061e-01 6.680698e-01 5.086112e-01 5.433096e-01 8.985325e-01 6.431838e-01 8.368933e-01 1.049930e+00 9.022582e-01 6.695762e-01 7.155798e-01 5.092170e-01 1.500061e+00
<GCONST> 1.392342e+02
<STATE> 3
<MEAN> 39
 -3.926868e+00 -1.193866e+01 7.394673e+00 -9.900688e+00 -2.254638e+01 -9.516950e+00 -7.907982e+00 4.908702e+00 -6.164669e+00 -2.007098e+00 2.598671e+00 -6.106617e+00 7.247184e+01 1.961135e-03 1.948261e-01 -1.063041e-02 1.147725e-02 1.557958e-01 -1.899593e-03 1.547246e-01 -1.413869e-01 -9.723808e-02 7.156105e-02 -1.189966e-01 -6.838182e-02 -1.434231e-01 6.634175e-02 1.811102e-01 -1.320343e-01 2.174132e-01 3.300980e-01 -1.874490e-02 -1.696849e-01 -2.103379e-01 5.628064e-02 5.647925e-04 -1.656767e-01 7.172681e-03 -3.161771e-01
<VARIANCE> 39
 1.204263e+01 3.365183e+01 6.384881e+01 3.778510e+01 4.005040e+01 5.113700e+01 6.208831e+01 8.127222e+01 6.298693e+01 5.263301e+01 5.184787e+01 3.638330e+01 1.955660e+01 3.504550e-01 7.541215e-01 1.043654e+00 9.636292e-01 1.191398e+00 1.148880e+00 1.610119e+00 1.554856e+00 1.570909e+00 1.311381e+00 1.346549e+00 9.198956e-01 6.384026e-01 8.577119e-02 1.573964e-01 1.576619e-01 1.789604e-01 2.594369e-01 2.281917e-01 3.244400e-01 3.512363e-01 2.795653e-01 2.725646e-01 2.411802e-01 1.830012e-01 1.476674e-01
<GCONST> 1.001583e+02
<STATE> 4
<MEAN> 39
 -3.618032e+00 -6.707053e+00 5.309287e+00 -5.726294e+00 -1.823277e+01 -1.063404e+01 -7.102359e+00 1.665962e+00 -5.477483e+00 -1.699167e+00 1.863612e-01 -5.502704e+00 6.115958e+01 4.869075e-02 1.047251e+00 -4.819474e-01 8.390242e-01 1.184781e+00 1.933503e-01 -4.118338e-03 -8.099814e-01 2.078748e-01 -5.391298e-02 -5.465338e-01 3.859201e-02 -2.112319e+00 -8.734081e-02 1.124029e-01 -3.259225e-02 2.694100e-02 1.421766e-01 1.689820e-01 2.111571e-02 -1.495261e-01 1.817140e-02 3.029003e-02 -5.480387e-03 1.897649e-02 -1.537123e-01
<VARIANCE> 39
 2.287175e+01 4.763452e+01 6.306513e+01 4.162278e+01 5.496226e+01 6.026625e+01 6.578770e+01 7.633315e+01 6.573544e+01 5.217816e+01 5.549076e+01 3.560804e+01 1.460239e+02 1.323882e+00 1.990524e+00 1.802388e+00 2.085697e+00 3.009813e+00 2.596317e+00 3.634839e+00 3.067794e+00 3.033311e+00 2.651033e+00 2.507800e+00 2.017608e+00 3.233899e+00 2.237503e-01 3.988286e-01 3.180200e-01 3.923340e-01 5.380691e-01 4.813309e-01 5.853158e-01 6.822757e-01 6.092802e-01 4.996333e-01 4.660168e-01 3.533784e-01 5.878577e-01
<GCONST> 1.252326e+02
<TRANSP> 5
 0.000000e+00 1.000000e+00 0.000000e+00 0.000000e+00 0.000000e+00
 0.000000e+00 6.656982e-01 3.343018e-01 0.000000e+00 0.000000e+00
 0.000000e+00 0.000000e+00 8.407671e-01 1.592329e-01 0.000000e+00
 0.000000e+00 0.000000e+00 0.000000e+00 7.247981e-01 2.752019e-01
 0.000000e+00 0.000000e+00 0.000000e+00 0.000000e+00 0.000000e+00
<ENDHMM>
~h "a"
<BEGINHMM>
<NUMSTATES> 5
<STATE> 2
<MEAN> 39
 -9.701098e-01 -1.293864e+01 -6.209328e+00 -1.213622e+01 -8.507792e+00 6.410564e-03 -1.181566e+01 1.375261e+00 1.549620e+00 -2.801535e+00 -4.737740e+00 -1.028971e+01 7.121053e+01 4.675655e-01 -1.952703e+00 -1.120272e+00 -7.989482e-01 8.684037e-01 1.215068e+00 3.237320e-01 1.027138e+00 9.422954e-01 -8.568127e-01 -1.079682e+00 -1.264028e+00 1.772117e+00 -3.824901e-01 4.873303e-01 2.959871e-01 5.237649e-01 2.638173e-01 -2.249318e-01 1.886701e-01 -4.672391e-01 -4.211490e-01 -5.390296e-02 1.644226e-02 4.312747e-01 -7.466839e-01
<VARIANCE> 39
 1.794896e+01 3.524409e+01 5.152029e+01 5.083855e+01 6.679850e+01 8.363061e+01 6.172355e+01 9.134235e+01 6.316331e+01 5.495770e+01 5.846177e+01 4.097159e+01 5.423624e+01 2.424396e+00 2.294593e+00 2.962092e+00 3.278062e+00 3.909112e+00 4.154634e+00 4.109198e+00 5.322063e+00 4.272292e+00 3.523478e+00 3.928607e+00 3.272323e+00 3.610173e+00 4.513174e-01 4.881174e-01 4.825429e-01 5.583316e-01 7.162291e-01 7.379037e-01 6.950035e-01 9.046009e-01 7.005644e-01 6.250576e-01 7.422526e-01 5.527105e-01 7.181541e-01
<GCONST> 1.336271e+02
<STATE> 3
<MEAN> 39
 -1.564898e+00 -1.572333e+01 -8.256735e+00 -1.212507e+01 -5.717583e+00 1.902475e+00 -1.029998e+01 9.576810e-01 1.961642e+00 -5.461243e+00 -6.779542e+00 -1.151586e+01 7.368635e+01 5.338905e-02 8.544515e-02 1.060675e-02 1.552565e-01 2.340327e-01 -1.404555e-01 5.225963e-02 1.140482e-02 -1.290422e-01 -2.967135e-02 -1.735243e-01 6.601765e-03 -2.196726e-01 6.927487e-02 4.499421e-01 2.744345e-01 1.433141e-01 -2.369052e-01 -2.637899e-01 -1.573053e-01 -1.515548e-01 -1.529974e-01 2.598507e-01 2.386077e-01 1.963210e-01 -4.018496e-01
<VARIANCE> 39
 1.318018e+01 2.665397e+01 4.506851e+01 4.077647e+01 4.915654e+01 6.470060e+01 5.729299e+01 8.108852e+01 5.734567e+01 4.935190e+01 4.564651e+01 3.931456e+01 1.938267e+01 3.833005e-01 8.698338e-01 1.040047e+00 1.114929e+00 1.913290e+00 2.217214e+00 1.791181e+00 2.289328e+00 1.658337e+00 1.815788e+00 1.875850e+00 1.522469e+00 4.769551e-01 8.516315e-02 1.876744e-01 1.742551e-01 2.262083e-01 2.774113e-01 2.986677e-01 3.371516e-01 4.429436e-01 3.655967e-01 3.143074e-01 3.488286e-01 3.042717e-01 1.401983e-01
<GCONST> 1.051526e+02
<STATE> 4
<MEAN> 39
 -4.629183e-01 -1.092195e+01 -6.324431e+00 -1.008515e+01 -5.631991e+00 -1.248277e+00 -1.078548e+01 1.102314e+00 8.628847e-01 -3.182034e+00 -6.568607e+00 -9.982978e+00 6.587643e+01 1.399315e-01 1.706149e+00 7.518257e-01 1.143221e+00 -1.036215e-01 -6.377907e-01 -7.861589e-02 -7.062237e-01 -5.125713e-01 3.759553e-01 2.575670e-01 5.641137e-01 -2.522830e+00 -1.207918e-01 2.307826e-01 1.360658e-01 2.453673e-01 3.383890e-02 5.818748e-02 1.573745e-01 -2.896654e-01 -1.286852e-01 -7.770422e-02 -2.350093e-02 1.100396e-01 -3.756938e-01
<VARIANCE> 39
 1.672700e+01 3.471941e+01 4.774757e+01 5.209819e+01 6.490675e+01 7.287391e+01 6.111185e+01 7.576254e+01 6.084230e+01 6.195463e+01 5.935956e+01 4.403791e+01 8.387325e+01 1.199768e+00 2.176834e+00 2.140063e+00 2.588562e+00 3.035578e+00 3.193996e+00 3.274266e+00 3.633309e+00 3.380193e+00 3.177130e+00 3.194222e+00 2.485780e+00 2.823543e+00 2.118841e-01 4.390990e-01 3.637848e-01 4.962090e-01 5.544449e-01 5.576648e-01 5.824240e-01 7.475554e-01 5.999117e-01 5.986412e-01 6.142434e-01 4.738279e-01 5.717886e-01
<GCONST> 1.272896e+02
<TRANSP> 5
 0.000000e+00 1.000000e+00 0.000000e+00 0.000000e+00 0.000000e+00
 0.000000e+00 5.716842e-01 4.283158e-01 0.000000e+00 0.000000e+00
 0.000000e+00 0.000000e+00 7.804338e-01 2.195662e-01 0.000000e+00
 0.000000e+00 0.000000e+00 0.000000e+00 6.492398e-01 3.507602e-01
 0.000000e+00 0.000000e+00 0.000000e+00 0.000000e+00 0.000000e+00
<ENDHMM>
~h "b"
<BEGINHMM>
<NUMSTATES> 5
<STATE> 2
<MEAN> 39
 4.609695e+00 5.920502e+00 3.701775e+00 -2.363248e+00 -6.508973e+00 1.799268e+00 -7.956007e+00 -9.645270e+00 -8.781657e+00 -2.866073e+00 -2.519837e+00 -7.124399e+00 4.940443e+01 6.478399e-01 1.447306e+00 4.844261e-01 4.173000e-01 4.755515e-01 2.348600e-01 8.523741e-01 -2.960528e-01 -2.595049e-01 -1.605188e-01 -3.624991e-01 -1.073797e-01 -1.139465e+00 -4.018762e-01 -5.558946e-01 -2.473199e-01 -3.262755e-01 -1.876501e-01 -2.534224e-01 -3.358299e-01 2.069723e-01 2.124123e-01 5.814486e-02 2.070453e-01 1.764353e-01 7.922239e-01
<VARIANCE> 39
 2.632401e+01 3.243324e+01 2.729657e+01 3.336067e+01 3.580518e+01 3.943618e+01 4.187473e+01 4.228944e+01 5.754961e+01 3.131801e+01 4.500234e+01 2.760373e+01 5.493329e+01 2.140352e+00 2.076767e+00 1.979023e+00 2.539203e+00 2.423366e+00 2.569370e+00 2.975515e+00 2.868050e+00 3.199833e+00 2.535594e+00 2.762033e+00 2.102902e+00 4.475931e+00 3.121237e-01 4.079766e-01 3.864652e-01 4.348173e-01 4.810463e-01 4.613418e-01 5.093488e-01 5.199335e-01 6.343707e-01 4.818677e-01 5.252441e-01 4.133276e-01 4.803523e-01
<GCONST> 1.209069e+02
<STATE> 3
<MEAN> 39
 4.870334e+00 7.677720e+00 4.052197e+00 -2.089277e+00 -5.625758e+00 2.006105e+00 -6.469841e+00 -1.012103e+01 -9.659749e+00 -3.637229e+00 -2.599502e+00 -6.125022e+00 4.923592e+01 -1.352905e+00 -1.972537e+00 -1.256238e+00 -9.752126e-01 -1.654728e-02 -1.059390e+00 -1.390182e+00 5.376673e-01 1.085201e+00 2.713288e-01 1.047633e+00 8.289256e-01 3.189444e+00 -3.825225e-01 -1.169794e+00 -4.657832e-01 -7.464271e-01 -7.012679e-01 -8.877127e-02 -8.393718e-01 3.140052e-01 4.944679e-01 3.577342e-01 3.725324e-01 -1.247228e-01 1.539992e+00
<VARIANCE> 39
 2.053338e+01 2.538616e+01 2.065171e+01 2.763086e+01 3.290792e+01 3.806875e+01 3.448401e+01 4.141597e+01 4.741951e+01 2.957151e+01 4.249708e+01 2.493295e+01 4.141307e+01 2.253735e+00 3.320105e+00 3.526023e+00 5.297244e+00 4.013309e+00 4.034746e+00 3.926256e+00 3.830337e+00 5.262896e+00 3.887323e+00 4.167171e+00 2.889935e+00 5.099792e+00 4.210250e-01 4.479535e-01 6.926457e-01 7.220953e-01 6.658859e-01 8.333786e-01 6.450292e-01 9.173469e-01 1.212732e+00 8.232208e-01 7.709366e-01 7.150983e-01 4.523428e-01
<GCONST> 1.293187e+02
<STATE> 4
<MEAN> 39
 -3.622854e-01 -1.989425e+00 -1.978608e+00 -7.277595e+00 -7.040587e+00 -1.275686e+00 -1.258139e+01 -8.422575e+00 -4.809106e+00 -6.829767e-01 1.609587e+00 -4.045035e+00 6.287915e+01 -9.075601e-01 -3.325288e+00 -1.652386e+00 -2.631024e+00 -1.748239e+00 -1.437722e-01 -2.439192e+00 1.173286e+00 2.026273e+00 1.203678e+00 1.072727e+00 -6.380016e-01 4.913537e+00 3.454593e-01 2.766930e-01 4.132069e-01 5.743642e-02 -3.553481e-01 4.382025e-01 2.640623e-01 2.000001e-01 -5.345698e-02 -1.978245e-01 -5.006430e-01 -5.272906e-01 -4.954206e-01
<VARIANCE> 39
 2.490451e+01 2.618196e+01 3.318528e+01 8.481946e+01 3.343780e+01 5.443342e+01 3.844084e+01 3.615834e+01 3.681450e+01 4.400115e+01 4.003047e+01 2.886069e+01 5.497594e+01 2.585555e+00 3.904372e+00 6.571939e+00 7.267621e+00 5.310859e+00 6.566877e+00 5.097889e+00 7.169670e+00 1.040920e+01 6.672495e+00 6.298775e+00 6.253028e+00 4.462927e+00 4.557744e-01 6.230163e-01 4.902883e-01 1.264276e+00 1.050040e+00 8.527144e-01 8.799382e-01 8.299410e-01 9.220110e-01 8.765228e-01 1.109693e+00 6.862209e-01 7.262209e-01
<GCONST> 1.390641e+02
<TRANSP> 5
 0.000000e+00 1.000000e+00 0.000000e+00 0.000000e+00 0.000000e+00
 0.000000e+00 7.392208e-01 2.607792e-01 0.000000e+00 0.000000e+00
 0.000000e+00 0.000000e+00 4.997120e-01 5.002881e-01 0.000000e+00
 0.000000e+00 0.000000e+00 0.000000e+00 3.816662e-01 6.183338e-01
 0.000000e+00 0.000000e+00 0.000000e+00 0.000000e+00 0.000000e+00
<ENDHMM>
~h "c"
<BEGINHMM>
<NUMSTATES> 5
<STATE> 2
<MEAN> 39
 -7.664813e+00 2.979032e+00 1.492855e+00 -1.822751e+00 -7.299047e+00 -8.227477e+00 -8.313755e+00 -3.904069e+00 -3.970746e+00 -3.980915e+00 -3.805392e+00 -2.777318e+00 4.686472e+01 -1.866501e+00 -2.048900e-01 -7.680192e-01 -5.384707e-01 7.721438e-01 1.230113e-01 3.947714e-01 -1.420463e-01 1.810079e-01 1.644350e-01 1.597918e-01 1.081321e-01 -8.571407e-01 -5.429435e-01 -3.814242e-01 -1.853987e-01 -4.016698e-01 -9.113119e-02 1.031995e-01 -8.906881e-02 5.723460e-02 2.161972e-02 8.409540e-02 1.756456e-01 7.673093e-02 1.164335e+00
<VARIANCE> 39
 4.045334e+01 3.430303e+01 4.321413e+01 2.926211e+01 4.308126e+01 4.492279e+01 4.757537e+01 4.451540e+01 4.130725e+01 2.904373e+01 2.843809e+01 2.700475e+01 1.035462e+02 5.017520e+00 4.756844e+00 3.227758e+00 3.369225e+00 4.205660e+00 3.260109e+00 3.834361e+00 3.481797e+00 3.133839e+00 2.766489e+00 2.666633e+00 2.583568e+00 1.380560e+01 7.605104e-01 7.388105e-01 5.563629e-01 5.307962e-01 7.920762e-01 6.277763e-01 7.208943e-01 6.276451e-01 6.084503e-01 5.146062e-01 4.760154e-01 5.443023e-01 1.504462e+00
<GCONST> 1.317473e+02
<STATE> 3
<MEAN> 39
 -2.499534e+01 -1.055953e+00 -3.374241e+00 -8.943333e+00 -4.228331e+00 -5.801465e+00 -6.724120e+00 -3.929660e+00 -3.201278e+00 -1.869213e+00 -5.331191e-01 -4.395448e-01 6.013427e+01 -1.623032e+00 1.249028e-03 3.754012e-01 -7.314537e-01 -7.543537e-01 -2.924135e-01 5.754321e-02 3.955286e-01 2.566677e-01 -3.154210e-02 2.689646e-01 4.900784e-01 4.086733e+00 2.099634e+00 4.350585e-02 7.023052e-01 5.856622e-01 -7.356587e-01 -2.816598e-01 -3.925394e-01 1.486111e-01 5.900584e-02 -2.863036e-01 -3.497048e-01 -3.095344e-01 -5.218509e-01
<VARIANCE> 39
 3.067081e+01 2.821778e+01 3.038508e+01 2.519977e+01 2.819518e+01 3.515576e+01 3.352195e+01 2.610337e+01 2.326370e+01 1.981358e+01 1.906463e+01 1.484464e+01 4.806858e+01 1.272542e+01 3.022783e+00 5.004949e+00 4.198255e+00 4.220085e+00 3.816669e+00 3.796973e+00 3.798113e+00 3.239874e+00 2.527411e+00 2.640050e+00 1.855608e+00 6.645478e+00 1.390479e+00 9.269062e-01 7.785225e-01 6.927956e-01 8.398666e-01 8.063478e-01 8.159143e-01 9.170614e-01 8.337468e-01 5.517627e-01 5.412378e-01 4.671731e-01 8.514440e-01
<GCONST> 1.287787e+02
<STATE> 4
<MEAN> 39
 -1.373392e+01 -1.588640e+00 2.000603e+00 -6.331265e+00 -1.070967e+01 -9.702702e+00 -9.642916e+00 -6.333709e-01 -1.679618e+00 -4.441414e+00 -2.933108e+00 -9.423057e-01 6.748262e+01 5.782112e+00 -2.165364e+00 9.190373e-01 2.462822e-01 -2.158694e+00 -3.818966e-01 -2.034332e+00 1.098003e+00 9.474086e-01 -5.276373e-01 -7.129006e-01 -1.355143e+00 2.220803e+00 3.418026e-01 -5.554103e-01 -6.364576e-01 -3.315267e-01 3.954566e-01 7.060340e-01 -7.160178e-02 -1.662183e-01 -1.082678e-02 2.183648e-01 1.438412e-01 -4.782683e-01 -4.894883e-01
<VARIANCE> 39
 8.044982e+01 3.674067e+01 3.655981e+01 2.937872e+01 4.321176e+01 3.533243e+01 4.974890e+01 4.445225e+01 3.766785e+01 2.506651e+01 2.696718e+01 2.002520e+01 3.754497e+01 2.614145e+00 5.179876e+00 5.895231e+00 4.492998e+00 5.321152e+00 5.222518e+00 4.768186e+00 7.749397e+00 6.237084e+00 3.904835e+00 3.702553e+00 2.808661e+00 1.820812e+00 2.476292e+00 6.331443e-01 5.521818e-01 5.788068e-01 9.101629e-01 7.588537e-01 1.009767e+00 8.913487e-01 7.067910e-01 5.689980e-01 5.748308e-01 4.186182e-01 4.928994e-01
<GCONST> 1.331890e+02
<TRANSP> 5
 0.000000e+00 1.000000e+00 0.000000e+00 0.000000e+00 0.000000e+00
 0.000000e+00 8.290412e-01 1.709588e-01 0.000000e+00 0.000000e+00
 0.000000e+00 0.000000e+00 7.091833e-01 2.908167e-01 0.000000e+00
 0.000000e+00 0.000000e+00 0.000000e+00 5.736587e-01 4.263413e-01
 0.000000e+00 0.000000e+00 0.000000e+00 0.000000e+00 0.000000e+00
<ENDHMM>
~h "d"
<BEGINHMM>
<NUMSTATES> 5
<STATE> 2
<MEAN> 39
 2.471977e+00 3.002791e+00 6.338049e+00 2.584786e+00 -8.751940e+00 -6.147738e+00 -1.181710e+01 -4.815170e+00 -2.073440e+00 -3.901032e+00 -7.056869e+00 -6.606499e+00 5.040886e+01 8.581178e-01 1.299520e+00 7.161973e-01 8.549656e-01 7.289110e-01 -3.425758e-01 1.647864e-01 1.000150e-01 3.139536e-01 -1.867104e-01 -7.200142e-01 -3.320450e-01 -1.173119e+00 -5.268931e-01 -6.383360e-01 -1.510802e-01 -6.067474e-01 -1.869948e-01 3.812728e-02 -1.103290e-01 1.955435e-01 -1.700318e-01 2.875649e-02 4.234721e-01 2.528986e-01 8.847746e-01
<VARIANCE> 39
 3.098231e+01 3.939307e+01 3.748749e+01 2.849511e+01 5.008624e+01 3.981515e+01 5.386375e+01 7.443045e+01 5.143916e+01 4.027018e+01 4.175069e+01 3.354158e+01 7.255355e+01 2.644959e+00 2.928128e+00 2.352456e+00 2.647746e+00 3.878263e+00 2.826117e+00 3.683109e+00 4.608932e+00 3.552297e+00 2.939517e+00 3.253525e+00 2.445802e+00 5.899144e+00 4.817600e-01 6.225474e-01 4.046305e-01 5.221261e-01 7.576212e-01 5.828611e-01 6.558963e-01 9.205998e-01 7.524436e-01 6.380218e-01 6.285570e-01 5.340464e-01 7.836034e-01
<GCONST> 1.299641e+02
<STATE> 3
<MEAN> 39
 2.682024e+00 3.885642e+00 7.878544e+00 2.842990e+00 -7.180546e+00 -6.331370e+00 -1.158946e+01 -4.154271e+00 -2.496731e+00 -4.193360e+00 -7.283628e+00 -6.510761e+00 5.072044e+01 -2.092039e+00 -2.371131e+00 2.275587e-01 -1.761603e+00 -3.219528e-01 -2.923894e-01 -6.078591e-01 7.620642e-01 -7.583390e-01 -1.704895e-01 1.603156e+00 1.326166e+00 3.555978e+00 -5.003525e-01 -9.194794e-01 -1.982124e-01 -7.556306e-01 -1.045395e+00 -2.248327e-02 -4.332158e-01 1.681132e-01 -1.582404e-01 1.157149e-01 6.943349e-01 2.174096e-01 1.555899e+00
<VARIANCE> 39
 2.618246e+01 2.907663e+01 3.095102e+01 2.839187e+01 4.009229e+01 3.501248e+01 4.553759e+01 6.063692e+01 4.571811e+01 3.688214e+01 3.406698e+01 2.942451e+01 5.197099e+01 2.205670e+00 3.230197e+00 3.992085e+00 3.639853e+00 5.586256e+00 4.262708e+00 4.962254e+00 7.550130e+00 6.181154e+00 4.184830e+00 3.857406e+00 3.027937e+00 4.951241e+00 5.246071e-01 5.879920e-01 6.812374e-01 7.224253e-01 7.929811e-01 6.605615e-01 8.087177e-01 1.417440e+00 1.058484e+00 7.577937e-01 7.205441e-01 6.256917e-01 5.913532e-01
<GCONST> 1.333584e+02
<STATE> 4
<MEAN> 39
 -4.182180e+00 -6.702872e+00 6.389825e+00 -4.720709e+00 -1.224209e+01 -8.142948e+00 -1.506083e+01 -3.640848e-01 -3.302425e+00 -4.149331e+00 -1.045514e+00 -1.332484e+00 6.636396e+01 -9.868295e-01 -2.477322e+00 -7.613450e-01 -2.218956e+00 -2.781609e+00 -2.644228e-01 -1.253013e+00 1.542002e+00 3.910700e-01 2.569161e-01 1.667706e+00 1.966029e-01 4.571642e+00 6.172143e-01 6.465438e-01 -2.197103e-01 3.014911e-01 -2.837579e-02 4.274573e-01 2.963898e-01 -2.016103e-01 1.929283e-01 7.260536e-02 -5.058919e-01 -7.353225e-01 -8.016900e-01
<VARIANCE> 39
 1.936172e+01 2.630963e+01 4.317907e+01 4.332474e+01 6.941188e+01 4.882199e+01 7.382919e+01 6.613728e+01 6.980936e+01 3.244323e+01 3.221690e+01 2.507977e+01 4.777194e+01 3.044010e+00 3.650337e+00 6.473887e+00 5.050756e+00 5.671844e+00 4.424815e+00 6.297625e+00 1.099011e+01 9.535082e+00 4.790115e+00 5.775806e+00 4.165653e+00 4.643898e+00 3.040266e-01 5.148118e-01 5.539420e-01 8.152206e-01 1.710203e+00 8.371696e-01 1.367801e+00 1.189966e+00 1.107121e+00 8.212364e-01 9.187058e-01 6.021208e-01 6.733609e-01
<GCONST> 1.393590e+02
<TRANSP> 5
 0.000000e+00 1.000000e+00 0.000000e+00 0.000000e+00 0.000000e+00
 0.000000e+00 6.965626e-01 3.034374e-01 0.000000e+00 0.000000e+00
 0.000000e+00 0.000000e+00 4.880166e-01 5.119835e-01 0.000000e+00
 0.000000e+00 0.000000e+00 0.000000e+00 4.705167e-01 5.294833e-01
 0.000000e+00 0.000000e+00 0.000000e+00 0.000000e+00 0.000000e+00
<ENDHMM>
~h "e"
<BEGINHMM>
<NUMSTATES> 5
<STATE> 2
<MEAN> 39
 -5.054908e-01 -5.345073e+00 -2.742363e+00 -9.592159e+00 -1.048608e+01 -3.251581e+00 -1.559490e+01 -4.736953e+00 -1.943815e+00 3.281984e-01 -2.430801e-01 -7.112182e+00 6.762441e+01 2.082061e+00 -1.390874e+00 -2.707351e-01 -1.687502e+00 -1.324021e+00 7.196802e-01 -1.980222e+00 9.448739e-01 1.519306e+00 7.793189e-01 8.139330e-01 -1.602731e+00 2.457358e+00 -4.577658e-01 2.671133e-01 1.700392e-01 5.738421e-01 3.069420e-01 5.790301e-02 5.037608e-01 -8.456241e-02 -2.493788e-01 -1.660227e-01 -2.746060e-01 1.983323e-01 -1.074333e+00
<VARIANCE> 39
 2.379462e+01 3.008731e+01 5.034655e+01 6.439651e+01 4.801889e+01 8.334650e+01 6.324857e+01 6.882764e+01 6.656704e+01 4.732125e+01 5.521553e+01 3.599191e+01 4.426048e+01 5.742674e+00 2.990263e+00 5.713018e+00 4.945379e+00 5.774296e+00 5.989178e+00 6.131411e+00 8.366191e+00 7.686786e+00 5.065429e+00 5.300118e+00 4.150542e+00 3.578527e+00 7.040595e-01 5.600197e-01 7.410936e-01 8.979497e-01 7.480695e-01 8.364106e-01 8.836969e-01 9.017728e-01 8.615448e-01 7.233835e-01 9.472371e-01 5.887308e-01 1.060011e+00
<GCONST> 1.411087e+02
<STATE> 3
<MEAN> 39
 5.079737e-01 -8.386298e+00 -3.358825e+00 -1.114970e+01 -1.124084e+01 -1.600407e+00 -1.773143e+01 -2.227388e+00 5.224864e-01 9.582131e-01 1.822904e-01 -9.307910e+00 7.032563e+01 6.318041e-01 -5.707224e-01 1.759856e-01 1.849853e-02 -3.963647e-01 2.705970e-01 -4.940246e-01 5.655540e-01 6.455095e-01 1.640588e-01 -1.087991e-02 -5.635096e-01 3.279822e-01 -5.519027e-01 7.599876e-01 3.592472e-01 9.391882e-01 4.506312e-01 -2.737340e-01 8.742825e-01 -5.901353e-01 -7.238998e-01 -3.154321e-01 -4.105710e-01 6.237367e-01 -1.298295e+00
<VARIANCE> 39
 1.711519e+01 3.203953e+01 5.421743e+01 6.677094e+01 5.290307e+01 8.485791e+01 6.647942e+01 8.337231e+01 7.635454e+01 5.801681e+01 6.161305e+01 4.617286e+01 2.777977e+01 2.024072e+00 2.176593e+00 2.445185e+00 4.105869e+00 3.447675e+00 5.062383e+00 3.647827e+00 5.921166e+00 5.549861e+00 3.781069e+00 4.094218e+00 2.954425e+00 2.272250e+00 6.174452e-01 5.153222e-01 8.809652e-01 9.140653e-01 1.019512e+00 9.597818e-01 1.059796e+00 1.272309e+00 1.239979e+00 9.640099e-01 1.047084e+00 7.373557e-01 5.766870e-01
<GCONST> 1.372455e+02
<STATE> 4
<MEAN> 39
 -7.131910e-03 -7.318748e+00 -1.935759e+00 -9.950031e+00 -1.217982e+01 -3.231911e+00 -1.767427e+01 -2.116804e+00 -1.430334e-01 1.012532e+00 7.768443e-02 -9.156330e+00 6.884310e+01 1.349484e-01 6.980852e-01 4.092904e-01 9.128837e-01 2.487346e-01 -1.772863e-01 6.006281e-01 -5.579090e-01 -3.881487e-01 -2.362719e-01 -4.183684e-01 2.724387e-01 -1.208229e+00 -1.509856e-01 3.543592e-01 1.388544e-01 3.586419e-01 1.424775e-01 -6.648099e-02 3.065946e-01 -3.367680e-01 -2.678647e-01 -1.290197e-01 -1.592768e-01 2.210002e-01 -5.453430e-01
<VARIANCE> 39
 1.552793e+01 3.250193e+01 5.868965e+01 6.401894e+01 6.011320e+01 7.887484e+01 7.714935e+01 8.376054e+01 8.060116e+01 5.636797e+01 5.508261e+01 4.849002e+01 3.392631e+01 8.882929e-01 2.054568e+00 1.792626e+00 3.105603e+00 2.651000e+00 3.151065e+00 2.893702e+00 3.567534e+00 3.905226e+00 2.887246e+00 2.834356e+00 2.189377e+00 3.036046e+00 3.095416e-01 3.030289e-01 3.719281e-01 4.862434e-01 5.571769e-01 5.593875e-01 5.939674e-01 8.564776e-01 7.433179e-01 5.414177e-01 5.986368e-01 4.624539e-01 3.172247e-01
<GCONST> 1.260794e+02
<TRANSP> 5
 0.000000e+00 1.000000e+00 0.000000e+00 0.000000e+00 0.000000e+00
 0.000000e+00 1.967640e-01 8.032359e-01 0.000000e+00 0.000000e+00
 0.000000e+00 0.000000e+00 2.689311e-01 7.310688e-01 0.000000e+00
 0.000000e+00 0.000000e+00 0.000000e+00 6.019381e-01 3.980619e-01
 0.000000e+00 0.000000e+00 0.000000e+00 0.000000e+00 0.000000e+00
<ENDHMM>
~h "f"
<BEGINHMM>
<NUMSTATES> 5
<STATE> 2
<MEAN> 39
 -6.553450e+00 -1.074198e+00 -8.505170e-01 -2.650822e+00 -5.227295e+00 -2.367231e+00 -7.317072e+00 -3.728846e+00 -4.260179e+00 -1.904058e+00 -2.114232e+00 -3.474023e+00 5.988549e+01 -3.537882e+00 4.938348e-01 -4.034407e-01 1.482405e+00 1.337862e+00 -6.035539e-01 6.639919e-01 2.704423e-01 1.007781e+00 -1.335647e-01 -2.642987e-01 6.042928e-01 -1.337005e+00 -3.910601e-01 -6.347478e-01 -1.065001e-01 -3.466733e-01 -6.152732e-01 -1.501609e-01 -3.924318e-01 -3.133175e-02 -5.190973e-02 6.310945e-02 1.228037e-01 -6.908089e-02 2.396542e-01
<VARIANCE> 39
 5.435818e+01 2.278305e+01 4.274641e+01 5.333159e+01 4.184189e+01 6.320022e+01 3.519933e+01 4.100228e+01 4.077052e+01 2.909882e+01 3.459448e+01 2.568476e+01 5.845708e+01 2.848061e+00 4.416344e+00 4.106255e+00 4.618681e+00 6.446301e+00 5.326138e+00 4.247835e+00 5.003968e+00 4.433748e+00 3.745000e+00 3.882073e+00 2.715181e+00 2.546303e+00 8.178689e-01 4.519756e-01 4.420771e-01 7.227665e-01 7.826689e-01 7.059155e-01 6.430182e-01 7.204649e-01 8.098190e-01 5.734431e-01 5.909391e-01 4.142797e-01 2.396010e-01
<GCONST> 1.306870e+02
<STATE> 3
<MEAN> 39
 -1.989964e+01 -5.825283e+00 -5.010130e+00 -1.524697e+00 -5.543608e+00 -5.128537e+00 -8.565896e+00 -3.124040e+00 -2.150527e+00 -1.509622e+00 -1.523637e+00 -1.671885e+00 5.703408e+01 -7.550524e-01 -5.763443e-01 -3.844702e-01 -8.678767e-02 -1.156604e-01 -1.289217e-01 -9.800947e-02 9.618213e-04 3.930287e-02 4.823868e-02 8.479757e-02 1.027621e-01 -1.614935e-01 6.790263e-01 1.117802e-01 1.447381e-01 -1.025405e-01 -1.195063e-02 1.259319e-01 5.856677e-02 -6.830241e-03 -1.034771e-01 -2.728263e-02 -8.420317e-03 -1.061571e-01 1.258898e-01
<VARIANCE> 39
 2.297374e+01 2.003957e+01 2.739535e+01 2.044735e+01 2.084298e+01 2.683607e+01 2.387978e+01 2.244827e+01 2.003024e+01 1.858627e+01 1.912512e+01 1.715153e+01 4.532407e+01 2.009481e+00 1.207960e+00 1.518252e+00 1.488698e+00 1.680385e+00 1.887451e+00 1.848980e+00 1.794799e+00 1.812538e+00 1.687918e+00 1.527974e+00 1.440767e+00 1.355838e+00 4.181859e-01 2.707755e-01 3.276047e-01 3.593683e-01 3.987904e-01 4.268311e-01 3.830731e-01 4.056301e-01 4.323159e-01 3.862891e-01 3.320621e-01 3.262292e-01 2.144125e-01
<GCONST> 1.050405e+02
<STATE> 4
<MEAN> 39
 -1.591667e+01 -5.679545e+00 -4.945898e+00 -2.286948e+00 -5.113723e+00 -3.935502e+00 -7.292427e+00 -3.437553e+00 -2.803680e+00 -1.727619e+00 -1.784985e+00 -2.257636e+00 5.532652e+01 3.559499e+00 3.864363e-01 4.031546e-01 -1.154163e+00 -8.197447e-01 4.930197e-01 -2.215798e-01 -1.991809e-01 -5.317659e-01 -2.609184e-01 9.788721e-02 -7.657896e-01 1.077762e+00 7.936922e-01 6.441845e-02 1.988412e-01 -4.261091e-01 -5.070217e-01 1.914934e-01 -2.500927e-01 -5.458692e-02 -1.791852e-01 -3.788795e-02 1.601910e-01 -2.105806e-01 4.378878e-01
<VARIANCE> 39
 5.219391e+01 2.526492e+01 3.017835e+01 3.158388e+01 2.723546e+01 3.646478e+01 2.842875e+01 2.634468e+01 2.423889e+01 2.187950e+01 2.044573e+01 1.851706e+01 8.787744e+01 8.047301e+00 3.892719e+00 4.836253e+00 5.839619e+00 4.120922e+00 5.442116e+00 3.445516e+00 3.754431e+00 3.714886e+00 2.986606e+00 2.806163e+00 2.849245e+00 5.305321e+00 1.282528e+00 6.297379e-01 6.092411e-01 7.764499e-01 7.205682e-01 7.769455e-01 6.132609e-01 6.674855e-01 7.260992e-01 5.689907e-01 5.461652e-01 4.893956e-01 5.573688e-01
<GCONST> 1.293130e+02
<TRANSP> 5
 0.000000e+00 1.000000e+00 0.000000e+00 0.000000e+00 0.000000e+00
 0.000000e+00 6.850561e-01 3.149439e-01 0.000000e+00 0.000000e+00
 0.000000e+00 0.000000e+00 8.429582e-01 1.570418e-01 0.000000e+00
 0.000000e+00 0.000000e+00 0.000000e+00 6.682800e-01 3.317200e-01
 0.000000e+00 0.000000e+00 0.000000e+00 0.000000e+00 0.000000e+00
<ENDHMM>
~h "g"
<BEGINHMM>
<NUMSTATES> 5
<STATE> 2
<MEAN> 39
 2.684822e+00 4.970974e+00 7.007122e+00 -2.661251e-01 -1.090016e+01 -5.926198e+00 -9.367141e+00 -5.962097e+00 -7.616418e+00 -7.245213e-01 -3.528178e+00 -8.286732e+00 5.114254e+01 -4.068175e-01 5.459744e-01 6.098990e-02 6.432627e-01 8.581438e-01 -4.415089e-01 5.339044e-01 -6.282399e-02 1.359912e-01 -1.291852e-01 -4.262053e-01 3.277563e-01 -7.530957e-01 -6.192027e-01 -7.296217e-01 -4.615853e-01 -4.658311e-01 1.700712e-01 1.203090e-02 -3.257990e-01 2.147511e-01 3.837587e-02 3.911586e-02 1.767779e-01 3.260895e-01 1.130912e+00
<VARIANCE> 39
 2.157120e+01 3.592858e+01 4.340549e+01 3.867041e+01 5.263007e+01 5.466029e+01 5.277828e+01 5.820111e+01 5.353834e+01 3.820073e+01 4.136901e+01 3.442140e+01 5.736123e+01 3.698021e+00 4.350157e+00 4.560623e+00 3.207006e+00 5.657267e+00 4.175985e+00 4.116622e+00 4.357848e+00 4.225389e+00 3.210181e+00 3.061506e+00 3.276746e+00 6.980750e+00 4.033851e-01 5.325394e-01 6.412572e-01 4.852605e-01 9.028999e-01 6.705869e-01 7.609687e-01 7.644940e-01 8.872148e-01 6.176200e-01 6.029629e-01 5.397543e-01 7.465774e-01
<GCONST> 1.332854e+02
<STATE> 3
<MEAN> 39
 -5.865826e+00 -7.844926e-01 5.734608e-01 -6.495404e-01 -2.631339e+00 -6.433249e+00 -9.945350e+00 -4.729972e+00 -8.102209e+00 -3.772710e-01 -4.986198e+00 -3.174978e+00 5.819405e+01 -1.691264e+00 -1.932856e+00 -1.170194e+00 -1.323414e+00 -1.594013e-01 -7.026064e-01 -1.322721e+00 7.204061e-01 -1.812505e-01 2.616941e-01 1.084532e+00 1.058193e+00 3.863087e+00 7.385154e-01 2.181363e-01 6.202968e-01 -4.700787e-01 -1.500579e+00 1.414232e-01 -3.354971e-01 1.149374e-01 2.283560e-01 -8.683217e-02 6.195149e-01 -4.940780e-01 1.746268e-01
<VARIANCE> 39
 3.888116e+01 5.047240e+01 8.037939e+01 4.563334e+01 6.457295e+01 6.296453e+01 5.354507e+01 4.629261e+01 4.556381e+01 3.229071e+01 3.094991e+01 2.755968e+01 7.689777e+01 3.632259e+00 5.011085e+00 7.638842e+00 4.067204e+00 9.668200e+00 5.277520e+00 4.905463e+00 5.939351e+00 5.615935e+00 3.900095e+00 4.477120e+00 3.458171e+00 4.430636e+00 5.380867e-01 1.042233e+00 1.135343e+00 8.657695e-01 1.303391e+00 9.890240e-01 9.856908e-01 1.040079e+00 1.026574e+00 7.698205e-01 7.643307e-01 7.239703e-01 9.906126e-01
<GCONST> 1.417810e+02
<STATE> 4
<MEAN> 39
 -3.800120e+00 -3.331812e+00 3.405141e+00 -4.960515e+00 -1.418774e+01 -9.845437e+00 -1.495651e+01 -9.233702e-01 -6.376128e+00 -1.080415e-01 1.790424e+00 -4.426788e+00 6.740482e+01 7.123484e-01 -1.167986e+00 1.105969e-01 -2.009060e+00 -2.772153e+00 5.198876e-01 -8.632767e-01 1.596232e+00 1.392775e+00 -1.687446e-01 1.237991e+00 -1.001468e+00 2.190375e+00 3.541449e-01 7.121173e-02 -1.136813e-01 6.482103e-02 3.959714e-01 6.434543e-01 4.657561e-01 -8.751696e-02 2.687188e-01 -1.406441e-01 -6.450762e-01 -4.398218e-01 -6.868618e-01
<VARIANCE> 39
 1.938996e+01 3.652812e+01 6.664701e+01 4.721379e+01 7.800455e+01 6.506345e+01 6.575990e+01 8.139539e+01 6.173146e+01 4.612474e+01 5.203609e+01 3.197864e+01 4.873003e+01 1.955954e+00 3.038522e+00 4.919041e+00 3.712729e+00 7.315080e+00 4.524357e+00 5.241281e+00 6.557126e+00 7.198027e+00 3.692637e+00 5.651194e+00 3.608500e+00 2.112044e+00 4.154541e-01 4.081231e-01 7.595145e-01 4.930623e-01 1.673360e+00 7.626150e-01 7.913378e-01 9.347333e-01 8.502464e-01 6.149262e-01 8.722352e-01 5.950480e-01 3.401200e-01
<GCONST> 1.362385e+02
<TRANSP> 5
 0.000000e+00 1.000000e+00 0.000000e+00 0.000000e+00 0.000000e+00
 0.000000e+00 7.562565e-01 2.437435e-01 0.000000e+00 0.000000e+00
 0.000000e+00 0.000000e+00 5.413947e-01 4.586053e-01 0.000000e+00
 0.000000e+00 0.000000e+00 0.000000e+00 4.919171e-01 5.080829e-01
 0.000000e+00 0.000000e+00 0.000000e+00 0.000000e+00 0.000000e+00
<ENDHMM>
~h "h"
<BEGINHMM>
<NUMSTATES> 5
<STATE> 2
<MEAN> 39
 -4.705080e+00 -5.325961e+00 -2.342791e+00 -4.117995e+00 -3.095600e-01 9.113065e-01 -5.091856e+00 -7.926360e-01 -3.630584e+00 -3.297146e+00 -5.555144e+00 -4.542957e+00 6.381406e+01 -1.160930e+00 -4.047668e-02 1.936544e-01 1.222142e+00 1.701556e+00 4.529966e-01 1.011996e+00 2.559357e-01 4.045628e-01 -2.185929e-01 -4.441241e-02 6.395991e-01 -1.024130e+00 -1.367261e-02 -3.382593e-01 -1.018490e-01 -4.117023e-01 -4.694065e-01 8.286713e-03 -3.252508e-01 -8.161621e-02 6.935019e-02 5.769536e-02 1.910944e-01 -1.412282e-01 9.043590e-02
<VARIANCE> 39
 2.427435e+01 3.815010e+01 5.317371e+01 5.242962e+01 7.030954e+01 6.128331e+01 5.884765e+01 6.426586e+01 5.624292e+01 4.954263e+01 5.074696e+01 3.851817e+01 6.259689e+01 1.709710e+00 3.128127e+00 3.822098e+00 3.165398e+00 4.022237e+00 3.688560e+00 3.742760e+00 4.031189e+00 3.612946e+00 3.362031e+00 3.259503e+00 2.717517e+00 1.906374e+00 2.085223e-01 3.501876e-01 3.760570e-01 4.699904e-01 5.822752e-01 5.547574e-01 6.149569e-01 6.845676e-01 5.568534e-01 5.121855e-01 4.985940e-01 4.329785e-01 1.944744e-01
<GCONST> 1.268289e+02
<STATE> 3
<MEAN> 39
 -9.531425e+00 -9.393391e+00 -4.597647e+00 -4.556683e+00 2.738855e+00 2.310602e+00 -4.755954e+00 -8.996432e-01 -1.080346e+00 -3.164745e+00 -4.422595e+00 -3.286452e+00 6.104789e+01 -2.436644e-02 -1.363403e-01 -3.451991e-01 -4.495012e-01 -4.034389e-01 -2.914712e-01 -3.055407e-01 -2.306078e-01 -1.105079e-01 -1.285488e-03 4.893039e-02 -8.401765e-02 -3.849890e-01 3.694041e-01 1.691250e-01 2.536341e-02 -2.306259e-01 -4.482795e-01 -1.415542e-01 -2.233968e-01 -1.266567e-01 -1.769522e-01 -2.892162e-02 -1.533698e-02 -1.741009e-01 6.381638e-02
<VARIANCE> 39
 4.106626e+01 4.849457e+01 4.683274e+01 4.522121e+01 5.976469e+01 5.398864e+01 5.481095e+01 4.775091e+01 4.683435e+01 4.429481e+01 4.142587e+01 3.237032e+01 7.125953e+01 2.554570e+00 2.849972e+00 2.445321e+00 2.422004e+00 2.887386e+00 2.688744e+00 2.980832e+00 2.908146e+00 2.716656e+00 2.526644e+00 2.391462e+00 2.209489e+00 3.515255e+00 3.191980e-01 4.193051e-01 4.217990e-01 5.092304e-01 5.327044e-01 5.065458e-01 6.150313e-01 5.618834e-01 5.259935e-01 5.071794e-01 4.625917e-01 4.151882e-01 2.393800e-01
<GCONST> 1.244846e+02
<STATE> 4
<MEAN> 39
 -9.980899e+00 -7.110467e+00 -6.118796e+00 -5.919765e+00 -2.672578e+00 -1.948273e+00 -6.785269e+00 -3.632584e+00 -4.068598e+00 -4.832002e+00 -3.655865e+00 -3.575672e+00 4.920548e+01 2.155061e-01 2.209098e-01 8.466369e-03 -1.027037e-01 -3.688167e-01 -7.632661e-02 -8.742958e-02 -1.507738e-01 -1.060584e-01 -6.131351e-03 3.424087e-02 -1.088441e-01 -3.251364e-01 3.878935e-02 1.358051e-02 6.696813e-02 1.428867e-02 -3.542952e-02 4.616477e-02 -8.780975e-03 2.031665e-02 1.460203e-02 1.355815e-02 1.297028e-02 -1.984315e-02 9.990740e-02
<VARIANCE> 39
 3.591836e+01 5.169138e+01 4.294903e+01 3.256076e+01 4.266656e+01 4.133769e+01 4.361721e+01 3.785080e+01 3.613077e+01 3.264991e+01 3.112852e+01 2.624372e+01 1.573385e+02 1.330017e+00 1.691543e+00 1.575528e+00 1.614864e+00 1.961603e+00 1.872243e+00 2.114395e+00 2.017854e+00 2.012477e+00 1.901340e+00 1.787626e+00 1.769262e+00 2.307272e+00 1.640016e-01 2.340313e-01 2.306468e-01 2.602086e-01 3.131076e-01 3.217049e-01 3.698161e-01 3.660997e-01 3.701468e-01 3.426925e-01 3.304260e-01 3.039740e-01 1.370411e-01
<GCONST> 1.112752e+02
<TRANSP> 5
 0.000000e+00 1.000000e+00 0.000000e+00 0.000000e+00 0.000000e+00
 0.000000e+00 5.508228e-01 4.491772e-01 0.000000e+00 0.000000e+00
 0.000000e+00 0.000000e+00 6.749486e-01 3.250514e-01 0.000000e+00
 0.000000e+00 0.000000e+00 0.000000e+00 7.799062e-01 2.200938e-01
 0.000000e+00 0.000000e+00 0.000000e+00 0.000000e+00 0.000000e+00
<ENDHMM>
~h "i"
<BEGINHMM>
<NUMSTATES> 5
<STATE> 2
<MEAN> 39
 -6.483507e+00 -1.175135e+00 1.327512e+01 -2.748295e+00 -1.751678e+01 -8.734475e+00 -1.260008e+01 -6.340313e+00 -1.194804e+01 -3.883057e+00 1.704872e+00 -4.004191e+00 6.368525e+01 6.811919e-01 -6.920440e-02 2.914192e+00 -5.259206e-01 -3.071779e+00 3.378646e-01 -1.476632e+00 -4.188802e-01 -1.761912e+00 -1.170475e-01 1.338106e+00 -4.658621e-01 1.838081e+00 -8.111339e-02 9.540624e-02 -5.548612e-01 -1.690915e-01 3.332850e-01 4.269717e-01 1.075705e-01 4.182952e-02 4.237249e-01 2.143610e-01 -1.964298e-01 -9.212486e-02 -4.821469e-01
<VARIANCE> 39
 3.092421e+01 3.960057e+01 5.394627e+01 4.577757e+01 5.150445e+01 5.334505e+01 5.735754e+01 6.617852e+01 5.076428e+01 4.711407e+01 3.757531e+01 3.239864e+01 6.637038e+01 5.698107e+00 2.996042e+00 4.986258e+00 4.560382e+00 4.592463e+00 4.976441e+00 6.579732e+00 5.986259e+00 5.594558e+00 4.914186e+00 3.726695e+00 3.366557e+00 3.823740e+00 6.953377e-01 5.902682e-01 9.087440e-01 6.133950e-01 1.072299e+00 7.505227e-01 9.236520e-01 1.009898e+00 8.618926e-01 6.514961e-01 6.226996e-01 4.761837e-01 8.593848e-01
<GCONST> 1.380816e+02
<STATE> 3
<MEAN> 39
 -6.264364e+00 -1.221404e+00 1.839168e+01 -6.085740e+00 -2.310342e+01 -4.687811e+00 -1.658418e+01 -6.941789e+00 -1.461111e+01 -2.843927e+00 3.960782e+00 -6.189631e+00 6.702250e+01 1.493266e-01 7.793503e-02 -2.637801e-01 -6.093413e-02 -4.180191e-02 -4.931847e-02 1.392844e-01 1.302011e-01 2.018789e-01 1.531612e-01 -7.261832e-03 -4.944923e-03 -9.863910e-02 6.738499e-02 8.614024e-02 -5.970481e-01 2.406245e-01 6.603276e-01 -2.418377e-01 3.767838e-01 1.132739e-01 3.940122e-01 -3.934230e-02 -3.200925e-01 1.062051e-01 -4.113708e-01
<VARIANCE> 39
 1.571813e+01 2.951088e+01 4.131421e+01 4.864366e+01 2.863113e+01 5.916975e+01 4.749650e+01 6.465707e+01 5.129480e+01 6.259027e+01 4.439290e+01 4.254446e+01 2.288217e+01 7.648467e-01 1.458313e+00 2.097987e+00 1.734468e+00 2.253052e+00 2.544052e+00 2.503474e+00 2.709464e+00 2.288692e+00 1.967622e+00 1.757357e+00 1.440465e+00 1.032980e+00 2.133842e-01 2.624532e-01 3.627819e-01 3.474018e-01 5.725701e-01 4.418474e-01 5.467227e-01 5.403755e-01 5.443433e-01 4.754320e-01 4.447967e-01 3.312318e-01 2.641084e-01
<GCONST> 1.150173e+02
<STATE> 4
<MEAN> 39
 -5.573508e+00 2.422792e+00 1.315903e+01 -3.145085e+00 -1.751926e+01 -7.317325e+00 -1.114138e+01 -8.671666e+00 -1.028488e+01 -3.387768e+00 6.760689e-01 -4.390211e+00 5.843156e+01 2.163999e-01 4.166962e-01 -1.337199e+00 4.895499e-01 1.380679e+00 -1.500555e-01 7.739267e-01 1.616132e-01 8.485351e-01 -4.311424e-02 -7.305272e-01 1.100919e-01 -1.875218e+00 -9.202604e-02 -5.853977e-02 -1.073360e-01 -3.463034e-02 1.352491e-01 1.828332e-01 -5.796518e-02 -3.008004e-02 2.273253e-02 6.921086e-03 -7.928649e-02 -3.193920e-02 -7.771002e-02
<VARIANCE> 39
 2.182540e+01 3.945689e+01 4.292194e+01 4.551924e+01 4.704944e+01 8.019608e+01 5.039091e+01 7.306587e+01 4.395659e+01 4.776205e+01 4.349323e+01 3.715072e+01 1.010119e+02 1.823551e+00 2.282910e+00 2.604918e+00 2.342278e+00 3.593224e+00 2.919092e+00 3.576616e+00 3.744977e+00 3.526716e+00 2.774586e+00 2.711946e+00 2.219515e+00 3.739311e+00 2.454986e-01 3.603989e-01 3.502855e-01 3.715418e-01 6.322665e-01 5.843714e-01 5.683186e-01 6.449387e-01 5.046854e-01 4.732915e-01 4.767050e-01 3.828017e-01 5.020794e-01
<GCONST> 1.254014e+02
<TRANSP> 5
 0.000000e+00 1.000000e+00 0.000000e+00 0.000000e+00 0.000000e+00
 0.000000e+00 5.972694e-01 4.027306e-01 0.000000e+00 0.000000e+00
 0.000000e+00 0.000000e+00 7.904887e-01 2.095113e-01 0.000000e+00
 0.000000e+00 0.000000e+00 0.000000e+00 7.368326e-01 2.631674e-01
 0.000000e+00 0.000000e+00 0.000000e+00 0.000000e+00 0.000000e+00
<ENDHMM>
~h "j"
<BEGINHMM>
<NUMSTATES> 5
<STATE> 2
<MEAN> 39
 -1.094351e+00 6.941392e+00 9.174545e+00 6.299780e-01 -9.711121e+00 -6.691014e+00 -8.964143e+00 -2.265245e+00 -5.062914e+00 -5.810418e+00 -3.068406e+00 -3.823781e+00 5.210009e+01 -8.329222e-01 8.184476e-01 2.337932e-01 -3.653757e-02 1.091045e+00 1.768230e-01 7.627178e-01 -4.934556e-03 3.360301e-01 2.191940e-02 -2.191983e-01 2.142790e-02 -5.092710e-01 -7.005763e-01 -4.489419e-01 -2.266481e-01 -3.501639e-01 6.266265e-03 2.018650e-02 -2.039721e-01 -1.871751e-01 -1.008479e-01 1.419935e-01 1.968336e-01 1.624054e-01 8.856092e-01
<VARIANCE> 39
 3.230521e+01 3.391905e+01 3.766358e+01 2.834165e+01 4.641647e+01 4.321711e+01 4.769437e+01 4.451551e+01 4.292514e+01 3.161566e+01 2.711248e+01 2.559202e+01 7.948485e+01 7.426082e+00 3.928788e+00 3.316256e+00 3.164887e+00 4.369395e+00 3.399058e+00 4.180265e+00 4.165014e+00 3.724459e+00 3.008619e+00 2.658855e+00 2.445969e+00 8.757754e+00 1.023540e+00 5.630128e-01 4.856722e-01 4.878826e-01 8.225194e-01 6.422477e-01 6.933359e-01 7.235327e-01 7.419018e-01 5.480814e-01 4.766328e-01 5.015929e-01 1.080944e+00
<GCONST> 1.312110e+02
<STATE> 3
<MEAN> 39
 -1.627686e+01 5.510767e+00 7.496870e+00 -3.146532e+00 -4.562140e+00 -5.929536e+00 -7.861610e+00 -5.591018e+00 -6.303485e+00 -4.260251e+00 -1.480156e+00 -8.880515e-01 6.246857e+01 -1.185120e+00 -1.271442e+00 7.390875e-01 -4.093786e-01 -2.114170e+00 -1.320956e+00 -1.207389e+00 -3.995234e-01 -6.319826e-01 -1.870650e-01 1.184253e+00 1.133949e+00 3.513173e+00 1.756048e+00 -4.829765e-01 1.493982e-01 1.511745e-01 -1.194423e+00 -2.709992e-01 -6.015478e-01 5.508372e-01 1.610790e-01 -9.973475e-02 1.488673e-01 -2.453937e-01 -3.136909e-01
<VARIANCE> 39
 4.267670e+01 3.398361e+01 4.281356e+01 2.791834e+01 4.816283e+01 4.641817e+01 3.407578e+01 2.556777e+01 2.487918e+01 1.966877e+01 1.815800e+01 1.833633e+01 3.569260e+01 1.376746e+01 3.705130e+00 4.060778e+00 4.248066e+00 7.999776e+00 3.904486e+00 4.123439e+00 4.339629e+00 3.899265e+00 2.599342e+00 2.475594e+00 2.071226e+00 3.038704e+00 9.637097e-01 8.552641e-01 9.284631e-01 7.686672e-01 1.301428e+00 9.646196e-01 7.435963e-01 1.130355e+00 9.166387e-01 5.468090e-01 5.429549e-01 5.602630e-01 5.443559e-01
<GCONST> 1.313032e+02
<STATE> 4
<MEAN> 39
 -6.168694e+00 -3.173070e+00 1.019519e+01 -4.545982e+00 -1.869847e+01 -1.187838e+01 -1.572603e+01 -5.910771e-01 -5.954275e+00 -5.023707e+00 3.030843e+00 6.199111e-01 7.058430e+01 2.610073e+00 -2.987235e+00 -1.455377e+00 -1.127143e+00 -1.843119e+00 1.550520e-01 -1.601323e+00 2.467675e+00 1.439116e+00 5.410947e-01 9.257472e-02 -1.235804e+00 1.483885e+00 -1.803715e-01 2.863259e-01 -8.628903e-01 -2.168708e-01 1.356182e+00 9.161451e-01 6.316113e-01 -1.786369e-02 3.471598e-01 2.179289e-01 -7.116603e-01 -7.347217e-01 -6.607730e-01
<VARIANCE> 39
 1.487265e+01 3.286956e+01 3.406237e+01 5.083037e+01 3.158274e+01 2.795257e+01 4.155009e+01 6.831627e+01 5.218702e+01 3.817309e+01 2.678575e+01 2.431337e+01 2.475203e+01 2.613382e+00 2.830714e+00 4.444671e+00 3.207825e+00 7.408235e+00 3.906145e+00 6.083309e+00 6.959631e+00 5.040714e+00 3.170607e+00 4.460751e+00 3.087751e+00 1.128310e+00 7.451864e-01 4.351855e-01 4.287398e-01 6.158022e-01 7.062618e-01 5.805529e-01 6.865567e-01 1.097125e+00 6.835741e-01 5.942647e-01 6.350140e-01 4.403010e-01 1.377279e-01
<GCONST> 1.268387e+02
<TRANSP> 5
 0.000000e+00 1.000000e+00 0.000000e+00 0.000000e+00 0.000000e+00
 0.000000e+00 8.196067e-01 1.803933e-01 0.000000e+00 0.000000e+00
 0.000000e+00 0.000000e+00 7.045919e-01 2.954082e-01 0.000000e+00
 0.000000e+00 0.000000e+00 0.000000e+00 6.215572e-01 3.784428e-01
 0.000000e+00 0.000000e+00 0.000000e+00 0.000000e+00 0.000000e+00
<ENDHMM>
~h "k"
<BEGINHMM>
<NUMSTATES> 5
<STATE> 2
<MEAN> 39
 -5.782816e+00 8.380826e-01 -2.414330e+00 -4.624033e+00 -7.668584e+00 -5.239554e+00 -7.914224e+00 -5.075492e+00 -4.935140e+00 -1.539038e+00 -3.388293e+00 -5.126872e+00 4.402523e+01 -1.215618e+00 -3.319436e-01 -7.376845e-01 2.942653e-01 6.698961e-01 -4.199663e-01 1.988436e-01 1.140046e-01 2.683994e-01 -6.535187e-02 -1.663209e-01 6.128019e-01 -1.394461e+00 -1.745157e-01 -5.972890e-01 -3.253921e-01 -2.479057e-01 1.480350e-01 1.967583e-02 -2.130468e-01 1.966400e-01 -1.769199e-02 1.437736e-01 2.191687e-02 3.921762e-02 1.280048e+00
<VARIANCE> 39
 3.746011e+01 3.635300e+01 5.556419e+01 4.514198e+01 5.012146e+01 5.291233e+01 4.426961e+01 4.931124e+01 4.792359e+01 3.709295e+01 3.751617e+01 3.187380e+01 7.879869e+01 2.085478e+00 3.730129e+00 3.411898e+00 3.131781e+00 4.462808e+00 3.945233e+00 3.881705e+00 3.782609e+00 3.462573e+00 3.186253e+00 2.912556e+00 2.547319e+00 9.193574e+00 3.922398e-01 5.904955e-01 6.373100e-01 6.296015e-01 8.370357e-01 7.765688e-01 7.800059e-01 7.197322e-01 7.272195e-01 6.632692e-01 6.027272e-01 5.122855e-01 1.223034e+00
<GCONST> 1.327410e+02
<STATE> 3
<MEAN> 39
 -1.181889e+01 -5.707686e+00 -7.239639e+00 -3.816056e+00 -2.349052e+00 -6.853657e+00 -8.924411e+00 -2.708719e+00 -4.332369e+00 -1.219839e-01 -3.824929e+00 -1.780457e+00 4.951442e+01 -9.410937e-01 -2.118052e+00 -2.216367e+00 -8.884364e-01 1.376555e+00 -5.626171e-01 -8.585413e-01 8.511695e-01 3.391370e-02 9.224358e-01 -5.431994e-01 2.893975e-01 4.665144e+00 7.687774e-01 4.490814e-01 5.495932e-01 -3.761013e-01 -7.325256e-01 2.170383e-01 -1.658716e-02 -1.704589e-02 -1.746829e-02 -1.091396e-01 5.785700e-02 -5.453873e-01 6.572468e-01
<VARIANCE> 39
 3.424525e+01 6.033280e+01 6.815522e+01 4.587249e+01 5.788135e+01 5.791199e+01 5.131054e+01 4.419469e+01 4.203986e+01 3.411849e+01 3.200171e+01 2.663552e+01 1.294949e+02 3.881670e+00 5.472915e+00 7.231173e+00 5.702882e+00 6.680670e+00 6.258424e+00 5.849945e+00 5.559341e+00 5.334269e+00 4.559729e+00 4.170626e+00 3.601343e+00 1.233407e+01 6.323141e-01 1.075337e+00 1.251467e+00 8.151078e-01 1.136096e+00 9.626679e-01 1.023505e+00 8.631639e-01 8.233485e-01 7.124110e-01 6.839767e-01 6.524715e-01 1.745565e+00
<GCONST> 1.433024e+02
<STATE> 4
<MEAN> 39
 -9.861760e+00 -6.202802e+00 -9.431060e+00 -8.022376e+00 -2.967192e+00 -6.717774e+00 -1.067311e+01 -1.154936e+00 -4.356264e+00 1.494286e+00 -5.121247e+00 -4.199538e+00 6.076761e+01 2.025237e+00 3.714464e-01 1.423016e+00 -1.003468e+00 -1.772799e+00 5.960437e-01 -7.612012e-02 3.275146e-01 6.353784e-02 -4.142747e-01 4.284817e-01 -1.410471e+00 2.949612e+00 6.596013e-01 2.074826e-01 7.777759e-01 6.041965e-02 -7.090105e-01 4.202687e-01 1.884351e-01 -2.066110e-01 8.004813e-02 -4.596761e-01 3.678328e-01 -3.166616e-01 -6.815937e-01
<VARIANCE> 39
 3.924190e+01 4.312424e+01 7.482262e+01 5.799109e+01 6.331120e+01 7.354465e+01 5.719041e+01 5.348896e+01 5.694102e+01 4.321595e+01 4.315320e+01 3.850211e+01 7.308939e+01 4.463815e+00 4.925563e+00 6.271415e+00 5.008633e+00 5.769188e+00 5.172970e+00 5.896294e+00 5.605290e+00 5.522522e+00 4.051245e+00 4.258310e+00 4.284667e+00 7.713079e+00 7.875399e-01 9.547728e-01 1.495945e+00 9.183648e-01 1.317265e+00 1.078172e+00 1.185681e+00 1.032555e+00 1.024425e+00 8.712862e-01 8.139966e-01 7.932712e-01 1.017404e+00
<GCONST> 1.450118e+02
<TRANSP> 5
 0.000000e+00 1.000000e+00 0.000000e+00 0.000000e+00 0.000000e+00
 0.000000e+00 7.479491e-01 2.520509e-01 0.000000e+00 0.000000e+00
 0.000000e+00 0.000000e+00 5.062757e-01 4.937244e-01 0.000000e+00
 0.000000e+00 0.000000e+00 0.000000e+00 5.647610e-01 4.352390e-01
 0.000000e+00 0.000000e+00 0.000000e+00 0.000000e+00 0.000000e+00
<ENDHMM>
~h "l"
<BEGINHMM>
<NUMSTATES> 5
<STATE> 2
<MEAN> 39
 1.028198e+00 -8.306367e+00 -1.553030e+00 -9.999617e+00 -1.256242e+01 -1.188522e+00 -1.620932e+01 -9.881625e+00 1.428296e+00 1.054870e+00 -5.046593e-01 -6.834907e+00 6.852990e+01 5.109420e-01 1.533617e-02 6.027282e-01 -2.967514e-01 5.534005e-01 -5.185991e-02 -1.216802e+00 -1.197294e+00 2.095692e-01 9.693924e-01 1.025686e-01 -1.595605e-01 -4.317750e-01 -1.588938e-01 1.570309e-01 4.861841e-02 -1.411765e-01 7.011180e-02 1.028939e-01 1.131790e-01 2.071686e-01 -2.814480e-01 -1.916382e-01 6.575118e-02 1.881589e-02 -4.449994e-02
<VARIANCE> 39
 1.772703e+01 3.003213e+01 6.837857e+01 7.700719e+01 6.060045e+01 8.892255e+01 9.046556e+01 1.377624e+02 7.586765e+01 5.811070e+01 5.650876e+01 4.937606e+01 2.888415e+01 8.397833e-01 1.899465e+00 2.967314e+00 4.732702e+00 4.782590e+00 5.783512e+00 4.560948e+00 5.245261e+00 4.873544e+00 4.002105e+00 4.247122e+00 3.120862e+00 1.050312e+00 1.875221e-01 2.588445e-01 3.645181e-01 6.049939e-01 7.327991e-01 7.618994e-01 8.135948e-01 1.004832e+00 7.585062e-01 7.294679e-01 6.343746e-01 4.704329e-01 1.193967e-01
<GCONST> 1.301948e+02
<STATE> 3
<MEAN> 39
 1.731323e+00 -7.639905e+00 8.373934e-01 -1.473223e+01 -9.268589e+00 8.893628e-01 -2.006999e+01 -1.135656e+01 -1.019331e-01 4.316840e+00 6.090245e-01 -7.341539e+00 6.727999e+01 -1.232186e-01 2.232457e-02 -9.240349e-02 -2.527500e-01 1.511519e-01 1.601070e-01 -4.079471e-02 3.354252e-01 -2.018888e-03 -1.389862e-01 -1.084779e-01 -6.928194e-02 9.202762e-02 -2.424355e-01 -1.975621e-01 -3.957568e-01 2.427350e-01 -1.431617e-01 5.931675e-02 5.854769e-01 6.746569e-01 8.739569e-02 -4.839125e-01 -3.439183e-01 -7.572085e-02 2.345441e-01
<VARIANCE> 39
 1.682710e+01 2.986539e+01 6.590284e+01 8.392339e+01 5.812200e+01 7.051196e+01 9.500986e+01 1.025250e+02 7.538042e+01 5.835598e+01 5.468517e+01 4.927358e+01 2.452624e+01 5.308204e-01 1.292897e+00 2.310122e+00 2.638149e+00 2.142934e+00 2.877011e+00 3.180762e+00 4.481357e+00 3.385387e+00 2.692029e+00 2.864850e+00 2.143029e+00 9.321685e-01 1.112152e-01 2.925998e-01 3.119733e-01 5.242759e-01 6.690439e-01 7.027842e-01 8.127024e-01 8.077366e-01 7.034137e-01 6.636124e-01 7.364136e-01 4.999972e-01 1.226486e-01
<GCONST> 1.230956e+02
<STATE> 4
<MEAN> 39
 5.427914e-01 -6.231043e+00 -1.228632e+00 -1.245377e+01 -8.163572e+00 5.264841e-01 -1.672794e+01 -8.030851e+00 2.654542e-01 1.685873e+00 -2.298455e+00 -6.975142e+00 6.499886e+01 -5.580102e-01 -1.338507e-01 -5.470185e-01 7.846463e-01 6.169805e-02 -9.118611e-02 1.277648e+00 1.328938e+00 -5.895105e-02 -1.048397e+00 -7.734811e-01 -3.548812e-02 -1.434820e-01 -1.226993e-01 1.134105e-03 -4.660648e-02 8.581849e-02 -5.668456e-02 9.555034e-04 2.850115e-01 8.653515e-02 -1.207476e-01 -1.630306e-01 4.345843e-02 4.420885e-02 -4.336641e-02
<VARIANCE> 39
 1.790841e+01 4.003929e+01 7.742570e+01 8.746008e+01 6.671515e+01 8.027769e+01 8.645871e+01 1.021900e+02 6.949178e+01 5.484520e+01 5.729704e+01 4.678724e+01 6.216233e+01 8.350646e-01 3.071184e+00 2.956598e+00 3.844721e+00 4.367244e+00 4.656415e+00 4.525428e+00 5.903661e+00 4.912603e+00 3.751362e+00 4.646462e+00 3.216637e+00 3.244224e+00 1.347259e-01 2.870036e-01 2.811215e-01 5.580560e-01 6.634077e-01 5.738181e-01 6.931450e-01 6.530395e-01 6.196713e-01 6.020735e-01 6.028104e-01 4.310760e-01 2.110341e-01
<GCONST> 1.307272e+02
<TRANSP> 5
 0.000000e+00 1.000000e+00 0.000000e+00 0.000000e+00 0.000000e+00
 0.000000e+00 5.708859e-01 4.291141e-01 0.000000e+00 0.000000e+00
 0.000000e+00 0.000000e+00 6.145238e-01 3.854762e-01 0.000000e+00
 0.000000e+00 0.000000e+00 0.000000e+00 4.815336e-01 5.184664e-01
 0.000000e+00 0.000000e+00 0.000000e+00 0.000000e+00 0.000000e+00
<ENDHMM>
~h "m"
<BEGINHMM>
<NUMSTATES> 5
<STATE> 2
<MEAN> 39
 2.321302e+00 -3.772682e+00 1.383934e-02 -5.466289e+00 -8.903346e+00 1.803916e+00 -9.944294e+00 -9.671903e+00 -1.000329e+01 -2.541033e+00 -8.248864e-01 -7.857798e+00 6.004684e+01 7.040803e-01 1.090424e+00 1.709824e+00 1.981094e+00 3.943566e-02 5.236196e-01 5.663788e-01 -2.704048e+00 -2.827422e+00 -1.126282e-01 -4.928759e-01 2.541858e-01 -6.964782e-01 -3.016522e-01 -2.227356e-01 9.095760e-02 -1.112720e-01 -3.316414e-02 -1.181587e-02 -1.078476e-02 1.110974e-01 7.621370e-02 -1.528013e-01 -1.847108e-01 9.288596e-02 3.330261e-01
<VARIANCE> 39
 2.657143e+01 4.172771e+01 4.918328e+01 7.022416e+01 5.232510e+01 6.655234e+01 6.558691e+01 7.456968e+01 7.172556e+01 5.166968e+01 6.238137e+01 4.149262e+01 8.226330e+01 2.334944e+00 2.736577e+00 3.827753e+00 4.574041e+00 4.060035e+00 4.123207e+00 5.180697e+00 5.401732e+00 5.959971e+00 4.506585e+00 6.372406e+00 4.077965e+00 5.659612e+00 2.751432e-01 3.260769e-01 5.170184e-01 6.523618e-01 5.378830e-01 4.775413e-01 5.996131e-01 8.468343e-01 9.033257e-01 5.255150e-01 7.685665e-01 4.710974e-01 2.997692e-01
<GCONST> 1.346203e+02
<STATE> 3
<MEAN> 39
 3.160495e+00 -3.472493e+00 3.760441e+00 -1.771352e+00 -9.051699e+00 3.720521e+00 -9.154873e+00 -1.593688e+01 -1.655063e+01 -3.590396e+00 -1.928292e+00 -6.255831e+00 6.122951e+01 -5.943526e-02 -5.456356e-02 2.895832e-01 7.758106e-02 5.339553e-02 2.561281e-01 1.105627e-01 -2.631881e-01 -4.420867e-01 -3.619535e-01 -2.621366e-01 1.659516e-01 2.582969e-01 -8.996059e-02 -2.421132e-01 -5.775807e-01 -7.394598e-01 -5.091021e-02 -1.466722e-01 -1.887245e-01 9.322875e-01 9.720581e-01 4.747561e-02 1.641946e-01 -1.904616e-01 3.029537e-01
<VARIANCE> 39
 1.181182e+01 2.795478e+01 3.173742e+01 5.175440e+01 4.808117e+01 7.021109e+01 8.418195e+01 7.500030e+01 6.311282e+01 7.444594e+01 7.972156e+01 4.403337e+01 2.515299e+01 5.296066e-01 1.167095e+00 2.001220e+00 3.012936e+00 1.701472e+00 2.113041e+00 2.179975e+00 3.126608e+00 3.964027e+00 2.290361e+00 3.184226e+00 2.001664e+00 1.577778e+00 1.509964e-01 2.281244e-01 3.691693e-01 4.165202e-01 4.006187e-01 4.248792e-01 5.848334e-01 5.940488e-01 7.566493e-01 5.975514e-01 8.036277e-01 5.261279e-01 2.073844e-01
<GCONST> 1.193315e+02
<STATE> 4
<MEAN> 39
 1.964171e+00 -1.930910e+00 4.300385e+00 -3.684631e+00 -9.702138e+00 3.852423e+00 -9.142066e+00 -1.203611e+01 -1.353666e+01 -4.982504e+00 -5.014998e+00 -6.722446e+00 6.021104e+01 -6.273352e-02 2.569943e-02 -7.360321e-01 -7.692260e-01 -2.976241e-02 -2.434038e-01 -1.601511e-02 9.673315e-01 1.054049e+00 1.853458e-01 2.937448e-01 -1.158825e-01 1.427954e-01 -7.768137e-02 -9.986109e-02 -2.364312e-01 -1.804057e-01 5.039122e-02 -8.265958e-02 -8.391821e-02 2.256959e-01 2.954616e-01 8.755982e-02 1.627423e-01 -2.907913e-02 1.107635e-02
<VARIANCE> 39
 1.247479e+01 2.811013e+01 3.968123e+01 5.670255e+01 7.232784e+01 7.626706e+01 7.330456e+01 6.206654e+01 6.640716e+01 5.593501e+01 6.340743e+01 4.291981e+01 4.243667e+01 5.908116e-01 1.892198e+00 2.832470e+00 3.723876e+00 2.362123e+00 2.438358e+00 2.604891e+00 3.515934e+00 4.505249e+00 2.551234e+00 3.478795e+00 2.323178e+00 2.875780e+00 1.307744e-01 2.034673e-01 3.232384e-01 3.848446e-01 4.140899e-01 4.092398e-01 3.858669e-01 4.879962e-01 5.573317e-01 3.981033e-01 5.088628e-01 3.672207e-01 1.734237e-01
<GCONST> 1.201011e+02
<TRANSP> 5
 0.000000e+00 1.000000e+00 0.000000e+00 0.000000e+00 0.000000e+00
 0.000000e+00 5.331897e-01 4.668103e-01 0.000000e+00 0.000000e+00
 0.000000e+00 0.000000e+00 6.647965e-01 3.352034e-01 0.000000e+00
 0.000000e+00 0.000000e+00 0.000000e+00 7.212465e-01 2.787535e-01
 0.000000e+00 0.000000e+00 0.000000e+00 0.000000e+00 0.000000e+00
<ENDHMM>
~h "n"
<BEGINHMM>
<NUMSTATES> 5
<STATE> 2
<MEAN> 39
 1.607673e+00 -7.960729e+00 9.020218e-01 -4.159237e+00 -1.153992e+01 -4.368613e+00 -1.430509e+01 -2.630680e+00 -2.089904e+00 -2.693732e+00 -6.395734e+00 -8.302906e+00 6.594772e+01 8.120728e-01 2.289643e+00 1.831011e+00 2.334414e+00 -5.575061e-01 -8.130735e-01 2.206130e-01 -3.698518e+00 -9.849108e-01 1.138172e+00 -8.211300e-01 4.983082e-01 -2.334674e+00 -1.480469e-01 1.505831e-01 1.967916e-02 -1.594484e-01 -2.050012e-02 1.917956e-01 3.431616e-01 -4.478765e-01 -2.211850e-01 8.473305e-02 3.896378e-02 1.543948e-01 3.984135e-02
<VARIANCE> 39
 1.127786e+01 4.288335e+01 5.363669e+01 4.921123e+01 5.127888e+01 5.622667e+01 5.906415e+01 1.135999e+02 6.945725e+01 4.961298e+01 4.924999e+01 4.332042e+01 3.579304e+01 8.206518e-01 2.014640e+00 3.683362e+00 2.925628e+00 4.070489e+00 5.236173e+00 5.179805e+00 5.692687e+00 5.119249e+00 4.754151e+00 5.068554e+00 3.475983e+00 1.102055e+00 1.239541e-01 4.023577e-01 3.888894e-01 4.875744e-01 5.362486e-01 6.275576e-01 6.305044e-01 1.257437e+00 7.176205e-01 6.722979e-01 5.128501e-01 4.310969e-01 2.361778e-01
<GCONST> 1.277212e+02
<STATE> 3
<MEAN> 39
 2.807317e+00 -2.489381e+00 4.954760e+00 2.620061e-01 -1.372454e+01 -5.018661e+00 -1.159829e+01 -1.369714e+01 -5.341749e+00 9.025487e-01 -7.441988e+00 -6.338811e+00 6.153964e+01 1.472997e-01 8.682404e-01 6.265013e-01 5.386903e-01 -2.054109e-01 3.471686e-02 3.858490e-01 -1.390454e+00 -7.020724e-01 4.691508e-01 -2.345135e-01 4.495285e-01 -7.548140e-01 -2.608815e-01 -5.221418e-01 -4.724844e-01 -6.260503e-01 2.625096e-01 2.078842e-01 -1.322706e-01 1.194013e+00 2.395048e-01 -4.298575e-01 2.783277e-01 -1.035991e-01 4.930099e-01
<VARIANCE> 39
 1.098023e+01 2.516605e+01 3.593636e+01 4.060345e+01 4.473853e+01 6.260580e+01 7.122478e+01 8.966863e+01 6.615844e+01 4.851036e+01 5.841324e+01 4.856782e+01 2.297261e+01 5.508100e-01 1.874708e+00 2.240898e+00 1.988992e+00 2.257658e+00 2.726374e+00 3.090386e+00 5.589945e+00 3.619527e+00 2.808107e+00 2.780108e+00 2.196439e+00 1.259338e+00 1.427368e-01 2.744839e-01 5.046642e-01 4.115225e-01 5.341314e-01 6.388963e-01 6.888421e-01 8.011769e-01 7.376868e-01 6.306714e-01 6.628152e-01 5.003602e-01 1.920920e-01
<GCONST> 1.209950e+02
<STATE> 4
<MEAN> 39
 2.102598e+00 -1.683086e-01 5.845062e+00 9.490245e-01 -1.168938e+01 -4.623783e+00 -1.080161e+01 -1.125901e+01 -6.657038e+00 -9.635702e-01 -8.031852e+00 -5.423135e+00 5.736686e+01 -3.337493e-01 4.228332e-01 -1.617311e-01 1.534154e-02 6.469486e-01 1.391793e-01 2.003030e-01 5.639818e-01 -1.140850e-01 -3.209895e-01 1.442049e-01 7.724574e-02 -8.532213e-01 -1.904062e-01 -1.147657e-01 -1.590488e-01 -1.669567e-01 1.324240e-01 1.754444e-02 -5.728601e-03 2.905339e-01 1.104486e-01 -1.203890e-01 1.098084e-01 -5.425381e-02 -7.918885e-03
<VARIANCE> 39
 1.256781e+01 2.860500e+01 3.570992e+01 4.157092e+01 6.206385e+01 6.194183e+01 6.483193e+01 7.293169e+01 5.930376e+01 5.537844e+01 6.481966e+01 4.928617e+01 4.534239e+01 8.062620e-01 1.704438e+00 1.553616e+00 1.831132e+00 2.312401e+00 2.172503e+00 2.454793e+00 3.524189e+00 2.705217e+00 2.333768e+00 2.483561e+00 1.969847e+00 2.019377e+00 1.558838e-01 2.546195e-01 2.769968e-01 3.342813e-01 4.236795e-01 4.005315e-01 4.461267e-01 5.785006e-01 4.668472e-01 4.448898e-01 4.456747e-01 3.553022e-01 1.971696e-01
<GCONST> 1.170565e+02
<TRANSP> 5
 0.000000e+00 1.000000e+00 0.000000e+00 0.000000e+00 0.000000e+00
 0.000000e+00 5.024867e-01 4.975133e-01 0.000000e+00 0.000000e+00
 0.000000e+00 0.000000e+00 6.064776e-01 3.935224e-01 0.000000e+00
 0.000000e+00 0.000000e+00 0.000000e+00 7.802268e-01 2.197732e-01
 0.000000e+00 0.000000e+00 0.000000e+00 0.000000e+00 0.000000e+00
<ENDHMM>
~h "o"
<BEGINHMM>
<NUMSTATES> 5
<STATE> 2
<MEAN> 39
 2.789871e-01 -3.686060e+00 -6.328544e+00 -1.606718e+01 -1.165963e+01 3.798074e+00 -1.310019e+01 -5.144668e+00 -2.656139e+00 -1.033063e+00 1.203003e+00 -5.511066e+00 6.434101e+01 1.865431e+00 -7.000460e-01 -6.983675e-01 -2.810751e+00 -1.324118e+00 2.436242e+00 -4.954341e-01 -6.568957e-02 6.626927e-01 3.428331e-02 1.186015e+00 -6.402435e-01 2.168102e+00 -4.486260e-01 -1.679903e-02 9.803394e-02 2.815984e-01 3.076407e-01 -1.168234e-02 2.991507e-01 -2.409696e-02 -1.772099e-01 -7.881327e-02 -1.000058e-02 1.205239e-01 -4.605202e-01
<VARIANCE> 39
 3.025741e+01 4.102501e+01 4.784198e+01 1.028884e+02 5.885473e+01 7.227586e+01 8.164515e+01 6.800648e+01 6.602359e+01 6.314525e+01 5.426193e+01 3.990246e+01 9.786777e+01 4.420447e+00 2.919351e+00 5.780501e+00 6.396971e+00 7.098073e+00 5.673922e+00 4.989684e+00 6.292355e+00 5.303929e+00 5.666118e+00 4.706495e+00 3.827311e+00 5.282551e+00 7.625305e-01 5.278034e-01 6.479770e-01 1.289356e+00 8.536030e-01 9.419518e-01 9.191377e-01 7.923426e-01 9.038787e-01 7.862713e-01 7.135901e-01 5.749097e-01 1.132988e+00
<GCONST> 1.434156e+02
<STATE> 3
<MEAN> 39
 2.476603e+00 -6.446813e+00 -8.378079e+00 -1.913423e+01 -1.372398e+01 9.730124e+00 -1.399586e+01 -6.020107e+00 -1.540391e+00 -1.390708e+00 5.391497e+00 -7.013943e+00 7.003860e+01 7.650896e-02 -1.822803e-01 -2.480738e-01 -7.526734e-01 2.255779e-01 8.013328e-01 2.210805e-01 1.120977e-01 -1.086454e-01 -8.963033e-02 3.244278e-01 -8.254635e-02 1.865695e-01 -2.649065e-01 2.626079e-01 2.976076e-01 7.754070e-01 3.706190e-01 -7.898315e-01 1.485331e-01 -1.553355e-02 -2.124285e-01 -5.265408e-03 -5.204363e-01 1.855892e-01 -5.690458e-01
<VARIANCE> 39
 1.213403e+01 3.482401e+01 3.664565e+01 6.755338e+01 5.197404e+01 5.513850e+01 7.751295e+01 7.647308e+01 6.801380e+01 7.485642e+01 5.995821e+01 4.637506e+01 2.070094e+01 5.634705e-01 1.643290e+00 1.547802e+00 4.358962e+00 2.538880e+00 4.094554e+00 3.437273e+00 3.279243e+00 4.045783e+00 3.709858e+00 3.020329e+00 2.540016e+00 1.101984e+00 2.557904e-01 2.920631e-01 3.650390e-01 5.435997e-01 7.070296e-01 5.461279e-01 6.359919e-01 7.439767e-01 7.210804e-01 7.576891e-01 6.228476e-01 5.384567e-01 2.582983e-01
<GCONST> 1.241587e+02
<STATE> 4
<MEAN> 39
 2.577615e+00 -4.115817e+00 -7.381271e+00 -2.183929e+01 -1.162167e+01 8.887634e+00 -1.184526e+01 -5.315068e+00 -3.185301e+00 -2.141405e+00 2.985089e+00 -5.348523e+00 6.641826e+01 -3.666408e-02 2.444826e-01 2.188358e-01 9.407457e-01 3.506089e-01 -6.474284e-01 1.180815e-01 -1.328399e-01 -4.733599e-03 8.194852e-02 -5.069513e-01 -6.093786e-02 -8.311200e-01 -5.915615e-02 6.722248e-02 1.326976e-01 4.015516e-01 3.894980e-02 -2.236191e-01 -7.944605e-03 -8.054176e-02 1.766702e-02 1.510173e-02 -1.259937e-01 1.095009e-03 -2.450057e-01
<VARIANCE> 39
 1.269976e+01 4.217543e+01 4.022815e+01 6.652406e+01 5.568222e+01 5.464567e+01 7.058982e+01 6.733898e+01 6.836020e+01 6.791645e+01 4.964525e+01 5.102155e+01 4.888437e+01 5.207180e-01 1.465632e+00 1.256186e+00 3.084540e+00 2.191274e+00 2.493170e+00 2.463260e+00 2.412954e+00 2.511660e+00 2.516153e+00 2.194388e+00 1.866098e+00 2.196941e+00 1.030454e-01 2.186606e-01 2.201810e-01 3.549229e-01 3.735791e-01 3.648549e-01 4.352158e-01 4.161455e-01 4.444154e-01 4.486940e-01 3.589709e-01 3.540811e-01 2.306699e-01
<GCONST> 1.159293e+02
<TRANSP> 5
 0.000000e+00 1.000000e+00 0.000000e+00 0.000000e+00 0.000000e+00
 0.000000e+00 5.252673e-01 4.747328e-01 0.000000e+00 0.000000e+00
 0.000000e+00 0.000000e+00 6.336113e-01 3.663887e-01 0.000000e+00
 0.000000e+00 0.000000e+00 0.000000e+00 8.196413e-01 1.803588e-01
 0.000000e+00 0.000000e+00 0.000000e+00 0.000000e+00 0.000000e+00
<ENDHMM>
~h "p"
<BEGINHMM>
<NUMSTATES> 5
<STATE> 2
<MEAN> 39
 -5.763908e+00 1.655486e+00 -3.214003e+00 -4.692317e+00 -6.346483e+00 -2.888872e+00 -6.724134e+00 -6.314080e+00 -4.528001e+00 -2.638572e+00 -3.354419e+00 -4.943411e+00 3.953708e+01 -1.123547e+00 1.647005e-01 -2.114138e-01 2.879866e-01 1.401161e-01 -5.479699e-01 2.339981e-01 2.484371e-01 2.488999e-01 -1.967091e-02 -5.416703e-02 3.937230e-01 -1.437285e+00 -1.634650e-02 -3.555818e-01 -1.530436e-02 -1.411866e-01 -8.193252e-02 4.641132e-02 -1.426927e-01 4.232566e-02 -2.120129e-02 2.062149e-02 1.268851e-01 3.237177e-02 9.117976e-01
<VARIANCE> 39
 4.327379e+01 2.368686e+01 3.446873e+01 3.361525e+01 2.447768e+01 3.668253e+01 2.871872e+01 2.926110e+01 3.605838e+01 2.684991e+01 2.601454e+01 2.708923e+01 4.965336e+01 1.345156e+00 1.429513e+00 1.526191e+00 1.726591e+00 1.899164e+00 2.243479e+00 2.029765e+00 2.177733e+00 2.397952e+00 2.072370e+00 2.100719e+00 1.780596e+00 3.728114e+00 2.712205e-01 3.383159e-01 3.414918e-01 3.847971e-01 4.245552e-01 4.429596e-01 4.291399e-01 4.562899e-01 4.841139e-01 4.356598e-01 4.195743e-01 3.554765e-01 7.401679e-01
<GCONST> 1.138540e+02
<STATE> 3
<MEAN> 39
 -9.351727e+00 4.366894e-02 -2.649187e+00 -3.138414e+00 -5.677569e+00 -4.409335e+00 -6.732671e+00 -5.123657e+00 -3.897357e+00 -2.646408e+00 -2.734854e+00 -2.946308e+00 4.214044e+01 1.873600e-01 -1.774447e+00 -5.700948e-01 -9.916050e-01 -2.881560e-01 2.222651e-01 -5.574785e-01 1.250060e-01 1.671421e-01 6.841823e-02 6.285267e-01 6.259035e-02 5.425764e+00 1.057771e+00 -5.342309e-01 -1.977912e-01 -8.577096e-01 -4.966658e-01 6.405488e-01 -3.553782e-01 -5.732729e-02 -3.373007e-02 7.577333e-02 2.672121e-01 -5.072665e-01 1.792878e+00
<VARIANCE> 39
 2.888507e+01 2.512573e+01 2.484640e+01 2.398713e+01 2.343763e+01 3.100617e+01 2.829498e+01 2.758236e+01 3.099906e+01 2.324207e+01 2.221958e+01 2.073718e+01 9.000486e+01 5.387929e+00 3.396111e+00 3.977575e+00 5.415399e+00 3.773883e+00 5.684725e+00 3.855435e+00 3.977330e+00 4.446012e+00 3.306351e+00 3.315174e+00 3.049349e+00 9.363197e+00 4.660516e-01 7.690427e-01 7.579721e-01 8.084756e-01 7.659788e-01 9.996274e-01 7.325196e-01 8.111756e-01 8.332173e-01 6.506737e-01 6.339360e-01 6.028387e-01 1.428565e+00
<GCONST> 1.306058e+02
<STATE> 4
<MEAN> 39
 -4.149296e+00 -6.398250e+00 -6.715706e+00 -1.021394e+01 -7.857223e+00 -8.697507e-01 -8.841908e+00 -5.930517e+00 -3.467048e+00 -1.921134e+00 -3.064591e-01 -5.076380e+00 6.228362e+01 2.760769e+00 -2.345146e+00 -8.262160e-01 -2.862577e+00 -1.200958e+00 2.142159e+00 -1.225649e+00 9.359864e-02 3.029784e-01 3.512811e-01 8.849726e-01 -1.551216e+00 6.249111e+00 8.021109e-02 2.930171e-01 3.393902e-01 2.539854e-01 -7.338829e-02 2.875048e-02 -5.874017e-02 1.832038e-01 7.223296e-02 -3.657501e-02 -2.683618e-01 -2.193287e-01 -1.223967e+00
<VARIANCE> 39
 4.707981e+01 3.274582e+01 3.174663e+01 7.184679e+01 2.878564e+01 7.751659e+01 3.373846e+01 3.469503e+01 3.308364e+01 2.966703e+01 2.990889e+01 3.062793e+01 6.370084e+01 4.202812e+00 6.537998e+00 6.652322e+00 7.985547e+00 6.349988e+00 9.041328e+00 5.571607e+00 6.610905e+00 6.419395e+00 4.611002e+00 4.862362e+00 4.928422e+00 1.021097e+01 1.074056e+00 7.862373e-01 6.213886e-01 1.385380e+00 1.030957e+00 1.358084e+00 7.185826e-01 7.724758e-01 8.977907e-01 6.869103e-01 7.866837e-01 6.836037e-01 1.085931e+00
<GCONST> 1.416274e+02
<TRANSP> 5
 0.000000e+00 1.000000e+00 0.000000e+00 0.000000e+00 0.000000e+00
 0.000000e+00 8.039657e-01 1.960343e-01 0.000000e+00 0.000000e+00
 0.000000e+00 0.000000e+00 5.776016e-01 4.223984e-01 0.000000e+00
 0.000000e+00 0.000000e+00 0.000000e+00 3.964014e-01 6.035985e-01
 0.000000e+00 0.000000e+00 0.000000e+00 0.000000e+00 0.000000e+00
<ENDHMM>
~h "r"
<BEGINHMM>
<NUMSTATES> 5
<STATE> 2
<MEAN> 39
 1.289489e-01 -8.648947e+00 -5.953193e+00 -4.939349e+00 -1.159579e+01 -4.545388e+00 -1.273096e+01 -4.234694e+00 3.243236e+00 -2.529800e-01 -2.409753e+00 -7.430482e+00 6.757857e+01 1.868300e-01 2.655314e-01 2.704695e-01 1.865538e+00 1.145646e-01 -5.880548e-01 -4.488495e-01 -7.006202e-01 5.009382e-01 -2.217453e-01 -4.099429e-02 5.703554e-01 -1.245140e+00 -1.328103e-01 -2.067022e-02 1.684331e-01 -2.922395e-01 2.907480e-02 1.837512e-01 -5.573773e-02 2.435824e-01 -4.721430e-01 -1.114807e-01 1.064820e-01 3.527920e-02 2.336371e-02
<VARIANCE> 39
 1.902866e+01 3.189348e+01 5.542850e+01 4.680096e+01 5.442182e+01 5.781154e+01 6.451331e+01 9.393774e+01 5.863628e+01 4.915000e+01 4.968447e+01 4.037816e+01 4.463726e+01 2.656274e+00 2.345184e+00 3.401465e+00 4.972558e+00 5.380794e+00 5.238792e+00 5.023611e+00 5.080555e+00 5.880796e+00 4.928384e+00 4.551624e+00 3.615421e+00 2.979257e+00 3.735743e-01 3.623609e-01 4.407637e-01 6.621678e-01 6.982176e-01 6.608232e-01 7.432763e-01 8.276229e-01 7.891151e-01 6.960524e-01 6.081819e-01 5.441374e-01 5.524099e-01
<GCONST> 1.337847e+02
<STATE> 3
<MEAN> 39
 -7.633992e-01 -7.572853e+00 -3.637171e+00 -1.125029e+00 -9.822906e+00 -5.322870e+00 -1.446581e+01 -4.471227e+00 2.277729e+00 -1.314923e+00 -2.119420e+00 -5.622329e+00 6.401973e+01 1.407112e-01 -1.509521e-01 4.198898e-01 3.614707e-01 -2.136469e-01 -1.979975e-01 -6.219947e-01 3.506975e-01 -7.067358e-01 -1.746918e-01 3.306711e-01 3.016008e-01 -2.612637e-01 6.338874e-02 -1.597016e-01 -1.603325e-02 -6.934536e-01 -2.808093e-01 2.993631e-01 1.182630e-01 3.137439e-01 -3.992278e-01 3.386904e-02 1.520823e-01 -2.569162e-01 4.642383e-01
<VARIANCE> 39
 2.219364e+01 2.410952e+01 5.131909e+01 3.765006e+01 5.566098e+01 4.930709e+01 5.345879e+01 6.843230e+01 4.893901e+01 4.588864e+01 3.855408e+01 3.359444e+01 4.007574e+01 2.039984e+00 2.079539e+00 3.119219e+00 2.349156e+00 4.647026e+00 4.089008e+00 3.739568e+00 4.480340e+00 4.496893e+00 3.452005e+00 3.516650e+00 3.172992e+00 2.387152e+00 5.309233e-01 5.547686e-01 6.151192e-01 8.178206e-01 1.257989e+00 9.649360e-01 9.995280e-01 1.050530e+00 1.137325e+00 9.700435e-01 9.140473e-01 7.176908e-01 6.923793e-01
<GCONST> 1.330890e+02
<STATE> 4
<MEAN> 39
 2.145661e-01 -8.198411e+00 -4.731352e+00 -2.494753e+00 -1.068237e+01 -5.294235e+00 -1.428524e+01 -3.393501e+00 5.138347e-01 -1.059019e+00 -1.186651e+00 -6.530226e+00 6.375627e+01 8.495217e-02 1.504677e-01 4.020448e-01 -2.456426e-01 -1.337696e-01 2.559888e-01 2.421758e-01 2.395157e-01 -7.768947e-01 -1.678858e-01 1.200754e-01 -4.456754e-03 -3.959563e-01 -1.292248e-01 9.362805e-02 9.359656e-02 -1.880339e-01 2.439533e-03 1.689029e-01 2.255897e-01 -5.277344e-03 -7.369843e-02 -4.778573e-02 -7.128960e-02 -6.855877e-02 -3.002309e-02
<VARIANCE> 39
 2.763572e+01 3.316779e+01 6.972259e+01 4.149205e+01 6.361233e+01 6.065534e+01 6.031883e+01 7.567725e+01 5.362843e+01 5.091198e+01 4.935413e+01 4.207067e+01 6.347271e+01 2.318264e+00 3.263376e+00 3.074549e+00 2.500366e+00 4.874984e+00 3.642951e+00 3.899452e+00 4.424554e+00 4.450498e+00 3.353410e+00 3.377501e+00 2.867642e+00 4.356764e+00 4.166924e-01 4.091275e-01 4.320012e-01 5.236498e-01 7.985221e-01 6.456124e-01 6.903771e-01 7.083489e-01 7.088076e-01 6.523201e-01 6.345180e-01 5.347470e-01 5.003931e-01
<GCONST> 1.319088e+02
<TRANSP> 5
 0.000000e+00 1.000000e+00 0.000000e+00 0.000000e+00 0.000000e+00
 0.000000e+00 3.857385e-01 6.142615e-01 0.000000e+00 0.000000e+00
 0.000000e+00 0.000000e+00 3.574822e-01 6.425178e-01 0.000000e+00
 0.000000e+00 0.000000e+00 0.000000e+00 5.923097e-01 4.076903e-01
 0.000000e+00 0.000000e+00 0.000000e+00 0.000000e+00 0.000000e+00
<ENDHMM>
~h "s"
<BEGINHMM>
<NUMSTATES> 5
<STATE> 2
<MEAN> 39
 -1.164624e+01 2.637716e+00 -3.719361e-01 -3.752523e+00 -3.021046e+00 -7.183321e+00 -7.818916e+00 -1.630975e+00 -2.875171e+00 -2.237799e+00 -4.246753e+00 -2.796886e+00 6.335812e+01 -4.481194e+00 2.258201e+00 -5.970418e-01 7.449180e-01 1.879863e+00 -4.601971e-01 1.579682e+00 6.311311e-01 3.115435e-01 -3.733220e-01 4.056485e-01 9.020165e-01 -5.063076e-01 -4.214431e-01 -4.401838e-01 -3.084135e-01 -2.792909e-01 -3.636061e-01 2.892651e-01 -1.680683e-01 -1.756966e-02 -6.980058e-02 1.283559e-02 2.590530e-01 -1.163341e-01 -1.736828e-02
<VARIANCE> 39
 7.564371e+01 4.910689e+01 4.893999e+01 4.270107e+01 5.567292e+01 4.685208e+01 7.580990e+01 5.555719e+01 4.598573e+01 3.926835e+01 4.170452e+01 3.200955e+01 6.312323e+01 3.464939e+00 5.169453e+00 4.124697e+00 4.231604e+00 5.366105e+00 4.588508e+00 5.317354e+00 5.393174e+00 4.215515e+00 3.589864e+00 3.738230e+00 2.949015e+00 2.668687e+00 1.034186e+00 9.405888e-01 4.309992e-01 5.939922e-01 7.806908e-01 6.194374e-01 9.390778e-01 7.313361e-01 6.455992e-01 6.150482e-01 5.785083e-01 4.810872e-01 2.406330e-01
<GCONST> 1.348785e+02
<STATE> 3
<MEAN> 39
 -2.878234e+01 4.307041e+00 -5.449694e+00 -4.017082e+00 -5.070714e-01 -6.217475e+00 -4.805542e+00 -2.089395e-01 -2.050636e+00 -2.106028e+00 -7.358267e-01 -1.833503e-01 6.070173e+01 -8.370906e-01 -4.720018e-01 -4.647406e-01 -2.050006e-01 -1.506600e-01 7.168332e-02 7.733244e-02 6.518223e-02 1.003405e-01 8.979385e-02 2.091603e-01 2.019996e-01 -2.479931e-01 8.926845e-01 -2.207582e-01 2.309048e-01 -3.285388e-02 -2.015287e-01 -7.144035e-02 -1.905546e-01 -1.023680e-01 3.587149e-03 -2.739481e-03 -1.561373e-01 -1.359682e-01 6.509186e-02
<VARIANCE> 39
 2.441285e+01 2.193314e+01 3.570337e+01 3.222209e+01 3.499569e+01 3.666854e+01 4.741622e+01 2.890938e+01 3.032317e+01 2.306407e+01 2.338430e+01 1.964066e+01 2.803015e+01 2.957893e+00 1.528558e+00 1.774417e+00 1.432896e+00 1.677943e+00 1.801206e+00 1.911610e+00 1.910918e+00 1.933421e+00 1.763586e+00 1.715407e+00 1.463920e+00 8.577724e-01 4.487658e-01 3.206937e-01 3.242260e-01 3.166166e-01 3.928802e-01 3.799219e-01 4.508561e-01 4.303045e-01 4.040171e-01 3.715082e-01 3.575068e-01 3.221815e-01 1.529635e-01
<GCONST> 1.085471e+02
<STATE> 4
<MEAN> 39
 -2.188600e+01 6.058895e-01 -4.830023e+00 -4.885861e+00 -3.104890e+00 -7.721439e+00 -6.444501e+00 -8.976303e-01 -1.351896e+00 -2.201833e+00 -2.384933e+00 -1.109012e+00 5.993358e+01 4.613171e+00 -7.133811e-01 1.080586e+00 -3.236703e-01 -1.233221e+00 7.116497e-03 -1.649983e+00 -9.542437e-01 -4.124442e-02 -3.971180e-02 -7.469483e-01 -1.230130e+00 4.262438e-01 7.553644e-01 -4.613360e-02 2.452934e-01 -1.212921e-01 -2.501720e-01 3.430256e-01 -3.855780e-01 -1.877647e-01 -1.172227e-01 2.138378e-02 8.163892e-02 -2.794777e-01 3.004200e-01
<VARIANCE> 39
 7.003332e+01 2.804142e+01 4.228957e+01 3.203587e+01 3.614837e+01 3.889657e+01 5.759906e+01 3.570904e+01 3.271891e+01 2.636057e+01 2.763297e+01 2.538450e+01 5.198169e+01 6.342139e+00 3.915280e+00 4.896204e+00 3.971864e+00 3.787823e+00 4.576173e+00 5.239572e+00 5.021364e+00 4.584665e+00 2.980791e+00 3.014394e+00 2.900487e+00 5.586339e+00 1.364884e+00 5.998421e-01 6.135262e-01 5.767620e-01 6.111366e-01 7.399604e-01 9.402921e-01 8.348599e-01 7.114666e-01 5.622664e-01 5.964397e-01 5.372306e-01 5.151563e-01
<GCONST> 1.324263e+02
<TRANSP> 5
 0.000000e+00 1.000000e+00 0.000000e+00 0.000000e+00 0.000000e+00
 0.000000e+00 7.134107e-01 2.865893e-01 0.000000e+00 0.000000e+00
 0.000000e+00 0.000000e+00 8.519554e-01 1.480447e-01 0.000000e+00
 0.000000e+00 0.000000e+00 0.000000e+00 6.893929e-01 3.106071e-01
 0.000000e+00 0.000000e+00 0.000000e+00 0.000000e+00 0.000000e+00
<ENDHMM>
~h "t"
<BEGINHMM>
<NUMSTATES> 5
<STATE> 2
<MEAN> 39
 -4.852264e+00 1.480451e+00 -2.295370e+00 -4.270774e+00 -7.151145e+00 -6.179853e+00 -9.915159e+00 -5.829728e+00 -1.917195e+00 -1.600791e+00 -4.818375e+00 -6.229204e+00 4.477282e+01 -9.696290e-01 2.190611e-01 -2.940397e-01 1.203881e-01 9.716433e-02 -1.059568e-01 6.517675e-01 9.484757e-02 -1.813696e-01 -2.416252e-01 6.641981e-02 4.825971e-01 -2.349836e+00 -2.483427e-01 -5.053136e-01 -7.814654e-02 -2.418303e-01 -6.506471e-02 4.455127e-02 -5.483971e-02 1.351381e-01 -2.025073e-02 1.239963e-02 1.603079e-01 1.141726e-01 1.064712e+00
<VARIANCE> 39
 3.288094e+01 3.019186e+01 4.995230e+01 3.942987e+01 3.595202e+01 4.052048e+01 4.440698e+01 4.438726e+01 4.766912e+01 3.279543e+01 3.766938e+01 3.144613e+01 7.450525e+01 1.978657e+00 2.307202e+00 2.041411e+00 2.386873e+00 3.012728e+00 2.574429e+00 2.970531e+00 2.794030e+00 2.660717e+00 2.425173e+00 2.411585e+00 2.099239e+00 5.903404e+00 3.717315e-01 5.003497e-01 4.515234e-01 5.314299e-01 6.768070e-01 5.478445e-01 5.868897e-01 5.910712e-01 5.832327e-01 5.027584e-01 4.970130e-01 4.360053e-01 1.068065e+00
<GCONST> 1.244544e+02
<STATE> 3
<MEAN> 39
 -1.020286e+01 5.607318e-01 -2.074965e+00 -3.099191e+00 -5.853812e+00 -5.770700e+00 -7.005925e+00 -4.834512e+00 -3.475819e+00 -2.490547e+00 -3.159600e+00 -2.997381e+00 4.134745e+01 -1.666566e+00 -2.179367e+00 -6.745656e-01 -1.150186e+00 3.968060e-01 -3.127490e-01 3.521764e-02 5.561088e-01 1.223992e-01 -1.362938e-01 3.603741e-01 5.411828e-01 4.722574e+00 6.933854e-01 -3.109654e-01 2.621410e-02 -4.279934e-01 -4.072195e-01 4.345398e-02 -5.964569e-01 -7.471024e-02 2.177462e-01 1.067472e-01 -6.946772e-02 -4.559735e-01 1.993215e+00
<VARIANCE> 39
 3.313712e+01 3.058877e+01 3.300222e+01 2.707966e+01 3.057030e+01 3.399513e+01 3.274015e+01 3.376083e+01 3.390790e+01 2.424762e+01 2.649723e+01 2.132460e+01 7.971221e+01 3.492812e+00 3.488799e+00 4.272405e+00 3.667338e+00 4.257581e+00 4.312982e+00 4.266403e+00 4.460476e+00 4.839097e+00 3.186234e+00 3.641221e+00 3.178135e+00 1.060484e+01 5.891716e-01 6.576769e-01 7.792217e-01 6.364917e-01 7.668358e-01 8.160340e-01 7.837863e-01 8.340150e-01 8.343858e-01 5.770859e-01 5.978376e-01 5.415499e-01 1.275372e+00
<GCONST> 1.312705e+02
<STATE> 4
<MEAN> 39
 -1.275748e+01 -6.210622e+00 -4.689290e+00 -7.934155e+00 -6.330884e+00 -7.974443e+00 -8.843074e+00 -3.530822e+00 -2.228572e+00 -2.545500e+00 -3.072395e+00 -2.836314e+00 6.132812e+01 1.699168e+00 -1.091792e+00 5.779052e-02 -1.369734e+00 -9.500364e-01 3.916213e-01 -1.766711e+00 -1.512690e-02 6.795171e-01 2.988157e-01 1.401032e-01 -1.138863e+00 5.997328e+00 1.188126e+00 5.198421e-01 4.196253e-01 1.302488e-01 -4.371794e-01 6.182868e-01 -4.103425e-01 -1.837508e-01 -4.875632e-02 9.971290e-02 6.606271e-02 -4.659645e-01 -9.690993e-01
<VARIANCE> 39
 3.280117e+01 2.529933e+01 2.969808e+01 2.766945e+01 3.006615e+01 3.531025e+01 3.870817e+01 3.263088e+01 3.525396e+01 2.817781e+01 2.842798e+01 2.757024e+01 6.569936e+01 5.105087e+00 4.937459e+00 7.159764e+00 5.402843e+00 5.612826e+00 5.993495e+00 6.110594e+00 6.515792e+00 7.458841e+00 3.814298e+00 4.735268e+00 4.149217e+00 1.193683e+01 7.691454e-01 7.466965e-01 9.440840e-01 8.070494e-01 9.626680e-01 1.047678e+00 1.079714e+00 1.080384e+00 1.050624e+00 8.060914e-01 8.401030e-01 7.851079e-01 1.158891e+00
<GCONST> 1.387584e+02
<TRANSP> 5
 0.000000e+00 1.000000e+00 0.000000e+00 0.000000e+00 0.000000e+00
 0.000000e+00 7.777109e-01 2.222891e-01 0.000000e+00 0.000000e+00
 0.000000e+00 0.000000e+00 4.750799e-01 5.249200e-01 0.000000e+00
 0.000000e+00 0.000000e+00 0.000000e+00 4.659032e-01 5.340969e-01
 0.000000e+00 0.000000e+00 0.000000e+00 0.000000e+00 0.000000e+00
<ENDHMM>
~h "u"
<BEGINHMM>
<NUMSTATES> 5
<STATE> 2
<MEAN> 39
 4.024241e-01 1.133855e+00 -2.323906e+00 -9.043443e+00 -1.167726e+01 -3.420137e-01 -1.771321e+01 -8.779674e+00 -6.785868e+00 -2.272449e+00 7.475317e-01 -4.589809e+00 6.232579e+01 2.293140e+00 8.957644e-01 -2.665731e-01 -2.302195e+00 -1.881377e+00 2.410294e+00 -1.598401e+00 -1.049461e+00 -1.042568e+00 1.172426e-02 1.635235e+00 -2.380785e-01 1.259207e+00 -4.404821e-01 2.888951e-02 1.157097e-01 -5.601757e-02 1.240556e-01 2.149274e-01 5.070561e-01 1.919092e-01 -7.104180e-02 -8.463527e-02 -6.369435e-02 1.206893e-01 -5.391508e-01
<VARIANCE> 39
 2.498990e+01 3.919576e+01 3.944876e+01 8.340806e+01 5.300471e+01 5.655859e+01 8.411207e+01 8.003989e+01 5.943166e+01 5.143682e+01 4.162740e+01 3.463395e+01 7.719901e+01 4.563023e+00 3.298309e+00 4.839713e+00 5.340922e+00 6.245848e+00 4.839618e+00 6.270781e+00 7.765194e+00 5.502809e+00 5.473153e+00 4.234760e+00 3.709778e+00 3.927050e+00 7.176318e-01 6.079372e-01 5.410692e-01 9.713132e-01 8.381295e-01 8.007963e-01 1.187571e+00 1.081166e+00 8.974367e-01 8.038693e-01 6.741865e-01 6.023946e-01 8.950382e-01
<GCONST> 1.409537e+02
<STATE> 3
<MEAN> 39
 2.887823e+00 1.860438e+00 -3.579914e+00 -1.376513e+01 -1.577516e+01 7.841911e+00 -1.904316e+01 -1.130749e+01 -9.261264e+00 -3.815035e+00 5.435770e+00 -3.565115e+00 6.520198e+01 2.099881e-01 6.884585e-02 -3.545610e-02 -5.414510e-01 -3.079905e-02 6.876175e-01 -6.815594e-02 -1.034647e-01 -3.094838e-01 1.241312e-01 4.029957e-01 -3.880153e-03 1.808018e-02 -4.050386e-01 -1.460622e-01 2.029376e-01 7.908826e-01 6.507864e-01 -9.373078e-01 4.888828e-01 3.307188e-01 3.901727e-01 1.099567e-01 -7.308828e-01 -1.133231e-01 -4.774224e-01
<VARIANCE> 39
 1.300408e+01 3.571503e+01 3.678421e+01 7.394180e+01 5.035975e+01 5.096131e+01 8.279345e+01 9.732915e+01 7.051775e+01 6.962147e+01 5.019072e+01 4.321434e+01 2.514062e+01 8.525783e-01 3.049174e+00 1.814759e+00 5.879719e+00 4.046036e+00 4.587511e+00 5.108077e+00 5.632245e+00 5.012547e+00 4.818771e+00 3.973816e+00 3.027505e+00 2.097424e+00 3.376298e-01 4.498185e-01 4.528469e-01 7.249858e-01 8.313766e-01 6.545470e-01 9.865617e-01 1.118474e+00 9.037238e-01 9.825967e-01 7.734137e-01 6.749725e-01 3.297461e-01
<GCONST> 1.326056e+02
<STATE> 4
<MEAN> 39
 3.189400e+00 3.945785e+00 -3.367065e+00 -1.533614e+01 -1.349591e+01 4.662832e+00 -1.660048e+01 -7.775211e+00 -9.774210e+00 -3.354486e+00 1.835369e+00 -4.565239e+00 6.156058e+01 -2.104464e-01 -1.499093e-01 2.503570e-01 8.833172e-01 6.453780e-01 -7.550421e-01 6.069921e-01 1.008425e-01 5.529694e-01 2.504632e-01 -6.788886e-01 -1.972299e-01 -8.137665e-01 -1.796967e-01 -8.599242e-02 1.140102e-01 3.412437e-01 1.200998e-01 -1.847415e-01 1.273980e-01 -6.130055e-02 1.531778e-01 -1.648792e-04 -1.400811e-01 1.566249e-02 -1.665867e-01
<VARIANCE> 39
 1.291352e+01 4.404000e+01 3.946429e+01 7.528349e+01 5.254094e+01 5.556483e+01 7.640569e+01 8.095192e+01 6.841187e+01 6.600544e+01 5.111953e+01 4.530894e+01 5.059050e+01 8.111935e-01 2.264987e+00 1.864858e+00 3.723214e+00 3.186527e+00 3.268253e+00 3.416930e+00 3.679793e+00 3.250306e+00 3.306172e+00 3.314503e+00 2.740343e+00 3.054136e+00 1.685732e-01 3.510825e-01 2.834720e-01 4.952910e-01 4.788060e-01 4.562909e-01 6.235529e-01 6.611885e-01 5.461125e-01 6.309349e-01 5.454966e-01 4.994170e-01 2.775460e-01
<GCONST> 1.250862e+02
<TRANSP> 5
 0.000000e+00 1.000000e+00 0.000000e+00 0.000000e+00 0.000000e+00
 0.000000e+00 4.821679e-01 5.178320e-01 0.000000e+00 0.000000e+00
 0.000000e+00 0.000000e+00 6.229824e-01 3.770176e-01 0.000000e+00
 0.000000e+00 0.000000e+00 0.000000e+00 7.579005e-01 2.420995e-01
 0.000000e+00 0.000000e+00 0.000000e+00 0.000000e+00 0.000000e+00
<ENDHMM>
~h "w"
<BEGINHMM>
<NUMSTATES> 5
<STATE> 2
<MEAN> 39
 2.831027e+00 -2.737977e-01 -3.769679e+00 -1.315661e+01 -1.122351e+01 2.697739e+00 -1.303868e+01 -5.806905e+00 -6.206120e+00 -1.589493e+00 1.721887e+00 -5.291986e+00 5.977303e+01 1.492459e+00 1.013469e+00 -8.515681e-02 -2.038700e+00 -1.088073e+00 1.392628e+00 -1.910622e-01 -4.245177e-01 -1.019666e+00 -5.177481e-01 9.067228e-01 6.162265e-01 3.396398e-01 -2.690103e-01 -1.747592e-01 1.518435e-01 -3.763260e-02 -1.663126e-01 -1.206648e-01 1.674535e-01 3.214266e-01 1.103607e-01 -2.253101e-01 -1.417644e-01 8.816254e-02 5.484286e-02
<VARIANCE> 39
 2.483576e+01 6.960905e+01 4.523252e+01 8.935762e+01 5.203513e+01 7.242513e+01 7.561465e+01 6.082706e+01 6.697210e+01 6.078843e+01 5.569519e+01 4.046544e+01 1.167416e+02 2.359936e+00 2.919857e+00 3.136303e+00 4.036625e+00 4.723285e+00 4.606077e+00 4.347198e+00 4.546515e+00 3.915543e+00 4.119396e+00 3.461133e+00 3.578106e+00 4.498262e+00 4.734763e-01 5.069972e-01 4.596429e-01 7.190307e-01 8.093983e-01 7.726853e-01 7.831857e-01 7.371494e-01 7.683952e-01 7.785071e-01 6.832942e-01 5.867084e-01 2.895266e-01
<GCONST> 1.360100e+02
<STATE> 3
<MEAN> 39
 5.918983e+00 9.857635e-01 -4.010655e+00 -2.247464e+01 -1.635846e+01 7.654333e+00 -1.260077e+01 -4.321081e+00 -6.409381e+00 -4.951372e+00 2.390755e+00 -2.874607e+00 6.335452e+01 -3.677734e-02 -3.920172e-01 -2.423140e-01 -5.728540e-01 -3.324101e-02 4.721713e-01 6.743314e-02 -8.965671e-02 2.069930e-01 1.069701e-01 2.836623e-01 1.194294e-01 4.697112e-01 -2.588626e-01 -4.912771e-01 -1.738716e-01 3.578792e-01 4.460186e-01 -7.368294e-02 -1.234298e-02 -1.086723e-01 2.649083e-01 3.623022e-01 -2.227456e-02 -3.822410e-01 2.861676e-01
<VARIANCE> 39
 1.013688e+01 3.820165e+01 3.389878e+01 5.848460e+01 5.014420e+01 4.753476e+01 5.053247e+01 5.488438e+01 6.407095e+01 5.291416e+01 4.995283e+01 3.518974e+01 3.080527e+01 4.578596e-01 2.857462e+00 1.539871e+00 2.076083e+00 2.447574e+00 2.444787e+00 2.154224e+00 2.185406e+00 2.124554e+00 2.822098e+00 2.530675e+00 2.163166e+00 1.836404e+00 6.867007e-02 1.742625e-01 2.065571e-01 3.387621e-01 3.480193e-01 4.710203e-01 3.821015e-01 3.988827e-01 4.109305e-01 4.039461e-01 4.628066e-01 4.478062e-01 1.249359e-01
<GCONST> 1.126045e+02
<STATE> 4
<MEAN> 39
 3.033534e+00 -7.659486e+00 -8.581139e+00 -2.152284e+01 -1.026173e+01 1.033173e+01 -1.122945e+01 -6.900774e+00 -2.372763e+00 -1.287475e-01 4.828585e+00 -8.341972e+00 6.984587e+01 -9.032508e-01 -1.934711e+00 -4.747530e-01 1.427826e+00 1.687033e+00 -6.308271e-01 -1.579350e-01 1.574179e-01 1.340523e+00 8.359345e-01 -1.048280e+00 -2.069371e+00 1.188522e+00 -2.354537e-02 2.192604e-01 3.581798e-01 4.025114e-01 -2.243261e-01 -5.936658e-01 -5.432700e-02 4.025122e-01 2.832996e-02 -3.977762e-01 -5.339630e-01 1.039246e-01 -2.390049e-01
<VARIANCE> 39
 1.214661e+01 3.714284e+01 4.007137e+01 6.177327e+01 4.806401e+01 5.994034e+01 6.483843e+01 5.991701e+01 7.058031e+01 5.682972e+01 5.750024e+01 5.372462e+01 2.515676e+01 3.038873e-01 1.268615e+00 1.356881e+00 1.927171e+00 2.167362e+00 3.094805e+00 2.403738e+00 2.721243e+00 2.330775e+00 2.581644e+00 3.059669e+00 2.240119e+00 6.287408e-01 7.510535e-02 1.853177e-01 1.688228e-01 2.905523e-01 4.186709e-01 3.924977e-01 3.911971e-01 4.443400e-01 3.752846e-01 4.466014e-01 4.525712e-01 5.875682e-01 8.964635e-02
<GCONST> 1.120687e+02
<TRANSP> 5
 0.000000e+00 1.000000e+00 0.000000e+00 0.000000e+00 0.000000e+00
 0.000000e+00 6.322479e-01 3.677520e-01 0.000000e+00 0.000000e+00
 0.000000e+00 0.000000e+00 8.007917e-01 1.992083e-01 0.000000e+00
 0.000000e+00 0.000000e+00 0.000000e+00 6.731733e-01 3.268267e-01
 0.000000e+00 0.000000e+00 0.000000e+00 0.000000e+00 0.000000e+00
<ENDHMM>
~h "y"
<BEGINHMM>
<NUMSTATES> 5
<STATE> 2
<MEAN> 39
 -5.568742e+00 -3.119638e+00 1.034945e+01 -7.583608e+00 -1.590069e+01 -6.999166e+00 -1.220801e+01 1.622364e-03 -8.042449e+00 -3.791733e+00 7.024922e-01 -4.399414e+00 6.275981e+01 2.777580e-02 8.298492e-01 2.769773e+00 -1.625867e-01 -1.725088e+00 -4.208370e-01 -1.217094e+00 -5.268278e-01 -1.388946e+00 -9.124504e-02 1.455818e+00 5.662673e-01 9.473365e-01 -1.809392e-02 -1.495222e-01 -3.629895e-01 -7.319363e-02 2.027303e-01 2.611340e-01 -5.097393e-02 -1.941155e-01 1.356615e-01 -1.730453e-02 -1.029663e-01 -4.087127e-02 3.531233e-02
<VARIANCE> 39
 2.964671e+01 7.514717e+01 8.715042e+01 5.296565e+01 6.175190e+01 6.984154e+01 6.808983e+01 9.127966e+01 6.902062e+01 5.754704e+01 4.519873e+01 3.751273e+01 1.464552e+02 2.635907e+00 3.043540e+00 4.053104e+00 3.219838e+00 4.009690e+00 4.046233e+00 4.518185e+00 5.015958e+00 4.275040e+00 4.331699e+00 3.120087e+00 2.922076e+00 5.581545e+00 3.006546e-01 4.661072e-01 8.413514e-01 4.971004e-01 7.877815e-01 7.168379e-01 7.985122e-01 8.430094e-01 7.271906e-01 6.360583e-01 5.738869e-01 4.570180e-01 3.817244e-01
<GCONST> 1.361670e+02
<STATE> 3
<MEAN> 39
 -6.044527e+00 -2.116915e+00 1.696240e+01 -8.233321e+00 -2.067046e+01 -7.274075e+00 -1.627771e+01 -3.340560e+00 -1.127775e+01 -3.716451e+00 4.069630e+00 -2.645645e+00 6.739559e+01 9.957065e-02 -5.674567e-01 -4.792904e-01 -1.875362e-01 -4.734613e-01 -4.190646e-01 1.142757e-01 4.309585e-01 4.403173e-01 2.602339e-01 2.708279e-01 1.655436e-01 5.993557e-01 1.164355e-01 -3.428675e-01 -6.981776e-01 -3.951707e-02 2.326914e-01 -4.973624e-02 3.642621e-01 4.669085e-01 4.846421e-01 2.724568e-02 -3.176163e-01 -1.670035e-01 6.489126e-02
<VARIANCE> 39
 1.298801e+01 3.738971e+01 5.397741e+01 4.826657e+01 3.314252e+01 5.162371e+01 4.640670e+01 6.816306e+01 6.108963e+01 7.340758e+01 4.160382e+01 4.076236e+01 3.319378e+01 4.820918e-01 2.182875e+00 3.253501e+00 1.215097e+00 1.719697e+00 1.918067e+00 2.281934e+00 3.335419e+00 2.979187e+00 1.896514e+00 1.489766e+00 1.324357e+00 1.509975e+00 8.045793e-02 1.700524e-01 2.520561e-01 2.004574e-01 4.242714e-01 3.392133e-01 3.906711e-01 3.802817e-01 3.767567e-01 4.272718e-01 3.820889e-01 2.879294e-01 1.375480e-01
<GCONST> 1.109111e+02
<STATE> 4
<MEAN> 39
 -3.827041e+00 -9.862811e+00 6.038229e+00 -1.075362e+01 -2.039129e+01 -1.019937e+01 -1.082922e+01 6.195582e+00 -2.815482e+00 -3.472457e+00 1.380081e+00 -4.043942e+00 7.266553e+01 4.957246e-01 -1.598532e+00 -3.013601e+00 -2.191472e-01 1.811533e+00 7.462609e-01 1.187955e+00 1.665264e+00 1.870325e+00 -8.153744e-01 -2.239495e+00 -1.180162e+00 6.720542e-01 -3.550347e-03 2.202615e-01 3.349792e-02 1.240276e-01 6.520374e-01 5.397904e-01 -2.787342e-01 -6.604122e-01 -2.743178e-01 -1.832300e-01 -2.992262e-01 -2.243085e-01 -2.941877e-01
<VARIANCE> 39
 1.149063e+01 2.773972e+01 4.876369e+01 4.309836e+01 3.779972e+01 4.316271e+01 5.888406e+01 7.174416e+01 6.166586e+01 5.503893e+01 4.942809e+01 3.543018e+01 2.347291e+01 3.770813e-01 1.181022e+00 1.800324e+00 1.330746e+00 2.312439e+00 2.088587e+00 2.946440e+00 3.501032e+00 2.768366e+00 3.342192e+00 2.450029e+00 1.834971e+00 6.001772e-01 6.611578e-02 1.637388e-01 2.800547e-01 2.428316e-01 3.891572e-01 3.501367e-01 4.472140e-01 5.796330e-01 4.385473e-01 5.000877e-01 5.647806e-01 3.154534e-01 9.061879e-02
<GCONST> 1.105818e+02
<TRANSP> 5
 0.000000e+00 1.000000e+00 0.000000e+00 0.000000e+00 0.000000e+00
 0.000000e+00 6.914854e-01 3.085146e-01 0.000000e+00 0.000000e+00
 0.000000e+00 0.000000e+00 8.079217e-01 1.920783e-01 0.000000e+00
 0.000000e+00 0.000000e+00 0.000000e+00 6.750202e-01 3.249799e-01
 0.000000e+00 0.000000e+00 0.000000e+00 0.000000e+00 0.000000e+00
<ENDHMM>
~h "z"
<BEGINHMM>
<NUMSTATES> 5
<STATE> 2
<MEAN> 39
 -7.626192e+00 4.590081e+00 2.763938e+00 -5.837892e-01 -6.020275e+00 -1.050367e+01 -1.291713e+01 -4.033736e+00 -2.869100e+00 -2.781288e+00 -4.443614e+00 -1.767836e+00 6.261456e+01 -2.095167e+00 2.550153e+00 -3.371010e-01 1.057712e+00 1.627107e+00 -5.966341e-01 1.019917e+00 -9.331879e-02 2.379108e-01 -4.404897e-01 -7.388143e-02 6.689432e-01 -2.075074e-01 -3.147368e-01 -5.764795e-02 -1.931518e-01 -1.747374e-01 2.307464e-02 3.935908e-01 2.078751e-01 1.656844e-01 -2.160893e-02 5.620306e-02 1.687505e-01 -1.388855e-01 -7.238313e-02
<VARIANCE> 39
 4.286661e+01 4.717346e+01 4.501290e+01 4.999601e+01 5.621406e+01 4.536071e+01 7.387646e+01 5.823241e+01 4.835960e+01 4.473203e+01 2.974533e+01 3.193783e+01 9.683742e+01 3.055160e+00 3.456517e+00 3.274524e+00 3.440782e+00 3.846317e+00 4.299550e+00 4.651372e+00 5.393531e+00 3.834797e+00 3.429015e+00 3.246097e+00 2.757603e+00 4.103331e+00 4.355003e-01 6.637468e-01 4.539773e-01 4.922970e-01 5.649540e-01 5.693480e-01 8.396727e-01 6.709334e-01 5.707082e-01 6.065403e-01 5.271604e-01 5.139540e-01 3.122567e-01
<GCONST> 1.313362e+02
<STATE> 3
<MEAN> 39
 -1.933537e+01 1.257864e+01 1.139451e+00 2.470041e+00 -6.860206e-01 -9.308352e+00 -8.098339e+00 -3.532881e+00 -3.320364e+00 -3.889187e+00 -3.077326e+00 -3.128877e-01 6.265665e+01 -7.376132e-01 -2.680223e-01 4.309034e-02 -1.571253e-02 -8.279513e-02 7.700334e-02 6.270050e-02 1.641791e-02 -8.902546e-02 -1.654507e-02 2.607527e-01 2.054340e-01 3.588835e-01 6.218202e-01 -6.205428e-01 1.227186e-01 -2.104380e-01 -5.362541e-01 -7.095263e-02 -2.633547e-01 -1.116908e-01 1.489417e-02 4.099680e-02 -1.064273e-02 -4.750619e-02 2.241649e-01
<VARIANCE> 39
 4.609930e+01 2.442801e+01 3.129348e+01 4.189927e+01 3.720075e+01 3.994036e+01 4.742424e+01 2.778621e+01 2.382963e+01 2.260423e+01 2.128596e+01 1.913789e+01 2.779785e+01 3.559545e+00 2.609258e+00 1.755535e+00 1.373278e+00 2.639898e+00 2.165180e+00 2.285689e+00 2.018497e+00 1.831943e+00 1.494186e+00 1.453285e+00 1.268167e+00 1.515049e+00 4.033821e-01 3.435846e-01 3.208237e-01 3.153375e-01 4.562748e-01 4.280849e-01 4.591206e-01 4.183097e-01 4.014770e-01 3.280947e-01 2.895755e-01 2.756686e-01 1.831748e-01
<GCONST> 1.106058e+02
<STATE> 4
<MEAN> 39
 -1.935176e+01 3.469782e+00 -4.896086e-01 -2.937903e+00 -5.117316e+00 -9.029721e+00 -8.508058e+00 -2.725900e+00 -1.816849e+00 -3.276531e+00 -1.295638e+00 5.028485e-01 6.269875e+01 2.453815e+00 -1.732074e+00 5.090169e-01 -6.934323e-01 -1.997727e+00 -3.231936e-01 -1.137447e+00 -4.013941e-01 4.346368e-01 1.034927e-01 -1.092982e-01 -3.587489e-01 9.363723e-01 3.630878e-01 -6.096818e-02 7.508261e-02 -1.040637e-01 -7.067246e-02 3.236704e-01 -1.461937e-01 5.122654e-02 -2.348453e-02 -1.375317e-02 4.714230e-03 -3.565541e-01 -3.532617e-02
<VARIANCE> 39
 1.021627e+02 3.405330e+01 6.131090e+01 4.873795e+01 4.846988e+01 5.238117e+01 6.439549e+01 3.775237e+01 3.814839e+01 2.287716e+01 2.725552e+01 2.010880e+01 6.574487e+01 6.087220e+00 5.025424e+00 3.785673e+00 3.607432e+00 4.875535e+00 3.543953e+00 4.283741e+00 4.528706e+00 4.268833e+00 2.393973e+00 2.367907e+00 2.197242e+00 3.152779e+00 8.533377e-01 4.756644e-01 5.164985e-01 4.286945e-01 5.773568e-01 6.973705e-01 6.798006e-01 6.719499e-01 5.342252e-01 3.940228e-01 4.598934e-01 3.870614e-01 2.531520e-01
<GCONST> 1.289444e+02
<TRANSP> 5
 0.000000e+00 1.000000e+00 0.000000e+00 0.000000e+00 0.000000e+00
 0.000000e+00 7.265068e-01 2.734931e-01 0.000000e+00 0.000000e+00
 0.000000e+00 0.000000e+00 8.404843e-01 1.595156e-01 0.000000e+00
 0.000000e+00 0.000000e+00 0.000000e+00 7.185966e-01 2.814034e-01
 0.000000e+00 0.000000e+00 0.000000e+00 0.000000e+00 0.000000e+00
<ENDHMM>
~h "ai"
<BEGINHMM>
<NUMSTATES> 5
<STATE> 2
<MEAN> 39
 -1.754966e+00 -1.610738e+01 -3.377829e+00 -1.178994e+01 -1.016986e+01 -2.388576e+00 -9.436473e+00 5.469088e+00 1.313252e+00 -5.733179e+00 -6.532819e+00 -9.216700e+00 7.379368e+01 -3.434910e-01 -1.800574e-02 1.158339e+00 2.211432e-01 -1.234098e+00 -1.235842e+00 7.575065e-01 1.226319e+00 -6.319353e-01 -4.054546e-01 2.840689e-01 7.077163e-01 1.140925e-01 -6.619135e-02 4.782873e-01 3.789081e-01 2.401594e-02 -2.839606e-01 -1.421315e-01 -1.193593e-01 -4.466751e-01 -3.727185e-01 3.752625e-01 4.778499e-01 2.133358e-01 -3.006806e-01
<VARIANCE> 39
 1.312615e+01 2.825382e+01 5.412992e+01 4.085596e+01 6.327052e+01 7.468088e+01 6.225413e+01 7.312775e+01 5.938273e+01 4.923704e+01 5.105338e+01 3.922094e+01 1.975077e+01 3.454888e-01 1.489585e+00 2.011785e+00 1.307887e+00 2.921673e+00 2.754933e+00 2.169129e+00 3.057451e+00 2.283267e+00 2.772369e+00 3.382395e+00 2.000690e+00 4.304980e-01 1.061088e-01 1.618994e-01 2.202345e-01 2.740371e-01 3.912349e-01 4.462172e-01 4.390208e-01 6.845009e-01 4.232409e-01 4.257526e-01 4.706033e-01 4.279153e-01 1.134248e-01
<GCONST> 1.126275e+02
<STATE> 3
<MEAN> 39
 -3.979163e+00 -9.311871e+00 9.788239e+00 -1.093984e+01 -2.204881e+01 -9.757151e+00 -1.019348e+01 4.040847e+00 -7.264395e+00 -8.036050e-01 2.728164e+00 -4.445381e+00 7.136514e+01 -3.060060e-01 1.283543e+00 1.722493e+00 1.502161e-01 -7.933257e-01 -7.440534e-02 -7.592147e-01 -1.657415e+00 -1.403614e+00 6.894289e-01 9.783474e-01 2.607151e-01 -6.658424e-01 7.560676e-02 -8.314146e-03 -2.875050e-01 1.416716e-01 4.796793e-01 2.298241e-01 -7.484408e-02 -1.224151e-01 1.545856e-01 -2.303731e-01 -3.979581e-01 -1.751403e-01 -1.401438e-01
<VARIANCE> 39
 1.216893e+01 3.011042e+01 4.936804e+01 3.810603e+01 3.097532e+01 4.512070e+01 5.078912e+01 8.043272e+01 6.001876e+01 5.349843e+01 4.840356e+01 3.366265e+01 2.064545e+01 2.695997e-01 8.937224e-01 1.620418e+00 9.174525e-01 1.929786e+00 1.554245e+00 1.863932e+00 2.221345e+00 1.986435e+00 2.194099e+00 2.548843e+00 1.344002e+00 2.556602e-01 5.101385e-02 1.254500e-01 1.734094e-01 1.656202e-01 2.397158e-01 2.828515e-01 3.780464e-01 5.207126e-01 3.035906e-01 3.151268e-01 3.108983e-01 2.504477e-01 6.254032e-02
<GCONST> 1.014184e+02
<STATE> 4
<MEAN> 39
 -4.590440e+00 -1.722387e+00 1.354493e+01 -7.368485e+00 -2.005326e+01 -7.816636e+00 -1.206406e+01 -3.387937e+00 -1.089203e+01 -9.511609e-01 1.490273e+00 -4.833772e+00 6.197266e+01 1.862435e-01 7.144223e-01 -6.379988e-01 8.608866e-01 1.029739e+00 4.823668e-02 3.672420e-01 -3.710290e-01 3.219409e-01 -2.977342e-01 -5.874364e-01 -6.836879e-02 -1.799254e+00 2.868461e-02 -5.254311e-02 -3.610208e-01 7.604669e-02 2.437818e-01 3.748105e-02 1.409874e-01 8.583678e-02 2.601495e-01 -3.230690e-02 -1.106912e-01 2.283734e-02 -1.577745e-01
<VARIANCE> 39
 1.658552e+01 4.411805e+01 4.676324e+01 4.809078e+01 3.921654e+01 6.153962e+01 5.452717e+01 8.245073e+01 5.816061e+01 6.112412e+01 5.216411e+01 3.735038e+01 8.166064e+01 1.110485e+00 1.772970e+00 2.412228e+00 2.086080e+00 2.731547e+00 2.533888e+00 3.038818e+00 3.082951e+00 3.262131e+00 2.548676e+00 2.274263e+00 1.917139e+00 2.651772e+00 1.795632e-01 3.007465e-01 3.445578e-01 3.593464e-01 4.888259e-01 4.826658e-01 5.505450e-01 6.189014e-01 5.922554e-01 4.853817e-01 4.568970e-01 3.572373e-01 3.782124e-01
<GCONST> 1.218148e+02
<TRANSP> 5
 0.000000e+00 1.000000e+00 0.000000e+00 0.000000e+00 0.000000e+00
 0.000000e+00 8.260082e-01 1.739918e-01 0.000000e+00 0.000000e+00
 0.000000e+00 0.000000e+00 8.107378e-01 1.892622e-01 0.000000e+00
 0.000000e+00 0.000000e+00 0.000000e+00 8.238275e-01 1.761725e-01
 0.000000e+00 0.000000e+00 0.000000e+00 0.000000e+00 0.000000e+00
<ENDHMM>
~h "au"
<BEGINHMM>
<NUMSTATES> 5
<STATE> 2
<MEAN> 39
 -8.675198e-01 -1.050578e+01 -9.753134e+00 -1.640081e+01 -7.980617e+00 5.366023e+00 -1.288841e+01 -3.099750e+00 1.551817e+00 -3.614248e-01 -3.061713e+00 -1.087905e+01 7.218665e+01 6.811759e-01 -8.054194e-01 -9.214680e-01 -1.363017e+00 4.894459e-01 2.082019e+00 -2.472639e-01 -9.743692e-02 4.007491e-01 1.253864e-02 4.710751e-01 -9.903209e-01 1.172505e+00 -2.951175e-01 5.085671e-01 3.684516e-01 2.984074e-01 4.955302e-03 -3.423836e-01 2.313787e-01 -3.065836e-01 -5.248700e-01 -2.952344e-03 2.385917e-01 5.424902e-01 -8.405793e-01
<VARIANCE> 39
 1.603461e+01 3.393032e+01 4.680526e+01 5.090502e+01 5.031956e+01 7.654182e+01 6.176617e+01 8.012144e+01 5.757909e+01 5.413186e+01 5.552298e+01 4.031775e+01 3.951250e+01 2.507294e+00 2.566125e+00 2.436754e+00 3.337508e+00 3.741045e+00 4.105756e+00 3.541071e+00 4.280237e+00 3.922356e+00 3.484097e+00 4.589657e+00 3.616169e+00 3.502626e+00 4.150847e-01 3.387796e-01 3.931018e-01 6.487553e-01 5.699300e-01 6.450518e-01 7.237099e-01 6.880659e-01 6.224059e-01 6.320422e-01 7.384815e-01 5.168355e-01 6.836805e-01
<GCONST> 1.307331e+02
<STATE> 3
<MEAN> 39
 6.463798e-01 -7.994450e+00 -1.071980e+01 -2.102611e+01 -8.931553e+00 1.013933e+01 -1.178795e+01 -5.856102e+00 -1.497678e+00 -1.283242e+00 1.724493e+00 -9.509505e+00 7.136112e+01 3.883948e-01 1.092911e+00 2.162598e-01 -8.186371e-01 -6.305516e-01 1.679186e-01 -1.385290e-01 -3.708057e-02 -8.193166e-01 -1.079020e-01 6.612218e-01 9.253821e-01 -6.125237e-01 4.343718e-02 1.762926e-01 1.304651e-01 1.307080e-01 -1.482251e-01 -2.237691e-01 -8.047524e-02 7.852942e-02 -9.365629e-02 -5.738003e-02 -1.390629e-01 1.207572e-01 -1.656018e-01
<VARIANCE> 39
 1.508984e+01 4.004194e+01 3.926067e+01 5.091789e+01 4.752132e+01 4.682677e+01 5.887262e+01 5.918705e+01 5.629857e+01 5.132905e+01 5.386864e+01 5.296680e+01 2.023570e+01 2.622078e-01 9.464938e-01 5.640118e-01 1.122129e+00 1.257693e+00 1.301671e+00 1.434527e+00 1.683379e+00 1.777070e+00 1.731880e+00 1.942035e+00 2.023663e+00 2.982222e-01 4.419665e-02 1.133364e-01 1.003141e-01 2.180421e-01 2.021896e-01 2.218006e-01 2.277710e-01 2.744603e-01 2.673700e-01 2.996724e-01 3.476391e-01 3.341372e-01 4.215601e-02
<GCONST> 9.844505e+01
<STATE> 4
<MEAN> 39
 3.821109e+00 2.390572e+00 -6.533257e+00 -2.173003e+01 -1.360089e+01 6.355414e+00 -1.428773e+01 -4.283063e+00 -7.357366e+00 -2.302896e+00 1.204535e+00 -3.693181e+00 6.196807e+01 1.386279e-02 5.934929e-01 5.147101e-01 1.558196e+00 2.115088e-01 -1.002627e+00 -3.967890e-02 -2.341786e-01 -2.276729e-01 -4.762952e-02 -4.759336e-01 -5.227184e-02 -1.416724e+00 -1.800117e-01 -2.149727e-01 5.728751e-02 4.130906e-01 2.947155e-01 -1.332520e-01 1.688216e-01 -7.380359e-02 2.072405e-01 4.796248e-02 -1.323796e-01 -1.663078e-01 -7.627710e-02
<VARIANCE> 39
 1.258837e+01 4.146749e+01 3.940123e+01 6.941986e+01 5.496426e+01 5.451814e+01 6.295996e+01 6.564182e+01 6.226682e+01 6.641562e+01 5.355944e+01 4.479160e+01 5.608060e+01 8.091178e-01 2.217763e+00 1.574863e+00 3.678205e+00 3.296403e+00 3.026560e+00 3.122342e+00 3.160567e+00 2.930559e+00 3.262317e+00 2.985975e+00 2.656407e+00 1.767110e+00 1.320771e-01 2.953543e-01 2.576908e-01 4.833579e-01 5.204955e-01 5.529664e-01 5.181285e-01 5.473409e-01 5.245488e-01 5.754791e-01 5.983421e-01 5.234668e-01 2.685512e-01
<GCONST> 1.226406e+02
<TRANSP> 5
 0.000000e+00 1.000000e+00 0.000000e+00 0.000000e+00 0.000000e+00
 0.000000e+00 6.816940e-01 3.183060e-01 0.000000e+00 0.000000e+00
 0.000000e+00 0.000000e+00 8.510191e-01 1.489809e-01 0.000000e+00
 0.000000e+00 0.000000e+00 0.000000e+00 8.503729e-01 1.496272e-01
 0.000000e+00 0.000000e+00 0.000000e+00 0.000000e+00 0.000000e+00
<ENDHMM>
~h "kh"
<BEGINHMM>
<NUMSTATES> 5
<STATE> 2
<MEAN> 39
 -8.637632e+00 -3.252320e+00 -4.061123e+00 -5.556459e+00 -3.398199e+00 -2.596482e+00 -7.538642e+00 -2.923566e+00 -4.632880e+00 -1.124364e+00 -3.325401e+00 -3.583701e+00 5.263095e+01 -1.164179e+00 -6.906494e-01 -1.119107e+00 -9.079566e-02 1.228096e+00 -2.657984e-01 1.238492e-01 5.902830e-01 4.528381e-02 2.302412e-01 -3.684384e-02 4.868235e-01 4.228585e-01 -3.448779e-02 -2.810811e-01 -5.341492e-02 -2.681832e-01 -2.355850e-01 9.392437e-02 -1.653499e-01 -2.289086e-02 6.047409e-02 8.283332e-02 1.004092e-01 -8.396441e-02 4.362615e-01
<VARIANCE> 39
 3.989360e+01 5.681549e+01 7.795481e+01 5.508706e+01 8.199390e+01 7.842934e+01 5.102675e+01 4.521321e+01 5.494511e+01 3.878113e+01 4.822847e+01 3.482178e+01 1.469370e+02 3.503314e+00 5.810058e+00 5.487854e+00 4.709231e+00 7.050108e+00 6.406022e+00 5.797712e+00 4.783055e+00 5.157210e+00 4.195237e+00 4.374980e+00 3.494819e+00 1.337779e+01 5.003174e-01 9.744533e-01 9.115059e-01 7.379861e-01 1.167086e+00 1.177464e+00 1.011235e+00 7.978644e-01 9.004014e-01 7.779959e-01 7.957496e-01 5.944207e-01 1.599474e+00
<GCONST> 1.445081e+02
<STATE> 3
<MEAN> 39
 -1.537439e+01 -9.198869e+00 -8.655850e+00 -7.607134e+00 3.057493e-01 -2.513771e+00 -7.412417e+00 -9.809312e-01 -2.573533e+00 1.576803e+00 -2.191267e+00 -1.769469e+00 5.987297e+01 -4.658790e-02 -8.840994e-02 5.473266e-02 -4.754780e-01 -5.293605e-01 1.456967e-01 1.442250e-01 -9.424108e-02 -1.330359e-01 -3.552619e-02 2.414241e-01 -7.309874e-02 3.534056e-01 5.891325e-01 3.536708e-01 4.755334e-01 7.060308e-02 -3.647564e-01 1.037087e-01 -7.620290e-02 -1.588008e-01 -1.639562e-01 -2.262986e-01 1.387016e-03 -2.286756e-01 -6.398109e-02
<VARIANCE> 39
 3.543570e+01 3.995694e+01 7.101532e+01 4.503109e+01 7.385065e+01 6.200745e+01 5.027294e+01 4.616865e+01 5.964029e+01 4.545177e+01 4.074249e+01 3.392777e+01 4.598301e+01 3.717238e+00 3.108976e+00 4.004438e+00 3.110296e+00 4.017307e+00 3.894722e+00 3.787320e+00 3.890576e+00 3.986667e+00 3.873291e+00 3.016913e+00 2.453530e+00 2.980782e+00 4.852032e-01 5.544291e-01 6.456594e-01 6.240195e-01 7.926651e-01 7.915404e-01 9.133599e-01 7.796167e-01 8.161352e-01 7.608827e-01 6.134630e-01 4.739963e-01 4.950894e-01
<GCONST> 1.329452e+02
<STATE> 4
<MEAN> 39
 -1.425018e+01 -6.035544e+00 -7.411789e+00 -6.508060e+00 -2.521081e+00 -1.695892e+00 -6.817343e+00 -2.591108e+00 -3.581813e+00 -3.035797e+00 -1.816404e+00 -2.401185e+00 4.747459e+01 5.242561e-01 2.051586e-01 2.849001e-01 -7.220297e-02 -2.454449e-01 1.716846e-01 -1.476163e-01 -1.469184e-01 -1.688599e-01 -9.578360e-02 4.154122e-03 -1.388601e-01 2.094235e-01 1.776944e-01 4.149145e-02 7.869305e-02 -2.539112e-02 -1.042511e-01 2.556275e-02 -8.991659e-02 -2.968829e-02 -3.772429e-02 1.046068e-03 3.669573e-02 -3.691429e-02 9.914430e-02
<VARIANCE> 39
 2.761936e+01 4.491376e+01 4.737839e+01 4.076563e+01 4.028958e+01 4.854707e+01 4.467751e+01 3.475460e+01 4.666414e+01 3.083505e+01 3.085486e+01 2.467879e+01 1.995766e+02 2.333899e+00 1.693756e+00 2.434886e+00 1.688710e+00 2.352367e+00 2.119262e+00 2.408610e+00 2.319964e+00 2.331874e+00 2.246286e+00 2.164082e+00 1.813280e+00 1.860383e+00 2.271477e-01 2.739665e-01 2.892368e-01 3.167143e-01 3.932871e-01 3.687690e-01 4.350550e-01 4.405220e-01 3.899846e-01 3.734209e-01 4.129352e-01 3.112314e-01 2.266334e-01
<GCONST> 1.160424e+02
<TRANSP> 5
 0.000000e+00 1.000000e+00 0.000000e+00 0.000000e+00 0.000000e+00
 0.000000e+00 7.652318e-01 2.347682e-01 0.000000e+00 0.000000e+00
