~o
<STREAMINFO> 1 39
<VECSIZE> 39<NULLD><MFCC_D_A_0><DIAGC>
~h "@"
<BEGINHMM>
<NUMSTATES> 5
<STATE> 2
<MEAN> 39
 -6.468598e+00 -3.913976e+00 -2.530113e-01 -5.150908e+00 -9.396018e+00 -4.085223e+00 -8.231824e+00 -2.684770e+00 -4.235145e+00 -2.627303e+00 -1.968379e+00 -4.596375e+00 5.480614e+01 -3.241387e-03 6.454466e-03 2.972269e-03 1.065106e-03 2.560678e-03 -1.936688e-03 6.609523e-03 -7.557959e-04 -8.797984e-04 1.165782e-03 3.157552e-04 -1.608587e-03 -6.769536e-03 -1.231233e-04 3.534419e-04 -3.516490e-04 2.160500e-04 8.600509e-04 3.146612e-04 -4.202187e-05 -1.508376e-04 -2.581803e-04 -1.515909e-04 -1.336209e-04 1.635619e-04 -1.034666e-03
<VARIANCE> 39
 6.533900e+01 6.465429e+01 7.721573e+01 6.158483e+01 8.382424e+01 6.618014e+01 6.540221e+01 7.477943e+01 5.989908e+01 4.393742e+01 4.864869e+01 3.972241e+01 2.336842e+02 2.412641e+00 2.736916e+00 2.539823e+00 2.710513e+00 3.492130e+00 2.954643e+00 3.147021e+00 3.860141e+00 3.187444e+00 2.670020e+00 2.731617e+00 2.221649e+00 5.225557e+00 3.652319e-01 4.222826e-01 3.940112e-01 4.466520e-01 5.962543e-01 5.161703e-01 5.613236e-01 6.644880e-01 5.647152e-01 4.950164e-01 4.945115e-01 4.091292e-01 6.544210e-01
<GCONST> 1.316831e+02
<STATE> 3
<MEAN> 39
 -6.480908e+00 -3.890789e+00 -2.412580e-01 -5.145039e+00 -9.384913e+00 -4.091866e+00 -8.207399e+00 -2.687555e+00 -4.238901e+00 -2.623919e+00 -1.965253e+00 -4.602954e+00 5.478262e+01 -3.864750e-03 7.755546e-03 1.807778e-03 2.014881e-03 5.505748e-03 -1.012089e-03 6.247456e-03 -7.832718e-04 -1.560730e-03 5.339056e-04 -2.409043e-04 -9.597378e-04 -1.059656e-02 -2.127670e-04 3.570415e-04 -2.141774e-04 2.760565e-04 7.139302e-04 1.350136e-04 -1.563908e-04 6.015422e-05 -1.908328e-04 -1.759641e-04 -7.429174e-05 2.161466e-04 -9.568214e-04
<VARIANCE> 39
 6.531023e+01 6.474236e+01 7.717364e+01 6.144472e+01 8.390858e+01 6.609624e+01 6.534135e+01 7.472475e+01 5.992965e+01 4.399271e+01 4.872060e+01 3.961780e+01 2.338200e+02 2.410957e+00 2.731965e+00 2.537158e+00 2.703884e+00 3.482720e+00 2.945341e+00 3.146622e+00 3.853772e+00 3.186969e+00 2.667492e+00 2.731010e+00 2.217618e+00 5.209998e+00 3.647788e-01 4.212747e-01 3.934411e-01 4.455801e-01 5.945446e-01 5.143951e-01 5.611078e-01 6.631492e-01 5.649142e-01 4.944458e-01 4.942118e-01 4.082645e-01 6.513214e-01
<GCONST> 1.316362e+02
<STATE> 4
<MEAN> 39
 -6.596326e+00 -3.867299e+00 -1.493803e-01 -5.200419e+00 -9.323610e+00 -4.077034e+00 -8.214433e+00 -2.733403e+00 -4.294192e+00 -2.631684e+00 -1.949709e+00 -4.594690e+00 5.449671e+01 -4.227844e-03 8.651462e-03 1.546994e-03 3.563721e-03 7.553968e-03 -6.607665e-04 5.395469e-03 -1.785545e-04 -1.995708e-03 -1.234090e-04 -9.074197e-04 -3.196145e-04 -1.316542e-02 -1.872496e-04 3.481129e-04 -1.204123e-04 2.798309e-04 4.906990e-04 1.804619e-05 -2.310002e-04 1.404793e-04 -7.037284e-05 -9.864177e-05 -1.193912e-04 2.342413e-04 -8.443819e-04
<VARIANCE> 39
 6.518333e+01 6.455946e+01 7.783919e+01 6.141004e+01 8.494354e+01 6.551392e+01 6.505096e+01 7.314231e+01 5.947923e+01 4.347506e+01 4.844660e+01 3.938132e+01 2.362093e+02 2.353219e+00 2.685357e+00 2.505490e+00 2.666023e+00 3.419394e+00 2.892431e+00 3.098657e+00 3.762738e+00 3.128605e+00 2.624541e+00 2.686585e+00 2.185996e+00 5.117741e+00 3.552335e-01 4.131020e-01 3.875334e-01 4.378701e-01 5.822883e-01 5.045008e-01 5.517859e-01 6.482496e-01 5.551009e-01 4.859592e-01 4.852927e-01 4.020711e-01 6.332365e-01
<GCONST> 1.311141e+02
<TRANSP> 5
 0.000000e+00 1.000000e+00 0.000000e+00 0.000000e+00 0.000000e+00
 0.000000e+00 7.210502e-01 2.789499e-01 0.000000e+00 0.000000e+00
 0.000000e+00 0.000000e+00 7.210547e-01 2.789452e-01 0.000000e+00
 0.000000e+00 0.000000e+00 0.000000e+00 8.478571e-01 1.521429e-01
 0.000000e+00 0.000000e+00 0.000000e+00 0.000000e+00 0.000000e+00
<ENDHMM>
~h "a"
<BEGINHMM>
<NUMSTATES> 5
<STATE> 2
<MEAN> 39
 -5.830079e+00 -3.843123e+00 -1.589240e+00 -5.522883e+00 -7.307214e+00 -2.627847e+00 -8.751741e+00 -3.169672e+00 -3.443224e+00 -2.819840e+00 -2.803703e+00 -5.012386e+00 5.493591e+01 1.250868e-03 1.304962e-04 -1.388867e-03 -1.846901e-03 4.685353e-03 2.444329e-03 8.475174e-04 -1.134394e-03 2.125187e-03 7.157516e-04 -5.570864e-03 -3.022570e-03 4.576726e-04 -2.703705e-04 4.675830e-04 2.371169e-04 2.217544e-04 -3.329577e-04 -2.146623e-04 7.869898e-06 -1.286455e-04 -3.179018e-04 7.158409e-05 2.446975e-04 3.536848e-04 -8.150519e-04
<VARIANCE> 39
 6.721432e+01 6.506519e+01 7.399473e+01 6.525200e+01 7.026839e+01 6.365556e+01 6.546180e+01 7.186436e+01 6.296653e+01 4.440300e+01 4.810440e+01 4.392604e+01 2.336935e+02 2.586597e+00 2.890595e+00 2.746449e+00 2.994525e+00 3.358201e+00 3.080628e+00 3.222954e+00 3.910887e+00 3.435181e+00 2.766927e+00 2.905084e+00 2.478673e+00 5.037478e+00 3.967120e-01 4.408868e-01 4.263829e-01 5.033756e-01 5.942581e-01 5.419492e-01 5.850146e-01 6.873854e-01 5.980076e-01 5.163736e-01 5.348426e-01 4.538269e-01 6.578450e-01
<GCONST> 1.329470e+02
<STATE> 3
<MEAN> 39
 -5.825649e+00 -3.842955e+00 -1.593371e+00 -5.528911e+00 -7.290789e+00 -2.619859e+00 -8.748400e+00 -3.173699e+00 -3.436721e+00 -2.817654e+00 -2.822629e+00 -5.021848e+00 5.493697e+01 3.071488e-04 1.704097e-03 -5.148991e-04 -1.173016e-03 3.505971e-03 1.741722e-03 8.486397e-04 -1.578990e-03 1.059811e-03 9.768604e-04 -4.652029e-03 -1.828152e-03 -2.243181e-03 -2.557731e-04 3.762049e-04 1.931386e-04 1.240348e-04 -3.045887e-04 -1.562935e-04 -1.049999e-06 -1.020194e-04 -2.697166e-04 7.631432e-05 2.780374e-04 2.972164e-04 -5.916236e-04
<VARIANCE> 39
 6.713390e+01 6.515450e+01 7.408744e+01 6.520177e+01 7.019661e+01 6.356821e+01 6.538734e+01 7.171367e+01 6.293982e+01 4.440047e+01 4.809645e+01 4.387158e+01 2.335918e+02 2.585784e+00 2.890906e+00 2.746136e+00 2.991361e+00 3.356137e+00 3.079677e+00 3.220062e+00 3.907880e+00 3.432168e+00 2.765672e+00 2.902471e+00 2.475665e+00 5.036939e+00 3.963668e-01 4.407492e-01 4.261283e-01 5.028390e-01 5.938417e-01 5.417748e-01 5.845046e-01 6.867881e-01 5.973706e-01 5.160398e-01 5.343691e-01 4.532108e-01 6.572433e-01
<GCONST> 1.329217e+02
<STATE> 4
<MEAN> 39
 -5.927123e+00 -3.825527e+00 -1.540192e+00 -5.563106e+00 -7.171952e+00 -2.559688e+00 -8.736656e+00 -3.184245e+00 -3.470776e+00 -2.820462e+00 -2.853568e+00 -4.993547e+00 5.462247e+01 -4.044706e-04 2.454992e-03 3.233359e-04 -1.088284e-03 2.378653e-03 1.243478e-03 8.063338e-04 -1.868499e-03 1.437539e-04 1.022872e-03 -3.547261e-03 -8.364724e-04 -3.455150e-03 -2.074638e-04 2.265222e-04 1.298823e-04 -6.593427e-07 -2.548784e-04 -8.217541e-05 -1.806435e-05 -7.766412e-05 -2.234627e-04 4.357582e-05 2.775733e-04 1.784794e-04 -2.729199e-04
<VARIANCE> 39
 6.737135e+01 6.493120e+01 7.410691e+01 6.544012e+01 7.025013e+01 6.301035e+01 6.510394e+01 7.024338e+01 6.226913e+01 4.376255e+01 4.765046e+01 4.358598e+01 2.362966e+02 2.529279e+00 2.840465e+00 2.705535e+00 2.948962e+00 3.294898e+00 3.032502e+00 3.169075e+00 3.821787e+00 3.367437e+00 2.723989e+00 2.856123e+00 2.435946e+00 4.924870e+00 3.866291e-01 4.323970e-01 4.192947e-01 4.941971e-01 5.811111e-01 5.327101e-01 5.740238e-01 6.717251e-01 5.858047e-01 5.080379e-01 5.254288e-01 4.457074e-01 6.378872e-01
<GCONST> 1.323781e+02
<TRANSP> 5
 0.000000e+00 1.000000e+00 0.000000e+00 0.000000e+00 0.000000e+00
 0.000000e+00 7.160458e-01 2.839542e-01 0.000000e+00 0.000000e+00
 0.000000e+00 0.000000e+00 7.160412e-01 2.839589e-01 0.000000e+00
 0.000000e+00 0.000000e+00 0.000000e+00 8.418528e-01 1.581472e-01
 0.000000e+00 0.000000e+00 0.000000e+00 0.000000e+00 0.000000e+00
<ENDHMM>
~h "b"
<BEGINHMM>
<NUMSTATES> 5
<STATE> 2
<MEAN> 39
 -5.375770e+00 -2.906803e+00 -7.521440e-01 -5.424010e+00 -7.997964e+00 -2.448536e+00 -9.212881e+00 -3.779567e+00 -4.133134e+00 -2.693580e+00 -2.104920e+00 -4.864756e+00 5.469901e+01 1.104158e-02 5.997514e-03 4.142534e-03 -4.630611e-03 -3.075835e-03 7.341986e-03 -5.535556e-03 -7.987870e-03 4.053616e-03 3.637690e-03 -4.486840e-05 -8.592903e-03 1.521311e-02 -6.153964e-04 1.720772e-04 -2.320238e-04 5.028912e-05 1.551031e-04 7.384575e-05 3.974206e-04 -3.049241e-04 2.113479e-04 3.229915e-04 -2.316643e-04 6.168521e-05 -7.891425e-04
<VARIANCE> 39
 7.091195e+01 6.349762e+01 7.497626e+01 6.677225e+01 7.273365e+01 6.601054e+01 6.687747e+01 7.413071e+01 6.617409e+01 4.408901e+01 4.916108e+01 4.320928e+01 2.279171e+02 2.556804e+00 2.934810e+00 2.800953e+00 3.158225e+00 3.455740e+00 3.185858e+00 3.374999e+00 3.892972e+00 3.626609e+00 2.827636e+00 3.007444e+00 2.521688e+00 5.074846e+00 3.812791e-01 4.548464e-01 4.344259e-01 5.299323e-01 6.116689e-01 5.562425e-01 6.113430e-01 6.794850e-01 6.254647e-01 5.295972e-01 5.526206e-01 4.652639e-01 6.684732e-01
<GCONST> 1.337666e+02
<STATE> 3
<MEAN> 39
 -5.335562e+00 -2.882485e+00 -7.376174e-01 -5.441783e+00 -8.010832e+00 -2.421257e+00 -9.233268e+00 -3.810973e+00 -4.119328e+00 -2.677824e+00 -2.105859e+00 -4.896420e+00 5.475353e+01 8.973025e-03 6.452163e-03 3.306021e-03 -3.679896e-03 -2.533925e-03 6.750724e-03 -4.040944e-03 -7.958809e-03 4.554672e-03 4.347469e-03 -4.727808e-04 -7.852046e-03 1.257837e-02 -5.771208e-04 1.506468e-04 -2.314408e-04 3.412581e-04 1.674128e-04 -1.788563e-04 4.800629e-04 1.145253e-04 9.843184e-05 1.521590e-04 -7.859907e-05 2.562600e-04 -8.153694e-04
<VARIANCE> 39
 7.080978e+01 6.369066e+01 7.514029e+01 6.666135e+01 7.284235e+01 6.604630e+01 6.697649e+01 7.394592e+01 6.640571e+01 4.410428e+01 4.920310e+01 4.303860e+01 2.273627e+02 2.559222e+00 2.941636e+00 2.806319e+00 3.156652e+00 3.455602e+00 3.182322e+00 3.382816e+00 3.883251e+00 3.635246e+00 2.827312e+00 3.011159e+00 2.516281e+00 5.072327e+00 3.811591e-01 4.555992e-01 4.351220e-01 5.292393e-01 6.114238e-01 5.555049e-01 6.124229e-01 6.778512e-01 6.263537e-01 5.295696e-01 5.530132e-01 4.644121e-01 6.681113e-01
<GCONST> 1.337711e+02
<STATE> 4
<MEAN> 39
 -5.367865e+00 -2.853768e+00 -6.625934e-01 -5.487981e+00 -7.967337e+00 -2.344933e+00 -9.272586e+00 -3.827413e+00 -4.162017e+00 -2.660045e+00 -2.127473e+00 -4.914145e+00 5.458191e+01 7.487391e-03 6.386922e-03 2.826348e-03 -1.141577e-03 -2.148699e-03 4.380987e-03 -2.752895e-03 -5.636730e-03 3.638560e-03 3.859455e-03 -5.411080e-04 -5.567541e-03 1.024755e-02 -5.243917e-04 -9.825624e-06 -1.458385e-04 5.863764e-04 2.351203e-04 -4.547806e-04 4.737093e-04 5.109843e-04 -1.009602e-04 -1.210080e-04 -3.738821e-05 4.994995e-04 -8.114851e-04
<VARIANCE> 39
 7.070493e+01 6.379086e+01 7.551058e+01 6.670475e+01 7.348727e+01 6.582744e+01 6.702406e+01 7.234135e+01 6.612479e+01 4.364892e+01 4.910494e+01 4.272111e+01 2.295620e+02 2.506042e+00 2.904276e+00 2.774937e+00 3.124279e+00 3.398763e+00 3.132921e+00 3.342432e+00 3.797395e+00 3.580651e+00 2.791665e+00 2.979909e+00 2.478468e+00 4.989691e+00 3.723822e-01 4.485017e-01 4.286180e-01 5.212582e-01 5.990177e-01 5.460775e-01 6.036848e-01 6.637053e-01 6.165605e-01 5.221072e-01 5.461131e-01 4.573089e-01 6.525892e-01
<GCONST> 1.333311e+02
<TRANSP> 5
 0.000000e+00 1.000000e+00 0.000000e+00 0.000000e+00 0.000000e+00
 0.000000e+00 7.162907e-01 2.837093e-01 0.000000e+00 0.000000e+00
 0.000000e+00 0.000000e+00 7.162867e-01 2.837133e-01 0.000000e+00
 0.000000e+00 0.000000e+00 0.000000e+00 8.420506e-01 1.579494e-01
 0.000000e+00 0.000000e+00 0.000000e+00 0.000000e+00 0.000000e+00
<ENDHMM>
~h "c"
<BEGINHMM>
<NUMSTATES> 5
<STATE> 2
<MEAN> 39
 -6.450078e+00 -3.285939e+00 -9.160554e-01 -5.094350e+00 -8.021302e+00 -3.540216e+00 -8.669413e+00 -3.289810e+00 -3.713551e+00 -2.950235e+00 -2.587007e+00 -4.490996e+00 5.447834e+01 4.254987e-03 5.585466e-04 -9.632027e-03 -4.106255e-03 2.121304e-03 -1.648672e-03 -4.470450e-04 4.090422e-03 6.821121e-03 3.187651e-05 2.733804e-03 -3.720347e-03 9.650527e-03 4.289007e-04 2.275294e-04 -9.109506e-04 -7.164233e-04 8.043805e-04 8.392860e-04 -3.097596e-04 -4.044266e-04 -1.148330e-04 -1.295899e-04 -1.834666e-04 -7.547874e-04 3.142889e-04
<VARIANCE> 39
 7.026812e+01 6.341663e+01 6.981703e+01 6.026600e+01 7.072734e+01 6.260816e+01 6.344122e+01 7.310025e+01 5.951659e+01 4.326773e+01 4.513394e+01 4.049486e+01 2.253086e+02 3.390419e+00 3.051849e+00 2.850237e+00 3.007371e+00 3.603643e+00 3.169450e+00 3.381050e+00 3.939565e+00 3.465620e+00 2.734233e+00 2.830511e+00 2.433148e+00 5.756802e+00 5.638150e-01 4.883331e-01 4.635640e-01 5.222680e-01 6.474921e-01 5.678953e-01 6.228343e-01 6.965842e-01 6.147206e-01 5.158582e-01 5.262187e-01 4.536852e-01 7.660320e-01
<GCONST> 1.340911e+02
<STATE> 3
<MEAN> 39
 -6.436556e+00 -3.279794e+00 -9.507837e-01 -5.116366e+00 -8.009518e+00 -3.541620e+00 -8.672774e+00 -3.275737e+00 -3.692470e+00 -2.948982e+00 -2.579854e+00 -4.507446e+00 5.451816e+01 5.227759e-03 4.758580e-04 -1.215763e-02 -6.709430e-03 4.659195e-03 1.432162e-03 -1.122531e-03 3.290319e-03 6.648872e-03 -3.962182e-04 2.000018e-03 -6.473144e-03 1.132475e-02 3.054986e-04 -3.267295e-05 -6.937542e-04 -8.565364e-04 6.950972e-04 1.029743e-03 -2.143803e-04 -2.787097e-04 8.394611e-06 -1.561720e-04 -1.916903e-04 -7.776289e-04 4.897150e-04
<VARIANCE> 39
 7.030148e+01 6.344147e+01 6.932773e+01 6.047882e+01 7.051287e+01 6.264846e+01 6.356503e+01 7.289575e+01 5.945142e+01 4.333071e+01 4.510672e+01 4.047408e+01 2.250094e+02 3.419901e+00 3.060287e+00 2.849604e+00 3.017568e+00 3.600073e+00 3.182202e+00 3.390646e+00 3.921828e+00 3.464663e+00 2.729939e+00 2.834656e+00 2.432202e+00 5.812297e+00 5.700651e-01 4.898953e-01 4.643888e-01 5.242627e-01 6.473837e-01 5.708532e-01 6.251273e-01 6.941665e-01 6.154326e-01 5.147964e-01 5.273837e-01 4.539467e-01 7.736482e-01
<GCONST> 1.341447e+02
<STATE> 4
<MEAN> 39
 -6.499161e+00 -3.261034e+00 -9.739912e-01 -5.169468e+00 -7.902452e+00 -3.475897e+00 -8.698844e+00 -3.282193e+00 -3.682999e+00 -2.922098e+00 -2.599238e+00 -4.560825e+00 5.437076e+01 6.289434e-03 2.746575e-04 -1.303494e-02 -1.004923e-02 6.522462e-03 3.547141e-03 -2.630300e-03 3.006137e-03 5.784468e-03 -5.371922e-04 5.954826e-04 -8.470850e-03 1.548077e-02 3.284582e-04 -6.704131e-05 -3.581845e-04 -4.965970e-04 3.671916e-04 6.840721e-04 -1.971955e-04 -1.401579e-04 1.154179e-04 -1.249225e-04 -1.715387e-04 -4.420432e-04 3.894404e-04
<VARIANCE> 39
 7.020808e+01 6.337975e+01 6.872614e+01 6.077385e+01 7.067223e+01 6.224434e+01 6.394619e+01 7.173814e+01 5.906461e+01 4.297099e+01 4.503735e+01 4.017333e+01 2.262825e+02 3.382368e+00 3.026637e+00 2.818542e+00 2.986563e+00 3.531176e+00 3.147239e+00 3.355675e+00 3.843705e+00 3.408952e+00 2.696407e+00 2.809320e+00 2.407551e+00 5.775606e+00 5.634274e-01 4.845331e-01 4.596015e-01 5.183377e-01 6.333946e-01 5.647815e-01 6.175908e-01 6.821240e-01 6.061043e-01 5.072207e-01 5.213213e-01 4.499632e-01 7.635545e-01
<GCONST> 1.337776e+02
<TRANSP> 5
 0.000000e+00 1.000000e+00 0.000000e+00 0.000000e+00 0.000000e+00
 0.000000e+00 7.141861e-01 2.858140e-01 0.000000e+00 0.000000e+00
 0.000000e+00 0.000000e+00 7.141834e-01 2.858166e-01 0.000000e+00
 0.000000e+00 0.000000e+00 0.000000e+00 8.393632e-01 1.606368e-01
 0.000000e+00 0.000000e+00 0.000000e+00 0.000000e+00 0.000000e+00
<ENDHMM>
~h "d"
<BEGINHMM>
<NUMSTATES> 5
<STATE> 2
<MEAN> 39
 -5.673397e+00 -3.327801e+00 -2.890605e-01 -5.102277e+00 -8.509275e+00 -3.209102e+00 -9.423222e+00 -3.482397e+00 -3.815582e+00 -2.882831e+00 -2.560944e+00 -4.699120e+00 5.502006e+01 9.186366e-03 -2.135560e-03 9.400201e-03 -1.353033e-03 -5.042893e-03 1.230008e-03 -5.794866e-03 -1.740540e-03 1.736870e-03 -3.880016e-04 -2.952443e-03 -4.369848e-03 1.675797e-02 -1.938139e-04 1.593882e-04 -5.362338e-04 -1.817098e-04 4.540825e-04 2.786140e-04 2.264398e-04 6.434408e-05 3.124539e-04 1.512927e-04 -1.296373e-04 -3.187160e-04 -5.260690e-04
<VARIANCE> 39
 6.802763e+01 6.305226e+01 8.216239e+01 6.566254e+01 7.557279e+01 6.358406e+01 6.774386e+01 7.739827e+01 6.612358e+01 4.477050e+01 4.965600e+01 4.222374e+01 2.272024e+02 2.531663e+00 2.902434e+00 2.856402e+00 3.081888e+00 3.617160e+00 3.093387e+00 3.377300e+00 4.073126e+00 3.533230e+00 2.816491e+00 2.994198e+00 2.456437e+00 5.159835e+00 3.887325e-01 4.555219e-01 4.334607e-01 5.120206e-01 6.419144e-01 5.454885e-01 6.111240e-01 7.157359e-01 6.183205e-01 5.259542e-01 5.481964e-01 4.545484e-01 6.868023e-01
<GCONST> 1.338821e+02
<STATE> 3
<MEAN> 39
 -5.639057e+00 -3.333622e+00 -2.558397e-01 -5.106708e+00 -8.525973e+00 -3.202788e+00 -9.443201e+00 -3.487324e+00 -3.808707e+00 -2.883762e+00 -2.570743e+00 -4.715997e+00 5.507968e+01 8.499214e-03 -1.718129e-03 7.555475e-03 -1.488261e-03 -3.826238e-03 1.789419e-03 -4.641240e-03 -9.164784e-04 2.336964e-03 -8.288665e-05 -2.748898e-03 -4.522403e-03 1.505303e-02 -1.683341e-04 1.512476e-04 -5.186894e-04 -2.535824e-05 3.303657e-04 1.487585e-04 2.718006e-04 2.223841e-04 1.592368e-04 8.206098e-05 5.051546e-05 -2.344325e-05 -4.694794e-04
<VARIANCE> 39
 6.787359e+01 6.324516e+01 8.230018e+01 6.552336e+01 7.583504e+01 6.365021e+01 6.784367e+01 7.739690e+01 6.628582e+01 4.475870e+01 4.976638e+01 4.212890e+01 2.262564e+02 2.532548e+00 2.909655e+00 2.864518e+00 3.083489e+00 3.630506e+00 3.094894e+00 3.384495e+00 4.072718e+00 3.539964e+00 2.816444e+00 3.002839e+00 2.456416e+00 5.178199e+00 3.889947e-01 4.566664e-01 4.343465e-01 5.119569e-01 6.447971e-01 5.458809e-01 6.123265e-01 7.156518e-01 6.193039e-01 5.256512e-01 5.496731e-01 4.545436e-01 6.893740e-01
<GCONST> 1.339267e+02
<STATE> 4
<MEAN> 39
 -5.703446e+00 -3.334753e+00 -1.941221e-01 -5.159578e+00 -8.450097e+00 -3.131321e+00 -9.468820e+00 -3.510004e+00 -3.846478e+00 -2.886548e+00 -2.605068e+00 -4.706135e+00 5.483983e+01 8.190353e-03 -1.317107e-03 6.172558e-03 -9.873050e-04 -2.756938e-03 2.098035e-03 -3.777724e-03 5.544903e-04 1.880985e-03 -4.307778e-04 -1.960768e-03 -3.842544e-03 1.381512e-02 -1.556897e-04 8.830877e-05 -4.134094e-04 6.664840e-05 2.859072e-04 4.610979e-05 1.797851e-04 2.065018e-04 -1.339230e-05 -1.764805e-05 7.923171e-05 1.258496e-04 -3.937797e-04
<VARIANCE> 39
 6.801804e+01 6.324311e+01 8.238495e+01 6.543375e+01 7.611418e+01 6.336096e+01 6.780841e+01 7.599969e+01 6.606097e+01 4.408946e+01 4.958232e+01 4.165221e+01 2.280439e+02 2.488520e+00 2.875754e+00 2.831458e+00 3.050777e+00 3.574761e+00 3.056854e+00 3.342527e+00 3.988958e+00 3.487035e+00 2.774810e+00 2.974956e+00 2.421719e+00 5.093954e+00 3.810052e-01 4.503600e-01 4.280957e-01 5.049469e-01 6.341168e-01 5.384637e-01 6.034877e-01 7.007064e-01 6.094502e-01 5.173317e-01 5.438216e-01 4.479189e-01 6.733782e-01
<GCONST> 1.334908e+02
<TRANSP> 5
 0.000000e+00 1.000000e+00 0.000000e+00 0.000000e+00 0.000000e+00
 0.000000e+00 7.159168e-01 2.840832e-01 0.000000e+00 0.000000e+00
 0.000000e+00 0.000000e+00 7.159166e-01 2.840833e-01 0.000000e+00
 0.000000e+00 0.000000e+00 0.000000e+00 8.411832e-01 1.588168e-01
 0.000000e+00 0.000000e+00 0.000000e+00 0.000000e+00 0.000000e+00
<ENDHMM>
~h "e"
<BEGINHMM>
<NUMSTATES> 5
<STATE> 2
<MEAN> 39
 -5.674777e+00 -3.393767e+00 -1.305044e+00 -5.334015e+00 -7.894492e+00 -2.858312e+00 -9.332836e+00 -3.642310e+00 -3.766797e+00 -2.521052e+00 -2.434565e+00 -4.830894e+00 5.512362e+01 1.490130e-02 -3.582868e-03 2.359779e-03 -4.135348e-03 -4.166636e-03 2.801940e-03 -5.569689e-03 -3.951345e-03 9.901954e-04 2.773986e-03 -1.381105e-03 -7.142451e-03 2.748457e-02 -1.657401e-04 1.451925e-04 5.429515e-05 2.234396e-04 5.222064e-05 -4.462524e-06 3.479194e-04 3.905977e-04 -1.891246e-04 -4.360858e-04 -8.934546e-06 2.028243e-04 -5.330006e-04
<VARIANCE> 39
 7.074219e+01 6.122805e+01 7.179678e+01 6.412924e+01 7.056865e+01 6.369627e+01 6.888940e+01 7.423512e+01 6.364231e+01 4.450826e+01 4.762041e+01 4.297409e+01 2.228638e+02 2.742185e+00 2.848658e+00 2.749684e+00 3.104319e+00 3.437304e+00 3.172281e+00 3.422362e+00 4.026748e+00 3.552535e+00 2.830308e+00 2.975702e+00 2.500245e+00 5.224742e+00 4.188862e-01 4.475301e-01 4.352582e-01 5.314795e-01 6.165771e-01 5.598342e-01 6.188579e-01 7.089049e-01 6.232352e-01 5.300042e-01 5.496013e-01 4.628421e-01 6.985711e-01
<GCONST> 1.337350e+02
<STATE> 3
<MEAN> 39
 -5.624036e+00 -3.405403e+00 -1.295938e+00 -5.346926e+00 -7.910753e+00 -2.849688e+00 -9.353318e+00 -3.653221e+00 -3.765671e+00 -2.514768e+00 -2.438568e+00 -4.855188e+00 5.521906e+01 1.428010e-02 -3.178236e-03 2.534088e-03 -3.628946e-03 -4.077784e-03 2.844715e-03 -4.672308e-03 -2.744324e-03 2.567278e-04 1.432813e-03 -1.406229e-03 -6.670136e-03 2.586538e-02 -2.273310e-04 1.441092e-04 6.769216e-05 1.678691e-04 1.877467e-05 2.033037e-05 2.382779e-04 3.426409e-04 -2.158680e-04 -4.008764e-04 -2.141498e-06 1.364641e-04 -5.008613e-04
<VARIANCE> 39
 7.066490e+01 6.134614e+01 7.199533e+01 6.415695e+01 7.069511e+01 6.395349e+01 6.907815e+01 7.448869e+01 6.382452e+01 4.462835e+01 4.775710e+01 4.307226e+01 2.218559e+02 2.748692e+00 2.856825e+00 2.759165e+00 3.113204e+00 3.445060e+00 3.181286e+00 3.431496e+00 4.038960e+00 3.564144e+00 2.834766e+00 2.984028e+00 2.507260e+00 5.248688e+00 4.198417e-01 4.484887e-01 4.366924e-01 5.330384e-01 6.180186e-01 5.611222e-01 6.200570e-01 7.110190e-01 6.248146e-01 5.304579e-01 5.511096e-01 4.639801e-01 7.016475e-01
<GCONST> 1.338277e+02
<STATE> 4
<MEAN> 39
 -5.672004e+00 -3.407490e+00 -1.232241e+00 -5.386380e+00 -7.844052e+00 -2.806321e+00 -9.385604e+00 -3.664117e+00 -3.824846e+00 -2.532634e+00 -2.448658e+00 -4.864889e+00 5.501691e+01 1.309677e-02 -2.627715e-03 2.944328e-03 -3.585184e-03 -4.340847e-03 2.785858e-03 -4.367541e-03 -1.401261e-03 -9.158512e-04 -3.012385e-05 -1.172619e-03 -6.433479e-03 2.421347e-02 -2.547032e-04 1.219231e-04 5.813131e-05 5.961896e-05 2.273537e-05 4.482952e-05 1.769993e-04 2.254315e-04 -1.648006e-04 -2.717809e-04 3.957184e-06 8.312660e-05 -4.727353e-04
<VARIANCE> 39
 7.062482e+01 6.099525e+01 7.246923e+01 6.424575e+01 7.110351e+01 6.381057e+01 6.918485e+01 7.323047e+01 6.367646e+01 4.427361e+01 4.763894e+01 4.304445e+01 2.237011e+02 2.694721e+00 2.810743e+00 2.732984e+00 3.078289e+00 3.391788e+00 3.142503e+00 3.388637e+00 3.961623e+00 3.514970e+00 2.802405e+00 2.952627e+00 2.481294e+00 5.151160e+00 4.105647e-01 4.402422e-01 4.315044e-01 5.253636e-01 6.069957e-01 5.527111e-01 6.104122e-01 6.977990e-01 6.153840e-01 5.233770e-01 5.441694e-01 4.582916e-01 6.830560e-01
<GCONST> 1.334150e+02
<TRANSP> 5
 0.000000e+00 1.000000e+00 0.000000e+00 0.000000e+00 0.000000e+00
 0.000000e+00 7.134448e-01 2.865552e-01 0.000000e+00 0.000000e+00
 0.000000e+00 0.000000e+00 7.134466e-01 2.865534e-01 0.000000e+00
 0.000000e+00 0.000000e+00 0.000000e+00 8.384340e-01 1.615659e-01
 0.000000e+00 0.000000e+00 0.000000e+00 0.000000e+00 0.000000e+00
<ENDHMM>
~h "f"
<BEGINHMM>
<NUMSTATES> 5
<STATE> 2
<MEAN> 39
 -7.118611e+00 -3.799376e+00 -1.291309e+00 -5.440641e+00 -8.057481e+00 -2.998059e+00 -8.936343e+00 -3.427022e+00 -3.952327e+00 -2.533756e+00 -2.130107e+00 -4.279872e+00 5.486525e+01 -1.894317e-03 7.851569e-03 5.573351e-03 2.718393e-03 1.904597e-04 -2.233033e-04 5.070277e-03 -4.525851e-03 -4.698189e-03 3.149632e-03 -1.523945e-04 -3.268877e-04 -3.741188e-03 -4.175988e-04 7.715513e-04 -3.104031e-04 5.053360e-04 5.166408e-04 -1.125046e-04 1.051925e-03 -3.133116e-05 -5.011886e-05 -4.692079e-04 -7.735201e-04 1.544544e-04 -1.695700e-03
<VARIANCE> 39
 7.747646e+01 5.879299e+01 8.003233e+01 6.782494e+01 7.265628e+01 6.702261e+01 6.187142e+01 6.596329e+01 5.896500e+01 4.288585e+01 4.521730e+01 4.008626e+01 2.181650e+02 3.250110e+00 2.728936e+00 2.930234e+00 3.130445e+00 3.578038e+00 3.162067e+00 3.183978e+00 3.649930e+00 3.356634e+00 2.763565e+00 2.757285e+00 2.362047e+00 4.596963e+00 4.760898e-01 4.284563e-01 4.447531e-01 5.178649e-01 6.185666e-01 5.553063e-01 5.724779e-01 6.479737e-01 5.932447e-01 5.193478e-01 5.051113e-01 4.308726e-01 5.841355e-01
<GCONST> 1.327750e+02
<STATE> 3
<MEAN> 39
 -7.128057e+00 -3.766315e+00 -1.272660e+00 -5.431875e+00 -8.057205e+00 -2.995372e+00 -8.915476e+00 -3.440906e+00 -3.971455e+00 -2.523919e+00 -2.133069e+00 -4.282067e+00 5.484778e+01 -2.980181e-03 1.062899e-02 4.792703e-03 4.425707e-03 1.605262e-03 -8.507609e-04 7.768919e-03 -4.485432e-03 -5.004485e-03 1.926291e-03 -2.517976e-03 2.411202e-04 -9.363780e-03 -4.245089e-04 7.155009e-04 -2.862550e-04 5.172346e-04 4.987817e-04 -7.838991e-05 7.159786e-04 2.037097e-05 5.355055e-05 -4.366413e-04 -7.450425e-04 2.369722e-04 -1.543558e-03
<VARIANCE> 39
 7.759393e+01 5.879621e+01 8.031615e+01 6.768369e+01 7.263661e+01 6.689856e+01 6.193758e+01 6.598063e+01 5.897919e+01 4.281585e+01 4.524992e+01 4.012670e+01 2.181933e+02 3.254453e+00 2.731750e+00 2.933290e+00 3.118525e+00 3.567163e+00 3.159769e+00 3.188499e+00 3.647161e+00 3.354248e+00 2.770479e+00 2.755267e+00 2.361275e+00 4.575244e+00 4.766651e-01 4.294447e-01 4.447405e-01 5.151156e-01 6.163797e-01 5.551071e-01 5.737538e-01 6.467456e-01 5.933100e-01 5.211288e-01 5.046027e-01 4.304644e-01 5.811607e-01
<GCONST> 1.327612e+02
<STATE> 4
<MEAN> 39
 -7.192987e+00 -3.680552e+00 -1.193430e+00 -5.481104e+00 -7.977471e+00 -2.927288e+00 -8.901766e+00 -3.503873e+00 -3.991946e+00 -2.537737e+00 -2.178511e+00 -4.278047e+00 5.457646e+01 -4.199371e-03 1.317126e-02 4.229393e-03 5.372006e-03 2.772211e-03 -7.559915e-04 8.643962e-03 -4.372356e-03 -5.933511e-03 9.857675e-04 -4.644960e-03 2.826213e-04 -1.333510e-02 -3.466727e-04 3.953690e-04 -1.880414e-04 5.083357e-04 5.662440e-04 5.115460e-05 3.364616e-04 7.887465e-06 1.950997e-04 -2.348177e-04 -6.578355e-04 1.434832e-04 -1.139088e-03
<VARIANCE> 39
 7.767816e+01 5.896960e+01 8.093775e+01 6.757507e+01 7.301334e+01 6.624990e+01 6.211093e+01 6.484044e+01 5.848342e+01 4.207131e+01 4.472574e+01 3.994148e+01 2.197715e+02 3.181628e+00 2.698603e+00 2.903389e+00 3.069152e+00 3.487163e+00 3.112365e+00 3.154226e+00 3.570201e+00 3.303336e+00 2.739521e+00 2.713625e+00 2.325218e+00 4.487870e+00 4.651418e-01 4.237497e-01 4.380729e-01 5.046425e-01 6.008987e-01 5.461026e-01 5.676242e-01 6.329274e-01 5.855563e-01 5.148098e-01 4.969782e-01 4.240312e-01 5.665721e-01
<GCONST> 1.322810e+02
<TRANSP> 5
 0.000000e+00 1.000000e+00 0.000000e+00 0.000000e+00 0.000000e+00
 0.000000e+00 7.184609e-01 2.815391e-01 0.000000e+00 0.000000e+00
 0.000000e+00 0.000000e+00 7.184641e-01 2.815358e-01 0.000000e+00
 0.000000e+00 0.000000e+00 0.000000e+00 8.446125e-01 1.553875e-01
 0.000000e+00 0.000000e+00 0.000000e+00 0.000000e+00 0.000000e+00
<ENDHMM>
~h "g"
<BEGINHMM>
<NUMSTATES> 5
<STATE> 2
<MEAN> 39
 -5.531220e+00 -2.784417e+00 -5.463208e-01 -5.371679e+00 -8.237660e+00 -2.878342e+00 -9.162481e+00 -3.769022e+00 -4.052730e+00 -2.525963e+00 -2.293193e+00 -4.739070e+00 5.496954e+01 4.306501e-03 5.224040e-03 7.938763e-03 -4.355064e-03 -9.859191e-03 2.220481e-03 -4.011680e-03 5.935157e-04 -4.763545e-03 4.896096e-03 1.702232e-03 -9.741037e-03 1.643206e-02 -6.089028e-04 -2.138172e-04 -7.433823e-04 -2.491773e-05 3.122970e-04 -7.882707e-06 2.173366e-04 3.958772e-04 1.195277e-04 4.818047e-05 -2.881259e-04 -1.473898e-04 -1.156985e-03
<VARIANCE> 39
 6.564694e+01 6.356662e+01 8.067840e+01 6.792377e+01 7.447188e+01 6.572015e+01 6.879411e+01 7.438425e+01 6.616973e+01 4.570280e+01 4.853635e+01 4.273970e+01 2.202142e+02 2.493751e+00 2.832921e+00 2.886298e+00 3.119157e+00 3.665555e+00 3.251678e+00 3.410468e+00 3.879624e+00 3.575480e+00 2.825143e+00 2.925805e+00 2.478850e+00 4.980928e+00 3.874427e-01 4.398352e-01 4.495156e-01 5.126082e-01 6.621891e-01 5.683584e-01 6.152822e-01 6.821061e-01 6.229360e-01 5.260929e-01 5.398421e-01 4.587019e-01 6.499261e-01
<GCONST> 1.337929e+02
<STATE> 3
<MEAN> 39
 -5.520722e+00 -2.765513e+00 -5.179917e-01 -5.386220e+00 -8.269583e+00 -2.872075e+00 -9.176141e+00 -3.766434e+00 -4.070846e+00 -2.509310e+00 -2.287895e+00 -4.771873e+00 5.502504e+01 2.229889e-03 4.104923e-03 5.951300e-03 -3.797950e-03 -8.550484e-03 1.524580e-03 -3.232004e-03 2.310668e-03 -4.155820e-03 4.538022e-03 6.598124e-04 -9.542691e-03 1.320864e-02 -6.158476e-04 -2.860835e-04 -5.280890e-04 1.276706e-04 3.724408e-04 -3.985228e-04 1.371449e-04 4.437976e-04 1.892313e-04 -1.625871e-04 -3.340215e-04 1.275717e-04 -1.015265e-03
<VARIANCE> 39
 6.543692e+01 6.375672e+01 8.078062e+01 6.766238e+01 7.481223e+01 6.582704e+01 6.902011e+01 7.442426e+01 6.627489e+01 4.585217e+01 4.866750e+01 4.270466e+01 2.198856e+02 2.489406e+00 2.829916e+00 2.887631e+00 3.118033e+00 3.676446e+00 3.248464e+00 3.409604e+00 3.871818e+00 3.573582e+00 2.827513e+00 2.928647e+00 2.473230e+00 4.974776e+00 3.869755e-01 4.396643e-01 4.492857e-01 5.124176e-01 6.639744e-01 5.672444e-01 6.144017e-01 6.806759e-01 6.223713e-01 5.264156e-01 5.395643e-01 4.572389e-01 6.478598e-01
<GCONST> 1.337877e+02
<STATE> 4
<MEAN> 39
 -5.628049e+00 -2.723070e+00 -4.303754e-01 -5.444063e+00 -8.209329e+00 -2.821349e+00 -9.192780e+00 -3.739564e+00 -4.158878e+00 -2.518390e+00 -2.312085e+00 -4.778696e+00 5.477999e+01 -2.313845e-04 2.980853e-03 4.379074e-03 -3.029195e-03 -6.479965e-03 -6.059706e-04 -2.674258e-03 3.667547e-03 -3.016406e-03 3.604640e-03 -2.385686e-04 -7.792022e-03 1.044508e-02 -4.854709e-04 -2.337424e-04 -4.166838e-04 6.110292e-05 2.973093e-04 -5.489651e-04 3.536064e-05 3.217796e-04 3.157465e-04 -2.395833e-04 -2.667086e-04 2.868069e-04 -8.695625e-04
<VARIANCE> 39
 6.558943e+01 6.356052e+01 8.110838e+01 6.770469e+01 7.544239e+01 6.535129e+01 6.897343e+01 7.294349e+01 6.582036e+01 4.550972e+01 4.824310e+01 4.238084e+01 2.219568e+02 2.444227e+00 2.784413e+00 2.849640e+00 3.079700e+00 3.622346e+00 3.188448e+00 3.353087e+00 3.786316e+00 3.506518e+00 2.794045e+00 2.892797e+00 2.431080e+00 4.879698e+00 3.792862e-01 4.327497e-01 4.425550e-01 5.041318e-01 6.529865e-01 5.555269e-01 6.022828e-01 6.658094e-01 6.107900e-01 5.199144e-01 5.316527e-01 4.485166e-01 6.296441e-01
<GCONST> 1.332976e+02
<TRANSP> 5
 0.000000e+00 1.000000e+00 0.000000e+00 0.000000e+00 0.000000e+00
 0.000000e+00 7.150519e-01 2.849481e-01 0.000000e+00 0.000000e+00
 0.000000e+00 0.000000e+00 7.150555e-01 2.849445e-01 0.000000e+00
 0.000000e+00 0.000000e+00 0.000000e+00 8.402215e-01 1.597786e-01
 0.000000e+00 0.000000e+00 0.000000e+00 0.000000e+00 0.000000e+00
<ENDHMM>
~h "h"
<BEGINHMM>
<NUMSTATES> 5
<STATE> 2
<MEAN> 39
 -6.062164e+00 -3.485629e+00 -1.504610e+00 -5.475256e+00 -7.125154e+00 -2.190135e+00 -8.587201e+00 -3.430763e+00 -3.667416e+00 -2.829268e+00 -2.414667e+00 -4.507355e+00 5.459763e+01 -1.783946e-03 4.193031e-03 -1.585298e-04 -1.928074e-03 5.473377e-03 5.282157e-03 1.043647e-03 -5.188015e-03 2.401730e-03 2.282685e-03 -2.609615e-03 -1.610890e-03 -8.197579e-03 -2.684193e-04 3.155563e-04 1.257330e-04 5.701941e-05 -1.105075e-04 -3.368169e-04 -1.923262e-04 -1.826022e-04 -2.551912e-04 2.360122e-04 2.395483e-04 1.159763e-04 -1.339253e-04
<VARIANCE> 39
 6.721700e+01 6.226033e+01 7.442024e+01 6.642697e+01 7.416590e+01 6.484303e+01 6.817843e+01 6.921559e+01 6.113649e+01 4.411555e+01 4.648170e+01 4.155379e+01 2.255959e+02 2.525474e+00 2.704023e+00 2.669057e+00 3.007639e+00 3.454393e+00 3.064881e+00 3.296227e+00 3.729604e+00 3.347728e+00 2.735420e+00 2.813638e+00 2.393625e+00 4.538203e+00 3.815748e-01 4.204997e-01 4.086235e-01 5.028512e-01 5.928436e-01 5.358856e-01 5.853143e-01 6.566933e-01 5.851280e-01 5.106625e-01 5.168620e-01 4.375737e-01 5.889100e-01
<GCONST> 1.321129e+02
<STATE> 3
<MEAN> 39
 -6.067568e+00 -3.472899e+00 -1.505298e+00 -5.480762e+00 -7.108137e+00 -2.172108e+00 -8.584815e+00 -3.447490e+00 -3.660727e+00 -2.823094e+00 -2.421756e+00 -4.511373e+00 5.457263e+01 -2.728268e-03 5.063346e-03 8.072375e-04 -8.089870e-04 4.586176e-03 3.538767e-03 1.018989e-03 -5.063517e-03 1.289393e-03 2.446057e-03 -1.799779e-03 -7.451753e-04 -8.595375e-03 -2.391066e-04 8.619016e-05 2.641584e-04 2.291977e-04 -1.627928e-04 -4.432787e-04 1.178362e-04 1.109811e-04 -2.938150e-04 3.752984e-05 1.946543e-04 1.722890e-04 2.281051e-04
<VARIANCE> 39
 6.707429e+01 6.218365e+01 7.452110e+01 6.626571e+01 7.430192e+01 6.480808e+01 6.808121e+01 6.902480e+01 6.091671e+01 4.405219e+01 4.649071e+01 4.140229e+01 2.257675e+02 2.517928e+00 2.694936e+00 2.662874e+00 2.998191e+00 3.447670e+00 3.056715e+00 3.291207e+00 3.710858e+00 3.338276e+00 2.726199e+00 2.808211e+00 2.384338e+00 4.519349e+00 3.805203e-01 4.188083e-01 4.076448e-01 5.006504e-01 5.914061e-01 5.345069e-01 5.843453e-01 6.532969e-01 5.835392e-01 5.092199e-01 5.156877e-01 4.356580e-01 5.863299e-01
<GCONST> 1.320166e+02
<STATE> 4
<MEAN> 39
 -6.197917e+00 -3.446847e+00 -1.453461e+00 -5.529230e+00 -6.967879e+00 -2.094971e+00 -8.567026e+00 -3.470284e+00 -3.658643e+00 -2.821741e+00 -2.423238e+00 -4.457726e+00 5.421994e+01 -3.020124e-03 4.744199e-03 2.052578e-03 6.655460e-04 3.035468e-03 2.115228e-03 1.730750e-03 -3.553044e-03 4.486667e-04 1.992141e-03 -7.827221e-04 -3.977630e-05 -6.394817e-03 -1.829846e-04 -6.007821e-05 2.508253e-04 1.892269e-04 -1.845579e-04 -4.013567e-04 2.011692e-04 2.148081e-04 -1.706760e-04 -6.890112e-05 8.579074e-05 6.612801e-05 5.129119e-04
<VARIANCE> 39
 6.742239e+01 6.180071e+01 7.454571e+01 6.654651e+01 7.450739e+01 6.409566e+01 6.762633e+01 6.745882e+01 6.012659e+01 4.337333e+01 4.596791e+01 4.094328e+01 2.278387e+02 2.464913e+00 2.635487e+00 2.613000e+00 2.942305e+00 3.368615e+00 2.994477e+00 3.228895e+00 3.607326e+00 3.263598e+00 2.675138e+00 2.754680e+00 2.337578e+00 4.384876e+00 3.707447e-01 4.089452e-01 3.993531e-01 4.893226e-01 5.758809e-01 5.231148e-01 5.722776e-01 6.354448e-01 5.703079e-01 4.997315e-01 5.051984e-01 4.270236e-01 5.653398e-01
<GCONST> 1.313482e+02
<TRANSP> 5
 0.000000e+00 1.000000e+00 0.000000e+00 0.000000e+00 0.000000e+00
 0.000000e+00 7.163585e-01 2.836416e-01 0.000000e+00 0.000000e+00
 0.000000e+00 0.000000e+00 7.163607e-01 2.836393e-01 0.000000e+00
 0.000000e+00 0.000000e+00 0.000000e+00 8.425242e-01 1.574758e-01
 0.000000e+00 0.000000e+00 0.000000e+00 0.000000e+00 0.000000e+00
<ENDHMM>
~h "i"
<BEGINHMM>
<NUMSTATES> 5
<STATE> 2
<MEAN> 39
 -6.498358e+00 -2.624371e+00 4.593984e-01 -4.825910e+00 -8.646753e+00 -3.380607e+00 -8.913282e+00 -3.804268e+00 -4.677260e+00 -2.790615e+00 -2.004601e+00 -4.403571e+00 5.441658e+01 -1.855676e-03 4.446293e-03 2.222992e-03 3.560293e-03 -2.652545e-04 -2.443414e-03 4.242814e-03 -6.621127e-04 -2.755232e-03 -1.414321e-03 -1.942765e-03 -5.713610e-04 -1.195042e-02 6.571714e-05 -1.503447e-04 -8.065749e-04 3.073442e-06 4.049036e-04 1.458783e-04 -2.428942e-05 1.076108e-04 3.932332e-04 3.569511e-05 -1.578720e-04 -2.070371e-06 -5.534652e-04
<VARIANCE> 39
 6.856683e+01 6.009458e+01 8.752184e+01 6.238752e+01 7.849282e+01 6.253008e+01 6.682572e+01 7.262315e+01 6.569464e+01 4.328418e+01 4.721899e+01 4.070072e+01 2.222378e+02 2.630034e+00 2.693197e+00 3.047271e+00 2.935781e+00 3.623246e+00 3.089990e+00 3.344878e+00 3.842100e+00 3.504251e+00 2.743269e+00 2.855104e+00 2.361833e+00 4.778233e+00 3.954784e-01 4.269303e-01 4.534926e-01 4.941240e-01 6.282280e-01 5.460336e-01 6.013722e-01 6.796626e-01 6.079550e-01 5.133525e-01 5.214746e-01 4.353961e-01 6.270328e-01
<GCONST> 1.330105e+02
<STATE> 3
<MEAN> 39
 -6.505691e+00 -2.609600e+00 4.646550e-01 -4.812064e+00 -8.646608e+00 -3.388103e+00 -8.897739e+00 -3.806033e+00 -4.684997e+00 -2.794782e+00 -2.011791e+00 -4.405803e+00 5.437344e+01 -1.652781e-03 3.825733e-03 -7.159021e-04 3.439083e-03 9.569664e-04 -2.076155e-03 4.234832e-03 -3.419232e-04 -1.373298e-03 -1.374623e-03 -2.478727e-03 -6.047242e-04 -1.355692e-02 5.698943e-05 -1.234529e-04 -5.785445e-04 -3.306491e-05 2.424538e-04 1.131008e-04 -6.318450e-05 7.643545e-05 3.240427e-04 4.742051e-05 -7.391857e-05 -4.738358e-05 -2.059275e-04
<VARIANCE> 39
 6.839426e+01 5.994207e+01 8.711205e+01 6.223325e+01 7.858517e+01 6.243830e+01 6.677348e+01 7.251393e+01 6.570145e+01 4.319887e+01 4.720523e+01 4.058710e+01 2.226435e+02 2.623147e+00 2.689396e+00 3.042208e+00 2.928077e+00 3.623722e+00 3.084812e+00 3.338203e+00 3.836656e+00 3.503573e+00 2.739057e+00 2.855615e+00 2.358288e+00 4.779524e+00 3.947062e-01 4.262920e-01 4.524158e-01 4.926425e-01 6.283394e-01 5.452285e-01 6.003697e-01 6.787233e-01 6.079109e-01 5.127118e-01 5.215809e-01 4.348092e-01 6.269987e-01
<GCONST> 1.329608e+02
<STATE> 4
<MEAN> 39
 -6.599708e+00 -2.568512e+00 5.006844e-01 -4.822542e+00 -8.530300e+00 -3.316281e+00 -8.878676e+00 -3.817950e+00 -4.718837e+00 -2.797305e+00 -2.037310e+00 -4.380115e+00 5.402423e+01 -1.604795e-03 3.156046e-03 -3.562801e-03 3.243018e-03 1.871513e-03 -1.385359e-03 4.349313e-03 -3.583363e-05 2.787129e-04 -1.064706e-03 -2.735003e-03 -1.182672e-03 -1.371669e-02 3.041398e-05 -8.583284e-05 -4.139084e-04 -1.466571e-04 1.366973e-04 1.295106e-04 -4.765353e-05 7.027136e-05 2.772484e-04 9.374123e-05 3.437687e-06 -1.408638e-04 1.419200e-04
<VARIANCE> 39
 6.842263e+01 5.949854e+01 8.685329e+01 6.207365e+01 7.863220e+01 6.178374e+01 6.669122e+01 7.091455e+01 6.523228e+01 4.254707e+01 4.675917e+01 4.012909e+01 2.254675e+02 2.559941e+00 2.635808e+00 2.990596e+00 2.877155e+00 3.549723e+00 3.028727e+00 3.280658e+00 3.747628e+00 3.443302e+00 2.697193e+00 2.818858e+00 2.317028e+00 4.674207e+00 3.844034e-01 4.169067e-01 4.436803e-01 4.828445e-01 6.141952e-01 5.348012e-01 5.890886e-01 6.635197e-01 5.972173e-01 5.051219e-01 5.145782e-01 4.270309e-01 6.093814e-01
<GCONST> 1.323748e+02
<TRANSP> 5
 0.000000e+00 1.000000e+00 0.000000e+00 0.000000e+00 0.000000e+00
 0.000000e+00 7.159179e-01 2.840821e-01 0.000000e+00 0.000000e+00
 0.000000e+00 0.000000e+00 7.159072e-01 2.840928e-01 0.000000e+00
 0.000000e+00 0.000000e+00 0.000000e+00 8.418463e-01 1.581537e-01
 0.000000e+00 0.000000e+00 0.000000e+00 0.000000e+00 0.000000e+00
<ENDHMM>
~h "j"
<BEGINHMM>
<NUMSTATES> 5
<STATE> 2
<MEAN> 39
 -6.089864e+00 -2.666987e+00 -4.597671e-03 -4.991015e+00 -8.301327e+00 -3.539273e+00 -9.357095e+00 -2.992524e+00 -4.188854e+00 -3.022912e+00 -2.244289e+00 -4.326414e+00 5.475099e+01 3.627105e-03 2.851731e-03 7.305741e-03 -3.673835e-03 -3.357642e-03 3.180868e-03 -7.576719e-03 -3.146091e-03 1.681414e-03 -3.078166e-03 2.251337e-03 -4.718171e-03 1.126770e-02 -5.196261e-04 1.258468e-04 -7.420295e-04 -5.205105e-06 5.397442e-04 2.543085e-04 4.602801e-04 -1.792337e-04 6.740962e-04 3.515939e-04 -1.641815e-04 9.274626e-05 -1.023055e-03
<VARIANCE> 39
 6.396247e+01 6.460159e+01 7.686311e+01 6.324396e+01 7.165379e+01 6.389629e+01 6.817426e+01 7.382505e+01 6.220261e+01 4.387821e+01 4.868751e+01 4.152094e+01 2.237066e+02 3.000656e+00 3.068645e+00 2.880842e+00 2.993211e+00 3.731065e+00 3.240986e+00 3.534415e+00 4.052760e+00 3.485126e+00 2.770695e+00 2.939332e+00 2.524045e+00 5.107731e+00 5.065967e-01 4.657572e-01 4.517061e-01 5.044152e-01 6.800592e-01 5.823399e-01 6.381656e-01 7.139168e-01 6.127030e-01 5.195647e-01 5.403150e-01 4.632705e-01 6.695154e-01
<GCONST> 1.342443e+02
<STATE> 3
<MEAN> 39
 -6.076447e+00 -2.657410e+00 1.771589e-02 -5.004163e+00 -8.312580e+00 -3.526603e+00 -9.381239e+00 -3.002555e+00 -4.183012e+00 -3.033787e+00 -2.236976e+00 -4.341669e+00 5.479020e+01 2.051368e-03 3.016298e-03 4.483600e-03 -3.273174e-03 -1.559382e-03 3.691370e-03 -5.745892e-03 -3.213940e-03 3.511917e-03 -2.040021e-03 1.619474e-03 -4.448887e-03 7.306578e-03 -5.070582e-04 9.760435e-05 -8.161038e-04 1.266739e-04 4.944715e-04 1.000274e-04 6.063310e-04 3.342212e-05 5.129066e-04 2.454014e-04 -1.395432e-04 1.288398e-04 -1.073892e-03
<VARIANCE> 39
 6.368390e+01 6.462678e+01 7.715083e+01 6.321958e+01 7.172636e+01 6.393897e+01 6.810454e+01 7.362086e+01 6.238521e+01 4.390724e+01 4.864734e+01 4.150519e+01 2.232372e+02 2.995111e+00 3.065216e+00 2.886205e+00 2.989638e+00 3.731520e+00 3.240047e+00 3.538490e+00 4.049593e+00 3.482187e+00 2.764971e+00 2.933861e+00 2.526338e+00 5.101393e+00 5.064438e-01 4.645963e-01 4.527766e-01 5.038335e-01 6.807802e-01 5.824903e-01 6.389482e-01 7.136239e-01 6.123654e-01 5.185648e-01 5.394879e-01 4.636478e-01 6.680798e-01
<GCONST> 1.342298e+02
<STATE> 4
<MEAN> 39
 -6.127414e+00 -2.664600e+00 2.989006e-02 -5.095674e+00 -8.265828e+00 -3.434485e+00 -9.406059e+00 -3.070152e+00 -4.187418e+00 -3.077882e+00 -2.246403e+00 -4.367574e+00 5.460412e+01 1.169270e-03 2.706986e-03 1.059237e-03 -2.695316e-03 -3.033831e-04 4.074558e-03 -2.922293e-03 -3.130484e-03 3.476214e-03 -2.091520e-03 -3.180906e-04 -3.867340e-03 3.873697e-03 -4.371475e-04 1.258980e-04 -7.560849e-04 1.500935e-04 3.417761e-04 1.942746e-05 5.989336e-04 -1.356520e-04 2.212045e-04 6.382843e-05 -3.251599e-04 9.876394e-05 -9.368266e-04
<VARIANCE> 39
 6.386406e+01 6.442019e+01 7.755389e+01 6.328129e+01 7.230014e+01 6.374892e+01 6.752885e+01 7.214259e+01 6.211247e+01 4.342867e+01 4.833989e+01 4.135672e+01 2.249591e+02 2.939013e+00 3.000568e+00 2.849318e+00 2.944604e+00 3.675558e+00 3.188272e+00 3.487225e+00 3.957578e+00 3.417676e+00 2.720401e+00 2.897246e+00 2.490094e+00 4.978592e+00 4.951259e-01 4.522392e-01 4.465480e-01 4.943264e-01 6.689937e-01 5.715430e-01 6.287388e-01 6.977714e-01 6.008236e-01 5.097824e-01 5.318732e-01 4.563504e-01 6.452691e-01
<GCONST> 1.337125e+02
<TRANSP> 5
 0.000000e+00 1.000000e+00 0.000000e+00 0.000000e+00 0.000000e+00
 0.000000e+00 7.149791e-01 2.850208e-01 0.000000e+00 0.000000e+00
 0.000000e+00 0.000000e+00 7.149799e-01 2.850201e-01 0.000000e+00
 0.000000e+00 0.000000e+00 0.000000e+00 8.402686e-01 1.597314e-01
 0.000000e+00 0.000000e+00 0.000000e+00 0.000000e+00 0.000000e+00
<ENDHMM>
~h "k"
<BEGINHMM>
<NUMSTATES> 5
<STATE> 2
<MEAN> 39
 -6.109296e+00 -3.298965e+00 -1.458772e+00 -5.426182e+00 -7.691701e+00 -2.933209e+00 -8.773629e+00 -3.487922e+00 -3.994539e+00 -2.551234e+00 -2.525246e+00 -4.771087e+00 5.392143e+01 5.697082e-03 -1.376254e-03 -3.032164e-03 -4.264952e-03 2.417976e-03 5.235494e-04 -3.071110e-03 -5.404232e-03 -1.116963e-03 3.949606e-03 -2.332656e-03 -5.255746e-03 8.503776e-03 1.619750e-05 1.653925e-04 5.798086e-05 2.452127e-04 -1.382352e-04 5.144500e-05 2.050830e-04 -5.795716e-05 3.352238e-05 -8.445058e-05 1.382233e-04 2.028806e-04 -2.845354e-04
<VARIANCE> 39
 6.606463e+01 6.271075e+01 7.499437e+01 6.518045e+01 7.099386e+01 6.360995e+01 6.509214e+01 7.185117e+01 6.132140e+01 4.393789e+01 4.765105e+01 4.264180e+01 2.308156e+02 2.607084e+00 2.910532e+00 2.947583e+00 3.068351e+00 3.561923e+00 3.220139e+00 3.322184e+00 3.937920e+00 3.476146e+00 2.864765e+00 2.931394e+00 2.507028e+00 5.674465e+00 4.069542e-01 4.631402e-01 4.734577e-01 5.206388e-01 6.393408e-01 5.723635e-01 6.097783e-01 6.969200e-01 6.161479e-01 5.381526e-01 5.422802e-01 4.640099e-01 7.478495e-01
<GCONST> 1.338882e+02
<STATE> 3
<MEAN> 39
 -6.089773e+00 -3.303417e+00 -1.468519e+00 -5.439384e+00 -7.683514e+00 -2.933932e+00 -8.782586e+00 -3.503999e+00 -3.998788e+00 -2.538160e+00 -2.532641e+00 -4.787492e+00 5.395024e+01 5.752034e-03 -1.195811e-03 -2.875077e-03 -3.270447e-03 1.579340e-03 1.682074e-04 -1.887425e-03 -4.637409e-03 -1.073244e-03 3.451454e-03 -1.661879e-03 -4.162068e-03 7.800354e-03 -1.170626e-05 8.587920e-05 3.309493e-05 2.567938e-04 -2.540776e-04 -8.462314e-05 3.755339e-04 2.924922e-04 2.679071e-05 -1.134160e-04 1.529746e-04 3.508844e-04 -2.212832e-04
<VARIANCE> 39
 6.594419e+01 6.284390e+01 7.512354e+01 6.514301e+01 7.110708e+01 6.371125e+01 6.493315e+01 7.163818e+01 6.135553e+01 4.402753e+01 4.772579e+01 4.254382e+01 2.301751e+02 2.612342e+00 2.914698e+00 2.955907e+00 3.073532e+00 3.572563e+00 3.224482e+00 3.324359e+00 3.934617e+00 3.477285e+00 2.868851e+00 2.933874e+00 2.507837e+00 5.705007e+00 4.076678e-01 4.636189e-01 4.750545e-01 5.213733e-01 6.410985e-01 5.728951e-01 6.101221e-01 6.962590e-01 6.162033e-01 5.388671e-01 5.424965e-01 4.642229e-01 7.515579e-01
<GCONST> 1.339249e+02
<STATE> 4
<MEAN> 39
 -6.161812e+00 -3.295253e+00 -1.422979e+00 -5.484078e+00 -7.593496e+00 -2.884691e+00 -8.801478e+00 -3.530842e+00 -4.036601e+00 -2.525054e+00 -2.548887e+00 -4.779103e+00 5.370785e+01 5.138234e-03 -1.339444e-03 -2.340653e-03 -2.219073e-03 8.627702e-04 -6.995609e-04 -4.409867e-04 -2.796331e-03 -7.215932e-04 2.705353e-03 -9.449273e-04 -2.366022e-03 7.653712e-03 -9.450652e-05 8.980970e-05 5.422123e-05 2.022095e-04 -1.755345e-04 -5.587094e-05 2.854338e-04 2.893106e-04 7.039429e-05 -1.048324e-04 7.163698e-05 3.698792e-04 -1.069618e-04
<VARIANCE> 39
 6.613350e+01 6.260557e+01 7.524052e+01 6.530772e+01 7.129965e+01 6.336502e+01 6.465623e+01 7.014954e+01 6.097608e+01 4.362984e+01 4.741068e+01 4.225697e+01 2.317391e+02 2.571821e+00 2.870249e+00 2.927359e+00 3.043273e+00 3.514503e+00 3.180041e+00 3.282620e+00 3.852168e+00 3.421625e+00 2.833079e+00 2.894834e+00 2.471385e+00 5.614727e+00 4.001465e-01 4.553433e-01 4.700513e-01 5.145753e-01 6.287740e-01 5.639942e-01 6.014379e-01 6.821727e-01 6.063015e-01 5.316948e-01 5.346606e-01 4.571171e-01 7.346821e-01
<GCONST> 1.334783e+02
<TRANSP> 5
 0.000000e+00 1.000000e+00 0.000000e+00 0.000000e+00 0.000000e+00
 0.000000e+00 7.151951e-01 2.848049e-01 0.000000e+00 0.000000e+00
 0.000000e+00 0.000000e+00 7.151864e-01 2.848135e-01 0.000000e+00
 0.000000e+00 0.000000e+00 0.000000e+00 8.408710e-01 1.591290e-01
 0.000000e+00 0.000000e+00 0.000000e+00 0.000000e+00 0.000000e+00
<ENDHMM>
~h "l"
<BEGINHMM>
<NUMSTATES> 5
<STATE> 2
<MEAN> 39
 -5.721360e+00 -3.458122e+00 -1.324954e+00 -6.018300e+00 -7.807426e+00 -2.262014e+00 -9.312199e+00 -4.060714e+00 -3.674954e+00 -2.639912e+00 -2.217717e+00 -4.792589e+00 5.513434e+01 1.387501e-03 3.363876e-03 3.639195e-06 -2.281769e-03 1.200704e-03 3.580135e-03 -9.463379e-04 -1.693081e-03 -8.853744e-04 4.609147e-04 -1.046349e-03 -2.168865e-03 4.595804e-03 -3.612904e-04 -1.341808e-04 -1.867726e-05 3.935386e-04 7.165791e-05 -1.767882e-04 1.343902e-04 2.586083e-04 -2.405965e-04 -2.743463e-04 -3.090786e-04 1.011136e-04 -6.344595e-04
<VARIANCE> 39
 6.969984e+01 6.126835e+01 7.587858e+01 7.153501e+01 7.314269e+01 6.780531e+01 7.064510e+01 7.557462e+01 6.429986e+01 4.548243e+01 4.784899e+01 4.330692e+01 2.254905e+02 2.529180e+00 2.688148e+00 2.715057e+00 3.121843e+00 3.434493e+00 3.221339e+00 3.386919e+00 3.949460e+00 3.475199e+00 2.826505e+00 2.933626e+00 2.437535e+00 4.518280e+00 3.821297e-01 4.179590e-01 4.207162e-01 5.190346e-01 6.035728e-01 5.608870e-01 6.085224e-01 6.939411e-01 6.031599e-01 5.243174e-01 5.371732e-01 4.444138e-01 5.802549e-01
<GCONST> 1.331455e+02
<STATE> 3
<MEAN> 39
 -5.717392e+00 -3.449110e+00 -1.324678e+00 -6.027740e+00 -7.803226e+00 -2.249828e+00 -9.315409e+00 -4.066475e+00 -3.678090e+00 -2.638882e+00 -2.221207e+00 -4.799798e+00 5.515172e+01 2.261418e-04 3.056975e-03 -8.595677e-06 -1.015827e-03 1.399483e-03 2.875045e-03 -3.903930e-04 -1.011818e-03 -1.693793e-03 -2.886649e-04 -2.030612e-03 -1.919508e-03 2.206980e-03 -3.036186e-04 -1.014110e-04 1.116294e-05 3.192707e-04 4.527148e-05 -2.183491e-04 1.769573e-04 7.216499e-05 -1.583797e-04 -1.411556e-04 -2.644390e-04 1.454543e-04 -6.399024e-04
<VARIANCE> 39
 6.967471e+01 6.126134e+01 7.594424e+01 7.178472e+01 7.323421e+01 6.783901e+01 7.080142e+01 7.575879e+01 6.433936e+01 4.545048e+01 4.789549e+01 4.334589e+01 2.252185e+02 2.522592e+00 2.683653e+00 2.713856e+00 3.120444e+00 3.434930e+00 3.222199e+00 3.390284e+00 3.951607e+00 3.474282e+00 2.826928e+00 2.936259e+00 2.438236e+00 4.516012e+00 3.810422e-01 4.173225e-01 4.202113e-01 5.184778e-01 6.035485e-01 5.608693e-01 6.086990e-01 6.943443e-01 6.030359e-01 5.247608e-01 5.377762e-01 4.443857e-01 5.792193e-01
<GCONST> 1.331476e+02
<STATE> 4
<MEAN> 39
 -5.817269e+00 -3.408978e+00 -1.264356e+00 -6.077822e+00 -7.680645e+00 -2.212573e+00 -9.313334e+00 -4.095973e+00 -3.736162e+00 -2.650993e+00 -2.235096e+00 -4.767663e+00 5.486378e+01 -7.809144e-04 2.627445e-03 2.659071e-04 -1.006274e-03 1.484869e-03 2.593281e-03 2.403458e-04 -1.218414e-03 -1.661686e-03 -2.113870e-04 -2.434209e-03 -1.928211e-03 3.590367e-04 -2.101277e-04 4.814260e-05 3.742041e-05 1.883565e-04 -4.633358e-05 -1.756077e-04 2.327926e-04 -7.874105e-05 -3.499183e-05 7.806744e-05 -6.947276e-05 1.465404e-04 -6.101354e-04
<VARIANCE> 39
 7.009585e+01 6.079969e+01 7.623505e+01 7.250823e+01 7.363045e+01 6.728307e+01 7.051020e+01 7.429736e+01 6.388505e+01 4.485057e+01 4.760085e+01 4.309862e+01 2.268510e+02 2.464654e+00 2.626059e+00 2.676229e+00 3.073934e+00 3.368467e+00 3.165858e+00 3.335449e+00 3.855114e+00 3.405517e+00 2.788692e+00 2.896434e+00 2.404416e+00 4.411185e+00 3.707450e-01 4.078485e-01 4.135005e-01 5.085860e-01 5.900500e-01 5.504970e-01 5.973135e-01 6.777295e-01 5.908002e-01 5.178524e-01 5.300286e-01 4.378609e-01 5.618619e-01
<GCONST> 1.326081e+02
<TRANSP> 5
 0.000000e+00 1.000000e+00 0.000000e+00 0.000000e+00 0.000000e+00
 0.000000e+00 7.154220e-01 2.845780e-01 0.000000e+00 0.000000e+00
 0.000000e+00 0.000000e+00 7.154201e-01 2.845799e-01 0.000000e+00
 0.000000e+00 0.000000e+00 0.000000e+00 8.412035e-01 1.587965e-01
 0.000000e+00 0.000000e+00 0.000000e+00 0.000000e+00 0.000000e+00
<ENDHMM>
~h "m"
<BEGINHMM>
<NUMSTATES> 5
<STATE> 2
<MEAN> 39
 -5.570682e+00 -3.511831e+00 -1.101774e+00 -5.458140e+00 -7.754288e+00 -2.189735e+00 -8.972897e+00 -3.961807e+00 -4.455748e+00 -2.984364e+00 -2.422487e+00 -4.863495e+00 5.466705e+01 1.536682e-02 -1.391722e-03 2.307417e-03 -5.487462e-03 -2.033013e-03 1.067220e-02 -4.222076e-03 -1.157140e-02 -2.341932e-03 -8.266549e-04 -3.286781e-03 -8.659096e-03 2.035543e-02 -4.117930e-04 1.234060e-04 -2.480343e-05 1.438935e-04 9.343879e-05 -1.734132e-04 8.559020e-05 -6.095738e-05 4.848903e-04 2.428922e-04 -7.920333e-05 1.348941e-04 -4.729386e-04
<VARIANCE> 39
 6.810460e+01 6.137197e+01 7.300754e+01 6.714040e+01 7.225755e+01 6.522523e+01 6.777814e+01 7.685967e+01 6.620245e+01 4.485537e+01 4.839619e+01 4.297160e+01 2.263180e+02 2.426529e+00 2.681486e+00 2.750575e+00 3.136817e+00 3.347783e+00 3.075611e+00 3.251616e+00 4.034853e+00 3.633788e+00 2.767769e+00 2.984345e+00 2.420886e+00 4.542029e+00 3.664132e-01 4.157142e-01 4.284966e-01 5.263513e-01 5.880558e-01 5.379363e-01 5.841847e-01 7.023422e-01 6.264039e-01 5.145907e-01 5.448787e-01 4.433962e-01 5.920750e-01
<GCONST> 1.328303e+02
<STATE> 3
<MEAN> 39
 -5.518074e+00 -3.517705e+00 -1.092502e+00 -5.475111e+00 -7.762191e+00 -2.153288e+00 -8.987292e+00 -4.001193e+00 -4.464014e+00 -2.986584e+00 -2.435039e+00 -4.891881e+00 5.473689e+01 1.393288e-02 -1.199846e-03 2.228281e-03 -4.719441e-03 -2.042562e-03 9.874916e-03 -3.732983e-03 -1.096221e-02 -1.172567e-03 -3.635097e-04 -3.439300e-03 -7.856907e-03 1.876441e-02 -4.204169e-04 9.231032e-06 -9.175614e-06 2.348362e-04 -1.947697e-05 -2.150565e-04 1.832648e-04 2.558964e-04 2.843422e-04 1.365458e-04 -6.434382e-05 2.210532e-04 -4.376012e-04
<VARIANCE> 39
 6.779340e+01 6.146884e+01 7.313866e+01 6.714358e+01 7.246870e+01 6.535187e+01 6.776654e+01 7.688998e+01 6.654472e+01 4.495501e+01 4.856194e+01 4.288391e+01 2.255574e+02 2.419290e+00 2.681126e+00 2.756609e+00 3.142397e+00 3.346532e+00 3.076468e+00 3.253036e+00 4.035436e+00 3.643960e+00 2.768728e+00 2.990547e+00 2.420506e+00 4.538389e+00 3.652651e-01 4.153375e-01 4.293146e-01 5.272396e-01 5.877746e-01 5.377015e-01 5.842635e-01 7.024463e-01 6.274827e-01 5.146181e-01 5.456498e-01 4.432752e-01 5.909297e-01
<GCONST> 1.328452e+02
<STATE> 4
<MEAN> 39
 -5.575237e+00 -3.515898e+00 -1.020203e+00 -5.490192e+00 -7.673593e+00 -2.112390e+00 -8.974934e+00 -4.055091e+00 -4.522752e+00 -3.012418e+00 -2.469124e+00 -4.890192e+00 5.446453e+01 1.203592e-02 -1.477727e-03 2.629154e-03 -3.284491e-03 -2.601023e-03 7.986055e-03 -2.886783e-03 -8.513759e-03 -1.083635e-03 -6.331104e-04 -3.775031e-03 -6.557964e-03 1.700648e-02 -4.074496e-04 -5.941775e-05 9.008211e-06 2.229757e-04 -8.882796e-05 -2.866200e-04 1.702570e-04 4.412915e-04 1.234632e-04 1.674027e-05 -4.951531e-05 2.016799e-04 -3.434985e-04
<VARIANCE> 39
 6.762128e+01 6.119492e+01 7.342103e+01 6.691940e+01 7.294538e+01 6.501926e+01 6.725740e+01 7.534509e+01 6.644437e+01 4.446912e+01 4.838435e+01 4.256779e+01 2.277147e+02 2.352820e+00 2.631176e+00 2.717748e+00 3.091030e+00 3.282857e+00 3.025941e+00 3.197721e+00 3.942292e+00 3.588693e+00 2.730979e+00 2.951013e+00 2.384518e+00 4.436017e+00 3.543652e-01 4.066288e-01 4.223875e-01 5.171866e-01 5.751154e-01 5.276941e-01 5.731964e-01 6.867701e-01 6.170622e-01 5.072617e-01 5.372373e-01 4.364462e-01 5.728856e-01
<GCONST> 1.323021e+02
<TRANSP> 5
 0.000000e+00 1.000000e+00 0.000000e+00 0.000000e+00 0.000000e+00
 0.000000e+00 7.156495e-01 2.843506e-01 0.000000e+00 0.000000e+00
 0.000000e+00 0.000000e+00 7.156541e-01 2.843458e-01 0.000000e+00
 0.000000e+00 0.000000e+00 0.000000e+00 8.414197e-01 1.585803e-01
 0.000000e+00 0.000000e+00 0.000000e+00 0.000000e+00 0.000000e+00
<ENDHMM>
~h "n"
<BEGINHMM>
<NUMSTATES> 5
<STATE> 2
<MEAN> 39
 -5.309721e+00 -3.449636e+00 -6.914143e-01 -5.005412e+00 -8.175726e+00 -2.781060e+00 -9.094415e+00 -3.865198e+00 -3.943255e+00 -2.726831e+00 -2.883782e+00 -4.915012e+00 5.519262e+01 -8.969568e-04 3.160349e-03 -2.011295e-04 2.492826e-03 2.517444e-03 1.398269e-03 5.579051e-04 -5.161571e-03 8.835530e-04 -7.712927e-04 -4.675960e-03 3.723218e-04 -6.262598e-03 -4.244182e-04 1.106673e-04 -2.620499e-04 -4.391205e-04 1.124819e-05 -8.385142e-05 -6.383956e-05 4.222884e-04 -2.508485e-04 -3.790850e-05 6.465693e-04 -1.764232e-05 -2.471478e-04
<VARIANCE> 39
 6.572668e+01 6.375914e+01 7.487934e+01 6.519112e+01 7.277962e+01 6.421318e+01 6.680959e+01 7.749432e+01 6.328812e+01 4.526323e+01 5.022697e+01 4.278732e+01 2.223162e+02 2.510859e+00 2.855000e+00 2.863279e+00 3.091546e+00 3.450633e+00 3.155860e+00 3.309274e+00 4.258753e+00 3.509628e+00 2.879847e+00 2.974508e+00 2.445378e+00 4.897413e+00 3.842305e-01 4.416011e-01 4.455724e-01 5.143306e-01 6.100423e-01 5.569108e-01 5.993335e-01 7.456395e-01 6.156980e-01 5.363453e-01 5.423601e-01 4.495153e-01 6.416914e-01
<GCONST> 1.335247e+02
<STATE> 3
<MEAN> 39
 -5.313285e+00 -3.437616e+00 -6.924964e-01 -4.996977e+00 -8.166327e+00 -2.776060e+00 -9.092775e+00 -3.882278e+00 -3.940572e+00 -2.729250e+00 -2.899399e+00 -4.912536e+00 5.516942e+01 -2.384300e-03 3.505220e-03 -1.311891e-03 8.238725e-04 2.580264e-03 1.183972e-03 3.621030e-04 -3.732511e-03 4.954082e-05 -9.570559e-04 -2.426487e-03 2.824811e-04 -7.107865e-03 -2.871476e-04 7.793093e-05 -2.576582e-04 -4.261502e-04 -1.003685e-04 -1.313594e-04 -9.759076e-05 3.703902e-04 -2.329831e-04 3.900966e-06 5.605804e-04 -8.502843e-05 -5.674140e-05
<VARIANCE> 39
 6.573450e+01 6.370470e+01 7.467699e+01 6.493832e+01 7.274425e+01 6.410931e+01 6.686734e+01 7.744657e+01 6.317290e+01 4.528347e+01 5.020918e+01 4.269625e+01 2.226115e+02 2.511070e+00 2.853908e+00 2.860471e+00 3.086234e+00 3.448028e+00 3.152349e+00 3.307941e+00 4.260094e+00 3.506757e+00 2.880600e+00 2.974523e+00 2.440871e+00 4.894850e+00 3.841123e-01 4.414312e-01 4.451292e-01 5.132563e-01 6.093458e-01 5.563996e-01 5.991922e-01 7.457814e-01 6.153141e-01 5.365248e-01 5.422235e-01 4.488917e-01 6.413780e-01
<GCONST> 1.334968e+02
<STATE> 4
<MEAN> 39
 -5.416536e+00 -3.405067e+00 -6.256419e-01 -5.008112e+00 -8.066931e+00 -2.736410e+00 -9.086488e+00 -3.889320e+00 -3.983037e+00 -2.745842e+00 -2.925941e+00 -4.878104e+00 5.485993e+01 -3.508373e-03 3.961194e-03 -2.708032e-03 -6.877500e-04 2.245871e-03 9.580339e-04 4.888537e-05 -2.357543e-03 -4.843067e-04 -9.299936e-04 -4.260051e-04 1.457803e-05 -7.349600e-03 -1.620652e-04 8.762996e-06 -2.598632e-04 -3.509201e-04 -1.878621e-04 -1.678389e-04 -1.133415e-04 2.490816e-04 -1.470107e-04 6.671155e-05 3.935206e-04 -1.503448e-04 1.329006e-04
<VARIANCE> 39
 6.603492e+01 6.316445e+01 7.476577e+01 6.472444e+01 7.302357e+01 6.364800e+01 6.677924e+01 7.593779e+01 6.257867e+01 4.467007e+01 4.978622e+01 4.241247e+01 2.258124e+02 2.458304e+00 2.798554e+00 2.816925e+00 3.035533e+00 3.381046e+00 3.100322e+00 3.257726e+00 4.164129e+00 3.442001e+00 2.837497e+00 2.934493e+00 2.400496e+00 4.800931e+00 3.748724e-01 4.320465e-01 4.369481e-01 5.027387e-01 5.958803e-01 5.462853e-01 5.890326e-01 7.292807e-01 6.042440e-01 5.283177e-01 5.339172e-01 4.412726e-01 6.249444e-01
<GCONST> 1.329547e+02
<TRANSP> 5
 0.000000e+00 1.000000e+00 0.000000e+00 0.000000e+00 0.000000e+00
 0.000000e+00 7.134467e-01 2.865533e-01 0.000000e+00 0.000000e+00
 0.000000e+00 0.000000e+00 7.134410e-01 2.865591e-01 0.000000e+00
 0.000000e+00 0.000000e+00 0.000000e+00 8.388476e-01 1.611524e-01
 0.000000e+00 0.000000e+00 0.000000e+00 0.000000e+00 0.000000e+00
<ENDHMM>
~h "o"
<BEGINHMM>
<NUMSTATES> 5
<STATE> 2
<MEAN> 39
 -5.445325e+00 -3.170794e+00 -1.736448e+00 -6.851142e+00 -8.054525e+00 -1.502751e+00 -9.246906e+00 -3.998402e+00 -3.891321e+00 -2.477780e+00 -1.817701e+00 -4.601384e+00 5.481369e+01 -3.015527e-03 4.772940e-03 -9.101550e-04 -2.712526e-03 1.989671e-03 7.856710e-03 5.808466e-03 -5.412022e-03 6.616760e-04 1.132267e-03 4.128467e-03 -5.370481e-05 -7.957185e-03 -4.866348e-04 7.957130e-06 2.793242e-04 8.031260e-04 1.370715e-04 -6.277073e-04 -9.679171e-05 2.423021e-04 8.852708e-05 -1.763447e-04 -2.224234e-04 3.489716e-05 -8.480341e-04
<VARIANCE> 39
 7.207590e+01 5.859164e+01 7.721378e+01 8.254808e+01 7.271091e+01 7.107419e+01 6.878859e+01 7.191505e+01 6.144046e+01 4.597188e+01 5.044814e+01 4.173874e+01 2.216806e+02 2.690274e+00 2.650029e+00 2.921544e+00 3.477000e+00 3.561126e+00 3.339737e+00 3.342721e+00 3.829800e+00 3.467718e+00 2.873041e+00 2.942494e+00 2.415636e+00 4.938186e+00 4.031012e-01 4.177216e-01 4.532516e-01 5.535415e-01 6.273882e-01 5.729412e-01 6.005536e-01 6.772004e-01 6.130796e-01 5.341647e-01 5.304655e-01 4.450981e-01 6.352250e-01
<GCONST> 1.339065e+02
<STATE> 3
<MEAN> 39
 -5.455750e+00 -3.154658e+00 -1.740228e+00 -6.860431e+00 -8.046761e+00 -1.474325e+00 -9.228626e+00 -4.015071e+00 -3.888597e+00 -2.475018e+00 -1.802022e+00 -4.599172e+00 5.478494e+01 -4.745242e-03 4.755960e-03 5.597466e-05 1.513625e-05 2.499308e-03 5.828880e-03 5.500596e-03 -4.607241e-03 1.020526e-03 6.176835e-04 3.163223e-03 -1.139956e-05 -1.077927e-02 -3.589368e-04 -1.909454e-05 2.244300e-04 6.226813e-04 1.545687e-04 -4.774827e-04 -1.225725e-04 2.942546e-04 1.057362e-04 -7.658401e-05 -2.025118e-04 4.908730e-06 -5.841721e-04
<VARIANCE> 39
 7.199239e+01 5.844650e+01 7.730157e+01 8.260134e+01 7.272771e+01 7.096820e+01 6.875062e+01 7.175229e+01 6.123214e+01 4.597340e+01 5.045329e+01 4.170361e+01 2.216767e+02 2.688020e+00 2.641961e+00 2.916836e+00 3.474424e+00 3.555491e+00 3.334810e+00 3.339824e+00 3.817142e+00 3.460648e+00 2.870001e+00 2.939886e+00 2.413216e+00 4.921424e+00 4.026235e-01 4.167868e-01 4.524179e-01 5.526450e-01 6.261316e-01 5.718227e-01 5.999916e-01 6.748337e-01 6.120158e-01 5.335891e-01 5.299268e-01 4.446796e-01 6.323517e-01
<GCONST> 1.338499e+02
<STATE> 4
<MEAN> 39
 -5.546810e+00 -3.102010e+00 -1.653174e+00 -6.896027e+00 -7.970683e+00 -1.405688e+00 -9.219230e+00 -4.046767e+00 -3.920585e+00 -2.482084e+00 -1.801589e+00 -4.543799e+00 5.449382e+01 -5.653065e-03 4.166921e-03 4.829305e-04 1.745670e-03 2.796910e-03 4.641050e-03 4.830041e-03 -3.764931e-03 1.163945e-03 6.439482e-04 2.129099e-03 1.611252e-04 -1.214128e-02 -2.208612e-04 -4.769884e-05 1.722152e-04 4.010941e-04 9.925218e-05 -3.177197e-04 4.183385e-06 2.135343e-04 1.312962e-05 4.004402e-05 -2.386916e-04 -3.910083e-05 -3.695153e-04
<VARIANCE> 39
 7.254105e+01 5.783104e+01 7.735671e+01 8.297849e+01 7.307932e+01 7.027728e+01 6.847832e+01 7.039023e+01 6.041870e+01 4.550594e+01 4.991817e+01 4.154598e+01 2.235920e+02 2.634586e+00 2.588373e+00 2.871503e+00 3.430256e+00 3.483115e+00 3.275910e+00 3.282225e+00 3.731016e+00 3.394497e+00 2.829804e+00 2.895959e+00 2.382767e+00 4.797651e+00 3.928606e-01 4.080574e-01 4.441361e-01 5.426381e-01 6.112829e-01 5.607088e-01 5.882522e-01 6.592800e-01 6.000611e-01 5.257604e-01 5.211151e-01 4.389886e-01 6.125215e-01
<GCONST> 1.332952e+02
<TRANSP> 5
 0.000000e+00 1.000000e+00 0.000000e+00 0.000000e+00 0.000000e+00
 0.000000e+00 7.170532e-01 2.829468e-01 0.000000e+00 0.000000e+00
 0.000000e+00 0.000000e+00 7.170521e-01 2.829479e-01 0.000000e+00
 0.000000e+00 0.000000e+00 0.000000e+00 8.429103e-01 1.570898e-01
 0.000000e+00 0.000000e+00 0.000000e+00 0.000000e+00 0.000000e+00
<ENDHMM>
~h "p"
<BEGINHMM>
<NUMSTATES> 5
<STATE> 2
<MEAN> 39
 -6.040749e+00 -3.327516e+00 -1.609918e+00 -5.496776e+00 -7.812950e+00 -2.710891e+00 -8.604840e+00 -3.505260e+00 -3.947996e+00 -2.628699e+00 -2.229564e+00 -4.737188e+00 5.337892e+01 5.538187e-03 -2.305285e-03 -2.490543e-05 -5.428326e-03 -1.148537e-03 5.969720e-03 2.068776e-03 -2.685552e-03 2.674106e-04 4.528716e-04 -5.466336e-04 -6.004378e-03 1.300088e-02 -1.044397e-04 8.899345e-05 7.859980e-05 3.607381e-05 -1.287072e-04 -4.759264e-05 -1.155353e-05 1.396100e-04 7.507861e-05 2.253903e-04 -3.773968e-04 -8.695024e-05 3.909063e-04
<VARIANCE> 39
 6.819301e+01 6.164626e+01 7.180418e+01 6.574186e+01 6.949182e+01 6.383561e+01 6.333609e+01 6.848590e+01 5.932438e+01 4.146801e+01 4.601182e+01 4.239673e+01 2.418020e+02 2.618332e+00 2.876457e+00 2.740767e+00 3.168946e+00 3.403091e+00 3.230833e+00 3.241848e+00 3.783031e+00 3.377709e+00 2.744184e+00 2.896644e+00 2.452352e+00 6.041272e+00 4.100908e-01 4.501001e-01 4.347567e-01 5.426064e-01 6.081662e-01 5.744212e-01 5.901858e-01 6.717216e-01 5.975654e-01 5.191478e-01 5.380299e-01 4.546508e-01 7.900892e-01
<GCONST> 1.332710e+02
<STATE> 3
<MEAN> 39
 -6.023910e+00 -3.335340e+00 -1.610822e+00 -5.514025e+00 -7.817148e+00 -2.692384e+00 -8.594670e+00 -3.514003e+00 -3.944640e+00 -2.626777e+00 -2.233003e+00 -4.756616e+00 5.342274e+01 5.188357e-03 -1.857018e-03 1.432877e-04 -4.967295e-03 -1.571493e-03 5.425349e-03 2.227154e-03 -2.231883e-03 4.897007e-04 8.644301e-04 -1.506050e-03 -5.735895e-03 1.335077e-02 -9.474453e-05 2.017231e-04 3.824578e-05 1.589316e-04 -1.540749e-04 -2.130115e-04 6.790795e-05 1.382927e-04 5.031431e-05 1.273330e-04 -3.188144e-04 1.391166e-04 1.396632e-05
<VARIANCE> 39
 6.813895e+01 6.177264e+01 7.192773e+01 6.574726e+01 6.959241e+01 6.405035e+01 6.333234e+01 6.836643e+01 5.939817e+01 4.146803e+01 4.606269e+01 4.238893e+01 2.415120e+02 2.627386e+00 2.885051e+00 2.742129e+00 3.180436e+00 3.412232e+00 3.241301e+00 3.242770e+00 3.783373e+00 3.381279e+00 2.742969e+00 2.900894e+00 2.459334e+00 6.096898e+00 4.114892e-01 4.515377e-01 4.347214e-01 5.444812e-01 6.099734e-01 5.760737e-01 5.901352e-01 6.719747e-01 5.983368e-01 5.189188e-01 5.385244e-01 4.559675e-01 7.966634e-01
<GCONST> 1.333379e+02
<STATE> 4
<MEAN> 39
 -6.146168e+00 -3.331718e+00 -1.550341e+00 -5.514490e+00 -7.732493e+00 -2.631187e+00 -8.530869e+00 -3.489612e+00 -3.953255e+00 -2.630783e+00 -2.257590e+00 -4.729885e+00 5.308575e+01 4.482668e-03 -1.114583e-03 6.134009e-04 -3.402933e-03 -2.014464e-03 4.204377e-03 2.368246e-03 -1.888772e-03 1.451438e-03 1.081874e-03 -1.812909e-03 -4.284004e-03 1.096112e-02 -9.067624e-05 2.557474e-04 1.102614e-04 2.805478e-04 -1.309697e-04 -1.835767e-04 -2.754546e-05 3.190618e-05 7.725551e-05 8.839458e-05 -1.253348e-04 2.853565e-04 -3.679191e-04
<VARIANCE> 39
 6.793497e+01 6.134739e+01 7.145713e+01 6.597151e+01 7.002314e+01 6.365780e+01 6.330877e+01 6.702271e+01 5.887704e+01 4.092062e+01 4.570226e+01 4.231489e+01 2.446791e+02 2.558862e+00 2.825801e+00 2.689289e+00 3.137607e+00 3.348036e+00 3.188108e+00 3.175794e+00 3.703533e+00 3.315477e+00 2.697504e+00 2.854174e+00 2.428520e+00 5.974903e+00 3.996680e-01 4.417155e-01 4.259037e-01 5.354992e-01 5.975103e-01 5.656341e-01 5.771121e-01 6.583603e-01 5.869967e-01 5.096911e-01 5.289954e-01 4.498674e-01 7.756378e-01
<GCONST> 1.327775e+02
<TRANSP> 5
 0.000000e+00 1.000000e+00 0.000000e+00 0.000000e+00 0.000000e+00
 0.000000e+00 7.149743e-01 2.850257e-01 0.000000e+00 0.000000e+00
 0.000000e+00 0.000000e+00 7.149709e-01 2.850291e-01 0.000000e+00
 0.000000e+00 0.000000e+00 0.000000e+00 8.408127e-01 1.591873e-01
 0.000000e+00 0.000000e+00 0.000000e+00 0.000000e+00 0.000000e+00
<ENDHMM>
~h "r"
<BEGINHMM>
<NUMSTATES> 5
<STATE> 2
<MEAN> 39
 -5.631583e+00 -3.864105e+00 -1.520471e+00 -5.401513e+00 -7.990283e+00 -2.834671e+00 -9.179382e+00 -3.326645e+00 -3.504198e+00 -2.588410e+00 -2.386327e+00 -4.913838e+00 5.545139e+01 -6.076064e-04 3.398764e-03 8.955368e-04 2.763367e-03 5.405900e-04 -6.394485e-04 9.899415e-04 1.045472e-03 -1.837092e-03 -6.628908e-04 -5.644286e-04 -1.607379e-04 1.785319e-03 -2.849090e-04 4.596014e-04 2.462819e-04 1.961623e-04 3.142495e-05 -8.141843e-07 3.273888e-04 -2.086002e-04 -2.329680e-04 -1.426853e-04 -3.791322e-05 6.303936e-05 -1.060744e-03
<VARIANCE> 39
 6.911156e+01 6.420238e+01 7.704326e+01 6.462210e+01 7.298011e+01 6.492398e+01 6.719787e+01 7.292206e+01 6.359474e+01 4.435357e+01 4.879258e+01 4.261800e+01 2.276382e+02 2.675454e+00 2.806843e+00 2.782391e+00 3.103251e+00 3.502848e+00 3.168007e+00 3.342280e+00 3.873505e+00 3.520663e+00 2.805027e+00 2.920303e+00 2.474787e+00 5.105608e+00 4.113952e-01 4.330710e-01 4.312924e-01 5.241764e-01 6.205624e-01 5.554590e-01 6.011869e-01 6.787393e-01 6.133994e-01 5.251786e-01 5.362449e-01 4.565940e-01 6.706314e-01
<GCONST> 1.334855e+02
<STATE> 3
<MEAN> 39
 -5.634508e+00 -3.852421e+00 -1.516968e+00 -5.391307e+00 -7.988342e+00 -2.837992e+00 -9.175524e+00 -3.323770e+00 -3.511609e+00 -2.591210e+00 -2.387561e+00 -4.914565e+00 5.545477e+01 -1.702358e-03 5.013752e-03 1.609908e-03 3.029041e-03 8.780646e-04 -5.488836e-04 2.183742e-03 3.027430e-04 -2.773677e-03 -1.033322e-03 -5.830174e-04 8.352456e-05 -2.025553e-03 -2.867644e-04 3.491737e-04 1.589344e-04 2.099860e-05 4.331761e-05 2.983490e-05 3.329841e-04 -2.083177e-04 -2.197066e-04 -1.447924e-04 2.117755e-05 2.258390e-05 -1.049629e-03
<VARIANCE> 39
 6.920730e+01 6.422943e+01 7.725047e+01 6.447112e+01 7.306664e+01 6.492044e+01 6.722740e+01 7.290318e+01 6.365491e+01 4.435167e+01 4.887135e+01 4.260739e+01 2.276002e+02 2.675453e+00 2.803537e+00 2.781168e+00 3.098867e+00 3.499287e+00 3.162138e+00 3.341751e+00 3.869218e+00 3.522876e+00 2.803279e+00 2.916747e+00 2.471426e+00 5.098709e+00 4.109713e-01 4.323574e-01 4.306747e-01 5.233672e-01 6.192735e-01 5.543718e-01 6.009640e-01 6.780401e-01 6.135981e-01 5.246353e-01 5.356779e-01 4.557329e-01 6.689033e-01
<GCONST> 1.334627e+02
<STATE> 4
<MEAN> 39
 -5.721157e+00 -3.840280e+00 -1.442379e+00 -5.425283e+00 -7.918725e+00 -2.789394e+00 -9.182212e+00 -3.341839e+00 -3.554664e+00 -2.626511e+00 -2.391017e+00 -4.896788e+00 5.519497e+01 -3.002877e-03 6.139723e-03 1.807441e-03 2.579103e-03 1.764871e-03 -3.512344e-04 3.606081e-03 -3.229004e-04 -3.669570e-03 -1.271480e-03 -4.252287e-04 1.591203e-04 -6.452923e-03 -2.879583e-04 2.844517e-04 4.551042e-05 -1.099889e-04 9.066366e-05 6.535069e-05 2.882938e-04 -1.853608e-04 -1.842636e-04 -1.227975e-04 4.770742e-05 1.883542e-05 -9.700749e-04
<VARIANCE> 39
 6.933273e+01 6.396273e+01 7.758877e+01 6.460461e+01 7.347973e+01 6.448640e+01 6.724008e+01 7.182336e+01 6.326992e+01 4.385344e+01 4.851571e+01 4.246499e+01 2.300724e+02 2.616339e+00 2.753958e+00 2.745249e+00 3.054150e+00 3.432179e+00 3.104988e+00 3.294673e+00 3.792210e+00 3.471303e+00 2.760691e+00 2.874443e+00 2.431554e+00 4.979344e+00 4.004069e-01 4.239760e-01 4.234626e-01 5.136936e-01 6.049262e-01 5.432559e-01 5.912266e-01 6.651244e-01 6.039457e-01 5.155653e-01 5.270603e-01 4.475283e-01 6.480194e-01
<GCONST> 1.329497e+02
<TRANSP> 5
 0.000000e+00 1.000000e+00 0.000000e+00 0.000000e+00 0.000000e+00
 0.000000e+00 7.153313e-01 2.846688e-01 0.000000e+00 0.000000e+00
 0.000000e+00 0.000000e+00 7.153316e-01 2.846684e-01 0.000000e+00
 0.000000e+00 0.000000e+00 0.000000e+00 8.407679e-01 1.592322e-01
 0.000000e+00 0.000000e+00 0.000000e+00 0.000000e+00 0.000000e+00
<ENDHMM>
~h "s"
<BEGINHMM>
<NUMSTATES> 5
<STATE> 2
<MEAN> 39
 -7.533307e+00 -2.919285e+00 -1.458416e+00 -5.295858e+00 -7.120124e+00 -3.162836e+00 -8.605821e+00 -2.950606e+00 -3.702977e+00 -2.605919e+00 -2.284151e+00 -4.277652e+00 5.498540e+01 -2.018006e-03 5.898522e-03 1.529252e-03 -5.668714e-03 4.810689e-03 6.123672e-03 -1.579599e-03 -4.605274e-03 1.951822e-03 2.245314e-03 3.958128e-04 -4.388044e-03 6.388740e-03 6.990666e-04 -2.177729e-04 -3.074237e-05 1.910922e-05 -3.092281e-04 1.426864e-04 -8.878097e-05 -1.913098e-04 -3.235702e-05 -9.245899e-05 -1.620800e-04 -6.017407e-06 -5.741377e-04
<VARIANCE> 39
 9.014113e+01 6.227362e+01 7.320942e+01 6.203413e+01 7.183210e+01 6.167059e+01 6.821655e+01 6.892417e+01 5.985332e+01 4.182503e+01 4.514170e+01 4.200322e+01 2.200229e+02 3.617274e+00 2.931372e+00 2.775981e+00 2.929403e+00 3.427596e+00 3.076779e+00 3.387916e+00 3.849139e+00 3.369293e+00 2.707145e+00 2.794090e+00 2.440426e+00 4.482772e+00 4.987955e-01 4.519967e-01 4.296569e-01 4.956599e-01 5.912420e-01 5.385340e-01 6.064483e-01 6.752945e-01 5.932447e-01 5.079890e-01 5.134841e-01 4.451091e-01 5.878409e-01
<GCONST> 1.330808e+02
<STATE> 3
<MEAN> 39
 -7.538774e+00 -2.901221e+00 -1.454141e+00 -5.313984e+00 -7.106374e+00 -3.141834e+00 -8.611487e+00 -2.965399e+00 -3.696261e+00 -2.598706e+00 -2.284027e+00 -4.291883e+00 5.500655e+01 5.876996e-04 4.713458e-03 1.159322e-03 -5.074829e-03 3.516775e-03 6.107224e-03 -1.594734e-03 -4.627087e-03 1.308128e-03 1.626190e-03 7.343531e-05 -3.768730e-03 4.525451e-03 6.735788e-04 -2.970604e-04 -9.529824e-05 2.382991e-04 -3.543496e-04 -6.384293e-05 2.048001e-05 7.681634e-06 -1.811718e-04 -1.802973e-04 -8.944833e-05 2.119428e-04 -4.737656e-04
<VARIANCE> 39
 9.036452e+01 6.226640e+01 7.328339e+01 6.207188e+01 7.188937e+01 6.171806e+01 6.821426e+01 6.874829e+01 5.981153e+01 4.178500e+01 4.514854e+01 4.181987e+01 2.199596e+02 3.640559e+00 2.933828e+00 2.775980e+00 2.926996e+00 3.428866e+00 3.077242e+00 3.394311e+00 3.846008e+00 3.368473e+00 2.702470e+00 2.792910e+00 2.439734e+00 4.482642e+00 5.011328e-01 4.522664e-01 4.293609e-01 4.950283e-01 5.905700e-01 5.383123e-01 6.070868e-01 6.743056e-01 5.930935e-01 5.070542e-01 5.131223e-01 4.446847e-01 5.877423e-01
<GCONST> 1.330803e+02
<STATE> 4
<MEAN> 39
 -7.625127e+00 -2.867347e+00 -1.405623e+00 -5.356915e+00 -7.004625e+00 -3.054165e+00 -8.596390e+00 -2.997940e+00 -3.720945e+00 -2.600462e+00 -2.281148e+00 -4.266259e+00 5.468818e+01 3.057384e-03 2.980049e-03 3.692191e-04 -3.523956e-03 1.892300e-03 5.039381e-03 -1.038005e-03 -3.472733e-03 5.617090e-04 4.552921e-04 -3.013888e-04 -2.383196e-03 3.376635e-03 5.387109e-04 -2.135669e-04 -9.767527e-05 2.372829e-04 -2.087144e-04 -8.198604e-05 9.602140e-05 8.292413e-05 -1.274786e-04 -1.920344e-04 -7.178827e-05 1.677039e-04 -3.026194e-04
<VARIANCE> 39
 9.038205e+01 6.174409e+01 7.343736e+01 6.262274e+01 7.186513e+01 6.120361e+01 6.795322e+01 6.733471e+01 5.924218e+01 4.117711e+01 4.473941e+01 4.150362e+01 2.228853e+02 3.564853e+00 2.875567e+00 2.732092e+00 2.890823e+00 3.360944e+00 3.030008e+00 3.333984e+00 3.765697e+00 3.312309e+00 2.659367e+00 2.751357e+00 2.406329e+00 4.383206e+00 4.883468e-01 4.421985e-01 4.211286e-01 4.872339e-01 5.767238e-01 5.293568e-01 5.951934e-01 6.602702e-01 5.829448e-01 4.986778e-01 5.051214e-01 4.380206e-01 5.713365e-01
<GCONST> 1.325360e+02
<TRANSP> 5
 0.000000e+00 1.000000e+00 0.000000e+00 0.000000e+00 0.000000e+00
 0.000000e+00 7.163566e-01 2.836434e-01 0.000000e+00 0.000000e+00
 0.000000e+00 0.000000e+00 7.163627e-01 2.836373e-01 0.000000e+00
 0.000000e+00 0.000000e+00 0.000000e+00 8.422115e-01 1.577885e-01
 0.000000e+00 0.000000e+00 0.000000e+00 0.000000e+00 0.000000e+00
<ENDHMM>
~h "t"
<BEGINHMM>
<NUMSTATES> 5
<STATE> 2
<MEAN> 39
 -5.938216e+00 -3.265384e+00 -1.487212e+00 -5.713026e+00 -7.792760e+00 -2.887326e+00 -8.984372e+00 -3.675525e+00 -3.780707e+00 -2.611425e+00 -2.537304e+00 -4.790465e+00 5.451214e+01 -6.477093e-04 6.563738e-03 2.638888e-03 -7.819003e-04 1.665085e-03 3.565976e-03 5.561921e-04 -4.030193e-03 -1.569170e-04 1.708198e-03 -1.593990e-03 -6.724118e-05 -6.268519e-03 -5.745496e-05 -1.182226e-04 1.870982e-04 6.997797e-05 9.285807e-05 2.605807e-04 1.520381e-04 3.416234e-04 3.045411e-05 -3.967269e-05 6.911268e-05 -2.700388e-05 -4.184740e-04
<VARIANCE> 39
 6.601132e+01 6.291464e+01 7.452055e+01 6.571958e+01 7.010703e+01 6.453363e+01 6.564639e+01 7.071136e+01 6.286997e+01 4.319225e+01 4.743620e+01 4.230807e+01 2.268945e+02 2.783116e+00 2.952329e+00 2.827979e+00 3.117840e+00 3.468053e+00 3.234172e+00 3.395825e+00 3.886247e+00 3.484731e+00 2.808717e+00 2.904136e+00 2.492624e+00 6.170879e+00 4.361598e-01 4.632968e-01 4.456454e-01 5.277815e-01 6.178417e-01 5.722279e-01 6.178052e-01 6.907352e-01 6.144300e-01 5.289255e-01 5.356538e-01 4.622946e-01 8.196401e-01
<GCONST> 1.340052e+02
<STATE> 3
<MEAN> 39
 -5.940372e+00 -3.243530e+00 -1.477640e+00 -5.714955e+00 -7.787801e+00 -2.874869e+00 -8.981019e+00 -3.687205e+00 -3.780875e+00 -2.606166e+00 -2.542873e+00 -4.791590e+00 5.448954e+01 -7.706849e-04 6.002171e-03 3.036763e-03 -1.890972e-04 1.837205e-03 4.231210e-03 1.113805e-03 -2.710801e-03 -1.975223e-04 1.440992e-03 -1.544343e-03 -6.084086e-05 -7.729724e-03 -7.232276e-06 -1.869183e-04 1.598735e-04 1.879037e-04 2.891848e-05 1.272334e-04 1.550071e-04 3.416885e-04 -6.311926e-05 -6.686971e-05 3.934405e-05 -4.345478e-07 -4.260892e-04
<VARIANCE> 39
 6.588605e+01 6.282852e+01 7.458768e+01 6.564453e+01 7.007258e+01 6.448325e+01 6.566888e+01 7.051095e+01 6.280045e+01 4.316754e+01 4.739781e+01 4.219025e+01 2.268967e+02 2.778722e+00 2.947575e+00 2.825958e+00 3.117646e+00 3.465338e+00 3.233949e+00 3.400858e+00 3.878501e+00 3.480003e+00 2.806908e+00 2.901323e+00 2.491161e+00 6.183712e+00 4.358670e-01 4.626523e-01 4.453930e-01 5.276642e-01 6.172396e-01 5.722710e-01 6.187139e-01 6.894847e-01 6.134642e-01 5.285090e-01 5.352597e-01 4.621823e-01 8.216519e-01
<GCONST> 1.339809e+02
<STATE> 4
<MEAN> 39
 -6.033022e+00 -3.213637e+00 -1.403154e+00 -5.745570e+00 -7.694163e+00 -2.804344e+00 -8.966471e+00 -3.702762e+00 -3.828040e+00 -2.621219e+00 -2.566598e+00 -4.764243e+00 5.417204e+01 -8.825925e-04 4.948342e-03 3.075052e-03 8.024284e-04 1.592405e-03 4.120721e-03 1.398697e-03 -1.271251e-03 -3.000276e-04 7.231061e-04 -1.497208e-03 4.020381e-05 -8.479541e-03 -2.142457e-05 -1.773847e-04 1.013029e-04 2.225265e-04 2.813125e-05 -5.237653e-05 2.356390e-05 2.426807e-04 -5.910607e-05 -1.365539e-04 4.023265e-05 9.188132e-05 -3.634542e-04
<VARIANCE> 39
 6.590934e+01 6.234855e+01 7.471284e+01 6.569388e+01 7.030293e+01 6.393798e+01 6.543791e+01 6.886415e+01 6.220031e+01 4.261831e+01 4.698245e+01 4.185614e+01 2.290288e+02 2.712682e+00 2.890034e+00 2.784138e+00 3.077724e+00 3.400612e+00 3.183641e+00 3.346194e+00 3.786117e+00 3.410601e+00 2.760873e+00 2.859538e+00 2.452115e+00 6.053099e+00 4.245332e-01 4.531215e-01 4.381569e-01 5.188800e-01 6.039841e-01 5.625848e-01 6.077026e-01 6.739805e-01 6.009246e-01 5.191783e-01 5.268807e-01 4.546048e-01 7.993298e-01
<GCONST> 1.334209e+02
<TRANSP> 5
 0.000000e+00 1.000000e+00 0.000000e+00 0.000000e+00 0.000000e+00
 0.000000e+00 7.155389e-01 2.844610e-01 0.000000e+00 0.000000e+00
 0.000000e+00 0.000000e+00 7.155367e-01 2.844634e-01 0.000000e+00
 0.000000e+00 0.000000e+00 0.000000e+00 8.410720e-01 1.589280e-01
 0.000000e+00 0.000000e+00 0.000000e+00 0.000000e+00 0.000000e+00
<ENDHMM>
~h "u"
<BEGINHMM>
<NUMSTATES> 5
<STATE> 2
<MEAN> 39
 -5.543515e+00 -2.253808e+00 -1.117882e+00 -5.812301e+00 -8.052407e+00 -2.156388e+00 -9.757988e+00 -4.244584e+00 -4.502430e+00 -2.707395e+00 -2.086613e+00 -4.441902e+00 5.438636e+01 3.743693e-03 8.441770e-03 2.286730e-03 -1.254326e-03 -2.848436e-03 8.002856e-03 -1.723292e-03 -7.182574e-03 -3.468625e-03 -6.195499e-05 -1.591599e-04 -5.161806e-04 2.989892e-03 -2.368584e-04 -3.652458e-04 1.187270e-04 2.448327e-04 3.436502e-06 -2.826710e-04 9.035107e-05 6.143733e-05 2.143419e-04 -2.255445e-04 -1.301267e-04 -7.421394e-05 -2.032933e-04
<VARIANCE> 39
 7.304205e+01 6.135473e+01 7.121399e+01 6.821487e+01 7.252141e+01 6.612672e+01 7.156359e+01 7.526749e+01 6.378322e+01 4.428663e+01 4.836650e+01 4.160035e+01 2.147403e+02 2.819472e+00 2.799588e+00 2.780605e+00 3.293461e+00 3.564603e+00 3.314852e+00 3.557371e+00 3.964210e+00 3.523544e+00 2.868588e+00 3.012344e+00 2.493881e+00 4.945858e+00 4.271596e-01 4.449377e-01 4.418082e-01 5.548683e-01 6.323953e-01 5.838464e-01 6.377655e-01 6.983267e-01 6.197686e-01 5.372961e-01 5.508161e-01 4.597813e-01 6.515090e-01
<GCONST> 1.341147e+02
<STATE> 3
<MEAN> 39
 -5.530614e+00 -2.225993e+00 -1.108799e+00 -5.816844e+00 -8.064247e+00 -2.130488e+00 -9.765378e+00 -4.268952e+00 -4.513587e+00 -2.708438e+00 -2.088007e+00 -4.442665e+00 5.439898e+01 2.802834e-03 7.092195e-03 2.585235e-03 -3.845363e-04 -2.794947e-03 6.821981e-03 -1.420484e-03 -6.939421e-03 -2.574534e-03 -6.328269e-04 -5.121874e-04 -6.578824e-04 2.315532e-03 -1.704899e-04 -3.406555e-04 6.315271e-05 1.466277e-04 1.066818e-05 -3.396836e-04 8.323501e-06 8.881175e-05 2.362968e-04 -1.436535e-04 -4.540231e-05 -6.411164e-05 -5.804386e-05
<VARIANCE> 39
 7.305529e+01 6.124527e+01 7.128967e+01 6.829759e+01 7.270049e+01 6.613428e+01 7.171615e+01 7.546125e+01 6.382222e+01 4.429713e+01 4.841194e+01 4.156728e+01 2.144072e+02 2.823708e+00 2.796730e+00 2.780983e+00 3.300097e+00 3.571282e+00 3.316566e+00 3.562596e+00 3.967516e+00 3.523186e+00 2.872823e+00 3.015095e+00 2.495904e+00 4.947558e+00 4.275182e-01 4.445062e-01 4.418304e-01 5.559189e-01 6.335263e-01 5.840495e-01 6.386225e-01 6.987229e-01 6.195611e-01 5.380049e-01 5.512759e-01 4.601460e-01 6.512668e-01
<GCONST> 1.341410e+02
<STATE> 4
<MEAN> 39
 -5.608846e+00 -2.211134e+00 -1.045070e+00 -5.856630e+00 -8.002176e+00 -2.070153e+00 -9.759186e+00 -4.295781e+00 -4.571378e+00 -2.736011e+00 -2.104686e+00 -4.424113e+00 5.414325e+01 1.924793e-03 5.477883e-03 2.789909e-03 -4.758828e-05 -2.908424e-03 5.151775e-03 -1.464817e-03 -6.225915e-03 -1.187332e-03 -3.680477e-04 -6.338072e-04 -5.437295e-04 1.927456e-03 -8.864905e-05 -2.843058e-04 -1.799825e-05 4.707707e-05 7.445886e-05 -2.888825e-04 2.334806e-05 1.602703e-04 2.636146e-04 2.950304e-05 1.402531e-05 -1.023317e-04 1.423346e-05
<VARIANCE> 39
 7.320512e+01 6.078353e+01 7.148936e+01 6.853570e+01 7.293111e+01 6.568176e+01 7.156767e+01 7.432553e+01 6.377687e+01 4.381883e+01 4.823532e+01 4.139745e+01 2.161696e+02 2.771590e+00 2.745193e+00 2.743840e+00 3.257013e+00 3.502805e+00 3.265960e+00 3.503348e+00 3.890770e+00 3.467809e+00 2.837444e+00 2.979246e+00 2.461118e+00 4.854558e+00 4.176980e-01 4.353221e-01 4.347713e-01 5.466760e-01 6.195419e-01 5.739212e-01 6.269210e-01 6.851106e-01 6.089442e-01 5.308210e-01 5.435225e-01 4.532182e-01 6.346699e-01
<GCONST> 1.336608e+02
<TRANSP> 5
 0.000000e+00 1.000000e+00 0.000000e+00 0.000000e+00 0.000000e+00
 0.000000e+00 7.153072e-01 2.846928e-01 0.000000e+00 0.000000e+00
 0.000000e+00 0.000000e+00 7.153058e-01 2.846943e-01 0.000000e+00
 0.000000e+00 0.000000e+00 0.000000e+00 8.406157e-01 1.593844e-01
 0.000000e+00 0.000000e+00 0.000000e+00 0.000000e+00 0.000000e+00
<ENDHMM>
~h "w"
<BEGINHMM>
<NUMSTATES> 5
<STATE> 2
<MEAN> 39
 -5.111155e+00 -3.289382e+00 -1.314633e+00 -6.735581e+00 -8.214308e+00 -2.203809e+00 -9.372912e+00 -3.642282e+00 -3.877908e+00 -2.618494e+00 -1.897060e+00 -4.908334e+00 5.581176e+01 8.836055e-03 2.442214e-03 -1.348051e-02 -1.200584e-02 7.572058e-03 7.128317e-03 4.924248e-03 9.621697e-04 7.305314e-03 2.546415e-03 -2.622010e-03 -2.802911e-03 8.846307e-04 -8.798181e-04 9.413192e-05 -6.673399e-04 5.737819e-04 -3.440070e-04 -1.664655e-04 2.430199e-04 -2.042322e-04 -6.019300e-05 -7.253874e-05 1.438041e-04 3.826569e-04 -1.258256e-03
<VARIANCE> 39
 6.954227e+01 6.299170e+01 8.011933e+01 8.410072e+01 7.370640e+01 7.022653e+01 6.596861e+01 7.233888e+01 6.571284e+01 4.483175e+01 5.120457e+01 4.442600e+01 2.197888e+02 2.480323e+00 2.754788e+00 2.709786e+00 3.155566e+00 3.478102e+00 3.130515e+00 3.191754e+00 3.779860e+00 3.305061e+00 2.735952e+00 2.926875e+00 2.464165e+00 4.544247e+00 3.705559e-01 4.188653e-01 4.071766e-01 4.988633e-01 6.012766e-01 5.318041e-01 5.725265e-01 6.698400e-01 5.738436e-01 5.092638e-01 5.310023e-01 4.471800e-01 5.778518e-01
<GCONST> 1.328760e+02
<STATE> 3
<MEAN> 39
 -5.078540e+00 -3.285777e+00 -1.358447e+00 -6.779527e+00 -8.191709e+00 -2.176424e+00 -9.356076e+00 -3.638938e+00 -3.855988e+00 -2.612831e+00 -1.902412e+00 -4.915239e+00 5.581932e+01 5.687089e-03 2.548593e-03 -1.478899e-02 -9.004796e-03 6.819120e-03 5.990056e-03 5.958365e-03 5.621105e-04 7.027111e-03 1.383992e-03 -1.996283e-03 -8.568452e-04 -3.037187e-03 -8.809624e-04 1.196179e-04 -8.549852e-05 7.607567e-04 -4.243280e-04 -2.191121e-04 2.902465e-04 -6.661611e-05 -2.205490e-04 -3.214967e-04 2.679586e-04 5.939216e-04 -1.064271e-03
<VARIANCE> 39
 6.932724e+01 6.301801e+01 7.995544e+01 8.439484e+01 7.381266e+01 7.042689e+01 6.601930e+01 7.236973e+01 6.537430e+01 4.490563e+01 5.144161e+01 4.431067e+01 2.198724e+02 2.461115e+00 2.750490e+00 2.702061e+00 3.148433e+00 3.467498e+00 3.123618e+00 3.183326e+00 3.772425e+00 3.296467e+00 2.736909e+00 2.928643e+00 2.461507e+00 4.514242e+00 3.675689e-01 4.176802e-01 4.062274e-01 4.966472e-01 5.983802e-01 5.302566e-01 5.711126e-01 6.681273e-01 5.726611e-01 5.089134e-01 5.312337e-01 4.465004e-01 5.731267e-01
<GCONST> 1.328029e+02
<STATE> 4
<MEAN> 39
 -5.170831e+00 -3.256647e+00 -1.325368e+00 -6.842194e+00 -8.057531e+00 -2.105974e+00 -9.298372e+00 -3.632910e+00 -3.910306e+00 -2.630748e+00 -1.907054e+00 -4.850583e+00 5.547831e+01 3.349822e-03 2.026414e-03 -1.370383e-02 -5.300570e-03 6.420673e-03 7.049680e-03 6.040615e-03 -3.650311e-04 5.875934e-03 -1.882076e-03 -9.403167e-04 6.198960e-04 -5.746660e-03 -7.715711e-04 2.110754e-04 1.146501e-04 7.238816e-04 -2.675220e-04 1.355506e-04 1.606577e-04 -9.920775e-05 -2.394157e-04 -4.680171e-04 1.024761e-04 4.286538e-04 -1.087695e-03
<VARIANCE> 39
 6.954046e+01 6.270059e+01 7.976828e+01 8.500257e+01 7.415413e+01 6.966790e+01 6.581819e+01 7.107050e+01 6.421510e+01 4.454814e+01 5.118934e+01 4.417638e+01 2.231832e+02 2.387547e+00 2.691439e+00 2.660982e+00 3.095122e+00 3.398407e+00 3.054682e+00 3.121476e+00 3.688257e+00 3.230259e+00 2.698621e+00 2.877017e+00 2.419599e+00 4.382277e+00 3.549098e-01 4.074187e-01 3.993023e-01 4.857408e-01 5.839311e-01 5.180624e-01 5.588835e-01 6.531711e-01 5.613810e-01 5.009005e-01 5.211073e-01 4.386086e-01 5.516015e-01
<GCONST> 1.321889e+02
<TRANSP> 5
 0.000000e+00 1.000000e+00 0.000000e+00 0.000000e+00 0.000000e+00
 0.000000e+00 7.187702e-01 2.812298e-01 0.000000e+00 0.000000e+00
 0.000000e+00 0.000000e+00 7.187713e-01 2.812287e-01 0.000000e+00
 0.000000e+00 0.000000e+00 0.000000e+00 8.454331e-01 1.545669e-01
 0.000000e+00 0.000000e+00 0.000000e+00 0.000000e+00 0.000000e+00
<ENDHMM>
~h "y"
<BEGINHMM>
<NUMSTATES> 5
<STATE> 2
<MEAN> 39
 -6.402553e+00 -3.602159e+00 -5.671450e-01 -5.565135e+00 -8.055157e+00 -3.077334e+00 -8.828770e+00 -2.832315e+00 -3.751254e+00 -2.956676e+00 -2.044056e+00 -4.431081e+00 5.479975e+01 -1.208726e-03 -1.809680e-04 1.581508e-02 -8.610976e-03 -7.043181e-03 -4.561355e-03 -1.929216e-03 5.269764e-03 -4.188635e-03 -4.907582e-03 -1.241393e-03 -1.863654e-04 2.201407e-02 -1.597530e-04 5.386708e-05 -3.711576e-04 1.629138e-04 3.671277e-05 -2.529312e-04 2.175792e-04 -5.850992e-04 -3.978629e-05 5.208340e-04 -5.432726e-04 -1.640170e-04 -6.727447e-04
<VARIANCE> 39
 6.562955e+01 6.187365e+01 8.192344e+01 6.396111e+01 7.556767e+01 6.471434e+01 6.889311e+01 7.513469e+01 6.320992e+01 4.556973e+01 4.917618e+01 4.299091e+01 2.480307e+02 2.368272e+00 2.644134e+00 2.955897e+00 2.799361e+00 3.303828e+00 2.967886e+00 3.161712e+00 3.859080e+00 3.290254e+00 2.757594e+00 2.859995e+00 2.367054e+00 4.271017e+00 3.531326e-01 4.022071e-01 4.284781e-01 4.666702e-01 5.703938e-01 5.193236e-01 5.664433e-01 6.724370e-01 5.661070e-01 5.126008e-01 5.201795e-01 4.327856e-01 5.430105e-01
<GCONST> 1.319525e+02
<STATE> 3
<MEAN> 39
 -6.405130e+00 -3.607169e+00 -5.103123e-01 -5.600044e+00 -8.084279e+00 -3.093399e+00 -8.839086e+00 -2.814786e+00 -3.764634e+00 -2.968484e+00 -2.049458e+00 -4.434496e+00 5.488614e+01 -1.772657e-03 -3.122452e-04 1.446060e-02 -7.879912e-03 -6.869918e-03 -5.030468e-03 -1.331987e-03 3.502324e-03 -3.948950e-03 -3.102792e-03 -3.162785e-03 -8.873786e-04 1.961920e-02 -5.042884e-05 -2.551823e-05 -3.946402e-04 2.879414e-04 3.617743e-05 -1.322952e-04 1.330799e-04 -4.205923e-04 9.897311e-05 5.766469e-04 -4.441171e-04 -1.685570e-04 -7.098946e-04
<VARIANCE> 39
 6.577775e+01 6.197293e+01 8.247137e+01 6.376974e+01 7.569291e+01 6.483040e+01 6.878411e+01 7.506763e+01 6.334319e+01 4.564336e+01 4.926104e+01 4.285617e+01 2.473229e+02 2.376428e+00 2.651405e+00 2.975944e+00 2.792777e+00 3.310393e+00 2.968662e+00 3.166266e+00 3.866476e+00 3.286385e+00 2.758472e+00 2.865741e+00 2.366853e+00 4.251807e+00 3.537112e-01 4.027598e-01 4.305254e-01 4.658745e-01 5.710332e-01 5.200339e-01 5.674685e-01 6.734890e-01 5.645818e-01 5.129534e-01 5.209518e-01 4.323523e-01 5.397926e-01
<GCONST> 1.319777e+02
<STATE> 4
<MEAN> 39
 -6.546112e+00 -3.558905e+00 -3.963977e-01 -5.602902e+00 -7.986349e+00 -3.041747e+00 -8.803222e+00 -2.786182e+00 -3.842008e+00 -2.935646e+00 -2.067063e+00 -4.349350e+00 5.449070e+01 -1.203175e-03 -2.019965e-03 1.297127e-02 -6.773425e-03 -7.103648e-03 -4.672508e-03 -1.657593e-03 3.474816e-03 -2.894853e-03 -9.082165e-04 -4.096705e-03 -1.525876e-03 1.884576e-02 7.325853e-05 -6.928507e-05 -3.486667e-04 4.749889e-04 1.434290e-04 -5.743581e-05 5.731641e-05 -6.007920e-05 1.465938e-04 4.471548e-04 -1.523434e-04 -7.073597e-05 -7.262403e-04
<VARIANCE> 39
 6.609035e+01 6.163951e+01 8.252074e+01 6.317858e+01 7.515683e+01 6.367862e+01 6.854251e+01 7.325746e+01 6.299796e+01 4.492438e+01 4.881371e+01 4.233941e+01 2.512766e+02 2.328026e+00 2.607808e+00 2.933581e+00 2.737372e+00 3.241765e+00 2.915331e+00 3.115920e+00 3.776028e+00 3.222524e+00 2.718908e+00 2.825311e+00 2.323889e+00 4.113587e+00 3.455180e-01 3.951126e-01 4.233707e-01 4.572087e-01 5.578871e-01 5.110971e-01 5.580032e-01 6.580316e-01 5.525917e-01 5.062572e-01 5.132267e-01 4.242802e-01 5.190474e-01
<GCONST> 1.313723e+02
<TRANSP> 5
 0.000000e+00 1.000000e+00 0.000000e+00 0.000000e+00 0.000000e+00
 0.000000e+00 7.200506e-01 2.799494e-01 0.000000e+00 0.000000e+00
 0.000000e+00 0.000000e+00 7.200520e-01 2.799479e-01 0.000000e+00
 0.000000e+00 0.000000e+00 0.000000e+00 8.464475e-01 1.535524e-01
 0.000000e+00 0.000000e+00 0.000000e+00 0.000000e+00 0.000000e+00
<ENDHMM>
~h "z"
<BEGINHMM>
<NUMSTATES> 5
<STATE> 2
<MEAN> 39
 -7.358280e+00 -2.375081e+00 -5.832763e-01 -4.334380e+00 -7.510921e+00 -3.681884e+00 -8.870646e+00 -3.529750e+00 -3.907194e+00 -2.697484e+00 -2.379192e+00 -3.862329e+00 5.465016e+01 -1.253222e-02 -2.188749e-03 3.642011e-03 1.126182e-02 2.722460e-03 -1.110588e-02 7.456813e-03 -8.538246e-03 -1.062487e-02 -3.169616e-03 -9.466492e-03 2.345406e-03 -2.647541e-02 2.697913e-05 1.075096e-03 -6.707548e-04 -2.116186e-04 1.398714e-03 1.303132e-03 -6.704203e-05 -1.421951e-03 -2.862127e-04 -4.034743e-04 -6.422178e-04 -8.860950e-04 -2.542286e-03
<VARIANCE> 39
 7.224809e+01 6.595167e+01 7.055156e+01 6.061501e+01 7.553467e+01 6.607498e+01 6.344410e+01 7.086771e+01 5.833337e+01 4.131172e+01 4.398352e+01 3.951482e+01 2.314873e+02 2.526706e+00 2.736443e+00 2.413327e+00 2.687027e+00 3.212593e+00 2.945937e+00 2.951007e+00 3.551242e+00 3.012063e+00 2.449644e+00 2.633143e+00 2.244818e+00 3.696863e+00 3.613537e-01 3.957155e-01 3.634817e-01 4.409830e-01 5.309550e-01 5.074664e-01 5.257786e-01 6.119001e-01 5.191460e-01 4.567165e-01 4.721853e-01 4.110086e-01 4.457596e-01
<GCONST> 1.295007e+02
<STATE> 3
<MEAN> 39
 -7.404965e+00 -2.376944e+00 -5.701066e-01 -4.292730e+00 -7.492628e+00 -3.717073e+00 -8.841190e+00 -3.559543e+00 -3.947185e+00 -2.711002e+00 -2.415803e+00 -3.857048e+00 5.453780e+01 -1.247978e-02 1.839767e-03 2.111492e-03 1.075652e-02 6.937997e-03 -6.241452e-03 8.055252e-03 -1.209731e-02 -1.110305e-02 -4.181270e-03 -1.198195e-02 7.481527e-05 -3.591326e-02 1.332362e-05 1.284543e-03 -4.189085e-04 -2.354106e-04 1.216620e-03 1.441083e-03 1.068508e-04 -6.887978e-04 3.124789e-04 -1.147873e-05 -4.327757e-04 -6.234981e-04 -2.056762e-03
<VARIANCE> 39
 7.190490e+01 6.559884e+01 7.047794e+01 6.043837e+01 7.534691e+01 6.603002e+01 6.332508e+01 7.096220e+01 5.861642e+01 4.137998e+01 4.383810e+01 3.911219e+01 2.316726e+02 2.512856e+00 2.713155e+00 2.411811e+00 2.664369e+00 3.179994e+00 2.931414e+00 2.927622e+00 3.545844e+00 3.001845e+00 2.446686e+00 2.612347e+00 2.231843e+00 3.641560e+00 3.590275e-01 3.920757e-01 3.627931e-01 4.370217e-01 5.246758e-01 5.054327e-01 5.211857e-01 6.109378e-01 5.176511e-01 4.564181e-01 4.685412e-01 4.089740e-01 4.373620e-01
<GCONST> 1.293073e+02
<STATE> 4
<MEAN> 39
 -7.601238e+00 -2.350040e+00 -5.991727e-01 -4.291011e+00 -7.319128e+00 -3.660838e+00 -8.804708e+00 -3.569266e+00 -4.027244e+00 -2.779179e+00 -2.395867e+00 -3.824883e+00 5.409016e+01 -1.214071e-02 5.492965e-03 6.477770e-04 8.788819e-03 1.020739e-02 -2.708423e-03 8.997465e-03 -9.094298e-03 -7.814077e-03 -2.889545e-03 -1.200671e-02 -1.332062e-03 -4.361161e-02 1.494911e-06 9.280388e-04 -2.699647e-04 -7.104377e-04 7.898543e-04 9.384780e-04 1.075589e-04 3.569948e-04 1.007395e-03 4.629894e-04 1.462513e-04 -2.751841e-04 -9.680555e-04
<VARIANCE> 39
 7.276282e+01 6.452152e+01 6.998912e+01 6.046436e+01 7.462202e+01 6.526672e+01 6.323492e+01 6.942182e+01 5.854528e+01 4.148373e+01 4.383348e+01 3.901934e+01 2.352093e+02 2.462017e+00 2.632526e+00 2.369343e+00 2.611856e+00 3.097956e+00 2.875824e+00 2.877201e+00 3.463853e+00 2.939963e+00 2.406867e+00 2.573410e+00 2.205631e+00 3.505863e+00 3.480920e-01 3.805329e-01 3.553044e-01 4.264496e-01 5.089754e-01 4.967186e-01 5.113028e-01 5.998504e-01 5.070615e-01 4.481606e-01 4.608088e-01 4.042938e-01 4.170459e-01
<GCONST> 1.286830e+02
<TRANSP> 5
 0.000000e+00 1.000000e+00 0.000000e+00 0.000000e+00 0.000000e+00
 0.000000e+00 7.256579e-01 2.743420e-01 0.000000e+00 0.000000e+00
 0.000000e+00 0.000000e+00 7.256602e-01 2.743398e-01 0.000000e+00
 0.000000e+00 0.000000e+00 0.000000e+00 8.528181e-01 1.471819e-01
 0.000000e+00 0.000000e+00 0.000000e+00 0.000000e+00 0.000000e+00
<ENDHMM>
~h "ai"
<BEGINHMM>
<NUMSTATES> 5
<STATE> 2
<MEAN> 39
 -5.930502e+00 -3.632475e+00 1.421606e-02 -5.759460e+00 -8.428123e+00 -3.291889e+00 -8.972898e+00 -2.766895e+00 -4.297176e+00 -2.345020e+00 -2.217312e+00 -4.757658e+00 5.537095e+01 2.959982e-03 8.930857e-03 8.176524e-03 3.051003e-03 4.036701e-05 -7.609489e-04 6.078614e-04 -1.372840e-03 -1.224085e-02 4.086831e-03 -2.655689e-03 1.607086e-04 -3.914797e-03 -7.508756e-04 -2.314519e-04 -6.589208e-04 1.894197e-06 3.778310e-04 1.967530e-04 3.673857e-04 -8.938623e-05 1.141904e-03 -2.836372e-04 -4.582820e-04 9.340019e-05 1.855337e-05
<VARIANCE> 39
 6.818279e+01 6.491739e+01 7.814606e+01 6.734765e+01 7.659610e+01 6.541515e+01 6.604167e+01 7.495264e+01 6.353280e+01 4.485312e+01 4.815123e+01 4.277676e+01 2.305924e+02 2.586656e+00 2.846481e+00 2.815910e+00 3.034913e+00 3.331726e+00 3.101847e+00 3.199234e+00 3.944966e+00 3.506452e+00 2.731677e+00 2.932541e+00 2.462419e+00 4.531956e+00 3.762492e-01 4.188374e-01 4.147304e-01 5.038289e-01 5.615231e-01 5.276608e-01 5.747927e-01 6.728375e-01 5.997142e-01 5.065619e-01 5.322609e-01 4.488896e-01 5.742833e-01
<GCONST> 1.326963e+02
<STATE> 3
<MEAN> 39
 -5.924070e+00 -3.603815e+00 4.361105e-02 -5.748471e+00 -8.429142e+00 -3.296056e+00 -8.969567e+00 -2.771080e+00 -4.334192e+00 -2.329941e+00 -2.227817e+00 -4.755566e+00 5.535958e+01 5.291833e-04 7.905540e-03 5.903499e-03 3.084366e-03 1.034592e-03 -1.588703e-04 1.815495e-03 -1.596509e-03 -8.493287e-03 3.012163e-03 -4.060720e-03 6.714255e-04 -3.818003e-03 -6.363911e-04 -4.931212e-04 -5.928445e-04 -1.779376e-04 1.659321e-05 9.835033e-05 2.460845e-04 -9.658500e-05 1.161877e-03 -5.181236e-04 -2.705507e-04 -1.514035e-05 2.070212e-04
<VARIANCE> 39
 6.804303e+01 6.499526e+01 7.769775e+01 6.737183e+01 7.683060e+01 6.542442e+01 6.594675e+01 7.482648e+01 6.319592e+01 4.491605e+01 4.833339e+01 4.257578e+01 2.311998e+02 2.585353e+00 2.849813e+00 2.820777e+00 3.031860e+00 3.346450e+00 3.101627e+00 3.189800e+00 3.946988e+00 3.500608e+00 2.733069e+00 2.937817e+00 2.455958e+00 4.538313e+00 3.767012e-01 4.198633e-01 4.162832e-01 5.029843e-01 5.631925e-01 5.276434e-01 5.733782e-01 6.730206e-01 5.991974e-01 5.062878e-01 5.332473e-01 4.480904e-01 5.754974e-01
<GCONST> 1.326979e+02
<STATE> 4
<MEAN> 39
 -6.138544e+00 -3.495491e+00 9.804765e-02 -5.677454e+00 -8.244535e+00 -3.207886e+00 -8.847769e+00 -2.801955e+00 -4.361288e+00 -2.342193e+00 -2.263598e+00 -4.661622e+00 5.475996e+01 -2.060413e-03 4.730351e-03 3.936687e-03 2.963907e-03 1.237582e-03 2.705384e-04 2.181773e-03 -1.745392e-03 -4.040230e-03 1.614383e-03 -4.893669e-03 1.143022e-03 -3.777179e-03 -3.410047e-04 -5.300979e-04 -4.430652e-04 -2.078897e-04 -1.131361e-04 8.076244e-05 -3.623295e-05 -1.504688e-04 9.307892e-04 -4.807537e-04 -2.245108e-05 -1.012175e-04 1.559303e-04
<VARIANCE> 39
 6.774243e+01 6.438407e+01 7.641092e+01 6.718103e+01 7.699109e+01 6.419034e+01 6.531940e+01 7.238107e+01 6.156705e+01 4.397374e+01 4.781699e+01 4.176273e+01 2.378796e+02 2.500235e+00 2.765653e+00 2.752059e+00 2.945024e+00 3.267302e+00 3.030006e+00 3.104195e+00 3.830848e+00 3.398290e+00 2.681681e+00 2.884342e+00 2.389120e+00 4.405644e+00 3.641895e-01 4.076098e-01 4.064003e-01 4.879087e-01 5.489237e-01 5.162661e-01 5.581631e-01 6.555094e-01 5.830303e-01 4.962145e-01 5.241734e-01 4.366666e-01 5.554059e-01
<GCONST> 1.318654e+02
<TRANSP> 5
 0.000000e+00 1.000000e+00 0.000000e+00 0.000000e+00 0.000000e+00
 0.000000e+00 7.220014e-01 2.779986e-01 0.000000e+00 0.000000e+00
 0.000000e+00 0.000000e+00 7.220005e-01 2.779995e-01 0.000000e+00
 0.000000e+00 0.000000e+00 0.000000e+00 8.505139e-01 1.494861e-01
 0.000000e+00 0.000000e+00 0.000000e+00 0.000000e+00 0.000000e+00
<ENDHMM>
~h "au"
<BEGINHMM>
<NUMSTATES> 5
<STATE> 2
<MEAN> 39
 -5.978759e+00 -3.669255e+00 -2.676719e+00 -7.200319e+00 -7.392321e+00 -1.994694e+00 -8.968512e+00 -3.564306e+00 -3.701503e+00 -2.580620e+00 -2.541074e+00 -4.819113e+00 5.396309e+01 1.717891e-02 -6.728702e-04 -5.659179e-03 -1.459390e-02 -8.967873e-03 1.315046e-02 -5.898086e-03 -6.680213e-03 8.106244e-03 4.259568e-03 2.198098e-03 -1.393732e-02 3.752863e-02 -2.023559e-04 -1.089593e-05 8.250212e-04 4.940380e-04 -2.405722e-04 7.519858e-04 2.586106e-05 -2.742524e-04 2.099217e-05 -1.602891e-05 -1.100208e-04 -7.022201e-04 8.290453e-04
<VARIANCE> 39
 6.534932e+01 6.221162e+01 7.496883e+01 8.288681e+01 6.770222e+01 7.127959e+01 6.244308e+01 6.615258e+01 6.217113e+01 4.414133e+01 4.865549e+01 4.480437e+01 2.407365e+02 2.238188e+00 2.705276e+00 2.551455e+00 3.139054e+00 3.107007e+00 3.223415e+00 3.062543e+00 3.472697e+00 3.220845e+00 2.736541e+00 2.836929e+00 2.499729e+00 5.100811e+00 3.472240e-01 4.141216e-01 4.014134e-01 5.060607e-01 5.562429e-01 5.546436e-01 5.600868e-01 6.148111e-01 5.706480e-01 5.085936e-01 5.219201e-01 4.566163e-01 6.605172e-01
<GCONST> 1.320712e+02
<STATE> 3
<MEAN> 39
 -5.918343e+00 -3.674481e+00 -2.694653e+00 -7.249066e+00 -7.427375e+00 -1.948212e+00 -8.991226e+00 -3.589542e+00 -3.678697e+00 -2.565043e+00 -2.535580e+00 -4.868899e+00 5.410375e+01 1.621312e-02 -1.131537e-03 -3.538185e-03 -1.290434e-02 -9.260497e-03 1.585141e-02 -5.862458e-03 -7.542229e-03 8.465523e-03 4.242403e-03 1.615944e-03 -1.559795e-02 4.051246e-02 -3.408740e-04 -6.962667e-05 4.733113e-04 4.794128e-04 -3.844412e-05 7.136030e-04 -4.062128e-05 -2.311714e-04 1.373855e-04 1.527131e-04 -6.981206e-05 -3.905647e-04 8.534497e-04
<VARIANCE> 39
 6.527278e+01 6.229825e+01 7.507972e+01 8.358038e+01 6.773352e+01 7.176951e+01 6.235779e+01 6.622629e+01 6.234748e+01 4.422470e+01 4.888317e+01 4.485394e+01 2.408367e+02 2.238531e+00 2.709287e+00 2.552055e+00 3.146272e+00 3.118264e+00 3.228019e+00 3.061778e+00 3.459061e+00 3.220792e+00 2.735665e+00 2.844558e+00 2.502470e+00 5.131179e+00 3.472979e-01 4.149248e-01 4.010333e-01 5.066981e-01 5.583432e-01 5.546376e-01 5.593939e-01 6.112747e-01 5.706066e-01 5.086187e-01 5.233197e-01 4.568573e-01 6.629108e-01
<GCONST> 1.321196e+02
<STATE> 4
<MEAN> 39
 -5.904245e+00 -3.672072e+00 -2.624148e+00 -7.283118e+00 -7.461641e+00 -1.843355e+00 -9.063492e+00 -3.639022e+00 -3.697968e+00 -2.550323e+00 -2.529032e+00 -4.947564e+00 5.405754e+01 1.398256e-02 -1.743543e-03 -2.944096e-03 -1.113808e-02 -8.828988e-03 1.705346e-02 -6.134625e-03 -7.955580e-03 8.138112e-03 4.641700e-03 3.582118e-04 -1.474777e-02 4.302471e-02 -3.676483e-04 4.172643e-05 1.437759e-04 2.930175e-04 1.674031e-04 5.403850e-04 -7.652933e-06 -1.202987e-04 2.379941e-04 2.035636e-04 -1.248482e-05 4.890379e-05 6.381305e-04
<VARIANCE> 39
 6.563210e+01 6.216746e+01 7.547747e+01 8.427233e+01 6.792493e+01 7.163606e+01 6.215881e+01 6.514388e+01 6.251170e+01 4.379949e+01 4.864513e+01 4.473903e+01 2.428238e+02 2.198636e+00 2.677506e+00 2.527664e+00 3.092409e+00 3.104019e+00 3.173337e+00 3.020225e+00 3.383606e+00 3.177135e+00 2.700383e+00 2.816542e+00 2.478536e+00 5.046370e+00 3.401305e-01 4.100377e-01 3.958391e-01 4.962243e-01 5.550896e-01 5.427800e-01 5.507005e-01 5.979303e-01 5.619341e-01 5.021421e-01 5.179130e-01 4.515950e-01 6.471047e-01
<GCONST> 1.317286e+02
<TRANSP> 5
 0.000000e+00 1.000000e+00 0.000000e+00 0.000000e+00 0.000000e+00
 0.000000e+00 7.205630e-01 2.794370e-01 0.000000e+00 0.000000e+00
 0.000000e+00 0.000000e+00 7.205656e-01 2.794344e-01 0.000000e+00
 0.000000e+00 0.000000e+00 0.000000e+00 8.463272e-01 1.536728e-01
 0.000000e+00 0.000000e+00 0.000000e+00 0.000000e+00 0.000000e+00
<ENDHMM>
~h "kh"
<BEGINHMM>
<NUMSTATES> 5
<STATE> 2
<MEAN> 39
 -7.359995e+00 -3.819213e+00 -1.235903e+00 -6.055471e+00 -7.398978e+00 -2.396542e+00 -9.129132e+00 -3.207250e+00 -3.797127e+00 -2.178265e+00 -2.188368e+00 -4.372458e+00 5.469839e+01 -1.300361e-02 6.206672e-03 -7.726002e-03 -1.461461e-02 1.169687e-02 6.822404e-03 2.968402e-03 5.040624e-03 5.774648e-04 6.605024e-03 3.174539e-03 2.991453e-03 4.102380e-03 1.992484e-04 -1.216716e-03 -1.523578e-03 -5.919362e-04 1.214224e-03 5.726732e-04 3.742570e-04 4.843394e-04 -3.826803e-04 -1.768556e-04 -1.246617e-03 -1.044973e-04 -5.558828e-04
<VARIANCE> 39
 7.584936e+01 6.420963e+01 8.002158e+01 6.283436e+01 7.820313e+01 6.087619e+01 6.790985e+01 6.459288e+01 6.185007e+01 4.009873e+01 4.346031e+01 3.991500e+01 2.157199e+02 2.935575e+00 2.725750e+00 2.817951e+00 2.880136e+00 3.486621e+00 3.050641e+00 3.390505e+00 3.575640e+00 3.309530e+00 2.787953e+00 2.760425e+00 2.313046e+00 4.603251e+00 4.167098e-01 4.298519e-01 4.292674e-01 4.856086e-01 5.891723e-01 5.286330e-01 5.969290e-01 6.164677e-01 5.968986e-01 5.295427e-01 4.963092e-01 4.206288e-01 5.936384e-01
<GCONST> 1.321360e+02
<STATE> 3
<MEAN> 39
 -7.408526e+00 -3.800613e+00 -1.262341e+00 -6.107721e+00 -7.355126e+00 -2.373718e+00 -9.110211e+00 -3.185939e+00 -3.797407e+00 -2.159145e+00 -2.182182e+00 -4.360349e+00 5.471378e+01 -1.189722e-02 2.587966e-03 -1.168869e-02 -1.576307e-02 1.561401e-02 8.175747e-03 3.494819e-03 7.100881e-03 -3.100163e-04 5.621968e-03 -5.460803e-04 2.728685e-03 2.332407e-03 6.008038e-04 -1.219685e-03 -1.118789e-03 -1.987093e-04 9.974301e-04 2.699530e-04 6.743524e-06 5.868111e-04 -6.056467e-05 -3.512063e-04 -1.066629e-03 -1.960095e-04 -2.944656e-04
<VARIANCE> 39
 7.660731e+01 6.420779e+01 8.082030e+01 6.289370e+01 7.858092e+01 6.080851e+01 6.786042e+01 6.465111e+01 6.212348e+01 4.028876e+01 4.356350e+01 3.976477e+01 2.149299e+02 2.950175e+00 2.732019e+00 2.836034e+00 2.868854e+00 3.482451e+00 3.054830e+00 3.398840e+00 3.570550e+00 3.309856e+00 2.790049e+00 2.764326e+00 2.309743e+00 4.590757e+00 4.177174e-01 4.317878e-01 4.316831e-01 4.837359e-01 5.862595e-01 5.284818e-01 5.972912e-01 6.168084e-01 5.969037e-01 5.289009e-01 4.974851e-01 4.196896e-01 5.897688e-01
<GCONST> 1.321708e+02
<STATE> 4
<MEAN> 39
 -7.554495e+00 -3.735219e+00 -1.257255e+00 -6.187209e+00 -7.145218e+00 -2.347118e+00 -9.061052e+00 -3.120391e+00 -3.791026e+00 -2.164516e+00 -2.240959e+00 -4.281433e+00 5.435443e+01 -7.552748e-03 -9.105161e-04 -1.135605e-02 -1.245815e-02 1.734843e-02 6.453143e-03 5.389781e-03 9.500401e-03 -6.991278e-05 3.526905e-03 -2.030591e-03 3.909443e-03 2.875451e-03 1.133127e-03 -9.312087e-04 -4.031544e-04 3.712257e-04 5.974072e-04 -1.462646e-04 -8.524566e-05 5.170166e-04 2.069636e-04 -3.078201e-04 -4.720567e-04 -1.275563e-04 1.028530e-04
<VARIANCE> 39
 7.782561e+01 6.373689e+01 8.181087e+01 6.290867e+01 7.825842e+01 5.966339e+01 6.698100e+01 6.301374e+01 6.153069e+01 4.002902e+01 4.311330e+01 3.863710e+01 2.160533e+02 2.913063e+00 2.684954e+00 2.817969e+00 2.810160e+00 3.393462e+00 2.977154e+00 3.326334e+00 3.473920e+00 3.251638e+00 2.752883e+00 2.703815e+00 2.263011e+00 4.488891e+00 4.098074e-01 4.255138e-01 4.293776e-01 4.733438e-01 5.692525e-01 5.137504e-01 5.828204e-01 6.032080e-01 5.832621e-01 5.187116e-01 4.877301e-01 4.137672e-01 5.715575e-01
<GCONST> 1.315526e+02
<TRANSP> 5
 0.000000e+00 1.000000e+00 0.000000e+00 0.000000e+00 0.000000e+00
 0.000000e+00 7.247773e-01 2.752227e-01 0.000000e+00 0.000000e+00
 0.000000e+00 0.000000e+00 7.247770e-01 2.752229e-01 0.000000e+00
 0.000000e+00 0.000000e+00 0.000000e+00 8.523099e-01 1.476901e-01
 0.000000e+00 0.000000e+00 0.000000e+00 0.000000e+00 0.000000e+00
<ENDHMM>
~h "ng"
<BEGINHMM>
<NUMSTATES> 5
<STATE> 2
<MEAN> 39
 -5.193988e+00 -3.402413e+00 -9.316466e-01 -5.784264e+00 -8.261790e+00 -2.301188e+00 -8.992366e+00 -3.856121e+00 -4.169396e+00 -2.684061e+00 -2.645127e+00 -5.038699e+00 5.568518e+01 5.077960e-03 -2.687877e-04 5.864331e-03 -2.210258e-03 -6.147701e-03 1.223955e-03 -2.163459e-03 -1.867708e-03 -4.201623e-03 1.025137e-03 -3.008897e-03 -3.151739e-03 1.055951e-02 -3.370404e-04 -1.464756e-04 -1.868192e-04 -9.382433e-05 -2.202081e-04 -2.433946e-04 -3.568025e-04 8.552631e-05 -9.769868e-05 9.339519e-05 3.641097e-04 -1.233111e-04 -6.841405e-05
<VARIANCE> 39
