~o
<STREAMINFO> 1 39
<VECSIZE> 39<NULLD><MFCC_D_A_0><DIAGC>
~h "@"
<BEGINHMM>
<NUMSTATES> 5
<STATE> 2
<MEAN> 39
 -3.966763e+00 -1.002158e+01 4.181040e+00 -7.052011e+00 -1.861061e+01 -9.375449e+00 -8.602246e+00 3.723239e+00 -5.081070e+00 -2.595798e+00 5.858255e-01 -5.536427e+00 6.681382e+01 -4.023788e-02 -2.647026e-01 3.575209e-01 -2.823502e-01 -7.524030e-01 -1.434315e-01 5.384554e-01 4.897374e-01 -2.041128e-01 2.514146e-03 3.006141e-01 -5.335395e-02 4.471699e-01 -5.390321e-02 2.417746e-01 -1.187256e-01 9.820723e-02 3.339635e-01 1.117297e-01 -9.361040e-03 -2.913031e-01 2.644396e-02 4.385128e-02 -1.120254e-01 -1.083994e-02 -3.265447e-01
<VARIANCE> 39
 2.643256e+01 5.441123e+01 6.871574e+01 4.413864e+01 7.733772e+01 5.741940e+01 6.508109e+01 9.051945e+01 6.265625e+01 5.126596e+01 5.856327e+01 3.642060e+01 1.458585e+02 1.444224e+00 2.658597e+00 2.171196e+00 2.065552e+00 4.085825e+00 2.373514e+00 3.151066e+00 4.244219e+00 3.003966e+00 2.575369e+00 2.585449e+00 1.789768e+00 5.315040e+00 3.062837e-01 4.464577e-01 3.199412e-01 3.530715e-01 6.544871e-01 4.517234e-01 5.849057e-01 7.549793e-01 5.529729e-01 4.660645e-01 4.661941e-01 3.363763e-01 7.803881e-01
<GCONST> 1.280649e+02
<STATE> 3
<MEAN> 39
 -4.010262e+00 -9.823124e+00 4.641150e+00 -7.245983e+00 -1.914946e+01 -9.529784e+00 -7.538570e+00 3.809659e+00 -5.428698e+00 -2.486052e+00 7.714173e-01 -5.769982e+00 6.678708e+01 -4.633901e-03 1.867961e-01 5.796342e-02 4.286757e-02 2.173676e-02 -4.391009e-03 2.487728e-01 -9.218203e-02 -7.650561e-02 1.826826e-02 -3.708786e-02 -5.123929e-02 -2.473872e-01 3.014906e-03 1.475078e-01 -1.039447e-01 1.102384e-01 2.584185e-01 4.882852e-02 -9.740764e-02 -1.871200e-01 4.459173e-02 9.276950e-03 -1.053495e-01 1.056441e-02 -2.396974e-01
<VARIANCE> 39
 2.450211e+01 5.096040e+01 6.587444e+01 4.414844e+01 7.365386e+01 5.710527e+01 6.335001e+01 8.739648e+01 6.162744e+01 5.203095e+01 5.845987e+01 3.565408e+01 1.355765e+02 1.062613e+00 2.175526e+00 1.718519e+00 1.836655e+00 2.990475e+00 1.979488e+00 2.651566e+00 3.202097e+00 2.487605e+00 2.101521e+00 2.164005e+00 1.517090e+00 5.054398e+00 1.980119e-01 3.537837e-01 2.658307e-01 3.102025e-01 5.208673e-01 3.676789e-01 4.839509e-01 5.875624e-01 4.544353e-01 4.025095e-01 3.836637e-01 2.795248e-01 5.656854e-01
<GCONST> 1.221726e+02
<STATE> 4
<MEAN> 39
 -5.795800e+00 -6.835207e+00 4.012827e+00 -5.909100e+00 -1.637004e+01 -8.433545e+00 -6.721844e+00 7.557096e-01 -5.767807e+00 -2.559822e+00 2.632549e-02 -5.028870e+00 5.867986e+01 -1.019152e-02 3.371071e-01 -1.801900e-01 2.291479e-01 4.629495e-01 9.250686e-02 -1.467694e-02 -2.750891e-01 4.960854e-02 3.585075e-03 -2.190172e-01 3.239263e-02 -6.472597e-01 -7.548490e-03 5.015682e-02 -4.049039e-02 3.934094e-02 1.096534e-01 3.421266e-02 -3.946768e-02 -7.074586e-02 1.593617e-02 1.397765e-02 -2.798530e-02 5.230048e-03 -5.451632e-02
<VARIANCE> 39
 3.176412e+01 5.699267e+01 6.908176e+01 4.247983e+01 8.852538e+01 5.261448e+01 5.641513e+01 7.728106e+01 5.249592e+01 4.430297e+01 5.100067e+01 3.313475e+01 2.393033e+02 9.680349e-01 1.740447e+00 1.443953e+00 1.537838e+00 2.426835e+00 1.859415e+00 2.341455e+00 2.571735e+00 2.140304e+00 1.903937e+00 1.879430e+00 1.443969e+00 3.262647e+00 1.649724e-01 2.832472e-01 2.248560e-01 2.667036e-01 4.060778e-01 3.341753e-01 4.109960e-01 4.664588e-01 3.890114e-01 3.505787e-01 3.294185e-01 2.597033e-01 3.976702e-01
<GCONST> 1.179591e+02
<TRANSP> 5
 0.000000e+00 1.000000e+00 0.000000e+00 0.000000e+00 0.000000e+00
 0.000000e+00 6.629047e-01 3.370952e-01 0.000000e+00 0.000000e+00
 0.000000e+00 0.000000e+00 6.631580e-01 3.368420e-01 0.000000e+00
 0.000000e+00 0.000000e+00 0.000000e+00 8.808877e-01 1.191123e-01
 0.000000e+00 0.000000e+00 0.000000e+00 0.000000e+00 0.000000e+00
<ENDHMM>
~h "a"
<BEGINHMM>
<NUMSTATES> 5
<STATE> 2
<MEAN> 39
 -2.196617e+00 -1.195843e+01 -6.219396e+00 -1.029944e+01 -6.833625e+00 -4.971149e-01 -1.022013e+01 6.855440e-01 9.524438e-01 -3.749927e+00 -5.544444e+00 -9.636316e+00 6.833750e+01 1.637789e-01 -5.456139e-01 -3.800701e-01 -4.601862e-02 4.511928e-01 3.149139e-01 2.318335e-01 2.263427e-01 2.609584e-01 -3.003712e-01 -4.671997e-01 -4.297923e-01 2.756762e-01 -8.918449e-02 3.213161e-01 1.899514e-01 1.974583e-01 -2.807320e-02 -1.386091e-01 -1.860002e-02 -2.146815e-01 -1.983262e-01 6.788996e-02 1.118109e-01 1.996662e-01 -3.837379e-01
<VARIANCE> 39
 2.843248e+01 5.417841e+01 5.495324e+01 5.312245e+01 5.905159e+01 7.441949e+01 5.914640e+01 8.269469e+01 6.335108e+01 5.451297e+01 5.395093e+01 4.783488e+01 1.297718e+02 1.697560e+00 3.276039e+00 2.492949e+00 2.715974e+00 3.151044e+00 3.553123e+00 2.956229e+00 4.043904e+00 3.307411e+00 2.907738e+00 3.210311e+00 2.935517e+00 4.530505e+00 3.350539e-01 4.736505e-01 3.782549e-01 4.620102e-01 5.520070e-01 5.647150e-01 5.553570e-01 7.105688e-01 5.809514e-01 5.278108e-01 5.812061e-01 5.148202e-01 5.940862e-01
<GCONST> 1.307009e+02
<STATE> 3
<MEAN> 39
 -1.979498e+00 -1.216772e+01 -6.547171e+00 -9.872768e+00 -5.995376e+00 -2.467321e-01 -9.876616e+00 5.244368e-01 9.733425e-01 -4.134767e+00 -6.179189e+00 -9.962910e+00 6.777470e+01 7.924507e-02 1.823375e-01 4.220505e-02 2.708382e-01 1.989359e-01 -3.386859e-02 9.047917e-02 -1.225971e-01 -8.741921e-02 -4.912124e-02 -1.658785e-01 -6.700450e-03 -4.849128e-01 -3.952285e-02 3.088397e-01 1.858065e-01 1.319119e-01 -1.126708e-01 -1.378645e-01 -5.189218e-02 -1.545150e-01 -1.474457e-01 1.091849e-01 1.303838e-01 1.726008e-01 -3.118434e-01
<VARIANCE> 39
 2.673290e+01 5.456930e+01 5.250060e+01 5.093348e+01 5.396382e+01 6.883210e+01 5.856824e+01 7.913731e+01 6.243385e+01 5.415112e+01 5.144424e+01 4.728931e+01 1.327769e+02 1.288672e+00 2.967833e+00 2.113476e+00 2.376296e+00 2.723168e+00 3.176183e+00 2.654757e+00 3.610845e+00 2.798369e+00 2.685722e+00 2.772099e+00 2.488227e+00 4.459422e+00 2.380898e-01 4.523334e-01 3.361065e-01 4.147260e-01 4.684753e-01 4.941234e-01 5.030519e-01 6.501611e-01 5.250684e-01 4.957479e-01 5.222066e-01 4.549765e-01 5.056074e-01
<GCONST> 1.268980e+02
<STATE> 4
<MEAN> 39
 -3.189836e+00 -1.014301e+01 -6.189474e+00 -8.077949e+00 -4.905687e+00 -7.747245e-01 -9.180279e+00 -3.747461e-01 -5.681426e-04 -4.338440e+00 -6.259367e+00 -8.693557e+00 6.151409e+01 -2.374945e-02 6.512941e-01 3.381003e-01 3.969389e-01 -1.006827e-01 -2.607552e-01 -5.605638e-03 -2.594461e-01 -2.613786e-01 1.662222e-01 8.895666e-02 2.601568e-01 -9.552130e-01 -2.714529e-02 1.560175e-01 1.154878e-01 6.441332e-02 -7.297594e-02 -6.081253e-02 -1.948483e-02 -9.814214e-02 -7.927615e-02 6.189131e-02 7.372393e-02 8.339685e-02 -1.142493e-01
<VARIANCE> 39
 3.490553e+01 6.059290e+01 4.881277e+01 5.290550e+01 5.071490e+01 6.066111e+01 5.533746e+01 6.718557e+01 5.658414e+01 4.909220e+01 4.623772e+01 4.883814e+01 2.199598e+02 1.191351e+00 2.361812e+00 1.879424e+00 2.163064e+00 2.374945e+00 2.608142e+00 2.493187e+00 3.234405e+00 2.605464e+00 2.459225e+00 2.429185e+00 2.126171e+00 3.277632e+00 2.049531e-01 3.929785e-01 3.067235e-01 3.800544e-01 4.113508e-01 4.257225e-01 4.537259e-01 5.811305e-01 4.713497e-01 4.536513e-01 4.523739e-01 3.877860e-01 4.593513e-01
<GCONST> 1.237180e+02
<TRANSP> 5
 0.000000e+00 1.000000e+00 0.000000e+00 0.000000e+00 0.000000e+00
 0.000000e+00 5.577025e-01 4.422975e-01 0.000000e+00 0.000000e+00
 0.000000e+00 0.000000e+00 5.608890e-01 4.391110e-01 0.000000e+00
 0.000000e+00 0.000000e+00 0.000000e+00 7.323980e-01 2.676020e-01
 0.000000e+00 0.000000e+00 0.000000e+00 0.000000e+00 0.000000e+00
<ENDHMM>
~h "b"
<BEGINHMM>
<NUMSTATES> 5
<STATE> 2
<MEAN> 39
 1.999002e+00 1.351012e+00 1.608611e+00 -4.323054e+00 -8.062769e+00 9.623415e-01 -9.585114e+00 -8.441378e+00 -7.747963e+00 -2.343381e+00 -1.485450e+00 -6.574142e+00 5.407858e+01 3.492503e-01 5.641047e-01 6.416416e-02 7.865380e-02 3.431502e-01 1.507728e-01 1.551839e-01 -1.899316e-01 -4.726870e-02 5.463899e-02 9.036846e-02 -5.571268e-03 -3.687257e-01 -1.530425e-01 -2.657516e-01 -1.052484e-01 -1.979994e-01 -1.026832e-01 -8.087375e-02 -1.495759e-01 1.581765e-01 2.166467e-01 2.221073e-02 2.142351e-02 -1.212080e-02 4.299614e-01
<VARIANCE> 39
 4.419396e+01 6.051664e+01 4.989426e+01 5.949599e+01 5.161476e+01 6.065729e+01 6.021395e+01 6.354678e+01 7.337625e+01 4.355367e+01 5.463063e+01 3.720943e+01 1.249022e+02 2.376932e+00 5.018531e+00 3.539237e+00 4.638582e+00 3.683828e+00 3.502658e+00 4.426898e+00 4.215691e+00 5.535738e+00 3.500345e+00 4.080907e+00 2.936770e+00 8.472514e+00 3.721571e-01 7.636584e-01 5.239031e-01 7.343043e-01 6.583303e-01 6.174535e-01 8.041129e-01 7.030712e-01 8.881813e-01 6.632903e-01 7.887449e-01 5.698227e-01 1.059834e+00
<GCONST> 1.377688e+02
<STATE> 3
<MEAN> 39
 2.389609e+00 1.639986e+00 1.293059e+00 -4.954515e+00 -7.764042e+00 1.192086e+00 -9.831316e+00 -8.432292e+00 -7.070326e+00 -2.050829e+00 -1.107013e+00 -6.735103e+00 5.497232e+01 -1.126873e-01 -3.696070e-01 -2.954214e-01 -4.498299e-01 -6.295916e-02 -7.551593e-02 -3.129453e-01 3.071474e-01 6.101942e-01 1.512246e-01 1.217419e-01 -1.307375e-01 8.689612e-01 -1.768005e-01 -3.233667e-01 -7.750096e-02 -1.435495e-01 -1.623728e-01 -7.919420e-02 -1.357988e-01 1.837711e-01 1.684052e-01 -1.015322e-02 -2.519211e-02 -2.941096e-02 4.087497e-01
<VARIANCE> 39
 3.930018e+01 6.215952e+01 4.752244e+01 6.389045e+01 4.833833e+01 5.975589e+01 5.639434e+01 5.869804e+01 7.435840e+01 4.335502e+01 5.527375e+01 3.730573e+01 1.235469e+02 2.584641e+00 6.672212e+00 4.133103e+00 5.788931e+00 4.233742e+00 3.996169e+00 5.103608e+00 4.797676e+00 6.882016e+00 4.090420e+00 4.787327e+00 3.736334e+00 1.039505e+01 3.843288e-01 8.479962e-01 6.015479e-01 8.790627e-01 7.582020e-01 7.036934e-01 8.878843e-01 7.442708e-01 1.022523e+00 7.627927e-01 9.179815e-01 6.760071e-01 1.268600e+00
<GCONST> 1.414196e+02
<STATE> 4
<MEAN> 39
 1.713614e+00 7.291753e-01 6.643625e-01 -5.850172e+00 -8.131199e+00 8.919795e-01 -1.043832e+01 -7.312638e+00 -5.572342e+00 -1.914994e+00 -1.201231e+00 -7.145026e+00 5.650695e+01 -4.343900e-01 -7.765219e-01 -2.909179e-01 -4.512709e-01 -3.089135e-01 -2.656887e-01 -3.901901e-01 5.384872e-01 6.450513e-01 5.730780e-03 1.912755e-02 -6.485050e-02 1.299920e+00 -1.014654e-01 -1.333690e-01 1.799202e-02 -1.862450e-02 -1.193406e-01 -4.649561e-02 -5.010610e-02 4.942208e-02 -3.256636e-02 -5.341618e-02 1.958001e-04 4.477580e-02 1.715147e-01
<VARIANCE> 39
 4.000798e+01 7.593496e+01 5.400392e+01 7.236976e+01 5.230356e+01 6.319376e+01 5.744014e+01 6.003872e+01 7.987840e+01 4.458033e+01 5.537138e+01 4.058731e+01 1.498985e+02 2.230653e+00 5.396535e+00 3.847803e+00 5.001924e+00 4.394494e+00 3.963018e+00 4.451934e+00 4.369459e+00 5.897992e+00 3.859475e+00 4.619401e+00 3.733483e+00 8.066227e+00 3.595836e-01 8.374638e-01 5.852430e-01 8.822729e-01 7.700104e-01 7.030291e-01 8.396932e-01 7.056990e-01 9.489588e-01 7.376394e-01 8.430169e-01 6.418656e-01 1.244353e+00
<GCONST> 1.407020e+02
<TRANSP> 5
 0.000000e+00 1.000000e+00 0.000000e+00 0.000000e+00 0.000000e+00
 0.000000e+00 5.671719e-01 4.328281e-01 0.000000e+00 0.000000e+00
 0.000000e+00 0.000000e+00 5.759190e-01 4.240810e-01 0.000000e+00
 0.000000e+00 0.000000e+00 0.000000e+00 6.336452e-01 3.663548e-01
 0.000000e+00 0.000000e+00 0.000000e+00 0.000000e+00 0.000000e+00
<ENDHMM>
~h "c"
<BEGINHMM>
<NUMSTATES> 5
<STATE> 2
<MEAN> 39
 -8.762997e+00 8.328486e-01 7.366726e-01 -3.068603e+00 -7.609293e+00 -7.382287e+00 -8.422644e+00 -3.445047e+00 -4.060630e+00 -3.672355e+00 -3.336769e+00 -2.622719e+00 5.196887e+01 -1.388556e+00 8.336489e-02 -3.357265e-01 -2.784854e-01 5.227278e-01 -2.051221e-01 3.077792e-01 2.861198e-02 1.697732e-01 4.895854e-02 8.227981e-02 2.109529e-01 -2.293540e-01 -1.361265e-01 -2.318485e-01 -9.709001e-02 -1.929355e-01 -9.976095e-02 8.897353e-02 -6.479180e-02 3.815294e-02 6.939108e-02 1.013839e-02 5.402821e-02 -3.786561e-02 5.582998e-01
<VARIANCE> 39
 7.628645e+01 5.278712e+01 4.792110e+01 3.764436e+01 5.099828e+01 4.861428e+01 4.839150e+01 5.536574e+01 4.359755e+01 3.379986e+01 3.290854e+01 2.894475e+01 1.436668e+02 7.202409e+00 5.488102e+00 3.950559e+00 3.790342e+00 5.087067e+00 3.809471e+00 4.188052e+00 4.386737e+00 3.619108e+00 3.001628e+00 2.949929e+00 2.867966e+00 1.478834e+01 1.597637e+00 9.198669e-01 7.104683e-01 6.941150e-01 9.877887e-01 7.318588e-01 7.977288e-01 7.908497e-01 7.001956e-01 5.939082e-01 5.655498e-01 5.871761e-01 1.926953e+00
<GCONST> 1.393488e+02
<STATE> 3
<MEAN> 39
 -1.385652e+01 -2.744488e-01 -6.431708e-01 -5.147312e+00 -7.198063e+00 -7.548389e+00 -8.001413e+00 -3.101928e+00 -3.269062e+00 -3.451705e+00 -2.586984e+00 -1.971787e+00 5.570577e+01 -5.581459e-01 -5.870497e-01 -1.758069e-01 -5.420322e-01 -2.806481e-01 -4.134641e-02 -1.597562e-01 3.142371e-01 3.419203e-01 -1.936376e-02 1.141760e-01 3.179741e-02 1.726326e+00 5.287701e-01 -1.613618e-01 8.009730e-02 1.062316e-02 -2.059720e-01 6.630000e-02 -1.465709e-01 5.653042e-02 3.883553e-02 -2.880589e-02 -4.065884e-02 -1.269101e-01 2.526486e-01
<VARIANCE> 39
 1.033393e+02 4.560558e+01 4.435033e+01 3.952162e+01 4.835810e+01 4.556475e+01 4.435652e+01 4.606600e+01 3.736182e+01 3.039828e+01 2.899413e+01 2.460918e+01 1.533233e+02 1.604736e+01 5.290396e+00 4.668641e+00 4.094025e+00 6.036435e+00 4.274766e+00 4.773310e+00 4.929415e+00 4.009531e+00 3.121291e+00 3.104820e+00 2.948170e+00 1.348811e+01 2.852437e+00 9.599396e-01 8.920091e-01 8.040032e-01 1.132951e+00 8.709916e-01 9.139525e-01 8.783088e-01 7.469290e-01 6.193331e-01 6.011484e-01 5.894002e-01 2.028401e+00
<GCONST> 1.420462e+02
<STATE> 4
<MEAN> 39
 -1.296593e+01 -2.535057e+00 -5.215502e-01 -6.403495e+00 -8.966784e+00 -7.456356e+00 -9.015474e+00 -2.003372e+00 -1.935699e+00 -3.583461e+00 -2.432412e+00 -2.501559e+00 6.156994e+01 1.488173e+00 -9.999971e-01 8.586246e-02 -3.394221e-01 -7.019278e-01 2.384481e-01 -5.943015e-01 3.101116e-01 3.316640e-01 -1.066885e-01 -3.455364e-02 -5.255979e-01 1.758531e+00 2.291955e-01 -4.500835e-02 -7.331541e-02 -5.957588e-03 6.476021e-02 1.724718e-01 2.150692e-03 -1.085789e-01 -7.328733e-02 3.172720e-02 3.098750e-02 -1.312221e-01 -2.242357e-01
<VARIANCE> 39
 1.137419e+02 5.518587e+01 4.941573e+01 3.999123e+01 5.328289e+01 4.571947e+01 5.193353e+01 5.713834e+01 4.205317e+01 3.044159e+01 3.136429e+01 2.754829e+01 1.610055e+02 1.476290e+01 5.313694e+00 5.007831e+00 3.889577e+00 5.492789e+00 4.742638e+00 5.045191e+00 5.404544e+00 4.260780e+00 3.137560e+00 3.217637e+00 3.134387e+00 8.655093e+00 2.809997e+00 8.601927e-01 8.449627e-01 7.271336e-01 1.067124e+00 8.832989e-01 9.585876e-01 9.004220e-01 7.193363e-01 5.649223e-01 5.810079e-01 5.290194e-01 1.351607e+00
<GCONST> 1.421720e+02
<TRANSP> 5
 0.000000e+00 1.000000e+00 0.000000e+00 0.000000e+00 0.000000e+00
 0.000000e+00 7.239622e-01 2.760378e-01 0.000000e+00 0.000000e+00
 0.000000e+00 0.000000e+00 7.623538e-01 2.376462e-01 0.000000e+00
 0.000000e+00 0.000000e+00 0.000000e+00 8.063866e-01 1.936134e-01
 0.000000e+00 0.000000e+00 0.000000e+00 0.000000e+00 0.000000e+00
<ENDHMM>
~h "d"
<BEGINHMM>
<NUMSTATES> 5
<STATE> 2
<MEAN> 39
 -2.756565e-01 -1.605312e+00 4.755623e+00 -1.211116e+00 -1.076697e+01 -5.495491e+00 -1.233357e+01 -3.431686e+00 -2.967493e+00 -3.657952e+00 -5.080731e+00 -5.540188e+00 5.636586e+01 1.593697e-01 2.286347e-01 5.030075e-01 3.346536e-01 8.261567e-02 -3.625088e-01 -2.508410e-01 2.917993e-01 1.368722e-01 -1.618628e-01 -6.593847e-02 1.322055e-01 -1.079818e-01 -1.429437e-01 -2.085713e-01 -1.049061e-01 -2.455984e-01 -7.191904e-02 5.417025e-02 -1.767071e-02 5.560712e-02 -1.983553e-02 1.018813e-02 1.383556e-01 2.113999e-02 3.723722e-01
<VARIANCE> 39
 4.332169e+01 6.510909e+01 6.371346e+01 5.689260e+01 6.828104e+01 5.099598e+01 6.630440e+01 1.007300e+02 6.927279e+01 4.516208e+01 5.571526e+01 3.913529e+01 1.423784e+02 2.970686e+00 5.461965e+00 3.557978e+00 5.018387e+00 5.703948e+00 3.364379e+00 4.534340e+00 6.687317e+00 4.779102e+00 3.500362e+00 4.593514e+00 3.195462e+00 9.992365e+00 5.124548e-01 8.748463e-01 4.988472e-01 7.754444e-01 1.123366e+00 6.254278e-01 8.486488e-01 1.173677e+00 8.613332e-01 6.769544e-01 8.648334e-01 6.311109e-01 1.408343e+00
<GCONST> 1.424027e+02
<STATE> 3
<MEAN> 39
 -3.930790e-01 -2.002685e+00 5.604558e+00 -1.421418e+00 -1.104964e+01 -6.265807e+00 -1.311243e+01 -2.315332e+00 -2.649935e+00 -3.998864e+00 -4.646821e+00 -5.058603e+00 5.795028e+01 -2.987838e-01 -5.296423e-01 1.871710e-02 -4.934272e-01 -3.770311e-01 -1.548578e-01 -2.512637e-01 5.448797e-01 7.889654e-02 -6.621467e-02 3.831231e-01 1.383642e-01 1.136569e+00 -1.017003e-01 -1.688857e-01 -1.643520e-01 -2.144629e-01 -1.325664e-01 1.193872e-01 4.363228e-02 -2.339638e-03 -3.409709e-02 4.805846e-02 9.448884e-02 -6.098603e-02 2.878102e-01
<VARIANCE> 39
 3.921967e+01 6.157837e+01 5.907323e+01 5.727140e+01 6.951929e+01 4.833100e+01 6.450464e+01 9.540578e+01 7.157352e+01 4.266372e+01 5.524812e+01 3.830062e+01 1.361818e+02 3.209627e+00 6.275314e+00 4.353988e+00 5.517859e+00 7.113249e+00 3.721189e+00 5.293722e+00 7.677409e+00 5.830172e+00 3.825528e+00 5.414063e+00 3.633878e+00 1.152750e+01 5.666455e-01 9.590877e-01 5.449363e-01 8.513439e-01 1.371710e+00 6.862245e-01 9.925224e-01 1.285060e+00 9.959477e-01 7.201805e-01 1.013504e+00 7.244914e-01 1.660619e+00
<GCONST> 1.453956e+02
<STATE> 4
<MEAN> 39
 -1.514135e+00 -3.550625e+00 5.065569e+00 -3.237886e+00 -1.230608e+01 -6.228637e+00 -1.327742e+01 -1.073908e+00 -2.553509e+00 -3.946437e+00 -3.596593e+00 -4.940451e+00 6.084142e+01 -3.854536e-01 -6.177018e-01 -2.879398e-01 -6.893763e-01 -4.229090e-01 1.814706e-01 1.273903e-03 2.678497e-01 -5.565307e-02 5.088558e-02 3.931813e-01 -1.029534e-01 1.229805e+00 1.390617e-02 5.070508e-02 -5.432551e-02 4.252890e-03 5.023210e-02 1.154824e-01 6.381387e-02 -1.615845e-01 -6.467736e-02 3.324486e-02 -3.108943e-02 -7.793150e-02 -9.154379e-02
<VARIANCE> 39
 3.601820e+01 6.637585e+01 7.353205e+01 6.353429e+01 7.430594e+01 4.908361e+01 6.516531e+01 1.024752e+02 8.294196e+01 4.227294e+01 5.982331e+01 3.766693e+01 1.552613e+02 2.577296e+00 4.536962e+00 4.109368e+00 4.273373e+00 6.562423e+00 3.585524e+00 5.119866e+00 6.477664e+00 5.485918e+00 3.486689e+00 5.038084e+00 3.380703e+00 8.228480e+00 4.629053e-01 7.731932e-01 5.011039e-01 7.303044e-01 1.250514e+00 6.212757e-01 9.291065e-01 1.118624e+00 9.170149e-01 6.319558e-01 8.918995e-01 6.211267e-01 1.362837e+00
<GCONST> 1.426468e+02
<TRANSP> 5
 0.000000e+00 1.000000e+00 0.000000e+00 0.000000e+00 0.000000e+00
 0.000000e+00 6.083466e-01 3.916534e-01 0.000000e+00 0.000000e+00
 0.000000e+00 0.000000e+00 6.251212e-01 3.748787e-01 0.000000e+00
 0.000000e+00 0.000000e+00 0.000000e+00 6.435313e-01 3.564686e-01
 0.000000e+00 0.000000e+00 0.000000e+00 0.000000e+00 0.000000e+00
<ENDHMM>
~h "e"
<BEGINHMM>
<NUMSTATES> 5
<STATE> 2
<MEAN> 39
 -1.800236e+00 -4.336051e+00 -1.937983e+00 -6.712235e+00 -9.045732e+00 -3.201942e+00 -1.365342e+01 -4.785159e+00 -2.460359e+00 -4.355634e-01 -1.769776e+00 -6.523797e+00 6.230600e+01 7.425950e-01 -4.185220e-01 1.806239e-03 -3.793138e-01 -4.569959e-01 1.991375e-01 -6.848642e-01 1.234522e-01 4.377719e-01 3.450359e-01 2.994074e-01 -4.411125e-01 9.985968e-01 -1.527204e-01 1.330179e-01 6.908277e-02 1.634215e-01 3.067731e-02 -3.660306e-03 1.956365e-01 -5.759833e-02 -1.287792e-01 -7.506648e-02 -5.831186e-02 8.579441e-02 -3.472946e-01
<VARIANCE> 39
 4.495191e+01 4.951913e+01 5.429062e+01 6.495158e+01 5.654420e+01 7.372487e+01 7.445508e+01 7.970049e+01 7.717270e+01 5.009298e+01 5.197105e+01 4.355500e+01 1.335951e+02 4.323948e+00 4.021525e+00 3.818827e+00 5.187895e+00 4.608739e+00 4.884953e+00 5.705581e+00 6.111528e+00 6.257696e+00 3.971410e+00 4.409375e+00 3.736938e+00 8.754677e+00 7.695161e-01 7.175096e-01 6.706613e-01 9.509007e-01 8.714648e-01 8.092351e-01 1.063049e+00 1.068809e+00 1.063413e+00 7.484764e-01 8.466605e-01 7.151148e-01 1.389742e+00
<GCONST> 1.444826e+02
<STATE> 3
<MEAN> 39
 -7.349614e-01 -4.866291e+00 -1.818898e+00 -7.030798e+00 -9.851444e+00 -2.915028e+00 -1.456784e+01 -4.659533e+00 -1.969152e+00 2.376177e-02 -1.331980e+00 -7.160086e+00 6.361469e+01 4.342926e-01 -1.098069e-01 1.588359e-01 2.732040e-02 -3.408743e-01 1.115134e-01 -1.947039e-01 -5.352729e-02 1.044104e-01 1.036344e-01 6.571409e-02 -1.923878e-01 2.617774e-01 -1.752454e-01 1.654553e-01 8.562545e-02 1.903255e-01 7.851124e-02 -4.053074e-02 2.512845e-01 -8.932906e-02 -1.732553e-01 -1.189288e-01 -1.201374e-01 1.348209e-01 -3.674446e-01
<VARIANCE> 39
 3.591306e+01 4.865546e+01 5.504462e+01 6.875460e+01 5.622947e+01 7.426677e+01 7.543271e+01 8.459626e+01 7.941673e+01 5.362721e+01 5.494576e+01 4.488453e+01 1.132347e+02 3.098309e+00 3.968613e+00 3.471397e+00 5.351021e+00 4.416841e+00 4.718124e+00 5.416048e+00 6.342124e+00 6.362091e+00 4.076281e+00 4.454609e+00 3.603932e+00 8.116777e+00 5.886585e-01 6.866497e-01 6.373037e-01 9.821913e-01 8.482602e-01 7.979838e-01 1.006971e+00 1.145171e+00 1.095911e+00 7.661651e-01 8.550661e-01 7.044176e-01 1.151710e+00
<GCONST> 1.433441e+02
<STATE> 4
<MEAN> 39
 -3.818828e-01 -4.602575e+00 -1.330417e+00 -6.583342e+00 -1.034391e+01 -2.966923e+00 -1.456344e+01 -4.870537e+00 -2.020154e+00 1.274827e-02 -1.503610e+00 -7.318191e+00 6.284613e+01 1.150410e-01 1.713093e-01 2.717699e-01 3.019584e-01 -1.403305e-01 3.889649e-02 2.483442e-01 -2.121277e-01 -2.005011e-01 -1.156110e-01 -1.514428e-01 7.323716e-02 -3.742459e-01 -1.387620e-01 6.549025e-02 2.425253e-02 5.788905e-02 7.111915e-02 -1.596968e-02 1.386100e-01 -2.701165e-02 -9.964046e-02 -7.697614e-02 -6.010761e-02 9.023160e-02 -1.307638e-01
<VARIANCE> 39
 3.330752e+01 4.900248e+01 5.682581e+01 6.860400e+01 5.687548e+01 7.281441e+01 7.610456e+01 8.353201e+01 8.031882e+01 5.444263e+01 5.368609e+01 4.454145e+01 1.165814e+02 2.168446e+00 3.233714e+00 2.964826e+00 4.446220e+00 3.723542e+00 3.902603e+00 4.357006e+00 5.406926e+00 5.182922e+00 3.547038e+00 3.816029e+00 3.066841e+00 5.672493e+00 4.019793e-01 5.618387e-01 5.289151e-01 8.144717e-01 7.151006e-01 6.730851e-01 7.994093e-01 1.002854e+00 9.113679e-01 6.643228e-01 7.272713e-01 5.892388e-01 8.833972e-01
<GCONST> 1.380645e+02
<TRANSP> 5
 0.000000e+00 1.000000e+00 0.000000e+00 0.000000e+00 0.000000e+00
 0.000000e+00 4.788603e-01 5.211396e-01 0.000000e+00 0.000000e+00
 0.000000e+00 0.000000e+00 4.961305e-01 5.038695e-01 0.000000e+00
 0.000000e+00 0.000000e+00 0.000000e+00 5.475344e-01 4.524656e-01
 0.000000e+00 0.000000e+00 0.000000e+00 0.000000e+00 0.000000e+00
<ENDHMM>
~h "f"
<BEGINHMM>
<NUMSTATES> 5
<STATE> 2
<MEAN> 39
 -1.131406e+01 -3.501899e+00 -2.522463e+00 -2.679341e+00 -6.015152e+00 -3.732936e+00 -8.193156e+00 -3.443566e+00 -3.568167e+00 -1.745741e+00 -1.829094e+00 -2.836378e+00 5.819088e+01 -1.865162e+00 -4.152159e-02 -4.379923e-01 5.539933e-01 6.269771e-01 -2.971621e-01 2.261861e-01 1.069259e-01 4.075327e-01 -1.377546e-03 -5.583185e-02 3.333234e-01 -5.682848e-01 1.049944e-01 -1.844721e-01 2.760865e-02 -1.874022e-01 -2.522491e-01 4.748288e-02 -1.110815e-01 -2.871487e-02 -5.145084e-02 5.337569e-03 3.905665e-02 -8.551347e-02 1.614051e-01
<VARIANCE> 39
 8.442780e+01 3.140324e+01 4.645619e+01 4.482025e+01 4.357944e+01 5.400679e+01 3.511682e+01 3.659411e+01 3.456282e+01 2.634656e+01 2.931295e+01 2.545370e+01 8.444334e+01 6.395322e+00 3.619519e+00 3.193852e+00 4.176406e+00 5.163624e+00 3.986068e+00 3.354233e+00 3.476875e+00 3.526693e+00 2.808677e+00 2.792178e+00 2.315828e+00 3.061111e+00 1.127877e+00 5.761831e-01 4.579349e-01 6.656044e-01 8.014627e-01 6.666541e-01 6.088681e-01 5.870508e-01 6.449929e-01 5.074869e-01 4.953890e-01 4.045301e-01 3.309589e-01
<GCONST> 1.293757e+02
<STATE> 3
<MEAN> 39
 -1.530409e+01 -4.608841e+00 -3.689527e+00 -2.275995e+00 -5.665685e+00 -4.303549e+00 -8.098712e+00 -3.323198e+00 -2.876969e+00 -1.698194e+00 -1.775964e+00 -2.386864e+00 5.738752e+01 -3.431067e-01 -3.658949e-01 -2.493301e-01 -1.464470e-01 -1.452607e-01 -6.298200e-02 -6.268947e-02 2.581497e-02 7.691981e-02 -1.744939e-02 6.384798e-02 -3.309591e-02 4.107064e-02 5.373259e-01 -4.475927e-02 9.442981e-02 -2.065896e-01 -2.169926e-01 9.330490e-02 -7.641641e-02 -1.423378e-02 -1.089690e-01 -5.919092e-03 4.106514e-02 -1.191030e-01 2.043838e-01
<VARIANCE> 39
 7.069491e+01 2.941138e+01 3.929712e+01 3.775289e+01 3.363286e+01 4.318412e+01 3.105872e+01 2.944224e+01 2.810623e+01 2.403475e+01 2.405526e+01 2.200335e+01 7.233316e+01 1.002855e+01 2.817124e+00 3.112134e+00 3.900823e+00 3.807948e+00 3.801948e+00 2.809333e+00 2.894012e+00 3.049274e+00 2.529055e+00 2.369053e+00 2.325025e+00 3.254781e+00 1.108883e+00 5.344706e-01 4.762112e-01 6.501473e-01 7.096630e-01 6.547872e-01 5.596518e-01 5.454522e-01 5.945407e-01 5.062945e-01 4.655168e-01 4.089552e-01 3.472488e-01
<GCONST> 1.257560e+02
<STATE> 4
<MEAN> 39
 -1.462467e+01 -5.733691e+00 -4.675594e+00 -3.211370e+00 -6.119516e+00 -4.245409e+00 -8.080025e+00 -3.337772e+00 -3.059979e+00 -1.961692e+00 -1.590055e+00 -2.674595e+00 5.490387e+01 1.198971e+00 -1.099288e-01 1.763283e-01 -4.595598e-01 -4.844366e-01 1.685621e-01 -1.367361e-01 -1.725302e-02 -1.701824e-01 -8.377308e-02 1.220445e-01 -2.799931e-01 4.515858e-01 2.666024e-01 3.131132e-02 1.010277e-01 -1.090009e-01 -1.266964e-01 7.126450e-02 -4.597422e-02 -8.093215e-03 -5.110386e-02 -1.889817e-02 3.717112e-02 -5.769456e-02 1.440410e-01
<VARIANCE> 39
 8.084499e+01 3.340229e+01 4.492856e+01 4.244464e+01 3.705043e+01 4.476224e+01 3.060847e+01 2.979039e+01 2.945825e+01 2.563589e+01 2.384549e+01 2.313947e+01 1.200480e+02 7.754855e+00 2.677018e+00 3.194627e+00 3.590223e+00 3.513423e+00 3.534684e+00 2.661092e+00 2.906160e+00 3.101750e+00 2.578668e+00 2.331959e+00 2.303291e+00 3.300774e+00 1.129499e+00 4.484304e-01 4.397307e-01 5.847591e-01 5.971590e-01 5.987974e-01 4.991343e-01 5.132897e-01 5.597245e-01 4.738280e-01 4.318808e-01 3.941988e-01 3.571092e-01
<GCONST> 1.255246e+02
<TRANSP> 5
 0.000000e+00 1.000000e+00 0.000000e+00 0.000000e+00 0.000000e+00
 0.000000e+00 6.798707e-01 3.201292e-01 0.000000e+00 0.000000e+00
 0.000000e+00 0.000000e+00 6.825546e-01 3.174454e-01 0.000000e+00
 0.000000e+00 0.000000e+00 0.000000e+00 8.259718e-01 1.740282e-01
 0.000000e+00 0.000000e+00 0.000000e+00 0.000000e+00 0.000000e+00
<ENDHMM>
~h "g"
<BEGINHMM>
<NUMSTATES> 5
<STATE> 2
<MEAN> 39
 -8.260501e-01 -1.467863e-01 3.736719e+00 -2.771337e+00 -1.027514e+01 -5.513718e+00 -1.109289e+01 -4.615984e+00 -6.723524e+00 -2.865269e-01 -2.931183e+00 -6.558163e+00 5.768089e+01 -1.641876e-01 1.320386e-01 1.460956e-01 3.991415e-01 1.013519e-01 -6.457462e-01 -9.220214e-02 1.610237e-01 -1.852392e-01 4.879310e-02 7.945065e-02 1.939954e-01 4.450774e-02 -7.467347e-02 -2.048793e-01 -1.506142e-01 -2.395670e-01 -7.353157e-02 1.100122e-01 -4.613421e-02 1.066505e-01 1.314596e-01 -7.699785e-02 7.007757e-02 -2.278664e-02 3.389488e-01
<VARIANCE> 39
 3.961157e+01 5.804108e+01 7.041283e+01 5.993211e+01 8.444102e+01 6.999821e+01 6.814327e+01 7.893382e+01 6.675467e+01 4.640879e+01 5.080708e+01 4.127184e+01 1.197589e+02 3.159353e+00 5.202833e+00 5.052908e+00 4.418223e+00 7.427635e+00 4.711881e+00 4.807025e+00 5.159121e+00 5.718228e+00 3.540836e+00 4.003111e+00 3.559033e+00 8.950421e+00 5.883275e-01 7.247812e-01 7.764713e-01 6.373276e-01 1.521533e+00 8.588640e-01 8.891729e-01 8.617593e-01 9.410290e-01 6.679851e-01 7.865949e-01 7.051066e-01 1.143860e+00
<GCONST> 1.435659e+02
<STATE> 3
<MEAN> 39
 -1.526947e+00 -6.847920e-01 3.484345e+00 -2.775275e+00 -1.045986e+01 -6.716433e+00 -1.163781e+01 -3.729664e+00 -6.676188e+00 -4.021241e-01 -2.411492e+00 -6.094818e+00 5.936834e+01 -2.591981e-01 -4.232838e-01 -2.148380e-01 -4.108391e-01 -3.157366e-01 -1.709363e-01 -2.304994e-01 5.194813e-01 2.672201e-01 -8.800825e-02 2.804441e-01 3.445404e-02 9.227158e-01 1.959238e-02 -1.533515e-01 -1.005275e-01 -2.623603e-01 -1.041165e-01 2.351211e-01 1.602275e-03 7.920381e-02 1.388366e-01 -5.140549e-02 1.492179e-02 -9.406198e-02 1.919902e-01
<VARIANCE> 39
 3.840326e+01 5.577132e+01 6.960242e+01 5.546568e+01 8.884464e+01 6.817707e+01 6.701270e+01 8.042689e+01 6.641668e+01 4.556275e+01 5.267677e+01 3.973738e+01 1.190245e+02 3.272067e+00 4.919632e+00 5.362554e+00 4.712897e+00 9.389576e+00 5.037850e+00 5.072159e+00 5.802860e+00 6.144410e+00 3.564089e+00 4.718279e+00 3.986839e+00 8.383242e+00 6.284649e-01 6.984642e-01 8.717135e-01 6.713433e-01 1.874705e+00 8.856822e-01 9.224045e-01 9.188028e-01 9.739347e-01 6.693271e-01 9.298888e-01 7.571889e-01 1.112440e+00
<GCONST> 1.450517e+02
<STATE> 4
<MEAN> 39
 -2.118647e+00 -1.712528e+00 2.875563e+00 -4.715028e+00 -1.163367e+01 -6.061808e+00 -1.205938e+01 -2.384069e+00 -5.744458e+00 -7.074110e-01 -1.825588e+00 -6.245925e+00 6.099568e+01 -1.596624e-01 -5.676623e-01 -3.678146e-01 -7.633220e-01 -2.824796e-01 3.993220e-01 -4.686324e-02 4.656020e-01 4.366577e-01 -1.711697e-01 1.131912e-01 -1.687951e-01 8.909613e-01 1.727003e-02 -5.188403e-02 -5.912539e-02 -5.304797e-02 8.756729e-02 1.551412e-01 4.679849e-02 -6.661907e-02 9.886465e-04 -3.583550e-02 -6.471153e-02 -2.635404e-02 -1.576888e-02
<VARIANCE> 39
 3.564611e+01 6.607724e+01 7.685155e+01 6.083498e+01 8.240540e+01 6.698940e+01 6.592396e+01 9.052003e+01 7.656972e+01 4.588772e+01 5.441929e+01 4.018574e+01 1.471499e+02 2.421291e+00 3.536795e+00 4.306962e+00 3.750096e+00 7.381617e+00 4.084682e+00 4.185465e+00 4.846075e+00 5.132385e+00 3.119549e+00 4.523140e+00 3.491473e+00 5.452147e+00 4.538490e-01 5.315419e-01 6.878426e-01 6.053948e-01 1.459071e+00 7.018508e-01 7.551051e-01 8.141416e-01 8.489419e-01 5.707703e-01 8.197072e-01 6.154706e-01 8.155442e-01
<GCONST> 1.402490e+02
<TRANSP> 5
 0.000000e+00 1.000000e+00 0.000000e+00 0.000000e+00 0.000000e+00
 0.000000e+00 5.974832e-01 4.025168e-01 0.000000e+00 0.000000e+00
 0.000000e+00 0.000000e+00 6.007457e-01 3.992542e-01 0.000000e+00
 0.000000e+00 0.000000e+00 0.000000e+00 6.215064e-01 3.784936e-01
 0.000000e+00 0.000000e+00 0.000000e+00 0.000000e+00 0.000000e+00
<ENDHMM>
~h "h"
<BEGINHMM>
<NUMSTATES> 5
<STATE> 2
<MEAN> 39
 -5.580147e+00 -6.654066e+00 -3.774729e+00 -5.672295e+00 -2.444955e+00 2.875278e-01 -6.726340e+00 -1.727435e+00 -2.583432e+00 -3.598865e+00 -4.284187e+00 -4.795294e+00 6.114897e+01 -3.246387e-01 3.400531e-02 -8.526761e-02 3.169620e-01 5.661447e-01 7.247557e-02 2.992891e-01 -3.009534e-02 6.389628e-02 -7.939216e-02 -3.952732e-02 2.167013e-01 -6.605398e-01 5.181752e-02 -1.519708e-02 2.909693e-02 -1.181108e-01 -2.180518e-01 -4.415488e-02 -1.382292e-01 -5.903869e-02 -2.921300e-02 3.219471e-02 4.563550e-02 -5.103868e-02 1.903243e-02
<VARIANCE> 39
 4.076730e+01 5.751830e+01 5.881575e+01 5.461526e+01 7.607567e+01 6.338924e+01 6.219194e+01 6.285889e+01 5.711616e+01 4.643094e+01 4.699408e+01 4.039940e+01 1.406437e+02 1.694934e+00 2.873706e+00 2.564757e+00 2.885574e+00 3.868820e+00 2.980758e+00 3.262996e+00 3.156462e+00 3.022681e+00 2.612095e+00 2.620854e+00 2.371036e+00 2.505798e+00 2.543417e-01 3.933485e-01 3.437179e-01 4.648525e-01 5.756702e-01 4.808365e-01 5.576206e-01 5.582119e-01 5.131847e-01 4.673278e-01 4.516434e-01 4.005159e-01 2.750306e-01
<GCONST> 1.267997e+02
<STATE> 3
<MEAN> 39
 -6.156383e+00 -6.668522e+00 -3.982781e+00 -5.383596e+00 -1.846307e+00 2.961460e-01 -6.508393e+00 -1.958712e+00 -2.480891e+00 -3.680595e+00 -4.225783e+00 -4.505211e+00 5.975626e+01 -1.439322e-01 7.400006e-02 -2.336680e-02 6.321443e-02 5.507549e-02 -5.028228e-02 2.853584e-02 -1.331768e-01 -3.223217e-02 -2.260675e-02 1.910467e-02 8.536081e-02 -5.766846e-01 8.415519e-02 2.068433e-02 3.363355e-02 -1.018252e-01 -2.236925e-01 -5.041487e-02 -1.217143e-01 -3.826290e-02 -4.290467e-02 2.163403e-02 2.852612e-02 -5.713408e-02 6.277306e-02
<VARIANCE> 39
 4.295951e+01 5.769492e+01 5.683290e+01 5.145425e+01 7.402347e+01 6.111485e+01 5.905725e+01 5.809403e+01 5.378749e+01 4.487608e+01 4.410602e+01 3.817302e+01 1.447348e+02 1.690640e+00 2.625317e+00 2.322565e+00 2.643106e+00 3.414311e+00 2.675442e+00 2.996723e+00 2.895672e+00 2.783550e+00 2.443593e+00 2.397067e+00 2.236886e+00 2.718459e+00 2.602558e-01 3.641557e-01 3.351711e-01 4.353885e-01 5.376117e-01 4.590216e-01 5.359622e-01 5.139973e-01 4.882810e-01 4.513110e-01 4.319029e-01 3.855140e-01 2.674107e-01
<GCONST> 1.249045e+02
<STATE> 4
<MEAN> 39
 -8.077579e+00 -6.175853e+00 -4.880142e+00 -5.376655e+00 -1.983257e+00 -6.517446e-01 -6.705513e+00 -2.864167e+00 -2.859850e+00 -4.188057e+00 -3.969840e+00 -3.813509e+00 5.229576e+01 4.723552e-02 1.621365e-01 5.152702e-02 -5.035610e-02 -2.636132e-01 -8.608904e-02 -6.689575e-02 -1.095092e-01 -7.800425e-02 1.337627e-02 2.851704e-02 -3.560505e-02 -2.921723e-01 4.951765e-02 1.357829e-02 3.229274e-02 -2.843285e-02 -8.929944e-02 -1.792818e-02 -4.664078e-02 -4.394560e-04 -1.567492e-02 8.419133e-03 1.229003e-02 -2.942082e-02 8.209731e-02
<VARIANCE> 39
 4.340184e+01 6.124843e+01 4.724310e+01 4.633851e+01 5.823616e+01 5.210720e+01 4.954574e+01 4.543837e+01 4.387022e+01 3.783858e+01 3.496566e+01 3.214451e+01 2.076252e+02 1.389700e+00 1.941507e+00 1.774454e+00 1.964316e+00 2.367822e+00 2.092808e+00 2.363346e+00 2.333510e+00 2.242106e+00 2.058031e+00 1.961669e+00 1.842936e+00 2.297135e+00 2.211870e-01 2.939238e-01 2.810614e-01 3.357231e-01 3.975839e-01 3.753138e-01 4.246151e-01 4.274781e-01 4.090068e-01 3.821150e-01 3.623980e-01 3.286541e-01 2.580468e-01
<GCONST> 1.179200e+02
<TRANSP> 5
 0.000000e+00 1.000000e+00 0.000000e+00 0.000000e+00 0.000000e+00
 0.000000e+00 5.126966e-01 4.873034e-01 0.000000e+00 0.000000e+00
 0.000000e+00 0.000000e+00 5.189604e-01 4.810396e-01 0.000000e+00
 0.000000e+00 0.000000e+00 0.000000e+00 7.893952e-01 2.106049e-01
 0.000000e+00 0.000000e+00 0.000000e+00 0.000000e+00 0.000000e+00
<ENDHMM>
~h "i"
<BEGINHMM>
<NUMSTATES> 5
<STATE> 2
<MEAN> 39
 -5.873694e+00 -9.599315e-01 1.282401e+01 -3.431415e+00 -1.758850e+01 -7.015486e+00 -1.268630e+01 -6.300318e+00 -1.114913e+01 -3.299779e+00 1.509955e+00 -4.539118e+00 6.248521e+01 1.524725e-01 1.010450e-01 1.308393e+00 -1.747296e-01 -1.201735e+00 1.054841e-01 -5.068336e-01 -2.647625e-01 -7.454334e-01 -1.876608e-02 5.413895e-01 -1.076441e-01 5.865596e-01 -3.318912e-02 2.897872e-02 -3.616184e-01 -3.002981e-02 2.794040e-01 9.149665e-02 1.175427e-01 6.460576e-02 2.492703e-01 6.018751e-02 -1.501032e-01 -1.172433e-02 -2.526659e-01
<VARIANCE> 39
 3.691076e+01 4.013175e+01 7.722462e+01 4.941081e+01 7.087298e+01 5.782074e+01 6.182333e+01 6.896075e+01 6.217111e+01 5.111067e+01 4.599184e+01 3.710689e+01 9.393254e+01 3.489498e+00 2.605168e+00 5.949874e+00 3.103612e+00 6.228798e+00 3.752279e+00 5.085606e+00 4.377402e+00 4.956899e+00 3.326682e+00 3.330468e+00 2.521806e+00 4.846076e+00 5.238865e-01 4.598991e-01 8.342785e-01 5.401342e-01 1.067292e+00 6.990095e-01 8.494133e-01 7.875676e-01 8.059073e-01 5.862831e-01 5.836049e-01 4.482143e-01 7.041544e-01
<GCONST> 1.364793e+02
<STATE> 3
<MEAN> 39
 -5.685285e+00 -4.264325e-01 1.423970e+01 -3.794508e+00 -1.907353e+01 -6.598885e+00 -1.315688e+01 -6.789931e+00 -1.183585e+01 -3.172443e+00 2.093761e+00 -4.783210e+00 6.262683e+01 1.017872e-01 1.741963e-01 -3.767987e-02 -2.688203e-02 -5.134300e-02 4.586951e-02 6.702895e-02 -2.648109e-02 7.242369e-02 4.901952e-02 -1.247417e-02 -2.310921e-02 -2.627093e-01 -2.477459e-02 1.711907e-02 -4.055544e-01 5.095065e-02 3.763742e-01 -1.031184e-02 1.623845e-01 6.496767e-02 2.393013e-01 8.826992e-03 -1.822422e-01 2.180937e-02 -2.503097e-01
<VARIANCE> 39
 2.853446e+01 3.849820e+01 7.089139e+01 4.973562e+01 6.293826e+01 6.083593e+01 5.951074e+01 6.893998e+01 5.978088e+01 5.344839e+01 4.646792e+01 3.855998e+01 9.349191e+01 2.102485e+00 2.307128e+00 4.738759e+00 2.635147e+00 5.328558e+00 3.253176e+00 4.217192e+00 3.836691e+00 4.062741e+00 2.761451e+00 2.948117e+00 2.130256e+00 4.680537e+00 3.653678e-01 4.006423e-01 6.572211e-01 4.680571e-01 9.174692e-01 6.249791e-01 7.515460e-01 6.960166e-01 7.076324e-01 5.340760e-01 5.376515e-01 4.061604e-01 5.582699e-01
<GCONST> 1.316714e+02
<STATE> 4
<MEAN> 39
 -6.519924e+00 7.677054e-01 1.137028e+01 -3.594564e+00 -1.601555e+01 -5.513591e+00 -1.135731e+01 -6.945902e+00 -1.023010e+01 -3.192542e+00 5.801226e-01 -4.427452e+00 5.637218e+01 4.294800e-02 2.146282e-02 -8.344257e-01 1.243131e-01 6.382217e-01 -3.649183e-02 3.614329e-01 1.674442e-01 4.239840e-01 1.775579e-02 -3.202710e-01 6.213316e-02 -6.825539e-01 -2.530381e-02 -4.106409e-02 -1.428413e-01 -1.278988e-03 1.460082e-01 2.805282e-02 1.949514e-02 2.104483e-02 7.022700e-02 -3.809892e-03 -6.967136e-02 -4.419017e-03 -9.139254e-04
<VARIANCE> 39
 3.295895e+01 3.906504e+01 8.975986e+01 4.560057e+01 7.743388e+01 6.023473e+01 6.397552e+01 6.337727e+01 5.688818e+01 4.366191e+01 4.396453e+01 3.517482e+01 1.684929e+02 1.625719e+00 2.022506e+00 2.988540e+00 2.090124e+00 3.585784e+00 2.685741e+00 3.131837e+00 3.283271e+00 3.065713e+00 2.385402e+00 2.478164e+00 1.880376e+00 3.291818e+00 2.504360e-01 3.284642e-01 4.302695e-01 3.676821e-01 6.294282e-01 5.010353e-01 5.495189e-01 5.726043e-01 5.288636e-01 4.317575e-01 4.461524e-01 3.395009e-01 4.574035e-01
<GCONST> 1.257375e+02
<TRANSP> 5
 0.000000e+00 1.000000e+00 0.000000e+00 0.000000e+00 0.000000e+00
 0.000000e+00 6.841159e-01 3.158841e-01 0.000000e+00 0.000000e+00
 0.000000e+00 0.000000e+00 6.792938e-01 3.207062e-01 0.000000e+00
 0.000000e+00 0.000000e+00 0.000000e+00 8.378220e-01 1.621780e-01
 0.000000e+00 0.000000e+00 0.000000e+00 0.000000e+00 0.000000e+00
<ENDHMM>
~h "j"
<BEGINHMM>
<NUMSTATES> 5
<STATE> 2
<MEAN> 39
 -4.435454e+00 3.770664e+00 7.328264e+00 -1.308336e+00 -9.412814e+00 -6.551048e+00 -9.679913e+00 -2.329113e+00 -5.723407e+00 -4.900132e+00 -2.324272e+00 -3.167284e+00 5.589526e+01 -6.145447e-01 5.391804e-01 4.735102e-01 3.924795e-02 3.459600e-01 -2.488656e-01 2.814629e-01 -7.072108e-03 4.378760e-02 -8.323021e-02 7.757670e-02 2.693551e-01 6.270329e-02 -1.060131e-01 -2.622566e-01 -1.373300e-01 -1.682316e-01 -1.027721e-01 3.418573e-02 -1.283113e-01 -2.902398e-02 2.976217e-02 5.800916e-02 6.933957e-02 -7.595185e-03 3.938586e-01
<VARIANCE> 39
 6.430006e+01 5.737865e+01 5.244490e+01 4.018428e+01 6.288340e+01 5.035464e+01 5.810571e+01 5.788344e+01 4.608811e+01 3.610672e+01 3.472417e+01 2.916603e+01 1.211145e+02 7.781713e+00 5.349446e+00 3.926291e+00 3.693791e+00 6.461971e+00 4.113764e+00 5.117347e+00 5.079093e+00 4.295441e+00 3.235888e+00 3.324348e+00 2.916855e+00 9.877105e+00 1.670365e+00 7.772900e-01 6.620579e-01 6.282271e-01 1.327241e+00 8.276017e-01 9.003801e-01 9.748588e-01 8.248523e-01 6.276169e-01 6.292103e-01 6.019371e-01 1.308796e+00
<GCONST> 1.409812e+02
<STATE> 3
<MEAN> 39
 -7.464630e+00 3.428728e+00 8.138207e+00 -2.336789e+00 -9.626217e+00 -7.428028e+00 -1.001077e+01 -2.541212e+00 -5.570051e+00 -4.758525e+00 -1.240078e+00 -2.024495e+00 5.971668e+01 -3.845516e-01 -8.572397e-01 -1.048739e-02 -4.506980e-01 -7.030690e-01 -3.309954e-01 -5.310268e-01 2.992225e-01 1.452006e-01 7.937704e-02 4.025612e-01 2.186047e-01 1.583148e+00 2.944301e-01 -2.988331e-01 -1.860553e-01 -8.682768e-02 -1.837077e-01 7.020327e-02 -1.497606e-01 1.334216e-01 8.074886e-02 3.712036e-02 -2.003151e-02 -1.506716e-01 1.377201e-01
<VARIANCE> 39
 7.613648e+01 5.594685e+01 4.741013e+01 3.844109e+01 7.248240e+01 4.875443e+01 5.322572e+01 5.292052e+01 4.048640e+01 3.100043e+01 3.194518e+01 2.789304e+01 1.145210e+02 1.137008e+01 6.084955e+00 4.466104e+00 3.779693e+00 9.594934e+00 4.552683e+00 5.528291e+00 6.531679e+00 4.715992e+00 3.023032e+00 3.595826e+00 3.292464e+00 7.961218e+00 2.276605e+00 8.031778e-01 8.386527e-01 6.742871e-01 1.950433e+00 9.655078e-01 9.952146e-01 1.187527e+00 8.752379e-01 6.049672e-01 7.313994e-01 6.765589e-01 1.241244e+00
<GCONST> 1.436636e+02
<STATE> 4
<MEAN> 39
 -7.052861e+00 -6.645023e-01 7.374468e+00 -4.004056e+00 -1.301286e+01 -8.311286e+00 -1.242316e+01 -8.585663e-01 -4.738341e+00 -4.484838e+00 -9.161866e-03 -2.000768e+00 6.487859e+01 7.078934e-01 -1.369464e+00 -7.534290e-01 -5.711696e-01 -6.462082e-01 1.735480e-01 -6.497737e-01 6.506529e-01 4.666710e-01 1.750764e-01 3.324720e-03 -5.212876e-01 1.242043e+00 1.385822e-01 7.092633e-02 -2.406396e-01 -3.337014e-02 3.208980e-01 2.772997e-01 1.184131e-01 -1.040010e-01 2.473751e-02 5.101307e-02 -1.746104e-01 -2.232955e-01 -2.838412e-01
<VARIANCE> 39
 5.496340e+01 7.167207e+01 5.364425e+01 4.790196e+01 7.207402e+01 4.653006e+01 6.181665e+01 7.608772e+01 5.208173e+01 3.517466e+01 3.655777e+01 3.140531e+01 1.111520e+02 7.475932e+00 4.516617e+00 4.872612e+00 3.263200e+00 8.174890e+00 4.597738e+00 5.298889e+00 6.552081e+00 4.747744e+00 3.031505e+00 4.248538e+00 3.722698e+00 4.487640e+00 1.525697e+00 6.781017e-01 7.297983e-01 5.961420e-01 1.679874e+00 8.645310e-01 9.710935e-01 1.130133e+00 7.793247e-01 5.605844e-01 7.236769e-01 6.186023e-01 6.574374e-01
<GCONST> 1.416567e+02
<TRANSP> 5
 0.000000e+00 1.000000e+00 0.000000e+00 0.000000e+00 0.000000e+00
 0.000000e+00 7.608798e-01 2.391203e-01 0.000000e+00 0.000000e+00
 0.000000e+00 0.000000e+00 7.589211e-01 2.410789e-01 0.000000e+00
 0.000000e+00 0.000000e+00 0.000000e+00 7.336444e-01 2.663557e-01
 0.000000e+00 0.000000e+00 0.000000e+00 0.000000e+00 0.000000e+00
<ENDHMM>
~h "k"
<BEGINHMM>
<NUMSTATES> 5
<STATE> 2
<MEAN> 39
 -6.624624e+00 -1.846479e+00 -3.042459e+00 -4.596701e+00 -6.733164e+00 -5.342859e+00 -8.538782e+00 -4.057978e+00 -4.465647e+00 -1.145764e+00 -3.543711e+00 -4.924075e+00 4.881368e+01 -6.280953e-01 -3.483794e-01 -6.476895e-01 1.224196e-01 6.529339e-01 -3.962728e-01 -3.398780e-02 2.088232e-01 1.142248e-01 1.766270e-01 -2.004327e-01 2.979177e-01 -2.968184e-01 2.722544e-02 -2.668589e-01 -1.144549e-01 -1.881468e-01 -3.570587e-02 8.951175e-02 -8.671419e-02 9.483561e-02 2.134727e-02 4.283536e-03 6.834043e-03 -5.722827e-02 6.993852e-01
<VARIANCE> 39
 4.872485e+01 5.703294e+01 6.663370e+01 4.999591e+01 6.341798e+01 5.829892e+01 5.244050e+01 5.937437e+01 5.291950e+01 4.248405e+01 4.108511e+01 3.906412e+01 1.539422e+02 3.049384e+00 5.386579e+00 4.915529e+00 3.809535e+00 5.407991e+00 4.459033e+00 4.398920e+00 4.420817e+00 4.062426e+00 3.808889e+00 3.329236e+00 3.090356e+00 1.448695e+01 5.707083e-01 8.996212e-01 8.878980e-01 6.822483e-01 1.057422e+00 8.691348e-01 8.620809e-01 8.108149e-01 7.872788e-01 7.647508e-01 6.482366e-01 6.124334e-01 1.858993e+00
<GCONST> 1.413134e+02
<STATE> 3
<MEAN> 39
 -8.100854e+00 -3.950584e+00 -5.300288e+00 -5.102274e+00 -5.228927e+00 -6.088227e+00 -8.999087e+00 -3.101330e+00 -4.074491e+00 -5.600615e-01 -4.035922e+00 -4.444463e+00 5.118396e+01 -1.962728e-01 -7.850375e-01 -6.393479e-01 -4.080935e-01 2.546052e-01 -9.350497e-02 -2.066839e-01 4.279073e-01 1.238735e-01 1.501399e-01 -1.342759e-01 -5.942646e-02 1.686299e+00 2.631886e-01 -5.127735e-03 1.855186e-01 -1.612678e-01 -2.613552e-01 1.736194e-01 -1.524485e-02 2.053497e-02 3.020489e-04 -8.879441e-02 7.364324e-02 -1.748536e-01 4.706470e-01
<VARIANCE> 39
 4.604852e+01 6.046138e+01 7.264901e+01 4.960774e+01 6.428823e+01 5.946344e+01 5.323850e+01 5.602622e+01 4.951519e+01 4.282328e+01 3.948876e+01 3.889979e+01 1.702705e+02 4.489218e+00 5.939132e+00 6.957286e+00 4.527046e+00 7.050655e+00 5.229036e+00 5.032103e+00 5.025508e+00 4.697537e+00 4.314242e+00 3.783276e+00 4.068028e+00 1.665657e+01 7.675374e-01 1.067949e+00 1.277620e+00 7.898964e-01 1.344521e+00 9.738662e-01 9.734895e-01 8.889583e-01 8.560576e-01 8.373225e-01 7.202930e-01 7.381115e-01 2.192729e+00
<GCONST> 1.460638e+02
<STATE> 4
<MEAN> 39
 -8.214001e+00 -5.049310e+00 -5.896754e+00 -6.133450e+00 -5.308096e+00 -5.567026e+00 -8.962563e+00 -2.186620e+00 -3.758835e+00 -7.106599e-01 -4.124329e+00 -4.851643e+00 5.401151e+01 4.956623e-01 -4.233908e-01 7.943270e-02 -5.608625e-01 -4.159975e-01 3.140890e-01 -1.394552e-01 2.743092e-01 5.490037e-02 -1.579448e-01 1.020318e-01 -4.143030e-01 1.927083e+00 1.953966e-01 7.321320e-02 2.072137e-01 -2.435735e-02 -1.823237e-01 1.456601e-01 7.582907e-03 -6.742597e-02 -2.361146e-03 -1.124013e-01 9.998071e-02 -9.425592e-02 -9.512407e-03
<VARIANCE> 39
 4.681513e+01 6.062930e+01 7.199078e+01 5.169800e+01 6.043989e+01 5.937280e+01 5.366237e+01 5.590923e+01 4.970729e+01 4.223134e+01 4.020027e+01 4.086580e+01 2.122286e+02 4.431913e+00 4.852296e+00 6.343537e+00 4.252852e+00 6.061411e+00 4.844763e+00 4.726182e+00 4.587384e+00 4.470411e+00 3.939621e+00 3.674036e+00 3.965797e+00 1.130165e+01 7.496315e-01 8.554333e-01 1.189001e+00 7.363363e-01 1.187677e+00 8.581501e-01 8.701081e-01 8.054182e-01 7.850488e-01 7.356133e-01 6.858253e-01 6.990690e-01 1.719570e+00
<GCONST> 1.435894e+02
<TRANSP> 5
 0.000000e+00 1.000000e+00 0.000000e+00 0.000000e+00 0.000000e+00
 0.000000e+00 6.115237e-01 3.884763e-01 0.000000e+00 0.000000e+00
 0.000000e+00 0.000000e+00 6.278354e-01 3.721646e-01 0.000000e+00
 0.000000e+00 0.000000e+00 0.000000e+00 6.623494e-01 3.376506e-01
 0.000000e+00 0.000000e+00 0.000000e+00 0.000000e+00 0.000000e+00
<ENDHMM>
~h "l"
<BEGINHMM>
<NUMSTATES> 5
<STATE> 2
<MEAN> 39
 -9.616309e-02 -7.892086e+00 -2.171696e+00 -1.155019e+01 -1.013767e+01 7.026770e-01 -1.554391e+01 -7.812030e+00 3.680519e-01 5.774276e-01 -1.261277e+00 -7.469351e+00 6.683447e+01 1.925249e-01 -3.070194e-02 1.179017e-01 -3.253720e-01 1.635250e-01 1.240279e-01 -4.770813e-01 -3.595880e-01 2.765501e-01 4.040804e-01 -2.747613e-03 -1.280362e-01 -7.490443e-02 -1.074586e-01 4.561689e-02 -1.229412e-02 6.389192e-02 -7.363561e-03 -3.946978e-02 1.641326e-01 1.706948e-01 -1.275060e-01 -1.484028e-01 -2.684668e-02 2.706056e-02 -4.239771e-02
<VARIANCE> 39
 2.919157e+01 4.481213e+01 7.114901e+01 7.689520e+01 6.629915e+01 8.657593e+01 9.502996e+01 1.181563e+02 7.831982e+01 6.503324e+01 6.063519e+01 5.111330e+01 8.323740e+01 1.236742e+00 2.039130e+00 2.801419e+00 3.766649e+00 3.815295e+00 4.396674e+00 4.554557e+00 5.658505e+00 4.159717e+00 3.939363e+00 3.719689e+00 2.693283e+00 1.768420e+00 2.108607e-01 3.160245e-01 3.919030e-01 5.705881e-01 6.635699e-01 7.014689e-01 8.102841e-01 9.703391e-01 7.066489e-01 7.045280e-01 6.774036e-01 4.639066e-01 2.231689e-01
<GCONST> 1.328936e+02
<STATE> 3
<MEAN> 39
 2.447767e-02 -7.854633e+00 -2.040073e+00 -1.206576e+01 -9.707939e+00 9.016398e-01 -1.606645e+01 -8.085837e+00 6.315924e-01 9.884840e-01 -1.426428e+00 -7.691996e+00 6.655350e+01 -7.723840e-02 -1.302747e-02 -6.349736e-03 -4.136829e-02 1.146427e-01 -5.576343e-03 7.849266e-02 2.072025e-01 -2.973061e-02 -1.076095e-01 -1.526846e-01 -5.756683e-02 -7.805930e-02 -1.059760e-01 1.272351e-02 -4.491867e-02 1.188561e-01 -3.243103e-02 -4.539052e-02 2.381999e-01 2.020058e-01 -1.281952e-01 -1.935464e-01 -4.517517e-02 3.855991e-02 -2.924607e-03
<VARIANCE> 39
 2.807339e+01 4.451628e+01 7.166116e+01 7.846745e+01 6.605855e+01 8.335294e+01 9.974253e+01 1.184694e+02 7.869382e+01 6.529003e+01 6.146533e+01 5.071387e+01 8.383650e+01 1.069830e+00 2.084827e+00 2.805306e+00 3.531373e+00 3.554477e+00 4.223811e+00 4.745402e+00 5.890687e+00 4.044753e+00 4.044278e+00 3.850363e+00 2.672584e+00 1.814698e+00 1.725194e-01 3.175889e-01 3.777098e-01 5.549328e-01 6.594799e-01 6.819619e-01 8.416440e-01 9.582512e-01 7.014057e-01 7.105576e-01 7.073694e-01 4.684659e-01 2.077215e-01
<GCONST> 1.324547e+02
<STATE> 4
<MEAN> 39
 -1.080677e+00 -7.289949e+00 -2.637628e+00 -1.217064e+01 -8.195326e+00 1.173974e+00 -1.455733e+01 -6.947503e+00 -6.830756e-02 -2.102851e-01 -2.243864e+00 -7.353362e+00 6.403346e+01 -2.500477e-01 2.744103e-02 -5.839861e-02 3.056927e-01 4.557838e-02 -1.452655e-01 4.853039e-01 4.452903e-01 -2.390092e-01 -4.264436e-01 -2.103769e-01 4.070495e-02 -2.004352e-01 -4.693620e-02 3.989156e-02 1.429596e-02 8.814967e-02 -3.374038e-02 -4.520820e-02 1.046310e-01 5.116200e-02 -7.335605e-02 -5.534945e-02 1.829489e-02 3.276773e-02 -3.377091e-02
<VARIANCE> 39
 3.391838e+01 5.220905e+01 7.276664e+01 8.496355e+01 7.275954e+01 8.049428e+01 9.478827e+01 1.005961e+02 7.437444e+01 5.970821e+01 5.956155e+01 5.075466e+01 1.353047e+02 9.370623e-01 2.014746e+00 2.371242e+00 2.951694e+00 3.228372e+00 3.428439e+00 3.914837e+00 4.469494e+00 3.481508e+00 3.342018e+00 3.406647e+00 2.382284e+00 1.892861e+00 1.549240e-01 2.960568e-01 3.276685e-01 4.628877e-01 5.380868e-01 5.542825e-01 6.815682e-01 7.479038e-01 5.768527e-01 5.989466e-01 5.962875e-01 4.093219e-01 2.101163e-01
<GCONST> 1.291926e+02
<TRANSP> 5
 0.000000e+00 1.000000e+00 0.000000e+00 0.000000e+00 0.000000e+00
 0.000000e+00 5.723123e-01 4.276877e-01 0.000000e+00 0.000000e+00
 0.000000e+00 0.000000e+00 5.787109e-01 4.212891e-01 0.000000e+00
 0.000000e+00 0.000000e+00 0.000000e+00 7.109649e-01 2.890351e-01
 0.000000e+00 0.000000e+00 0.000000e+00 0.000000e+00 0.000000e+00
<ENDHMM>
~h "m"
<BEGINHMM>
<NUMSTATES> 5
<STATE> 2
<MEAN> 39
 9.638546e-01 -4.731276e+00 -1.552658e-01 -5.742883e+00 -8.972058e+00 2.476450e+00 -9.832059e+00 -9.740586e+00 -9.513339e+00 -3.720251e+00 -1.983364e+00 -7.288354e+00 6.092542e+01 2.251528e-01 4.192638e-01 5.522315e-01 6.608531e-01 1.191169e-01 3.358098e-01 1.997283e-01 -1.004325e+00 -1.149986e+00 -1.081338e-01 -6.448874e-02 1.348447e-01 -4.403233e-01 -9.954915e-02 -5.804321e-02 -3.362559e-02 -9.646653e-02 -2.331156e-02 -7.433932e-02 -3.185652e-02 1.632081e-01 1.479855e-01 -7.723560e-03 -2.803857e-02 1.291815e-02 1.185221e-01
<VARIANCE> 39
 3.345005e+01 4.779578e+01 5.980389e+01 7.165264e+01 5.934101e+01 7.295633e+01 7.355482e+01 1.007629e+02 9.414378e+01 5.875980e+01 6.412608e+01 4.698222e+01 1.008135e+02 1.235718e+00 2.319386e+00 3.462159e+00 4.344266e+00 2.833547e+00 2.933704e+00 3.275067e+00 5.965845e+00 6.502193e+00 3.107276e+00 4.395391e+00 2.834551e+00 2.704829e+00 1.989133e-01 3.170106e-01 5.290203e-01 7.143930e-01 4.583701e-01 4.607293e-01 5.581660e-01 9.504424e-01 1.045661e+00 5.324115e-01 7.306657e-01 4.815918e-01 3.070607e-01
<GCONST> 1.325840e+02
<STATE> 3
<MEAN> 39
 1.236547e+00 -4.102153e+00 8.384443e-01 -4.817603e+00 -8.801428e+00 3.133353e+00 -9.545167e+00 -1.137411e+01 -1.153279e+01 -4.060473e+00 -2.176769e+00 -7.030426e+00 6.055981e+01 -1.896449e-03 1.307450e-01 1.659116e-01 1.346800e-01 7.655539e-02 1.063970e-01 6.217486e-02 -1.700384e-01 -2.721428e-01 -1.037847e-01 -9.893965e-02 3.768692e-02 -6.852454e-02 -7.870300e-02 -1.028220e-01 -1.621488e-01 -2.013663e-01 -1.313068e-02 -9.577709e-02 -5.778922e-02 3.295134e-01 3.616620e-01 1.391635e-02 -3.919912e-03 -4.356277e-02 1.180001e-01
<VARIANCE> 39
 3.004651e+01 4.176381e+01 5.418290e+01 6.892621e+01 5.818678e+01 7.251720e+01 7.590163e+01 9.864725e+01 9.073840e+01 6.185628e+01 6.858356e+01 4.647695e+01 8.785345e+01 1.012877e+00 2.249945e+00 3.488893e+00 4.485614e+00 2.518286e+00 2.758680e+00 2.957913e+00 5.985365e+00 7.151998e+00 2.887049e+00 4.039025e+00 2.733085e+00 2.712671e+00 1.642810e-01 2.868903e-01 5.154797e-01 6.941456e-01 4.404954e-01 4.445124e-01 5.244964e-01 8.909666e-01 1.034295e+00 5.197772e-01 7.263628e-01 4.791292e-01 2.740702e-01
<GCONST> 1.308502e+02
<STATE> 4
<MEAN> 39
 -5.685102e-01 -3.704600e+00 2.154320e-01 -4.933156e+00 -7.699482e+00 2.542179e+00 -9.250986e+00 -9.892812e+00 -1.066116e+01 -4.761334e+00 -3.262699e+00 -6.592740e+00 5.746484e+01 -1.508388e-01 -2.816405e-02 -2.281136e-01 -2.231720e-01 4.149992e-02 -1.481836e-01 -8.271219e-03 4.676865e-01 5.130160e-01 1.980202e-02 -2.282813e-02 -5.364161e-02 -5.069038e-04 -3.969477e-02 -4.391097e-02 -7.096732e-02 -8.069043e-02 -1.396637e-02 -6.831628e-02 -3.425545e-02 1.452070e-01 1.705065e-01 2.922192e-02 2.002170e-02 -1.693718e-02 4.394604e-02
<VARIANCE> 39
 3.921016e+01 4.584568e+01 5.760337e+01 6.587149e+01 6.588560e+01 7.097185e+01 6.957079e+01 8.423433e+01 8.706125e+01 5.548296e+01 6.295470e+01 4.483355e+01 1.422948e+02 8.627607e-01 1.849813e+00 2.698840e+00 3.260347e+00 2.331142e+00 2.381522e+00 2.514438e+00 4.001037e+00 4.974158e+00 2.476956e+00 3.279595e+00 2.275210e+00 2.339466e+00 1.426465e-01 2.591769e-01 4.323920e-01 5.643466e-01 4.022298e-01 4.085817e-01 4.431180e-01 6.697781e-01 8.164918e-01 4.403606e-01 5.873919e-01 3.999764e-01 2.359603e-01
<GCONST> 1.263166e+02
<TRANSP> 5
 0.000000e+00 1.000000e+00 0.000000e+00 0.000000e+00 0.000000e+00
 0.000000e+00 5.969970e-01 4.030030e-01 0.000000e+00 0.000000e+00
 0.000000e+00 0.000000e+00 6.149954e-01 3.850046e-01 0.000000e+00
 0.000000e+00 0.000000e+00 0.000000e+00 7.833344e-01 2.166656e-01
 0.000000e+00 0.000000e+00 0.000000e+00 0.000000e+00 0.000000e+00
<ENDHMM>
~h "n"
<BEGINHMM>
<NUMSTATES> 5
<STATE> 2
<MEAN> 39
 6.012591e-01 -5.515106e+00 1.835731e+00 -3.030665e+00 -1.169098e+01 -3.917687e+00 -1.209268e+01 -6.207294e+00 -3.854140e+00 -1.825674e+00 -6.508141e+00 -7.209522e+00 6.294989e+01 2.926023e-01 9.499398e-01 7.861642e-01 8.771011e-01 -2.136020e-01 -3.226184e-01 6.524318e-02 -1.346296e+00 -4.357193e-01 4.525408e-01 -3.599496e-01 2.761725e-01 -9.661916e-01 -9.988546e-02 -7.999635e-03 -7.951723e-02 -1.438894e-01 5.789024e-02 9.567318e-02 7.503801e-02 2.882931e-02 -8.257139e-03 -4.343429e-02 8.687676e-02 2.957110e-02 3.700696e-02
<VARIANCE> 39
 2.392056e+01 5.716251e+01 6.022886e+01 5.747239e+01 5.833010e+01 6.123006e+01 6.842900e+01 1.398456e+02 7.097327e+01 5.788606e+01 6.058405e+01 4.754976e+01 8.613481e+01 1.216828e+00 3.229499e+00 3.541184e+00 3.666387e+00 3.390469e+00 3.779103e+00 3.913801e+00 9.351872e+00 4.396437e+00 4.029883e+00 3.725923e+00 2.760345e+00 3.095495e+00 1.910355e-01 5.168312e-01 5.173858e-01 5.892560e-01 5.651807e-01 6.225584e-01 6.766072e-01 1.734495e+00 7.382756e-01 7.157227e-01 6.129633e-01 4.727348e-01 4.097098e-01
<GCONST> 1.343983e+02
<STATE> 3
<MEAN> 39
 8.527528e-01 -3.432498e+00 3.288775e+00 -1.617750e+00 -1.187820e+01 -4.239467e+00 -1.163776e+01 -8.944770e+00 -4.858303e+00 -1.049377e+00 -7.049208e+00 -6.443738e+00 6.083652e+01 -4.810726e-02 5.823730e-01 2.955790e-01 2.676752e-01 9.077397e-02 1.380255e-02 1.761180e-01 -4.794836e-01 -3.198991e-01 6.400415e-02 -6.609594e-02 2.344874e-01 -6.726414e-01 -1.386049e-01 -1.457286e-01 -1.920534e-01 -2.259375e-01 1.189419e-01 1.020147e-01 2.391060e-02 3.699863e-01 5.946825e-02 -1.525878e-01 1.199725e-01 -2.700185e-02 1.036845e-01
<VARIANCE> 39
 2.396594e+01 4.803704e+01 5.097489e+01 5.352765e+01 5.806152e+01 5.999586e+01 7.009738e+01 1.287707e+02 6.550404e+01 5.822223e+01 6.071445e+01 4.717674e+01 7.896783e+01 1.270352e+00 3.352346e+00 3.406908e+00 3.627533e+00 3.325047e+00 3.459560e+00 3.667765e+00 9.837351e+00 4.225865e+00 3.971359e+00 3.485295e+00 2.643756e+00 3.234702e+00 2.000921e-01 4.656194e-01 5.030428e-01 5.544611e-01 5.748598e-01 6.071099e-01 6.728848e-01 1.529588e+00 7.214832e-01 7.009556e-01 6.203477e-01 4.727310e-01 3.809147e-01
<GCONST> 1.331356e+02
<STATE> 4
<MEAN> 39
 -3.480006e-01 -1.885555e+00 3.401748e+00 -1.048872e+00 -1.048101e+01 -3.805509e+00 -1.076130e+01 -8.572301e+00 -5.536585e+00 -1.819306e+00 -7.223462e+00 -5.614442e+00 5.698940e+01 -3.796537e-01 2.283042e-01 -1.960854e-01 -1.434991e-01 3.804320e-01 1.521878e-01 1.925711e-01 3.905798e-01 -1.163751e-01 -2.607857e-01 2.318434e-01 1.219835e-01 -6.255361e-01 -1.175619e-01 -9.359968e-02 -1.132577e-01 -1.229858e-01 6.295847e-02 1.144229e-02 -2.463222e-03 1.859662e-01 6.506073e-02 -6.726815e-02 9.010497e-02 -1.973997e-02 6.296811e-02
<VARIANCE> 39
 3.173978e+01 4.924356e+01 5.121501e+01 5.310217e+01 6.512952e+01 5.697223e+01 6.594925e+01 1.010500e+02 5.883536e+01 5.609895e+01 5.937109e+01 4.491580e+01 1.159460e+02 1.311567e+00 2.671641e+00 2.579341e+00 2.797074e+00 2.986649e+00 2.871754e+00 3.105208e+00 5.888791e+00 3.390896e+00 3.185580e+00 3.028203e+00 2.261245e+00 2.981789e+00 2.292508e-01 4.035750e-01 4.095313e-01 4.699788e-01 5.334654e-01 5.167333e-01 5.720229e-01 1.041377e+00 6.060434e-01 5.905364e-01 5.419573e-01 4.158849e-01 3.653171e-01
<GCONST> 1.290290e+02
<TRANSP> 5
 0.000000e+00 1.000000e+00 0.000000e+00 0.000000e+00 0.000000e+00
 0.000000e+00 6.133040e-01 3.866960e-01 0.000000e+00 0.000000e+00
 0.000000e+00 0.000000e+00 6.126358e-01 3.873641e-01 0.000000e+00
 0.000000e+00 0.000000e+00 0.000000e+00 7.255555e-01 2.744445e-01
 0.000000e+00 0.000000e+00 0.000000e+00 0.000000e+00 0.000000e+00
<ENDHMM>
~h "o"
<BEGINHMM>
<NUMSTATES> 5
<STATE> 2
<MEAN> 39
 6.019540e-02 -4.100210e+00 -6.495035e+00 -1.596800e+01 -1.108372e+01 5.379468e+00 -1.263980e+01 -5.522253e+00 -3.411844e+00 -1.319209e+00 2.075735e+00 -5.386801e+00 6.435666e+01 7.011993e-01 -1.957062e-01 -4.619056e-01 -1.556785e+00 -4.716592e-01 1.270270e+00 -8.301416e-02 7.313524e-02 1.748969e-01 -7.424300e-02 6.376131e-01 -1.645743e-01 9.209920e-01 -1.511162e-01 6.051400e-02 1.826873e-01 2.831452e-01 1.056519e-01 -1.936184e-01 1.137484e-01 -2.606635e-02 -4.736932e-02 -3.767946e-02 -1.365619e-01 3.110232e-02 -2.970515e-01
<VARIANCE> 39
 3.775373e+01 4.454891e+01 6.234877e+01 9.997477e+01 7.049447e+01 7.910479e+01 7.908081e+01 7.017867e+01 7.117293e+01 6.896014e+01 6.042326e+01 4.437780e+01 1.036211e+02 3.037440e+00 2.509862e+00 4.176763e+00 7.222061e+00 5.469048e+00 5.672650e+00 4.273878e+00 4.303644e+00 4.660599e+00 4.275898e+00 4.109736e+00 3.023515e+00 5.637112e+00 5.415359e-01 4.280846e-01 6.712897e-01 1.120380e+00 9.341300e-01 9.509608e-01 7.607051e-01 7.439817e-01 8.326651e-01 7.465340e-01 7.001235e-01 5.543798e-01 7.362286e-01
<GCONST> 1.409874e+02
<STATE> 3
<MEAN> 39
 1.309024e+00 -4.413891e+00 -7.080525e+00 -1.849100e+01 -1.159220e+01 7.539690e+00 -1.233228e+01 -5.538072e+00 -3.194646e+00 -1.658842e+00 2.957555e+00 -5.665873e+00 6.559070e+01 2.300709e-01 -4.291297e-02 1.504577e-02 -1.986620e-01 -4.733633e-03 2.271593e-01 7.870270e-02 -3.723304e-02 4.279237e-02 -2.574068e-02 1.048349e-03 -8.650260e-02 1.103573e-02 -1.521459e-01 6.752244e-02 1.571638e-01 4.404057e-01 1.347333e-01 -3.449487e-01 3.812014e-02 -3.043912e-02 -3.486426e-02 9.365310e-03 -2.100677e-01 2.914074e-02 -2.908265e-01
<VARIANCE> 39
 2.716465e+01 4.319613e+01 5.134071e+01 9.200301e+01 6.339708e+01 7.186812e+01 7.830386e+01 6.968090e+01 6.891375e+01 7.235565e+01 6.075805e+01 4.616432e+01 8.199863e+01 1.841409e+00 2.232188e+00 2.865157e+00 6.494784e+00 4.062776e+00 5.016970e+00 3.651359e+00 3.579027e+00 3.991084e+00 3.770846e+00 3.598060e+00 2.663872e+00 4.737748e+00 3.274470e-01 3.639284e-01 4.858182e-01 8.735387e-01 7.455215e-01 7.628078e-01 6.492397e-01 6.499830e-01 7.113605e-01 6.906584e-01 6.281576e-01 4.955347e-01 5.128147e-01
<GCONST> 1.345862e+02
<STATE> 4
<MEAN> 39
 1.225280e+00 -3.722171e+00 -6.392354e+00 -1.805932e+01 -1.058648e+01 7.225429e+00 -1.146825e+01 -5.491608e+00 -3.310876e+00 -1.991408e+00 1.753765e+00 -5.237693e+00 6.245762e+01 -1.748126e-01 1.067721e-01 3.187174e-01 9.818385e-01 2.773156e-01 -6.463051e-01 7.566716e-02 -1.247730e-01 1.359329e-02 7.238451e-02 -4.384594e-01 -4.203996e-02 -7.197767e-01 -8.335426e-02 4.147747e-02 9.199993e-02 2.074261e-01 4.335770e-02 -1.594122e-01 8.450079e-03 -7.030488e-03 -1.912358e-02 -1.080465e-02 -7.847946e-02 2.109333e-02 -1.005011e-01
<VARIANCE> 39
 2.848347e+01 4.561892e+01 4.951529e+01 9.726510e+01 6.224061e+01 7.101295e+01 7.509819e+01 6.368737e+01 6.434962e+01 6.374805e+01 5.506006e+01 4.596015e+01 1.179024e+02 1.280237e+00 1.882119e+00 2.186578e+00 4.521708e+00 3.005899e+00 3.583608e+00 3.157315e+00 3.126433e+00 3.270904e+00 3.089094e+00 2.853752e+00 2.319877e+00 3.118999e+00 2.040180e-01 3.035451e-01 3.438915e-01 6.451840e-01 5.282826e-01 5.682708e-01 5.411791e-01 5.490627e-01 5.595133e-01 5.440519e-01 5.036726e-01 4.197626e-01 3.925928e-01
<GCONST> 1.279139e+02
<TRANSP> 5
 0.000000e+00 1.000000e+00 0.000000e+00 0.000000e+00 0.000000e+00
 0.000000e+00 6.840453e-01 3.159547e-01 0.000000e+00 0.000000e+00
 0.000000e+00 0.000000e+00 6.818616e-01 3.181384e-01 0.000000e+00
 0.000000e+00 0.000000e+00 0.000000e+00 8.220966e-01 1.779033e-01
 0.000000e+00 0.000000e+00 0.000000e+00 0.000000e+00 0.000000e+00
<ENDHMM>
~h "p"
<BEGINHMM>
<NUMSTATES> 5
<STATE> 2
<MEAN> 39
 -4.633615e+00 -6.121727e-01 -2.982157e+00 -5.372156e+00 -6.590210e+00 -2.123581e+00 -7.594723e+00 -5.828538e+00 -4.277830e+00 -2.394923e+00 -2.773489e+00 -5.327329e+00 4.571211e+01 -4.790928e-01 -3.757103e-02 -2.490899e-01 -1.639234e-02 2.034655e-01 -2.163154e-01 1.626201e-01 1.283097e-01 2.228995e-01 1.928297e-02 4.239074e-02 1.989697e-01 -4.361678e-01 7.169018e-02 -3.339688e-01 -6.899083e-02 -1.902650e-01 -1.173707e-01 9.727444e-02 -1.215946e-01 6.019167e-02 3.781200e-02 1.656447e-02 5.850608e-02 -8.767749e-02 8.126629e-01
<VARIANCE> 39
 5.096617e+01 4.817568e+01 4.541782e+01 5.052864e+01 3.679604e+01 5.401455e+01 4.069208e+01 4.238414e+01 4.830145e+01 3.178976e+01 3.583467e+01 3.640456e+01 1.428009e+02 2.996937e+00 4.193852e+00 2.704689e+00 3.723255e+00 3.104712e+00 3.872481e+00 3.075794e+00 3.305312e+00 3.515492e+00 2.732759e+00 3.058632e+00 2.577294e+00 1.531016e+01 5.563944e-01 6.431780e-01 4.982309e-01 7.050197e-01 6.113706e-01 7.436749e-01 5.787344e-01 6.138035e-01 6.305037e-01 5.395806e-01 5.994821e-01 5.155792e-01 1.845552e+00
<GCONST> 1.329066e+02
<STATE> 3
<MEAN> 39
 -5.400154e+00 -2.279131e+00 -4.115765e+00 -6.477129e+00 -6.610789e+00 -1.999341e+00 -7.659563e+00 -5.321311e+00 -3.565913e+00 -2.285131e+00 -2.355365e+00 -5.331463e+00 4.849818e+01 9.561054e-02 -1.043617e+00 -4.571621e-01 -6.819280e-01 -1.775857e-01 2.633278e-01 -2.163283e-01 2.624154e-01 2.716576e-01 9.012175e-02 2.531736e-01 -2.291379e-01 2.167915e+00 2.180274e-01 -2.245284e-01 1.772224e-02 -1.472429e-01 -1.445747e-01 1.373817e-01 -1.224175e-01 4.400773e-02 -1.200577e-02 5.160627e-03 3.582902e-02 -1.383020e-01 5.939500e-01
<VARIANCE> 39
 4.651742e+01 5.369603e+01 4.327180e+01 5.665369e+01 3.396645e+01 6.026846e+01 3.772646e+01 3.923241e+01 4.089657e+01 3.044854e+01 3.357324e+01 3.637361e+01 1.895918e+02 4.768861e+00 5.523048e+00 3.646911e+00 5.841250e+00 3.843150e+00 6.111384e+00 3.743212e+00 3.963731e+00 4.019438e+00 3.099812e+00 3.556550e+00 3.803787e+00 2.192173e+01 7.808190e-01 8.079891e-01 6.243035e-01 1.041146e+00 7.361984e-01 1.031300e+00 6.579785e-01 6.836829e-01 7.119685e-01 5.881119e-01 6.815571e-01 6.610820e-01 2.756311e+00
<GCONST> 1.394870e+02
<STATE> 4
<MEAN> 39
 -6.723926e+00 -3.956911e+00 -4.927628e+00 -6.945689e+00 -6.527332e+00 -1.858480e+00 -7.506267e+00 -4.549161e+00 -3.229327e+00 -2.264539e+00 -1.985966e+00 -5.186574e+00 4.954317e+01 4.122172e-01 -8.674083e-01 -1.427812e-01 -5.228648e-01 -3.525886e-01 2.636043e-01 -3.439433e-01 1.851810e-01 1.187152e-01 1.478464e-02 2.040978e-01 -2.906616e-01 2.249838e+00 1.271627e-01 6.130736e-02 1.109719e-01 -1.841996e-03 -1.113663e-01 2.205941e-02 -6.726883e-02 -7.540203e-04 -3.873229e-02 -2.683161e-02 -1.879206e-02 -2.436876e-02 4.391022e-02
<VARIANCE> 39
 5.079060e+01 5.587040e+01 3.986627e+01 5.930115e+01 3.516991e+01 6.197207e+01 3.779103e+01 3.930117e+01 3.703693e+01 2.934744e+01 3.200359e+01 3.831866e+01 2.572492e+02 4.143191e+00 4.205965e+00 3.313734e+00 5.258038e+00 3.962648e+00 5.187361e+00 3.463786e+00 3.678783e+00 3.640210e+00 2.867873e+00 3.315652e+00 3.405787e+00 1.552005e+01 7.304409e-01 6.837962e-01 5.239059e-01 1.005180e+00 6.815045e-01 9.593925e-01 6.134534e-01 6.258417e-01 6.386678e-01 5.292389e-01 6.132076e-01 6.090696e-01 2.423245e+00
<GCONST> 1.369329e+02
<TRANSP> 5
 0.000000e+00 1.000000e+00 0.000000e+00 0.000000e+00 0.000000e+00
 0.000000e+00 6.196523e-01 3.803477e-01 0.000000e+00 0.000000e+00
 0.000000e+00 0.000000e+00 6.399520e-01 3.600480e-01 0.000000e+00
 0.000000e+00 0.000000e+00 0.000000e+00 7.257729e-01 2.742271e-01
 0.000000e+00 0.000000e+00 0.000000e+00 0.000000e+00 0.000000e+00
<ENDHMM>
~h "r"
<BEGINHMM>
<NUMSTATES> 5
<STATE> 2
<MEAN> 39
 -1.077828e+00 -8.649344e+00 -4.722646e+00 -5.160462e+00 -1.020846e+01 -3.695707e+00 -1.278602e+01 -2.085326e+00 9.385806e-01 -1.189624e+00 -2.461360e+00 -7.526830e+00 6.516302e+01 2.206763e-01 -8.196100e-02 1.404146e-01 4.703882e-01 -1.504334e-01 -1.656579e-01 -2.801037e-01 5.562624e-02 4.934182e-02 -2.556817e-02 3.051331e-02 6.114965e-02 -3.014162e-01 -5.469698e-02 6.414200e-02 9.095436e-02 -9.746807e-02 2.100639e-03 7.027361e-02 7.779652e-02 -1.199855e-02 -1.928553e-01 -4.226164e-02 2.804039e-02 3.335979e-02 -6.298167e-02
<VARIANCE> 39
 3.329951e+01 4.921090e+01 6.327929e+01 5.376403e+01 6.345240e+01 6.376126e+01 6.579095e+01 8.252780e+01 6.653624e+01 5.157092e+01 5.419654e+01 4.397396e+01 1.091058e+02 2.371785e+00 2.916396e+00 3.086622e+00 3.854967e+00 4.556429e+00 4.176987e+00 4.108902e+00 4.701738e+00 4.833501e+00 3.757553e+00 3.725931e+00 3.197844e+00 4.583181e+00 4.290788e-01 4.562525e-01 4.713059e-01 6.807669e-01 8.090366e-01 7.023081e-01 7.284002e-01 8.249760e-01 8.230080e-01 6.908679e-01 6.748425e-01 5.808319e-01 6.817495e-01
<GCONST> 1.362160e+02
<STATE> 3
<MEAN> 39
 -7.152726e-01 -8.720495e+00 -4.301781e+00 -4.474157e+00 -1.046863e+01 -3.798776e+00 -1.315501e+01 -1.978554e+00 5.894421e-01 -1.317448e+00 -2.359828e+00 -7.344354e+00 6.448382e+01 8.347384e-02 3.663262e-02 2.861273e-01 1.871154e-01 -1.171226e-01 -2.570888e-02 -3.664478e-02 4.008321e-02 -3.418451e-01 -1.308487e-01 5.880477e-02 1.216759e-01 -3.248692e-01 -8.420422e-02 6.657185e-02 6.737439e-02 -1.380434e-01 1.961865e-02 6.086950e-02 1.208614e-01 -1.560390e-02 -1.707794e-01 -3.517404e-02 1.621582e-02 1.786060e-02 -6.456109e-04
<VARIANCE> 39
 3.333951e+01 5.103308e+01 6.751218e+01 5.170641e+01 6.478562e+01 6.608150e+01 6.558170e+01 8.290221e+01 6.799106e+01 5.274938e+01 5.439584e+01 4.425555e+01 1.061792e+02 2.299572e+00 2.958393e+00 3.138368e+00 3.510542e+00 4.667080e+00 4.125745e+00 4.105838e+00 4.691229e+00 4.803104e+00 3.656468e+00 3.680290e+00 3.149433e+00 4.429640e+00 4.123148e-01 4.594664e-01 4.635098e-01 6.281243e-01 8.397050e-01 7.026609e-01 7.336277e-01 8.187233e-01 8.336620e-01 6.923249e-01 6.732376e-01 5.726243e-01 6.210687e-01
<GCONST> 1.359965e+02
<STATE> 4
<MEAN> 39
 -1.083957e+00 -8.516724e+00 -3.972127e+00 -4.387209e+00 -1.009323e+01 -3.578226e+00 -1.256987e+01 -1.972130e+00 -3.261364e-01 -1.870530e+00 -2.515195e+00 -7.009344e+00 6.273339e+01 -1.190256e-01 2.046645e-01 3.638712e-01 -4.590740e-02 -1.922927e-02 3.141257e-02 2.206180e-01 -3.622190e-02 -5.653905e-01 -1.755474e-01 5.702512e-02 1.512509e-01 -3.835430e-01 -8.339337e-02 7.656116e-02 4.904800e-02 -8.746295e-02 2.184511e-02 2.905664e-02 7.915003e-02 -3.677930e-02 -8.212755e-02 4.370179e-03 1.420171e-02 5.691593e-03 4.455522e-03
<VARIANCE> 39
 3.664816e+01 5.819494e+01 7.325652e+01 5.161250e+01 6.879708e+01 6.963580e+01 6.651534e+01 8.124191e+01 6.791303e+01 5.221565e+01 5.505128e+01 4.459127e+01 1.427004e+02 1.954966e+00 2.620343e+00 2.845474e+00 2.899867e+00 4.149970e+00 3.557545e+00 3.608901e+00 4.049323e+00 4.253162e+00 3.230015e+00 3.286355e+00 2.675128e+00 3.666160e+00 3.357402e-01 4.118013e-01 4.035334e-01 5.193377e-01 7.161102e-01 6.052573e-01 6.460387e-01 7.100421e-01 7.179822e-01 6.007752e-01 5.890638e-01 4.957061e-01 5.184681e-01
<GCONST> 1.329154e+02
<TRANSP> 5
 0.000000e+00 1.000000e+00 0.000000e+00 0.000000e+00 0.000000e+00
 0.000000e+00 5.260721e-01 4.739279e-01 0.000000e+00 0.000000e+00
 0.000000e+00 0.000000e+00 5.237042e-01 4.762959e-01 0.000000e+00
 0.000000e+00 0.000000e+00 0.000000e+00 6.099131e-01 3.900869e-01
 0.000000e+00 0.000000e+00 0.000000e+00 0.000000e+00 0.000000e+00
<ENDHMM>
~h "s"
<BEGINHMM>
<NUMSTATES> 5
<STATE> 2
<MEAN> 39
 -1.535484e+01 1.921199e+00 -2.394410e+00 -3.779061e+00 -3.172487e+00 -6.734266e+00 -6.997859e+00 -1.260804e+00 -2.783915e+00 -2.303063e+00 -3.208318e+00 -2.257243e+00 6.136465e+01 -2.898711e+00 1.158592e+00 -5.172314e-01 2.952226e-01 1.012832e+00 -2.931731e-01 8.326220e-01 3.697060e-01 1.781359e-01 -1.260257e-01 2.579916e-01 5.970164e-01 -3.939659e-01 1.439720e-02 -2.728484e-01 -6.146469e-02 -1.593827e-01 -2.375701e-01 1.464296e-01 -1.349918e-01 -4.834660e-02 -2.889272e-02 7.957964e-03 9.148147e-02 -1.083042e-01 4.414191e-02
<VARIANCE> 39
 1.214859e+02 5.110590e+01 5.235768e+01 3.933775e+01 5.038071e+01 4.603071e+01 6.516033e+01 5.025151e+01 4.281018e+01 3.471777e+01 3.846156e+01 3.209276e+01 8.787713e+01 7.412830e+00 5.873958e+00 3.533483e+00 3.449141e+00 5.012391e+00 3.696848e+00 4.884035e+00 4.373224e+00 3.501437e+00 3.102193e+00 3.147666e+00 2.665350e+00 2.634545e+00 1.380270e+00 8.023514e-01 5.137656e-01 5.306477e-01 7.279943e-01 5.916844e-01 8.150531e-01 6.762772e-01 5.896341e-01 5.543494e-01 5.601403e-01 4.555416e-01 3.056514e-01
<GCONST> 1.342134e+02
<STATE> 3
<MEAN> 39
 -2.224838e+01 3.025499e+00 -4.143405e+00 -3.991138e+00 -1.998147e+00 -6.878528e+00 -5.811833e+00 -6.396629e-01 -2.343490e+00 -2.409028e+00 -2.223537e+00 -1.235854e+00 6.053359e+01 -8.432292e-01 -6.844725e-02 -3.088894e-01 -1.459724e-01 -1.017820e-02 1.586055e-02 1.275277e-02 2.534264e-02 1.049534e-01 1.053324e-02 1.537508e-01 7.863120e-02 -1.149599e-01 6.910644e-01 -2.892956e-01 1.164079e-01 -9.738982e-02 -2.563943e-01 9.506927e-02 -2.325869e-01 -1.033545e-01 -2.116689e-02 3.383199e-02 -4.253896e-02 -1.566950e-01 1.076374e-01
<VARIANCE> 39
 9.411029e+01 3.817335e+01 4.375145e+01 3.438625e+01 4.048574e+01 4.010734e+01 5.675967e+01 3.828864e+01 3.539548e+01 2.837397e+01 3.018583e+01 2.601260e+01 6.440480e+01 1.324811e+01 4.187970e+00 3.231362e+00 2.690281e+00 3.699643e+00 3.096232e+00 4.392899e+00 3.644161e+00 3.057445e+00 2.566688e+00 2.758568e+00 2.616365e+00 2.640272e+00 1.147403e+00 6.343756e-01 5.063165e-01 4.876606e-01 6.002810e-01 5.728629e-01 7.509257e-01 6.491822e-01 5.704753e-01 5.048522e-01 5.123257e-01 4.451515e-01 3.135759e-01
<GCONST> 1.290125e+02
<STATE> 4
<MEAN> 39
 -2.092034e+01 1.225823e+00 -4.429325e+00 -4.523719e+00 -2.582742e+00 -6.025557e+00 -6.339748e+00 -1.139035e+00 -1.934585e+00 -2.299407e+00 -1.868301e+00 -1.513575e+00 5.722461e+01 1.514547e+00 -4.854738e-01 3.129074e-01 -2.140372e-01 -5.790848e-01 1.569525e-01 -5.614778e-01 -3.149164e-01 -6.880110e-03 1.061751e-02 -7.275605e-02 -3.838148e-01 2.326278e-01 3.097348e-01 -7.267746e-02 1.071965e-01 -4.109912e-02 -1.111571e-01 7.602731e-02 -1.050117e-01 -5.555162e-02 -4.409739e-02 -7.869668e-03 1.832907e-02 -7.643136e-02 8.888736e-02
<VARIANCE> 39
 1.173623e+02 3.981872e+01 4.460044e+01 3.590472e+01 4.304136e+01 3.938638e+01 5.585737e+01 3.710072e+01 3.465675e+01 2.625702e+01 2.811251e+01 2.578786e+01 1.131286e+02 9.478714e+00 2.879125e+00 3.164560e+00 2.503681e+00 3.102554e+00 3.072975e+00 4.068337e+00 3.568098e+00 3.081998e+00 2.341242e+00 2.453785e+00 2.497341e+00 3.220446e+00 1.169765e+00 4.399179e-01 4.329267e-01 4.150041e-01 4.775265e-01 5.309871e-01 6.792765e-01 5.875892e-01 5.138528e-01 4.355084e-01 4.554506e-01 4.217749e-01 3.718374e-01
<GCONST> 1.271629e+02
<TRANSP> 5
 0.000000e+00 1.000000e+00 0.000000e+00 0.000000e+00 0.000000e+00
 0.000000e+00 7.201620e-01 2.798380e-01 0.000000e+00 0.000000e+00
 0.000000e+00 0.000000e+00 7.318100e-01 2.681899e-01 0.000000e+00
 0.000000e+00 0.000000e+00 0.000000e+00 8.717109e-01 1.282891e-01
 0.000000e+00 0.000000e+00 0.000000e+00 0.000000e+00 0.000000e+00
<ENDHMM>
~h "t"
<BEGINHMM>
<NUMSTATES> 5
<STATE> 2
<MEAN> 39
 -5.644078e+00 -8.211769e-01 -2.301789e+00 -4.757956e+00 -7.136965e+00 -5.573753e+00 -9.738130e+00 -5.077748e+00 -2.391724e+00 -1.705563e+00 -4.195731e+00 -5.676146e+00 4.973910e+01 -5.764505e-01 -1.213304e-01 -2.497163e-01 -1.203749e-01 3.356034e-01 -2.329826e-01 1.959237e-01 1.077619e-01 1.285347e-01 -1.015303e-01 -1.225768e-02 2.140802e-01 -4.281430e-01 -4.042422e-03 -3.207440e-01 -6.846192e-02 -2.135385e-01 -1.182696e-01 1.079294e-01 -7.610059e-02 6.152275e-02 2.576078e-02 -1.392710e-02 4.774785e-02 -4.171264e-02 7.483313e-01
<VARIANCE> 39
 4.619010e+01 5.223131e+01 5.409555e+01 4.768395e+01 4.426434e+01 5.067937e+01 5.239731e+01 5.396359e+01 5.389834e+01 3.731386e+01 4.045481e+01 3.641769e+01 1.673635e+02 3.513146e+00 5.201687e+00 3.195650e+00 3.804921e+00 3.986303e+00 3.846638e+00 4.141564e+00 4.091590e+00 3.879569e+00 3.118054e+00 3.114393e+00 2.893725e+00 1.866520e+01 6.854438e-01 7.710382e-01 5.575117e-01 6.512191e-01 7.632654e-01 7.391199e-01 8.049858e-01 7.604708e-01 7.298063e-01 6.186998e-01 5.927231e-01 5.833730e-01 2.434230e+00
<GCONST> 1.379061e+02
<STATE> 3
<MEAN> 39
 -7.266653e+00 -2.506742e+00 -3.348190e+00 -5.951835e+00 -6.818150e+00 -5.771539e+00 -9.467509e+00 -4.459485e+00 -1.884701e+00 -1.984826e+00 -4.063826e+00 -5.224183e+00 5.161412e+01 -1.987407e-01 -8.661098e-01 -3.305264e-01 -6.586016e-01 -8.611153e-02 1.130222e-01 -2.124808e-01 2.426023e-01 2.238406e-01 -5.733611e-02 9.234986e-02 -6.160100e-02 1.967266e+00 2.771200e-01 -9.420712e-02 7.435841e-02 -1.029115e-01 -1.803920e-01 1.707538e-01 -1.668884e-01 -1.147997e-02 -2.122297e-02 2.264421e-02 5.534996e-02 -1.296971e-01 5.356737e-01
<VARIANCE> 39
 4.818397e+01 5.233314e+01 4.937517e+01 4.526987e+01 3.960540e+01 4.997840e+01 4.847091e+01 4.760884e+01 4.958353e+01 3.451891e+01 3.700445e+01 3.577052e+01 1.833124e+02 5.414541e+00 5.192291e+00 4.130859e+00 4.405529e+00 4.501838e+00 4.779910e+00 5.225541e+00 4.747978e+00 4.973147e+00 3.402893e+00 3.637062e+00 3.858111e+00 2.312716e+01 9.840440e-01 8.515614e-01 6.919074e-01 7.555097e-01 8.581327e-01 8.779680e-01 9.487129e-01 8.636813e-01 8.591481e-01 6.604455e-01 6.586043e-01 7.109867e-01 3.038639e+00
<GCONST> 1.420081e+02
<STATE> 4
<MEAN> 39
 -7.345635e+00 -4.236896e+00 -4.102030e+00 -7.322350e+00 -7.135930e+00 -5.069661e+00 -9.779132e+00 -3.857115e+00 -1.471392e+00 -2.162336e+00 -3.865116e+00 -5.513780e+00 5.544625e+01 4.838151e-01 -6.437842e-01 8.838405e-02 -5.556228e-01 -4.448730e-01 4.287474e-01 -4.909151e-01 6.058175e-02 -9.892249e-03 -4.009839e-02 2.573937e-01 -2.910787e-01 2.306605e+00 2.210733e-01 1.219623e-01 1.639089e-01 5.889106e-02 -1.219499e-01 1.347790e-01 -6.995023e-02 -6.833356e-02 -1.176501e-01 7.070286e-04 8.309972e-02 -4.933546e-02 -1.405059e-01
<VARIANCE> 39
 4.732824e+01 5.234533e+01 5.135380e+01 4.699015e+01 4.185497e+01 5.308007e+01 5.248034e+01 4.990344e+01 5.385265e+01 3.422801e+01 3.805510e+01 3.759095e+01 2.232521e+02 5.328715e+00 4.215946e+00 4.521244e+00 4.168083e+00 4.644839e+00 4.951282e+00 5.373591e+00 4.779200e+00 5.032715e+00 3.379256e+00 3.662861e+00 3.834568e+00 1.661694e+01 9.366909e-01 6.784070e-01 6.705069e-01 6.993277e-01 7.869765e-01 8.485134e-01 9.489762e-01 7.968916e-01 8.282807e-01 6.140801e-01 6.200489e-01 6.897535e-01 2.748602e+00
<GCONST> 1.413582e+02
<TRANSP> 5
 0.000000e+00 1.000000e+00 0.000000e+00 0.000000e+00 0.000000e+00
 0.000000e+00 6.453134e-01 3.546866e-01 0.000000e+00 0.000000e+00
 0.000000e+00 0.000000e+00 6.487905e-01 3.512096e-01 0.000000e+00
 0.000000e+00 0.000000e+00 0.000000e+00 6.677618e-01 3.322381e-01
 0.000000e+00 0.000000e+00 0.000000e+00 0.000000e+00 0.000000e+00
<ENDHMM>
~h "u"
<BEGINHMM>
<NUMSTATES> 5
<STATE> 2
<MEAN> 39
 1.944692e-01 1.503594e+00 -2.204621e+00 -9.482456e+00 -1.156223e+01 1.671537e+00 -1.583065e+01 -8.608102e+00 -7.606634e+00 -2.721150e+00 8.487754e-01 -4.263765e+00 6.047739e+01 8.457513e-01 3.776997e-01 -1.888485e-01 -9.035192e-01 -6.242480e-01 9.473898e-01 -6.199978e-01 -3.748258e-01 -4.930788e-01 -7.450902e-02 6.383951e-01 5.039230e-02 5.334476e-01 -1.844547e-01 -3.352724e-02 7.723746e-02 9.303628e-02 9.915201e-02 -9.383930e-02 2.008130e-01 1.147477e-01 9.328396e-02 1.312092e-03 -1.242423e-01 -8.641860e-03 -2.273097e-01
<VARIANCE> 39
 4.029143e+01 4.382424e+01 5.129739e+01 9.264175e+01 6.511214e+01 7.166087e+01 9.193079e+01 8.581144e+01 6.557455e+01 5.712229e+01 5.589966e+01 3.913764e+01 9.640933e+01 3.884914e+00 3.260465e+00 3.655413e+00 6.413151e+00 5.766677e+00 5.866088e+00 6.433475e+00 5.932922e+00 4.987927e+00 4.523365e+00 4.638174e+00 3.306730e+00 5.237723e+00 6.675493e-01 5.832800e-01 5.817056e-01 1.112238e+00 1.021924e+00 1.068932e+00 1.154935e+00 1.065280e+00 8.950549e-01 8.374821e-01 8.477829e-01 6.256098e-01 8.000503e-01
<GCONST> 1.436596e+02
<STATE> 3
<MEAN> 39
 1.508418e+00 2.157061e+00 -2.409181e+00 -1.102432e+01 -1.259314e+01 3.342239e+00 -1.654554e+01 -9.142008e+00 -8.337628e+00 -2.911022e+00 1.762169e+00 -4.173075e+00 6.107706e+01 1.977868e-01 6.893858e-02 7.789494e-02 -1.196443e-01 -4.449416e-02 1.409442e-01 -2.165741e-02 -6.841718e-02 -1.509908e-02 6.149141e-02 4.934175e-02 -3.225908e-02 -7.354340e-02 -2.426599e-01 -9.325764e-02 9.559115e-02 2.798144e-01 1.953474e-01 -2.927117e-01 2.131644e-01 1.163827e-01 1.651765e-01 2.304553e-02 -2.166019e-01 -2.034404e-02 -2.012002e-01
<VARIANCE> 39
 3.014054e+01 4.432561e+01 4.776812e+01 9.480447e+01 6.411671e+01 7.187553e+01 9.235710e+01 9.022389e+01 6.904818e+01 6.260909e+01 5.734392e+01 4.154919e+01 8.250788e+01 2.551398e+00 3.142466e+00 3.063498e+00 6.814740e+00 5.509536e+00 5.912739e+00 6.143579e+00 5.543596e+00 4.938253e+00 4.542153e+00 4.845241e+00 3.230275e+00 5.067174e+00 4.426102e-01 5.310134e-01 5.224048e-01 1.059820e+00 9.914427e-01 9.979433e-01 1.107714e+00 1.030464e+00 8.788723e-01 8.755576e-01 8.847777e-01 6.359878e-01 6.130294e-01
<GCONST> 1.416887e+02
<STATE> 4
<MEAN> 39
 1.099580e+00 2.499757e+00 -1.959307e+00 -1.078101e+01 -1.183934e+01 2.615641e+00 -1.545174e+01 -8.628669e+00 -8.228940e+00 -2.832795e+00 8.480470e-01 -4.214334e+00 5.854794e+01 -3.891928e-01 -2.463956e-01 2.185953e-01 5.921870e-01 4.019510e-01 -5.391305e-01 4.136258e-01 1.141208e-01 4.040610e-01 1.535928e-01 -3.921154e-01 -6.319485e-02 -4.910781e-01 -1.554475e-01 -6.801239e-02 2.891560e-02 1.083191e-01 7.544950e-02 -1.182322e-01 8.856700e-02 8.140604e-02 7.586201e-02 -1.932115e-02 -9.365646e-02 -7.638725e-03 -1.691812e-02
<VARIANCE> 39
 3.297076e+01 4.660863e+01 4.975523e+01 9.342852e+01 6.358733e+01 7.257356e+01 8.704323e+01 7.941254e+01 6.722163e+01 5.795685e+01 5.620364e+01 4.100459e+01 1.128660e+02 1.952538e+00 2.827190e+00 2.618297e+00 4.800851e+00 4.166830e+00 4.335602e+00 4.633278e+00 4.414921e+00 4.002956e+00 3.832474e+00 3.925291e+00 3.034608e+00 3.902775e+00 3.099369e-01 4.426247e-01 4.359959e-01 8.030657e-01 7.437946e-01 7.442868e-01 8.327091e-01 7.833358e-01 6.964462e-01 7.125887e-01 7.276261e-01 5.509529e-01 5.078303e-01
<GCONST> 1.358486e+02
<TRANSP> 5
 0.000000e+00 1.000000e+00 0.000000e+00 0.000000e+00 0.000000e+00
 0.000000e+00 6.497575e-01 3.502425e-01 0.000000e+00 0.000000e+00
 0.000000e+00 0.000000e+00 6.627910e-01 3.372091e-01 0.000000e+00
 0.000000e+00 0.000000e+00 0.000000e+00 7.512653e-01 2.487346e-01
 0.000000e+00 0.000000e+00 0.000000e+00 0.000000e+00 0.000000e+00
<ENDHMM>
~h "w"
<BEGINHMM>
<NUMSTATES> 5
<STATE> 2
<MEAN> 39
 2.150239e+00 -3.630954e+00 -4.646540e+00 -1.565022e+01 -1.171056e+01 4.583124e+00 -1.246795e+01 -4.921426e+00 -4.461047e+00 -2.481998e+00 1.769033e+00 -6.521947e+00 6.414653e+01 5.756319e-01 3.236541e-01 -1.961413e-01 -1.158766e+00 -3.346017e-01 8.133035e-01 -2.284121e-02 -1.715787e-01 -2.215874e-01 -9.170244e-02 4.632389e-01 1.644061e-01 1.455689e-01 -1.289451e-01 -6.405775e-02 5.739127e-02 1.132345e-01 -3.812449e-03 -1.391966e-01 6.181795e-02 8.539280e-02 6.797617e-02 -2.196779e-02 -7.477701e-02 1.897477e-02 7.077750e-03
<VARIANCE> 39
 2.941021e+01 7.308508e+01 5.743304e+01 8.907423e+01 6.461349e+01 8.240450e+01 7.189034e+01 7.252532e+01 8.012620e+01 6.045757e+01 6.286554e+01 5.355906e+01 1.036739e+02 1.503472e+00 3.009189e+00 2.289982e+00 3.476678e+00 3.705577e+00 3.733817e+00 3.058655e+00 3.448542e+00 3.529824e+00 3.446778e+00 3.386187e+00 3.251209e+00 2.784680e+00 2.548493e-01 3.925913e-01 3.442779e-01 5.435688e-01 6.294364e-01 5.899820e-01 5.637736e-01 6.124437e-01 6.165131e-01 6.583329e-01 6.074832e-01 6.019900e-01 2.787085e-01
<GCONST> 1.315496e+02
<STATE> 3
<MEAN> 39
 3.237521e+00 -3.493622e+00 -5.231367e+00 -1.850931e+01 -1.253480e+01 6.394755e+00 -1.232345e+01 -5.093045e+00 -4.240991e+00 -2.672090e+00 2.699611e+00 -6.308124e+00 6.527056e+01 7.982068e-02 -1.752022e-01 -1.271581e-01 -4.138645e-01 -2.608218e-02 2.517435e-01 7.291892e-02 1.588295e-02 1.577297e-01 2.285402e-02 8.734919e-02 -8.991016e-02 2.779418e-01 -1.409792e-01 -1.255782e-01 3.313547e-02 2.545719e-01 9.303874e-02 -1.912615e-01 2.327493e-02 6.395051e-02 9.924484e-02 2.455071e-02 -1.366188e-01 -8.620121e-02 2.959021e-02
<VARIANCE> 39
 2.412208e+01 6.549080e+01 5.289167e+01 8.676485e+01 6.440736e+01 7.773972e+01 6.544204e+01 6.627800e+01 8.081815e+01 6.258745e+01 6.340210e+01 5.313876e+01 7.347201e+01 1.164987e+00 3.366405e+00 1.854708e+00 3.444669e+00 3.525706e+00 3.524144e+00 2.637963e+00 2.950910e+00 3.239279e+00 3.231065e+00 3.330076e+00 3.550628e+00 2.448444e+00 1.562124e-01 3.677962e-01 2.928428e-01 4.441617e-01 5.732487e-01 5.495009e-01 4.800613e-01 5.448288e-01 5.212038e-01 6.085854e-01 5.821549e-01 5.889864e-01 2.388041e-01
<GCONST> 1.277786e+02
<STATE> 4
<MEAN> 39
 2.601239e+00 -4.943426e+00 -5.923630e+00 -1.964286e+01 -1.093902e+01 6.962132e+00 -1.141496e+01 -5.158105e+00 -2.502767e+00 -2.670673e+00 1.354009e+00 -7.449669e+00 6.612550e+01 -2.563406e-01 -3.974517e-01 -5.213724e-02 4.873375e-01 3.744027e-01 -2.859328e-01 5.399004e-02 1.024464e-01 2.606369e-01 1.177410e-01 -3.194290e-01 -3.032003e-01 1.120146e-01 -4.536745e-02 9.385940e-03 5.870294e-02 1.661887e-01 6.325479e-03 -1.358187e-01 -3.020812e-03 4.690765e-02 -1.782626e-04 -1.055072e-02 -6.877960e-02 1.448068e-02 -5.714772e-02
<VARIANCE> 39
 2.250965e+01 7.117737e+01 5.163679e+01 8.516873e+01 7.297451e+01 7.077579e+01 5.584473e+01 6.198845e+01 7.275088e+01 5.709643e+01 6.285592e+01 5.984881e+01 7.371339e+01 7.264600e-01 2.532226e+00 1.509248e+00 2.629411e+00 2.816811e+00 2.782163e+00 2.052001e+00 2.428873e+00 2.368789e+00 2.403692e+00 2.796911e+00 2.930204e+00 1.969655e+00 9.792855e-02 3.031299e-01 2.268315e-01 3.282210e-01 4.170340e-01 4.233386e-01 3.667007e-01 4.172522e-01 3.761498e-01 4.246722e-01 4.623307e-01 4.829264e-01 1.970771e-01
<GCONST> 1.204988e+02
<TRANSP> 5
 0.000000e+00 1.000000e+00 0.000000e+00 0.000000e+00 0.000000e+00
 0.000000e+00 6.851475e-01 3.148525e-01 0.000000e+00 0.000000e+00
 0.000000e+00 0.000000e+00 7.021390e-01 2.978610e-01 0.000000e+00
 0.000000e+00 0.000000e+00 0.000000e+00 8.774663e-01 1.225337e-01
 0.000000e+00 0.000000e+00 0.000000e+00 0.000000e+00 0.000000e+00
<ENDHMM>
~h "y"
<BEGINHMM>
<NUMSTATES> 5
<STATE> 2
<MEAN> 39
 -4.879183e+00 -6.291553e+00 5.996246e+00 -8.168980e+00 -1.546841e+01 -6.839954e+00 -1.132191e+01 9.738429e-01 -5.497292e+00 -4.174995e+00 -2.323021e-01 -4.404063e+00 6.531712e+01 -1.610671e-01 2.617125e-01 9.991613e-01 -3.210139e-02 -7.355837e-01 -4.605385e-01 -1.861029e-01 1.138234e-01 -4.452513e-01 -2.588594e-04 6.158524e-01 3.908582e-01 5.127588e-02 2.585223e-02 -1.378533e-02 -1.654815e-01 -1.287201e-02 1.531245e-01 1.314190e-01 -3.939395e-03 -1.238169e-01 8.094627e-02 1.591590e-02 -8.033831e-02 -7.771064e-02 2.510150e-03
<VARIANCE> 39
 2.585379e+01 6.118751e+01 1.137890e+02 5.080415e+01 7.770992e+01 6.572749e+01 7.004980e+01 9.174507e+01 7.472109e+01 6.016400e+01 5.984686e+01 4.266613e+01 1.592300e+02 9.340285e-01 2.544062e+00 5.437999e+00 1.798763e+00 3.472834e+00 2.948820e+00 3.318443e+00 4.324342e+00 3.842179e+00 2.870100e+00 3.354966e+00 2.358783e+00 1.922322e+00 1.393079e-01 2.920615e-01 5.667092e-01 3.015237e-01 5.455645e-01 4.885160e-01 5.644261e-01 7.210016e-01 5.355062e-01 5.047999e-01 5.430297e-01 3.744695e-01 1.894110e-01
<GCONST> 1.278428e+02
<STATE> 3
<MEAN> 39
 -5.114801e+00 -5.753661e+00 8.311710e+00 -8.403429e+00 -1.701786e+01 -7.552412e+00 -1.204956e+01 8.029871e-01 -6.367138e+00 -4.259967e+00 1.117621e+00 -3.774008e+00 6.593459e+01 -4.015647e-03 -7.920709e-02 1.140940e-01 -4.916175e-02 -1.670227e-01 -9.910773e-02 -5.455333e-03 9.411995e-02 2.862344e-02 -7.250017e-02 1.117044e-01 4.384100e-02 1.813899e-01 5.277666e-02 -1.087113e-01 -3.124412e-01 8.139467e-03 2.222874e-01 1.209930e-01 6.853008e-02 6.425201e-03 1.559944e-01 -1.534808e-02 -1.878771e-01 -1.257237e-01 7.195680e-03
<VARIANCE> 39
 2.199694e+01 5.373198e+01 1.095863e+02 4.933909e+01 7.358704e+01 6.287817e+01 6.694540e+01 8.797902e+01 6.948255e+01 6.172130e+01 5.791496e+01 4.133375e+01 1.390478e+02 7.799342e-01 2.601885e+00 5.849228e+00 1.495645e+00 3.355651e+00 2.454845e+00 3.271703e+00 4.247038e+00 3.783277e+00 2.733527e+00 3.405360e+00 2.079422e+00 1.999150e+00 1.132333e-01 2.759174e-01 5.195643e-01 2.578757e-01 4.988070e-01 4.311006e-01 5.245469e-01 6.949808e-01 5.072792e-01 4.940255e-01 4.951360e-01 3.367960e-01 1.783066e-01
<GCONST> 1.252292e+02
<STATE> 4
<MEAN> 39
 -6.339491e+00 -6.093311e+00 5.200092e+00 -7.643268e+00 -1.392560e+01 -6.438436e+00 -1.042385e+01 3.724921e-01 -5.375502e+00 -4.661383e+00 -3.309940e-01 -3.743202e+00 6.062279e+01 1.159124e-01 -3.290765e-01 -6.682333e-01 -1.344300e-02 3.703898e-01 1.608547e-01 1.926933e-01 2.342256e-01 4.039457e-01 -7.559612e-02 -3.682917e-01 -2.444613e-01 1.143949e-01 3.495210e-02 -1.323523e-02 -1.180241e-01 1.228339e-02 1.274557e-01 6.249519e-02 1.211009e-03 -3.111357e-02 4.698261e-02 1.171374e-02 -8.395499e-02 -6.501882e-02 -2.802194e-02
<VARIANCE> 39
 2.670825e+01 5.702526e+01 1.135679e+02 4.544376e+01 8.373245e+01 5.399102e+01 6.415493e+01 8.242342e+01 6.439045e+01 5.075426e+01 5.323600e+01 3.876081e+01 2.464189e+02 5.889105e-01 1.854176e+00 3.765270e+00 1.267889e+00 2.656574e+00 1.997924e+00 2.469495e+00 3.212095e+00 2.816298e+00 2.302886e+00 2.772412e+00 1.774163e+00 1.473321e+00 9.275654e-02 2.299478e-01 3.903221e-01 2.167031e-01 4.040785e-01 3.520718e-01 4.083749e-01 5.564252e-01 4.290305e-01 4.139392e-01 4.317281e-01 2.960044e-01 1.462769e-01
<GCONST> 1.195593e+02
<TRANSP> 5
 0.000000e+00 1.000000e+00 0.000000e+00 0.000000e+00 0.000000e+00
 0.000000e+00 6.478695e-01 3.521305e-01 0.000000e+00 0.000000e+00
 0.000000e+00 0.000000e+00 6.684595e-01 3.315405e-01 0.000000e+00
 0.000000e+00 0.000000e+00 0.000000e+00 8.566735e-01 1.433265e-01
 0.000000e+00 0.000000e+00 0.000000e+00 0.000000e+00 0.000000e+00
<ENDHMM>
~h "z"
<BEGINHMM>
<NUMSTATES> 5
<STATE> 2
<MEAN> 39
 -1.025450e+01 4.009894e+00 1.333516e+00 -9.355869e-01 -6.547113e+00 -9.104439e+00 -9.620977e+00 -3.459630e+00 -3.848465e+00 -3.245164e+00 -3.193426e+00 -1.883240e+00 6.172054e+01 -1.009999e+00 9.819872e-01 -2.099947e-01 4.847118e-01 6.063623e-01 -2.217475e-01 4.419601e-01 -1.389704e-02 1.151164e-01 -1.582229e-01 5.654424e-02 3.419455e-01 -3.838711e-01 8.245402e-02 -2.133346e-01 7.628639e-03 -1.149089e-01 -9.948327e-02 1.496011e-01 -5.035507e-02 1.396787e-02 -4.704881e-03 4.469741e-02 2.507103e-02 -8.566372e-02 4.753618e-02
<VARIANCE> 39
 7.526050e+01 8.277179e+01 5.384912e+01 4.637028e+01 7.845938e+01 5.883405e+01 5.775395e+01 5.950114e+01 4.589781e+01 3.358445e+01 3.582157e+01 3.390626e+01 1.216675e+02 3.199368e+00 4.027745e+00 2.250085e+00 2.057169e+00 3.623894e+00 2.820944e+00 3.232685e+00 3.121872e+00 2.416201e+00 2.125915e+00 2.255101e+00 2.120908e+00 1.975492e+00 3.941591e-01 4.636697e-01 3.487852e-01 3.304932e-01 5.044942e-01 4.887212e-01 5.493618e-01 5.240875e-01 4.239427e-01 4.034258e-01 4.024610e-01 3.725625e-01 2.004392e-01
<GCONST> 1.248916e+02
<STATE> 3
<MEAN> 39
 -1.214939e+01 5.167595e+00 1.016141e+00 -1.059837e-01 -5.879960e+00 -9.273657e+00 -8.730315e+00 -3.613134e+00 -3.589857e+00 -3.580282e+00 -3.006448e+00 -1.495038e+00 6.110270e+01 -5.744735e-01 2.812128e-01 -7.687421e-02 1.750669e-01 2.321403e-01 2.353924e-02 2.275705e-01 -2.325777e-02 7.587956e-02 -2.676630e-02 7.393228e-02 1.008089e-01 -1.829128e-01 1.643387e-01 -2.305551e-01 4.803272e-02 -1.039720e-01 -1.449914e-01 7.151728e-02 -8.219886e-02 -1.080733e-03 -1.292489e-02 2.947006e-02 6.217396e-03 -6.588119e-02 7.772505e-02
<VARIANCE> 39
 8.134016e+01 8.217474e+01 4.999648e+01 4.584734e+01 7.214654e+01 5.415413e+01 5.427224e+01 5.323849e+01 4.230896e+01 2.871208e+01 3.199602e+01 3.253850e+01 1.232479e+02 3.044430e+00 3.423151e+00 1.877799e+00 1.830447e+00 3.408344e+00 2.458832e+00 2.665059e+00 2.698469e+00 2.131090e+00 1.827289e+00 1.952682e+00 1.822211e+00 1.866271e+00 4.030087e-01 4.151142e-01 2.881899e-01 2.965329e-01 4.829102e-01 4.541390e-01 4.725967e-01 4.769895e-01 3.766116e-01 3.462480e-01 3.537255e-01 3.299753e-01 1.907631e-01
<GCONST> 1.211593e+02
<STATE> 4
<MEAN> 39
 -1.339374e+01 2.474204e+00 -5.786525e-01 -1.134907e+00 -5.435105e+00 -7.112581e+00 -7.318947e+00 -3.990235e+00 -4.239089e+00 -4.154728e+00 -2.828436e+00 -1.884746e+00 5.199536e+01 3.034375e-02 -1.323998e-01 7.200486e-02 -4.310989e-02 -1.122518e-01 5.301155e-02 -3.286652e-02 -6.344132e-02 7.978416e-03 3.069472e-02 3.005148e-02 -1.748493e-02 -1.130676e-02 1.264681e-01 -9.089698e-02 2.407571e-02 -4.330738e-02 -9.196728e-02 9.232897e-03 -5.672805e-02 -1.357779e-02 2.251272e-03 2.083586e-03 -1.009522e-03 -2.912502e-02 6.167020e-02
<VARIANCE> 39
 6.812723e+01 6.917661e+01 5.470543e+01 4.164571e+01 5.366830e+01 4.703372e+01 4.531432e+01 4.370918e+01 3.983834e+01 2.464369e+01 2.492232e+01 2.781804e+01 2.194455e+02 2.100183e+00 2.085380e+00 1.541660e+00 1.597725e+00 2.464236e+00 2.003382e+00 2.087879e+00 2.182619e+00 1.950157e+00 1.554620e+00 1.609321e+00 1.583030e+00 1.664372e+00 3.053804e-01 2.975557e-01 2.462196e-01 2.815820e-01 3.824185e-01 3.758265e-01 3.804991e-01 3.998296e-01 3.541691e-01 2.991538e-01 3.045296e-01 3.068652e-01 1.792250e-01
<GCONST> 1.149344e+02
<TRANSP> 5
 0.000000e+00 1.000000e+00 0.000000e+00 0.000000e+00 0.000000e+00
 0.000000e+00 6.746445e-01 3.253555e-01 0.000000e+00 0.000000e+00
 0.000000e+00 0.000000e+00 6.838450e-01 3.161550e-01 0.000000e+00
 0.000000e+00 0.000000e+00 0.000000e+00 9.202081e-01 7.979196e-02
 0.000000e+00 0.000000e+00 0.000000e+00 0.000000e+00 0.000000e+00
<ENDHMM>
~h "ai"
<BEGINHMM>
<NUMSTATES> 5
<STATE> 2
<MEAN> 39
 -2.657730e+00 -1.204349e+01 2.677698e+00 -1.056022e+01 -1.526017e+01 -5.735608e+00 -1.024003e+01 5.395540e+00 -3.192285e+00 -2.876781e+00 -2.288151e+00 -6.985047e+00 7.117251e+01 -1.960981e-01 3.652932e-01 1.292820e+00 8.013766e-02 -1.127990e+00 -7.388766e-01 1.419430e-01 2.372351e-01 -8.077945e-01 1.524366e-01 6.141723e-01 4.475107e-01 -1.335092e-01 -3.313890e-02 2.674236e-01 5.603993e-02 5.851856e-02 8.760113e-02 5.322025e-02 -9.415244e-02 -3.507773e-01 -1.096764e-01 1.079766e-01 8.956753e-02 3.756569e-02 -2.459458e-01
<VARIANCE> 39
 1.980776e+01 5.766815e+01 8.214039e+01 4.489760e+01 7.416196e+01 7.348450e+01 5.974176e+01 8.504144e+01 7.791689e+01 6.120879e+01 6.833463e+01 4.333514e+01 5.795303e+01 8.416765e-01 2.365745e+00 2.716461e+00 1.761457e+00 3.238702e+00 3.084792e+00 2.814457e+00 5.058394e+00 3.061923e+00 2.963233e+00 3.627265e+00 2.309173e+00 1.608880e+00 1.693783e-01 2.707506e-01 3.471671e-01 2.989580e-01 5.165095e-01 4.840478e-01 4.880307e-01 7.287455e-01 5.095180e-01 5.286751e-01 6.480212e-01 4.348730e-01 2.046372e-01
<GCONST> 1.246758e+02
<STATE> 3
<MEAN> 39
 -3.344766e+00 -9.052388e+00 7.131573e+00 -9.799297e+00 -1.819603e+01 -7.631780e+00 -1.059939e+01 3.733269e+00 -6.385667e+00 -1.690677e+00 -3.906311e-03 -5.648287e+00 6.903272e+01 -1.455261e-01 8.031114e-01 9.465775e-01 2.774506e-01 -4.856367e-01 -3.118255e-01 -1.016355e-01 -6.318514e-01 -7.225640e-01 2.417893e-01 4.388036e-01 2.645178e-01 -7.158695e-01 2.169018e-02 7.191236e-02 -1.648654e-01 7.606708e-02 2.339151e-01 1.208346e-01 -3.014321e-02 -1.798069e-01 7.316180e-02 -3.010213e-02 -1.052220e-01 -5.693496e-02 -1.549660e-01
<VARIANCE> 39
 1.977732e+01 6.153682e+01 7.837636e+01 4.630124e+01 6.510391e+01 6.234579e+01 5.624712e+01 9.275027e+01 7.679911e+01 6.092561e+01 6.350419e+01 4.000480e+01 7.470164e+01 8.260474e-01 1.906168e+00 3.264574e+00 1.799779e+00 3.449243e+00 2.636402e+00 2.738613e+00 4.268865e+00 3.270142e+00 2.677697e+00 3.340836e+00 2.034260e+00 1.813027e+00 1.356217e-01 2.548600e-01 3.513579e-01 2.944219e-01 4.557884e-01 4.219965e-01 4.697384e-01 7.004126e-01 5.140952e-01 4.735473e-01 5.472739e-01 3.559068e-01 2.018512e-01
<GCONST> 1.229804e+02
<STATE> 4
<MEAN> 39
 -5.118401e+00 -4.301305e+00 8.116867e+00 -6.904202e+00 -1.616292e+01 -6.984549e+00 -9.441507e+00 -1.067111e+00 -7.850315e+00 -1.965427e+00 3.835596e-02 -4.559149e+00 5.990155e+01 -4.573406e-02 4.945485e-01 -4.561331e-02 4.063968e-01 3.401092e-01 3.121402e-02 4.027834e-02 -4.727698e-01 -1.317822e-01 -3.819558e-03 -9.449037e-02 8.016262e-02 -9.156803e-01 1.509682e-02 -2.575552e-02 -1.582171e-01 3.563562e-02 1.549394e-01 4.282443e-02 1.952455e-02 6.226120e-03 9.346474e-02 -3.599506e-02 -8.037928e-02 -1.845990e-02 -3.891678e-02
<VARIANCE> 39
 2.963452e+01 5.996189e+01 7.686855e+01 5.094492e+01 8.193795e+01 5.681311e+01 5.426724e+01 7.840359e+01 5.749093e+01 4.726838e+01 5.215239e+01 3.482779e+01 1.973678e+02 8.716477e-01 1.705801e+00 2.687353e+00 1.715752e+00 2.642280e+00 2.190959e+00 2.437004e+00 3.185874e+00 2.902377e+00 2.251968e+00 2.473509e+00 1.703608e+00 1.794764e+00 1.404215e-01 2.296431e-01 3.023386e-01 2.930168e-01 3.986326e-01 3.760755e-01 4.230525e-01 5.207790e-01 4.671870e-01 4.026160e-01 4.062037e-01 3.109721e-01 2.283506e-01
<GCONST> 1.200774e+02
<TRANSP> 5
 0.000000e+00 1.000000e+00 0.000000e+00 0.000000e+00 0.000000e+00
 0.000000e+00 7.155771e-01 2.844230e-01 0.000000e+00 0.000000e+00
 0.000000e+00 0.000000e+00 7.130905e-01 2.869094e-01 0.000000e+00
 0.000000e+00 0.000000e+00 0.000000e+00 8.631071e-01 1.368928e-01
 0.000000e+00 0.000000e+00 0.000000e+00 0.000000e+00 0.000000e+00
<ENDHMM>
~h "au"
<BEGINHMM>
<NUMSTATES> 5
<STATE> 2
<MEAN> 39
 -9.443613e-01 -8.847212e+00 -8.994978e+00 -1.692221e+01 -7.814832e+00 5.640035e+00 -1.166960e+01 -4.452688e+00 -5.018046e-01 -3.515864e-01 -2.035131e+00 -9.275496e+00 6.869281e+01 3.691579e-01 4.881768e-02 -3.154924e-01 -9.209258e-01 -2.110271e-02 9.810640e-01 -5.875075e-02 -1.786548e-01 -1.575120e-01 5.463595e-02 5.609013e-01 -7.712552e-02 1.871749e-01 -1.078274e-01 2.503769e-01 1.556561e-01 2.078398e-01 -4.741573e-02 -2.135863e-01 4.434163e-02 -6.610971e-02 -1.864937e-01 -5.240965e-02 4.644279e-02 2.334455e-01 -3.493455e-01
<VARIANCE> 39
 3.163060e+01 5.049804e+01 4.417759e+01 6.527115e+01 4.835110e+01 7.260126e+01 6.513821e+01 7.034988e+01 5.871763e+01 6.071467e+01 6.552595e+01 5.195338e+01 1.139463e+02 1.185177e+00 2.485640e+00 1.853331e+00 2.836720e+00 2.517627e+00 3.705029e+00 2.553991e+00 2.855099e+00 2.982616e+00 2.856453e+00 3.175686e+00 3.225829e+00 3.219690e+00 2.367107e-01 3.488770e-01 3.048590e-01 4.933497e-01 4.115318e-01 5.640748e-01 5.034564e-01 5.102630e-01 5.255913e-01 5.167066e-01 5.937881e-01 5.548344e-01 5.567243e-01
<GCONST> 1.270517e+02
<STATE> 3
<MEAN> 39
 6.027309e-02 -7.219670e+00 -9.228066e+00 -1.915142e+01 -8.611725e+00 7.409391e+00 -1.207884e+01 -4.945046e+00 -1.727986e+00 -4.886558e-01 -2.570710e-01 -8.384828e+00 6.809129e+01 2.686607e-01 5.867807e-01 4.437200e-02 -4.306695e-01 -2.510331e-01 3.021230e-01 -1.468944e-01 -1.285577e-01 -4.136924e-01 -9.227357e-02 4.486002e-01 3.376866e-01 -3.713974e-01 -3.915320e-02 1.330839e-01 1.158710e-01 2.027631e-01 -3.859197e-02 -2.274184e-01 -1.371120e-02 1.846552e-02 -5.186524e-02 -4.609111e-02 -8.478496e-02 8.939731e-02 -1.788753e-01
<VARIANCE> 39
 2.909850e+01 5.675624e+01 4.285975e+01 6.900117e+01 5.051008e+01 6.718420e+01 6.390801e+01 6.386955e+01 6.085331e+01 6.136830e+01 6.545940e+01 5.824813e+01 9.804039e+01 8.123180e-01 2.172207e+00 1.352808e+00 2.774629e+00 2.123631e+00 3.034069e+00 2.206449e+00 2.390287e+00 2.635636e+00 2.634197e+00 2.857395e+00 2.923351e+00 3.010518e+00 1.440621e-01 2.952597e-01 2.303579e-01 4.452461e-01 3.689541e-01 4.771828e-01 3.955345e-01 4.114146e-01 4.520179e-01 4.774976e-01 5.183336e-01 5.291740e-01 3.663820e-01
<GCONST> 1.223402e+02
<STATE> 4
<MEAN> 39
 8.012765e-02 -3.049893e+00 -8.072123e+00 -1.920502e+01 -9.760072e+00 6.432752e+00 -1.206497e+01 -4.571115e+00 -4.110028e+00 -2.206811e+00 2.966713e-02 -6.509319e+00 6.196995e+01 2.731409e-02 4.871660e-01 2.604852e-01 3.947577e-01 -1.058385e-01 -3.645463e-01 -5.914210e-02 -6.162070e-02 -2.702089e-01 -7.473081e-02 -1.122717e-02 2.414639e-01 -6.639713e-01 -4.817927e-02 -4.257018e-02 5.291410e-02 1.776489e-01 5.460820e-02 -9.848203e-02 2.445955e-02 -1.459338e-02 2.467030e-02 -1.374127e-03 -6.921171e-02 -2.414986e-02 -3.174248e-02
<VARIANCE> 39
 3.795271e+01 7.090984e+01 4.319288e+01 8.542690e+01 6.006124e+01 7.070142e+01 5.847077e+01 5.013848e+01 5.825747e+01 5.323947e+01 5.121230e+01 5.260365e+01 1.614675e+02 9.052509e-01 2.100920e+00 1.364123e+00 3.268323e+00 2.292682e+00 2.688232e+00 2.177051e+00 2.235394e+00 2.393744e+00 2.387932e+00 2.535258e+00 2.561951e+00 2.626712e+00 1.335755e-01 2.711141e-01 2.200301e-01 4.183469e-01 3.767527e-01 4.200158e-01 3.715009e-01 3.843925e-01 3.995091e-01 4.231557e-01 4.387688e-01 4.373845e-01 3.062717e-01
<GCONST> 1.211617e+02
<TRANSP> 5
 0.000000e+00 1.000000e+00 0.000000e+00 0.000000e+00 0.000000e+00
 0.000000e+00 6.650321e-01 3.349678e-01 0.000000e+00 0.000000e+00
 0.000000e+00 0.000000e+00 6.971422e-01 3.028578e-01 0.000000e+00
 0.000000e+00 0.000000e+00 0.000000e+00 9.131752e-01 8.682486e-02
 0.000000e+00 0.000000e+00 0.000000e+00 0.000000e+00 0.000000e+00
<ENDHMM>
~h "kh"
<BEGINHMM>
<NUMSTATES> 5
<STATE> 2
<MEAN> 39
 -1.054412e+01 -6.149535e+00 -4.370669e+00 -6.528367e+00 -2.062229e+00 -1.595021e+00 -7.893327e+00 -2.066804e+00 -3.187172e+00 -8.334642e-01 -2.894985e+00 -3.308081e+00 5.737425e+01 -8.234988e-01 -3.061263e-01 -4.269474e-01 -9.877976e-02 5.239854e-01 -1.047622e-01 -1.008794e-01 2.791514e-01 1.159309e-01 2.871130e-01 8.473462e-02 2.640202e-01 -1.507204e-01 1.512026e-01 9.854619e-03 4.705341e-02 -8.530161e-02 -2.132669e-01 4.742049e-02 -4.671573e-02 -7.202771e-02 -1.272776e-02 -3.904027e-02 8.801080e-03 -6.512451e-02 8.581106e-02
<VARIANCE> 39
 5.114473e+01 5.339391e+01 7.781481e+01 5.105446e+01 8.516544e+01 6.400093e+01 5.660409e+01 4.444617e+01 5.586906e+01 4.320968e+01 4.064363e+01 3.490028e+01 1.311232e+02 2.880274e+00 3.320573e+00 3.711657e+00 3.006366e+00 5.256965e+00 4.072764e+00 3.972542e+00 3.436313e+00 3.370552e+00 3.403048e+00 3.002513e+00 2.651799e+00 4.504612e+00 3.940135e-01 5.870618e-01 5.500706e-01 4.790951e-01 8.316704e-01 7.100357e-01 6.971675e-01 6.112525e-01 6.327801e-01 6.451860e-01 5.138416e-01 4.607862e-01 5.152752e-01
<GCONST> 1.334238e+02
<STATE> 3
<MEAN> 39
 -1.215290e+01 -7.014925e+00 -5.279178e+00 -7.065441e+00 -1.558307e+00 -1.746249e+00 -8.112223e+00 -1.475435e+00 -2.903265e+00 -3.257136e-01 -2.681432e+00 -2.876136e+00 5.739656e+01 -2.692042e-01 -1.245702e-01 -1.373823e-01 -2.417404e-01 -4.391186e-02 4.784196e-02 -7.616575e-03 1.134996e-01 -1.401268e-02 9.466396e-02 7.105892e-02 9.376778e-02 -3.707296e-03 2.622117e-01 1.027127e-01 1.398510e-01 -2.768754e-02 -2.070640e-01 4.242531e-02 1.820308e-03 -7.237781e-02 -7.870923e-02 -8.180234e-02 1.149481e-02 -7.355145e-02 7.789883e-02
<VARIANCE> 39
 5.600373e+01 5.231227e+01 8.101682e+01 4.914013e+01 8.205254e+01 5.815881e+01 5.433240e+01 4.186660e+01 5.907919e+01 4.327853e+01 3.728243e+01 3.303636e+01 1.182859e+02 3.112985e+00 2.785450e+00 3.641824e+00 2.878754e+00 4.369913e+00 3.569857e+00 3.642240e+00 3.280114e+00 3.341964e+00 3.388633e+00 2.722182e+00 2.299819e+00 3.378853e+00 4.180690e-01 4.871123e-01 5.675471e-01 4.723363e-01 7.155880e-01 6.434666e-01 6.957067e-01 5.797052e-01 6.295839e-01 6.412927e-01 4.961377e-01 4.190100e-01 4.504659e-01
<GCONST> 1.312348e+02
<STATE> 4
<MEAN> 39
 -1.317914e+01 -6.968653e+00 -6.050445e+00 -6.544530e+00 -1.633154e+00 -1.020156e+00 -6.846463e+00 -1.713693e+00 -2.458477e+00 -1.126055e+00 -1.911536e+00 -2.382176e+00 5.208353e+01 4.106606e-01 1.682074e-01 1.686196e-01 -1.024615e-01 -3.737711e-01 1.393875e-01 -5.426380e-03 -1.036187e-01 -2.057724e-01 -1.029010e-01 9.711640e-02 -9.921168e-02 1.429967e-01 2.153998e-01 6.459254e-02 1.024507e-01 2.611641e-03 -1.341972e-01 1.511628e-02 -7.515263e-02 -4.722747e-02 -8.014113e-02 -4.641075e-02 2.036232e-02 -6.441529e-02 1.206918e-01
<VARIANCE> 39
 5.154417e+01 5.875089e+01 6.799461e+01 4.631611e+01 6.299928e+01 4.647927e+01 4.574943e+01 3.830213e+01 5.012068e+01 3.638247e+01 3.151260e+01 2.809073e+01 1.847734e+02 2.853018e+00 2.259770e+00 2.755183e+00 2.243286e+00 2.900468e+00 2.397116e+00 2.810321e+00 2.654104e+00 2.779974e+00 2.680871e+00 2.226697e+00 1.803577e+00 2.417636e+00 3.825321e-01 3.775872e-01 4.259024e-01 4.023383e-01 4.616264e-01 4.195010e-01 5.251139e-01 4.803764e-01 5.116693e-01 4.849156e-01 4.091018e-01 3.216556e-01 3.227804e-01
<GCONST> 1.233568e+02
<TRANSP> 5
 0.000000e+00 1.000000e+00 0.000000e+00 0.000000e+00 0.000000e+00
 0.000000e+00 5.866431e-01 4.133569e-01 0.000000e+00 0.000000e+00
 0.000000e+00 0.000000e+00 5.977275e-01 4.022725e-01 0.000000e+00
 0.000000e+00 0.000000e+00 0.000000e+00 8.172149e-01 1.827850e-01
 0.000000e+00 0.000000e+00 0.000000e+00 0.000000e+00 0.000000e+00
<ENDHMM>
~h "ng"
<BEGINHMM>
<NUMSTATES> 5
<STATE> 2
<MEAN> 39
 6.590583e-01 -4.573000e+00 6.661626e-02 -7.692430e+00 -1.193964e+01 6.768962e-01 -9.769773e+00 -6.480589e+00 -6.470941e+00 -1.613986e+00 -3.489004e+00 -8.347928e+00 6.393190e+01 2.150896e-01 4.271326e-01 5.237061e-01 3.379271e-01 -4.263490e-01 2.239136e-02 2.715426e-01 -5.675169e-01 -4.072555e-01 3.149697e-01 -2.764561e-01 2.385384e-01 -4.373947e-01 -8.699822e-02 -4.214679e-02 -9.704188e-03 -2.253416e-02 4.078626e-02 -3.000353e-02 -1.711211e-02 9.463753e-02 5.772568e-02 -7.710796e-02 -2.810149e-03 8.113507e-02 -7.493054e-04
<VARIANCE> 39
