~o
<STREAMINFO> 1 39
<VECSIZE> 39<NULLD><MFCC_D_A_0><DIAGC>
~s "silst"
<MEAN> 39
 -1.161309e+01 -2.270140e+00 -2.831073e+00 -2.423620e+00 -3.990356e+00 -3.374511e+00 -5.288667e+00 -2.861746e+00 -4.242077e+00 -3.461112e+00 -3.084852e+00 -1.844484e+00 3.951943e+01 -1.186534e-01 -6.104976e-02 6.615589e-03 4.196749e-02 -2.634268e-02 -3.745246e-02 2.573097e-02 3.391803e-02 -2.394771e-02 -3.638468e-02 4.757562e-02 6.374697e-02 -9.011587e-02 7.897355e-02 3.651424e-02 2.184802e-02 -2.900478e-02 -1.130769e-02 1.387823e-02 -2.862053e-02 -2.514465e-02 -5.115194e-03 -7.172605e-03 7.466970e-03 -3.691381e-02 8.189949e-02
<VARIANCE> 39
 2.591486e+01 3.541097e+01 3.507977e+01 4.037233e+01 3.397362e+01 3.903865e+01 3.845808e+01 4.742941e+01 3.531639e+01 3.571243e+01 3.028251e+01 2.621717e+01 6.201503e+01 1.794223e+00 2.651935e+00 2.381936e+00 2.745403e+00 2.731878e+00 2.896671e+00 2.774976e+00 3.389518e+00 2.773665e+00 2.766222e+00 2.412077e+00 2.158836e+00 3.189393e+00 3.111933e-01 4.738399e-01 4.287128e-01 5.267412e-01 5.351304e-01 5.539476e-01 5.515206e-01 6.474033e-01 5.473654e-01 5.420781e-01 4.713048e-01 4.214076e-01 5.107729e-01
<GCONST> 1.218418e+02
~h "@"
<BEGINHMM>
<NUMSTATES> 5
<STATE> 2
<MEAN> 39
 -3.256114e+00 -1.194122e+01 4.079634e+00 -7.594110e+00 -1.869044e+01 -9.718606e+00 -9.932795e+00 5.365209e+00 -4.387246e+00 -2.879882e+00 -5.851366e-03 -5.711673e+00 6.780239e+01 2.931526e-01 -1.288553e+00 1.073024e+00 -1.003982e+00 -1.979206e+00 -2.949243e-01 7.702569e-01 1.751248e+00 -4.765843e-01 -1.586307e-01 6.626402e-01 -1.571187e-01 2.140864e+00 -2.701923e-01 5.579796e-01 -1.452694e-01 1.154820e-01 4.767310e-01 3.053332e-01 2.750368e-01 -6.366221e-01 -8.922678e-02 1.458413e-01 -3.466817e-02 2.404185e-02 -6.788193e-01
<VARIANCE> 39
 2.416645e+01 4.466653e+01 6.219647e+01 4.552755e+01 5.743466e+01 5.377416e+01 7.282854e+01 7.403977e+01 6.895903e+01 5.222320e+01 5.929176e+01 3.680473e+01 1.013529e+02 3.133161e+00 3.930265e+00 3.265518e+00 3.231028e+00 4.991648e+00 3.705412e+00 5.048943e+00 6.093482e+00 5.109232e+00 4.319334e+00 3.844784e+00 2.845286e+00 7.797263e+00 6.041422e-01 6.514022e-01 4.932285e-01 5.314106e-01 8.656318e-01 6.347785e-01 8.245959e-01 1.022133e+00 9.059755e-01 6.535572e-01 6.994256e-01 4.958891e-01 1.411903e+00
<GCONST> 1.382058e+02
<STATE> 3
<MEAN> 39
 -3.367146e+00 -1.258341e+01 7.200442e+00 -9.949512e+00 -2.225282e+01 -9.646649e+00 -8.015450e+00 6.500406e+00 -6.411401e+00 -1.522290e+00 2.271959e+00 -6.373649e+00 7.204954e+01 3.910286e-02 3.222571e-01 -5.314648e-02 1.486914e-01 2.592941e-01 -3.572914e-02 1.623639e-01 -2.416051e-01 -4.516954e-02 6.572068e-02 -1.514683e-01 -6.447349e-02 -3.776416e-01 4.478772e-02 2.139099e-01 -1.414802e-01 2.217204e-01 3.318430e-01 1.374763e-02 -1.425326e-01 -2.417711e-01 8.167103e-02 -1.834726e-02 -1.718192e-01 1.464047e-02 -3.683783e-01
<VARIANCE> 39
 1.170654e+01 3.003177e+01 6.092444e+01 3.739497e+01 4.062042e+01 5.125171e+01 6.354964e+01 6.584458e+01 6.306119e+01 5.425787e+01 5.477047e+01 3.612500e+01 2.528976e+01 4.824263e-01 1.086490e+00 1.183543e+00 1.271288e+00 1.593944e+00 1.344352e+00 1.991301e+00 1.888446e+00 1.836704e+00 1.540158e+00 1.533281e+00 1.038345e+00 1.663769e+00 1.048427e-01 1.892074e-01 1.860666e-01 2.113200e-01 3.059359e-01 2.729145e-01 3.841673e-01 3.827964e-01 3.310731e-01 3.134661e-01 2.741680e-01 2.058403e-01 2.169552e-01
<GCONST> 1.058482e+02
<STATE> 4
<MEAN> 39
 -5.914674e+00 -4.945148e+00 4.254828e+00 -5.290533e+00 -1.620648e+01 -9.233176e+00 -6.375419e+00 -1.607948e+00 -5.308881e+00 -2.950617e+00 9.455429e-02 -4.479604e+00 5.717256e+01 -4.438544e-02 5.535240e-01 -3.314857e-01 4.163597e-01 7.325409e-01 1.948985e-01 -4.475756e-02 -4.465166e-01 1.168606e-01 -6.806710e-02 -3.491729e-01 5.324533e-02 -1.174306e+00 -1.784997e-02 3.193334e-02 -9.000986e-03 2.913952e-02 1.086525e-01 7.367864e-02 -3.001656e-02 -5.901274e-02 -1.310647e-02 4.474011e-02 -3.056106e-03 -1.928707e-03 -3.062483e-02
<VARIANCE> 39
 2.599468e+01 4.230936e+01 6.968905e+01 3.821695e+01 7.584636e+01 5.578871e+01 5.192305e+01 6.416628e+01 5.197102e+01 4.338449e+01 4.561156e+01 3.153262e+01 2.130705e+02 7.401500e-01 1.413519e+00 1.291078e+00 1.473159e+00 2.104447e+00 1.790535e+00 2.356769e+00 2.219714e+00 2.058012e+00 1.853540e+00 1.868890e+00 1.520924e+00 2.143712e+00 1.349107e-01 2.526914e-01 2.047412e-01 2.628183e-01 3.436641e-01 3.376786e-01 3.984668e-01 4.771516e-01 3.972035e-01 3.530421e-01 3.290819e-01 2.695471e-01 2.708851e-01
<GCONST> 1.143901e+02
<TRANSP> 5
 0.000000e+00 1.000000e+00 0.000000e+00 0.000000e+00 0.000000e+00
 0.000000e+00 6.419367e-01 3.580633e-01 0.000000e+00 0.000000e+00
 0.000000e+00 0.000000e+00 8.398449e-01 1.601551e-01 0.000000e+00
 0.000000e+00 0.000000e+00 0.000000e+00 7.557579e-01 2.442420e-01
 0.000000e+00 0.000000e+00 0.000000e+00 0.000000e+00 0.000000e+00
<ENDHMM>
~h "a"
<BEGINHMM>
<NUMSTATES> 5
<STATE> 2
<MEAN> 39
 -1.028723e+00 -1.313087e+01 -6.247185e+00 -1.229723e+01 -8.559870e+00 -6.777091e-02 -1.161979e+01 1.855695e+00 1.704378e+00 -3.036911e+00 -4.922915e+00 -1.038882e+01 7.162572e+01 3.957005e-01 -1.866179e+00 -1.140105e+00 -7.021919e-01 1.008408e+00 1.200417e+00 3.506062e-01 9.105411e-01 8.665481e-01 -8.741715e-01 -1.126958e+00 -1.220029e+00 1.575365e+00 -3.687157e-01 5.152411e-01 3.327907e-01 5.305564e-01 2.210302e-01 -2.468987e-01 1.403280e-01 -5.124696e-01 -4.392307e-01 -1.682228e-02 7.415740e-02 4.559471e-01 -7.371310e-01
<VARIANCE> 39
 1.718944e+01 3.273357e+01 5.096667e+01 4.893025e+01 6.600545e+01 8.282297e+01 6.064070e+01 9.110321e+01 6.270511e+01 5.447820e+01 5.787185e+01 4.089560e+01 4.890929e+01 2.118835e+00 2.271180e+00 2.751025e+00 3.061173e+00 3.704801e+00 3.983033e+00 3.911345e+00 5.085890e+00 3.990891e+00 3.421727e+00 3.850884e+00 3.077535e+00 3.398602e+00 4.414584e-01 4.459145e-01 4.536355e-01 5.249743e-01 6.779422e-01 6.978683e-01 6.919645e-01 8.748216e-01 6.836867e-01 6.051824e-01 7.289613e-01 5.346087e-01 6.333927e-01
<GCONST> 1.319522e+02
<STATE> 3
<MEAN> 39
 -1.251474e+00 -1.603690e+01 -7.947100e+00 -1.247767e+01 -5.800017e+00 2.263937e+00 -1.085078e+01 1.380945e+00 1.998478e+00 -5.169902e+00 -6.698947e+00 -1.186617e+01 7.353670e+01 8.259993e-02 2.194054e-01 5.780796e-02 2.132375e-01 2.238921e-01 -2.360174e-01 2.154250e-02 -4.658337e-02 -1.481357e-01 4.005193e-02 -1.090106e-01 5.834766e-02 -3.468296e-01 5.472267e-02 4.962156e-01 2.714616e-01 1.913412e-01 -2.194380e-01 -2.704267e-01 -1.193527e-01 -1.736210e-01 -1.640240e-01 2.347913e-01 2.243159e-01 2.202549e-01 -4.664207e-01
<VARIANCE> 39
 1.270761e+01 2.650656e+01 4.302870e+01 3.948980e+01 4.664716e+01 6.439335e+01 5.615323e+01 7.941228e+01 5.859444e+01 5.187999e+01 4.784439e+01 3.860209e+01 2.050450e+01 4.476742e-01 1.214985e+00 1.071613e+00 1.219768e+00 1.922682e+00 2.467237e+00 1.932786e+00 2.497166e+00 1.812953e+00 2.014652e+00 2.071030e+00 1.640048e+00 8.685930e-01 9.742911e-02 1.977970e-01 1.854208e-01 2.555046e-01 3.072750e-01 3.266864e-01 3.723063e-01 4.704848e-01 3.864872e-01 3.563100e-01 3.838097e-01 3.214770e-01 1.848148e-01
<GCONST> 1.082706e+02
<STATE> 4
<MEAN> 39
 -1.806747e+00 -1.017820e+01 -7.590914e+00 -8.916261e+00 -4.440433e+00 -1.439022e+00 -9.292670e+00 -2.011171e-01 7.869998e-01 -4.221539e+00 -7.178700e+00 -9.203679e+00 6.303997e+01 -1.920264e-02 1.245948e+00 5.539412e-01 8.582814e-01 -1.724078e-01 -4.741403e-01 -1.059148e-02 -4.377577e-01 -3.988472e-01 2.648409e-01 1.968371e-01 4.894705e-01 -2.018631e+00 -7.786619e-02 1.323061e-01 1.523616e-01 1.365127e-01 -2.507883e-02 2.692444e-02 5.297830e-02 -1.791987e-01 -1.041459e-01 2.342340e-03 2.791806e-02 8.055438e-02 -1.787300e-01
<VARIANCE> 39
 2.298445e+01 3.302355e+01 4.440608e+01 4.951118e+01 5.837215e+01 6.192265e+01 5.685079e+01 6.858845e+01 5.339053e+01 5.488073e+01 4.957698e+01 4.148647e+01 1.358755e+02 9.752159e-01 2.071111e+00 1.773356e+00 2.163539e+00 2.492780e+00 2.561507e+00 2.678748e+00 3.002731e+00 2.698911e+00 2.622526e+00 2.537848e+00 2.091054e+00 2.762142e+00 1.731097e-01 3.481075e-01 2.976344e-01 4.064366e-01 4.366013e-01 4.355336e-01 4.740248e-01 6.189321e-01 4.938664e-01 4.951842e-01 4.847800e-01 3.865052e-01 4.695559e-01
<GCONST> 1.219716e+02
<TRANSP> 5
 0.000000e+00 1.000000e+00 0.000000e+00 0.000000e+00 0.000000e+00
 0.000000e+00 5.473668e-01 4.526332e-01 0.000000e+00 0.000000e+00
 0.000000e+00 0.000000e+00 7.783968e-01 2.216032e-01 0.000000e+00
 0.000000e+00 0.000000e+00 0.000000e+00 6.392778e-01 3.607222e-01
 0.000000e+00 0.000000e+00 0.000000e+00 0.000000e+00 0.000000e+00
<ENDHMM>
~h "b"
<BEGINHMM>
<NUMSTATES> 5
<STATE> 2
<MEAN> 39
 4.389526e+00 5.566807e+00 3.533776e+00 -2.542222e+00 -6.576934e+00 1.733672e+00 -8.095101e+00 -9.657052e+00 -8.856988e+00 -2.928423e+00 -2.385886e+00 -7.016598e+00 4.962042e+01 7.008977e-01 1.515347e+00 5.340729e-01 4.965530e-01 5.376670e-01 2.760861e-01 8.647065e-01 -3.552289e-01 -3.336929e-01 -1.758403e-01 -3.740480e-01 -8.720451e-02 -1.231123e+00 -3.848097e-01 -5.283299e-01 -2.419914e-01 -3.159961e-01 -1.773269e-01 -2.347777e-01 -3.110918e-01 2.065549e-01 2.217470e-01 5.761098e-02 1.830883e-01 1.500127e-01 7.651753e-01
<VARIANCE> 39
 2.853345e+01 3.626447e+01 2.783282e+01 3.565051e+01 3.622331e+01 4.074534e+01 4.330640e+01 4.215532e+01 5.658118e+01 3.230148e+01 4.653302e+01 2.770224e+01 6.064663e+01 2.237081e+00 2.227544e+00 2.119569e+00 2.686467e+00 2.539701e+00 2.604030e+00 3.005503e+00 3.014655e+00 3.350043e+00 2.635374e+00 2.824506e+00 2.145983e+00 4.883016e+00 3.212152e-01 4.375634e-01 3.881525e-01 4.532624e-01 4.924280e-01 4.638823e-01 5.611385e-01 5.308134e-01 6.404611e-01 5.035301e-01 5.728790e-01 4.271998e-01 5.250446e-01
<GCONST> 1.225366e+02
<STATE> 3
<MEAN> 39
 4.831731e+00 7.395571e+00 3.893866e+00 -2.207750e+00 -5.578359e+00 2.122075e+00 -6.580895e+00 -1.032090e+01 -9.784314e+00 -3.583441e+00 -2.428553e+00 -6.032893e+00 4.967381e+01 -1.285113e+00 -2.014784e+00 -1.342895e+00 -1.125742e+00 -4.782299e-02 -9.949353e-01 -1.463951e+00 5.494508e-01 1.229137e+00 4.128365e-01 1.102216e+00 7.217916e-01 3.245445e+00 -3.875116e-01 -1.160921e+00 -4.739965e-01 -7.330726e-01 -6.800066e-01 -1.011716e-01 -8.145089e-01 3.544457e-01 5.448309e-01 3.551191e-01 3.270768e-01 -1.553179e-01 1.495822e+00
<VARIANCE> 39
 2.044118e+01 2.670910e+01 2.064161e+01 2.801115e+01 3.280283e+01 3.744414e+01 3.446168e+01 4.018978e+01 4.615712e+01 2.978547e+01 4.261736e+01 2.560396e+01 4.368502e+01 2.345408e+00 3.567039e+00 3.402255e+00 5.544591e+00 3.920542e+00 4.032679e+00 4.061136e+00 3.882679e+00 5.309740e+00 4.028156e+00 4.302876e+00 3.034431e+00 5.440976e+00 4.354882e-01 4.479311e-01 6.617846e-01 7.279866e-01 6.585659e-01 8.363258e-01 6.578213e-01 9.048688e-01 1.168527e+00 8.178396e-01 8.050893e-01 7.539659e-01 5.017022e-01
<GCONST> 1.298766e+02
<STATE> 4
<MEAN> 39
 -1.047271e-01 -2.316062e+00 -2.142815e+00 -7.759804e+00 -7.243434e+00 -9.951372e-01 -1.279301e+01 -8.164570e+00 -4.062274e+00 -2.229762e-01 1.539220e+00 -4.767613e+00 6.293484e+01 -9.722400e-01 -3.309551e+00 -1.542797e+00 -2.429569e+00 -1.643424e+00 -2.209496e-01 -2.232535e+00 1.324916e+00 2.060059e+00 1.022409e+00 8.002993e-01 -7.130477e-01 4.749588e+00 2.934269e-01 3.079848e-01 4.561767e-01 1.369325e-01 -3.238907e-01 3.985822e-01 3.193461e-01 1.701136e-01 -1.807056e-01 -2.912636e-01 -4.960617e-01 -4.213986e-01 -5.009086e-01
<VARIANCE> 39
 2.513124e+01 3.180264e+01 3.605827e+01 9.186617e+01 3.479574e+01 5.820791e+01 3.988786e+01 3.817599e+01 4.040644e+01 4.503125e+01 4.291873e+01 3.275999e+01 6.611417e+01 2.527434e+00 3.857169e+00 6.616584e+00 7.328839e+00 5.492503e+00 6.752983e+00 5.182208e+00 7.052688e+00 1.020268e+01 6.570794e+00 6.611943e+00 6.643745e+00 4.672471e+00 4.540482e-01 6.187595e-01 4.917316e-01 1.352604e+00 1.122125e+00 8.765947e-01 9.087997e-01 8.105804e-01 9.248380e-01 9.034812e-01 1.157363e+00 7.303422e-01 8.287408e-01
<GCONST> 1.407193e+02
<TRANSP> 5
 0.000000e+00 1.000000e+00 0.000000e+00 0.000000e+00 0.000000e+00
 0.000000e+00 7.479495e-01 2.520505e-01 0.000000e+00 0.000000e+00
 0.000000e+00 0.000000e+00 5.034473e-01 4.965528e-01 0.000000e+00
 0.000000e+00 0.000000e+00 0.000000e+00 3.800155e-01 6.199846e-01
 0.000000e+00 0.000000e+00 0.000000e+00 0.000000e+00 0.000000e+00
<ENDHMM>
~h "c"
<BEGINHMM>
<NUMSTATES> 5
<STATE> 2
<MEAN> 39
 -7.267110e+00 2.906121e+00 1.603933e+00 -1.754430e+00 -7.770198e+00 -8.549400e+00 -8.349423e+00 -3.621737e+00 -3.895045e+00 -4.079705e+00 -3.869909e+00 -2.761572e+00 4.739806e+01 -1.717869e+00 -4.157672e-02 -7.299446e-01 -3.948520e-01 8.067327e-01 9.442861e-02 4.299079e-01 -2.236615e-01 1.596679e-01 1.512368e-01 1.176759e-01 1.055524e-01 -1.249717e+00 -5.573984e-01 -4.197531e-01 -2.093062e-01 -4.169360e-01 -4.909661e-02 1.365249e-01 -8.269613e-02 4.811228e-02 2.157773e-02 8.373072e-02 1.769205e-01 5.042716e-02 1.115205e+00
<VARIANCE> 39
 3.715807e+01 3.647203e+01 4.410831e+01 2.853615e+01 4.316139e+01 4.421061e+01 4.611364e+01 4.670683e+01 4.167379e+01 2.993508e+01 2.895845e+01 2.746533e+01 1.150521e+02 4.721024e+00 5.057057e+00 3.147130e+00 3.412652e+00 4.072085e+00 3.114710e+00 3.717318e+00 3.432813e+00 3.124137e+00 2.708365e+00 2.620215e+00 2.649317e+00 1.243491e+01 7.419143e-01 7.229071e-01 5.513633e-01 5.225096e-01 7.934520e-01 6.296177e-01 7.208813e-01 6.258690e-01 5.974209e-01 5.162167e-01 4.810033e-01 5.777752e-01 1.600597e+00
<GCONST> 1.316920e+02
<STATE> 3
<MEAN> 39
 -2.404812e+01 -8.837885e-01 -3.421572e+00 -8.579918e+00 -3.761534e+00 -6.020983e+00 -6.635552e+00 -4.114006e+00 -3.460595e+00 -1.903701e+00 -7.037182e-01 -6.340290e-01 5.864007e+01 -2.166288e+00 -1.389482e-01 1.686703e-01 -1.002146e+00 -5.921663e-01 -1.339471e-01 1.267679e-01 4.483068e-01 2.934615e-01 6.941719e-02 3.889886e-01 5.671338e-01 4.352783e+00 1.903751e+00 6.195079e-02 7.003050e-01 5.437019e-01 -7.759858e-01 -2.711028e-01 -3.575155e-01 1.881116e-01 9.470362e-02 -2.851439e-01 -3.435379e-01 -2.625374e-01 -3.473496e-01
<VARIANCE> 39
 3.688583e+01 2.842328e+01 3.010444e+01 2.644054e+01 2.690228e+01 3.443215e+01 3.270219e+01 2.501943e+01 2.274859e+01 1.978327e+01 1.845520e+01 1.482783e+01 6.896352e+01 1.134619e+01 3.226924e+00 4.925311e+00 3.879294e+00 4.439947e+00 3.872166e+00 3.837045e+00 3.763781e+00 3.147035e+00 2.464107e+00 2.633176e+00 1.842332e+00 6.434548e+00 1.655851e+00 9.064298e-01 7.703171e-01 7.016639e-01 7.985780e-01 7.756658e-01 7.921714e-01 8.687371e-01 8.059694e-01 5.301852e-01 5.259334e-01 4.632513e-01 1.117274e+00
<GCONST> 1.291459e+02
<STATE> 4
<MEAN> 39
 -1.445411e+01 -2.179698e+00 1.667714e+00 -6.905270e+00 -1.070013e+01 -9.006543e+00 -9.688531e+00 -4.881933e-01 -1.361508e+00 -4.264586e+00 -2.713183e+00 -1.020105e+00 6.742306e+01 5.326787e+00 -2.009690e+00 8.365318e-01 2.685742e-01 -1.978535e+00 -3.378690e-01 -1.823727e+00 9.935023e-01 8.953372e-01 -5.163860e-01 -7.154573e-01 -1.299357e+00 2.150304e+00 4.411858e-01 -4.403081e-01 -5.582466e-01 -2.268062e-01 3.925703e-01 6.077673e-01 -7.560407e-02 -2.264464e-01 -6.932545e-02 1.909620e-01 1.228737e-01 -4.593375e-01 -5.422952e-01
<VARIANCE> 39
 9.577894e+01 3.879301e+01 3.659724e+01 3.073394e+01 4.421962e+01 4.073418e+01 5.033288e+01 4.574956e+01 3.849914e+01 2.594948e+01 2.874070e+01 2.103539e+01 3.979496e+01 4.163966e+00 5.615998e+00 5.928881e+00 4.482422e+00 5.261309e+00 5.428343e+00 4.823815e+00 7.461043e+00 5.942124e+00 3.829106e+00 3.527673e+00 2.787513e+00 2.023986e+00 2.894844e+00 7.128522e-01 6.187925e-01 6.510503e-01 9.656510e-01 8.771975e-01 1.059345e+00 9.233067e-01 7.386909e-01 5.831351e-01 5.890074e-01 4.348501e-01 5.146954e-01
<GCONST> 1.353976e+02
<TRANSP> 5
 0.000000e+00 1.000000e+00 0.000000e+00 0.000000e+00 0.000000e+00
 0.000000e+00 8.249282e-01 1.750718e-01 0.000000e+00 0.000000e+00
 0.000000e+00 0.000000e+00 7.079246e-01 2.920754e-01 0.000000e+00
 0.000000e+00 0.000000e+00 0.000000e+00 6.391485e-01 3.608515e-01
 0.000000e+00 0.000000e+00 0.000000e+00 0.000000e+00 0.000000e+00
<ENDHMM>
~h "d"
<BEGINHMM>
<NUMSTATES> 5
<STATE> 2
<MEAN> 39
 2.169015e+00 1.949873e+00 6.071244e+00 1.934057e+00 -9.260852e+00 -6.120922e+00 -1.211296e+01 -4.248075e+00 -1.873816e+00 -3.938770e+00 -6.910242e+00 -6.440074e+00 5.145791e+01 8.663065e-01 1.358749e+00 8.411157e-01 1.013333e+00 7.487576e-01 -3.489312e-01 1.207512e-01 -6.100136e-02 2.269381e-01 -2.236385e-01 -6.770800e-01 -2.637723e-01 -1.313917e+00 -4.790529e-01 -5.627611e-01 -1.527431e-01 -5.552718e-01 -1.199687e-01 4.978954e-02 -5.554937e-02 1.509876e-01 -1.635864e-01 5.312872e-03 3.629070e-01 2.151052e-01 8.045365e-01
<VARIANCE> 39
 3.250237e+01 5.212833e+01 3.958806e+01 3.413423e+01 5.446462e+01 4.091960e+01 5.606324e+01 8.121452e+01 5.364269e+01 4.061341e+01 4.374801e+01 3.422459e+01 9.029667e+01 2.768874e+00 3.276979e+00 2.562194e+00 3.151453e+00 3.943854e+00 2.911866e+00 3.757845e+00 5.049997e+00 3.667510e+00 3.033012e+00 3.353930e+00 2.569396e+00 6.562069e+00 5.033773e-01 7.291773e-01 4.084070e-01 5.674635e-01 8.763009e-01 6.019043e-01 7.300097e-01 9.726059e-01 7.677413e-01 6.595094e-01 7.114280e-01 5.717853e-01 9.585518e-01
<GCONST> 1.330083e+02
<STATE> 3
<MEAN> 39
 1.950487e+00 2.972360e+00 7.989256e+00 2.565486e+00 -7.000025e+00 -6.273029e+00 -1.170971e+01 -3.885869e+00 -2.740438e+00 -4.488759e+00 -6.950068e+00 -5.953374e+00 5.172950e+01 -2.052204e+00 -2.545524e+00 1.116157e-01 -1.904032e+00 -5.821255e-01 -3.827491e-01 -7.538007e-01 9.075297e-01 -6.446912e-01 -1.365885e-01 1.709026e+00 1.363422e+00 3.860816e+00 -3.898457e-01 -8.069676e-01 -2.456935e-01 -7.206718e-01 -1.047434e+00 3.105070e-03 -3.961497e-01 1.698078e-01 -9.172083e-02 1.462912e-01 6.262010e-01 1.204337e-01 1.410747e+00
<VARIANCE> 39
 2.999011e+01 3.557110e+01 3.051348e+01 3.097316e+01 4.089680e+01 3.656521e+01 4.667030e+01 5.753622e+01 4.617468e+01 3.595134e+01 3.409008e+01 3.087667e+01 5.947514e+01 2.364712e+00 3.370740e+00 4.059613e+00 3.839920e+00 5.945097e+00 4.290728e+00 5.145271e+00 7.969142e+00 6.453540e+00 4.265803e+00 3.983994e+00 3.114047e+00 5.161459e+00 6.270721e-01 6.836962e-01 6.949018e-01 7.719769e-01 8.581446e-01 7.110345e-01 8.803594e-01 1.419137e+00 1.137619e+00 7.697661e-01 7.967997e-01 6.906571e-01 7.494536e-01
<GCONST> 1.356559e+02
<STATE> 4
<MEAN> 39
 -3.714456e+00 -7.214424e+00 5.592832e+00 -5.441889e+00 -1.354396e+01 -8.388884e+00 -1.577512e+01 7.197663e-01 -2.136365e+00 -3.887744e+00 -8.928673e-01 -1.673660e+00 6.740156e+01 -7.732235e-01 -2.243889e+00 -9.564549e-01 -2.156618e+00 -2.510940e+00 -4.436703e-02 -9.342960e-01 1.576250e+00 5.541166e-01 2.637660e-01 1.306288e+00 -1.487106e-01 4.157383e+00 5.531781e-01 6.949385e-01 -1.529704e-01 3.760653e-01 2.128496e-01 4.841377e-01 4.095793e-01 -3.463809e-01 6.106801e-02 3.093621e-02 -5.798028e-01 -7.077479e-01 -9.360657e-01
<VARIANCE> 39
 1.894563e+01 2.833539e+01 4.545728e+01 4.501086e+01 6.798193e+01 4.635596e+01 7.416341e+01 7.691814e+01 7.400370e+01 3.317479e+01 3.441676e+01 2.713133e+01 4.762486e+01 3.013756e+00 3.561129e+00 6.486000e+00 4.891746e+00 6.336898e+00 4.621198e+00 6.879016e+00 1.059513e+01 9.471734e+00 4.786208e+00 6.591294e+00 4.263845e+00 4.996444e+00 3.107378e-01 4.763226e-01 5.141243e-01 7.508737e-01 1.705747e+00 7.642362e-01 1.326336e+00 1.197665e+00 1.094498e+00 7.975285e-01 8.766645e-01 5.988443e-01 5.944976e-01
<GCONST> 1.396200e+02
<TRANSP> 5
 0.000000e+00 1.000000e+00 0.000000e+00 0.000000e+00 0.000000e+00
 0.000000e+00 7.200584e-01 2.799416e-01 0.000000e+00 0.000000e+00
 0.000000e+00 0.000000e+00 5.124641e-01 4.875359e-01 0.000000e+00
 0.000000e+00 0.000000e+00 0.000000e+00 4.615888e-01 5.384112e-01
 0.000000e+00 0.000000e+00 0.000000e+00 0.000000e+00 0.000000e+00
<ENDHMM>
~h "e"
<BEGINHMM>
<NUMSTATES> 5
<STATE> 2
<MEAN> 39
 -9.794725e-01 -4.836714e+00 -2.607036e+00 -8.959047e+00 -9.916862e+00 -3.324383e+00 -1.510260e+01 -4.808367e+00 -2.282529e+00 1.844376e-01 -6.799451e-01 -6.803646e+00 6.656709e+01 2.237182e+00 -1.328149e+00 -1.748807e-01 -1.698467e+00 -1.331718e+00 7.623767e-01 -2.072422e+00 7.603551e-01 1.344761e+00 8.040760e-01 8.389716e-01 -1.556525e+00 2.537578e+00 -4.125996e-01 2.205325e-01 1.378821e-01 4.864374e-01 2.441088e-01 8.295552e-02 4.371162e-01 -6.835129e-02 -2.057944e-01 -1.422527e-01 -2.013287e-01 1.648496e-01 -9.639530e-01
<VARIANCE> 39
 2.779428e+01 3.245647e+01 4.880477e+01 6.761681e+01 4.935321e+01 8.159974e+01 6.352452e+01 6.799530e+01 6.744870e+01 4.672892e+01 5.568701e+01 3.611462e+01 6.222756e+01 6.138760e+00 3.205518e+00 5.782659e+00 5.188820e+00 5.710367e+00 6.021032e+00 6.240441e+00 8.264546e+00 7.828997e+00 5.044322e+00 5.247142e+00 4.107802e+00 4.115550e+00 7.577947e-01 5.997475e-01 7.429718e-01 9.746753e-01 7.571240e-01 8.391581e-01 9.181473e-01 9.608349e-01 9.206197e-01 7.266907e-01 9.608042e-01 6.121693e-01 1.234781e+00
<GCONST> 1.426591e+02
<STATE> 3
<MEAN> 39
 5.638866e-01 -8.256281e+00 -3.279762e+00 -1.128986e+01 -1.120783e+01 -1.514784e+00 -1.791016e+01 -2.302805e+00 2.825138e-01 1.102889e+00 3.962553e-01 -9.263995e+00 7.015852e+01 6.621813e-01 -5.334332e-01 1.759312e-01 1.116153e-02 -3.966557e-01 2.962990e-01 -5.162513e-01 4.765198e-01 6.298390e-01 1.955780e-01 3.623698e-02 -5.660726e-01 3.113307e-01 -5.553077e-01 7.398835e-01 3.400625e-01 9.513857e-01 4.441261e-01 -2.895842e-01 8.899132e-01 -5.613844e-01 -6.785374e-01 -3.315157e-01 -4.427729e-01 6.063555e-01 -1.284310e+00
<VARIANCE> 39
 1.679333e+01 3.190075e+01 5.358651e+01 6.692570e+01 5.230549e+01 8.600163e+01 6.668832e+01 8.384109e+01 7.590306e+01 5.836083e+01 6.219666e+01 4.610664e+01 2.818159e+01 2.020594e+00 2.375293e+00 2.485538e+00 4.298832e+00 3.658472e+00 5.072475e+00 3.785967e+00 6.113592e+00 5.762853e+00 3.892053e+00 4.156906e+00 3.027910e+00 2.696747e+00 6.144702e-01 5.187755e-01 8.766459e-01 9.091720e-01 9.964111e-01 9.614801e-01 1.040247e+00 1.263582e+00 1.236599e+00 9.621319e-01 1.034331e+00 7.405851e-01 5.720035e-01
<GCONST> 1.377262e+02
<STATE> 4
<MEAN> 39
 1.963031e-01 -6.784526e+00 -1.821594e+00 -9.817902e+00 -1.179168e+01 -3.240418e+00 -1.793834e+01 -2.580388e+00 -2.822627e-01 1.309638e+00 1.160665e-01 -8.921145e+00 6.804233e+01 1.081054e-01 7.668857e-01 4.237612e-01 9.922821e-01 2.488737e-01 -1.973798e-01 6.828767e-01 -5.934956e-01 -3.935583e-01 -2.744358e-01 -4.535811e-01 2.937098e-01 -1.333725e+00 -1.843983e-01 3.389025e-01 1.322597e-01 3.442977e-01 1.360832e-01 -7.820176e-02 3.353731e-01 -2.939449e-01 -2.737458e-01 -1.430656e-01 -1.740359e-01 2.307156e-01 -5.238550e-01
<VARIANCE> 39
 1.578441e+01 3.335863e+01 5.647536e+01 6.692031e+01 5.852990e+01 7.994527e+01 7.522800e+01 8.128968e+01 8.027831e+01 5.810398e+01 5.450403e+01 4.711633e+01 4.088072e+01 1.023469e+00 2.232410e+00 1.906383e+00 3.404372e+00 2.824694e+00 3.372777e+00 3.151242e+00 3.765748e+00 4.133379e+00 3.100000e+00 2.978609e+00 2.332280e+00 3.408135e+00 3.322557e-01 3.479746e-01 4.015717e-01 5.443980e-01 5.954746e-01 5.952839e-01 6.110803e-01 8.994862e-01 8.036707e-01 5.707635e-01 6.159601e-01 4.860340e-01 3.925840e-01
<GCONST> 1.282651e+02
<TRANSP> 5
 0.000000e+00 1.000000e+00 0.000000e+00 0.000000e+00 0.000000e+00
 0.000000e+00 2.403561e-01 7.596439e-01 0.000000e+00 0.000000e+00
 0.000000e+00 0.000000e+00 2.991444e-01 7.008556e-01 0.000000e+00
 0.000000e+00 0.000000e+00 0.000000e+00 5.606762e-01 4.393239e-01
 0.000000e+00 0.000000e+00 0.000000e+00 0.000000e+00 0.000000e+00
<ENDHMM>
~h "f"
<BEGINHMM>
<NUMSTATES> 5
<STATE> 2
<MEAN> 39
 -5.986065e+00 -1.066275e+00 -9.283204e-01 -2.764900e+00 -5.141540e+00 -2.489673e+00 -7.358522e+00 -3.661283e+00 -4.255835e+00 -1.881078e+00 -2.247376e+00 -3.641366e+00 5.999965e+01 -3.498543e+00 6.266400e-01 -3.585938e-01 1.576218e+00 1.447283e+00 -5.410221e-01 7.007486e-01 2.690216e-01 1.017069e+00 -1.319397e-01 -2.774671e-01 6.180575e-01 -1.445440e+00 -4.548448e-01 -6.438428e-01 -1.011982e-01 -3.304397e-01 -6.174157e-01 -1.404400e-01 -3.748196e-01 -2.090017e-02 -3.239201e-02 6.083083e-02 1.203729e-01 -5.432274e-02 2.400081e-01
<VARIANCE> 39
 5.051406e+01 2.488037e+01 4.114857e+01 5.249724e+01 3.929813e+01 6.464136e+01 3.554098e+01 4.144526e+01 3.937049e+01 2.876644e+01 3.478569e+01 2.656882e+01 6.303589e+01 2.954600e+00 4.465762e+00 4.099381e+00 4.516941e+00 6.279646e+00 5.440130e+00 4.243927e+00 5.131473e+00 4.436838e+00 3.737972e+00 3.945354e+00 2.773765e+00 2.420405e+00 7.897736e-01 4.631210e-01 4.363691e-01 7.082823e-01 7.501127e-01 7.127603e-01 6.581456e-01 7.182894e-01 8.080168e-01 5.637068e-01 5.959044e-01 4.131987e-01 2.516340e-01
<GCONST> 1.307041e+02
<STATE> 3
<MEAN> 39
 -1.979385e+01 -5.454218e+00 -4.329797e+00 -9.999826e-01 -5.217348e+00 -5.163097e+00 -8.459926e+00 -3.043746e+00 -2.048292e+00 -1.395095e+00 -1.610393e+00 -1.604438e+00 5.776476e+01 -7.202592e-01 -6.582808e-01 -4.384570e-01 -1.390914e-01 -1.393699e-01 -1.459341e-01 -1.009110e-01 1.774341e-02 5.920561e-02 5.485157e-02 8.443911e-02 9.106327e-02 -1.740455e-01 8.182111e-01 1.081933e-01 1.379839e-01 -1.882958e-01 -9.544422e-02 1.481557e-01 2.554890e-02 -2.708308e-02 -1.473785e-01 -3.607358e-02 8.190905e-03 -1.438164e-01 1.913390e-01
<VARIANCE> 39
 2.230547e+01 1.867181e+01 2.460888e+01 1.979311e+01 2.127032e+01 2.737191e+01 2.435680e+01 2.328578e+01 2.024925e+01 1.847608e+01 1.892083e+01 1.685061e+01 3.922536e+01 3.056715e+00 1.334367e+00 1.772362e+00 1.679990e+00 1.810802e+00 2.135744e+00 1.951550e+00 1.891217e+00 1.911454e+00 1.721911e+00 1.557951e+00 1.475493e+00 1.348492e+00 5.034050e-01 3.203126e-01 3.833302e-01 4.479677e-01 5.015525e-01 4.795982e-01 4.302879e-01 4.497282e-01 4.914208e-01 4.141462e-01 3.584771e-01 3.488981e-01 2.438188e-01
<GCONST> 1.077054e+02
<STATE> 4
<MEAN> 39
 -1.531807e+01 -5.463934e+00 -6.411138e+00 -3.547641e+00 -5.466320e+00 -4.469430e+00 -7.350952e+00 -3.868198e+00 -3.550310e+00 -2.636747e+00 -2.074576e+00 -2.446966e+00 4.753154e+01 1.742083e+00 1.841906e-01 1.843052e-01 -5.539565e-01 -4.092112e-01 2.827535e-01 -1.085008e-01 -9.840571e-02 -2.571245e-01 -1.378133e-01 4.921098e-02 -3.893568e-01 6.021565e-01 3.326486e-01 3.569051e-02 1.228631e-01 -1.502573e-01 -2.066959e-01 8.663609e-02 -1.101763e-01 -1.818297e-02 -6.068230e-02 -1.605052e-02 6.376939e-02 -8.629715e-02 2.147938e-01
<VARIANCE> 39
 4.094287e+01 2.752191e+01 2.621212e+01 2.266738e+01 2.154358e+01 2.792158e+01 2.318704e+01 2.261706e+01 2.218037e+01 2.075606e+01 1.919772e+01 1.771878e+01 1.354706e+02 8.217169e+00 2.540354e+00 2.765154e+00 3.734003e+00 2.760293e+00 3.554779e+00 2.473421e+00 2.756490e+00 2.635549e+00 2.310668e+00 2.107105e+00 2.406497e+00 3.881425e+00 7.776734e-01 4.073220e-01 3.854210e-01 4.960826e-01 5.112919e-01 5.265141e-01 4.540876e-01 4.839352e-01 4.962664e-01 4.322436e-01 4.035650e-01 4.043721e-01 3.774973e-01
<GCONST> 1.190281e+02
<TRANSP> 5
 0.000000e+00 1.000000e+00 0.000000e+00 0.000000e+00 0.000000e+00
 0.000000e+00 6.679773e-01 3.320227e-01 0.000000e+00 0.000000e+00
 0.000000e+00 0.000000e+00 8.368008e-01 1.631993e-01 0.000000e+00
 0.000000e+00 0.000000e+00 0.000000e+00 8.076859e-01 1.923141e-01
 0.000000e+00 0.000000e+00 0.000000e+00 0.000000e+00 0.000000e+00
<ENDHMM>
~h "g"
<BEGINHMM>
<NUMSTATES> 5
<STATE> 2
<MEAN> 39
 2.308796e+00 3.803123e+00 6.709561e+00 -7.158228e-01 -1.073596e+01 -6.444646e+00 -1.000505e+01 -5.325410e+00 -7.479643e+00 -5.174764e-01 -3.498118e+00 -8.229731e+00 5.256972e+01 -1.660386e-01 8.209685e-01 2.983109e-01 9.208201e-01 7.763634e-01 -4.670248e-01 5.774887e-01 -2.353001e-01 -9.816048e-02 -1.561347e-01 -4.119937e-01 2.710327e-01 -1.161473e+00 -5.533779e-01 -6.517079e-01 -4.467183e-01 -4.282076e-01 1.720537e-01 7.755617e-02 -2.156235e-01 1.789523e-01 9.977453e-02 -1.054803e-02 1.118180e-01 2.628913e-01 9.799650e-01
<VARIANCE> 39
 2.350769e+01 4.501065e+01 4.728586e+01 4.220836e+01 5.622890e+01 5.754419e+01 5.952779e+01 6.342509e+01 5.404052e+01 4.121466e+01 4.349048e+01 3.616183e+01 7.436131e+01 3.587398e+00 4.237288e+00 4.288936e+00 3.383008e+00 5.339490e+00 4.136465e+00 3.965120e+00 4.319292e+00 4.778531e+00 3.250544e+00 3.106385e+00 3.231032e+00 7.039938e+00 4.608434e-01 5.911923e-01 6.393877e-01 4.871995e-01 9.357769e-01 7.326021e-01 8.661166e-01 7.866762e-01 9.103480e-01 6.623459e-01 6.494349e-01 6.152242e-01 9.795886e-01
<GCONST> 1.355973e+02
<STATE> 3
<MEAN> 39
 -5.163527e+00 -4.156502e-01 1.584031e+00 4.088437e-02 -3.872936e+00 -7.430152e+00 -1.019945e+01 -4.849694e+00 -7.982178e+00 -3.260452e-01 -4.594025e+00 -3.465368e+00 5.824557e+01 -1.576923e+00 -1.943862e+00 -1.121701e+00 -1.292333e+00 -2.587399e-01 -7.582186e-01 -1.338305e+00 9.032621e-01 8.186483e-03 2.301613e-01 1.095284e+00 9.720499e-01 3.798891e+00 6.502161e-01 1.038280e-01 4.600922e-01 -5.673468e-01 -1.346165e+00 2.439136e-01 -3.000683e-01 1.957268e-01 2.461466e-01 -7.141460e-02 5.534614e-01 -4.775760e-01 2.336070e-01
<VARIANCE> 39
 4.012563e+01 5.042678e+01 7.340658e+01 3.775074e+01 7.298628e+01 6.029124e+01 5.562136e+01 4.778264e+01 4.211920e+01 3.275062e+01 3.336866e+01 2.955807e+01 7.880090e+01 4.288992e+00 4.963458e+00 7.928473e+00 3.945553e+00 1.205082e+01 5.268568e+00 5.181339e+00 6.090880e+00 5.787961e+00 3.984241e+00 4.870834e+00 3.786806e+00 4.285993e+00 6.354529e-01 1.020130e+00 1.141546e+00 7.315823e-01 1.444307e+00 1.000550e+00 9.894181e-01 9.978961e-01 1.015641e+00 7.479435e-01 7.882100e-01 7.614636e-01 1.067207e+00
<GCONST> 1.426154e+02
<STATE> 4
<MEAN> 39
 -3.494968e+00 -3.932736e+00 2.974241e+00 -5.501207e+00 -1.437454e+01 -9.508739e+00 -1.488856e+01 -3.460786e-02 -5.652068e+00 -1.116401e-02 1.470242e+00 -4.927188e+00 6.765543e+01 5.407557e-01 -1.322160e+00 -2.521146e-01 -2.161340e+00 -2.229879e+00 8.178647e-01 -6.191012e-01 1.651142e+00 1.413925e+00 -1.510507e-01 8.436459e-01 -1.020933e+00 2.156064e+00 2.802670e-01 1.041462e-01 -1.122274e-01 1.242630e-01 4.851276e-01 6.015891e-01 4.524261e-01 -2.151147e-01 1.534705e-01 -1.552935e-01 -6.487376e-01 -3.625810e-01 -6.569592e-01
<VARIANCE> 39
 1.914749e+01 3.736306e+01 6.597745e+01 4.633884e+01 8.082809e+01 6.542084e+01 6.755510e+01 8.306908e+01 6.517194e+01 4.599654e+01 5.563552e+01 3.121155e+01 5.423941e+01 2.138633e+00 2.588359e+00 4.825399e+00 3.340644e+00 7.529124e+00 4.370694e+00 4.994970e+00 6.274465e+00 7.148980e+00 3.496323e+00 5.799517e+00 3.835767e+00 2.155783e+00 4.114396e-01 4.278741e-01 8.060209e-01 4.848399e-01 1.798748e+00 7.468641e-01 8.405523e-01 9.233484e-01 8.686792e-01 6.073812e-01 9.582639e-01 5.697565e-01 3.548612e-01
<GCONST> 1.365432e+02
<TRANSP> 5
 0.000000e+00 1.000000e+00 0.000000e+00 0.000000e+00 0.000000e+00
 0.000000e+00 7.608870e-01 2.391130e-01 0.000000e+00 0.000000e+00
 0.000000e+00 0.000000e+00 5.760465e-01 4.239535e-01 0.000000e+00
 0.000000e+00 0.000000e+00 0.000000e+00 4.663301e-01 5.336699e-01
 0.000000e+00 0.000000e+00 0.000000e+00 0.000000e+00 0.000000e+00
<ENDHMM>
~h "h"
<BEGINHMM>
<NUMSTATES> 5
<STATE> 2
<MEAN> 39
 -4.884573e+00 -5.759472e+00 -2.294366e+00 -4.429579e+00 -1.935035e-01 9.413400e-01 -5.136683e+00 -5.932664e-01 -3.533980e+00 -3.183593e+00 -5.533340e+00 -4.498451e+00 6.367933e+01 -1.107730e+00 -5.242272e-02 9.980370e-02 1.163923e+00 1.647524e+00 4.375135e-01 9.606372e-01 2.230692e-01 3.999554e-01 -2.301273e-01 -4.827763e-02 6.376355e-01 -9.999898e-01 5.047632e-03 -2.915759e-01 -8.169464e-02 -3.865779e-01 -4.755694e-01 -8.713108e-03 -3.190397e-01 -9.793139e-02 4.614355e-02 5.789940e-02 1.855140e-01 -1.395769e-01 7.169595e-02
<VARIANCE> 39
 2.561952e+01 4.027956e+01 5.389055e+01 5.436333e+01 7.341882e+01 6.148487e+01 5.985797e+01 6.386939e+01 5.759754e+01 5.027453e+01 4.997721e+01 3.962247e+01 6.570424e+01 1.784168e+00 3.207890e+00 3.826902e+00 3.279862e+00 4.065318e+00 3.652494e+00 3.729304e+00 3.917424e+00 3.633728e+00 3.276396e+00 3.319715e+00 2.757527e+00 1.948655e+00 2.191307e-01 3.891249e-01 3.821475e-01 4.958760e-01 5.961505e-01 5.627506e-01 6.165476e-01 7.000706e-01 5.711549e-01 5.181972e-01 5.029913e-01 4.422815e-01 1.922521e-01
<GCONST> 1.275952e+02
<STATE> 3
<MEAN> 39
 -8.743473e+00 -8.676046e+00 -4.065831e+00 -4.100603e+00 2.432623e+00 2.088150e+00 -4.614443e+00 -6.814003e-01 -1.391043e+00 -3.245353e+00 -4.600336e+00 -3.548483e+00 6.096063e+01 -9.434679e-02 -9.347206e-02 -3.039019e-01 -3.936788e-01 -4.382296e-01 -3.343356e-01 -2.857502e-01 -2.581575e-01 -1.083653e-01 7.016874e-03 8.610079e-02 -2.065907e-02 -6.002122e-01 3.447032e-01 1.446450e-01 9.101073e-03 -2.674444e-01 -4.823859e-01 -1.493707e-01 -2.501760e-01 -1.373077e-01 -1.812630e-01 -1.125989e-02 6.402368e-03 -1.660965e-01 7.697958e-02
<VARIANCE> 39
 3.894894e+01 4.661744e+01 4.692401e+01 4.373185e+01 6.671801e+01 5.699730e+01 5.669897e+01 4.934665e+01 5.027473e+01 4.483768e+01 4.305388e+01 3.371047e+01 7.728662e+01 2.365454e+00 2.737670e+00 2.501888e+00 2.517081e+00 2.952481e+00 2.731744e+00 3.060350e+00 3.026732e+00 2.746891e+00 2.558165e+00 2.470912e+00 2.224837e+00 3.413826e+00 3.224323e-01 3.942501e-01 4.234921e-01 4.974825e-01 5.404947e-01 5.218444e-01 6.310382e-01 5.685636e-01 5.358465e-01 5.088855e-01 4.885308e-01 4.301518e-01 2.189486e-01
<GCONST> 1.249511e+02
<STATE> 4
<MEAN> 39
 -1.068087e+01 -6.595138e+00 -6.039531e+00 -5.338711e+00 -2.396459e+00 -2.174234e+00 -6.517872e+00 -3.503719e+00 -3.945593e+00 -4.690157e+00 -3.565243e+00 -3.155590e+00 4.715012e+01 1.547164e-01 1.747766e-01 2.568279e-03 -1.020062e-01 -2.798431e-01 -5.353347e-02 -6.183178e-02 -1.265025e-01 -8.173969e-02 2.239697e-02 3.155903e-02 -9.552731e-02 -2.126354e-01 6.298966e-02 1.372352e-02 5.187802e-02 -3.492560e-03 -3.267476e-02 3.833820e-02 -1.682896e-02 1.768564e-02 2.467804e-03 4.326812e-03 2.648828e-03 -3.547996e-02 1.043871e-01
<VARIANCE> 39
 3.194600e+01 5.550154e+01 3.697385e+01 3.163703e+01 3.962232e+01 3.907333e+01 3.932056e+01 3.437526e+01 3.359538e+01 3.099407e+01 2.786301e+01 2.464848e+01 1.659333e+02 1.238252e+00 1.638289e+00 1.482863e+00 1.519763e+00 1.808788e+00 1.782244e+00 2.011147e+00 1.971666e+00 1.958910e+00 1.848111e+00 1.750918e+00 1.724334e+00 1.893044e+00 1.742612e-01 2.441991e-01 2.315331e-01 2.641781e-01 3.053678e-01 3.163172e-01 3.627777e-01 3.663920e-01 3.706133e-01 3.404405e-01 3.296422e-01 3.067462e-01 1.531779e-01
<GCONST> 1.099215e+02
<TRANSP> 5
 0.000000e+00 1.000000e+00 0.000000e+00 0.000000e+00 0.000000e+00
 0.000000e+00 5.426936e-01 4.573064e-01 0.000000e+00 0.000000e+00
 0.000000e+00 0.000000e+00 6.082440e-01 3.917560e-01 0.000000e+00
 0.000000e+00 0.000000e+00 0.000000e+00 8.298360e-01 1.701640e-01
 0.000000e+00 0.000000e+00 0.000000e+00 0.000000e+00 0.000000e+00
<ENDHMM>
~h "i"
<BEGINHMM>
<NUMSTATES> 5
<STATE> 2
<MEAN> 39
 -6.575453e+00 -1.245685e+00 1.315091e+01 -2.734718e+00 -1.724361e+01 -8.778628e+00 -1.252732e+01 -6.192048e+00 -1.183854e+01 -3.913234e+00 1.634833e+00 -3.933312e+00 6.381001e+01 7.349417e-01 -8.790730e-02 2.985249e+00 -5.085803e-01 -3.113637e+00 3.004269e-01 -1.528092e+00 -4.436996e-01 -1.845311e+00 -1.291647e-01 1.364100e+00 -4.634883e-01 1.847000e+00 -6.224471e-02 9.477565e-02 -5.359082e-01 -1.665290e-01 2.884416e-01 4.308662e-01 8.750461e-02 4.074292e-02 4.129944e-01 2.122686e-01 -1.787355e-01 -1.047245e-01 -4.706911e-01
<VARIANCE> 39
 3.283256e+01 4.007188e+01 5.407304e+01 4.540639e+01 5.255367e+01 5.282624e+01 5.810338e+01 6.552357e+01 5.094719e+01 4.603657e+01 3.725468e+01 3.210608e+01 6.061853e+01 6.057086e+00 3.027852e+00 4.969771e+00 4.546722e+00 4.630269e+00 5.013723e+00 6.560360e+00 5.983966e+00 5.593518e+00 4.952840e+00 3.744423e+00 3.404423e+00 3.845195e+00 7.002473e-01 5.904700e-01 8.989084e-01 6.223052e-01 1.088963e+00 7.560519e-01 9.282779e-01 1.001823e+00 8.616745e-01 6.555952e-01 6.304864e-01 4.824740e-01 8.331991e-01
<GCONST> 1.381712e+02
<STATE> 3
<MEAN> 39
 -5.759003e+00 -1.798186e+00 1.803454e+01 -5.719737e+00 -2.312056e+01 -5.401311e+00 -1.645345e+01 -6.130167e+00 -1.488687e+01 -2.591245e+00 4.294760e+00 -6.108541e+00 6.702118e+01 2.285053e-01 1.751528e-01 -4.063976e-01 3.711836e-02 1.499977e-01 -8.878448e-02 2.609554e-01 1.421047e-01 3.345801e-01 1.298566e-01 -9.289353e-02 -1.856932e-03 -2.840343e-01 5.337772e-02 1.350995e-01 -6.333112e-01 2.405771e-01 7.303671e-01 -1.932608e-01 4.002551e-01 8.543426e-02 4.493746e-01 -4.501992e-02 -3.775592e-01 9.891471e-02 -4.997317e-01
<VARIANCE> 39
 1.570507e+01 2.933487e+01 4.085769e+01 5.052922e+01 2.900215e+01 5.917651e+01 4.747812e+01 6.652297e+01 5.174203e+01 6.497765e+01 4.447132e+01 4.264317e+01 2.391730e+01 1.044484e+00 1.754060e+00 2.622878e+00 2.116851e+00 3.150178e+00 2.921364e+00 3.103689e+00 3.178488e+00 2.816661e+00 2.352305e+00 2.133003e+00 1.674782e+00 1.871868e+00 2.513619e-01 3.097200e-01 3.995683e-01 3.983188e-01 6.026893e-01 5.569203e-01 6.143486e-01 6.341316e-01 5.789100e-01 5.418093e-01 4.864231e-01 3.776015e-01 3.167292e-01
<GCONST> 1.199813e+02
<STATE> 4
<MEAN> 39
 -6.235359e+00 2.601116e+00 1.353887e+01 -3.716883e+00 -1.767530e+01 -6.402894e+00 -1.168262e+01 -9.252655e+00 -1.024095e+01 -3.645924e+00 5.173075e-01 -4.558406e+00 5.828252e+01 9.380732e-02 2.565190e-01 -1.061823e+00 2.960272e-01 9.904699e-01 -7.603486e-02 5.563834e-01 1.318276e-01 6.324787e-01 -2.433852e-03 -5.498319e-01 1.031005e-01 -1.402643e+00 -6.161608e-02 -9.215292e-02 -1.032785e-01 -1.284074e-02 1.130003e-01 9.375567e-02 -3.441773e-02 1.689705e-02 1.241025e-03 1.143939e-02 -4.296077e-02 -1.266019e-02 8.915137e-03
<VARIANCE> 39
 2.184494e+01 3.428387e+01 5.334808e+01 4.496479e+01 4.936174e+01 7.816744e+01 5.228119e+01 6.432868e+01 4.212972e+01 4.497833e+01 4.052106e+01 3.694641e+01 1.146909e+02 1.348964e+00 1.838587e+00 2.295437e+00 1.890306e+00 3.106332e+00 2.372725e+00 2.892716e+00 3.072210e+00 2.930525e+00 2.229568e+00 2.326424e+00 1.856379e+00 3.234617e+00 1.959572e-01 2.684442e-01 2.879130e-01 3.045954e-01 5.094544e-01 4.698292e-01 4.658084e-01 5.201099e-01 4.212024e-01 3.903440e-01 3.895162e-01 3.236180e-01 3.533906e-01
<GCONST> 1.199867e+02
<TRANSP> 5
 0.000000e+00 1.000000e+00 0.000000e+00 0.000000e+00 0.000000e+00
 0.000000e+00 6.033439e-01 3.966561e-01 0.000000e+00 0.000000e+00
 0.000000e+00 0.000000e+00 7.768608e-01 2.231392e-01 0.000000e+00
 0.000000e+00 0.000000e+00 0.000000e+00 7.711626e-01 2.288374e-01
 0.000000e+00 0.000000e+00 0.000000e+00 0.000000e+00 0.000000e+00
<ENDHMM>
~h "j"
<BEGINHMM>
<NUMSTATES> 5
<STATE> 2
<MEAN> 39
 -1.192933e+00 6.382976e+00 9.095887e+00 3.019482e-01 -1.017148e+01 -7.130874e+00 -9.172066e+00 -1.949017e+00 -5.087241e+00 -5.789746e+00 -2.988351e+00 -3.685395e+00 5.294994e+01 -6.820474e-01 1.018409e+00 3.033041e-01 1.012011e-01 1.101633e+00 1.606164e-01 7.679968e-01 -9.027488e-02 2.775181e-01 -1.346778e-02 -2.256613e-01 3.537593e-02 -7.342153e-01 -6.565720e-01 -4.271384e-01 -2.471526e-01 -3.250061e-01 6.079061e-02 6.568137e-02 -1.676945e-01 -1.783127e-01 -6.783278e-02 1.298827e-01 1.550262e-01 1.140200e-01 8.015876e-01
<VARIANCE> 39
 3.216476e+01 3.964025e+01 3.797417e+01 3.114167e+01 4.691389e+01 4.482303e+01 4.756648e+01 4.704381e+01 4.391423e+01 3.282656e+01 2.817027e+01 2.652316e+01 8.935938e+01 7.037994e+00 3.984577e+00 3.279296e+00 3.280651e+00 4.228312e+00 3.363846e+00 4.079847e+00 4.295769e+00 3.805129e+00 3.031741e+00 2.676859e+00 2.505827e+00 8.423010e+00 1.061430e+00 5.599000e-01 4.800015e-01 4.908121e-01 8.141850e-01 6.610712e-01 7.143762e-01 7.244254e-01 7.573667e-01 5.632375e-01 5.171164e-01 5.484421e-01 1.184063e+00
<GCONST> 1.321704e+02
<STATE> 3
<MEAN> 39
 -1.590152e+01 5.627996e+00 7.600248e+00 -3.083382e+00 -4.483294e+00 -5.871723e+00 -7.820070e+00 -5.567122e+00 -6.292422e+00 -4.246552e+00 -1.554783e+00 -9.653771e-01 6.205782e+01 -1.320686e+00 -1.297706e+00 6.988820e-01 -4.502282e-01 -2.009969e+00 -1.254382e+00 -1.183120e+00 -4.035030e-01 -6.328820e-01 -1.712732e-01 1.176429e+00 1.136273e+00 3.547622e+00 1.693647e+00 -4.882561e-01 1.510334e-01 1.460323e-01 -1.205021e+00 -2.857345e-01 -5.976378e-01 5.367448e-01 1.530845e-01 -1.024765e-01 1.589418e-01 -2.245151e-01 -2.585091e-01
<VARIANCE> 39
 4.530557e+01 3.362247e+01 4.168530e+01 2.778991e+01 4.790910e+01 4.650466e+01 3.356460e+01 2.546047e+01 2.463989e+01 1.953757e+01 1.813165e+01 1.822579e+01 4.091966e+01 1.396140e+01 3.729475e+00 4.226382e+00 4.272776e+00 8.376481e+00 4.054889e+00 4.145671e+00 4.374911e+00 3.911507e+00 2.614511e+00 2.478710e+00 2.041831e+00 2.930832e+00 1.076715e+00 8.523782e-01 9.249856e-01 7.658308e-01 1.280344e+00 9.524276e-01 7.394548e-01 1.128614e+00 9.148777e-01 5.441777e-01 5.388673e-01 5.593680e-01 6.158054e-01
<GCONST> 1.317058e+02
<STATE> 4
<MEAN> 39
 -6.002982e+00 -3.442205e+00 9.895761e+00 -4.708036e+00 -1.866903e+01 -1.175176e+01 -1.581536e+01 -2.520484e-01 -5.669248e+00 -4.940345e+00 2.913468e+00 3.784725e-01 7.069416e+01 2.511409e+00 -2.897200e+00 -1.541556e+00 -1.133414e+00 -1.634884e+00 2.526473e-01 -1.497656e+00 2.382671e+00 1.450373e+00 5.460992e-01 -1.502602e-02 -1.302350e+00 1.414987e+00 -2.023515e-01 3.197069e-01 -8.134230e-01 -1.954373e-01 1.339093e+00 8.951457e-01 6.334802e-01 -8.584650e-02 2.930501e-01 2.008159e-01 -6.877711e-01 -6.915399e-01 -6.568649e-01
<VARIANCE> 39
 1.549747e+01 3.383102e+01 3.566933e+01 5.150690e+01 3.200260e+01 2.879202e+01 4.259123e+01 7.141084e+01 5.380721e+01 3.830459e+01 2.751093e+01 2.533278e+01 2.446644e+01 2.618463e+00 2.892882e+00 4.407735e+00 3.075935e+00 7.710631e+00 3.998086e+00 6.150278e+00 6.963279e+00 4.896212e+00 3.197514e+00 4.624434e+00 3.116043e+00 1.128208e+00 7.399625e-01 4.385078e-01 4.619738e-01 6.215488e-01 7.144905e-01 5.932541e-01 6.920336e-01 1.136236e+00 7.203387e-01 5.935651e-01 6.422512e-01 4.614331e-01 1.360618e-01
<GCONST> 1.275005e+02
<TRANSP> 5
 0.000000e+00 1.000000e+00 0.000000e+00 0.000000e+00 0.000000e+00
 0.000000e+00 8.237095e-01 1.762905e-01 0.000000e+00 0.000000e+00
 0.000000e+00 0.000000e+00 7.126383e-01 2.873617e-01 0.000000e+00
 0.000000e+00 0.000000e+00 0.000000e+00 6.475134e-01 3.524866e-01
 0.000000e+00 0.000000e+00 0.000000e+00 0.000000e+00 0.000000e+00
<ENDHMM>
~h "k"
<BEGINHMM>
<NUMSTATES> 5
<STATE> 2
<MEAN> 39
 -6.179025e+00 5.402362e-01 -2.390314e+00 -4.345890e+00 -7.515694e+00 -5.659318e+00 -7.836626e+00 -4.803531e+00 -4.777299e+00 -1.323319e+00 -3.404746e+00 -5.113990e+00 4.412643e+01 -1.150200e+00 -2.781368e-01 -7.186384e-01 3.221035e-01 6.912461e-01 -3.974522e-01 1.641578e-01 1.155305e-01 2.379820e-01 -2.851871e-02 -1.676255e-01 6.038765e-01 -1.384879e+00 -1.554620e-01 -5.943501e-01 -3.417392e-01 -2.666707e-01 1.323725e-01 5.280462e-02 -1.962040e-01 1.882167e-01 -1.221504e-02 1.122909e-01 1.139354e-03 2.539915e-02 1.237250e+00
<VARIANCE> 39
 3.728270e+01 3.598836e+01 5.345245e+01 4.099992e+01 4.989259e+01 5.085518e+01 4.432814e+01 4.946479e+01 4.668076e+01 3.774590e+01 3.708168e+01 3.207856e+01 9.257809e+01 2.163244e+00 4.105864e+00 3.431702e+00 3.139890e+00 4.334537e+00 3.850513e+00 3.907288e+00 3.725806e+00 3.486579e+00 3.218733e+00 2.906123e+00 2.529060e+00 1.013114e+01 3.974383e-01 5.857962e-01 6.235374e-01 6.118572e-01 8.277653e-01 7.972139e-01 8.027430e-01 7.020223e-01 7.299439e-01 6.913262e-01 6.022804e-01 5.110691e-01 1.341916e+00
<GCONST> 1.329906e+02
<STATE> 3
<MEAN> 39
 -1.163056e+01 -5.910399e+00 -7.601793e+00 -3.949539e+00 -2.140293e+00 -7.050841e+00 -9.230314e+00 -2.793530e+00 -4.329546e+00 1.369859e-01 -4.003397e+00 -1.930652e+00 5.025327e+01 -8.815066e-01 -2.033471e+00 -2.125581e+00 -8.729543e-01 1.346494e+00 -5.386746e-01 -8.370481e-01 8.542215e-01 4.962089e-02 9.076014e-01 -5.517831e-01 2.485238e-01 4.578088e+00 7.813907e-01 4.453248e-01 5.906816e-01 -3.797503e-01 -7.798200e-01 2.585748e-01 1.907148e-02 -9.279545e-03 -1.222314e-02 -1.454587e-01 8.700126e-02 -5.489351e-01 6.088136e-01
<VARIANCE> 39
 3.427803e+01 6.013903e+01 7.013702e+01 4.637136e+01 6.003892e+01 5.957203e+01 5.348935e+01 4.608897e+01 4.404338e+01 3.622428e+01 3.378954e+01 2.833092e+01 1.278985e+02 4.012669e+00 5.599139e+00 7.449541e+00 5.611338e+00 6.874171e+00 6.318070e+00 5.897216e+00 5.680697e+00 5.430165e+00 4.608607e+00 4.215090e+00 3.727613e+00 1.282024e+01 6.652226e-01 1.105877e+00 1.329686e+00 8.502520e-01 1.233596e+00 1.024303e+00 1.093641e+00 9.283002e-01 8.848198e-01 7.822575e-01 7.292477e-01 6.919908e-01 1.807503e+00
<GCONST> 1.447359e+02
<STATE> 4
<MEAN> 39
 -9.327159e+00 -6.489408e+00 -8.959563e+00 -8.124933e+00 -3.617602e+00 -6.677603e+00 -1.049667e+01 -8.403980e-01 -4.068698e+00 1.217231e+00 -5.058268e+00 -4.621316e+00 6.129945e+01 2.109074e+00 2.293920e-01 1.413928e+00 -1.086760e+00 -1.856646e+00 7.037520e-01 -2.468814e-02 3.559940e-01 7.805894e-02 -5.191625e-01 4.507554e-01 -1.490912e+00 2.972416e+00 5.517054e-01 1.700609e-01 6.647028e-01 8.203621e-02 -5.779880e-01 4.102608e-01 1.680807e-01 -2.217451e-01 6.148510e-02 -4.280069e-01 3.374072e-01 -2.580137e-01 -6.891439e-01
<VARIANCE> 39
 4.100379e+01 4.503084e+01 7.430643e+01 5.613974e+01 6.518561e+01 7.266014e+01 5.673116e+01 5.458149e+01 5.551088e+01 4.309209e+01 4.306976e+01 4.019392e+01 7.805739e+01 4.434353e+00 5.199353e+00 6.309752e+00 5.023496e+00 5.667067e+00 5.354148e+00 6.028794e+00 5.678577e+00 5.628474e+00 4.110488e+00 4.262005e+00 4.388786e+00 7.304903e+00 8.556840e-01 9.521861e-01 1.518469e+00 8.656525e-01 1.346557e+00 1.027794e+00 1.125934e+00 9.843076e-01 9.718397e-01 8.293114e-01 7.948768e-01 7.879354e-01 1.038342e+00
<GCONST> 1.450782e+02
<TRANSP> 5
 0.000000e+00 1.000000e+00 0.000000e+00 0.000000e+00 0.000000e+00
 0.000000e+00 7.494628e-01 2.505372e-01 0.000000e+00 0.000000e+00
 0.000000e+00 0.000000e+00 5.182847e-01 4.817153e-01 0.000000e+00
 0.000000e+00 0.000000e+00 0.000000e+00 5.756548e-01 4.243452e-01
 0.000000e+00 0.000000e+00 0.000000e+00 0.000000e+00 0.000000e+00
<ENDHMM>
~h "l"
<BEGINHMM>
<NUMSTATES> 5
<STATE> 2
<MEAN> 39
 8.955932e-01 -8.617463e+00 -1.367586e+00 -1.061605e+01 -1.232398e+01 -8.470488e-01 -1.645720e+01 -9.110949e+00 1.489024e+00 1.234337e+00 -6.462759e-01 -7.267085e+00 6.875243e+01 5.162327e-01 2.864827e-02 5.690115e-01 -4.855841e-01 3.998632e-01 1.304338e-01 -1.253389e+00 -1.216851e+00 3.478824e-01 1.053416e+00 1.547700e-01 -1.717394e-01 -3.905988e-01 -1.568732e-01 1.389867e-01 1.848437e-02 -8.459461e-02 6.267114e-02 6.480264e-02 1.319715e-01 1.858620e-01 -2.576715e-01 -1.879243e-01 6.329027e-02 2.412882e-02 -4.358188e-02
<VARIANCE> 39
 1.726523e+01 3.025357e+01 6.889510e+01 7.453626e+01 6.021917e+01 8.960276e+01 8.726925e+01 1.363069e+02 7.473927e+01 5.831674e+01 5.802895e+01 4.966691e+01 2.851211e+01 8.420773e-01 1.783384e+00 2.886168e+00 4.296844e+00 4.561894e+00 5.360411e+00 4.314031e+00 5.035551e+00 4.642394e+00 3.696386e+00 4.059475e+00 2.977847e+00 1.043991e+00 1.859090e-01 2.534959e-01 3.734815e-01 5.709900e-01 7.209107e-01 7.527775e-01 7.946793e-01 1.027654e+00 7.398871e-01 7.131733e-01 6.353787e-01 4.599746e-01 1.275908e-01
<GCONST> 1.293884e+02
<STATE> 3
<MEAN> 39
 1.728500e+00 -7.955465e+00 5.337332e-01 -1.396240e+01 -1.007205e+01 9.188419e-01 -2.019495e+01 -1.146180e+01 7.546728e-01 4.399793e+00 4.681590e-01 -7.752276e+00 6.767197e+01 -1.863220e-01 -2.246730e-02 -1.608241e-01 -1.482030e-01 1.516862e-01 2.281591e-02 7.714661e-02 5.871573e-01 2.451946e-02 -2.733444e-01 -2.313765e-01 -1.074577e-01 1.352104e-01 -2.419240e-01 -1.669280e-01 -3.737918e-01 2.514892e-01 -1.160301e-01 2.600618e-02 6.377851e-01 6.934149e-01 -4.229753e-03 -5.391268e-01 -3.283603e-01 -3.916897e-02 2.092869e-01
<VARIANCE> 39
 1.537296e+01 2.844890e+01 6.558620e+01 7.575092e+01 5.551284e+01 7.050974e+01 9.606615e+01 1.092690e+02 7.448389e+01 5.908047e+01 5.573514e+01 4.675925e+01 2.467598e+01 5.876968e-01 1.539263e+00 2.769857e+00 3.086244e+00 2.524750e+00 3.582185e+00 3.798187e+00 5.626591e+00 3.909392e+00 3.147033e+00 3.490480e+00 2.491940e+00 1.088437e+00 1.064753e-01 3.087907e-01 3.307980e-01 5.474547e-01 7.178630e-01 7.378421e-01 8.612794e-01 8.420109e-01 7.816917e-01 6.898749e-01 7.968851e-01 5.245108e-01 1.355485e-01
<GCONST> 1.257595e+02
<STATE> 4
<MEAN> 39
 4.964221e-01 -6.307868e+00 -1.716903e+00 -1.395688e+01 -7.977015e+00 7.995406e-01 -1.679082e+01 -7.761733e+00 2.930394e-01 1.664649e+00 -1.995340e+00 -6.932912e+00 6.548608e+01 -4.086760e-01 -6.260959e-02 -4.174925e-01 5.864894e-01 1.090417e-01 -5.505301e-02 1.036988e+00 9.865142e-01 -1.798130e-01 -8.742309e-01 -5.876378e-01 1.777662e-02 -1.534196e-01 -8.890202e-02 -4.259964e-03 -1.394410e-02 1.287781e-01 -3.319415e-02 1.367631e-02 2.095443e-01 3.656607e-02 -1.040216e-01 -1.247780e-01 3.521045e-02 2.922179e-02 -3.779108e-02
<VARIANCE> 39
 1.920609e+01 4.090424e+01 7.456422e+01 9.093728e+01 6.740874e+01 7.801447e+01 8.452056e+01 9.815525e+01 6.997465e+01 5.187196e+01 5.720797e+01 5.029388e+01 6.204604e+01 6.728643e-01 2.398841e+00 2.450228e+00 3.080846e+00 3.442886e+00 3.698384e+00 3.965280e+00 4.849431e+00 3.878182e+00 3.233696e+00 3.858732e+00 2.626632e+00 2.284108e+00 1.124614e-01 2.495497e-01 2.532391e-01 4.416037e-01 5.387196e-01 4.811580e-01 5.629005e-01 5.752142e-01 5.331526e-01 5.002132e-01 5.197142e-01 3.838578e-01 1.645075e-01
<GCONST> 1.257377e+02
<TRANSP> 5
 0.000000e+00 1.000000e+00 0.000000e+00 0.000000e+00 0.000000e+00
 0.000000e+00 5.818319e-01 4.181681e-01 0.000000e+00 0.000000e+00
 0.000000e+00 0.000000e+00 5.950016e-01 4.049983e-01 0.000000e+00
 0.000000e+00 0.000000e+00 0.000000e+00 5.551668e-01 4.448332e-01
 0.000000e+00 0.000000e+00 0.000000e+00 0.000000e+00 0.000000e+00
<ENDHMM>
~h "m"
<BEGINHMM>
<NUMSTATES> 5
<STATE> 2
<MEAN> 39
 2.847159e+00 -4.604411e+00 -6.175292e-01 -6.418928e+00 -9.237188e+00 1.983579e+00 -1.036401e+01 -9.232021e+00 -9.336450e+00 -2.637422e+00 -3.915792e-01 -8.216928e+00 6.161815e+01 5.810999e-01 1.202965e+00 1.677868e+00 2.063916e+00 6.204185e-02 4.717449e-01 6.052613e-01 -2.733263e+00 -2.862634e+00 -8.681130e-02 -4.483730e-01 3.437353e-01 -1.078383e+00 -3.262088e-01 -1.701262e-01 1.495907e-01 -1.748747e-02 9.619280e-04 -1.448309e-02 2.334141e-02 6.481914e-02 1.973717e-02 -1.489560e-01 -2.357549e-01 1.012538e-01 2.670436e-01
<VARIANCE> 39
 2.101265e+01 4.163866e+01 5.359831e+01 7.175294e+01 5.097578e+01 6.879524e+01 6.455887e+01 7.889597e+01 7.617038e+01 5.250328e+01 6.078078e+01 4.211621e+01 6.769055e+01 1.797738e+00 2.524910e+00 3.843317e+00 4.305206e+00 3.943491e+00 4.017424e+00 4.926728e+00 5.212513e+00 5.845370e+00 4.352202e+00 6.426576e+00 3.938535e+00 4.168893e+00 2.078763e-01 3.088311e-01 5.070429e-01 6.743996e-01 5.142388e-01 4.635099e-01 5.899360e-01 8.725591e-01 9.195831e-01 5.188725e-01 7.707309e-01 4.713821e-01 2.732839e-01
<GCONST> 1.330168e+02
<STATE> 3
<MEAN> 39
 3.094616e+00 -3.269518e+00 3.789740e+00 -1.812627e+00 -9.272793e+00 3.867342e+00 -9.124335e+00 -1.602211e+01 -1.666603e+01 -3.511935e+00 -1.978949e+00 -6.376301e+00 6.102753e+01 -7.037115e-02 -5.909471e-02 1.583117e-01 -4.128952e-02 7.467306e-02 2.193161e-01 1.112645e-01 -1.154963e-01 -2.755376e-01 -3.309075e-01 -2.297952e-01 1.196829e-01 2.695855e-01 -9.716937e-02 -2.442931e-01 -5.680785e-01 -7.047742e-01 -2.532843e-02 -1.514339e-01 -1.957636e-01 9.196660e-01 9.712253e-01 5.246209e-02 1.619455e-01 -1.857859e-01 2.882470e-01
<VARIANCE> 39
 1.220309e+01 2.788473e+01 3.145077e+01 5.207890e+01 4.908218e+01 7.092307e+01 8.404240e+01 7.496397e+01 6.339770e+01 7.254748e+01 7.944115e+01 4.461533e+01 2.834003e+01 5.200642e-01 1.358641e+00 2.469808e+00 3.487525e+00 1.878389e+00 2.309682e+00 2.397578e+00 3.704241e+00 4.735291e+00 2.483493e+00 3.572086e+00 2.211077e+00 1.761675e+00 1.502464e-01 2.370744e-01 3.842936e-01 4.379697e-01 4.229142e-01 4.407035e-01 5.879040e-01 6.061748e-01 7.622717e-01 6.001348e-01 8.116364e-01 5.378104e-01 2.193770e-01
<GCONST> 1.213612e+02
<STATE> 4
<MEAN> 39
 1.020854e+00 -2.051294e+00 3.248191e+00 -3.852089e+00 -8.756042e+00 3.182817e+00 -8.870169e+00 -1.154390e+01 -1.289289e+01 -5.307104e+00 -5.139097e+00 -6.388997e+00 5.862763e+01 -7.920296e-02 -2.812286e-03 -5.988152e-01 -6.168933e-01 -2.542309e-02 -2.009093e-01 -1.453450e-02 8.263044e-01 8.970183e-01 1.517363e-01 2.175955e-01 -1.033018e-01 1.230460e-01 -4.442786e-02 -7.764558e-02 -1.734559e-01 -1.443501e-01 2.106391e-02 -6.453989e-02 -6.515658e-02 1.730114e-01 2.200219e-01 8.691531e-02 1.361582e-01 -2.686174e-02 3.103451e-02
<VARIANCE> 39
 2.038740e+01 2.930182e+01 4.530554e+01 5.410196e+01 7.343090e+01 7.419787e+01 6.942378e+01 6.083180e+01 6.482394e+01 5.378196e+01 6.143733e+01 4.140735e+01 7.244246e+01 5.726693e-01 1.670354e+00 2.637252e+00 3.273661e+00 2.090921e+00 2.192104e+00 2.332073e+00 3.359492e+00 4.266750e+00 2.357748e+00 3.088587e+00 2.145027e+00 2.307203e+00 1.191012e-01 1.850720e-01 3.051249e-01 3.720171e-01 3.750306e-01 3.705230e-01 3.569337e-01 4.422191e-01 5.073327e-01 3.728364e-01 4.746809e-01 3.341703e-01 1.480396e-01
<GCONST> 1.186070e+02
<TRANSP> 5
 0.000000e+00 1.000000e+00 0.000000e+00 0.000000e+00 0.000000e+00
 0.000000e+00 5.362227e-01 4.637773e-01 0.000000e+00 0.000000e+00
 0.000000e+00 0.000000e+00 6.842337e-01 3.157663e-01 0.000000e+00
 0.000000e+00 0.000000e+00 0.000000e+00 7.367236e-01 2.632765e-01
 0.000000e+00 0.000000e+00 0.000000e+00 0.000000e+00 0.000000e+00
<ENDHMM>
~h "n"
<BEGINHMM>
<NUMSTATES> 5
<STATE> 2
<MEAN> 39
 1.504030e+00 -8.055049e+00 9.069368e-01 -4.282601e+00 -1.158794e+01 -4.453499e+00 -1.420869e+01 -2.525707e+00 -2.096251e+00 -2.660584e+00 -6.581715e+00 -8.314137e+00 6.614008e+01 7.775425e-01 2.211697e+00 1.800658e+00 2.227814e+00 -5.683716e-01 -8.037683e-01 1.706754e-01 -3.473827e+00 -9.709791e-01 1.105228e+00 -7.607766e-01 5.009180e-01 -2.259216e+00 -1.314079e-01 1.512330e-01 6.676826e-03 -1.394897e-01 -3.244340e-03 1.939786e-01 3.280299e-01 -4.431631e-01 -2.039462e-01 7.101493e-02 4.250902e-02 1.450884e-01 2.072607e-02
<VARIANCE> 39
 1.155694e+01 4.208675e+01 5.599197e+01 4.951118e+01 5.245808e+01 5.686476e+01 5.989602e+01 1.167646e+02 6.888152e+01 4.991756e+01 5.029304e+01 4.350576e+01 3.594540e+01 8.046620e-01 1.989090e+00 3.525340e+00 2.898047e+00 3.934410e+00 4.947324e+00 5.040058e+00 5.968583e+00 4.931663e+00 4.609332e+00 4.844833e+00 3.355225e+00 1.160218e+00 1.258479e-01 4.198952e-01 4.121270e-01 5.118659e-01 5.386305e-01 6.368223e-01 6.318969e-01 1.382219e+00 7.108984e-01 6.780330e-01 5.234545e-01 4.369949e-01 2.614702e-01
<GCONST> 1.280401e+02
<STATE> 3
<MEAN> 39
 2.804074e+00 -2.343164e+00 5.196424e+00 3.548179e-01 -1.386440e+01 -5.030912e+00 -1.167524e+01 -1.395858e+01 -5.603134e+00 1.236380e+00 -7.462251e+00 -6.434299e+00 6.133504e+01 1.048778e-01 7.800471e-01 4.545911e-01 4.044825e-01 -6.061478e-02 7.690921e-02 3.497394e-01 -1.037199e+00 -6.388964e-01 3.462411e-01 -1.854106e-01 4.001556e-01 -7.066197e-01 -2.578474e-01 -4.617501e-01 -4.538890e-01 -5.729194e-01 2.836646e-01 1.872598e-01 -1.175890e-01 1.128418e+00 2.392899e-01 -4.330090e-01 2.615410e-01 -1.000622e-01 4.074541e-01
<VARIANCE> 39
 1.028459e+01 2.491586e+01 3.479033e+01 4.104964e+01 4.530733e+01 6.562206e+01 7.373212e+01 8.962144e+01 6.685178e+01 5.002363e+01 5.919670e+01 5.056987e+01 2.240025e+01 5.998411e-01 1.951368e+00 2.184378e+00 1.997579e+00 2.429702e+00 2.659815e+00 3.139452e+00 5.929023e+00 3.598656e+00 2.838005e+00 2.733163e+00 2.209934e+00 1.507000e+00 1.453876e-01 3.044051e-01 4.914229e-01 4.321049e-01 5.420854e-01 6.283811e-01 6.884657e-01 8.514259e-01 7.387069e-01 6.325164e-01 6.656517e-01 4.985141e-01 2.503577e-01
<GCONST> 1.219348e+02
<STATE> 4
<MEAN> 39
 1.611912e+00 2.268551e-01 5.423412e+00 1.036661e+00 -1.091603e+01 -4.740436e+00 -1.039319e+01 -1.082491e+01 -6.641941e+00 -1.516423e+00 -8.199121e+00 -5.163145e+00 5.614135e+01 -4.144709e-01 3.397164e-01 -2.285710e-01 -4.729084e-02 6.357544e-01 1.540813e-01 1.985019e-01 6.295319e-01 -5.228378e-02 -3.697791e-01 1.919232e-01 5.992316e-02 -8.555243e-01 -1.823128e-01 -1.359870e-01 -1.315396e-01 -1.686638e-01 9.230094e-02 2.127161e-02 -1.670351e-02 2.550589e-01 1.034785e-01 -9.031655e-02 1.134658e-01 -4.748309e-02 3.218196e-02
<VARIANCE> 39
 1.672455e+01 2.944442e+01 3.518481e+01 3.915150e+01 6.133234e+01 5.752344e+01 6.056143e+01 6.800787e+01 5.625859e+01 5.386061e+01 6.349162e+01 4.615331e+01 5.813066e+01 8.815634e-01 1.802740e+00 1.686825e+00 1.955027e+00 2.314341e+00 2.201160e+00 2.453579e+00 3.693937e+00 2.698581e+00 2.392552e+00 2.541325e+00 1.972183e+00 2.141945e+00 1.681854e-01 2.642127e-01 2.758062e-01 3.322409e-01 4.173257e-01 3.929966e-01 4.391729e-01 5.613437e-01 4.556306e-01 4.379066e-01 4.332239e-01 3.493184e-01 2.025430e-01
<GCONST> 1.175772e+02
<TRANSP> 5
 0.000000e+00 1.000000e+00 0.000000e+00 0.000000e+00 0.000000e+00
 0.000000e+00 5.647100e-01 4.352900e-01 0.000000e+00 0.000000e+00
 0.000000e+00 0.000000e+00 6.461796e-01 3.538204e-01 0.000000e+00
 0.000000e+00 0.000000e+00 0.000000e+00 7.752715e-01 2.247285e-01
 0.000000e+00 0.000000e+00 0.000000e+00 0.000000e+00 0.000000e+00
<ENDHMM>
~h "o"
<BEGINHMM>
<NUMSTATES> 5
<STATE> 2
<MEAN> 39
 2.799553e-01 -3.730137e+00 -6.462899e+00 -1.586991e+01 -1.159381e+01 3.862104e+00 -1.329333e+01 -5.131339e+00 -2.792937e+00 -1.145897e+00 1.368654e+00 -5.597610e+00 6.470810e+01 1.868526e+00 -6.650342e-01 -6.879995e-01 -2.860401e+00 -1.332538e+00 2.473333e+00 -4.937606e-01 -5.206149e-02 5.899898e-01 1.319150e-02 1.240933e+00 -6.317870e-01 2.111542e+00 -4.382481e-01 -3.437187e-04 1.443565e-01 2.809819e-01 2.756359e-01 -2.919107e-02 3.082154e-01 -4.264042e-02 -1.677007e-01 -7.852444e-02 -2.269942e-02 1.365697e-01 -4.643693e-01
<VARIANCE> 39
 3.000990e+01 4.162241e+01 4.972245e+01 9.959489e+01 6.036369e+01 7.182329e+01 8.163741e+01 6.802274e+01 6.786136e+01 6.414829e+01 5.458009e+01 4.094621e+01 8.923481e+01 4.466891e+00 2.906269e+00 5.813027e+00 6.394079e+00 7.252634e+00 5.609503e+00 5.027336e+00 6.356915e+00 5.417770e+00 5.607059e+00 4.736260e+00 3.811263e+00 5.273323e+00 7.462024e-01 5.221543e-01 6.971080e-01 1.248462e+00 8.947366e-01 9.488660e-01 9.122609e-01 8.241744e-01 9.561189e-01 8.107210e-01 7.257534e-01 6.029968e-01 1.044466e+00
<GCONST> 1.436445e+02
<STATE> 3
<MEAN> 39
 2.520946e+00 -6.087810e+00 -8.230440e+00 -1.993867e+01 -1.352629e+01 1.000650e+01 -1.377081e+01 -5.746127e+00 -2.164164e+00 -1.577225e+00 5.377726e+00 -6.620108e+00 6.965596e+01 1.025746e-01 -1.325758e-01 -1.855697e-01 -6.267900e-01 2.189741e-01 6.880443e-01 2.343806e-01 6.340700e-02 -1.181578e-01 -1.000346e-01 2.572536e-01 -3.320898e-02 1.070802e-01 -2.663415e-01 2.404895e-01 2.623827e-01 8.100388e-01 3.668432e-01 -7.778798e-01 1.361788e-01 -3.299413e-02 -1.497796e-01 1.922145e-02 -5.215172e-01 1.411787e-01 -5.772938e-01
<VARIANCE> 39
 1.181045e+01 3.552131e+01 3.645944e+01 6.608588e+01 5.234935e+01 5.379194e+01 7.674934e+01 7.469903e+01 6.940356e+01 7.667452e+01 5.981810e+01 4.737934e+01 2.166866e+01 5.925100e-01 1.828406e+00 1.526857e+00 4.388797e+00 2.627594e+00 3.920308e+00 3.387506e+00 3.193851e+00 4.130759e+00 3.745331e+00 3.033301e+00 2.563104e+00 1.580746e+00 2.529846e-01 2.964006e-01 3.661225e-01 5.326697e-01 6.954599e-01 5.462582e-01 6.198162e-01 7.194551e-01 7.245187e-01 7.556271e-01 6.143083e-01 5.375891e-01 2.697475e-01
<GCONST> 1.246279e+02
<STATE> 4
<MEAN> 39
 2.490800e+00 -4.034221e+00 -7.473778e+00 -2.135571e+01 -1.149699e+01 8.547823e+00 -1.173482e+01 -5.450527e+00 -3.024572e+00 -2.016457e+00 2.866074e+00 -5.428356e+00 6.576912e+01 -8.190576e-02 2.295341e-01 2.176144e-01 1.008218e+00 3.458932e-01 -7.147899e-01 1.224456e-01 -1.486829e-01 3.706463e-02 1.027789e-01 -5.196092e-01 -5.756285e-02 -8.825641e-01 -6.481930e-02 5.449930e-02 1.358137e-01 3.661275e-01 3.472702e-02 -2.070741e-01 -1.635694e-02 -6.198921e-02 7.519934e-03 5.145466e-03 -1.138174e-01 1.462523e-02 -2.039052e-01
<VARIANCE> 39
 1.356288e+01 4.294901e+01 4.065952e+01 6.845818e+01 5.509720e+01 5.617442e+01 7.001382e+01 6.604819e+01 6.725217e+01 6.587224e+01 4.833924e+01 5.012981e+01 6.136064e+01 5.743942e-01 1.441459e+00 1.308557e+00 3.210445e+00 2.227308e+00 2.591240e+00 2.525011e+00 2.457074e+00 2.523844e+00 2.515951e+00 2.223850e+00 1.902415e+00 2.292907e+00 1.101140e-01 2.267367e-01 2.230633e-01 3.668655e-01 3.730612e-01 3.745179e-01 4.376633e-01 4.250533e-01 4.501454e-01 4.501757e-01 3.620415e-01 3.591074e-01 2.474379e-01
<GCONST> 1.168275e+02
<TRANSP> 5
 0.000000e+00 1.000000e+00 0.000000e+00 0.000000e+00 0.000000e+00
 0.000000e+00 5.339858e-01 4.660142e-01 0.000000e+00 0.000000e+00
 0.000000e+00 0.000000e+00 6.482504e-01 3.517496e-01 0.000000e+00
 0.000000e+00 0.000000e+00 0.000000e+00 8.225265e-01 1.774735e-01
 0.000000e+00 0.000000e+00 0.000000e+00 0.000000e+00 0.000000e+00
<ENDHMM>
~h "p"
<BEGINHMM>
<NUMSTATES> 5
<STATE> 2
<MEAN> 39
 -7.040837e+00 1.178567e+00 -3.263633e+00 -4.313734e+00 -5.986680e+00 -3.108055e+00 -6.449670e+00 -6.089090e+00 -4.818212e+00 -2.849291e+00 -3.268733e+00 -4.520155e+00 3.859196e+01 -9.402534e-01 1.540270e-01 -1.348914e-01 2.704085e-01 1.424026e-01 -4.452679e-01 2.185492e-01 2.051577e-01 2.198028e-01 -8.846128e-03 -5.496693e-02 3.260689e-01 -1.188133e+00 -5.558447e-03 -3.224050e-01 -4.139821e-02 -1.433969e-01 -9.229020e-02 4.069805e-02 -1.319649e-01 3.878918e-02 -1.579840e-03 1.837685e-02 9.632773e-02 1.192522e-02 8.102890e-01
<VARIANCE> 39
 4.653820e+01 2.290685e+01 3.037346e+01 2.944431e+01 2.312510e+01 3.413903e+01 2.675425e+01 2.829298e+01 3.378239e+01 2.589814e+01 2.513297e+01 2.616189e+01 5.157878e+01 1.474098e+00 1.665530e+00 1.520379e+00 1.778049e+00 1.889895e+00 2.212187e+00 2.090339e+00 2.188725e+00 2.442237e+00 2.100537e+00 2.166168e+00 1.809643e+00 4.635347e+00 3.028418e-01 3.474088e-01 3.319721e-01 3.798068e-01 4.111607e-01 4.426987e-01 4.267859e-01 4.568649e-01 4.884713e-01 4.367306e-01 4.295877e-01 3.585481e-01 8.618081e-01
<GCONST> 1.141048e+02
<STATE> 3
<MEAN> 39
 -9.347977e+00 -3.674107e-01 -2.827484e+00 -3.394615e+00 -5.753078e+00 -4.494344e+00 -6.811157e+00 -5.081857e+00 -3.839631e+00 -2.628369e+00 -2.599043e+00 -2.824481e+00 4.376093e+01 5.485601e-01 -1.985619e+00 -7.482306e-01 -1.340376e+00 -4.079499e-01 4.867105e-01 -6.288732e-01 1.016548e-01 2.183083e-01 1.225964e-01 7.372844e-01 -1.388402e-01 6.036351e+00 1.068254e+00 -5.371329e-01 -2.008847e-01 -8.571004e-01 -4.852199e-01 6.867398e-01 -3.601827e-01 -4.540912e-02 -1.455287e-02 7.893604e-02 2.402937e-01 -5.747864e-01 1.603142e+00
<VARIANCE> 39
 2.797475e+01 2.516566e+01 2.461525e+01 2.533330e+01 2.359369e+01 3.175056e+01 2.808733e+01 2.753715e+01 3.056133e+01 2.295018e+01 2.216142e+01 2.048089e+01 1.067823e+02 5.753553e+00 3.718588e+00 4.178282e+00 6.020553e+00 3.920008e+00 6.556990e+00 4.035229e+00 4.329079e+00 4.656600e+00 3.488232e+00 3.539582e+00 3.457623e+00 9.059876e+00 4.876718e-01 7.464732e-01 7.724184e-01 8.435963e-01 8.060396e-01 1.022400e+00 7.582800e-01 8.330522e-01 8.705473e-01 6.690096e-01 6.687142e-01 6.179908e-01 1.654942e+00
<GCONST> 1.321602e+02
<STATE> 4
<MEAN> 39
 -3.744848e+00 -7.072262e+00 -6.884455e+00 -1.058714e+01 -7.633220e+00 -2.586378e-01 -8.913645e+00 -5.783442e+00 -3.277174e+00 -1.911043e+00 -3.828190e-01 -5.718578e+00 6.236492e+01 2.555722e+00 -2.201000e+00 -6.673686e-01 -2.547797e+00 -1.096267e+00 1.898279e+00 -1.168036e+00 1.765304e-01 2.590627e-01 2.770636e-01 7.129883e-01 -1.480267e+00 5.747652e+00 7.737706e-03 4.022691e-01 3.910267e-01 3.126624e-01 -8.659544e-02 -7.296849e-02 -2.812807e-02 1.730039e-01 2.672932e-02 -6.317178e-02 -2.690430e-01 -1.036648e-01 -1.258540e+00
<VARIANCE> 39
 4.824839e+01 3.750295e+01 3.356120e+01 7.613811e+01 3.140239e+01 8.467958e+01 3.438145e+01 3.616417e+01 3.453298e+01 3.055236e+01 3.103921e+01 3.319093e+01 7.481972e+01 4.730630e+00 6.870761e+00 6.577567e+00 8.221132e+00 6.527598e+00 9.203383e+00 5.424708e+00 6.498721e+00 6.262701e+00 4.501413e+00 4.793193e+00 4.966377e+00 1.101973e+01 1.118255e+00 7.977985e-01 6.127481e-01 1.464727e+00 1.051205e+00 1.383297e+00 7.196692e-01 7.542798e-01 8.811064e-01 6.667538e-01 7.883012e-01 6.695219e-01 1.259950e+00
<GCONST> 1.428890e+02
<TRANSP> 5
 0.000000e+00 1.000000e+00 0.000000e+00 0.000000e+00 0.000000e+00
 0.000000e+00 8.465427e-01 1.534573e-01 0.000000e+00 0.000000e+00
 0.000000e+00 0.000000e+00 5.454769e-01 4.545231e-01 0.000000e+00
 0.000000e+00 0.000000e+00 0.000000e+00 3.903563e-01 6.096437e-01
 0.000000e+00 0.000000e+00 0.000000e+00 0.000000e+00 0.000000e+00
<ENDHMM>
~h "r"
<BEGINHMM>
<NUMSTATES> 5
<STATE> 2
<MEAN> 39
 -5.135902e-01 -8.903849e+00 -5.904983e+00 -4.916602e+00 -1.102342e+01 -4.704940e+00 -1.259069e+01 -3.414382e+00 3.081518e+00 -6.352950e-01 -2.682887e+00 -7.581432e+00 6.733995e+01 3.582831e-01 4.851963e-02 1.447808e-01 1.555123e+00 -2.259279e-01 -4.875810e-01 -6.689807e-01 -4.606544e-01 5.332956e-01 -1.192529e-01 4.864975e-02 3.531597e-01 -8.590612e-01 -3.346306e-02 -8.738536e-03 1.437854e-01 -2.756798e-01 -1.318926e-02 2.089972e-01 -6.504595e-02 1.362016e-01 -4.222894e-01 -5.237962e-02 1.345343e-01 5.362750e-03 -7.816555e-04
<VARIANCE> 39
 2.153486e+01 3.143496e+01 5.305121e+01 4.594076e+01 5.506583e+01 5.491895e+01 6.228476e+01 8.899982e+01 5.795389e+01 4.890215e+01 4.720134e+01 4.064151e+01 5.195575e+01 2.622035e+00 2.402651e+00 3.227379e+00 4.750694e+00 4.997072e+00 4.815599e+00 4.612447e+00 4.995372e+00 5.298401e+00 4.620407e+00 4.312438e+00 3.614201e+00 3.584355e+00 4.644920e-01 3.970172e-01 4.934961e-01 7.615451e-01 7.778291e-01 6.979235e-01 7.624238e-01 9.139193e-01 8.304665e-01 7.407333e-01 6.509096e-01 6.154784e-01 6.167111e-01
<GCONST> 1.346712e+02
<STATE> 3
<MEAN> 39
 4.419012e-01 -8.688274e+00 -4.644033e+00 -1.588548e+00 -1.159074e+01 -5.174302e+00 -1.527597e+01 -4.038037e+00 2.629779e+00 -6.640279e-01 -1.498237e+00 -6.749505e+00 6.542751e+01 2.443708e-01 -2.856914e-02 4.267660e-01 3.095225e-01 -1.390770e-01 -7.983375e-02 -4.500928e-01 2.400261e-01 -7.369519e-01 -1.076001e-01 2.849854e-01 2.659394e-01 -4.761501e-01 -1.232547e-01 1.536167e-03 8.525123e-02 -5.620945e-01 -3.250068e-02 2.272735e-01 2.948278e-01 2.378564e-01 -4.054742e-01 -7.147797e-02 3.695923e-02 -9.958670e-02 2.339835e-01
<VARIANCE> 39
 1.938983e+01 2.700622e+01 5.538997e+01 3.863843e+01 5.983327e+01 5.392145e+01 5.739404e+01 7.659267e+01 5.587693e+01 4.964776e+01 4.569764e+01 3.887582e+01 3.877482e+01 2.034397e+00 2.449267e+00 3.194486e+00 2.680387e+00 5.104422e+00 4.453951e+00 4.046124e+00 5.091126e+00 4.662821e+00 3.765379e+00 3.676535e+00 3.408869e+00 3.197594e+00 4.531258e-01 5.325091e-01 5.472860e-01 7.212358e-01 1.192137e+00 8.841084e-01 9.086494e-01 9.975995e-01 1.056174e+00 8.945712e-01 8.749822e-01 6.945149e-01 7.331513e-01
<GCONST> 1.343391e+02
<STATE> 4
<MEAN> 39
 2.167963e-01 -8.071845e+00 -4.522532e+00 -2.483310e+00 -1.094773e+01 -5.468888e+00 -1.428373e+01 -3.317624e+00 8.084677e-01 -1.180134e+00 -1.471943e+00 -6.426512e+00 6.376825e+01 -1.049478e-01 2.170694e-01 5.146278e-01 -2.524411e-01 4.306707e-03 2.162697e-01 3.350829e-01 2.539344e-01 -8.652447e-01 -2.697548e-01 6.981893e-02 1.206159e-01 -4.582491e-01 -1.342345e-01 5.520473e-02 9.281208e-02 -2.115092e-01 -1.496705e-02 1.605424e-01 1.876692e-01 1.979022e-02 -1.151885e-01 -2.991841e-02 -2.793780e-02 -8.217665e-02 5.969428e-02
<VARIANCE> 39
 2.551560e+01 3.444328e+01 6.857772e+01 4.009412e+01 6.223908e+01 5.924392e+01 5.853770e+01 7.576344e+01 5.268890e+01 4.991681e+01 4.877595e+01 4.063975e+01 6.795575e+01 1.927278e+00 2.961796e+00 2.890700e+00 2.359554e+00 4.496903e+00 3.532422e+00 3.573632e+00 4.225521e+00 4.252139e+00 3.158116e+00 3.245296e+00 2.738520e+00 3.779829e+00 3.657815e-01 3.825134e-01 3.959279e-01 5.026810e-01 8.014371e-01 6.301383e-01 6.670088e-01 6.849059e-01 6.985726e-01 6.290967e-01 6.244874e-01 5.083414e-01 4.906375e-01
<GCONST> 1.301949e+02
<TRANSP> 5
 0.000000e+00 1.000000e+00 0.000000e+00 0.000000e+00 0.000000e+00
 0.000000e+00 4.545368e-01 5.454631e-01 0.000000e+00 0.000000e+00
 0.000000e+00 0.000000e+00 4.211510e-01 5.788490e-01 0.000000e+00
 0.000000e+00 0.000000e+00 0.000000e+00 5.304700e-01 4.695299e-01
 0.000000e+00 0.000000e+00 0.000000e+00 0.000000e+00 0.000000e+00
<ENDHMM>
~h "s"
<BEGINHMM>
<NUMSTATES> 5
<STATE> 2
<MEAN> 39
 -1.042954e+01 2.153433e+00 -2.634096e-01 -3.895195e+00 -3.396226e+00 -7.313714e+00 -8.070927e+00 -1.624732e+00 -2.835335e+00 -2.191841e+00 -4.631994e+00 -2.998995e+00 6.402161e+01 -4.469429e+00 2.557937e+00 -5.196037e-01 9.175600e-01 2.070265e+00 -5.262458e-01 1.752377e+00 6.349951e-01 3.305053e-01 -3.949950e-01 3.772776e-01 9.920946e-01 -6.279753e-01 -5.749261e-01 -3.932721e-01 -3.307495e-01 -2.694930e-01 -3.323674e-01 3.216756e-01 -1.248030e-01 -3.847931e-03 -6.576258e-02 -3.809214e-03 3.104236e-01 -1.190323e-01 -3.118047e-02
<VARIANCE> 39
 6.907659e+01 5.209177e+01 5.106804e+01 4.322952e+01 5.842682e+01 4.790767e+01 7.322215e+01 5.810718e+01 4.798310e+01 4.017260e+01 4.365287e+01 3.297623e+01 5.759195e+01 3.538590e+00 4.904551e+00 4.177894e+00 4.205059e+00 5.273874e+00 4.672115e+00 5.245266e+00 5.607578e+00 4.332582e+00 3.685742e+00 3.817787e+00 2.975999e+00 2.443885e+00 9.113442e-01 9.415175e-01 4.154749e-01 5.853769e-01 7.887891e-01 6.099008e-01 9.217643e-01 7.214828e-01 6.437268e-01 6.146099e-01 5.738066e-01 4.779182e-01 2.246367e-01
<GCONST> 1.347269e+02
<STATE> 3
<MEAN> 39
 -2.840239e+01 4.723152e+00 -5.233347e+00 -3.862428e+00 -3.759209e-01 -6.582028e+00 -4.679926e+00 -1.483883e-01 -2.341999e+00 -2.229133e+00 -9.326759e-01 -2.113332e-01 6.123400e+01 -9.986212e-01 -4.560793e-01 -5.240911e-01 -2.232123e-01 -1.342171e-01 7.757308e-02 9.247765e-02 8.776442e-02 1.076365e-01 8.775701e-02 2.412283e-01 2.182506e-01 -2.562066e-01 9.547843e-01 -2.740169e-01 2.309413e-01 -6.407183e-02 -2.506077e-01 -4.443305e-02 -2.424389e-01 -1.210174e-01 1.359660e-02 1.856458e-02 -1.610004e-01 -1.612355e-01 8.587765e-02
<VARIANCE> 39
 2.674624e+01 2.008938e+01 3.542914e+01 3.171856e+01 3.475721e+01 3.605596e+01 4.860610e+01 2.994878e+01 3.038228e+01 2.382734e+01 2.406522e+01 2.036527e+01 2.645917e+01 4.018124e+00 1.701032e+00 1.962997e+00 1.528670e+00 1.812748e+00 1.922230e+00 2.051185e+00 2.064478e+00 2.059294e+00 1.863042e+00 1.832233e+00 1.525988e+00 8.949133e-01 4.768210e-01 3.723609e-01 3.623254e-01 3.502443e-01 4.381003e-01 4.095735e-01 5.159586e-01 4.798634e-01 4.370472e-01 3.975804e-01 3.795331e-01 3.522761e-01 1.622985e-01
<GCONST> 1.109468e+02
<STATE> 4
<MEAN> 39
 -2.240449e+01 3.199703e-01 -5.309913e+00 -4.925712e+00 -3.011289e+00 -6.920663e+00 -6.094383e+00 -7.735663e-01 -8.777393e-01 -2.100431e+00 -1.969367e+00 -1.037512e+00 5.817559e+01 3.927798e+00 -6.300219e-01 8.762941e-01 -2.859372e-01 -1.064514e+00 -1.341959e-02 -1.400317e+00 -8.234892e-01 -1.252550e-02 -4.678763e-02 -6.868662e-01 -1.073684e+00 3.391947e-01 6.284426e-01 -2.487725e-02 2.203745e-01 -7.006077e-02 -1.822429e-01 2.527343e-01 -3.097635e-01 -1.588903e-01 -1.280392e-01 -2.164881e-03 6.353971e-02 -2.218817e-01 2.493940e-01
<VARIANCE> 39
 7.011193e+01 2.805895e+01 4.033398e+01 3.226766e+01 3.431392e+01 3.851649e+01 5.147041e+01 3.138577e+01 3.011504e+01 2.402005e+01 2.635768e+01 2.332863e+01 7.059139e+01 8.235147e+00 3.410819e+00 4.241653e+00 3.471712e+00 3.316425e+00 4.016553e+00 4.688254e+00 4.311273e+00 3.949529e+00 2.609138e+00 2.746015e+00 2.791742e+00 5.208602e+00 1.177230e+00 5.035113e-01 5.104758e-01 5.001870e-01 5.174420e-01 6.717685e-01 7.912650e-01 6.954587e-01 6.062701e-01 4.856534e-01 5.161201e-01 4.719865e-01 4.738620e-01
<GCONST> 1.289855e+02
<TRANSP> 5
 0.000000e+00 1.000000e+00 0.000000e+00 0.000000e+00 0.000000e+00
 0.000000e+00 6.805723e-01 3.194276e-01 0.000000e+00 0.000000e+00
 0.000000e+00 0.000000e+00 8.533618e-01 1.466382e-01 0.000000e+00
 0.000000e+00 0.000000e+00 0.000000e+00 7.160645e-01 2.839355e-01
 0.000000e+00 0.000000e+00 0.000000e+00 0.000000e+00 0.000000e+00
<ENDHMM>
~h "t"
<BEGINHMM>
<NUMSTATES> 5
<STATE> 2
<MEAN> 39
 -5.422040e+00 1.562096e+00 -2.194911e+00 -3.976443e+00 -6.965518e+00 -6.323512e+00 -9.581508e+00 -5.779464e+00 -2.208133e+00 -1.624658e+00 -4.555990e+00 -5.854170e+00 4.402827e+01 -1.014528e+00 1.310414e-01 -2.679906e-01 1.111177e-01 1.802194e-01 -9.487014e-02 6.420190e-01 1.040697e-01 -1.606733e-01 -2.264777e-01 8.455803e-02 4.927496e-01 -2.055395e+00 -2.194160e-01 -5.272499e-01 -9.695014e-02 -2.741743e-01 -8.787612e-02 5.339847e-02 -6.440050e-02 1.326610e-01 -6.216924e-03 2.438931e-03 1.307385e-01 7.499057e-02 1.121236e+00
<VARIANCE> 39
 3.294645e+01 2.863034e+01 4.534226e+01 3.703251e+01 3.512335e+01 3.875980e+01 4.263084e+01 4.250264e+01 4.431310e+01 3.191974e+01 3.510303e+01 3.085537e+01 8.343891e+01 2.094541e+00 2.872902e+00 2.135600e+00 2.568293e+00 3.135155e+00 2.663514e+00 2.987242e+00 2.939347e+00 2.739596e+00 2.444614e+00 2.486542e+00 2.144396e+00 7.647123e+00 3.843780e-01 4.981252e-01 4.473725e-01 5.302726e-01 6.728492e-01 5.674186e-01 6.048799e-01 5.954025e-01 5.876104e-01 5.094987e-01 5.018492e-01 4.454346e-01 1.275329e+00
<GCONST> 1.252016e+02
<STATE> 3
<MEAN> 39
 -1.125544e+01 -1.046144e+00 -2.631459e+00 -3.828864e+00 -5.578577e+00 -6.168142e+00 -6.919425e+00 -4.426132e+00 -3.353484e+00 -2.595171e+00 -3.138862e+00 -2.677039e+00 4.427908e+01 -1.336586e+00 -2.170661e+00 -7.322547e-01 -1.316897e+00 2.672956e-01 -3.205528e-01 -1.779207e-01 5.514658e-01 2.711055e-01 -8.423959e-02 2.615426e-01 3.326572e-01 5.426884e+00 9.225985e-01 -1.513284e-01 9.204050e-02 -3.793815e-01 -4.664096e-01 1.624470e-01 -6.600137e-01 -9.523798e-02 2.338463e-01 1.300441e-01 -8.542481e-02 -5.566151e-01 1.621557e+00
<VARIANCE> 39
 3.385691e+01 3.650758e+01 3.250574e+01 2.908417e+01 3.020171e+01 3.477955e+01 3.278432e+01 3.285794e+01 3.323848e+01 2.470938e+01 2.644734e+01 2.199363e+01 1.129407e+02 4.037970e+00 3.680406e+00 4.465670e+00 3.851583e+00 4.307359e+00 4.529523e+00 4.578680e+00 4.623042e+00 5.308411e+00 3.304411e+00 3.840888e+00 3.461502e+00 1.128771e+01 6.532400e-01 7.367533e-01 8.604559e-01 7.134961e-01 8.335250e-01 9.406142e-01 8.530248e-01 9.290916e-01 9.210136e-01 6.386452e-01 6.723968e-01 6.084477e-01 1.634822e+00
<GCONST> 1.342060e+02
<STATE> 4
<MEAN> 39
 -1.138252e+01 -6.004251e+00 -4.810506e+00 -8.355845e+00 -6.680706e+00 -7.581738e+00 -9.660047e+00 -3.519490e+00 -1.604354e+00 -2.306210e+00 -3.416012e+00 -3.794852e+00 6.224617e+01 2.111037e+00 -9.603024e-01 1.932159e-01 -1.342251e+00 -1.104773e+00 6.317699e-01 -1.912593e+00 -7.510589e-02 6.457680e-01 3.103716e-01 1.473341e-01 -1.329330e+00 5.569165e+00 9.702600e-01 5.090801e-01 4.353101e-01 2.100582e-01 -3.699792e-01 5.944635e-01 -2.623417e-01 -1.912842e-01 -1.674224e-01 4.786526e-02 1.272277e-01 -3.148758e-01 -1.180855e+00
<VARIANCE> 39
 3.998042e+01 2.770228e+01 3.245162e+01 3.035668e+01 3.041951e+01 3.916510e+01 4.250879e+01 3.496459e+01 4.001887e+01 2.946985e+01 3.018740e+01 3.151725e+01 7.528327e+01 4.995494e+00 5.079581e+00 7.362561e+00 5.594338e+00 5.713320e+00 6.526577e+00 6.325077e+00 6.948703e+00 7.865458e+00 4.097542e+00 5.027438e+00 4.428424e+00 1.161281e+01 8.953392e-01 7.263957e-01 8.859844e-01 7.529187e-01 9.291946e-01 1.001414e+00 1.085961e+00 1.010066e+00 1.001596e+00 7.803462e-01 7.902172e-01 7.657962e-01 1.224234e+00
<GCONST> 1.402393e+02
<TRANSP> 5
 0.000000e+00 1.000000e+00 0.000000e+00 0.000000e+00 0.000000e+00
 0.000000e+00 7.855979e-01 2.144021e-01 0.000000e+00 0.000000e+00
 0.000000e+00 0.000000e+00 4.751119e-01 5.248881e-01 0.000000e+00
 0.000000e+00 0.000000e+00 0.000000e+00 4.362744e-01 5.637256e-01
 0.000000e+00 0.000000e+00 0.000000e+00 0.000000e+00 0.000000e+00
<ENDHMM>
~h "u"
<BEGINHMM>
<NUMSTATES> 5
<STATE> 2
<MEAN> 39
 2.861009e-01 1.140540e+00 -2.426601e+00 -8.989431e+00 -1.155140e+01 -1.259547e-01 -1.757103e+01 -8.835690e+00 -6.930159e+00 -2.382905e+00 8.517570e-01 -4.433764e+00 6.238961e+01 2.311479e+00 8.886310e-01 -2.529304e-01 -2.287505e+00 -1.911651e+00 2.406754e+00 -1.584503e+00 -1.077881e+00 -1.110796e+00 -4.661391e-02 1.645034e+00 -1.870948e-01 1.250397e+00 -4.382537e-01 2.468340e-02 1.240859e-01 -5.804362e-02 1.082539e-01 1.915746e-01 4.847061e-01 1.958092e-01 -4.186079e-02 -7.149689e-02 -6.905044e-02 1.030029e-01 -5.194192e-01
<VARIANCE> 39
 2.730379e+01 3.830009e+01 4.119992e+01 8.215317e+01 5.466485e+01 5.828919e+01 8.479553e+01 8.053452e+01 5.873177e+01 5.145597e+01 4.284414e+01 3.478590e+01 7.275338e+01 4.783525e+00 3.278909e+00 4.784665e+00 5.388923e+00 6.118812e+00 4.925400e+00 6.357128e+00 7.780676e+00 5.472015e+00 5.352190e+00 4.192808e+00 3.720404e+00 3.907332e+00 7.289820e-01 6.025741e-01 5.692427e-01 9.943244e-01 8.832343e-01 8.430225e-01 1.210427e+00 1.113500e+00 8.949298e-01 8.174362e-01 7.035113e-01 6.172261e-01 8.467360e-01
<GCONST> 1.413551e+02
<STATE> 3
<MEAN> 39
 2.958959e+00 2.093958e+00 -3.616258e+00 -1.393576e+01 -1.561822e+01 7.656122e+00 -1.891122e+01 -1.084953e+01 -9.624443e+00 -3.830351e+00 5.175904e+00 -3.648919e+00 6.490030e+01 1.909272e-01 4.038671e-02 1.007494e-02 -3.839042e-01 4.992689e-02 5.158623e-01 -2.275046e-02 -8.879062e-02 -2.263544e-01 1.513728e-01 3.004008e-01 -3.679381e-02 -4.927770e-02 -3.969034e-01 -1.472154e-01 2.022091e-01 7.814484e-01 6.177760e-01 -8.925702e-01 4.742622e-01 2.870689e-01 4.099571e-01 1.060424e-01 -6.933244e-01 -1.038354e-01 -4.676507e-01
<VARIANCE> 39
 1.261181e+01 3.662783e+01 3.754485e+01 7.576131e+01 5.164960e+01 5.209475e+01 8.421783e+01 9.890335e+01 7.132912e+01 7.182185e+01 5.111704e+01 4.394279e+01 2.583515e+01 8.849158e-01 3.106308e+00 1.929396e+00 6.098868e+00 4.333709e+00 4.856945e+00 5.307852e+00 5.737073e+00 5.065917e+00 4.959725e+00 4.185999e+00 3.104975e+00 2.430945e+00 3.272462e-01 4.616362e-01 4.571041e-01 7.536248e-01 8.513731e-01 6.979774e-01 1.014788e+00 1.143921e+00 9.098663e-01 1.009392e+00 8.021951e-01 6.906322e-01 3.331888e-01
<GCONST> 1.337157e+02
<STATE> 4
<MEAN> 39
 3.042717e+00 3.972527e+00 -3.281573e+00 -1.483518e+01 -1.322436e+01 4.248584e+00 -1.648631e+01 -8.140424e+00 -9.488149e+00 -3.304998e+00 1.817558e+00 -4.424019e+00 6.101832e+01 -2.703871e-01 -1.562504e-01 2.552614e-01 9.256282e-01 6.425201e-01 -8.139328e-01 6.214849e-01 9.233281e-02 5.939381e-01 2.414166e-01 -6.803005e-01 -1.724491e-01 -8.701379e-01 -1.845874e-01 -8.841093e-02 1.021755e-01 2.892500e-01 1.021323e-01 -1.566316e-01 1.074332e-01 -2.652591e-02 1.286080e-01 -1.011197e-02 -1.284370e-01 1.646169e-02 -1.246593e-01
<VARIANCE> 39
 1.369728e+01 4.358503e+01 3.960396e+01 7.818621e+01 5.272660e+01 5.745604e+01 7.455457e+01 8.017059e+01 6.700730e+01 6.426301e+01 4.986637e+01 4.445451e+01 5.855377e+01 9.019015e-01 2.242250e+00 1.908534e+00 3.717585e+00 3.224100e+00 3.313835e+00 3.476517e+00 3.646582e+00 3.267170e+00 3.292473e+00 3.297418e+00 2.779950e+00 3.159277e+00 1.775769e-01 3.540819e-01 2.866164e-01 5.143002e-01 4.839130e-01 4.681400e-01 6.246892e-01 6.539942e-01 5.352966e-01 6.232918e-01 5.452731e-01 4.946625e-01 3.044460e-01
<GCONST> 1.256158e+02
<TRANSP> 5
 0.000000e+00 1.000000e+00 0.000000e+00 0.000000e+00 0.000000e+00
 0.000000e+00 4.952677e-01 5.047323e-01 0.000000e+00 0.000000e+00
 0.000000e+00 0.000000e+00 6.441839e-01 3.558161e-01 0.000000e+00
 0.000000e+00 0.000000e+00 0.000000e+00 7.584764e-01 2.415236e-01
 0.000000e+00 0.000000e+00 0.000000e+00 0.000000e+00 0.000000e+00
<ENDHMM>
~h "w"
<BEGINHMM>
<NUMSTATES> 5
<STATE> 2
<MEAN> 39
 2.922223e+00 -9.112188e-01 -4.044365e+00 -1.361006e+01 -1.117225e+01 2.701874e+00 -1.299321e+01 -5.905663e+00 -5.965044e+00 -1.505920e+00 1.903269e+00 -5.819772e+00 6.088940e+01 1.511863e+00 9.472874e-01 -1.681832e-01 -2.159423e+00 -1.074948e+00 1.555003e+00 -1.980764e-01 -5.129742e-01 -1.085184e+00 -4.907657e-01 1.026041e+00 6.573396e-01 3.447855e-01 -2.795993e-01 -1.465643e-01 1.559764e-01 -4.477608e-02 -1.908287e-01 -1.015615e-01 1.933398e-01 3.235906e-01 8.276360e-02 -2.461014e-01 -1.266184e-01 1.404383e-01 2.449719e-02
<VARIANCE> 39
 2.344674e+01 7.657318e+01 4.756162e+01 8.214063e+01 5.137135e+01 7.167368e+01 7.566282e+01 6.198260e+01 7.090546e+01 6.056536e+01 5.301615e+01 4.326902e+01 1.102586e+02 2.249991e+00 2.848540e+00 2.954171e+00 3.686250e+00 4.753520e+00 4.169447e+00 4.271044e+00 4.403090e+00 3.736296e+00 4.036690e+00 3.340790e+00 3.538270e+00 4.347660e+00 4.626971e-01 4.989809e-01 4.502169e-01 6.556342e-01 7.790859e-01 7.312903e-01 7.573672e-01 7.210307e-01 7.613590e-01 7.675861e-01 6.609005e-01 5.779297e-01 2.740526e-01
<GCONST> 1.350827e+02
<STATE> 3
<MEAN> 39
 5.913031e+00 2.125614e-01 -4.480624e+00 -2.226215e+01 -1.577462e+01 7.952288e+00 -1.268248e+01 -4.533441e+00 -6.727626e+00 -4.479232e+00 3.451878e+00 -2.863149e+00 6.365798e+01 -7.333427e-02 -5.139474e-01 -2.929017e-01 -5.823227e-01 3.274209e-02 4.801972e-01 4.818137e-02 -8.534846e-02 3.117926e-01 2.302445e-01 3.099869e-01 -1.960393e-02 5.701470e-01 -2.881309e-01 -4.901728e-01 -1.319820e-01 4.557166e-01 4.584827e-01 -1.954340e-01 -1.874828e-02 -4.360499e-02 3.365979e-01 3.451062e-01 -1.578900e-01 -4.554995e-01 2.662955e-01
<VARIANCE> 39
 1.008086e+01 3.887540e+01 3.629407e+01 6.085503e+01 4.755747e+01 4.960299e+01 5.253193e+01 5.577615e+01 6.385353e+01 5.405834e+01 5.243444e+01 3.437703e+01 3.066785e+01 5.878477e-01 3.701913e+00 1.822942e+00 2.481128e+00 3.121789e+00 2.846378e+00 2.622709e+00 2.498633e+00 2.724008e+00 3.528225e+00 2.836353e+00 2.949309e+00 2.233125e+00 7.367945e-02 2.062304e-01 2.533293e-01 3.722866e-01 4.095981e-01 5.784130e-01 4.312293e-01 5.163022e-01 4.568705e-01 4.905732e-01 6.032282e-01 4.712792e-01 1.577040e-01
<GCONST> 1.176150e+02
<STATE> 4
<MEAN> 39
 3.206420e+00 -6.066821e+00 -7.335219e+00 -2.194130e+01 -1.188656e+01 9.935993e+00 -1.130690e+01 -6.397852e+00 -2.064821e+00 -2.043024e+00 3.458166e+00 -7.915444e+00 6.903308e+01 -5.636472e-01 -1.135740e+00 -2.708822e-01 8.937692e-01 1.063027e+00 -4.308544e-01 -5.033218e-02 1.656185e-01 7.684928e-01 4.101021e-01 -7.679977e-01 -1.220471e+00 6.623005e-01 -1.311148e-02 1.229101e-01 1.964212e-01 2.456214e-01 -1.136382e-01 -3.340923e-01 -3.516131e-02 2.161232e-01 -2.837294e-02 -2.078320e-01 -2.630290e-01 9.714328e-02 -1.453749e-01
<VARIANCE> 39
 1.283637e+01 5.387015e+01 3.918691e+01 5.598722e+01 6.684118e+01 5.254526e+01 5.902143e+01 5.880479e+01 7.183679e+01 6.103131e+01 5.540828e+01 6.124660e+01 2.857862e+01 4.215300e-01 1.754666e+00 1.038773e+00 1.919109e+00 2.301538e+00 2.360672e+00 1.651644e+00 2.024594e+00 2.070935e+00 1.933780e+00 2.402911e+00 2.830067e+00 8.531211e-01 5.779473e-02 1.808297e-01 1.653232e-01 2.277792e-01 3.359593e-01 3.542417e-01 3.055446e-01 3.444364e-01 2.665788e-01 3.794962e-01 3.898782e-01 4.179070e-01 9.557090e-02
<GCONST> 1.098537e+02
<TRANSP> 5
 0.000000e+00 1.000000e+00 0.000000e+00 0.000000e+00 0.000000e+00
 0.000000e+00 6.114746e-01 3.885254e-01 0.000000e+00 0.000000e+00
 0.000000e+00 0.000000e+00 7.795051e-01 2.204949e-01 0.000000e+00
 0.000000e+00 0.000000e+00 0.000000e+00 7.672798e-01 2.327202e-01
 0.000000e+00 0.000000e+00 0.000000e+00 0.000000e+00 0.000000e+00
<ENDHMM>
~h "y"
<BEGINHMM>
<NUMSTATES> 5
<STATE> 2
<MEAN> 39
 -4.724386e+00 -5.175886e+00 8.846572e+00 -8.231186e+00 -1.628983e+01 -7.766176e+00 -1.166353e+01 1.707244e+00 -6.825903e+00 -4.017123e+00 -5.213276e-03 -4.606146e+00 6.533622e+01 -8.644683e-02 9.327210e-01 2.862075e+00 -1.180497e-01 -1.949286e+00 -6.720064e-01 -1.079816e+00 -5.447331e-01 -1.512586e+00 9.486342e-02 1.630926e+00 7.665835e-01 6.542927e-01 -5.065408e-02 -4.601758e-02 -2.771550e-01 -7.428333e-02 2.274691e-01 3.296199e-01 -1.279614e-01 -3.501385e-01 7.731713e-02 3.038507e-02 -3.684657e-02 -4.405080e-02 -2.015563e-02
<VARIANCE> 39
 2.342216e+01 7.899620e+01 9.504703e+01 5.234502e+01 5.568088e+01 6.656367e+01 7.031114e+01 9.391673e+01 7.515881e+01 5.735786e+01 4.943859e+01 3.756842e+01 1.256530e+02 2.016579e+00 2.597675e+00 3.432206e+00 2.701766e+00 3.380620e+00 3.854305e+00 4.359581e+00 4.701894e+00 3.823077e+00 4.231927e+00 2.995089e+00 2.903026e+00 4.784427e+00 2.278771e-01 4.187557e-01 7.538751e-01 4.226252e-01 6.574330e-01 6.276875e-01 7.293985e-01 8.039379e-01 6.707264e-01 6.005817e-01 5.700491e-01 4.301418e-01 2.666979e-01
<GCONST> 1.328889e+02
<STATE> 3
<MEAN> 39
 -5.725776e+00 -2.758986e+00 1.676972e+01 -8.708570e+00 -2.104886e+01 -7.559204e+00 -1.644194e+01 -2.335454e+00 -1.118419e+01 -3.263496e+00 4.537049e+00 -2.581013e+00 6.766175e+01 1.287585e-01 -6.945849e-01 -7.089669e-01 -2.429028e-01 -3.942331e-01 -3.860693e-01 2.375949e-01 6.643951e-01 6.585242e-01 2.098541e-01 1.344983e-01 9.418228e-02 7.126957e-01 9.949762e-02 -3.142336e-01 -7.210411e-01 -1.746988e-02 3.462590e-01 3.602231e-02 3.696355e-01 4.196544e-01 4.782903e-01 -4.452928e-02 -4.171413e-01 -2.124623e-01 2.027527e-02
<VARIANCE> 39
 1.259455e+01 3.587661e+01 5.341019e+01 4.706953e+01 3.305887e+01 5.137222e+01 4.538839e+01 6.444154e+01 5.983457e+01 7.458708e+01 4.126543e+01 3.898639e+01 3.402921e+01 5.306633e-01 2.534585e+00 4.314769e+00 1.336686e+00 1.972097e+00 2.045099e+00 2.981931e+00 4.219655e+00 3.724104e+00 2.179883e+00 1.941388e+00 1.469432e+00 1.640880e+00 9.058250e-02 1.958754e-01 2.738961e-01 2.273427e-01 5.015742e-01 4.194350e-01 4.295463e-01 4.411710e-01 4.163069e-01 5.141559e-01 4.328663e-01 3.153983e-01 1.599369e-01
<GCONST> 1.145697e+02
<STATE> 4
<MEAN> 39
 -4.694255e+00 -8.516695e+00 5.719843e+00 -9.604657e+00 -1.924640e+01 -9.708303e+00 -1.054743e+01 3.760132e+00 -3.446881e+00 -4.003832e+00 8.273713e-01 -4.020632e+00 6.972163e+01 3.464961e-01 -1.069327e+00 -2.190591e+00 -1.145345e-01 1.382131e+00 5.814594e-01 8.094081e-01 1.151356e+00 1.307294e+00 -6.089362e-01 -1.692400e+00 -9.195545e-01 3.896278e-01 6.219207e-03 1.218973e-01 8.109678e-04 7.259444e-02 4.578041e-01 3.724962e-01 -1.991425e-01 -4.399304e-01 -1.830721e-01 -1.072618e-01 -2.192955e-01 -1.498442e-01 -1.880358e-01
<VARIANCE> 39
 1.682546e+01 3.972513e+01 5.451819e+01 4.717276e+01 4.686390e+01 4.836760e+01 6.030157e+01 9.651153e+01 6.332372e+01 4.883132e+01 4.059600e+01 3.817917e+01 9.719998e+01 3.721219e-01 1.380016e+00 2.947156e+00 1.102889e+00 2.130144e+00 1.578759e+00 2.500244e+00 3.033567e+00 2.738704e+00 2.804205e+00 2.908628e+00 1.691248e+00 7.332084e-01 6.123528e-02 1.524506e-01 2.168171e-01 2.033234e-01 3.601226e-01 3.512811e-01 3.559317e-01 5.327017e-01 3.616166e-01 3.570682e-01 3.576239e-01 2.644802e-01 9.136526e-02
<GCONST> 1.111376e+02
<TRANSP> 5
 0.000000e+00 1.000000e+00 0.000000e+00 0.000000e+00 0.000000e+00
 0.000000e+00 6.651819e-01 3.348181e-01 0.000000e+00 0.000000e+00
 0.000000e+00 0.000000e+00 8.191780e-01 1.808220e-01 0.000000e+00
 0.000000e+00 0.000000e+00 0.000000e+00 6.360185e-01 3.639815e-01
 0.000000e+00 0.000000e+00 0.000000e+00 0.000000e+00 0.000000e+00
<ENDHMM>
~h "z"
<BEGINHMM>
<NUMSTATES> 5
<STATE> 2
<MEAN> 39
 -7.892971e+00 4.471135e+00 2.475156e+00 -5.051293e-01 -6.173436e+00 -1.068234e+01 -1.237752e+01 -4.086356e+00 -2.807028e+00 -2.772772e+00 -4.467776e+00 -1.679832e+00 6.369836e+01 -2.128701e+00 2.640607e+00 -4.555643e-01 1.177565e+00 1.686847e+00 -5.938583e-01 1.034424e+00 -1.275619e-01 2.352360e-01 -4.302434e-01 -1.830111e-02 7.052405e-01 -5.362501e-01 -2.609824e-01 -8.715571e-02 -1.560182e-01 -1.919400e-01 2.670163e-03 4.271210e-01 1.486302e-01 1.566808e-01 -7.089871e-03 6.306951e-02 1.574154e-01 -1.704640e-01 -5.841900e-02
<VARIANCE> 39
 4.534614e+01 4.836980e+01 4.393138e+01 4.655690e+01 5.800101e+01 4.699081e+01 7.286897e+01 5.927438e+01 5.055453e+01 4.350772e+01 3.068264e+01 3.086979e+01 8.376647e+01 3.231160e+00 3.373427e+00 3.356838e+00 3.271477e+00 3.762687e+00 4.230196e+00 4.747065e+00 5.528785e+00 3.802222e+00 3.437815e+00 3.353857e+00 2.915479e+00 2.858708e+00 4.818449e-01 6.528549e-01 4.782645e-01 4.586358e-01 5.970159e-01 5.589867e-01 8.468843e-01 6.685534e-01 5.858636e-01 6.175221e-01 5.504995e-01 4.965479e-01 2.747593e-01
<GCONST> 1.310278e+02
<STATE> 3
<MEAN> 39
 -1.905033e+01 1.212243e+01 9.025752e-01 2.461064e+00 -1.033537e+00 -9.444739e+00 -8.230227e+00 -3.455882e+00 -2.943804e+00 -3.773116e+00 -3.050342e+00 -6.906056e-02 6.267321e+01 -3.274972e-01 -4.401166e-01 6.701075e-02 -1.048142e-01 -3.310386e-01 -2.795740e-02 -1.100210e-01 -2.116429e-02 1.723010e-02 4.179583e-02 2.010363e-01 1.817203e-01 4.791053e-01 6.631140e-01 -6.064848e-01 1.225841e-01 -2.189818e-01 -5.346316e-01 -4.692346e-02 -2.697175e-01 -1.020784e-01 1.320284e-02 2.723789e-02 -2.842613e-02 -1.059996e-01 2.370845e-01
<VARIANCE> 39
 4.844999e+01 2.858034e+01 3.222326e+01 3.992693e+01 3.682043e+01 3.893073e+01 4.870591e+01 2.837422e+01 2.434827e+01 2.134583e+01 2.192612e+01 1.958800e+01 3.327113e+01 5.383223e+00 3.292747e+00 1.908858e+00 1.660715e+00 3.442620e+00 2.389477e+00 2.689989e+00 2.218708e+00 2.206383e+00 1.546330e+00 1.538089e+00 1.380307e+00 1.793011e+00 4.971409e-01 3.835624e-01 3.490511e-01 3.310965e-01 4.754239e-01 4.827707e-01 4.896361e-01 4.816284e-01 4.454798e-01 3.295733e-01 3.122946e-01 3.157070e-01 1.958261e-01
<GCONST> 1.142791e+02
<STATE> 4
<MEAN> 39
 -1.749981e+01 1.509264e+00 -2.091702e+00 -2.840138e+00 -4.095746e+00 -7.031464e+00 -6.772790e+00 -3.285875e+00 -3.902896e+00 -4.271931e+00 -1.735852e+00 -9.087223e-01 4.967524e+01 7.773929e-01 -6.623923e-01 2.531993e-01 -3.019403e-01 -7.140165e-01 -9.262179e-02 -3.547099e-01 -9.179830e-02 1.144654e-01 5.494964e-02 -7.994894e-03 -1.174731e-01 4.188437e-01 1.525377e-01 -4.419838e-02 5.454498e-02 -5.247525e-02 -5.417836e-02 1.087665e-01 -6.817167e-02 5.859748e-03 -1.680279e-03 -1.549057e-02 -5.379086e-03 -1.192656e-01 1.616494e-02
<VARIANCE> 39
 7.541972e+01 3.874734e+01 4.313170e+01 3.840234e+01 3.622697e+01 3.794498e+01 4.257745e+01 3.190240e+01 3.197804e+01 2.255966e+01 2.424649e+01 1.887965e+01 2.062455e+02 4.087262e+00 3.355934e+00 1.977362e+00 2.076456e+00 3.386595e+00 2.210204e+00 2.716214e+00 2.734693e+00 2.512855e+00 1.808905e+00 1.927223e+00 1.749343e+00 1.972190e+00 3.739790e-01 2.763718e-01 2.919484e-01 2.878008e-01 3.385657e-01 4.415830e-01 4.326105e-01 4.455431e-01 3.607506e-01 3.298493e-01 3.700199e-01 3.559135e-01 1.582285e-01
<GCONST> 1.167114e+02
<TRANSP> 5
 0.000000e+00 1.000000e+00 0.000000e+00 0.000000e+00 0.000000e+00
 0.000000e+00 7.181524e-01 2.818476e-01 0.000000e+00 0.000000e+00
 0.000000e+00 0.000000e+00 8.444033e-01 1.555967e-01 0.000000e+00
 0.000000e+00 0.000000e+00 0.000000e+00 8.111816e-01 1.888185e-01
 0.000000e+00 0.000000e+00 0.000000e+00 0.000000e+00 0.000000e+00
<ENDHMM>
~h "ai"
<BEGINHMM>
<NUMSTATES> 5
<STATE> 2
<MEAN> 39
 -1.871704e+00 -1.605181e+01 -2.927620e+00 -1.165465e+01 -1.079901e+01 -2.957748e+00 -9.257066e+00 5.895082e+00 1.116258e+00 -5.826840e+00 -6.234820e+00 -8.965729e+00 7.381875e+01 -3.333045e-01 8.869846e-02 1.267515e+00 1.871503e-01 -1.353822e+00 -1.244720e+00 7.047808e-01 1.097949e+00 -7.179689e-01 -2.649731e-01 4.535249e-01 7.349020e-01 5.814914e-02 -6.540450e-02 4.659730e-01 3.500513e-01 1.416000e-02 -2.468899e-01 -1.003662e-01 -1.460843e-01 -4.793642e-01 -3.520577e-01 3.802681e-01 4.598069e-01 1.807791e-01 -2.899556e-01
<VARIANCE> 39
 1.274566e+01 2.832721e+01 5.492867e+01 4.016619e+01 6.379881e+01 7.452522e+01 6.182349e+01 7.103366e+01 5.963099e+01 4.838054e+01 5.204436e+01 3.867844e+01 1.958448e+01 3.327022e-01 1.490001e+00 1.943725e+00 1.247932e+00 2.764781e+00 2.633882e+00 2.107306e+00 3.142641e+00 2.211908e+00 2.850736e+00 3.380261e+00 1.931742e+00 4.032711e-01 1.044119e-01 1.586160e-01 2.125169e-01 2.573042e-01 3.942136e-01 4.417560e-01 4.291740e-01 6.736431e-01 4.074259e-01 4.056105e-01 4.601207e-01 4.142258e-01 1.061975e-01
<GCONST> 1.118428e+02
<STATE> 3
<MEAN> 39
 -3.821896e+00 -9.292177e+00 1.047722e+01 -1.115783e+01 -2.219571e+01 -9.823516e+00 -1.072782e+01 4.433105e+00 -8.156567e+00 5.925895e-02 2.921853e+00 -4.398525e+00 7.115118e+01 -2.630490e-01 1.285576e+00 1.581579e+00 2.451619e-01 -6.054652e-01 -5.712038e-02 -7.619349e-01 -1.672689e+00 -1.329268e+00 5.888143e-01 8.523825e-01 2.050423e-01 -7.454225e-01 8.849989e-02 -1.075846e-03 -3.521124e-01 1.777903e-01 5.276779e-01 2.241693e-01 -1.453133e-02 -8.425546e-02 2.149627e-01 -2.860041e-01 -4.486496e-01 -1.783670e-01 -1.804072e-01
<VARIANCE> 39
 1.190955e+01 2.790681e+01 4.684576e+01 3.742144e+01 2.949944e+01 4.479419e+01 5.127900e+01 7.114397e+01 6.149688e+01 5.505927e+01 4.874414e+01 3.371058e+01 2.111575e+01 3.375647e-01 9.987661e-01 1.875168e+00 1.047079e+00 2.045630e+00 1.595446e+00 2.053928e+00 2.422684e+00 2.214014e+00 2.256282e+00 2.541018e+00 1.386429e+00 3.792078e-01 6.107383e-02 1.403581e-01 1.914411e-01 1.826903e-01 2.472402e-01 3.018416e-01 4.150375e-01 5.087079e-01 3.411104e-01 3.280229e-01 3.133189e-01 2.594223e-01 9.424385e-02
<GCONST> 1.038711e+02
<STATE> 4
<MEAN> 39
 -5.079117e+00 -8.033581e-01 1.296275e+01 -6.680932e+00 -1.940675e+01 -7.646960e+00 -1.148584e+01 -4.791784e+00 -1.030410e+01 -1.636094e+00 1.379995e+00 -4.655767e+00 6.018646e+01 1.166349e-01 5.857210e-01 -6.093685e-01 6.999314e-01 8.832049e-01 1.071823e-01 3.360595e-01 -2.847669e-01 2.760987e-01 -2.509350e-01 -5.387489e-01 -4.561993e-02 -1.623626e+00 2.889352e-02 -7.755844e-02 -2.927446e-01 4.226708e-02 1.882192e-01 1.217742e-02 1.089954e-01 1.193541e-01 2.025516e-01 3.947630e-03 -7.241052e-02 2.702099e-02 -8.770602e-02
<VARIANCE> 39
 1.776953e+01 3.888023e+01 5.157743e+01 4.519556e+01 4.613490e+01 5.966608e+01 5.479371e+01 7.185761e+01 5.538476e+01 5.444273e+01 4.904507e+01 3.645455e+01 1.065786e+02 9.495116e-01 1.539057e+00 2.121098e+00 1.827929e+00 2.383804e+00 2.302572e+00 2.692309e+00 2.745863e+00 2.762692e+00 2.289592e+00 2.076124e+00 1.754271e+00 2.378488e+00 1.504546e-01 2.481975e-01 3.105032e-01 3.093825e-01 4.360255e-01 4.191524e-01 4.832646e-01 5.342208e-01 5.310299e-01 4.271065e-01 4.063713e-01 3.323781e-01 3.265829e-01
<GCONST> 1.184895e+02
<TRANSP> 5
 0.000000e+00 1.000000e+00 0.000000e+00 0.000000e+00 0.000000e+00
 0.000000e+00 8.305483e-01 1.694517e-01 0.000000e+00 0.000000e+00
 0.000000e+00 0.000000e+00 8.080134e-01 1.919866e-01 0.000000e+00
 0.000000e+00 0.000000e+00 0.000000e+00 8.203858e-01 1.796142e-01
 0.000000e+00 0.000000e+00 0.000000e+00 0.000000e+00 0.000000e+00
<ENDHMM>
~h "au"
<BEGINHMM>
<NUMSTATES> 5
<STATE> 2
<MEAN> 39
 -8.151242e-01 -1.072541e+01 -9.815881e+00 -1.650340e+01 -7.649763e+00 5.485403e+00 -1.287832e+01 -2.832625e+00 1.482242e+00 -2.947563e-01 -3.321134e+00 -1.111743e+01 7.235367e+01 6.213556e-01 -7.759768e-01 -8.803827e-01 -1.331210e+00 5.043144e-01 2.068031e+00 -2.389652e-01 -1.610019e-01 3.233452e-01 9.996072e-03 5.475921e-01 -9.351398e-01 1.055411e+00 -3.083713e-01 5.253985e-01 3.888598e-01 3.132640e-01 -1.873440e-02 -3.714738e-01 2.337968e-01 -3.139327e-01 -5.391398e-01 -4.927273e-03 2.735959e-01 5.746735e-01 -8.279278e-01
<VARIANCE> 39
 1.563314e+01 3.401232e+01 4.677388e+01 5.005070e+01 4.841125e+01 7.244006e+01 6.113460e+01 7.901271e+01 5.742250e+01 5.404362e+01 5.618004e+01 4.006855e+01 3.866858e+01 2.137614e+00 2.469302e+00 2.133363e+00 3.171872e+00 3.472760e+00 3.911194e+00 3.252282e+00 4.171757e+00 3.720501e+00 3.252671e+00 4.414668e+00 3.329013e+00 3.141161e+00 4.147898e-01 3.303699e-01 3.731123e-01 6.480569e-01 5.634465e-01 6.161343e-01 7.205995e-01 6.697429e-01 6.211660e-01 6.131207e-01 7.459116e-01 5.130219e-01 6.284924e-01
<GCONST> 1.293049e+02
<STATE> 3
<MEAN> 39
 4.944779e-01 -8.492930e+00 -1.086192e+01 -2.065079e+01 -8.718096e+00 1.038421e+01 -1.198929e+01 -6.195630e+00 -9.548015e-01 -1.081836e+00 1.784876e+00 -9.974718e+00 7.155386e+01 3.806746e-01 1.048099e+00 1.945804e-01 -8.301068e-01 -6.025656e-01 2.230252e-01 -1.359008e-01 -7.594608e-02 -8.129446e-01 -1.040987e-01 7.340558e-01 9.173684e-01 -5.801165e-01 3.949163e-02 1.909120e-01 1.346760e-01 1.318234e-01 -1.464760e-01 -2.387638e-01 -6.523027e-02 8.671501e-02 -1.063099e-01 -6.927747e-02 -1.561326e-01 1.421055e-01 -1.736438e-01
<VARIANCE> 39
 1.410170e+01 3.570969e+01 3.721328e+01 4.828543e+01 4.390993e+01 4.652344e+01 5.966890e+01 5.952292e+01 5.356016e+01 5.056021e+01 5.438152e+01 4.959980e+01 1.925972e+01 2.884316e-01 1.028011e+00 6.071155e-01 1.148684e+00 1.330863e+00 1.348852e+00 1.504035e+00 1.674847e+00 1.851993e+00 1.807923e+00 1.887626e+00 2.097881e+00 3.601739e-01 4.881952e-02 1.180200e-01 1.071952e-01 2.316010e-01 2.144821e-01 2.398954e-01 2.426057e-01 2.833825e-01 2.735789e-01 3.201666e-01 3.631389e-01 3.323161e-01 5.368390e-02
<GCONST> 9.947730e+01
<STATE> 4
<MEAN> 39
 3.848932e+00 2.459155e+00 -6.537002e+00 -2.257451e+01 -1.374328e+01 6.732811e+00 -1.403655e+01 -3.608302e+00 -7.361970e+00 -2.673091e+00 1.059854e+00 -3.594374e+00 6.200906e+01 3.529601e-02 6.626503e-01 4.740945e-01 1.317058e+00 7.020725e-02 -9.142274e-01 -5.991280e-02 -1.646693e-01 -2.596077e-01 -7.397009e-02 -4.524871e-01 -6.831637e-03 -1.305224e+00 -1.598767e-01 -2.318421e-01 3.441152e-02 4.186890e-01 2.794114e-01 -1.146271e-01 1.385357e-01 -1.072355e-01 1.964522e-01 7.762534e-02 -9.390131e-02 -1.732093e-01 -5.210340e-02
<VARIANCE> 39
 1.300646e+01 3.931828e+01 3.707183e+01 6.410933e+01 5.409023e+01 5.350067e+01 5.882615e+01 5.829968e+01 5.933735e+01 6.237480e+01 5.084501e+01 4.332079e+01 5.607632e+01 6.986057e-01 1.917789e+00 1.345416e+00 3.265729e+00 2.827164e+00 2.632972e+00 2.719666e+00 2.815075e+00 2.455413e+00 2.836318e+00 2.574693e+00 2.370386e+00 1.521818e+00 1.136548e-01 2.439711e-01 2.221841e-01 4.207741e-01 4.327745e-01 4.761364e-01 4.571952e-01 4.542763e-01 4.494263e-01 4.900948e-01 5.033765e-01 4.713895e-01 2.166888e-01
<GCONST> 1.181367e+02
<TRANSP> 5
 0.000000e+00 1.000000e+00 0.000000e+00 0.000000e+00 0.000000e+00
 0.000000e+00 6.404691e-01 3.595309e-01 0.000000e+00 0.000000e+00
 0.000000e+00 0.000000e+00 8.521188e-01 1.478812e-01 0.000000e+00
 0.000000e+00 0.000000e+00 0.000000e+00 8.526726e-01 1.473274e-01
 0.000000e+00 0.000000e+00 0.000000e+00 0.000000e+00 0.000000e+00
<ENDHMM>
~h "kh"
<BEGINHMM>
<NUMSTATES> 5
<STATE> 2
<MEAN> 39
 -8.452001e+00 -3.525100e+00 -3.848705e+00 -5.485058e+00 -2.741782e+00 -3.042045e+00 -6.907607e+00 -3.155524e+00 -4.136435e+00 -9.414236e-01 -3.912928e+00 -3.733820e+00 5.380906e+01 -1.375575e+00 -5.894564e-01 -9.977959e-01 4.139628e-03 1.279332e+00 -3.922966e-01 9.222952e-02 6.227401e-01 4.967157e-03 3.222976e-01 1.070956e-02 5.513598e-01 2.958847e-01 -1.458248e-02 -2.689973e-01 -7.258853e-02 -2.902454e-01 -2.986789e-01 1.100548e-01 -1.883437e-01 -4.240047e-02 2.790029e-02 5.134251e-02 1.097601e-01 -6.735107e-02 4.255242e-01
<VARIANCE> 39
 3.634251e+01 5.748161e+01 7.188959e+01 5.765705e+01 8.678740e+01 7.892007e+01 5.089602e+01 4.696057e+01 5.243855e+01 3.991834e+01 4.282716e+01 3.712057e+01 1.379802e+02 3.264179e+00 5.546169e+00 5.515007e+00 4.758943e+00 7.170150e+00 6.087286e+00 5.548105e+00 4.924658e+00 4.650789e+00 4.132642e+00 4.055093e+00 3.617784e+00 1.158509e+01 5.110120e-01 9.934343e-01 8.474829e-01 7.258412e-01 1.246400e+00 1.138457e+00 1.007746e+00 8.454584e-01 8.118578e-01 7.988019e-01 7.369785e-01 6.264741e-01 1.441298e+00
<GCONST> 1.437317e+02
<STATE> 3
<MEAN> 39
 -1.456671e+01 -8.373936e+00 -7.436586e+00 -7.486233e+00 -8.246851e-01 -3.084246e+00 -7.803778e+00 -7.749078e-01 -2.712352e+00 1.386738e+00 -2.865450e+00 -1.324809e+00 5.967899e+01 -1.432055e-01 -6.585984e-02 2.081482e-02 -4.738426e-01 -4.590592e-01 1.205211e-01 1.190367e-01 -2.632616e-02 -8.356615e-02 3.592652e-02 2.186970e-01 2.527201e-02 1.832032e-01 5.570719e-01 3.249302e-01 4.555514e-01 7.275960e-02 -3.288454e-01 1.244490e-01 -4.449765e-02 -1.768976e-01 -1.581723e-01 -2.082525e-01 2.916494e-02 -2.269663e-01 -6.486445e-02
<VARIANCE> 39
 4.396575e+01 3.881374e+01 9.348405e+01 4.421671e+01 9.261310e+01 6.135430e+01 4.846346e+01 4.538785e+01 6.393029e+01 4.470471e+01 4.172224e+01 3.215025e+01 5.753590e+01 3.268632e+00 3.025655e+00 4.249017e+00 3.323125e+00 4.351575e+00 4.095634e+00 3.826155e+00 3.819236e+00 4.355499e+00 3.872679e+00 3.092785e+00 2.415546e+00 3.087581e+00 4.776221e-01 5.420202e-01 6.475627e-01 6.483526e-01 8.238837e-01 7.979718e-01 8.698527e-01 7.594923e-01 8.759042e-01 8.112602e-01 5.866432e-01 4.552914e-01 4.869758e-01
<GCONST> 1.340298e+02
<STATE> 4
<MEAN> 39
 -1.347057e+01 -5.466619e+00 -7.283419e+00 -5.708139e+00 -2.449156e+00 -1.799265e+00 -6.237332e+00 -2.953072e+00 -3.524403e+00 -3.040568e+00 -2.128181e+00 -2.241611e+00 4.528171e+01 3.766506e-01 8.274066e-02 1.283913e-01 -9.449632e-02 -1.829566e-01 1.517967e-01 -5.797326e-02 -1.111927e-01 -1.219928e-01 -7.733814e-02 3.159660e-02 -1.258389e-01 2.359845e-01 1.511701e-01 2.750077e-02 5.939370e-02 -1.949548e-02 -7.647569e-02 2.692154e-02 -8.636490e-02 -1.421996e-02 -2.979631e-02 -9.705176e-03 1.931283e-02 -3.879740e-02 1.049173e-01
<VARIANCE> 39
 2.948364e+01 4.476078e+01 4.019830e+01 3.466664e+01 3.440817e+01 4.037787e+01 3.936331e+01 3.107110e+01 4.098388e+01 3.178771e+01 2.648512e+01 2.101924e+01 1.654292e+02 2.007710e+00 1.716118e+00 2.049631e+00 1.601685e+00 2.050650e+00 1.838868e+00 2.278285e+00 2.153630e+00 2.278792e+00 2.320404e+00 1.905921e+00 1.629555e+00 1.851307e+00 2.241507e-01 2.822166e-01 2.916301e-01 3.017956e-01 3.592314e-01 3.414270e-01 4.381077e-01 4.000090e-01 4.082466e-01 4.102384e-01 3.724931e-01 2.901526e-01 2.362463e-01
<GCONST> 1.133233e+02
<TRANSP> 5
 0.000000e+00 1.000000e+00 0.000000e+00 0.000000e+00 0.000000e+00
 0.000000e+00 7.496971e-01 2.503029e-01 0.000000e+00 0.000000e+00
