~o
<STREAMINFO> 1 39
<VECSIZE> 39<NULLD><MFCC_D_A_0><DIAGC>
~s "silst"
<MEAN> 39
 -1.158212e+01 -2.043674e+00 -3.234406e+00 -2.302003e+00 -3.959869e+00 -3.556736e+00 -5.192402e+00 -3.128893e+00 -4.323125e+00 -3.745567e+00 -3.224150e+00 -1.926079e+00 3.845290e+01 -1.355406e-01 -1.166165e-02 -9.437895e-03 3.392613e-02 -2.076032e-02 -3.659971e-02 3.430992e-02 2.789846e-02 -1.931552e-02 -5.903054e-03 5.391340e-02 6.118440e-02 -1.696203e-01 5.743125e-02 1.570120e-02 2.827296e-02 -2.172932e-02 -3.910251e-03 1.291810e-02 -2.340922e-02 -1.089165e-02 -4.659565e-04 7.116318e-03 6.528311e-03 -2.612278e-02 9.486808e-02
<VARIANCE> 39
 2.188205e+01 3.239051e+01 2.956996e+01 3.318446e+01 2.888328e+01 3.367246e+01 3.331125e+01 4.235838e+01 3.199057e+01 3.268563e+01 2.851361e+01 2.393837e+01 4.780043e+01 1.361254e+00 2.145201e+00 1.936346e+00 2.258054e+00 2.276311e+00 2.486274e+00 2.410703e+00 2.932520e+00 2.454189e+00 2.477228e+00 2.169965e+00 1.968500e+00 2.147919e+00 2.440265e-01 3.844123e-01 3.528520e-01 4.360584e-01 4.491723e-01 4.738002e-01 4.800398e-01 5.637111e-01 4.871745e-01 4.861227e-01 4.238867e-01 3.853612e-01 3.746592e-01
<GCONST> 1.155377e+02
~h "@"
<BEGINHMM>
<NUMSTATES> 5
<STATE> 2
<MEAN> 39
 -3.351105e+00 -1.158969e+01 3.609798e+00 -7.467309e+00 -1.804267e+01 -9.396949e+00 -9.934037e+00 4.781249e+00 -4.200952e+00 -2.844218e+00 -2.914573e-01 -5.930928e+00 6.707352e+01 3.411916e-01 -1.424514e+00 1.065375e+00 -1.058646e+00 -2.026538e+00 -3.056197e-01 7.162759e-01 1.870885e+00 -3.665468e-01 -2.529244e-01 6.200297e-01 -1.797730e-01 2.425010e+00 -2.698752e-01 5.174628e-01 -1.140826e-01 9.260985e-02 4.263882e-01 2.840593e-01 2.906710e-01 -5.814088e-01 -1.180803e-01 1.308994e-01 -7.991203e-03 4.249442e-02 -6.292166e-01
<VARIANCE> 39
 2.694855e+01 4.845443e+01 6.540651e+01 4.631983e+01 6.004250e+01 5.497311e+01 7.213081e+01 7.787524e+01 6.934750e+01 5.184662e+01 5.827491e+01 3.665676e+01 1.188902e+02 3.305413e+00 3.790813e+00 3.349995e+00 3.221330e+00 4.830636e+00 3.858622e+00 5.157726e+00 6.188903e+00 5.199787e+00 4.389648e+00 3.973788e+00 3.006861e+00 7.006900e+00 6.034903e-01 6.655518e-01 5.084386e-01 5.417677e-01 9.025267e-01 6.401365e-01 8.322502e-01 1.043848e+00 8.968161e-01 6.649736e-01 7.067049e-01 5.041618e-01 1.512051e+00
<GCONST> 1.390604e+02
<STATE> 3
<MEAN> 39
 -3.987588e+00 -1.177227e+01 7.384950e+00 -9.833097e+00 -2.256909e+01 -9.469819e+00 -7.916287e+00 4.598553e+00 -6.079933e+00 -2.106861e+00 2.654939e+00 -6.086826e+00 7.244249e+01 -9.171116e-03 1.772556e-01 -7.972981e-03 -1.301302e-02 1.376404e-01 1.278231e-02 1.632923e-01 -1.233499e-01 -1.004324e-01 7.042810e-02 -1.173591e-01 -7.262744e-02 -1.222120e-01 6.763240e-02 1.669578e-01 -1.262985e-01 2.085330e-01 3.201410e-01 -2.589156e-02 -1.732568e-01 -1.942082e-01 4.800870e-02 4.354883e-03 -1.615418e-01 6.362056e-03 -2.989045e-01
<VARIANCE> 39
 1.214974e+01 3.485630e+01 6.466689e+01 3.809982e+01 4.020411e+01 5.230919e+01 6.278073e+01 8.289942e+01 6.322718e+01 5.205428e+01 5.131138e+01 3.638019e+01 1.993504e+01 3.257152e-01 7.015942e-01 1.012725e+00 9.088501e-01 1.126348e+00 1.119448e+00 1.522652e+00 1.501135e+00 1.518088e+00 1.267540e+00 1.315911e+00 9.039105e-01 5.469301e-01 8.202079e-02 1.513589e-01 1.529342e-01 1.746361e-01 2.545703e-01 2.236323e-01 3.136627e-01 3.437160e-01 2.706716e-01 2.638044e-01 2.334069e-01 1.798202e-01 1.342096e-01
<GCONST> 9.916757e+01
<STATE> 4
<MEAN> 39
 -3.245473e+00 -7.455230e+00 5.341090e+00 -6.060173e+00 -1.847072e+01 -1.063234e+01 -7.575480e+00 2.544382e+00 -5.667078e+00 -1.604301e+00 5.519485e-02 -5.679984e+00 6.247954e+01 8.531774e-02 1.119711e+00 -4.804196e-01 9.083529e-01 1.243833e+00 1.618416e-01 -1.932885e-02 -8.948393e-01 2.083915e-01 -3.141748e-02 -5.522764e-01 3.335194e-02 -2.147691e+00 -9.687516e-02 1.495793e-01 -4.028444e-02 4.897425e-02 1.573769e-01 1.825514e-01 3.925572e-02 -2.008746e-01 2.380276e-02 2.565300e-02 -8.032165e-03 2.339512e-02 -1.950508e-01
<VARIANCE> 39
 2.136094e+01 4.885681e+01 6.374203e+01 4.267666e+01 5.467215e+01 5.902048e+01 6.692737e+01 7.731308e+01 6.781834e+01 5.485310e+01 5.887386e+01 3.649404e+01 1.343211e+02 1.416619e+00 2.115575e+00 1.924131e+00 2.149595e+00 3.130275e+00 2.730446e+00 3.900254e+00 3.332777e+00 3.284677e+00 2.822629e+00 2.682958e+00 2.108331e+00 3.286096e+00 2.472007e-01 4.217874e-01 3.389488e-01 4.138141e-01 5.681828e-01 4.900466e-01 6.189452e-01 7.277606e-01 6.554196e-01 5.308481e-01 4.986535e-01 3.642858e-01 6.181827e-01
<GCONST> 1.267949e+02
<TRANSP> 5
 0.000000e+00 1.000000e+00 0.000000e+00 0.000000e+00 0.000000e+00
 0.000000e+00 6.705419e-01 3.294581e-01 0.000000e+00 0.000000e+00
 0.000000e+00 0.000000e+00 8.366311e-01 1.633689e-01 0.000000e+00
 0.000000e+00 0.000000e+00 0.000000e+00 7.389743e-01 2.610258e-01
 0.000000e+00 0.000000e+00 0.000000e+00 0.000000e+00 0.000000e+00
<ENDHMM>
~h "a"
<BEGINHMM>
<NUMSTATES> 5
<STATE> 2
<MEAN> 39
 -1.002145e+00 -1.287474e+01 -6.181002e+00 -1.210506e+01 -8.470050e+00 1.805244e-02 -1.184341e+01 1.256726e+00 1.508827e+00 -2.763065e+00 -4.691463e+00 -1.025517e+01 7.104806e+01 4.803940e-01 -1.967630e+00 -1.114915e+00 -8.188965e-01 8.381425e-01 1.214674e+00 3.186769e-01 1.044370e+00 9.551259e-01 -8.518277e-01 -1.067871e+00 -1.272352e+00 1.814342e+00 -3.793513e-01 4.797250e-01 2.868520e-01 5.214652e-01 2.696259e-01 -2.193098e-01 1.968660e-01 -4.568336e-01 -4.144824e-01 -6.132781e-02 3.669067e-03 4.218561e-01 -7.451315e-01
<VARIANCE> 39
 1.850665e+01 3.589431e+01 5.168788e+01 5.143803e+01 6.712137e+01 8.384440e+01 6.204179e+01 9.155608e+01 6.299928e+01 5.493903e+01 5.842082e+01 4.098402e+01 5.729796e+01 2.483608e+00 2.326360e+00 3.013468e+00 3.318564e+00 3.953004e+00 4.196047e+00 4.151640e+00 5.368435e+00 4.327294e+00 3.548557e+00 3.946158e+00 3.320814e+00 3.707968e+00 4.560484e-01 4.972430e-01 4.872956e-01 5.668885e-01 7.213026e-01 7.463130e-01 6.956305e-01 9.098605e-01 7.025359e-01 6.272390e-01 7.427891e-01 5.562792e-01 7.480029e-01
<GCONST> 1.340638e+02
<STATE> 3
<MEAN> 39
 -1.594851e+00 -1.565999e+01 -8.289960e+00 -1.208598e+01 -5.740198e+00 1.835362e+00 -1.022174e+01 9.139457e-01 1.992021e+00 -5.477052e+00 -6.769882e+00 -1.149281e+01 7.369239e+01 4.794488e-02 6.808211e-02 2.697851e-03 1.535204e-01 2.435005e-01 -1.259774e-01 5.901908e-02 1.298140e-02 -1.249284e-01 -4.172378e-02 -1.858601e-01 -8.350740e-04 -2.093088e-01 7.016081e-02 4.436175e-01 2.760284e-01 1.376516e-01 -2.378301e-01 -2.607899e-01 -1.637857e-01 -1.489826e-01 -1.535017e-01 2.622824e-01 2.408529e-01 1.943698e-01 -3.962179e-01
<VARIANCE> 39
 1.319790e+01 2.672570e+01 4.518387e+01 4.087286e+01 4.957684e+01 6.512844e+01 5.743862e+01 8.139513e+01 5.731759e+01 4.910739e+01 4.566638e+01 3.938955e+01 1.949421e+01 3.774726e-01 8.440632e-01 1.047992e+00 1.110190e+00 1.918435e+00 2.198134e+00 1.781504e+00 2.274996e+00 1.647815e+00 1.797115e+00 1.860184e+00 1.517945e+00 4.574049e-01 8.439384e-02 1.862481e-01 1.739959e-01 2.233596e-01 2.754999e-01 2.979846e-01 3.353165e-01 4.421600e-01 3.643731e-01 3.126673e-01 3.478290e-01 3.036059e-01 1.372847e-01
<GCONST> 1.049740e+02
<STATE> 4
<MEAN> 39
 -3.348992e-01 -1.119715e+01 -6.091737e+00 -1.030793e+01 -5.854119e+00 -1.242469e+00 -1.106766e+01 1.369682e+00 7.540572e-01 -3.111973e+00 -6.427909e+00 -1.002363e+01 6.672317e+01 1.954597e-01 1.782573e+00 8.112691e-01 1.187385e+00 -1.080405e-01 -6.662567e-01 -9.921905e-02 -7.636298e-01 -5.545965e-01 4.021499e-01 2.766314e-01 5.663162e-01 -2.528090e+00 -1.214987e-01 2.615701e-01 1.393088e-01 2.717357e-01 3.885186e-02 5.644487e-02 1.762361e-01 -3.201455e-01 -1.322684e-01 -8.417125e-02 -3.513451e-02 1.146505e-01 -4.239118e-01
<VARIANCE> 39
 1.616736e+01 3.514719e+01 4.939989e+01 5.237161e+01 6.537594e+01 7.464638e+01 6.124944e+01 7.631469e+01 6.212765e+01 6.230986e+01 6.070537e+01 4.462383e+01 7.292944e+01 1.193058e+00 2.151355e+00 2.164387e+00 2.646961e+00 3.125264e+00 3.286176e+00 3.356276e+00 3.781787e+00 3.510551e+00 3.239678e+00 3.276991e+00 2.535522e+00 2.806595e+00 2.164778e-01 4.420361e-01 3.693132e-01 4.980966e-01 5.661501e-01 5.739437e-01 5.909074e-01 7.655336e-01 6.165598e-01 6.056756e-01 6.286922e-01 4.853196e-01 5.307802e-01
<GCONST> 1.276523e+02
<TRANSP> 5
 0.000000e+00 1.000000e+00 0.000000e+00 0.000000e+00 0.000000e+00
 0.000000e+00 5.792060e-01 4.207940e-01 0.000000e+00 0.000000e+00
 0.000000e+00 0.000000e+00 7.790800e-01 2.209200e-01 0.000000e+00
 0.000000e+00 0.000000e+00 0.000000e+00 6.482791e-01 3.517209e-01
 0.000000e+00 0.000000e+00 0.000000e+00 0.000000e+00 0.000000e+00
<ENDHMM>
~h "b"
<BEGINHMM>
<NUMSTATES> 5
<STATE> 2
<MEAN> 39
 4.562326e+00 5.990219e+00 3.682492e+00 -2.342486e+00 -6.481823e+00 1.815963e+00 -7.869705e+00 -9.614135e+00 -8.717850e+00 -2.887479e+00 -2.578470e+00 -7.122169e+00 4.927637e+01 6.388847e-01 1.427111e+00 4.878896e-01 4.116538e-01 4.564722e-01 2.167087e-01 8.295836e-01 -2.846020e-01 -2.571265e-01 -1.551960e-01 -3.543421e-01 -1.049170e-01 -1.098760e+00 -3.965471e-01 -5.620496e-01 -2.528228e-01 -3.269357e-01 -1.850998e-01 -2.533679e-01 -3.445995e-01 2.025507e-01 2.106002e-01 6.026579e-02 2.124058e-01 1.778064e-01 7.974115e-01
<VARIANCE> 39
 2.703170e+01 3.187916e+01 2.741877e+01 3.319561e+01 3.596506e+01 3.896806e+01 4.125412e+01 4.241865e+01 5.739895e+01 3.120804e+01 4.478583e+01 2.755760e+01 5.484577e+01 2.157656e+00 2.058999e+00 1.952263e+00 2.504441e+00 2.370802e+00 2.511544e+00 2.932310e+00 2.836071e+00 3.170446e+00 2.508286e+00 2.752794e+00 2.088228e+00 4.387341e+00 3.175668e-01 4.021738e-01 3.800667e-01 4.349725e-01 4.763268e-01 4.598534e-01 4.979613e-01 5.216696e-01 6.340289e-01 4.810294e-01 5.212944e-01 4.105833e-01 4.772633e-01
<GCONST> 1.206645e+02
<STATE> 3
<MEAN> 39
 4.896726e+00 7.700088e+00 4.061779e+00 -2.097289e+00 -5.643910e+00 2.015418e+00 -6.468236e+00 -1.011616e+01 -9.651957e+00 -3.627086e+00 -2.607224e+00 -6.149901e+00 4.919862e+01 -1.356743e+00 -1.964492e+00 -1.247889e+00 -9.617506e-01 -1.220082e-02 -1.067385e+00 -1.382408e+00 5.315791e-01 1.075792e+00 2.646163e-01 1.042637e+00 8.337268e-01 3.178149e+00 -3.866586e-01 -1.173243e+00 -4.660520e-01 -7.463269e-01 -7.031704e-01 -9.080907e-02 -8.416205e-01 3.131985e-01 4.918509e-01 3.563807e-01 3.758884e-01 -1.210869e-01 1.546263e+00
<VARIANCE> 39
 2.040121e+01 2.546755e+01 2.080688e+01 2.785385e+01 3.300539e+01 3.816277e+01 3.465019e+01 4.158111e+01 4.772157e+01 2.973270e+01 4.267714e+01 2.498270e+01 4.119006e+01 2.263621e+00 3.314148e+00 3.534828e+00 5.277163e+00 4.016778e+00 4.030724e+00 3.910627e+00 3.830327e+00 5.260820e+00 3.877778e+00 4.162214e+00 2.879959e+00 5.101629e+00 4.172661e-01 4.461551e-01 6.964458e-01 7.219456e-01 6.672277e-01 8.325568e-01 6.473403e-01 9.179857e-01 1.217192e+00 8.262526e-01 7.738003e-01 7.139595e-01 4.489960e-01
<GCONST> 1.293474e+02
<STATE> 4
<MEAN> 39
 -4.017545e-01 -1.859178e+00 -1.878597e+00 -7.083910e+00 -6.986461e+00 -1.364907e+00 -1.249978e+01 -8.444095e+00 -4.945483e+00 -8.228320e-01 1.541086e+00 -3.935622e+00 6.271917e+01 -9.109326e-01 -3.314608e+00 -1.652954e+00 -2.637750e+00 -1.761681e+00 -1.560058e-01 -2.465503e+00 1.143987e+00 1.988628e+00 1.207727e+00 1.120159e+00 -5.912732e-01 4.919943e+00 3.515608e-01 2.631297e-01 4.031469e-01 3.102002e-02 -3.699524e-01 4.478163e-01 2.467603e-01 2.015882e-01 -3.612475e-02 -1.773174e-01 -4.865186e-01 -5.398943e-01 -4.757715e-01
<VARIANCE> 39
 2.477800e+01 2.566661e+01 3.310488e+01 8.362491e+01 3.336779e+01 5.369349e+01 3.828925e+01 3.586121e+01 3.602083e+01 4.344024e+01 3.993684e+01 2.792124e+01 5.439499e+01 2.595548e+00 3.942315e+00 6.630359e+00 7.306628e+00 5.304025e+00 6.564970e+00 5.065036e+00 7.174743e+00 1.045540e+01 6.696553e+00 6.235717e+00 6.178381e+00 4.523766e+00 4.560713e-01 6.300046e-01 4.960744e-01 1.247336e+00 1.041874e+00 8.494624e-01 8.762017e-01 8.361716e-01 9.203414e-01 8.669631e-01 1.111198e+00 6.785132e-01 7.253111e-01
<GCONST> 1.389114e+02
<TRANSP> 5
 0.000000e+00 1.000000e+00 0.000000e+00 0.000000e+00 0.000000e+00
 0.000000e+00 7.383595e-01 2.616405e-01 0.000000e+00 0.000000e+00
 0.000000e+00 0.000000e+00 4.954516e-01 5.045484e-01 0.000000e+00
 0.000000e+00 0.000000e+00 0.000000e+00 3.797645e-01 6.202354e-01
 0.000000e+00 0.000000e+00 0.000000e+00 0.000000e+00 0.000000e+00
<ENDHMM>
~h "c"
<BEGINHMM>
<NUMSTATES> 5
<STATE> 2
<MEAN> 39
 -7.850864e+00 2.941318e+00 1.402880e+00 -1.860057e+00 -7.147406e+00 -8.152637e+00 -8.240306e+00 -3.912627e+00 -3.943937e+00 -3.955339e+00 -3.806713e+00 -2.784275e+00 4.672399e+01 -1.899161e+00 -2.379549e-01 -7.737682e-01 -5.706590e-01 7.547274e-01 1.293266e-01 3.836501e-01 -1.285538e-01 1.806068e-01 1.680202e-01 1.791752e-01 1.124005e-01 -7.599566e-01 -5.330433e-01 -3.704512e-01 -1.778580e-01 -3.947764e-01 -9.985190e-02 9.548791e-02 -9.076191e-02 5.651395e-02 2.058730e-02 8.255541e-02 1.754813e-01 8.267678e-02 1.170058e+00
<VARIANCE> 39
 4.213667e+01 3.419157e+01 4.267050e+01 2.940825e+01 4.296971e+01 4.476597e+01 4.752144e+01 4.415976e+01 4.082975e+01 2.885651e+01 2.814559e+01 2.667969e+01 1.009985e+02 5.098839e+00 4.663069e+00 3.201236e+00 3.337944e+00 4.184524e+00 3.252666e+00 3.814874e+00 3.486670e+00 3.113671e+00 2.746283e+00 2.652543e+00 2.575531e+00 1.406862e+01 7.699791e-01 7.440169e-01 5.529085e-01 5.343709e-01 7.887550e-01 6.256621e-01 7.157499e-01 6.258911e-01 6.052473e-01 5.126122e-01 4.750883e-01 5.347009e-01 1.476412e+00
<GCONST> 1.316153e+02
<STATE> 3
<MEAN> 39
 -2.517536e+01 -1.055241e+00 -3.340453e+00 -8.996404e+00 -4.383931e+00 -5.786672e+00 -6.686263e+00 -3.871369e+00 -3.169784e+00 -1.861413e+00 -4.803256e-01 -3.457645e-01 6.046552e+01 -1.393031e+00 1.991955e-02 4.545993e-01 -6.479942e-01 -8.178875e-01 -3.379962e-01 1.360506e-02 3.978714e-01 2.460766e-01 -6.098963e-02 2.299675e-01 4.522300e-01 4.002697e+00 2.146333e+00 2.334780e-02 6.966148e-01 5.869167e-01 -7.260296e-01 -2.778822e-01 -4.140607e-01 1.426492e-01 5.284331e-02 -2.868354e-01 -3.508282e-01 -3.290007e-01 -5.521960e-01
<VARIANCE> 39
 2.955523e+01 2.788229e+01 3.059032e+01 2.486209e+01 2.858296e+01 3.524520e+01 3.373815e+01 2.646379e+01 2.336339e+01 1.981253e+01 1.913658e+01 1.496264e+01 4.507997e+01 1.343451e+01 2.996909e+00 5.059290e+00 4.294377e+00 4.205189e+00 3.823296e+00 3.826694e+00 3.819008e+00 3.299554e+00 2.544418e+00 2.650918e+00 1.876464e+00 6.691495e+00 1.326025e+00 9.384124e-01 7.821217e-01 6.901940e-01 8.478104e-01 8.125839e-01 8.269805e-01 9.319588e-01 8.455361e-01 5.544741e-01 5.473650e-01 4.722594e-01 8.089769e-01
<GCONST> 1.288509e+02
<STATE> 4
<MEAN> 39
 -1.327106e+01 -1.497233e+00 2.191321e+00 -6.175904e+00 -1.080170e+01 -9.877424e+00 -9.815907e+00 -7.094979e-01 -1.738060e+00 -4.541525e+00 -3.021669e+00 -1.028432e+00 6.754031e+01 5.859134e+00 -2.224351e+00 9.084361e-01 2.159278e-01 -2.195428e+00 -3.590636e-01 -2.091783e+00 1.097237e+00 9.501967e-01 -5.214074e-01 -6.945554e-01 -1.374967e+00 2.237336e+00 2.602420e-01 -5.690106e-01 -6.699675e-01 -3.615310e-01 4.136958e-01 7.381088e-01 -4.048671e-02 -1.589838e-01 -1.781707e-03 2.337148e-01 1.565710e-01 -4.667311e-01 -4.815020e-01
<VARIANCE> 39
 7.533903e+01 3.697186e+01 3.741421e+01 2.939590e+01 4.314111e+01 3.412946e+01 4.938407e+01 4.505827e+01 3.818679e+01 2.486306e+01 2.658625e+01 1.966766e+01 3.730761e+01 2.455665e+00 5.073764e+00 5.944164e+00 4.473149e+00 5.355382e+00 5.199850e+00 4.828717e+00 7.912214e+00 6.377289e+00 3.970419e+00 3.788551e+00 2.833220e+00 1.785698e+00 2.331261e+00 6.119909e-01 5.285004e-01 5.674663e-01 8.893641e-01 7.305624e-01 9.784536e-01 8.784184e-01 6.918259e-01 5.627047e-01 5.662091e-01 4.125983e-01 4.840404e-01
<GCONST> 1.327518e+02
<TRANSP> 5
 0.000000e+00 1.000000e+00 0.000000e+00 0.000000e+00 0.000000e+00
 0.000000e+00 8.309343e-01 1.690657e-01 0.000000e+00 0.000000e+00
 0.000000e+00 0.000000e+00 7.110934e-01 2.889066e-01 0.000000e+00
 0.000000e+00 0.000000e+00 0.000000e+00 5.559652e-01 4.440348e-01
 0.000000e+00 0.000000e+00 0.000000e+00 0.000000e+00 0.000000e+00
<ENDHMM>
~h "d"
<BEGINHMM>
<NUMSTATES> 5
<STATE> 2
<MEAN> 39
 2.381910e+00 3.228670e+00 6.302461e+00 2.629575e+00 -8.556379e+00 -6.138893e+00 -1.162618e+01 -4.855906e+00 -2.103613e+00 -3.900343e+00 -7.131020e+00 -6.629192e+00 5.002182e+01 8.544433e-01 1.275740e+00 7.095544e-01 8.079388e-01 6.879163e-01 -3.356130e-01 1.421647e-01 1.219123e-01 3.151226e-01 -1.732905e-01 -6.920990e-01 -3.338860e-01 -1.098173e+00 -5.256816e-01 -6.547942e-01 -1.454864e-01 -6.032239e-01 -2.008189e-01 3.154235e-02 -1.253982e-01 1.969866e-01 -1.713387e-01 2.922504e-02 4.336277e-01 2.606733e-01 9.018869e-01
<VARIANCE> 39
 3.254801e+01 3.735980e+01 3.700283e+01 2.790916e+01 4.859019e+01 3.954331e+01 5.332799e+01 7.282685e+01 5.068409e+01 3.993316e+01 4.078296e+01 3.318064e+01 7.085404e+01 2.674155e+00 2.873088e+00 2.314642e+00 2.502258e+00 3.808911e+00 2.796954e+00 3.646937e+00 4.452284e+00 3.464874e+00 2.888283e+00 3.193568e+00 2.417626e+00 5.760201e+00 4.923451e-01 6.005118e-01 4.034571e-01 5.207596e-01 7.338308e-01 5.804578e-01 6.382045e-01 9.116518e-01 7.447572e-01 6.336575e-01 6.073644e-01 5.249190e-01 7.550664e-01
<GCONST> 1.293277e+02
<STATE> 3
<MEAN> 39
 2.874453e+00 4.059579e+00 7.822700e+00 2.927951e+00 -7.277575e+00 -6.387542e+00 -1.162539e+01 -4.200232e+00 -2.380885e+00 -4.133266e+00 -7.362623e+00 -6.621437e+00 5.053022e+01 -2.080976e+00 -2.332658e+00 2.480284e-01 -1.732967e+00 -2.630866e-01 -2.776807e-01 -5.831274e-01 7.524741e-01 -7.659688e-01 -1.772388e-01 1.570415e+00 1.319675e+00 3.477696e+00 -5.297561e-01 -9.466699e-01 -1.920008e-01 -7.690569e-01 -1.039676e+00 -2.345838e-02 -4.323820e-01 1.697346e-01 -1.768450e-01 1.095966e-01 7.097636e-01 2.363385e-01 1.589787e+00
<VARIANCE> 39
 2.510849e+01 2.808169e+01 3.092269e+01 2.794801e+01 4.007763e+01 3.486764e+01 4.548057e+01 6.153720e+01 4.573376e+01 3.721803e+01 3.428524e+01 2.946561e+01 5.051977e+01 2.209159e+00 3.242852e+00 3.945831e+00 3.622902e+00 5.537498e+00 4.236392e+00 4.934498e+00 7.451159e+00 6.112180e+00 4.164345e+00 3.847328e+00 3.023831e+00 4.994647e+00 5.033113e-01 5.679268e-01 6.772449e-01 7.079921e-01 7.858661e-01 6.540221e-01 7.999255e-01 1.422479e+00 1.047980e+00 7.572449e-01 7.100868e-01 6.175795e-01 5.670874e-01
<GCONST> 1.329980e+02
<STATE> 4
<MEAN> 39
 -4.251375e+00 -6.493231e+00 6.607833e+00 -4.509219e+00 -1.186491e+01 -8.061721e+00 -1.481330e+01 -6.008158e-01 -3.588077e+00 -4.229393e+00 -1.141861e+00 -1.301737e+00 6.598550e+01 -1.053791e+00 -2.522110e+00 -6.973925e-01 -2.222050e+00 -2.818440e+00 -3.177786e-01 -1.304720e+00 1.512763e+00 3.255296e-01 2.471737e-01 1.747924e+00 2.820616e-01 4.653224e+00 6.225637e-01 6.245055e-01 -2.307436e-01 2.813842e-01 -9.826101e-02 4.084076e-01 2.589377e-01 -1.741040e-01 2.196179e-01 8.251557e-02 -4.751321e-01 -7.298713e-01 -7.511669e-01
<VARIANCE> 39
 1.934194e+01 2.619357e+01 4.273501e+01 4.284031e+01 6.915177e+01 4.909086e+01 7.342194e+01 6.352333e+01 6.821933e+01 3.220353e+01 3.172519e+01 2.460713e+01 4.892503e+01 3.082246e+00 3.655072e+00 6.489212e+00 5.062653e+00 5.561883e+00 4.358592e+00 6.150248e+00 1.108907e+01 9.570149e+00 4.791781e+00 5.577270e+00 4.103467e+00 4.555914e+00 3.080814e-01 5.303598e-01 5.660648e-01 8.311365e-01 1.707037e+00 8.494308e-01 1.377008e+00 1.188573e+00 1.106509e+00 8.277797e-01 9.333985e-01 6.099307e-01 7.093726e-01
<GCONST> 1.393413e+02
<TRANSP> 5
 0.000000e+00 1.000000e+00 0.000000e+00 0.000000e+00 0.000000e+00
 0.000000e+00 6.920770e-01 3.079230e-01 0.000000e+00 0.000000e+00
 0.000000e+00 0.000000e+00 4.767861e-01 5.232139e-01 0.000000e+00
 0.000000e+00 0.000000e+00 0.000000e+00 4.723873e-01 5.276127e-01
 0.000000e+00 0.000000e+00 0.000000e+00 0.000000e+00 0.000000e+00
<ENDHMM>
~h "e"
<BEGINHMM>
<NUMSTATES> 5
<STATE> 2
<MEAN> 39
 -4.413713e-01 -5.437428e+00 -2.858968e+00 -9.735237e+00 -1.053696e+01 -3.173870e+00 -1.567697e+01 -4.720315e+00 -1.855649e+00 3.329714e-01 -1.623565e-01 -7.185294e+00 6.774155e+01 2.062929e+00 -1.410247e+00 -2.827709e-01 -1.693653e+00 -1.325590e+00 7.207786e-01 -1.974170e+00 9.577844e-01 1.555498e+00 7.775149e-01 8.112447e-01 -1.620753e+00 2.469018e+00 -4.633688e-01 2.792837e-01 1.809589e-01 5.921461e-01 3.123624e-01 5.028562e-02 5.190988e-01 -9.469869e-02 -2.559055e-01 -1.699334e-01 -2.877491e-01 2.063078e-01 -1.095042e+00
<VARIANCE> 39
 2.329935e+01 2.981184e+01 4.936307e+01 6.340282e+01 4.766533e+01 8.352841e+01 6.311097e+01 6.912256e+01 6.591466e+01 4.722150e+01 5.497216e+01 3.618976e+01 4.361059e+01 5.660908e+00 2.960450e+00 5.656193e+00 4.905375e+00 5.782598e+00 6.026753e+00 6.117308e+00 8.373125e+00 7.689047e+00 5.095172e+00 5.290692e+00 4.163053e+00 3.605940e+00 6.927055e-01 5.500607e-01 7.369210e-01 8.824690e-01 7.471771e-01 8.397043e-01 8.805336e-01 8.929844e-01 8.553219e-01 7.248840e-01 9.422227e-01 5.930557e-01 1.041777e+00
<GCONST> 1.409048e+02
<STATE> 3
<MEAN> 39
 4.805591e-01 -8.381997e+00 -3.342819e+00 -1.110986e+01 -1.124368e+01 -1.665475e+00 -1.768637e+01 -2.230779e+00 5.511276e-01 9.262256e-01 1.442501e-01 -9.265878e+00 7.032777e+01 6.258274e-01 -5.501255e-01 1.877845e-01 3.745453e-02 -3.969432e-01 2.573135e-01 -4.663149e-01 5.514765e-01 6.257322e-01 1.521799e-01 -1.715851e-02 -5.458739e-01 3.102730e-01 -5.478266e-01 7.663938e-01 3.601573e-01 9.380108e-01 4.523281e-01 -2.668923e-01 8.723505e-01 -5.943092e-01 -7.295648e-01 -3.124992e-01 -4.053258e-01 6.203822e-01 -1.305109e+00
<VARIANCE> 39
 1.730403e+01 3.206189e+01 5.443319e+01 6.710142e+01 5.325546e+01 8.493301e+01 6.659799e+01 8.353120e+01 7.642493e+01 5.810844e+01 6.159703e+01 4.637260e+01 2.798397e+01 2.013043e+00 2.188837e+00 2.450435e+00 4.075401e+00 3.439266e+00 5.060985e+00 3.642400e+00 5.906048e+00 5.533865e+00 3.784920e+00 4.079312e+00 2.947584e+00 2.278917e+00 6.209545e-01 5.168898e-01 8.820418e-01 9.201882e-01 1.023812e+00 9.676683e-01 1.065245e+00 1.282091e+00 1.247603e+00 9.670556e-01 1.049901e+00 7.410908e-01 5.789254e-01
<GCONST> 1.373371e+02
<STATE> 4
<MEAN> 39
 -3.934224e-02 -7.351898e+00 -1.957570e+00 -9.945353e+00 -1.223663e+01 -3.195123e+00 -1.760519e+01 -2.094787e+00 -1.020547e-01 9.604940e-01 7.772078e-02 -9.157251e+00 6.892563e+01 1.421011e-01 6.961018e-01 4.144543e-01 9.103190e-01 2.441929e-01 -1.653889e-01 5.901377e-01 -5.644550e-01 -3.948955e-01 -2.290966e-01 -4.151042e-01 2.632904e-01 -1.199843e+00 -1.466847e-01 3.535391e-01 1.406014e-01 3.584348e-01 1.443751e-01 -6.323720e-02 2.996174e-01 -3.404270e-01 -2.680180e-01 -1.260561e-01 -1.585728e-01 2.193517e-01 -5.459131e-01
<VARIANCE> 39
 1.558945e+01 3.250401e+01 5.901661e+01 6.432297e+01 6.032209e+01 7.952765e+01 7.695167e+01 8.355013e+01 8.105571e+01 5.604835e+01 5.505916e+01 4.850272e+01 3.345177e+01 8.804576e-01 2.055086e+00 1.791585e+00 3.098188e+00 2.647416e+00 3.124380e+00 2.889271e+00 3.572577e+00 3.917844e+00 2.870216e+00 2.832590e+00 2.173707e+00 3.010184e+00 3.077639e-01 2.975152e-01 3.715996e-01 4.819688e-01 5.544962e-01 5.577292e-01 5.928495e-01 8.481495e-01 7.346189e-01 5.393379e-01 5.978422e-01 4.597191e-01 3.075229e-01
<GCONST> 1.259382e+02
<TRANSP> 5
 0.000000e+00 1.000000e+00 0.000000e+00 0.000000e+00 0.000000e+00
 0.000000e+00 1.960644e-01 8.039356e-01 0.000000e+00 0.000000e+00
 0.000000e+00 0.000000e+00 2.646513e-01 7.353487e-01 0.000000e+00
 0.000000e+00 0.000000e+00 0.000000e+00 6.067849e-01 3.932151e-01
 0.000000e+00 0.000000e+00 0.000000e+00 0.000000e+00 0.000000e+00
<ENDHMM>
~h "f"
<BEGINHMM>
<NUMSTATES> 5
<STATE> 2
<MEAN> 39
 -6.945274e+00 -9.760169e-01 -9.851272e-01 -2.542606e+00 -5.082053e+00 -2.307464e+00 -7.210804e+00 -3.775028e+00 -4.145101e+00 -1.918927e+00 -2.142083e+00 -3.388853e+00 5.965014e+01 -3.565212e+00 3.811212e-01 -4.053422e-01 1.415416e+00 1.239556e+00 -6.388408e-01 6.118180e-01 2.952712e-01 9.766788e-01 -1.263645e-01 -2.449377e-01 5.902357e-01 -1.270219e+00 -3.378902e-01 -6.403098e-01 -1.116890e-01 -3.619808e-01 -6.214252e-01 -1.494584e-01 -4.047631e-01 -3.535665e-02 -7.193606e-02 6.348871e-02 1.272721e-01 -7.470082e-02 2.539418e-01
<VARIANCE> 39
 5.463856e+01 2.118462e+01 4.133743e+01 5.199230e+01 4.103238e+01 6.081279e+01 3.446537e+01 3.997420e+01 4.007592e+01 2.873895e+01 3.386219e+01 2.550112e+01 6.069835e+01 2.781257e+00 4.342684e+00 4.070847e+00 4.651921e+00 6.409177e+00 5.194516e+00 4.227057e+00 4.902215e+00 4.379735e+00 3.699687e+00 3.836184e+00 2.691468e+00 2.526778e+00 8.279116e-01 4.408131e-01 4.436106e-01 7.203071e-01 7.829823e-01 6.944841e-01 6.278192e-01 7.182494e-01 8.045722e-01 5.732566e-01 5.867561e-01 4.196308e-01 2.367728e-01
<GCONST> 1.302156e+02
<STATE> 3
<MEAN> 39
 -1.974237e+01 -5.726352e+00 -5.077453e+00 -1.645095e+00 -5.571960e+00 -5.083121e+00 -8.446296e+00 -3.202867e+00 -2.281953e+00 -1.607528e+00 -1.559296e+00 -1.709845e+00 5.620499e+01 -7.078718e-01 -5.401756e-01 -3.624278e-01 -8.464692e-02 -1.028704e-01 -1.114830e-01 -8.810165e-02 8.859538e-05 3.405267e-02 4.454392e-02 7.849954e-02 9.721892e-02 -1.348426e-01 6.389889e-01 1.118321e-01 1.431427e-01 -8.315793e-02 7.150246e-03 1.230269e-01 6.595518e-02 -3.086593e-05 -8.617451e-02 -2.292959e-02 -1.089525e-02 -9.663107e-02 1.176765e-01
<VARIANCE> 39
 2.347344e+01 2.048522e+01 2.684732e+01 2.019324e+01 2.069271e+01 2.623515e+01 2.403988e+01 2.228477e+01 2.005997e+01 1.856800e+01 1.910592e+01 1.699481e+01 5.892875e+01 1.889305e+00 1.207428e+00 1.475530e+00 1.459982e+00 1.657202e+00 1.842098e+00 1.829767e+00 1.768486e+00 1.786693e+00 1.677147e+00 1.525243e+00 1.446722e+00 1.441392e+00 4.105998e-01 2.623332e-01 3.148763e-01 3.398693e-01 3.752212e-01 4.143551e-01 3.738634e-01 3.916312e-01 4.142603e-01 3.757226e-01 3.266426e-01 3.208821e-01 2.173471e-01
<GCONST> 1.047576e+02
<STATE> 4
<MEAN> 39
 -1.584668e+01 -5.922678e+00 -4.764793e+00 -2.206963e+00 -5.230487e+00 -4.171009e+00 -7.536735e+00 -3.437037e+00 -2.717159e+00 -1.712798e+00 -1.794481e+00 -2.301977e+00 5.681236e+01 3.854830e+00 4.084118e-01 4.995719e-01 -1.245591e+00 -9.332113e-01 5.212704e-01 -2.741274e-01 -2.220293e-01 -6.087556e-01 -2.792570e-01 1.375951e-01 -8.153327e-01 1.199421e+00 8.366210e-01 6.917265e-02 2.139986e-01 -4.710318e-01 -5.629673e-01 2.074683e-01 -2.760771e-01 -7.101599e-02 -2.092910e-01 -4.343541e-02 1.782686e-01 -2.288330e-01 4.528623e-01
<VARIANCE> 39
 5.635986e+01 2.465132e+01 3.268277e+01 3.445201e+01 2.769328e+01 3.902895e+01 2.863753e+01 2.765028e+01 2.466294e+01 2.286385e+01 2.079132e+01 1.868295e+01 6.111628e+01 7.319144e+00 4.143823e+00 5.396886e+00 6.141543e+00 4.413513e+00 5.775597e+00 3.670182e+00 3.965180e+00 4.033924e+00 3.180264e+00 2.985572e+00 2.901592e+00 5.170365e+00 1.361740e+00 6.728909e-01 6.479745e-01 7.983451e-01 7.189966e-01 8.188343e-01 6.404985e-01 7.090463e-01 7.685013e-01 5.999129e-01 5.711431e-01 4.923078e-01 5.504112e-01
<GCONST> 1.304869e+02
<TRANSP> 5
 0.000000e+00 1.000000e+00 0.000000e+00 0.000000e+00 0.000000e+00
 0.000000e+00 6.888227e-01 3.111773e-01 0.000000e+00 0.000000e+00
 0.000000e+00 0.000000e+00 8.480772e-01 1.519227e-01 0.000000e+00
 0.000000e+00 0.000000e+00 0.000000e+00 6.550719e-01 3.449281e-01
 0.000000e+00 0.000000e+00 0.000000e+00 0.000000e+00 0.000000e+00
<ENDHMM>
~h "g"
<BEGINHMM>
<NUMSTATES> 5
<STATE> 2
<MEAN> 39
 2.747230e+00 5.240803e+00 7.020562e+00 -1.773597e-01 -1.085181e+01 -5.840483e+00 -9.185198e+00 -6.095152e+00 -7.523505e+00 -7.558816e-01 -3.601352e+00 -8.254829e+00 5.075998e+01 -4.975833e-01 4.269590e-01 -1.876206e-02 5.686854e-01 8.982767e-01 -4.441206e-01 4.810192e-01 -7.499829e-03 1.585554e-01 -1.041756e-01 -4.093305e-01 3.707974e-01 -5.901589e-01 -6.301517e-01 -7.529045e-01 -4.658144e-01 -4.723182e-01 1.619221e-01 2.648107e-03 -3.539624e-01 2.225669e-01 1.291837e-02 4.654677e-02 1.975302e-01 3.354597e-01 1.171461e+00
<VARIANCE> 39
 2.125763e+01 3.428424e+01 4.221539e+01 3.793575e+01 5.139077e+01 5.366185e+01 5.087901e+01 5.689212e+01 5.271816e+01 3.707377e+01 4.031504e+01 3.367863e+01 5.533285e+01 3.770434e+00 4.557983e+00 4.756247e+00 3.165454e+00 5.780030e+00 4.209344e+00 4.165767e+00 4.368912e+00 4.150936e+00 3.181000e+00 3.059647e+00 3.298203e+00 7.105743e+00 3.896089e-01 5.164193e-01 6.379466e-01 4.835629e-01 8.981066e-01 6.558633e-01 7.383504e-01 7.610421e-01 8.591391e-01 6.070910e-01 5.925662e-01 5.241572e-01 7.072538e-01
<GCONST> 1.327952e+02
<STATE> 3
<MEAN> 39
 -6.226251e+00 -1.099231e+00 2.408011e-01 -8.952947e-01 -2.357093e+00 -6.290744e+00 -9.938920e+00 -4.617231e+00 -8.138852e+00 -3.679009e-01 -5.001431e+00 -3.058229e+00 5.839882e+01 -1.657415e+00 -1.855578e+00 -1.118690e+00 -1.337056e+00 -2.177670e-01 -6.941283e-01 -1.315247e+00 6.712405e-01 -2.062424e-01 2.629607e-01 1.104300e+00 1.040977e+00 3.812013e+00 7.676036e-01 2.643854e-01 6.636658e-01 -4.358205e-01 -1.517204e+00 1.299449e-01 -3.203848e-01 8.913153e-02 2.316841e-01 -9.681694e-02 6.168585e-01 -5.033981e-01 1.251026e-01
<VARIANCE> 39
 3.917889e+01 4.865454e+01 8.125284e+01 4.728745e+01 6.328714e+01 6.429701e+01 5.389531e+01 4.591864e+01 4.644822e+01 3.245087e+01 3.099982e+01 2.708728e+01 7.599241e+01 3.551756e+00 5.015898e+00 7.470811e+00 4.062559e+00 9.046213e+00 5.278710e+00 4.816651e+00 5.907475e+00 5.596571e+00 3.855436e+00 4.348214e+00 3.395162e+00 4.692234e+00 5.145466e-01 1.024363e+00 1.122372e+00 8.956971e-01 1.322784e+00 1.007771e+00 9.893972e-01 1.058462e+00 1.038251e+00 7.766042e-01 7.664011e-01 7.203142e-01 9.445885e-01
<GCONST> 1.416397e+02
<STATE> 4
<MEAN> 39
 -3.868099e+00 -3.157299e+00 3.476161e+00 -4.825109e+00 -1.409358e+01 -9.858130e+00 -1.492881e+01 -1.132744e+00 -6.540247e+00 -1.178426e-01 1.832368e+00 -4.298970e+00 6.724030e+01 7.324068e-01 -1.122595e+00 1.887342e-01 -1.971433e+00 -2.866112e+00 4.607471e-01 -9.045699e-01 1.561609e+00 1.367181e+00 -1.750684e-01 1.318079e+00 -9.767060e-01 2.198792e+00 3.687316e-01 6.201600e-02 -1.059416e-01 5.236203e-02 3.699099e-01 6.472307e-01 4.632451e-01 -6.333451e-02 2.882158e-01 -1.380369e-01 -6.373056e-01 -4.544714e-01 -6.855175e-01
<VARIANCE> 39
 1.983155e+01 3.653194e+01 6.685478e+01 4.702260e+01 7.796445e+01 6.499306e+01 6.543879e+01 8.075159e+01 6.076347e+01 4.590976e+01 5.159606e+01 3.210540e+01 4.901960e+01 1.969702e+00 3.150119e+00 4.957220e+00 3.823406e+00 7.247173e+00 4.546350e+00 5.246135e+00 6.680157e+00 7.229251e+00 3.751252e+00 5.549708e+00 3.607045e+00 2.148739e+00 4.134970e-01 4.062422e-01 7.552384e-01 4.960403e-01 1.666811e+00 7.635512e-01 7.924289e-01 9.300162e-01 8.396246e-01 6.158645e-01 8.707861e-01 5.952207e-01 3.436306e-01
<GCONST> 1.363231e+02
<TRANSP> 5
 0.000000e+00 1.000000e+00 0.000000e+00 0.000000e+00 0.000000e+00
 0.000000e+00 7.545278e-01 2.454722e-01 0.000000e+00 0.000000e+00
 0.000000e+00 0.000000e+00 5.296049e-01 4.703951e-01 0.000000e+00
 0.000000e+00 0.000000e+00 0.000000e+00 4.898649e-01 5.101351e-01
 0.000000e+00 0.000000e+00 0.000000e+00 0.000000e+00 0.000000e+00
<ENDHMM>
~h "h"
<BEGINHMM>
<NUMSTATES> 5
<STATE> 2
<MEAN> 39
 -4.682516e+00 -5.354140e+00 -2.409884e+00 -4.095576e+00 -2.561249e-01 9.187163e-01 -5.038767e+00 -8.735082e-01 -3.528533e+00 -3.343547e+00 -5.561324e+00 -4.598369e+00 6.388632e+01 -1.153801e+00 -2.238974e-02 2.293068e-01 1.214236e+00 1.675754e+00 4.486444e-01 9.839257e-01 2.474634e-01 3.883697e-01 -2.046489e-01 -3.848617e-02 6.341266e-01 -1.034827e+00 -1.287908e-02 -3.388727e-01 -1.031843e-01 -4.127401e-01 -4.645709e-01 3.979813e-03 -3.253246e-01 -7.466573e-02 6.753716e-02 5.978792e-02 1.885780e-01 -1.401317e-01 9.085500e-02
<VARIANCE> 39
 2.410655e+01 3.774079e+01 5.299352e+01 5.204198e+01 7.021234e+01 6.116544e+01 5.946032e+01 6.392233e+01 5.590403e+01 4.903828e+01 5.076483e+01 3.858411e+01 6.231902e+01 1.689429e+00 3.101812e+00 3.763501e+00 3.153491e+00 3.982788e+00 3.663415e+00 3.716101e+00 3.979588e+00 3.555250e+00 3.311433e+00 3.229051e+00 2.696492e+00 1.908690e+00 2.078603e-01 3.458870e-01 3.745905e-01 4.647503e-01 5.783794e-01 5.465068e-01 6.131397e-01 6.743414e-01 5.528623e-01 5.043381e-01 4.948297e-01 4.302727e-01 1.945110e-01
<GCONST> 1.265532e+02
<STATE> 3
<MEAN> 39
 -9.700353e+00 -9.508005e+00 -4.686234e+00 -4.677486e+00 2.675774e+00 2.279427e+00 -4.763619e+00 -9.952332e-01 -1.060463e+00 -3.166869e+00 -4.362711e+00 -3.248824e+00 6.095738e+01 -1.545167e-02 -1.394799e-01 -3.485189e-01 -4.494461e-01 -3.734070e-01 -2.706780e-01 -3.009458e-01 -2.232404e-01 -1.019812e-01 -8.574884e-03 4.214258e-02 -9.321590e-02 -3.375145e-01 3.724601e-01 1.755725e-01 2.695656e-02 -2.215788e-01 -4.444385e-01 -1.396606e-01 -2.176456e-01 -1.229270e-01 -1.773312e-01 -3.034543e-02 -1.688627e-02 -1.761224e-01 6.362225e-02
<VARIANCE> 39
 4.178867e+01 4.921542e+01 4.679065e+01 4.547722e+01 5.998932e+01 5.371951e+01 5.476161e+01 4.770862e+01 4.618068e+01 4.368457e+01 4.106709e+01 3.220559e+01 7.269631e+01 2.611086e+00 2.919316e+00 2.448110e+00 2.432370e+00 2.888680e+00 2.714132e+00 2.960206e+00 2.866805e+00 2.716644e+00 2.530413e+00 2.399647e+00 2.214805e+00 3.649637e+00 3.256794e-01 4.293248e-01 4.249437e-01 5.154338e-01 5.349108e-01 5.091840e-01 6.105840e-01 5.605744e-01 5.250294e-01 5.076864e-01 4.612746e-01 4.160969e-01 2.524816e-01
<GCONST> 1.246962e+02
<STATE> 4
<MEAN> 39
 -9.534629e+00 -7.758325e+00 -6.177103e+00 -6.274287e+00 -2.360815e+00 -1.562694e+00 -6.856842e+00 -3.434266e+00 -3.907690e+00 -4.839433e+00 -3.705101e+00 -3.787415e+00 5.135423e+01 2.738916e-01 2.539217e-01 5.500064e-03 -1.197270e-01 -4.342705e-01 -9.631871e-02 -1.155112e-01 -1.753381e-01 -1.333002e-01 -1.685909e-02 3.414122e-02 -1.285544e-01 -3.784739e-01 3.943504e-02 1.879733e-02 7.840950e-02 1.902632e-02 -4.451117e-02 5.001944e-02 -9.584823e-03 1.991006e-02 1.834944e-02 1.966603e-02 1.755935e-02 -1.807449e-02 1.033321e-01
<VARIANCE> 39
 3.856303e+01 5.137125e+01 4.817149e+01 3.501898e+01 4.566962e+01 4.429656e+01 4.741793e+01 4.084718e+01 3.881633e+01 3.508783e+01 3.382394e+01 2.812075e+01 1.462073e+02 1.474053e+00 1.796573e+00 1.703797e+00 1.748783e+00 2.070464e+00 1.976405e+00 2.200307e+00 2.123559e+00 2.097235e+00 1.983003e+00 1.831895e+00 1.834123e+00 2.609104e+00 1.770196e-01 2.424486e-01 2.411372e-01 2.731497e-01 3.275861e-01 3.330571e-01 3.817332e-01 3.803397e-01 3.770531e-01 3.529173e-01 3.358019e-01 3.086840e-01 1.447043e-01
<GCONST> 1.133220e+02
<TRANSP> 5
 0.000000e+00 1.000000e+00 0.000000e+00 0.000000e+00 0.000000e+00
 0.000000e+00 5.588975e-01 4.411025e-01 0.000000e+00 0.000000e+00
 0.000000e+00 0.000000e+00 6.776211e-01 3.223789e-01 0.000000e+00
 0.000000e+00 0.000000e+00 0.000000e+00 7.486393e-01 2.513607e-01
 0.000000e+00 0.000000e+00 0.000000e+00 0.000000e+00 0.000000e+00
<ENDHMM>
~h "i"
<BEGINHMM>
<NUMSTATES> 5
<STATE> 2
<MEAN> 39
 -6.404642e+00 -1.195351e+00 1.343929e+01 -2.840499e+00 -1.773877e+01 -8.620186e+00 -1.272347e+01 -6.312491e+00 -1.210267e+01 -3.820111e+00 1.807953e+00 -4.090652e+00 6.369181e+01 6.354647e-01 -5.516164e-02 2.860627e+00 -5.498989e-01 -3.024674e+00 3.803272e-01 -1.455492e+00 -4.173135e-01 -1.712417e+00 -9.122329e-02 1.312029e+00 -4.717450e-01 1.810544e+00 -8.638822e-02 1.019699e-01 -5.734769e-01 -1.561951e-01 3.670380e-01 4.109998e-01 1.245705e-01 3.929057e-02 4.432982e-01 2.054428e-01 -2.153125e-01 -8.161414e-02 -4.899046e-01
<VARIANCE> 39
 3.025692e+01 3.948731e+01 5.443020e+01 4.614903e+01 5.146671e+01 5.377668e+01 5.733539e+01 6.645414e+01 5.086833e+01 4.774545e+01 3.815563e+01 3.272084e+01 6.804520e+01 5.514145e+00 2.970245e+00 4.984956e+00 4.508968e+00 4.621062e+00 4.923166e+00 6.541373e+00 5.929523e+00 5.574411e+00 4.876998e+00 3.721756e+00 3.332683e+00 3.857944e+00 6.896874e-01 5.843453e-01 9.133431e-01 6.151616e-01 1.069753e+00 7.519230e-01 9.306538e-01 1.004136e+00 8.617111e-01 6.517903e-01 6.228506e-01 4.767770e-01 8.613150e-01
<GCONST> 1.380587e+02
<STATE> 3
<MEAN> 39
 -6.498517e+00 -6.670851e-01 1.830190e+01 -6.083511e+00 -2.280914e+01 -4.571011e+00 -1.630404e+01 -7.657003e+00 -1.425649e+01 -3.078174e+00 3.624233e+00 -6.111609e+00 6.680145e+01 1.186664e-01 6.623570e-02 -2.148823e-01 -9.164722e-02 -7.878896e-02 -3.294495e-02 1.203305e-01 1.116271e-01 1.652773e-01 1.607653e-01 1.634034e-03 -6.501384e-03 -8.073924e-02 6.858043e-02 5.491653e-02 -5.573807e-01 2.293372e-01 6.051908e-01 -2.497156e-01 3.508387e-01 1.377769e-01 3.489211e-01 -3.088564e-02 -2.822928e-01 1.039193e-01 -3.699289e-01
<VARIANCE> 39
 1.565891e+01 3.125099e+01 4.194939e+01 4.897078e+01 3.000261e+01 6.166275e+01 4.896757e+01 6.641405e+01 5.160163e+01 6.194246e+01 4.484496e+01 4.297527e+01 2.379583e+01 6.605330e-01 1.366891e+00 1.823151e+00 1.576458e+00 1.919791e+00 2.340827e+00 2.259678e+00 2.525220e+00 2.067347e+00 1.802053e+00 1.626620e+00 1.352823e+00 8.924258e-01 1.967148e-01 2.409180e-01 3.545603e-01 3.308059e-01 5.640465e-01 4.064765e-01 5.200853e-01 4.972308e-01 5.227442e-01 4.490753e-01 4.242500e-01 3.153893e-01 2.420513e-01
<GCONST> 1.132021e+02
<STATE> 4
<MEAN> 39
 -5.210388e+00 1.822292e+00 1.287657e+01 -2.943219e+00 -1.752315e+01 -7.659802e+00 -1.115660e+01 -7.723054e+00 -1.049002e+01 -3.077310e+00 9.063841e-01 -4.388258e+00 5.829417e+01 2.720141e-01 4.527053e-01 -1.520825e+00 5.884790e-01 1.579635e+00 -1.951245e-01 8.581976e-01 1.929482e-01 9.686293e-01 -7.450507e-02 -8.102481e-01 1.244393e-01 -2.040114e+00 -1.060643e-01 -2.795052e-02 -1.165123e-01 -4.343231e-02 1.616058e-01 2.232628e-01 -5.819486e-02 -7.688648e-02 4.420340e-02 1.164049e-03 -1.077518e-01 -3.928174e-02 -1.052289e-01
<VARIANCE> 39
 2.225930e+01 4.149618e+01 4.280402e+01 4.439045e+01 4.961898e+01 7.680393e+01 5.155188e+01 7.294338e+01 4.657405e+01 4.820087e+01 4.506330e+01 3.663023e+01 1.051062e+02 2.071678e+00 2.492949e+00 2.683275e+00 2.524087e+00 3.707705e+00 3.242270e+00 3.903672e+00 4.110533e+00 3.801714e+00 3.059139e+00 2.895473e+00 2.409608e+00 3.811139e+00 2.744112e-01 4.103817e-01 3.911701e-01 4.067649e-01 7.084423e-01 6.314968e-01 6.267878e-01 7.068714e-01 5.628266e-01 5.159345e-01 5.252874e-01 4.114977e-01 5.785418e-01
<GCONST> 1.279086e+02
<TRANSP> 5
 0.000000e+00 1.000000e+00 0.000000e+00 0.000000e+00 0.000000e+00
 0.000000e+00 6.048391e-01 3.951608e-01 0.000000e+00 0.000000e+00
 0.000000e+00 0.000000e+00 7.963979e-01 2.036022e-01 0.000000e+00
 0.000000e+00 0.000000e+00 0.000000e+00 7.265685e-01 2.734315e-01
 0.000000e+00 0.000000e+00 0.000000e+00 0.000000e+00 0.000000e+00
<ENDHMM>
~h "j"
<BEGINHMM>
<NUMSTATES> 5
<STATE> 2
<MEAN> 39
 -1.165299e+00 7.050302e+00 9.107943e+00 6.496905e-01 -9.575055e+00 -6.621739e+00 -8.851300e+00 -2.319557e+00 -5.005173e+00 -5.806231e+00 -3.143567e+00 -3.864716e+00 5.184970e+01 -8.680889e-01 7.769998e-01 2.157768e-01 -7.031668e-02 1.083195e+00 1.802418e-01 7.395698e-01 1.740493e-03 3.345371e-01 3.964487e-02 -2.038757e-01 2.263801e-02 -4.445709e-01 -7.077038e-01 -4.551705e-01 -2.179742e-01 -3.499181e-01 -7.894289e-03 8.339562e-03 -2.169086e-01 -1.914169e-01 -1.124423e-01 1.401943e-01 2.068081e-01 1.749678e-01 9.083061e-01
<VARIANCE> 39
 3.348664e+01 3.306310e+01 3.806647e+01 2.790065e+01 4.640247e+01 4.295034e+01 4.656831e+01 4.416799e+01 4.235922e+01 3.133301e+01 2.678020e+01 2.526886e+01 7.771109e+01 7.559965e+00 3.917516e+00 3.309472e+00 3.116529e+00 4.382603e+00 3.393205e+00 4.175136e+00 4.119780e+00 3.706286e+00 2.974884e+00 2.652606e+00 2.439127e+00 8.804864e+00 1.018223e+00 5.636594e-01 4.854032e-01 4.881838e-01 8.301960e-01 6.383256e-01 6.807114e-01 7.192076e-01 7.324185e-01 5.464953e-01 4.690399e-01 4.893284e-01 1.050989e+00
<GCONST> 1.309691e+02
<STATE> 3
<MEAN> 39
 -1.637698e+01 5.475473e+00 7.445305e+00 -3.175960e+00 -4.568160e+00 -5.908713e+00 -7.842914e+00 -5.605333e+00 -6.300035e+00 -4.249297e+00 -1.458454e+00 -8.670192e-01 6.254280e+01 -1.156913e+00 -1.268849e+00 7.525302e-01 -4.003073e-01 -2.139540e+00 -1.332888e+00 -1.212271e+00 -4.004900e-01 -6.373188e-01 -1.925169e-01 1.186173e+00 1.136046e+00 3.509718e+00 1.771405e+00 -4.817789e-01 1.523784e-01 1.539736e-01 -1.195359e+00 -2.728356e-01 -6.056244e-01 5.551639e-01 1.624130e-01 -1.006493e-01 1.471563e-01 -2.496873e-01 -3.254494e-01
<VARIANCE> 39
 4.264993e+01 3.392099e+01 4.322886e+01 2.785061e+01 4.800380e+01 4.640274e+01 3.415515e+01 2.551957e+01 2.498186e+01 1.962270e+01 1.817854e+01 1.825353e+01 3.472534e+01 1.368167e+01 3.701375e+00 4.034888e+00 4.238898e+00 7.894860e+00 3.883514e+00 4.110302e+00 4.324093e+00 3.892036e+00 2.593231e+00 2.474168e+00 2.065933e+00 3.056728e+00 9.480392e-01 8.572422e-01 9.301807e-01 7.697977e-01 1.304172e+00 9.649953e-01 7.454902e-01 1.131357e+00 9.189996e-01 5.469295e-01 5.427821e-01 5.571751e-01 5.315340e-01
<GCONST> 1.312013e+02
<STATE> 4
<MEAN> 39
 -6.204367e+00 -3.115927e+00 1.024562e+01 -4.519560e+00 -1.867192e+01 -1.188375e+01 -1.570983e+01 -6.660886e-01 -6.005167e+00 -5.044390e+00 3.043402e+00 6.500148e-01 7.056250e+01 2.628031e+00 -2.999896e+00 -1.434934e+00 -1.122514e+00 -1.881236e+00 1.376825e-01 -1.622622e+00 2.473123e+00 1.431248e+00 5.369324e-01 1.131089e-01 -1.222955e+00 1.494587e+00 -1.734778e-01 2.795804e-01 -8.699006e-01 -2.201630e-01 1.353208e+00 9.185415e-01 6.296552e-01 -5.830022e-03 3.560934e-01 2.209201e-01 -7.129940e-01 -7.402873e-01 -6.616130e-01
<VARIANCE> 39
 1.496824e+01 3.287921e+01 3.387704e+01 5.055252e+01 3.160021e+01 2.794936e+01 4.135600e+01 6.780844e+01 5.189308e+01 3.786580e+01 2.663723e+01 2.411916e+01 2.453915e+01 2.611027e+00 2.821955e+00 4.468502e+00 3.220933e+00 7.389822e+00 3.914223e+00 6.067007e+00 6.967119e+00 5.063372e+00 3.173665e+00 4.434516e+00 3.095375e+00 1.136301e+00 7.520816e-01 4.374087e-01 4.240785e-01 6.135173e-01 7.104762e-01 5.801342e-01 6.885626e-01 1.093286e+00 6.788599e-01 5.923309e-01 6.352069e-01 4.372628e-01 1.384007e-01
<GCONST> 1.267916e+02
<TRANSP> 5
 0.000000e+00 1.000000e+00 0.000000e+00 0.000000e+00 0.000000e+00
 0.000000e+00 8.190227e-01 1.809773e-01 0.000000e+00 0.000000e+00
 0.000000e+00 0.000000e+00 7.014223e-01 2.985777e-01 0.000000e+00
 0.000000e+00 0.000000e+00 0.000000e+00 6.195434e-01 3.804565e-01
 0.000000e+00 0.000000e+00 0.000000e+00 0.000000e+00 0.000000e+00
<ENDHMM>
~h "k"
<BEGINHMM>
<NUMSTATES> 5
<STATE> 2
<MEAN> 39
 -5.789649e+00 7.693278e-01 -2.601716e+00 -4.707814e+00 -7.572057e+00 -5.113277e+00 -7.884065e+00 -5.050260e+00 -4.847809e+00 -1.610286e+00 -3.435200e+00 -5.163520e+00 4.391333e+01 -1.199931e+00 -3.090357e-01 -7.011823e-01 2.890749e-01 6.307290e-01 -4.054371e-01 2.072229e-01 1.052499e-01 2.624878e-01 -7.335752e-02 -1.592888e-01 6.024249e-01 -1.429858e+00 -1.746336e-01 -5.846807e-01 -3.098327e-01 -2.379141e-01 1.492336e-01 1.579741e-02 -2.101899e-01 1.944989e-01 -1.932668e-02 1.472063e-01 2.689032e-02 4.122493e-02 1.263929e+00
<VARIANCE> 39
 3.782356e+01 3.671992e+01 5.460885e+01 4.534173e+01 4.945971e+01 5.259351e+01 4.403592e+01 4.877266e+01 4.770913e+01 3.678425e+01 3.723467e+01 3.204154e+01 7.717583e+01 2.055698e+00 3.564945e+00 3.322145e+00 3.057180e+00 4.379294e+00 3.889369e+00 3.821490e+00 3.722494e+00 3.397096e+00 3.143462e+00 2.877448e+00 2.527290e+00 8.751940e+00 3.864989e-01 5.911658e-01 6.320832e-01 6.245037e-01 8.231908e-01 7.629867e-01 7.711940e-01 7.130525e-01 7.154816e-01 6.538652e-01 5.967816e-01 5.072250e-01 1.200193e+00
<GCONST> 1.322449e+02
<STATE> 3
<MEAN> 39
 -1.174505e+01 -5.454216e+00 -6.957023e+00 -3.707772e+00 -2.510186e+00 -6.800846e+00 -8.782377e+00 -2.744030e+00 -4.312527e+00 -2.176121e-01 -3.754205e+00 -1.808273e+00 4.901027e+01 -9.799922e-01 -2.173543e+00 -2.260557e+00 -8.772916e-01 1.408952e+00 -5.717143e-01 -8.637120e-01 8.591700e-01 3.479877e-02 9.273765e-01 -5.436379e-01 3.240399e-01 4.645628e+00 7.445980e-01 4.155529e-01 5.048270e-01 -3.848988e-01 -6.984048e-01 2.030787e-01 -3.681828e-02 -1.152167e-02 -2.179322e-02 -9.039427e-02 4.293998e-02 -5.331019e-01 7.215229e-01
<VARIANCE> 39
 3.462360e+01 6.054169e+01 6.703703e+01 4.523949e+01 5.752095e+01 5.709697e+01 5.030184e+01 4.378313e+01 4.154712e+01 3.373838e+01 3.161125e+01 2.637726e+01 1.288386e+02 3.862419e+00 5.490796e+00 7.203725e+00 5.732750e+00 6.705028e+00 6.273175e+00 5.864195e+00 5.539123e+00 5.310478e+00 4.565580e+00 4.174356e+00 3.584429e+00 1.232864e+01 6.236326e-01 1.073493e+00 1.232692e+00 7.987764e-01 1.117669e+00 9.470987e-01 9.970445e-01 8.449447e-01 8.073461e-01 6.984125e-01 6.686924e-01 6.402312e-01 1.728350e+00
<GCONST> 1.429618e+02
<STATE> 4
<MEAN> 39
 -1.007917e+01 -6.251374e+00 -9.577081e+00 -7.966815e+00 -2.791394e+00 -6.741536e+00 -1.075330e+01 -1.203130e+00 -4.382069e+00 1.548143e+00 -5.134345e+00 -4.046736e+00 6.061968e+01 1.961556e+00 3.736944e-01 1.365846e+00 -9.894053e-01 -1.702509e+00 5.617166e-01 -1.113028e-01 3.262583e-01 5.790915e-02 -3.720706e-01 4.031956e-01 -1.369929e+00 2.988034e+00 6.934419e-01 2.359910e-01 8.130748e-01 5.312745e-02 -7.454560e-01 4.209245e-01 1.962403e-01 -2.056537e-01 7.928021e-02 -4.655531e-01 3.742114e-01 -3.375128e-01 -6.771102e-01
<VARIANCE> 39
 3.869345e+01 4.318916e+01 7.493900e+01 5.803160e+01 6.311841e+01 7.359452e+01 5.714436e+01 5.308186e+01 5.692870e+01 4.313500e+01 4.304551e+01 3.810777e+01 7.210634e+01 4.544979e+00 4.872932e+00 6.367257e+00 5.001931e+00 5.860199e+00 5.153545e+00 5.838127e+00 5.555546e+00 5.488882e+00 4.064759e+00 4.258986e+00 4.268555e+00 7.968229e+00 7.750870e-01 9.708384e-01 1.483912e+00 9.309233e-01 1.315319e+00 1.092127e+00 1.202388e+00 1.041260e+00 1.036851e+00 8.774303e-01 8.198403e-01 8.013821e-01 1.022217e+00
<GCONST> 1.450838e+02
<TRANSP> 5
 0.000000e+00 1.000000e+00 0.000000e+00 0.000000e+00 0.000000e+00
 0.000000e+00 7.507861e-01 2.492139e-01 0.000000e+00 0.000000e+00
 0.000000e+00 0.000000e+00 5.006745e-01 4.993255e-01 0.000000e+00
 0.000000e+00 0.000000e+00 0.000000e+00 5.698839e-01 4.301161e-01
 0.000000e+00 0.000000e+00 0.000000e+00 0.000000e+00 0.000000e+00
<ENDHMM>
~h "l"
<BEGINHMM>
<NUMSTATES> 5
<STATE> 2
<MEAN> 39
 1.099470e+00 -8.195168e+00 -1.612296e+00 -9.833326e+00 -1.260953e+01 -1.192384e+00 -1.611422e+01 -1.011280e+01 1.276118e+00 1.011104e+00 -4.831471e-01 -6.713634e+00 6.839065e+01 5.147345e-01 2.534775e-03 6.200560e-01 -2.629869e-01 5.839992e-01 -9.004907e-02 -1.219085e+00 -1.201636e+00 1.860631e-01 9.655578e-01 1.073966e-01 -1.737126e-01 -4.365034e-01 -1.644290e-01 1.632876e-01 4.711284e-02 -1.546829e-01 7.301657e-02 1.077159e-01 1.159539e-01 2.264545e-01 -2.841257e-01 -2.005591e-01 6.522156e-02 1.955926e-02 -4.292639e-02
<VARIANCE> 39
 1.794971e+01 3.008938e+01 6.838303e+01 7.731177e+01 6.050569e+01 8.890288e+01 9.208466e+01 1.375690e+02 7.601760e+01 5.894867e+01 5.632340e+01 4.927531e+01 2.969924e+01 8.682058e-01 1.969630e+00 3.029504e+00 4.953753e+00 4.892678e+00 5.961964e+00 4.673892e+00 5.394049e+00 4.975765e+00 4.139919e+00 4.348766e+00 3.199895e+00 1.083936e+00 1.897092e-01 2.656016e-01 3.718801e-01 6.187193e-01 7.465750e-01 7.711974e-01 8.275850e-01 1.015353e+00 7.778807e-01 7.410525e-01 6.469310e-01 4.780489e-01 1.212622e-01
<GCONST> 1.308731e+02
<STATE> 3
<MEAN> 39
 1.719548e+00 -7.533703e+00 6.995004e-01 -1.495077e+01 -9.106975e+00 9.289886e-01 -1.979210e+01 -1.115305e+01 -1.907552e-01 4.218337e+00 5.478005e-01 -7.221909e+00 6.719044e+01 -9.279212e-02 4.990318e-02 -6.731747e-02 -2.569552e-01 1.638791e-01 1.788366e-01 -6.830035e-02 2.449591e-01 -2.121461e-02 -9.651960e-02 -7.744303e-02 -5.144941e-02 4.167305e-02 -2.304276e-01 -1.872929e-01 -3.668705e-01 2.385072e-01 -1.299114e-01 6.054875e-02 5.374912e-01 6.259765e-01 9.051146e-02 -4.511496e-01 -3.289995e-01 -8.036733e-02 2.177051e-01
<VARIANCE> 39
 1.718409e+01 3.058740e+01 6.677432e+01 8.492450e+01 5.969291e+01 7.110611e+01 9.412205e+01 1.009051e+02 7.552892e+01 5.734446e+01 5.442954e+01 5.002287e+01 2.526321e+01 4.940818e-01 1.212686e+00 2.116781e+00 2.444980e+00 1.997266e+00 2.646916e+00 2.952208e+00 4.021119e+00 3.149198e+00 2.514963e+00 2.649581e+00 2.021248e+00 8.796754e-01 1.098446e-01 2.822098e-01 3.077479e-01 5.002055e-01 6.303712e-01 6.637713e-01 7.760259e-01 7.909971e-01 6.656681e-01 6.409481e-01 6.942475e-01 4.761394e-01 1.204456e-01
<GCONST> 1.217201e+02
<STATE> 4
<MEAN> 39
 4.488119e-01 -6.308455e+00 -8.981728e-01 -1.180576e+01 -8.299301e+00 3.162360e-01 -1.691695e+01 -8.188853e+00 2.051009e-01 1.611312e+00 -2.296648e+00 -7.053269e+00 6.480028e+01 -6.164517e-01 -1.552884e-01 -5.644392e-01 8.446849e-01 2.996295e-02 -1.502259e-01 1.355571e+00 1.455752e+00 -4.061823e-02 -1.102981e+00 -8.107412e-01 -2.944192e-02 -1.197373e-01 -1.333077e-01 6.473612e-05 -6.544621e-02 6.074127e-02 -8.054019e-02 -3.208700e-03 3.189894e-01 1.113910e-01 -1.263973e-01 -1.708609e-01 4.979420e-02 5.076176e-02 -2.924485e-02
<VARIANCE> 39
 1.862990e+01 3.958641e+01 7.718773e+01 8.545110e+01 6.615952e+01 8.047938e+01 8.940495e+01 1.052669e+02 6.993282e+01 5.664133e+01 5.831362e+01 4.608089e+01 6.512964e+01 9.131137e-01 3.268406e+00 3.200269e+00 4.109411e+00 4.772942e+00 5.060591e+00 4.782335e+00 6.290849e+00 5.313189e+00 3.955284e+00 4.935246e+00 3.415513e+00 3.555023e+00 1.494112e-01 3.085816e-01 3.079790e-01 6.075984e-01 7.274112e-01 6.294450e-01 7.711738e-01 7.254686e-01 6.654806e-01 6.589637e-01 6.623901e-01 4.574577e-01 2.323226e-01
<GCONST> 1.329653e+02
<TRANSP> 5
 0.000000e+00 1.000000e+00 0.000000e+00 0.000000e+00 0.000000e+00
 0.000000e+00 5.571673e-01 4.428327e-01 0.000000e+00 0.000000e+00
 0.000000e+00 0.000000e+00 6.338043e-01 3.661957e-01 0.000000e+00
 0.000000e+00 0.000000e+00 0.000000e+00 4.669059e-01 5.330941e-01
 0.000000e+00 0.000000e+00 0.000000e+00 0.000000e+00 0.000000e+00
<ENDHMM>
~h "m"
<BEGINHMM>
<NUMSTATES> 5
<STATE> 2
<MEAN> 39
 1.918876e+00 -3.205578e+00 3.173688e-01 -4.893249e+00 -8.622926e+00 1.692666e+00 -9.564467e+00 -1.012530e+01 -1.043536e+01 -2.512789e+00 -1.202294e+00 -7.617826e+00 5.901732e+01 7.302024e-01 9.965421e-01 1.731736e+00 1.913633e+00 7.374114e-03 5.599760e-01 5.531983e-01 -2.624655e+00 -2.780470e+00 -1.464399e-01 -5.261440e-01 2.207177e-01 -4.848684e-01 -2.735590e-01 -2.576878e-01 4.511710e-02 -1.735356e-01 -4.820143e-02 -8.674709e-03 -4.519438e-02 1.627005e-01 1.264926e-01 -1.556952e-01 -1.453014e-01 8.204881e-02 3.750259e-01
<VARIANCE> 39
 3.031585e+01 3.987365e+01 4.657926e+01 6.752916e+01 5.345922e+01 6.412987e+01 6.539736e+01 7.136906e+01 6.933546e+01 5.144297e+01 6.371294e+01 4.114895e+01 8.915316e+01 2.539404e+00 2.805012e+00 3.656533e+00 4.673776e+00 3.988729e+00 4.128854e+00 5.196696e+00 5.527226e+00 5.984445e+00 4.502108e+00 6.299537e+00 4.070398e+00 6.079056e+00 3.129294e-01 3.309129e-01 5.145112e-01 6.252639e-01 5.504788e-01 4.798763e-01 6.016659e-01 8.177171e-01 8.794057e-01 5.251278e-01 7.647065e-01 4.699505e-01 3.218302e-01
<GCONST> 1.348896e+02
<STATE> 3
<MEAN> 39
 3.144797e+00 -3.540457e+00 3.790621e+00 -1.784211e+00 -9.022502e+00 3.711375e+00 -9.268539e+00 -1.581913e+01 -1.644771e+01 -3.647431e+00 -1.970032e+00 -6.275866e+00 6.130103e+01 -5.557720e-02 -4.155531e-02 3.225116e-01 1.157003e-01 5.121802e-02 2.689797e-01 1.123491e-01 -2.949927e-01 -4.857048e-01 -3.699278e-01 -2.730475e-01 1.815555e-01 2.297416e-01 -8.151180e-02 -2.309126e-01 -5.682801e-01 -7.319416e-01 -5.916208e-02 -1.461356e-01 -1.752141e-01 9.092941e-01 9.445589e-01 4.881382e-02 1.658166e-01 -1.853905e-01 2.967693e-01
<VARIANCE> 39
 1.185680e+01 2.756481e+01 3.188446e+01 5.169004e+01 4.820547e+01 7.048890e+01 8.472920e+01 7.477390e+01 6.312838e+01 7.478098e+01 7.967585e+01 4.404221e+01 2.461764e+01 5.219172e-01 1.093030e+00 1.814651e+00 2.769621e+00 1.616183e+00 2.015873e+00 2.053108e+00 2.871811e+00 3.617073e+00 2.191013e+00 3.019140e+00 1.913135e+00 1.484781e+00 1.441739e-01 2.201020e-01 3.618509e-01 4.133613e-01 3.851001e-01 4.115842e-01 5.701280e-01 5.965095e-01 7.521249e-01 5.856797e-01 7.860036e-01 5.141766e-01 1.988900e-01
<GCONST> 1.182012e+02
<STATE> 4
<MEAN> 39
 2.036249e+00 -1.924034e+00 4.313133e+00 -3.689921e+00 -9.801888e+00 3.926957e+00 -9.073598e+00 -1.214458e+01 -1.361062e+01 -4.974527e+00 -4.974844e+00 -6.708180e+00 6.030392e+01 -5.494355e-02 1.590140e-02 -7.940087e-01 -8.355841e-01 -2.906418e-02 -2.642185e-01 -2.529797e-02 1.024567e+00 1.115268e+00 2.044887e-01 3.253088e-01 -1.307494e-01 1.792977e-01 -8.648387e-02 -1.057953e-01 -2.464604e-01 -1.879159e-01 6.274568e-02 -8.524825e-02 -9.187081e-02 2.453735e-01 3.199155e-01 8.785110e-02 1.614549e-01 -3.468142e-02 9.797780e-03
<VARIANCE> 39
 1.197470e+01 2.806369e+01 3.947165e+01 5.676770e+01 7.184892e+01 7.605627e+01 7.295405e+01 6.287344e+01 6.700493e+01 5.590550e+01 6.381532e+01 4.294754e+01 4.036826e+01 5.960771e-01 1.957801e+00 2.897309e+00 3.871838e+00 2.445075e+00 2.499808e+00 2.706287e+00 3.578851e+00 4.592216e+00 2.610145e+00 3.604043e+00 2.386139e+00 2.986907e+00 1.332270e-01 2.106338e-01 3.355923e-01 3.959115e-01 4.272709e-01 4.226406e-01 3.968940e-01 5.117353e-01 5.886574e-01 4.083770e-01 5.252608e-01 3.796532e-01 1.812930e-01
<GCONST> 1.208283e+02
<TRANSP> 5
 0.000000e+00 1.000000e+00 0.000000e+00 0.000000e+00 0.000000e+00
 0.000000e+00 5.271395e-01 4.728604e-01 0.000000e+00 0.000000e+00
 0.000000e+00 0.000000e+00 6.643473e-01 3.356526e-01 0.000000e+00
 0.000000e+00 0.000000e+00 0.000000e+00 7.155104e-01 2.844895e-01
 0.000000e+00 0.000000e+00 0.000000e+00 0.000000e+00 0.000000e+00
<ENDHMM>
~h "n"
<BEGINHMM>
<NUMSTATES> 5
<STATE> 2
<MEAN> 39
 1.672496e+00 -7.800998e+00 9.531725e-01 -3.980262e+00 -1.159769e+01 -4.311338e+00 -1.433429e+01 -2.840243e+00 -2.113361e+00 -2.640954e+00 -6.322473e+00 -8.298164e+00 6.578186e+01 8.081949e-01 2.295372e+00 1.831912e+00 2.346532e+00 -5.516485e-01 -8.118463e-01 2.567749e-01 -3.750442e+00 -9.933316e-01 1.149428e+00 -8.468357e-01 5.008436e-01 -2.333288e+00 -1.553614e-01 1.396879e-01 1.703935e-02 -1.790985e-01 -2.112129e-02 1.928369e-01 3.448683e-01 -4.254619e-01 -2.221766e-01 8.135619e-02 3.970863e-02 1.570942e-01 5.436097e-02
<VARIANCE> 39
 1.123919e+01 4.253598e+01 5.314595e+01 4.839076e+01 5.039194e+01 5.593621e+01 5.908265e+01 1.127481e+02 6.963405e+01 4.911729e+01 4.889096e+01 4.313248e+01 3.598457e+01 8.231853e-01 2.028662e+00 3.724591e+00 2.939584e+00 4.083422e+00 5.281939e+00 5.188603e+00 5.697999e+00 5.168292e+00 4.794304e+00 5.112435e+00 3.498478e+00 1.111069e+00 1.229350e-01 3.928125e-01 3.824746e-01 4.716544e-01 5.303904e-01 6.148112e-01 6.273825e-01 1.217714e+00 7.154440e-01 6.620278e-01 5.072612e-01 4.268746e-01 2.281418e-01
<GCONST> 1.274970e+02
<STATE> 3
<MEAN> 39
 2.787376e+00 -2.483177e+00 4.911436e+00 2.316484e-01 -1.359439e+01 -5.108849e+00 -1.160838e+01 -1.353654e+01 -5.295200e+00 8.185484e-01 -7.541343e+00 -6.341653e+00 6.154660e+01 1.573640e-01 9.218166e-01 6.923368e-01 5.917695e-01 -2.424857e-01 1.095507e-02 4.107218e-01 -1.522310e+00 -7.285622e-01 5.059630e-01 -2.565847e-01 4.719343e-01 -7.905579e-01 -2.646783e-01 -5.473843e-01 -4.808312e-01 -6.452899e-01 2.520913e-01 2.229392e-01 -1.329408e-01 1.211265e+00 2.443630e-01 -4.319771e-01 2.895321e-01 -1.024788e-01 5.212644e-01
<VARIANCE> 39
 1.122079e+01 2.529162e+01 3.599326e+01 4.044707e+01 4.451801e+01 6.194186e+01 7.033498e+01 8.942381e+01 6.571464e+01 4.823636e+01 5.820586e+01 4.789775e+01 2.362514e+01 5.566111e-01 1.890803e+00 2.283212e+00 2.027125e+00 2.276695e+00 2.801322e+00 3.143129e+00 5.584226e+00 3.674449e+00 2.852215e+00 2.834535e+00 2.233017e+00 1.256248e+00 1.432588e-01 2.663298e-01 5.081780e-01 4.069718e-01 5.352426e-01 6.409228e-01 6.911372e-01 8.012727e-01 7.370977e-01 6.339909e-01 6.652562e-01 5.031571e-01 1.771940e-01
<GCONST> 1.210699e+02
<STATE> 4
<MEAN> 39
 2.165747e+00 -2.931273e-01 5.842806e+00 9.102770e-01 -1.187015e+01 -4.586403e+00 -1.086093e+01 -1.143371e+01 -6.620217e+00 -8.552863e-01 -7.974874e+00 -5.465146e+00 5.760643e+01 -3.106008e-01 4.325754e-01 -1.462422e-01 2.644902e-02 6.299666e-01 1.399422e-01 1.987154e-01 5.324752e-01 -1.326528e-01 -2.996397e-01 1.386539e-01 8.385728e-02 -8.417065e-01 -1.899007e-01 -1.121421e-01 -1.667445e-01 -1.705377e-01 1.469019e-01 1.640870e-02 -7.260123e-03 3.122206e-01 1.110614e-01 -1.288503e-01 1.092021e-01 -5.692523e-02 -9.388770e-03
<VARIANCE> 39
 1.226167e+01 2.843816e+01 3.592133e+01 4.202716e+01 6.184933e+01 6.272457e+01 6.568580e+01 7.424103e+01 5.983855e+01 5.560572e+01 6.507678e+01 4.985957e+01 4.386091e+01 7.825290e-01 1.664268e+00 1.507041e+00 1.773929e+00 2.292100e+00 2.141428e+00 2.433761e+00 3.446153e+00 2.686401e+00 2.307525e+00 2.452074e+00 1.948244e+00 1.949588e+00 1.538344e-01 2.528063e-01 2.814457e-01 3.352759e-01 4.257317e-01 4.048409e-01 4.521742e-01 5.928102e-01 4.740357e-01 4.496204e-01 4.504705e-01 3.583595e-01 1.977391e-01
<GCONST> 1.169308e+02
<TRANSP> 5
 0.000000e+00 1.000000e+00 0.000000e+00 0.000000e+00 0.000000e+00
 0.000000e+00 4.778727e-01 5.221273e-01 0.000000e+00 0.000000e+00
 0.000000e+00 0.000000e+00 5.835306e-01 4.164694e-01 0.000000e+00
 0.000000e+00 0.000000e+00 0.000000e+00 7.851334e-01 2.148666e-01
 0.000000e+00 0.000000e+00 0.000000e+00 0.000000e+00 0.000000e+00
<ENDHMM>
~h "o"
<BEGINHMM>
<NUMSTATES> 5
<STATE> 2
<MEAN> 39
 2.998826e-01 -3.636485e+00 -6.331846e+00 -1.616121e+01 -1.162266e+01 3.898262e+00 -1.303834e+01 -5.185212e+00 -2.689315e+00 -1.073412e+00 1.196997e+00 -5.437971e+00 6.418883e+01 1.873219e+00 -7.099215e-01 -6.827992e-01 -2.814284e+00 -1.346018e+00 2.426353e+00 -5.162095e-01 -6.884702e-02 6.719878e-01 3.142702e-02 1.188500e+00 -6.365381e-01 2.207848e+00 -4.491039e-01 -2.015776e-02 8.750036e-02 2.846357e-01 3.117894e-01 -1.366181e-02 2.982941e-01 -1.694647e-02 -1.686132e-01 -7.436522e-02 -1.509543e-02 1.152862e-01 -4.621924e-01
<VARIANCE> 39
 3.039653e+01 4.056671e+01 4.706830e+01 1.039911e+02 5.882740e+01 7.105164e+01 8.135699e+01 6.780945e+01 6.575633e+01 6.283801e+01 5.399615e+01 3.958166e+01 1.000943e+02 4.412335e+00 2.918695e+00 5.771000e+00 6.457100e+00 7.014027e+00 5.680778e+00 5.004967e+00 6.276836e+00 5.268593e+00 5.667255e+00 4.656222e+00 3.817086e+00 5.258484e+00 7.710253e-01 5.295449e-01 6.445369e-01 1.312497e+00 8.515179e-01 9.382352e-01 9.190811e-01 7.879129e-01 8.935861e-01 7.811307e-01 7.100456e-01 5.680575e-01 1.159145e+00
<GCONST> 1.433536e+02
<STATE> 3
<MEAN> 39
 2.447638e+00 -6.475068e+00 -8.438087e+00 -1.886104e+01 -1.376821e+01 9.547452e+00 -1.404491e+01 -6.145479e+00 -1.353686e+00 -1.304857e+00 5.353626e+00 -7.101445e+00 7.010368e+01 7.126141e-02 -1.933595e-01 -2.682393e-01 -7.825508e-01 2.278026e-01 8.331138e-01 2.198065e-01 1.249187e-01 -9.695455e-02 -8.420630e-02 3.376397e-01 -1.020426e-01 2.057837e-01 -2.663839e-01 2.649328e-01 3.096778e-01 7.603985e-01 3.718218e-01 -7.836305e-01 1.550622e-01 -8.445049e-03 -2.309446e-01 -1.706859e-02 -5.156465e-01 2.005149e-01 -5.676265e-01
<VARIANCE> 39
 1.216352e+01 3.468460e+01 3.716393e+01 6.820968e+01 5.198020e+01 5.628067e+01 7.840125e+01 7.713043e+01 6.811546e+01 7.465794e+01 6.030566e+01 4.609624e+01 2.051187e+01 5.668585e-01 1.606956e+00 1.588673e+00 4.453703e+00 2.551631e+00 4.199904e+00 3.472154e+00 3.337345e+00 4.044297e+00 3.718469e+00 3.049187e+00 2.543303e+00 1.036913e+00 2.576224e-01 2.923860e-01 3.680252e-01 5.515535e-01 7.142716e-01 5.549316e-01 6.501974e-01 7.536870e-01 7.267070e-01 7.644673e-01 6.291390e-01 5.399413e-01 2.570230e-01
<GCONST> 1.243687e+02
<STATE> 4
<MEAN> 39
 2.588808e+00 -4.165918e+00 -7.330044e+00 -2.192591e+01 -1.161867e+01 8.958273e+00 -1.191396e+01 -5.276000e+00 -3.245678e+00 -2.146084e+00 3.002033e+00 -5.330876e+00 6.653353e+01 -2.847511e-02 2.478989e-01 2.243108e-01 9.311973e-01 3.548791e-01 -6.345172e-01 1.223039e-01 -1.337298e-01 -1.708845e-02 7.470936e-02 -5.054269e-01 -5.691459e-02 -8.256998e-01 -5.870789e-02 7.204796e-02 1.320019e-01 4.111743e-01 4.133300e-02 -2.292400e-01 -3.895584e-03 -8.638964e-02 1.829980e-02 1.749342e-02 -1.307212e-01 -1.613804e-03 -2.546667e-01
<VARIANCE> 39
 1.272011e+01 4.214750e+01 4.013988e+01 6.652619e+01 5.549701e+01 5.478853e+01 7.085128e+01 6.717278e+01 6.855684e+01 6.815599e+01 4.993855e+01 5.090232e+01 4.697623e+01 5.213593e-01 1.482953e+00 1.265058e+00 3.102141e+00 2.201582e+00 2.487179e+00 2.458622e+00 2.423930e+00 2.546670e+00 2.539123e+00 2.213986e+00 1.875968e+00 2.178968e+00 1.033518e-01 2.197168e-01 2.197993e-01 3.583240e-01 3.785104e-01 3.684185e-01 4.364361e-01 4.175890e-01 4.473643e-01 4.502391e-01 3.624747e-01 3.549747e-01 2.285103e-01
<GCONST> 1.160158e+02
<TRANSP> 5
 0.000000e+00 1.000000e+00 0.000000e+00 0.000000e+00 0.000000e+00
 0.000000e+00 5.232818e-01 4.767182e-01 0.000000e+00 0.000000e+00
 0.000000e+00 0.000000e+00 6.278748e-01 3.721252e-01 0.000000e+00
 0.000000e+00 0.000000e+00 0.000000e+00 8.211054e-01 1.788946e-01
 0.000000e+00 0.000000e+00 0.000000e+00 0.000000e+00 0.000000e+00
<ENDHMM>
~h "p"
<BEGINHMM>
<NUMSTATES> 5
<STATE> 2
<MEAN> 39
 -4.602369e+00 1.542550e+00 -3.249231e+00 -5.067640e+00 -6.552172e+00 -2.507427e+00 -6.963606e+00 -6.424303e+00 -4.274690e+00 -2.417521e+00 -3.372861e+00 -5.412152e+00 4.076583e+01 -1.238542e+00 2.178137e-01 -2.511760e-01 3.161649e-01 1.533222e-01 -6.306337e-01 2.572768e-01 2.523248e-01 2.725394e-01 -1.502286e-02 -9.245953e-02 4.369115e-01 -1.670236e+00 -3.996479e-02 -3.849921e-01 -1.647448e-02 -1.517469e-01 -8.773268e-02 4.631460e-02 -1.510256e-01 5.016077e-02 -2.564621e-02 2.312465e-02 1.455189e-01 4.382041e-02 9.828621e-01
<VARIANCE> 39
 4.135989e+01 2.774096e+01 3.914416e+01 3.721346e+01 2.660956e+01 4.092583e+01 3.119639e+01 3.160603e+01 3.964731e+01 2.818698e+01 2.807207e+01 2.993033e+01 5.182468e+01 1.301537e+00 1.518977e+00 1.628517e+00 1.855457e+00 2.027736e+00 2.321636e+00 2.111711e+00 2.291977e+00 2.491781e+00 2.175538e+00 2.228741e+00 1.843097e+00 3.846187e+00 2.897409e-01 3.560182e-01 3.734614e-01 4.128957e-01 4.548312e-01 4.667874e-01 4.451655e-01 4.764818e-01 5.088682e-01 4.555215e-01 4.381011e-01 3.695850e-01 7.103128e-01
<GCONST> 1.160912e+02
<STATE> 3
<MEAN> 39
 -9.366225e+00 1.995445e-01 -2.620303e+00 -3.103513e+00 -5.641972e+00 -4.362758e+00 -6.658757e+00 -5.119801e+00 -3.906574e+00 -2.665259e+00 -2.783478e+00 -2.969195e+00 4.154495e+01 9.347047e-02 -1.739161e+00 -5.338416e-01 -8.992926e-01 -2.501235e-01 1.547625e-01 -5.333846e-01 1.349740e-01 1.644032e-01 6.646619e-02 5.980443e-01 1.004724e-01 5.277820e+00 1.049046e+00 -5.432252e-01 -1.966791e-01 -8.513739e-01 -4.964841e-01 6.240232e-01 -3.562471e-01 -6.102632e-02 -3.781094e-02 7.464990e-02 2.707031e-01 -4.944296e-01 1.855924e+00
<VARIANCE> 39
 2.912252e+01 2.451963e+01 2.477817e+01 2.388291e+01 2.313065e+01 3.076122e+01 2.812700e+01 2.743583e+01 3.096988e+01 2.308780e+01 2.209608e+01 2.076799e+01 8.453839e+01 5.188775e+00 3.334715e+00 3.912889e+00 5.209632e+00 3.672790e+00 5.457051e+00 3.775799e+00 3.897822e+00 4.383947e+00 3.249553e+00 3.247050e+00 2.967289e+00 9.404114e+00 4.624429e-01 7.517838e-01 7.494804e-01 8.056785e-01 7.508668e-01 9.911124e-01 7.231161e-01 8.020714e-01 8.245864e-01 6.433194e-01 6.250192e-01 5.971388e-01 1.334294e+00
<GCONST> 1.299689e+02
<STATE> 4
<MEAN> 39
 -4.557977e+00 -6.163575e+00 -6.533796e+00 -9.777818e+00 -7.750899e+00 -1.295641e+00 -8.795887e+00 -5.917165e+00 -3.499972e+00 -1.938789e+00 -3.922923e-01 -4.794519e+00 6.188288e+01 2.784040e+00 -2.324958e+00 -8.410823e-01 -2.897946e+00 -1.233758e+00 2.144048e+00 -1.221694e+00 7.485673e-02 2.902275e-01 3.503974e-01 9.371249e-01 -1.506091e+00 6.362300e+00 1.497584e-01 2.652411e-01 3.125211e-01 1.826787e-01 -1.000256e-01 9.423614e-02 -7.440679e-02 1.724513e-01 7.548919e-02 -2.972744e-02 -2.430345e-01 -2.580770e-01 -1.158965e+00
<VARIANCE> 39
 4.686939e+01 3.084975e+01 3.068363e+01 6.972613e+01 2.810265e+01 7.422027e+01 3.296282e+01 3.369899e+01 3.219843e+01 2.889154e+01 2.897171e+01 2.922901e+01 6.285841e+01 4.172054e+00 6.509932e+00 6.606432e+00 7.967204e+00 6.240444e+00 8.963007e+00 5.554904e+00 6.565311e+00 6.388222e+00 4.592569e+00 4.808901e+00 4.892498e+00 1.027774e+01 1.084701e+00 7.917547e-01 6.290293e-01 1.381093e+00 1.030225e+00 1.341660e+00 7.232650e-01 7.833012e-01 9.025769e-01 6.871157e-01 7.888055e-01 6.814796e-01 1.098260e+00
<GCONST> 1.412062e+02
<TRANSP> 5
 0.000000e+00 1.000000e+00 0.000000e+00 0.000000e+00 0.000000e+00
 0.000000e+00 7.867897e-01 2.132103e-01 0.000000e+00 0.000000e+00
 0.000000e+00 0.000000e+00 5.725150e-01 4.274850e-01 0.000000e+00
 0.000000e+00 0.000000e+00 0.000000e+00 4.065581e-01 5.934418e-01
 0.000000e+00 0.000000e+00 0.000000e+00 0.000000e+00 0.000000e+00
<ENDHMM>
~h "r"
<BEGINHMM>
<NUMSTATES> 5
<STATE> 2
<MEAN> 39
 5.007578e-01 -8.545089e+00 -6.129251e+00 -4.736418e+00 -1.181406e+01 -4.413239e+00 -1.307524e+01 -4.670537e+00 3.489278e+00 -7.125274e-02 -2.143525e+00 -7.502141e+00 6.763423e+01 7.679211e-02 3.647971e-01 3.871520e-01 1.902208e+00 2.978184e-01 -6.228783e-01 -3.835216e-01 -6.741080e-01 3.645043e-01 -2.292546e-01 -7.878693e-02 6.534145e-01 -1.426107e+00 -1.953307e-01 -2.455471e-02 1.885384e-01 -3.232736e-01 4.222144e-02 1.588054e-01 -2.284775e-02 2.933134e-01 -5.049250e-01 -1.379216e-01 9.334174e-02 5.670456e-02 5.275058e-02
<VARIANCE> 39
 1.699989e+01 3.098789e+01 5.576069e+01 4.727967e+01 5.375819e+01 5.826816e+01 6.466965e+01 9.417176e+01 5.852895e+01 4.870638e+01 5.030518e+01 4.004951e+01 4.356803e+01 2.552279e+00 2.330704e+00 3.415982e+00 5.012516e+00 5.450788e+00 5.391009e+00 5.072121e+00 5.193540e+00 6.184437e+00 4.949997e+00 4.610219e+00 3.515731e+00 2.616252e+00 3.161840e-01 3.382037e-01 4.100217e-01 6.238533e-01 6.837277e-01 6.466861e-01 7.241091e-01 7.939103e-01 7.683485e-01 6.810147e-01 6.064116e-01 5.121627e-01 5.312170e-01
<GCONST> 1.329487e+02
<STATE> 3
<MEAN> 39
 -1.593965e+00 -6.989843e+00 -2.917226e+00 -1.340066e+00 -8.647556e+00 -5.494009e+00 -1.376581e+01 -4.151884e+00 1.792907e+00 -1.576908e+00 -2.514930e+00 -5.106871e+00 6.327579e+01 9.640140e-03 -2.014484e-01 4.360686e-01 3.418905e-01 -2.624647e-01 -2.707208e-01 -5.773264e-01 3.843154e-01 -6.488479e-01 -2.425444e-01 3.112951e-01 3.466780e-01 -1.477828e-01 1.876928e-01 -2.666782e-01 -9.553869e-02 -6.949294e-01 -4.488391e-01 3.407088e-01 -5.540192e-03 3.002996e-01 -3.416197e-01 7.598993e-02 2.147595e-01 -3.376985e-01 5.987852e-01
<VARIANCE> 39
 2.386968e+01 2.324909e+01 4.892731e+01 3.692160e+01 4.832125e+01 4.736826e+01 5.116892e+01 6.381068e+01 4.554917e+01 4.408656e+01 3.494331e+01 3.027706e+01 4.186671e+01 2.043793e+00 2.026561e+00 3.019400e+00 2.322930e+00 4.268993e+00 3.906568e+00 3.607692e+00 4.288058e+00 4.357802e+00 3.325070e+00 3.367143e+00 3.042660e+00 2.084566e+00 5.356764e-01 5.112872e-01 6.269993e-01 8.611771e-01 1.144139e+00 9.675930e-01 9.702464e-01 1.063601e+00 1.153727e+00 9.651609e-01 8.892313e-01 6.812581e-01 5.551766e-01
<GCONST> 1.315221e+02
<STATE> 4
<MEAN> 39
 2.522818e-01 -8.485906e+00 -4.902066e+00 -2.552497e+00 -1.093256e+01 -5.174367e+00 -1.436569e+01 -3.340163e+00 5.681701e-01 -1.014543e+00 -1.116243e+00 -6.771014e+00 6.385860e+01 2.093848e-01 1.231058e-01 3.270890e-01 -1.916052e-01 -2.272910e-01 2.697807e-01 1.672355e-01 1.849821e-01 -7.204431e-01 -1.158750e-01 1.642144e-01 -5.362197e-02 -3.494263e-01 -1.385844e-01 1.329259e-01 1.096838e-01 -1.788506e-01 5.922331e-02 1.610743e-01 2.538862e-01 -1.359746e-02 -8.325818e-02 -5.424646e-02 -9.109158e-02 -4.519320e-02 -9.116399e-02
<VARIANCE> 39
 2.818397e+01 3.318039e+01 6.927979e+01 4.246021e+01 6.558624e+01 6.113455e+01 6.253806e+01 7.711874e+01 5.522352e+01 5.167064e+01 5.017270e+01 4.329649e+01 6.556291e+01 2.475647e+00 3.322751e+00 3.194454e+00 2.629167e+00 5.025465e+00 3.718051e+00 4.082897e+00 4.505377e+00 4.555761e+00 3.468885e+00 3.501008e+00 3.003105e+00 4.561864e+00 4.238650e-01 4.229206e-01 4.405088e-01 5.260987e-01 8.012370e-01 6.524415e-01 7.103966e-01 7.172319e-01 7.180771e-01 6.634986e-01 6.388543e-01 5.563256e-01 5.099446e-01
<GCONST> 1.328576e+02
<TRANSP> 5
 0.000000e+00 1.000000e+00 0.000000e+00 0.000000e+00 0.000000e+00
 0.000000e+00 3.655406e-01 6.344594e-01 0.000000e+00 0.000000e+00
 0.000000e+00 0.000000e+00 3.420127e-01 6.579874e-01 0.000000e+00
 0.000000e+00 0.000000e+00 0.000000e+00 6.189482e-01 3.810518e-01
 0.000000e+00 0.000000e+00 0.000000e+00 0.000000e+00 0.000000e+00
<ENDHMM>
~h "s"
<BEGINHMM>
<NUMSTATES> 5
<STATE> 2
<MEAN> 39
 -1.211858e+01 2.741849e+00 -5.520768e-01 -3.733392e+00 -2.819196e+00 -7.087539e+00 -7.678584e+00 -1.569860e+00 -2.805187e+00 -2.303921e+00 -4.130494e+00 -2.741180e+00 6.304523e+01 -4.460510e+00 2.131289e+00 -6.186748e-01 6.694943e-01 1.787551e+00 -4.213212e-01 1.506625e+00 6.312298e-01 2.948222e-01 -3.601453e-01 4.315129e-01 8.668912e-01 -4.628889e-01 -3.540495e-01 -4.617992e-01 -2.960955e-01 -2.837117e-01 -3.808754e-01 2.767130e-01 -1.880114e-01 -2.381633e-02 -7.338537e-02 2.215722e-02 2.400315e-01 -1.188900e-01 -1.042124e-02
<VARIANCE> 39
 7.797194e+01 4.913460e+01 4.845596e+01 4.234485e+01 5.371720e+01 4.713758e+01 7.547613e+01 5.423894e+01 4.478300e+01 3.880109e+01 4.094460e+01 3.187484e+01 6.711611e+01 3.557805e+00 5.277772e+00 4.088368e+00 4.216303e+00 5.400481e+00 4.513484e+00 5.327327e+00 5.281255e+00 4.139501e+00 3.550114e+00 3.676645e+00 2.923572e+00 2.776651e+00 1.071101e+00 9.182626e-01 4.349519e-01 5.875435e-01 7.655976e-01 6.197349e-01 9.236662e-01 7.279436e-01 6.403715e-01 6.114642e-01 5.779914e-01 4.783176e-01 2.473093e-01
<GCONST> 1.347995e+02
<STATE> 3
<MEAN> 39
 -2.887822e+01 4.248377e+00 -5.531414e+00 -4.055511e+00 -5.205128e-01 -6.200439e+00 -4.794058e+00 -2.026851e-01 -2.021294e+00 -2.087930e+00 -7.006521e-01 -1.651985e-01 6.064821e+01 -7.737300e-01 -4.828093e-01 -4.443992e-01 -2.012836e-01 -1.584733e-01 6.681675e-02 6.972899e-02 5.946778e-02 1.016180e-01 9.125949e-02 1.980797e-01 1.966288e-01 -2.412093e-01 8.889999e-01 -2.074852e-01 2.375306e-01 -2.581818e-02 -1.917675e-01 -7.382478e-02 -1.839731e-01 -1.004166e-01 3.376105e-03 -6.440267e-03 -1.576461e-01 -1.356022e-01 6.434267e-02
<VARIANCE> 39
 2.397268e+01 2.193526e+01 3.537659e+01 3.214879e+01 3.499487e+01 3.653677e+01 4.702934e+01 2.869043e+01 3.013483e+01 2.286644e+01 2.327733e+01 1.947343e+01 2.796109e+01 2.755257e+00 1.506390e+00 1.740922e+00 1.421544e+00 1.658859e+00 1.786229e+00 1.892862e+00 1.891039e+00 1.917802e+00 1.746573e+00 1.697712e+00 1.453464e+00 8.598821e-01 4.507779e-01 3.095897e-01 3.202609e-01 3.118947e-01 3.847048e-01 3.763233e-01 4.425609e-01 4.255752e-01 3.997602e-01 3.678542e-01 3.549869e-01 3.191263e-01 1.535119e-01
<GCONST> 1.081303e+02
<STATE> 4
<MEAN> 39
 -2.183548e+01 6.330083e-01 -4.732304e+00 -4.878026e+00 -3.109962e+00 -7.749883e+00 -6.475236e+00 -9.286070e-01 -1.403940e+00 -2.226077e+00 -2.406703e+00 -1.117424e+00 5.999740e+01 4.650529e+00 -7.161888e-01 1.097872e+00 -3.199554e-01 -1.247258e+00 1.582737e-02 -1.664480e+00 -9.616804e-01 -4.671460e-02 -3.769209e-02 -7.404943e-01 -1.234839e+00 4.348213e-01 7.522853e-01 -4.878075e-02 2.405108e-01 -1.268978e-01 -2.535482e-01 3.475043e-01 -3.875499e-01 -1.852664e-01 -1.138782e-01 2.452667e-02 8.524163e-02 -2.798688e-01 3.012671e-01
<VARIANCE> 39
 6.988271e+01 2.822580e+01 4.278297e+01 3.212920e+01 3.634786e+01 3.915240e+01 5.795498e+01 3.601576e+01 3.292296e+01 2.659905e+01 2.773437e+01 2.533183e+01 5.128815e+01 6.214035e+00 3.919001e+00 4.946046e+00 3.992821e+00 3.825236e+00 4.604145e+00 5.292960e+00 5.062519e+00 4.612213e+00 2.996931e+00 3.033355e+00 2.895529e+00 5.559924e+00 1.364851e+00 6.032206e-01 6.153230e-01 5.783696e-01 6.143268e-01 7.431187e-01 9.455741e-01 8.420830e-01 7.159822e-01 5.659013e-01 6.002812e-01 5.377876e-01 5.105664e-01
<GCONST> 1.325630e+02
<TRANSP> 5
 0.000000e+00 1.000000e+00 0.000000e+00 0.000000e+00 0.000000e+00
 0.000000e+00 7.228280e-01 2.771720e-01 0.000000e+00 0.000000e+00
 0.000000e+00 0.000000e+00 8.497046e-01 1.502954e-01 0.000000e+00
 0.000000e+00 0.000000e+00 0.000000e+00 6.881774e-01 3.118226e-01
 0.000000e+00 0.000000e+00 0.000000e+00 0.000000e+00 0.000000e+00
<ENDHMM>
~h "t"
<BEGINHMM>
<NUMSTATES> 5
<STATE> 2
<MEAN> 39
 -4.697675e+00 1.269606e+00 -2.448730e+00 -4.396522e+00 -7.143151e+00 -6.080076e+00 -9.928070e+00 -5.721700e+00 -1.744434e+00 -1.592775e+00 -4.957304e+00 -6.344580e+00 4.504057e+01 -9.220487e-01 2.591525e-01 -2.938774e-01 1.368613e-01 6.122184e-02 -1.051912e-01 6.404863e-01 7.895616e-02 -1.788134e-01 -2.424762e-01 5.423926e-02 4.652860e-01 -2.439967e+00 -2.504231e-01 -4.857096e-01 -7.135995e-02 -2.291372e-01 -5.672211e-02 4.089720e-02 -5.008027e-02 1.347350e-01 -2.352067e-02 1.366392e-02 1.636633e-01 1.218619e-01 1.018430e+00
<VARIANCE> 39
 3.310337e+01 3.133632e+01 5.037848e+01 3.961866e+01 3.600778e+01 4.105388e+01 4.490821e+01 4.512204e+01 4.835175e+01 3.310141e+01 3.827496e+01 3.202343e+01 7.426396e+01 1.878425e+00 2.157693e+00 1.980622e+00 2.326072e+00 2.930250e+00 2.512155e+00 2.928342e+00 2.746374e+00 2.609215e+00 2.407706e+00 2.369945e+00 2.067418e+00 5.426363e+00 3.643913e-01 5.012928e-01 4.446453e-01 5.262145e-01 6.647580e-01 5.385777e-01 5.768929e-01 5.848629e-01 5.747699e-01 4.987105e-01 4.915255e-01 4.319298e-01 9.991688e-01
<GCONST> 1.239899e+02
<STATE> 3
<MEAN> 39
 -9.714059e+00 1.085456e+00 -1.971643e+00 -2.924502e+00 -6.030965e+00 -5.747269e+00 -7.149722e+00 -4.995859e+00 -3.442150e+00 -2.427942e+00 -3.242609e+00 -3.176807e+00 4.054340e+01 -1.742039e+00 -2.146966e+00 -6.572883e-01 -1.088084e+00 4.393100e-01 -2.838781e-01 9.862632e-02 5.644372e-01 9.177470e-02 -1.530525e-01 3.844537e-01 5.966508e-01 4.384293e+00 5.922955e-01 -3.782075e-01 6.070440e-03 -4.397043e-01 -3.700674e-01 2.071629e-02 -5.592846e-01 -5.878194e-02 2.038167e-01 9.552610e-02 -5.722311e-02 -4.117258e-01 2.098862e+00
<VARIANCE> 39
 3.270597e+01 2.772754e+01 3.330578e+01 2.686773e+01 3.048574e+01 3.387774e+01 3.308194e+01 3.408165e+01 3.454673e+01 2.448222e+01 2.692803e+01 2.159585e+01 7.017439e+01 3.402365e+00 3.441772e+00 4.162697e+00 3.632730e+00 4.177166e+00 4.256667e+00 4.195712e+00 4.394313e+00 4.692899e+00 3.145629e+00 3.559304e+00 3.113449e+00 1.069447e+01 5.683467e-01 6.129017e-01 7.363223e-01 6.081392e-01 7.456993e-01 7.774637e-01 7.650306e-01 8.047059e-01 8.137951e-01 5.629310e-01 5.815741e-01 5.239617e-01 1.174150e+00
<GCONST> 1.303479e+02
<STATE> 4
<MEAN> 39
 -1.302958e+01 -6.252190e+00 -4.577715e+00 -7.765674e+00 -6.238947e+00 -7.938487e+00 -8.619179e+00 -3.491341e+00 -2.390075e+00 -2.613238e+00 -2.981237e+00 -2.634527e+00 6.080342e+01 1.527119e+00 -1.126940e+00 3.740994e-02 -1.359909e+00 -8.957089e-01 3.186780e-01 -1.683224e+00 -2.567300e-03 6.426431e-01 2.780527e-01 1.523015e-01 -1.054008e+00 6.066029e+00 1.225849e+00 5.205322e-01 4.113447e-01 1.054883e-01 -4.537589e-01 6.050606e-01 -4.476894e-01 -1.847233e-01 -2.278930e-02 1.121243e-01 4.930383e-02 -4.983278e-01 -8.734094e-01
<VARIANCE> 39
 3.159477e+01 2.498019e+01 2.964163e+01 2.744874e+01 3.039531e+01 3.530475e+01 3.826173e+01 3.216390e+01 3.451391e+01 2.785593e+01 2.820317e+01 2.672714e+01 6.739725e+01 5.322909e+00 4.882827e+00 7.096373e+00 5.309887e+00 5.585353e+00 5.895297e+00 6.095490e+00 6.381067e+00 7.377522e+00 3.764443e+00 4.676527e+00 4.135626e+00 1.191429e+01 7.459366e-01 7.508910e-01 9.674383e-01 8.221971e-01 9.732364e-01 1.063425e+00 1.080787e+00 1.091911e+00 1.058600e+00 8.083812e-01 8.470553e-01 7.842584e-01 1.225707e+00
<GCONST> 1.386838e+02
<TRANSP> 5
 0.000000e+00 1.000000e+00 0.000000e+00 0.000000e+00 0.000000e+00
 0.000000e+00 7.779395e-01 2.220605e-01 0.000000e+00 0.000000e+00
 0.000000e+00 0.000000e+00 4.811996e-01 5.188004e-01 0.000000e+00
 0.000000e+00 0.000000e+00 0.000000e+00 4.852602e-01 5.147398e-01
 0.000000e+00 0.000000e+00 0.000000e+00 0.000000e+00 0.000000e+00
<ENDHMM>
~h "u"
<BEGINHMM>
<NUMSTATES> 5
<STATE> 2
<MEAN> 39
 3.645693e-01 1.148020e+00 -2.325267e+00 -9.075986e+00 -1.167402e+01 -4.005243e-01 -1.767777e+01 -8.734282e+00 -6.784725e+00 -2.256251e+00 7.132059e-01 -4.590217e+00 6.221563e+01 2.294495e+00 8.999397e-01 -2.652641e-01 -2.306669e+00 -1.882630e+00 2.405382e+00 -1.610337e+00 -1.044314e+00 -1.037438e+00 1.642323e-02 1.632933e+00 -2.441893e-01 1.276552e+00 -4.345631e-01 3.074510e-02 1.149704e-01 -5.486146e-02 1.244656e-01 2.211598e-01 5.064061e-01 1.886606e-01 -7.591482e-02 -8.571070e-02 -6.084729e-02 1.221712e-01 -5.415722e-01
<VARIANCE> 39
 2.533236e+01 3.928753e+01 3.899022e+01 8.329745e+01 5.279507e+01 5.648871e+01 8.427180e+01 7.987349e+01 5.942954e+01 5.130400e+01 4.117702e+01 3.439755e+01 8.068321e+01 4.556995e+00 3.298184e+00 4.846411e+00 5.361232e+00 6.243437e+00 4.846862e+00 6.296017e+00 7.806098e+00 5.508229e+00 5.500424e+00 4.245349e+00 3.716123e+00 3.994327e+00 7.222562e-01 6.115857e-01 5.333892e-01 9.698710e-01 8.321020e-01 7.935318e-01 1.188736e+00 1.077718e+00 9.000143e-01 8.024220e-01 6.694821e-01 6.010308e-01 9.247052e-01
<GCONST> 1.410188e+02
<STATE> 3
<MEAN> 39
 2.852061e+00 1.814487e+00 -3.570725e+00 -1.365365e+01 -1.576134e+01 7.785807e+00 -1.906037e+01 -1.142772e+01 -9.166073e+00 -3.795328e+00 5.458582e+00 -3.552902e+00 6.524908e+01 2.170353e-01 9.271356e-02 -3.829386e-02 -5.869074e-01 -5.084633e-02 7.331605e-01 -7.514256e-02 -9.573418e-02 -3.371059e-01 1.077030e-01 4.222545e-01 6.152046e-03 2.104787e-02 -4.131132e-01 -1.421418e-01 2.044068e-01 7.888204e-01 6.595300e-01 -9.427717e-01 5.000336e-01 3.458400e-01 3.833928e-01 1.071762e-01 -7.398208e-01 -1.100448e-01 -4.843813e-01
<VARIANCE> 39
 1.313169e+01 3.562725e+01 3.698053e+01 7.394052e+01 5.022613e+01 5.135250e+01 8.290962e+01 9.755666e+01 7.047655e+01 6.940550e+01 4.997968e+01 4.302574e+01 2.526510e+01 8.646398e-01 3.030812e+00 1.822859e+00 5.851548e+00 4.041019e+00 4.570292e+00 5.125317e+00 5.630015e+00 5.016325e+00 4.797887e+00 3.952210e+00 3.009069e+00 2.074125e+00 3.438269e-01 4.541427e-01 4.566503e-01 7.311148e-01 8.344038e-01 6.561593e-01 9.904185e-01 1.118676e+00 9.088093e-01 9.837537e-01 7.696002e-01 6.751168e-01 3.311814e-01
<GCONST> 1.326600e+02
<STATE> 4
<MEAN> 39
 3.186608e+00 3.921322e+00 -3.358856e+00 -1.539750e+01 -1.357636e+01 4.757925e+00 -1.665165e+01 -7.720568e+00 -9.853048e+00 -3.377661e+00 1.862429e+00 -4.584260e+00 6.168866e+01 -2.019341e-01 -1.533298e-01 2.460507e-01 8.748466e-01 6.430508e-01 -7.396058e-01 6.071318e-01 9.812962e-02 5.490398e-01 2.536532e-01 -6.729940e-01 -1.990516e-01 -7.972584e-01 -1.783315e-01 -8.683871e-02 1.147060e-01 3.536399e-01 1.264804e-01 -1.943746e-01 1.322584e-01 -6.594192e-02 1.606544e-01 3.268114e-03 -1.452246e-01 1.266545e-02 -1.740469e-01
<VARIANCE> 39
 1.289403e+01 4.383767e+01 3.996257e+01 7.493623e+01 5.280584e+01 5.550337e+01 7.666969e+01 8.103970e+01 6.871098e+01 6.622388e+01 5.127858e+01 4.538065e+01 4.940431e+01 8.085296e-01 2.281216e+00 1.861651e+00 3.733165e+00 3.182684e+00 3.264825e+00 3.430100e+00 3.717942e+00 3.268122e+00 3.337597e+00 3.328445e+00 2.746042e+00 3.028938e+00 1.684535e-01 3.506440e-01 2.840523e-01 4.952629e-01 4.798521e-01 4.604346e-01 6.236076e-01 6.635631e-01 5.511747e-01 6.345342e-01 5.484033e-01 5.027074e-01 2.739152e-01
<GCONST> 1.251432e+02
<TRANSP> 5
 0.000000e+00 1.000000e+00 0.000000e+00 0.000000e+00 0.000000e+00
 0.000000e+00 4.797898e-01 5.202102e-01 0.000000e+00 0.000000e+00
 0.000000e+00 0.000000e+00 6.137290e-01 3.862710e-01 0.000000e+00
 0.000000e+00 0.000000e+00 0.000000e+00 7.602669e-01 2.397331e-01
 0.000000e+00 0.000000e+00 0.000000e+00 0.000000e+00 0.000000e+00
<ENDHMM>
~h "w"
<BEGINHMM>
<NUMSTATES> 5
<STATE> 2
<MEAN> 39
 2.810086e+00 -9.173435e-02 -3.809140e+00 -1.319665e+01 -1.117173e+01 2.893958e+00 -1.283616e+01 -5.905286e+00 -6.356646e+00 -1.724009e+00 1.709080e+00 -5.137686e+00 5.941888e+01 1.475648e+00 1.017596e+00 -3.065445e-02 -2.013962e+00 -1.125559e+00 1.336350e+00 -1.593908e-01 -3.643041e-01 -1.004412e+00 -5.571211e-01 8.657669e-01 6.298462e-01 3.589275e-01 -2.656211e-01 -1.903896e-01 1.478767e-01 -2.436939e-02 -1.540126e-01 -1.392548e-01 1.387565e-01 3.201758e-01 1.399441e-01 -2.062246e-01 -1.508607e-01 6.439016e-02 7.085692e-02
<VARIANCE> 39
 2.602762e+01 6.798869e+01 4.373169e+01 9.048290e+01 5.262600e+01 7.011681e+01 7.546257e+01 5.904232e+01 6.693848e+01 6.035658e+01 5.573959e+01 3.992063e+01 1.189226e+02 2.395405e+00 3.004085e+00 3.106016e+00 4.111584e+00 4.514246e+00 4.641233e+00 4.370317e+00 4.502540e+00 3.962282e+00 4.037666e+00 3.571783e+00 3.562443e+00 4.573670e+00 4.760160e-01 5.104594e-01 4.631570e-01 7.197502e-01 8.122513e-01 7.543117e-01 7.872381e-01 7.341115e-01 7.644995e-01 7.859934e-01 6.793970e-01 5.900504e-01 2.974657e-01
<GCONST> 1.360355e+02
<STATE> 3
<MEAN> 39
 5.866631e+00 1.074636e+00 -3.961349e+00 -2.256618e+01 -1.641617e+01 7.632594e+00 -1.259944e+01 -4.292443e+00 -6.302463e+00 -4.999866e+00 2.228913e+00 -2.871797e+00 6.337903e+01 -2.915171e-02 -3.752267e-01 -2.362289e-01 -5.675888e-01 -3.583829e-02 4.594062e-01 7.019568e-02 -8.452176e-02 1.997941e-01 8.893619e-02 2.759109e-01 1.317043e-01 4.521647e-01 -2.511466e-01 -4.850476e-01 -1.790548e-01 3.402259e-01 4.391826e-01 -5.431615e-02 -7.966114e-03 -1.153534e-01 2.474205e-01 3.607718e-01 -1.835170e-03 -3.659569e-01 2.845656e-01
<VARIANCE> 39
 1.020118e+01 3.867383e+01 3.391687e+01 5.744088e+01 5.047632e+01 4.736216e+01 5.068739e+01 5.512587e+01 6.447942e+01 5.243797e+01 4.984796e+01 3.560660e+01 3.117710e+01 4.375882e-01 2.702686e+00 1.473207e+00 1.995629e+00 2.340398e+00 2.378540e+00 2.048843e+00 2.092630e+00 2.011577e+00 2.644655e+00 2.457238e+00 2.060215e+00 1.757432e+00 6.844635e-02 1.731197e-01 1.970335e-01 3.265341e-01 3.383546e-01 4.436554e-01 3.716215e-01 3.796245e-01 3.900992e-01 3.920409e-01 4.325610e-01 4.374130e-01 1.224628e-01
<GCONST> 1.115907e+02
<STATE> 4
<MEAN> 39
 3.128177e+00 -7.475203e+00 -8.479293e+00 -2.145882e+01 -1.031794e+01 1.022946e+01 -1.147659e+01 -6.886297e+00 -2.640462e+00 5.764304e-02 5.006824e+00 -8.107614e+00 6.966975e+01 -9.400178e-01 -2.037950e+00 -4.978306e-01 1.473316e+00 1.717196e+00 -6.500268e-01 -1.849826e-01 1.470814e-01 1.416664e+00 9.197603e-01 -1.039348e+00 -2.144833e+00 1.267573e+00 -3.678288e-02 2.162440e-01 3.768450e-01 4.363532e-01 -2.257151e-01 -6.313556e-01 -4.138066e-02 4.292408e-01 4.846996e-02 -4.265930e-01 -5.809361e-01 7.861085e-02 -2.437145e-01
<VARIANCE> 39
 1.223822e+01 3.702204e+01 4.119031e+01 6.412254e+01 4.713255e+01 6.087288e+01 6.634216e+01 6.002813e+01 7.106262e+01 5.681942e+01 5.805684e+01 5.187827e+01 2.560850e+01 2.988011e-01 1.270160e+00 1.482463e+00 2.006432e+00 2.245568e+00 3.355216e+00 2.593551e+00 2.925142e+00 2.399359e+00 2.735304e+00 3.240632e+00 2.184759e+00 6.391256e-01 8.014270e-02 1.964383e-01 1.737750e-01 3.085466e-01 4.514782e-01 4.045766e-01 4.258996e-01 4.656002e-01 4.118861e-01 4.674588e-01 4.605971e-01 6.340898e-01 9.641607e-02
<GCONST> 1.134258e+02
<TRANSP> 5
 0.000000e+00 1.000000e+00 0.000000e+00 0.000000e+00 0.000000e+00
 0.000000e+00 6.401743e-01 3.598258e-01 0.000000e+00 0.000000e+00
 0.000000e+00 0.000000e+00 8.007564e-01 1.992436e-01 0.000000e+00
 0.000000e+00 0.000000e+00 0.000000e+00 6.644990e-01 3.355010e-01
 0.000000e+00 0.000000e+00 0.000000e+00 0.000000e+00 0.000000e+00
<ENDHMM>
~h "y"
<BEGINHMM>
<NUMSTATES> 5
<STATE> 2
<MEAN> 39
 -6.049565e+00 -2.444922e+00 1.067956e+01 -7.358933e+00 -1.562145e+01 -6.550169e+00 -1.230873e+01 -6.370552e-01 -8.520374e+00 -3.755075e+00 8.030002e-01 -4.371109e+00 6.136466e+01 5.224226e-02 7.559868e-01 2.667724e+00 -1.642340e-01 -1.624595e+00 -3.294323e-01 -1.213911e+00 -4.800431e-01 -1.297395e+00 -1.499925e-01 1.351658e+00 4.744044e-01 1.040411e+00 2.022152e-03 -1.616852e-01 -3.682809e-01 -6.326601e-02 1.807032e-01 2.240276e-01 -3.241688e-02 -1.375735e-01 1.523124e-01 -2.397623e-02 -1.059220e-01 -3.433550e-02 5.825135e-02
<VARIANCE> 39
 3.373140e+01 7.137169e+01 8.543305e+01 5.259296e+01 6.411896e+01 6.992444e+01 6.772395e+01 8.916210e+01 6.638592e+01 5.786365e+01 4.347820e+01 3.681016e+01 1.585064e+02 2.809516e+00 3.221154e+00 4.541573e+00 3.342962e+00 4.169376e+00 4.089098e+00 4.574314e+00 5.094613e+00 4.470229e+00 4.314545e+00 3.208458e+00 2.922920e+00 5.727025e+00 3.455693e-01 4.904187e-01 9.165881e-01 5.245855e-01 8.392965e-01 7.552953e-01 8.187208e-01 8.544112e-01 7.536808e-01 6.506211e-01 5.808585e-01 4.666412e-01 4.516876e-01
<GCONST> 1.374026e+02
<STATE> 3
<MEAN> 39
 -6.075806e+00 -2.120342e+00 1.681061e+01 -8.273254e+00 -2.056954e+01 -7.342144e+00 -1.606873e+01 -3.344887e+00 -1.111427e+01 -3.747174e+00 3.947342e+00 -2.656536e+00 6.740135e+01 8.727939e-02 -5.249897e-01 -4.114266e-01 -1.714723e-01 -4.678425e-01 -3.973449e-01 8.470422e-02 3.796944e-01 3.923986e-01 2.496464e-01 2.819586e-01 1.679577e-01 5.595834e-01 1.178290e-01 -3.464921e-01 -6.844052e-01 -4.281088e-02 2.154344e-01 -5.565969e-02 3.553491e-01 4.641674e-01 4.763050e-01 3.120393e-02 -3.033776e-01 -1.639788e-01 7.612951e-02
<VARIANCE> 39
 1.312423e+01 3.882948e+01 5.559578e+01 4.869813e+01 3.327367e+01 5.227328e+01 4.696295e+01 7.015111e+01 6.190712e+01 7.307215e+01 4.173421e+01 4.115411e+01 3.406258e+01 4.665143e-01 2.126001e+00 3.139681e+00 1.185262e+00 1.690818e+00 1.877019e+00 2.176115e+00 3.218266e+00 2.859414e+00 1.852548e+00 1.457005e+00 1.307203e+00 1.458581e+00 7.632276e-02 1.639343e-01 2.451673e-01 1.920951e-01 4.015152e-01 3.244829e-01 3.842219e-01 3.737154e-01 3.681699e-01 4.084786e-01 3.658572e-01 2.800631e-01 1.275916e-01
<GCONST> 1.102187e+02
<STATE> 4
<MEAN> 39
 -3.874631e+00 -9.720740e+00 6.320701e+00 -1.073895e+01 -2.053037e+01 -1.013065e+01 -1.102004e+01 6.047356e+00 -2.989066e+00 -3.382184e+00 1.557286e+00 -3.950143e+00 7.257755e+01 5.105983e-01 -1.650158e+00 -3.072900e+00 -2.393755e-01 1.792068e+00 7.145282e-01 1.220177e+00 1.740806e+00 1.931168e+00 -7.865300e-01 -2.238836e+00 -1.173666e+00 7.113004e-01 -1.612133e-03 2.193609e-01 2.305719e-02 1.230914e-01 6.761787e-01 5.547322e-01 -2.708705e-01 -6.530570e-01 -2.675743e-01 -1.984692e-01 -3.218770e-01 -2.379056e-01 -3.015885e-01
<VARIANCE> 39
 1.162001e+01 2.799484e+01 4.983780e+01 4.286771e+01 3.807617e+01 4.284492e+01 5.913616e+01 7.110796e+01 6.209351e+01 5.505888e+01 5.029169e+01 3.514472e+01 2.373802e+01 3.844715e-01 1.188574e+00 1.748024e+00 1.363749e+00 2.429443e+00 2.239493e+00 3.022403e+00 3.527976e+00 2.812003e+00 3.419204e+00 2.486627e+00 1.883981e+00 6.221840e-01 6.831218e-02 1.662840e-01 2.956875e-01 2.483554e-01 3.977931e-01 3.517952e-01 4.606884e-01 6.010348e-01 4.588295e-01 5.125991e-01 5.919257e-01 3.247854e-01 9.072049e-02
<GCONST> 1.112949e+02
<TRANSP> 5
 0.000000e+00 1.000000e+00 0.000000e+00 0.000000e+00 0.000000e+00
 0.000000e+00 6.996875e-01 3.003125e-01 0.000000e+00 0.000000e+00
 0.000000e+00 0.000000e+00 8.059627e-01 1.940373e-01 0.000000e+00
 0.000000e+00 0.000000e+00 0.000000e+00 6.756960e-01 3.243040e-01
 0.000000e+00 0.000000e+00 0.000000e+00 0.000000e+00 0.000000e+00
<ENDHMM>
~h "z"
<BEGINHMM>
<NUMSTATES> 5
<STATE> 2
<MEAN> 39
 -7.835277e+00 4.671922e+00 2.707191e+00 -6.247337e-01 -5.757864e+00 -1.041355e+01 -1.276023e+01 -4.079798e+00 -2.950462e+00 -2.858366e+00 -4.420012e+00 -1.761875e+00 6.198276e+01 -2.077768e+00 2.506619e+00 -3.214950e-01 1.019807e+00 1.596943e+00 -5.573519e-01 1.001511e+00 -6.500596e-02 2.518478e-01 -4.360028e-01 -7.065471e-02 6.366830e-01 -1.423168e-01 -3.105707e-01 -7.216063e-02 -1.900121e-01 -1.772429e-01 4.833745e-03 3.851296e-01 2.013677e-01 1.692948e-01 -2.447786e-02 6.579318e-02 1.688068e-01 -1.330175e-01 -6.152270e-02
<VARIANCE> 39
 4.404788e+01 4.606302e+01 4.463556e+01 5.032679e+01 5.480502e+01 4.512508e+01 7.432578e+01 5.673245e+01 4.733461e+01 4.423104e+01 2.917679e+01 3.176952e+01 1.049722e+02 3.267096e+00 3.607405e+00 3.266769e+00 3.427390e+00 3.918187e+00 4.320429e+00 4.688150e+00 5.348917e+00 3.839712e+00 3.412145e+00 3.218618e+00 2.774340e+00 4.332757e+00 4.391824e-01 6.666498e-01 4.537094e-01 4.903727e-01 5.615346e-01 5.786795e-01 8.401093e-01 6.703760e-01 5.768675e-01 5.978746e-01 5.217646e-01 5.166569e-01 3.294139e-01
<GCONST> 1.315482e+02
<STATE> 3
<MEAN> 39
 -1.988191e+01 1.214294e+01 6.286085e-01 2.116456e+00 -7.919690e-01 -9.104992e+00 -7.847571e+00 -3.374765e+00 -3.264137e+00 -3.835406e+00 -2.801375e+00 -4.032001e-01 6.241206e+01 -8.820115e-01 -1.532991e-01 6.417324e-04 2.168666e-02 5.994175e-02 1.421682e-01 1.491613e-01 5.870568e-02 -8.635751e-02 -1.115003e-03 2.571320e-01 1.964161e-01 2.167882e-01 5.710620e-01 -5.639922e-01 1.344831e-01 -1.885714e-01 -4.766162e-01 -9.084420e-02 -2.347947e-01 -1.110963e-01 -5.001581e-03 2.780082e-02 -2.161254e-02 -2.682210e-02 2.148779e-01
<VARIANCE> 39
 5.398082e+01 2.769656e+01 3.294697e+01 4.603010e+01 3.793006e+01 4.101699e+01 4.733866e+01 2.857114e+01 2.362934e+01 2.286779e+01 2.294820e+01 1.939167e+01 2.849049e+01 2.733544e+00 2.187074e+00 1.599014e+00 1.264983e+00 2.159899e+00 1.977877e+00 2.053764e+00 1.913356e+00 1.682589e+00 1.446185e+00 1.421096e+00 1.244267e+00 1.329117e+00 3.637170e-01 3.466070e-01 3.026668e-01 2.986788e-01 4.274804e-01 3.953311e-01 4.329678e-01 3.958004e-01 3.688561e-01 3.198738e-01 2.854258e-01 2.656216e-01 1.783976e-01
<GCONST> 1.092110e+02
<STATE> 4
<MEAN> 39
 -1.760524e+01 4.006962e+00 8.971896e-01 -2.155091e+00 -5.544275e+00 -9.551797e+00 -9.383985e+00 -3.191551e+00 -1.940964e+00 -3.379149e+00 -1.831237e+00 5.801147e-01 6.353655e+01 2.795779e+00 -2.005044e+00 6.050095e-01 -7.901753e-01 -2.326176e+00 -3.698384e-01 -1.361160e+00 -4.879740e-01 4.286704e-01 8.666893e-02 -9.621855e-02 -3.964866e-01 1.225812e+00 3.885954e-01 -1.298096e-01 2.997452e-02 -1.487948e-01 -1.205073e-01 3.798957e-01 -1.673358e-01 6.542080e-02 -1.834564e-03 1.060675e-02 3.506568e-02 -3.991152e-01 -3.289954e-02
<VARIANCE> 39
 9.063145e+01 3.876501e+01 6.103588e+01 4.675400e+01 5.083254e+01 5.150141e+01 6.636459e+01 3.863694e+01 4.008646e+01 2.289562e+01 2.582046e+01 1.987853e+01 6.500502e+01 5.465986e+00 5.167560e+00 4.078827e+00 3.777809e+00 4.646923e+00 3.992557e+00 4.395026e+00 4.944952e+00 4.627160e+00 2.522710e+00 2.498693e+00 2.357456e+00 3.191338e+00 1.031368e+00 5.750124e-01 5.527253e-01 4.706843e-01 7.413586e-01 7.628091e-01 7.715330e-01 7.277993e-01 6.012850e-01 4.220439e-01 4.741996e-01 3.804607e-01 2.962227e-01
<GCONST> 1.309046e+02
<TRANSP> 5
 0.000000e+00 1.000000e+00 0.000000e+00 0.000000e+00 0.000000e+00
 0.000000e+00 7.266215e-01 2.733785e-01 0.000000e+00 0.000000e+00
 0.000000e+00 0.000000e+00 8.433958e-01 1.566041e-01 0.000000e+00
 0.000000e+00 0.000000e+00 0.000000e+00 7.257692e-01 2.742309e-01
 0.000000e+00 0.000000e+00 0.000000e+00 0.000000e+00 0.000000e+00
<ENDHMM>
~h "ai"
<BEGINHMM>
<NUMSTATES> 5
<STATE> 2
<MEAN> 39
 -1.716797e+00 -1.612490e+01 -3.527866e+00 -1.181331e+01 -9.976315e+00 -2.207932e+00 -9.523499e+00 5.336964e+00 1.380023e+00 -5.686535e+00 -6.590137e+00 -9.303845e+00 7.378357e+01 -3.435302e-01 -6.465691e-02 1.123156e+00 2.260945e-01 -1.199670e+00 -1.226170e+00 7.752600e-01 1.275805e+00 -5.967791e-01 -4.532313e-01 2.265354e-01 6.946067e-01 1.396855e-01 -7.092655e-02 4.859110e-01 3.859127e-01 3.058023e-02 -2.907803e-01 -1.557583e-01 -1.065562e-01 -4.362920e-01 -3.812606e-01 3.705488e-01 4.795095e-01 2.268837e-01 -3.106752e-01
<VARIANCE> 39
 1.330544e+01 2.843855e+01 5.361214e+01 4.102518e+01 6.267097e+01 7.493843e+01 6.247146e+01 7.315815e+01 5.917726e+01 4.970701e+01 5.094499e+01 3.935876e+01 1.982273e+01 3.555548e-01 1.514461e+00 2.033450e+00 1.337141e+00 2.965876e+00 2.815396e+00 2.189429e+00 3.049472e+00 2.313250e+00 2.741203e+00 3.370961e+00 2.037613e+00 4.525754e-01 1.123325e-01 1.660053e-01 2.240383e-01 2.835799e-01 3.962857e-01 4.512581e-01 4.468954e-01 6.892652e-01 4.309806e-01 4.371173e-01 4.791899e-01 4.340870e-01 1.216823e-01
<GCONST> 1.131685e+02
<STATE> 3
<MEAN> 39
 -3.986495e+00 -9.369332e+00 9.557132e+00 -1.088794e+01 -2.196215e+01 -9.722886e+00 -1.005282e+01 4.010629e+00 -7.047696e+00 -1.043521e+00 2.654245e+00 -4.504388e+00 7.142278e+01 -3.119738e-01 1.279368e+00 1.741936e+00 1.296692e-01 -8.380788e-01 -9.830460e-02 -7.419518e-01 -1.633024e+00 -1.405937e+00 7.149302e-01 1.014059e+00 2.770384e-01 -6.527624e-01 7.096708e-02 -5.336261e-03 -2.706104e-01 1.334873e-01 4.650820e-01 2.320580e-01 -8.981247e-02 -1.401224e-01 1.399877e-01 -2.119773e-01 -3.813632e-01 -1.724953e-01 -1.340268e-01
<VARIANCE> 39
 1.228238e+01 3.124804e+01 4.999854e+01 3.850961e+01 3.154970e+01 4.555219e+01 5.078094e+01 8.257714e+01 6.028373e+01 5.351125e+01 4.869645e+01 3.368160e+01 2.072264e+01 2.608992e-01 8.754975e-01 1.600213e+00 8.992902e-01 1.942666e+00 1.556521e+00 1.848884e+00 2.217522e+00 1.968680e+00 2.185543e+00 2.569551e+00 1.345668e+00 2.434132e-01 4.861013e-02 1.230325e-01 1.709511e-01 1.621278e-01 2.393448e-01 2.796394e-01 3.721421e-01 5.288629e-01 2.974984e-01 3.144660e-01 3.135672e-01 2.496883e-01 5.684023e-02
<GCONST> 1.011878e+02
<STATE> 4
<MEAN> 39
 -4.539804e+00 -1.918509e+00 1.358576e+01 -7.479637e+00 -2.012243e+01 -7.816254e+00 -1.212108e+01 -3.118560e+00 -1.093135e+01 -8.467393e-01 1.494624e+00 -4.837912e+00 6.228704e+01 1.975122e-01 7.340180e-01 -6.222771e-01 8.835358e-01 1.039540e+00 4.693567e-02 3.491911e-01 -3.950019e-01 3.059406e-01 -3.036296e-01 -5.877644e-01 -7.868094e-02 -1.797159e+00 3.151518e-02 -4.401039e-02 -3.694685e-01 8.308690e-02 2.561788e-01 4.276566e-02 1.469400e-01 7.595111e-02 2.637080e-01 -3.967176e-02 -1.194931e-01 1.816282e-02 -1.702659e-01
<VARIANCE> 39
 1.678302e+01 4.550863e+01 4.670264e+01 4.830416e+01 3.897954e+01 6.178399e+01 5.498471e+01 8.363143e+01 5.830867e+01 6.150976e+01 5.238368e+01 3.715593e+01 7.922390e+01 1.123733e+00 1.817073e+00 2.489353e+00 2.100195e+00 2.780459e+00 2.562603e+00 3.115010e+00 3.165276e+00 3.369960e+00 2.577353e+00 2.306987e+00 1.926576e+00 2.667097e+00 1.829692e-01 3.076824e-01 3.502826e-01 3.644153e-01 4.944834e-01 4.903427e-01 5.586168e-01 6.330240e-01 6.078058e-01 4.936277e-01 4.643255e-01 3.578218e-01 3.812314e-01
<GCONST> 1.222871e+02
<TRANSP> 5
 0.000000e+00 1.000000e+00 0.000000e+00 0.000000e+00 0.000000e+00
 0.000000e+00 8.241808e-01 1.758192e-01 0.000000e+00 0.000000e+00
 0.000000e+00 0.000000e+00 8.122359e-01 1.877641e-01 0.000000e+00
 0.000000e+00 0.000000e+00 0.000000e+00 8.258412e-01 1.741588e-01
 0.000000e+00 0.000000e+00 0.000000e+00 0.000000e+00 0.000000e+00
<ENDHMM>
~h "au"
<BEGINHMM>
<NUMSTATES> 5
<STATE> 2
<MEAN> 39
 -8.880770e-01 -1.048171e+01 -9.760912e+00 -1.640461e+01 -7.955246e+00 5.326889e+00 -1.285216e+01 -3.143117e+00 1.533531e+00 -3.623636e-01 -3.034981e+00 -1.086255e+01 7.215880e+01 6.955319e-01 -8.089380e-01 -9.220864e-01 -1.378348e+00 4.851492e-01 2.085593e+00 -2.597660e-01 -9.171805e-02 3.997437e-01 1.548458e-02 4.726150e-01 -9.979649e-01 1.194693e+00 -2.923266e-01 5.057061e-01 3.638150e-01 3.013905e-01 5.308652e-03 -3.357107e-01 2.314102e-01 -3.038036e-01 -5.203170e-01 -5.664103e-03 2.297220e-01 5.357391e-01 -8.446603e-01
<VARIANCE> 39
 1.622964e+01 3.387764e+01 4.680139e+01 5.106067e+01 5.015024e+01 7.721555e+01 6.230619e+01 8.002200e+01 5.740419e+01 5.383511e+01 5.542775e+01 4.036069e+01 3.965439e+01 2.543202e+00 2.593951e+00 2.471349e+00 3.367040e+00 3.772157e+00 4.132311e+00 3.582003e+00 4.284676e+00 3.957092e+00 3.485573e+00 4.573554e+00 3.643279e+00 3.618527e+00 4.143777e-01 3.394869e-01 3.953299e-01 6.489701e-01 5.717573e-01 6.508455e-01 7.198034e-01 6.892264e-01 6.185569e-01 6.321003e-01 7.408815e-01 5.164489e-01 6.913654e-01
<GCONST> 1.308971e+02
<STATE> 3
<MEAN> 39
 7.263657e-01 -7.828985e+00 -1.061917e+01 -2.118926e+01 -9.019418e+00 1.014592e+01 -1.178603e+01 -5.784443e+00 -1.616203e+00 -1.339645e+00 1.758660e+00 -9.326337e+00 7.125287e+01 3.894714e-01 1.104256e+00 2.257404e-01 -8.027953e-01 -6.346152e-01 1.442811e-01 -1.439727e-01 -2.362316e-02 -8.159589e-01 -1.181661e-01 6.350586e-01 9.196866e-01 -6.240743e-01 4.178751e-02 1.686558e-01 1.280093e-01 1.375023e-01 -1.412852e-01 -2.225754e-01 -8.079225e-02 7.367866e-02 -8.762722e-02 -5.270570e-02 -1.407147e-01 1.090872e-01 -1.630455e-01
<VARIANCE> 39
 1.529487e+01 4.104353e+01 3.937035e+01 5.094752e+01 4.789291e+01 4.663603e+01 5.810849e+01 5.918391e+01 5.703922e+01 5.176815e+01 5.393301e+01 5.364204e+01 2.073465e+01 2.593967e-01 9.430057e-01 5.662928e-01 1.130331e+00 1.258395e+00 1.306928e+00 1.425603e+00 1.683205e+00 1.773444e+00 1.730207e+00 1.958458e+00 2.013204e+00 2.978549e-01 4.359031e-02 1.145462e-01 1.000536e-01 2.179378e-01 2.031708e-01 2.211902e-01 2.258690e-01 2.742982e-01 2.684011e-01 2.978818e-01 3.457021e-01 3.388863e-01 4.103255e-02
<GCONST> 9.849728e+01
<STATE> 4
<MEAN> 39
 3.787561e+00 2.356385e+00 -6.515827e+00 -2.135735e+01 -1.353234e+01 6.182082e+00 -1.437349e+01 -4.447068e+00 -7.319529e+00 -2.235553e+00 1.200949e+00 -3.731652e+00 6.187032e+01 -1.574316e-03 5.690171e-01 5.344533e-01 1.637957e+00 2.650314e-01 -1.028896e+00 -2.073669e-02 -2.443978e-01 -2.003319e-01 -4.156718e-02 -5.088817e-01 -6.970334e-02 -1.448071e+00 -1.846415e-01 -2.072556e-01 6.417277e-02 3.951223e-01 2.948815e-01 -1.274616e-01 1.795088e-01 -6.051413e-02 2.036205e-01 4.311743e-02 -1.369087e-01 -1.584333e-01 -8.167037e-02
<VARIANCE> 39
 1.273721e+01 4.215047e+01 3.962183e+01 7.371281e+01 5.564001e+01 5.538982e+01 6.408045e+01 6.736646e+01 6.311956e+01 6.679593e+01 5.376545e+01 4.497709e+01 5.715410e+01 8.565685e-01 2.268519e+00 1.663633e+00 3.738322e+00 3.441845e+00 3.139775e+00 3.226696e+00 3.221122e+00 3.055004e+00 3.348052e+00 3.113264e+00 2.714493e+00 1.843667e+00 1.383880e-01 3.140191e-01 2.690090e-01 5.145407e-01 5.439848e-01 5.722156e-01 5.423058e-01 5.781152e-01 5.427269e-01 5.914531e-01 6.166942e-01 5.331306e-01 2.823739e-01
<GCONST> 1.238601e+02
<TRANSP> 5
 0.000000e+00 1.000000e+00 0.000000e+00 0.000000e+00 0.000000e+00
 0.000000e+00 6.877340e-01 3.122660e-01 0.000000e+00 0.000000e+00
 0.000000e+00 0.000000e+00 8.531483e-01 1.468517e-01 0.000000e+00
 0.000000e+00 0.000000e+00 0.000000e+00 8.496308e-01 1.503691e-01
 0.000000e+00 0.000000e+00 0.000000e+00 0.000000e+00 0.000000e+00
<ENDHMM>
~h "kh"
<BEGINHMM>
<NUMSTATES> 5
<STATE> 2
<MEAN> 39
 -8.687957e+00 -3.379485e+00 -4.333837e+00 -5.638953e+00 -3.086464e+00 -2.499637e+00 -7.631714e+00 -2.845899e+00 -4.842576e+00 -1.060307e+00 -3.317335e+00 -3.512501e+00 5.236926e+01 -1.132188e+00 -7.062805e-01 -1.119774e+00 -1.373000e-01 1.187670e+00 -2.709675e-01 8.780569e-02 5.831611e-01 -1.036056e-02 2.792440e-01 -1.311218e-02 5.091718e-01 5.125847e-01 -1.350133e-02 -2.711865e-01 -5.179863e-02 -2.664410e-01 -2.405607e-01 1.006023e-01 -1.681339e-01 -2.509515e-02 6.886031e-02 7.464866e-02 9.055784e-02 -9.480048e-02 4.505855e-01
<VARIANCE> 39
 4.024660e+01 5.492441e+01 7.862186e+01 5.548653e+01 7.682904e+01 7.564281e+01 5.150095e+01 4.420050e+01 5.553048e+01 3.854377e+01 4.926875e+01 3.415365e+01 1.479247e+02 3.528209e+00 5.747918e+00 5.562635e+00 4.617043e+00 7.001809e+00 6.426524e+00 5.741163e+00 4.754941e+00 5.141452e+00 4.191226e+00 4.416327e+00 3.429907e+00 1.355405e+01 4.973468e-01 9.646177e-01 9.372903e-01 7.300572e-01 1.160210e+00 1.156162e+00 1.000441e+00 7.837439e-01 8.965049e-01 7.771419e-01 8.011802e-01 5.788820e-01 1.571736e+00
<GCONST> 1.442733e+02
<STATE> 3
<MEAN> 39
 -1.521253e+01 -9.377654e+00 -8.915000e+00 -7.558568e+00 7.059508e-01 -2.372136e+00 -7.607200e+00 -9.341427e-01 -2.552655e+00 1.803735e+00 -2.265763e+00 -1.822458e+00 5.993267e+01 -6.714840e-02 -8.763580e-02 8.027619e-02 -4.746489e-01 -5.437803e-01 2.007628e-01 1.593533e-01 -8.025867e-02 -1.033828e-01 -3.366254e-02 2.735231e-01 -8.773589e-02 4.291273e-01 6.041140e-01 3.661069e-01 4.924979e-01 6.834205e-02 -3.958856e-01 1.147209e-01 -7.723691e-02 -1.675529e-01 -1.713369e-01 -2.388569e-01 6.795077e-03 -2.455409e-01 -5.725581e-02
<VARIANCE> 39
 3.243728e+01 3.832734e+01 6.832973e+01 4.469634e+01 7.249607e+01 6.254176e+01 5.046781e+01 4.563752e+01 6.098007e+01 4.447227e+01 4.074122e+01 3.380483e+01 4.460968e+01 3.723971e+00 3.142380e+00 4.031018e+00 3.135886e+00 4.078166e+00 3.929013e+00 3.926682e+00 3.945796e+00 4.110643e+00 3.836568e+00 3.024061e+00 2.475234e+00 2.900530e+00 4.739877e-01 5.486652e-01 6.565745e-01 6.317211e-01 8.046123e-01 8.089284e-01 9.486961e-01 7.800914e-01 8.265814e-01 7.658557e-01 6.130724e-01 4.754103e-01 4.916416e-01
<GCONST> 1.329094e+02
<STATE> 4
<MEAN> 39
 -1.436313e+01 -6.557331e+00 -7.237263e+00 -6.845990e+00 -1.702809e+00 -7.005378e-01 -6.855074e+00 -2.017971e+00 -2.962079e+00 -2.603109e+00 -1.547033e+00 -2.398553e+00 5.084874e+01 6.580262e-01 2.716692e-01 4.000165e-01 -6.913228e-02 -3.222840e-01 1.891251e-01 -2.009474e-01 -1.972823e-01 -2.097811e-01 -1.359437e-01 2.626973e-03 -1.783030e-01 2.302372e-01 2.254505e-01 5.274579e-02 1.052157e-01 -2.383548e-02 -1.286625e-01 2.525052e-02 -1.191084e-01 -4.336051e-02 -5.005839e-02 -4.520918e-03 4.659411e-02 -4.412811e-02 1.035802e-01
<VARIANCE> 39
 3.091223e+01 5.082001e+01 5.761853e+01 4.709040e+01 4.037035e+01 5.000344e+01 5.051191e+01 3.682697e+01 4.864293e+01 3.330001e+01 3.306686e+01 2.768334e+01 1.887328e+02 2.743525e+00 1.934372e+00 2.704144e+00 1.840883e+00 2.406415e+00 2.206959e+00 2.633371e+00 2.427612e+00 2.427950e+00 2.381730e+00 2.207846e+00 1.922456e+00 1.953335e+00 2.550721e-01 2.931597e-01 3.052759e-01 3.420062e-01 3.864825e-01 3.814043e-01 4.622075e-01 4.628792e-01 3.900804e-01 3.770201e-01 4.261990e-01 3.224040e-01 2.394868e-01
<GCONST> 1.185598e+02
<TRANSP> 5
 0.000000e+00 1.000000e+00 0.000000e+00 0.000000e+00 0.000000e+00
 0.000000e+00 7.641693e-01 2.358307e-01 0.000000e+00 0.000000e+00
